svm_type c_svc
kernel_type rbf
gamma 0.03125
nr_class 6
total_sv 180
rho 0.0232272 -0.177571 -0.513032 -0.215259 -0.162688 -0.130187 -0.416716 -0.226931 -0.448494 -0.329353 -0.096219 -0.0558826 0.0276947 0.539019 -0.00441319
label 1 2 3 8 10 0
probA -4.3916 -4.70491 -5.9586 -4.3212 -5.72331 -4.08132 -6.09949 -3.97733 -4.44116 -4.00095 -3.55119 -3.85729 -3.5482 -6.47488 -4.52868
probB -0.161762 0.0866939 1.57722 -0.059579 0.935709 0.228051 2.16775 -0.0298995 0.495881 0.144578 -0.646192 -0.0399266 -0.168615 -3.00309 -1.01405
nr_sv 57 34 30 13 17 29
SV
1 0 0 0.6872536916247552 0 1:1 81:1 96:0 122:1 132:1 
1 0 0.4595201396210449 0 0 1:1 81:1 96:0 106:1 107:1 120:1 122:1 132:1 
1 0 0 0.0931502366854302 0 1:1 81:1 96:0 106:1 107:1 120:0 122:1 132:1 
0.01206155678047963 0.6974585233582072 0 0.4912635357401907 0 1:1 92:1 96:0 97:1 120:0 123:1 132:1 
1 0.9853514208839329 0.3701999329459604 0 0 1:1 24:0 25:1 68:1 72:0 85:1 96:1 123:1 140:1 
0.6610673791668479 0 0 0 0 1:1 18:1 22:1 81:1 96:0 122:1 132:1 
0.1518693976615385 0 0 0 0 1:1 18:1 22:1 81:1 96:0 106:1 107:1 120:1 122:1 132:1 
0 0 0.01334046242100231 0 0 1:1 18:1 22:1 73:1 96:0 109:1 120:1 123:1 132:1 
1 1 0 0 0.8459670295607433 1:1 24:0 49:1 66:1 70:1 85:1 96:1 123:1 133:1 
0.1425989048434328 0 0.1109291346477215 0.7964357265771717 0 1:1 24:0 45:1 69:1 72:0 81:1 96:1 122:1 142:1 
1 0.4549740501323969 0 0.113155724146531 0.2708102372263995 1:1 24:1 45:1 48:0 69:1 72:0 81:1 96:1 122:1 142:1 
0 0 0 0 0.761782367393678 1:1 120:1 132:1 
0 0 0 0 0.01097601365749322 1:1 18:1 22:1 73:1 96:0 120:1 132:1 
1 0 0 0 1 1:1 24:0 49:1 66:1 70:1 120:1 133:1 
0 0 0 0.2532720019284004 0.1928193682253657 1:1 18:1 22:1 73:1 96:0 97:1 120:1 132:1 
1 0.07993031901603848 1 0.2468578373027778 1 1:1 24:0 49:1 66:1 70:1 73:1 96:1 120:1 133:1 
1 1 1 0 1 1:1 24:1 25:1 42:1 46:1 49:1 72:0 120:1 133:1 
0.3872491489591495 0 0 0 1 1:1 120:1 132:1 
0 1 0 0 0 1:1 24:0 49:1 66:1 70:1 85:1 89:1 96:0 109:1 120:1 133:1 
0 0 0 1 1 1:1 18:1 22:1 73:1 96:0 97:1 120:1 132:1 
0 0 0.1514421983677608 0 1 1:1 24:0 49:1 66:1 70:1 73:1 96:0 109:1 113:1 120:1 133:1 
0 1 0 0 0.5327505608004744 1:1 24:0 25:1 42:1 46:1 49:1 72:0 85:1 89:1 96:0 109:1 120:1 133:1 
0 1 0 0.5029221631318598 1 1:1 24:0 25:1 42:1 46:1 72:0 73:1 96:0 109:1 113:1 120:1 132:1 
0.181424432054558 1 0.903786671701273 0 0.7456519365050536 1:1 24:0 48:0 49:1 72:0 85:1 89:1 96:0 109:1 120:1 133:1 
0.4672145956606755 0.7634205064879036 0 0 0 1:1 24:0 25:1 68:1 72:0 85:1 89:1 96:0 109:1 120:1 140:1 
0 0 0 0 1 1:1 92:1 96:0 97:1 120:1 132:1 
1 0 0.6699582589970159 0.5593605066246424 1 1:1 24:0 25:1 68:1 72:0 73:1 96:0 109:1 113:1 120:1 140:1 
0.5194133036357443 1 0.2398854530755095 0 0.4271162584172718 1:1 24:0 44:1 48:0 49:1 72:0 85:1 89:1 96:0 109:1 120:1 133:1 
0 1 0 0 0 1:1 24:0 49:1 66:1 70:1 85:1 96:0 109:1 113:1 120:1 133:1 
0 0 0.3496228882004447 1 0.938535397628063 1:1 18:1 22:1 24:0 73:1 96:0 97:1 120:1 132:1 
0 0.1054576996337114 0.9423193065697669 0.5543149677834687 1 1:1 24:0 49:1 66:1 70:1 72:0 73:1 96:0 109:1 120:1 133:1 
0.1379799380551945 1 0.5518946131286278 0 0 1:1 24:0 25:1 42:1 46:1 48:0 49:1 72:0 85:1 96:0 109:1 113:1 120:1 133:1 
0.5171942775575875 0 0 0 0.913566311287032 1:1 92:1 96:0 97:1 120:1 132:1 
0.00270475787815919 0 0 0 0 1:1 24:0 25:1 68:1 72:0 85:1 96:0 109:1 113:1 120:1 140:1 
0 0.3511302843877936 0 0 0 1:1 18:1 22:1 85:1 96:0 109:1 120:1 132:1 
0 1 0 0 0 1:1 18:1 22:1 24:0 85:1 96:0 109:1 120:1 132:1 
0 1 0 0 0.2704181328747302 1:1 24:0 49:1 66:1 70:1 85:1 96:0 109:1 120:1 133:1 
0 0 1 0 0 1:1 81:1 96:0 120:1 132:1 
0 0 0 0.004237875055449455 0 1:1 96:0 116:1 120:1 132:1 
0 0 0 1 1 1:1 24:0 92:1 96:0 105:1 120:1 132:1 
0 0 0 0 1 1:1 96:0 116:1 120:1 132:1 
0 0 1 0 1 1:1 24:0 81:1 96:0 105:1 106:1 120:1 132:1 
0 0 0 1 1 1:1 24:0 92:1 96:0 105:1 120:1 132:1 
0 0 0 0 1 1:1 24:0 96:0 116:1 120:1 132:1 
1 0.768290171222599 0 0.9259894463997355 1 1:1 96:0 120:1 132:1 
0 0.4481327527578094 1 0 1 1:1 24:0 72:0 81:1 96:1 105:1 106:1 120:1 132:1 
1 0 1 0 1 1:1 81:1 82:1 96:0 105:1 120:1 132:1 
0 0 0 0 1 1:1 96:0 116:1 120:1 132:1 
0.5258286527915486 0.4136294636342674 0 0.39755939742565 0.1905064680962834 1:1 96:0 116:1 120:1 132:1 
0 0 0.2636740122082218 0.7241040757222018 1 1:1 92:1 96:0 105:1 106:1 120:1 132:1 
0.5329198917253491 0 1 0.2310317079366535 1 1:1 24:0 72:0 81:1 82:1 96:0 105:1 120:1 132:1 
0 0 0 0.1376140359248391 0 1:1 24:0 69:1 81:1 96:1 127:1 142:1 
0.03001650480799566 0 0.4865917521736373 0.6982649954399539 0 1:1 24:0 69:1 81:1 96:1 127:1 142:1 
0 0 0 0.2617511276242805 0 1:1 24:0 45:1 69:1 72:0 81:1 96:1 127:1 142:1 
0 0 0.340895724618037 0.6277201606134095 0 1:1 24:0 69:1 81:1 96:1 125:1 142:1 
0 0 0.1459394513239762 0.618297559122047 0 1:1 24:0 45:1 69:1 72:0 81:1 96:1 125:1 142:1 
1 0.4571102553932507 0 0.2965377462081162 0.2710351877676899 1:1 24:1 45:1 48:0 69:1 72:0 81:1 96:1 125:1 142:1 
-1 1 1 1 1 9:1 122:1 132:1 
-1 0 0 1 0.4998724898117399 9:1 82:1 83:1 96:0 122:1 132:1 
-1 0 0.09717116781723593 1 1 10:1 11:1 24:0 57:1 122:1 134:1 
-0.5696479330946621 0 0 0.4359720784541278 1 9:1 24:0 49:1 122:1 133:1 
-0 0 0 0.1374927083837044 0 10:1 11:1 24:1 25:1 57:1 72:0 122:1 134:1 
-0.08565172742152982 0.1155949594425446 1 0.7130694336455489 1 9:1 24:0 49:1 82:1 83:1 96:0 105:1 106:1 120:1 122:1 133:1 
-1 0 1 0.1264274009983602 0 10:1 11:1 24:0 25:1 57:1 72:0 81:1 82:1 96:1 122:1 134:1 
-1 1 0.2879281658094427 0.4027910056518519 1 9:1 24:0 49:1 66:1 70:1 122:1 133:1 
-0.4642569690115712 0.1789959431867022 0 0 0 9:1 24:0 49:1 66:1 70:1 82:1 83:1 96:1 122:1 133:1 
-0.624421462997316 1 0 0.3983814611377261 0 10:1 11:1 24:1 25:1 42:1 46:1 57:1 72:0 122:1 134:1 
-1 1 1 1 1 9:1 120:1 132:1 
-1 1 1 0.5249919864105421 1 9:1 24:0 49:1 96:1 120:1 133:1 
-0.05993450645919705 0 0 0.4021442038650575 1 9:1 24:1 48:0 68:1 72:0 120:1 140:1 
-1 1 0.8760920337420744 0 1 9:1 24:1 25:1 48:0 68:1 72:0 120:1 140:1 
-1 0.8713154558537181 0 0.6384889043525933 1 9:1 24:1 48:0 68:1 72:0 120:1 140:1 
-1 0.8674351582873563 1 0 1 9:1 24:0 49:1 72:0 81:1 82:1 96:1 120:1 133:1 
-0 0 0.1464448285275347 0 0 9:1 24:1 25:1 48:0 68:1 72:0 81:1 82:1 96:1 120:1 140:1 
-0 0 1 0 0 9:1 24:1 48:0 49:1 72:0 81:1 82:1 96:1 120:1 133:1 
-1 0.8568032782887782 1 1 1 9:1 24:1 48:0 72:0 81:1 82:1 96:1 120:1 132:1 
-0.4057044079937266 0.3787963061581824 1 0 1 9:1 10:1 24:0 49:1 81:1 96:0 106:1 107:1 120:1 133:1 
-0 0 0.1148152368644512 0 0.8162917440593161 9:1 24:0 25:1 57:1 58:1 72:0 82:1 83:1 96:1 120:1 134:1 
-0 0 0 0 0.8488472058257331 10:1 11:1 24:1 33:1 34:1 48:0 57:1 72:1 120:1 134:1 
-0.0753645022580985 0 0 0 0 9:1 10:1 24:0 48:0 68:1 72:0 81:1 96:1 106:1 107:1 120:1 140:1 
-0 0 0 0 1 10:1 11:1 24:1 33:1 34:1 48:0 57:1 72:1 120:1 134:1 
-1 0 0.3703078504595135 0.09159739379551889 0 9:1 10:1 24:0 25:1 68:1 72:0 81:1 96:0 106:1 107:1 120:1 140:1 
-0 0.1238321315063507 0 0 0.08418857487915531 9:1 24:0 44:1 48:0 57:1 58:1 72:0 82:1 83:1 96:1 120:1 134:1 
-0.07263101806624188 0.2004036386847165 0.1839951403952328 0 0 10:1 11:1 24:1 33:1 34:1 48:0 57:1 72:0 96:1 120:1 134:1 
-0 0 0.8953292574654053 0 0.9284380880808539 9:1 10:1 24:0 48:0 49:1 72:0 81:1 96:1 106:1 107:1 120:1 133:1 
-0.1908293685197386 0.8133512971503276 0.3602200343384193 0.3199874722961067 0.9803028048866039 10:1 11:1 24:1 33:1 34:1 48:0 57:1 72:1 120:1 134:1 
-1 0 0 0.2913940110025429 0.09300778081885368 9:1 10:1 24:1 48:0 72:0 81:1 96:1 106:1 107:1 120:1 132:1 
-0.4917050280495442 0.7401848991035096 0.2962150278782543 0.3922826184086717 0.2800211407165924 10:1 11:1 24:1 33:1 34:1 48:1 57:1 72:1 120:1 134:1 
-0.2337329151658586 0.7440413189351488 0.05952438650471786 0.3326249825541403 0.6227022970403213 9:1 24:1 45:1 48:0 49:1 72:0 127:1 133:1 
-0.9599265821171977 0 0.05952438650471784 0.2997640727105139 0.6274324047514934 9:1 24:1 45:1 48:0 49:1 72:0 125:1 133:1 
-0.03573632042357806 0.951974371166417 0 0 0 9:1 24:1 45:1 48:0 49:1 72:1 125:1 133:1 
-1 -1 1 1 1 13:1 123:1 132:1 
-1 -1 1 1 1 13:1 24:1 44:1 48:0 49:1 72:0 123:1 133:1 
-1 -1 0.7445235262488042 0.3801348442933181 1 13:1 24:1 25:1 42:1 46:1 49:1 72:0 123:1 133:1 
-0.1920959417836278 -0 0 0 0 13:1 17:1 24:0 25:1 42:1 46:1 49:1 72:0 85:1 96:0 109:1 120:1 133:1 
-0.6268755634763066 -0 0 0 0.7495142043090854 13:1 17:1 24:0 25:1 48:0 49:1 72:0 85:1 96:0 109:1 120:1 133:1 
-0 -0 0.7121092344772803 0 0 13:1 17:1 24:0 25:1 48:0 49:1 72:0 85:1 96:1 109:1 120:1 133:1 
-1 -0 0 0.2614437966403071 1 13:1 17:1 24:0 49:1 66:1 70:1 72:0 85:1 96:0 109:1 120:1 133:1 
-0.2583464185992611 -0 0 0 0 13:1 24:0 25:1 42:1 46:1 48:0 61:1 65:1 72:0 85:1 96:1 109:1 113:1 120:1 135:1 
-0.02346691351713785 -0 0 0 0.3189558331264533 13:1 17:1 24:0 44:1 48:0 49:1 72:0 85:1 96:0 109:1 120:1 133:1 
-0.08543714722031158 -0 0 0 0 13:1 24:0 25:1 48:0 61:1 65:1 72:0 85:1 96:1 109:1 113:1 120:1 135:1 
-0 -0.9430774304262469 0.9074702744713008 0 0 13:1 17:1 24:0 25:1 48:0 49:1 72:0 85:1 96:1 109:1 120:1 133:1 
-1 -0 0 0 0 13:1 24:0 25:1 42:1 46:1 49:1 72:0 85:1 89:1 96:0 109:1 120:1 133:1 
-1 -0.03901892340790211 0.6063238472687856 0 0.920212804799733 13:1 24:0 25:1 48:0 49:1 72:0 85:1 89:1 96:0 109:1 120:1 133:1 
-1 -0.2365917611802013 0 0 0.2100354041513351 13:1 24:0 44:1 48:0 49:1 72:0 85:1 89:1 96:0 109:1 120:1 133:1 
-0.01409168985724997 -0 0 0 0 13:1 24:1 37:1 41:1 48:0 61:1 72:1 85:1 89:1 96:1 109:1 113:1 120:1 135:1 
-0 -0.4265403473170948 0 0.2952277376339709 0 13:1 17:1 24:1 37:1 48:1 61:1 65:1 72:1 120:1 135:1 
-1 -1 1 1 1 13:1 85:1 96:0 109:1 120:1 132:1 
-0.7302773933562119 -0 0.3147677259432161 0.8472342911697298 0.2118197132602732 13:1 24:0 61:1 85:1 96:1 120:1 135:1 
-0 -1 0.1176119243978078 0.2176856814119578 1 13:1 24:1 37:1 61:1 72:0 120:1 135:1 
-1 -0.6747449644206372 0.7219598028483424 1 1 13:1 85:1 89:1 96:0 109:1 113:1 120:1 132:1 
-0.3164803685979765 -0 0 0 0 13:1 17:1 24:0 61:1 85:1 89:1 96:0 109:1 113:1 120:1 135:1 
-0.470738817231692 -0.3820059583092333 0.3461201859282507 0.2902255714523914 0.4922999923284077 13:1 24:1 37:1 41:1 48:0 61:1 65:1 72:1 120:1 135:1 
-1 -0.9316144145754593 0 0.1040768665063053 1 13:1 24:0 49:1 66:1 70:1 85:1 96:0 109:1 120:1 133:1 
-0.6611242357840807 -0.5833183241869283 1 1 1 13:1 24:1 37:1 48:0 61:1 72:0 120:1 135:1 
-1 -0.6633908968383816 0.4965366588995567 1 1 13:1 24:0 25:1 42:1 46:1 72:0 85:1 96:1 109:1 120:1 132:1 
-0 -0.1838047970247115 0 0 0 13:1 24:1 48:0 61:1 72:0 85:1 96:1 120:1 135:1 
-1 -1 1 0 1 13:1 24:0 49:1 66:1 70:1 72:0 85:1 96:1 109:1 120:1 133:1 
-0 -0.6393331319860629 0 0 0.8355771652600466 13:1 24:1 37:1 48:0 61:1 72:1 120:1 135:1 
-1 -0.1425546289337876 0 0 0.3522543191088811 13:1 24:0 25:1 42:1 46:1 49:1 72:0 85:1 96:1 109:1 120:1 133:1 
-0.1459509574840548 -0.9967331791571056 0.01696401218195537 0 1 13:1 24:1 37:1 48:0 61:1 72:1 120:1 135:1 
-1 -1 -1 0.921747255591553 1 20:1 24:0 49:1 73:1 96:0 109:1 120:1 123:1 133:1 
-1 -1 -1 0.9257660529960483 1 20:1 24:0 49:1 73:1 96:0 109:1 113:1 120:1 133:1 
-1 -1 -1 1 1 20:1 24:0 49:1 73:1 96:0 97:1 120:1 133:1 
-1 -1 -1 1 1 20:1 24:0 49:1 73:1 96:0 109:1 120:1 133:1 
-1 -1 -1 0.3223624573665856 1 20:1 24:0 25:1 72:0 81:1 96:1 120:1 132:1 
-1 -1 -1 0 1 20:1 24:0 49:1 72:0 81:1 96:1 120:1 133:1 
-1 -1 -1 1 1 20:1 24:0 25:1 72:0 81:1 96:1 120:1 132:1 
-1 -1 -0.324645479595884 0 1 20:1 24:0 49:1 72:0 81:1 96:1 105:1 106:1 120:1 133:1 
-1 -0.7475675163069997 -0 0.7269455759027142 1 20:1 24:0 25:1 48:0 72:0 81:1 96:1 105:1 106:1 120:1 132:1 
-1 -1 -0.8795191386808017 1 1 20:1 24:0 48:0 72:0 81:1 96:1 105:1 106:1 120:1 132:1 
-1 -1 -0.6155758044598094 1 1 20:1 24:0 25:1 72:0 81:1 82:1 96:0 105:1 120:1 132:1 
-1 -1 -0.869693358561807 1 1 20:1 24:0 25:1 72:0 81:1 82:1 96:0 105:1 120:1 132:1 
-1 -1 -0.2949534113669978 0 1 20:1 24:0 49:1 81:1 82:1 96:0 105:1 120:1 133:1 
-1 -1 -0.5305780299390386 -0.8277100153977245 1 21:1 93:1 96:0 97:1 120:0 122:1 132:1 
-1 -1 -0 -0.5563321539161379 1 21:1 24:0 69:1 73:1 96:0 105:1 120:1 122:1 142:1 
-1 -1 -1 -0.6918845002025612 1 21:1 93:1 96:0 117:1 120:0 122:1 132:1 
-0.540739563307355 -1 -0.4687785306858369 -0 0.08369861919185363 21:1 24:0 69:1 93:1 96:0 97:1 120:1 122:1 142:1 
-1 -1 -0.809718785400162 -0.9069692364109485 1 21:1 24:0 45:1 69:1 72:0 73:1 96:1 105:1 120:1 122:1 142:1 
-1 -0.9970772281293355 -0.8724998627246003 -1 1 21:1 73:1 96:0 105:1 120:1 127:1 132:1 
-0.9904340955915514 -0 -0 -0 1 21:1 93:1 96:0 97:1 120:0 127:1 132:1 
-0.01868327056582285 -0 -0 -0.1377758796981564 0.8140666033465158 21:1 24:0 69:1 73:1 96:0 105:1 120:1 127:1 142:1 
-1 -0.829786667099048 -1 -1 1 21:1 73:1 96:0 105:1 120:1 127:1 132:1 
-0.5336230428748545 -0.9675051010697381 -0.874850743557286 -0.6898848483393263 1 21:1 93:1 96:0 97:1 120:0 127:1 132:1 
-0.5706067347288333 -0 -0 -0.09382025355865153 1 21:1 24:0 69:1 73:1 96:0 105:1 120:1 127:1 142:1 
-1 -1 -1 -1 1 21:1 73:1 96:0 105:1 120:1 125:1 132:1 
-1 -0.7130407373688852 -0 -0.3220397611541328 1 21:1 93:1 96:0 97:1 120:0 125:1 132:1 
-0.3131324391913819 -0 -0 -0 1 21:1 24:0 69:1 73:1 96:0 105:1 120:1 125:1 142:1 
-0.9768655576811232 -1 -1 -0.6097431332466954 1 21:1 93:1 96:0 117:1 120:0 125:1 132:1 
-0.2770098150766422 -0 -0.6659992880209155 -0.2970164132331652 0 21:1 24:0 69:1 93:1 96:0 97:1 120:1 125:1 142:1 
-1 -0 -0.1736035487801413 -0.7636451466994019 0.6974465338719847 21:1 24:0 45:1 69:1 72:0 73:1 96:1 105:1 120:1 125:1 142:1 
-1 -0.5246018916060142 -0.8157630804070108 -1 -0.8330936729044031 24:0 49:1 66:1 70:1 73:1 96:0 97:1 120:1 133:1 
-1 -0.7371075418633012 -1 -1 -0.3228424334291473 73:1 90:1 94:1 96:0 109:1 113:1 120:1 132:1 
-1 -0 -0 -0 -0.9029862064200762 73:1 90:1 94:1 96:0 97:1 120:1 132:1 
-1 -1 -1 -1 -0 24:0 49:1 66:1 70:1 85:1 96:0 109:1 120:1 133:1 
-1 -0.2798677156971061 -1 -0.03086971416361085 -0 73:1 90:1 94:1 96:0 109:1 120:1 132:1 
-1 -1 -1 -1 -0.5628345228409346 24:1 25:1 57:1 72:0 120:1 134:1 
-1 -0 -0 -0 -0 24:0 49:1 92:1 96:0 105:1 120:1 133:1 
-1 -0.4944150709911714 -0 -0 -0.4161584613003809 73:1 96:0 116:1 120:1 132:1 
-1 -0.9384007585126444 -1 -1 -0.2834015246032232 24:0 49:1 92:1 96:0 105:1 120:1 133:1 
-1 -0 -0 -0 -1 73:1 96:0 105:1 120:1 132:1 
-1 -0.8679384956363938 -0 -0 -1 73:1 96:0 116:1 120:1 132:1 
-1 -1 -0 -1 -1 73:1 96:0 120:1 132:1 
-1 -1 -0.8497720633894548 -0.6073507328595534 -1 24:0 49:1 72:0 92:1 96:0 105:1 120:1 133:1 
-1 -1 -1 -1 -0 24:0 49:1 96:0 116:1 120:1 133:1 
-1 -0 -0 -0.1141217901775836 -0.08847774310743194 24:0 25:1 72:0 92:1 96:0 105:1 120:1 132:1 
-1 -1 -1 -0 -1 96:0 97:1 120:1 132:1 
-1 -0 -0 -0 -1 24:0 73:1 96:0 105:1 120:1 132:1 
-1 -1 -1 -0 -0 24:0 49:1 66:1 70:1 96:0 120:1 133:1 
-1 -0.5217282738687887 -1 -0.7571413856978397 -0.8784531690791801 24:0 25:1 42:1 46:1 72:0 96:0 105:1 120:1 132:1 
-1 -1 -0 -1 -0.552500046223025 24:0 48:0 72:0 81:1 96:1 105:1 106:1 120:1 132:1 
-0.7555573347179708 -1 -1 -0 -0 24:1 33:1 48:0 58:1 59:1 72:1 120:1 134:1 
-0 -1 -0 -0.2418485522407747 -0 24:0 49:1 92:1 96:0 105:1 106:1 120:1 133:1 
-0.8161699262529762 -1 -0 -0.7214923677288828 -0 24:0 49:1 92:1 96:0 105:1 106:1 120:1 133:1 
-0.8002080084693312 -1 -1 -0.02438252526267225 -0.754463976502552 24:1 33:1 48:0 58:1 59:1 72:1 120:1 134:1 
-1 -1 -0.7606957833697885 -0.4066404503825147 -1 96:0 97:1 120:1 132:1 
-1 -0 -0 -0.5356327314666973 -1 24:0 73:1 96:0 105:1 106:1 120:1 132:1 
-1 -1 -1 -0 -0 24:0 49:1 66:1 70:1 96:0 120:1 133:1 
-1 -0.4170447826952437 -0.9660745845528214 -0.5605197500198705 -0 24:0 25:1 42:1 46:1 72:0 96:0 105:1 106:1 120:1 132:1 
-1 -1 -0.6983639246251397 -1 -1 24:0 48:0 72:0 81:1 82:1 96:1 105:1 120:1 132:1 
