svm_type c_svc
kernel_type rbf
gamma 0.03125
nr_class 6
total_sv 314
rho -0.147733 -0.127908 -0.386713 -0.171468 -0.173792 0.200295 -0.342501 -0.120784 0.251075 -0.258719 -0.18561 -0.0625013 0.0835896 0.0671423 0.0980866
label 10 0 2 -3 1 -4
probA -4.9365 -5.10775 -4.44456 -5.01757 -4.38146 -4.39076 -4.70078 -5.03192 -4.65328 -4.23811 -4.69438 -4.09964 -4.3268 -3.74637 -4.17099
probB -0.240464 -0.0818128 -0.569382 -0.146002 -0.641455 -0.0806571 -0.146057 -0.326496 0.560845 -0.47495 0.0638733 -0.543165 0.469102 -0.0665021 -0.44587
nr_sv 80 64 43 34 66 27
SV
1 0 0 1 0 1:1 21:0 43:1 56:1 60:1 105:1 118:1 
1 0.3946654386762853 0 1 0 1:1 21:0 43:1 56:1 60:1 105:1 118:1 
1 0 0.4697096376035572 0.923922115431368 0.9951127654069868 1:1 21:0 43:1 56:1 60:1 64:1 84:1 105:1 118:1 
1 1 1 1 0 1:1 21:1 22:1 35:1 39:1 43:1 63:0 105:1 118:1 
0 1 0 0 0 1:1 21:0 43:1 56:1 60:1 73:1 76:1 84:0 94:1 105:1 118:1 
0.6040254047061422 0 0 0 0 1:1 21:0 43:1 56:1 60:1 64:1 84:0 94:1 97:1 105:1 118:1 
0 1 0 0 0 1:1 21:0 22:1 35:1 39:1 43:1 63:0 73:1 76:1 84:0 94:1 105:1 118:1 
1 0.5822602467094288 0.6580009728599724 0 0.1982198585459006 1:1 21:0 22:1 35:1 39:1 63:0 64:1 84:0 94:1 97:1 105:1 117:1 
0 1 0.470657731273462 0 0 1:1 21:0 42:0 43:1 63:0 73:1 76:1 84:0 94:1 105:1 118:1 
1 0 0.8102102251682647 0 0 1:1 21:0 43:1 56:1 60:1 63:0 64:1 84:0 94:1 97:1 105:1 118:1 
0.7777917672953708 1 0 0 0 1:1 21:0 22:1 35:1 39:1 42:0 43:1 63:0 73:1 76:1 84:0 94:1 105:1 118:1 
0 0.8414327245220773 0 0 0 1:1 14:1 18:1 21:0 73:1 76:1 84:0 94:1 105:1 117:1 
0 0.435205705493485 0 0.3820294752353162 0 1:1 21:0 22:1 58:1 63:0 73:1 76:1 84:0 94:1 105:1 126:1 
0 0 0.5399013948243959 0.4119216887472082 0.2551627681789308 1:1 21:0 22:1 58:1 63:0 64:1 84:0 94:1 97:1 105:1 126:1 
0 1 0 0 0 1:1 21:0 37:1 42:0 43:1 63:0 73:1 76:1 84:0 94:1 105:1 118:1 
0 0.2213635774934117 0 0 0 1:1 21:0 43:1 56:1 60:1 73:1 84:0 94:1 97:1 105:1 118:1 
0.6478606711030879 0 0 0 1 1:1 14:1 18:1 64:1 84:0 85:1 105:1 117:1 
1 0 0 0 0 1:1 21:0 43:1 56:1 60:1 64:1 84:0 94:1 105:1 118:1 
1 0 0.09859210642272759 0 0.7388904401143088 1:1 21:0 22:1 35:1 39:1 63:0 64:1 84:0 94:1 105:1 117:1 
0 0 1 0 0 1:1 21:0 42:0 43:1 63:0 73:1 84:0 94:1 97:1 105:1 118:1 
0.9298506048072686 0 0.05662357740890504 0 0.935930746627499 1:1 14:1 18:1 21:0 64:1 84:0 85:1 105:1 117:1 
1 0 0 0 0 1:1 21:0 43:1 56:1 60:1 63:0 64:1 84:0 94:1 105:1 118:1 
0 0.4209967020221608 0 0 0 1:1 21:0 22:1 35:1 39:1 42:0 43:1 63:0 73:1 84:0 94:1 97:1 105:1 118:1 
0.07053776592738117 0 0 0 0 1:1 79:1 84:0 85:1 105:1 117:1 
1 0 0 0 0 1:1 79:1 84:0 85:1 105:1 117:1 
1 0 0 0.3457440903663675 0 1:1 79:1 84:0 85:1 105:1 117:1 
1 0 0 0.5432209349767598 0 1:1 21:0 22:1 58:1 63:0 64:1 84:0 94:1 105:1 126:1 
0 0.5438846197783251 0.1647467226436553 0 0 1:1 21:0 37:1 42:0 43:1 63:0 73:1 84:0 94:1 97:1 105:1 118:1 
0 0.8024791321893301 0 0 0 1:1 21:0 43:1 56:1 60:1 73:1 84:0 94:1 105:1 118:1 
0 1 0 0 0 1:1 21:0 22:1 35:1 39:1 63:0 73:1 84:0 94:1 105:1 117:1 
0 0.02286145191777111 0 0 0 1:1 14:1 18:1 84:0 94:1 105:1 117:1 
0 1 0 0 0 1:1 21:0 43:1 56:1 60:1 73:1 84:0 94:1 105:1 118:1 
1 0 1 1 0 1:1 21:0 72:1 84:1 105:1 117:1 
1 0 0 0 1 1:1 84:0 93:1 105:1 117:1 
1 0 1 1 0 1:1 21:0 63:0 72:1 84:1 105:1 117:1 
0 0 0.0394443532938758 0 0 1:1 21:0 72:1 84:0 93:1 105:1 117:1 
1 0 0 0 1 1:1 84:0 93:1 105:1 117:1 
0 0 1 0 0 1:1 72:1 84:0 93:1 105:1 117:1 
0.5981372252308467 0 0 0 0 1:1 79:1 84:0 93:1 105:1 117:1 
0.4144935468097263 0 0 0 0 1:1 84:0 100:1 105:1 117:1 
1 0.05498183080525841 1 1 0 1:1 21:0 63:0 72:1 84:1 93:1 105:1 117:1 
0.6412696646258704 0 1 0 0 1:1 72:1 84:0 93:1 105:1 117:1 
1 0 1 0 0 1:1 21:0 72:1 84:0 93:1 105:1 117:1 
1 0.1732542234067163 0 0.6998649953217776 1 1:1 84:0 93:1 105:1 117:1 
1 0 1 0.9439036978717567 0 1:1 72:1 84:0 93:1 105:1 117:1 
1 0 0 0 0 1:1 79:1 84:0 93:1 105:1 117:1 
1 0 0 0 0 1:1 84:0 100:1 105:1 117:1 
1 0 0 0 1 1:1 21:0 79:1 84:0 93:1 105:1 117:1 
1 0 0 0 0 1:1 21:0 84:0 100:1 105:1 117:1 
1 0 0 0 0 1:1 84:0 100:1 105:1 117:1 
0.07639960374072068 0 0 0.08978861836365852 0.7185102185802393 1:1 79:1 84:0 93:1 105:1 117:1 
1 0.4464320290668444 0 0.3428514549803911 0.005693627149648192 1:1 84:0 100:1 105:1 117:1 
1 0 1 1 0 1:1 21:0 63:0 72:1 84:0 93:1 105:1 117:1 
0 0 0 0 0.5709714280807071 1:1 21:0 58:1 64:1 84:0 94:1 105:1 108:1 126:1 
0 0.239157856611089 0 0 0 1:1 21:0 37:1 43:1 63:0 73:1 84:1 108:1 118:1 
0 0.0367630136667685 0 1 0 1:1 72:1 84:0 107:1 117:1 
0.4357182481482704 0 0.3157902361741878 1 0.7200848014562415 1:1 72:1 84:0 93:1 105:1 107:1 117:1 
0 0.2364687525468936 0 1 1 1:1 72:1 84:0 93:1 105:0 107:1 117:1 
0 0.7107381065415813 0 0 0.0645127310355455 1:1 73:1 84:0 108:1 117:1 
0 0 0 0.7558763769151798 0 1:1 21:0 22:1 58:1 63:0 73:1 84:1 108:1 126:1 
0 0.8175276500692432 0.06148927815747491 0 0 1:1 79:1 84:0 85:1 105:0 108:1 117:1 
0 0.2597785634047262 1 0 0 1:1 21:0 22:1 58:1 63:0 64:1 84:1 94:1 105:1 108:1 126:1 
0.7030081725466475 1 0.5235364453484781 0.7458096583464008 0 1:1 21:1 37:1 42:0 43:1 63:0 73:1 84:1 108:1 118:1 
0 0 0 0.4754182526933363 0 1:1 14:1 18:1 72:1 84:0 107:1 117:1 
0 0 0 0.2238509772602335 0 1:1 14:1 18:1 72:1 84:0 93:1 105:1 107:1 117:1 
0 0 0 0.1561728158727317 0 1:1 14:1 18:1 72:1 84:0 93:1 105:0 107:1 117:1 
0 0.8990532228643576 0 0 0 1:1 21:0 43:1 56:1 60:1 73:1 84:1 108:1 118:1 
0 0 0.8808610180018752 0 0.5437838560334869 1:1 14:1 18:1 64:1 84:0 85:1 105:0 108:1 117:1 
0.3413042454510817 0.7284125844806165 1 0 0 1:1 21:0 43:1 56:1 60:1 64:1 84:0 94:1 105:1 108:1 118:1 
1 1 0 0.1423575786906677 0 1:1 21:0 22:1 35:1 39:1 43:1 63:0 73:1 84:1 108:1 118:1 
0 0 0 0 0.01406043385851401 1:1 21:0 38:1 59:1 63:0 72:1 84:1 107:1 127:1 
0 0.03164923321453836 0 1 0.06709859441396755 1:1 21:1 38:1 42:0 59:1 63:0 72:1 84:1 107:1 127:1 
0 0.007821841205442118 0 0 0 1:1 105:1 117:1 
0 0 0 0 0.1239026324799433 1:1 21:0 38:1 59:1 63:0 72:1 84:1 112:1 127:1 
0 0 0 0 0.5874726046710731 1:1 21:0 38:1 59:1 63:0 72:1 84:1 112:1 127:1 
0.2269965421772952 0.2428648243892129 0.1558354699317616 0.2034094806002089 0.06877848280159841 1:1 21:1 38:1 42:0 59:1 63:0 72:1 84:1 112:1 127:1 
0 0 0 0 0.9266408440937935 1:1 21:0 38:1 59:1 63:0 72:1 84:1 110:1 127:1 
0.2293810051881895 0.2445710981728752 0.1557044455424996 0.199855687199983 0.07793508405024646 1:1 21:1 38:1 42:0 59:1 63:0 72:1 84:1 110:1 127:1 
0 0 0 0 0.755128936733625 1:1 21:0 38:1 59:1 63:0 72:1 84:1 111:1 127:1 
0.2338887234069278 0.2468107138846982 0.1521196219079997 0.2223347523954197 0.2207080786384298 1:1 21:1 38:1 42:0 59:1 63:0 72:1 84:1 111:1 127:1 
-0 1 1 1 0 21:0 43:1 105:1 118:1 
-0 0 1 0 0 21:0 43:1 56:1 60:1 64:1 84:0 85:1 105:1 118:1 
-1 1 1 0.4090186801181424 0.3555067977983716 64:1 77:1 81:1 84:0 94:1 97:1 105:1 117:1 
-0.7921470332473715 0 0.899744896890726 0 0.6397782203702024 21:0 43:1 56:1 60:1 64:1 84:0 85:1 105:1 118:1 
-0 0 0 0 0.6406900004179461 64:1 77:1 81:1 84:0 85:1 105:1 117:1 
-0.2064468671998212 0.2751536303496071 0 0 0 64:1 77:1 81:1 84:0 94:1 105:1 117:1 
-1 1 1 0 0 21:0 43:1 56:1 60:1 64:1 84:0 94:1 105:1 118:1 
-1 1 0.4017853367417223 0.2986259422664108 0 21:0 43:1 56:1 60:1 73:1 84:0 94:1 105:1 118:1 
-0.9967457338696656 0.995081508339632 0.9101233961138115 0 0 64:1 77:1 81:1 84:0 94:1 105:1 117:1 
-0 0 0 0 1 64:1 84:0 93:1 105:1 117:1 
-1 0.8731051260606585 1 1 0 21:0 43:1 72:1 84:1 105:1 118:1 
-0 0.5639730640641119 1 1 0 21:1 22:1 51:1 63:0 105:1 119:1 
-1 0 0 0 0 64:1 84:0 100:1 105:1 117:1 
-0.4293868545463707 0 0 0 0 64:1 84:0 105:1 117:1 
-0 0.7934556492181065 1 1 0.6242004930825704 21:0 43:1 63:0 79:1 84:1 93:1 105:1 118:1 
-0 0.38732658664346 1 0.1270929993027153 0 21:0 43:1 84:0 100:1 105:1 118:1 
-0.9626692786936646 0 1 1 0 21:0 22:1 63:0 79:1 84:1 93:1 105:1 117:1 
-0.8154847000683483 0.4139915284128311 0 1 0.5165468653439936 21:1 37:1 42:0 51:1 63:0 105:1 119:1 
-0.1325116080722974 1 0 1 0.07742254512491603 21:1 37:1 42:0 51:1 63:1 105:1 119:1 
-1 0 0 0 1 84:0 85:1 105:1 117:1 
-0 0 0 0 1 21:0 64:1 84:0 93:1 105:1 117:1 
-1 0.1746797751182717 1 1 0 21:0 22:1 35:1 39:1 63:0 72:1 84:1 105:1 117:1 
-1 1 0 0.2086940114514884 0 21:0 43:1 56:1 60:1 84:0 105:1 118:1 
-0 0.8755210603559108 0 0 0.2407830697780223 21:0 22:1 35:1 39:1 63:0 84:1 93:1 105:1 117:1 
-1 1 1 1 0 21:1 42:0 63:0 72:1 84:1 105:1 117:1 
-0.8098800886837951 0.6825008294020886 1 1 0 21:0 22:1 35:1 39:1 63:0 72:1 84:1 105:1 117:1 
-0 0.5242972447075039 0 1 0 21:1 42:0 51:1 63:1 105:1 119:1 
-1 0 0 0 1 64:1 84:0 93:1 105:1 117:1 
-0 0 1 1 0 21:0 43:1 72:1 84:0 93:1 105:1 118:1 
-0 0 0 1 0.0105219408044653 21:1 30:1 42:0 51:1 63:0 105:1 119:1 
-1 0 0 0 0 64:1 84:0 100:1 105:1 117:1 
-1 0 0.9344728577062662 0.4390426695323787 0.7081813815904703 64:1 84:0 105:1 117:1 
-0.5673791661627333 1 1 1 0 21:0 43:1 84:0 100:1 105:1 118:1 
-1 0 0 0 0 21:0 22:1 63:0 79:1 84:0 93:1 105:1 117:1 
-0 0 0 1 0 21:1 30:1 42:0 51:1 63:1 105:1 119:1 
-0 0 0 1 0 21:1 30:1 42:0 51:1 63:1 105:1 119:1 
-1 0.5390644591572286 0 1 1 84:0 85:1 105:1 117:1 
-0.3330764988126537 0 0.2346450186253227 0 1 21:0 64:1 84:0 93:1 105:1 117:1 
-0 0 1 1 0 21:0 22:1 35:1 39:1 63:0 72:1 84:1 93:1 105:1 117:1 
-1 1 0 1 0 21:0 43:1 56:1 60:1 84:0 105:1 118:1 
-1 0 1 1 0.2274022841262868 21:0 42:0 63:0 72:1 84:1 93:1 105:1 117:1 
-0.06406688291196548 0 0 0 0 21:0 22:1 35:1 39:1 63:0 72:1 84:0 93:1 105:1 117:1 
-0 0 0 1 0 21:1 30:1 42:0 51:1 63:1 105:1 119:1 
-0 0 1 0 1 64:1 84:0 93:1 105:1 117:1 
-0 0 1 1 0 21:0 43:1 72:1 84:0 93:1 105:1 118:1 
-0 0 0 1 0 21:1 30:1 42:0 51:1 63:1 105:1 119:1 
-1 0 0 0 0.6407469004108582 64:1 84:0 100:1 105:1 117:1 
-1 0 1 1 1 64:1 84:0 105:1 117:1 
-1 0 0.8078079699511161 0 0 21:0 43:1 79:1 84:0 93:1 105:1 118:1 
-1 0.9249414907772757 0.6001591348725999 1 0 21:0 43:1 84:0 100:1 105:1 118:1 
-1 0 0 0.3169140536820312 0.1347467336500581 21:0 22:1 63:0 79:1 84:0 93:1 105:1 117:1 
-0 0.01977654490798098 0 1 0 21:1 30:1 42:0 51:1 63:1 105:1 119:1 
-0.5120987128104558 0 0.02376394954588884 0.001794817062756368 0.3530273104996657 21:0 43:1 79:1 84:0 93:1 105:1 118:1 
-0 0 0 1 0 21:1 30:1 42:1 51:1 63:1 105:1 119:1 
-1 0.6312567310687524 0.797256150024473 0.8085354331313945 1 84:0 85:1 105:1 117:1 
-0 0 0.7461637495844262 0 1 21:0 64:1 84:0 93:1 105:1 117:1 
-0.04779194078833127 0 0 0.3138707282336142 0 21:0 43:1 56:1 60:1 84:0 93:1 105:1 118:1 
-1 0 0.6157558819566196 0 0 21:0 22:1 35:1 39:1 63:0 72:1 84:0 93:1 105:1 117:1 
-1 1 0 0.3266990494870445 0 21:0 43:1 56:1 60:1 84:0 105:1 118:1 
-0.7618374028353135 0.9761198742336019 0 0 0.5866736861286856 21:0 22:1 35:1 39:1 63:0 84:0 93:1 105:1 117:1 
-1 0 1 1 1 21:0 42:0 63:0 72:1 84:1 93:1 105:1 117:1 
-1 0 0 1 0.2880044827339068 21:0 43:1 56:1 60:1 84:0 93:1 105:1 118:1 
-1 0 0.8968685560189021 0.4379108964092988 0 21:0 22:1 35:1 39:1 63:0 72:1 84:0 93:1 105:1 117:1 
-0.4991404224620397 0.6098251056084554 0 1 0.6128366511775152 21:1 30:1 42:1 51:1 63:1 105:1 119:1 
-0 -1 0.3308646743590371 0.1472494960493474 1 10:1 13:1 73:1 84:0 94:1 105:1 117:1 
-0 -0.009527164330512778 0 0 0 10:1 13:1 21:0 43:1 56:1 60:1 73:1 84:0 94:1 105:1 118:1 
-0.4074531744092463 -0 0 0 0 10:1 21:0 22:1 35:1 39:1 52:1 55:1 63:0 73:1 84:0 94:1 97:1 105:1 120:1 
-0.6383371015192271 -0 0 0 0 10:1 13:1 21:0 22:1 35:1 39:1 43:1 63:0 73:1 84:0 94:1 105:1 118:1 
-0 -0 0.07733603269560484 0 0 10:1 13:1 21:0 22:1 42:0 43:1 63:0 73:1 84:1 94:1 105:1 118:1 
-0 -1 0 0 0 10:1 13:1 21:0 43:1 56:1 60:1 63:0 73:1 84:0 94:1 105:1 118:1 
-0 -0 0.9274683927023194 0.07084992920527702 0 10:1 13:1 21:0 22:1 42:0 43:1 63:0 73:1 84:1 94:1 105:1 118:1 
-0.7922104910703253 -0.5594201277264003 0.09516945911222982 0.05331641967801568 0.801770229757657 10:1 73:1 76:1 84:0 94:1 105:1 117:1 
-1 -0.5390644591572286 0 0 0 10:1 21:0 43:1 56:1 60:1 73:1 76:1 84:0 94:1 105:1 118:1 
-1 -0 0 0 0 10:1 21:0 22:1 35:1 39:1 43:1 63:0 73:1 76:1 84:0 94:1 105:1 118:1 
-0.127175991223332 -0 0 0 0 10:1 21:0 22:1 42:0 43:1 63:0 73:1 76:1 84:0 94:1 105:1 118:1 
-1 -0.02296540809947865 0 0 0 10:1 21:0 43:1 56:1 60:1 63:0 73:1 76:1 84:0 94:1 105:1 118:1 
-0.3866532618783577 -0 0 0 0 10:1 21:0 37:1 42:0 43:1 63:0 73:1 76:1 84:0 94:1 105:1 118:1 
-1 -0 0.1517689558195778 0 0 10:1 21:0 37:1 42:0 43:1 63:0 73:1 76:1 84:0 94:1 105:1 118:1 
-0.2428347110366091 -0 0 0 0 10:1 13:1 21:1 31:1 42:1 52:1 63:1 73:1 76:1 84:1 105:1 120:1 
-0 -0 0 0.3514792613304557 0.08708689914840022 10:1 13:1 21:1 31:1 42:1 52:1 55:1 63:1 105:1 120:1 
-1 -1 1 1 1 10:1 73:1 84:0 94:1 105:1 117:1 
-0 -0 0 0 0.1779031164208701 10:1 21:0 52:1 73:1 84:1 105:1 120:1 
-0 -1 0.4430673495107071 0 0.4055088062726331 10:1 21:1 31:1 52:1 63:0 105:1 120:1 
-1 -1 1 0.41561172547098 0.4804655218336344 10:1 73:1 76:1 84:0 94:1 97:1 105:1 117:1 
-0.1001622794970075 -0 0 0 0 10:1 13:1 21:1 31:1 34:1 42:0 52:1 55:1 63:0 73:1 84:1 105:1 120:1 
-0.1789908544645886 -0.4147882631180292 0.3593254424311866 0.2547549553822893 0.4393004880645864 10:1 21:1 31:1 34:1 42:0 52:1 55:1 63:1 105:1 120:1 
-1 -1 0 0 0 10:1 21:0 43:1 56:1 60:1 73:1 84:0 94:1 105:1 118:1 
-0.4094785654763343 -0.2052456674640227 0 0 0 10:1 21:0 22:1 35:1 39:1 52:1 63:0 73:1 84:1 105:1 120:1 
-0 -1 1 0.6830190451722198 1 10:1 21:1 31:1 42:0 52:1 63:0 105:1 120:1 
-0.5304542660850984 -0 0 0 0 10:1 21:0 22:1 35:1 39:1 43:1 63:0 73:1 84:1 94:1 105:1 118:1 
-0 -1 1 1 0 10:1 21:0 42:0 43:1 63:0 73:1 84:1 94:1 105:1 118:1 
-1 -1 1 1 0.7858116270721086 10:1 21:0 22:1 35:1 39:1 63:0 73:1 84:1 94:1 105:1 117:1 
-1 -1 0.1825140487230103 1 0 10:1 21:0 43:1 56:1 60:1 63:0 73:1 84:1 94:1 105:1 118:1 
-0.1147645783018076 -0 0 0 0 10:1 21:1 22:1 35:1 39:1 42:0 52:1 63:0 73:1 84:1 105:1 120:1 
-0 -1 0 0.7917241264568626 0 10:1 21:1 31:1 42:0 52:1 63:1 105:1 120:1 
-1 -0.9271998874928632 0 0 0 10:1 21:0 22:1 35:1 39:1 43:1 63:0 73:1 84:1 94:1 105:1 118:1 
-0 -0 0 0.02162726212386832 0 10:1 21:1 22:1 42:0 52:1 63:0 73:1 84:1 105:1 120:1 
-0 -0.5530944126629659 0 1 0 10:1 21:1 31:1 42:0 52:1 63:1 105:1 120:1 
-1 -1 1 1 1 10:1 108:1 117:1 
-0.4625552451438431 -0.6245523456225718 0 0.3985060931273944 0 10:1 21:1 37:1 43:1 63:0 108:1 118:1 
-0 -0 0.1389136023719732 0.3977948801838286 0 10:1 21:1 22:1 42:0 43:1 63:0 108:1 118:1 
-0.9237755595119491 -1 1 0.7893039727476915 1 10:1 21:0 43:1 108:1 118:1 
-0.9534432943637754 -1 0.5754830323015511 0.6988925326524215 0.1868336309661684 10:1 21:1 37:1 42:0 43:1 63:0 108:1 118:1 
-0.2821356312641415 -0.5176883968907033 0.1162814728293313 1 0 10:1 21:1 22:1 42:0 43:1 63:1 108:1 118:1 
-1 -1 1 1 0.9442122791265827 10:1 21:0 43:1 56:1 60:1 108:1 118:1 
-1 -0.8008474498377777 0 0.4112531420975009 0 10:1 21:1 22:1 35:1 39:1 43:1 63:0 108:1 118:1 
-0.09101013788749399 -0.08567662602292293 1 1 0 10:1 21:1 22:1 42:0 43:1 63:0 108:1 118:1 
-1 -0.5655806623697789 -0 0 0 16:1 21:0 43:1 64:1 84:0 94:1 97:1 105:1 118:1 
-1 -1 -0.5783473462322986 0 0 16:1 21:0 43:1 64:1 84:0 94:1 97:1 105:1 118:1 
-1 -1 -0.8405632183882402 0.5496706504481271 0.5476893014257004 16:1 21:0 43:1 64:1 84:0 94:1 97:1 105:1 118:1 
-0 -1 -0 0 1 16:1 21:0 43:1 64:1 84:0 85:1 105:1 118:1 
-0 -1 -0 0 0 16:1 21:0 43:1 64:1 84:0 94:1 105:1 118:1 
-0.4466833544663123 -1 -0.4904245022881615 0 0 16:1 21:0 43:1 64:1 84:0 94:1 105:1 118:1 
-0.009040137133047989 -1 -1 0.2055161048889431 0.5832594340790003 16:1 21:0 43:1 64:1 84:0 94:1 105:1 118:1 
-0 -1 -0 0 1 16:1 21:0 43:1 64:1 84:0 85:1 105:1 118:1 
-0 -0 -0.04896401333328254 1 0 16:1 21:0 43:1 72:1 84:1 105:1 118:1 
-0 -1 -0 0.1436731129646457 0 16:1 21:0 22:1 63:0 72:1 84:1 105:1 117:1 
-0.9916176328930287 -0 -1 1 0 16:1 21:0 43:1 63:0 72:1 84:1 105:1 118:1 
-1 -1 -1 1 0 16:1 21:1 22:1 42:0 63:0 72:1 84:1 105:1 117:1 
-0.6662792518237449 -1 -0.7135571290407375 1 0 16:1 21:0 22:1 63:0 72:1 84:1 105:1 117:1 
-1 -1 -1 1 0.6222449599071228 16:1 21:1 42:0 63:0 72:1 84:1 105:1 117:1 
-0.06165047803829515 -0.9820014490970193 -1 1 0 16:1 21:0 43:1 72:1 84:0 105:1 118:1 
-0 -1 -0 0.9886071496132451 0 16:1 21:0 22:1 63:0 72:1 84:1 105:1 117:1 
-0 -0 -0 0.6838853893889716 0 16:1 21:0 43:1 72:1 84:0 93:1 105:1 118:1 
-0 -0.9941944992147541 -0 1 0 16:1 21:0 43:1 63:0 72:1 84:1 93:1 105:1 118:1 
-0 -1 -0 0.2188925887457941 0 16:1 21:0 22:1 63:0 72:1 84:1 93:1 105:1 117:1 
-1 -1 -0 1 1 16:1 21:0 42:0 63:0 72:1 84:1 93:1 105:1 117:1 
-0 -1 -0 1 0 16:1 21:0 43:1 72:1 84:0 93:1 105:1 118:1 
-0.918549583641874 -1 -0 0 0.2111978577348895 16:1 21:0 22:1 63:0 72:1 84:0 93:1 105:1 117:1 
-0 -1 -0 1 0 16:1 21:0 43:1 72:1 84:0 93:1 105:1 118:1 
-1 -1 -0 0 1 16:1 21:0 22:1 63:0 72:1 84:0 93:1 105:1 117:1 
-0 -0.9471478770799362 -0 1 0 16:1 21:0 43:1 63:0 72:1 84:0 93:1 105:1 118:1 
-0 -0.3796224102703862 -0 0.06624215110564195 0 16:1 21:0 22:1 42:0 63:0 72:1 84:1 93:1 105:1 117:1 
-1 -1 -0.09835503265537665 0.3964898553959876 1 16:1 21:0 22:1 63:0 72:1 84:0 93:1 105:1 117:1 
-1 -1 -0 1 1 16:1 21:0 42:0 63:0 72:1 84:1 93:1 105:1 117:1 
-0.8761606697364117 -0 -0 0.8106195269388035 0 16:1 21:0 43:1 72:1 84:0 93:1 105:1 118:1 
-1 -1 -1 1 0.972916140137037 16:1 21:0 22:1 63:0 72:1 84:0 93:1 105:1 117:1 
-1 -1 -1 0 1 16:1 64:1 84:0 94:1 105:1 108:1 117:1 
-1 -1 -1 0.9948763389260131 1 16:1 64:1 84:0 85:1 105:0 108:1 117:1 
-1 -0 -1 0 0 16:1 21:0 43:1 64:1 84:0 94:1 105:1 108:1 118:1 
-0.5832421288303785 -1 -0.6279812209184317 0 0.197578043762863 16:1 21:0 43:1 64:1 84:0 85:1 105:1 108:1 118:1 
-1 -1 -1 -0 1 9:1 105:1 117:1 
-0.1037035382221037 -1 -1 -0.5411982704075381 0 9:1 21:0 43:1 105:1 118:1 
-0 -1 -0.7569637815268617 -0 0 9:1 21:1 43:1 63:0 105:1 118:1 
-0.1409448329411762 -1 -1 -1 0.08012758283431484 9:1 21:1 22:1 63:0 105:1 117:1 
-0.7595461473812464 -1 -1 -0 0 9:1 21:0 43:1 84:1 105:1 118:1 
-0.431758186588099 -0 -0.009852615234913466 -0 0 9:1 21:1 22:1 42:0 58:1 63:0 105:1 126:1 
-0.0554585002334881 -0 -0 -0 0 9:1 21:1 42:0 58:1 63:1 105:1 126:1 
-1 -0.8757852876333736 -1 -0 0.7156007470730614 9:1 21:0 22:1 58:1 63:0 84:1 105:1 126:1 
-0.12043089056574 -0 -0 -0 0 9:1 21:1 42:0 58:1 63:0 84:1 105:1 126:1 
-0 -1 -1 -0 0 9:1 21:1 42:0 43:1 63:0 105:1 118:1 
-0.2404563179120645 -1 -0 -0 1 9:1 21:1 42:0 63:0 105:1 117:1 
-0.1361651817793694 -0.8156301676621539 -1 -0 0.7224515695973145 9:1 21:1 42:0 63:1 105:1 117:1 
-0.07891510618968095 -0.2404748065642868 -0 -0 0 9:1 21:1 42:0 63:0 84:1 105:1 117:1 
-1 -1 -0 -0.9866329529357341 0 9:1 72:1 84:0 105:1 117:1 
-0 -1 -0 -0 0.2133758050433111 9:1 21:0 51:1 105:1 119:1 
-0 -0 -0 -1 0 9:1 21:0 43:1 72:1 84:1 105:1 118:1 
-0 -0 -0 -1 0 9:1 21:0 43:1 63:0 72:1 84:1 105:1 118:1 
-0 -1 -0.1013771630609036 -1 0 9:1 21:0 22:1 63:0 72:1 84:1 105:1 117:1 
-0 -0.3044218908054815 -0 -1 0 9:1 21:0 43:1 72:1 84:0 105:1 118:1 
-0 -1 -0 -0 0 9:1 21:0 22:1 51:1 63:0 84:1 105:1 119:1 
-0 -0.4994685399104287 -0 -0 0 9:1 21:1 37:1 42:0 51:1 63:0 105:1 119:1 
-0 -0.2411668974359829 -0 -0 0 9:1 21:1 37:1 42:0 51:1 63:1 105:1 119:1 
-0 -1 -0.4025432635343402 -0 0 9:1 21:1 37:1 42:0 51:1 63:1 105:1 119:1 
-0.02555097620038086 -0 -0 -0 0 9:1 21:0 42:0 58:1 63:0 72:1 84:1 105:1 126:1 
-0.1689855821066452 -0 -0 -0 0 9:1 21:1 37:1 42:0 51:1 63:0 84:1 105:1 119:1 
-0 -0 -0 -0.6774481409947272 0 9:1 21:1 42:0 63:0 72:1 84:1 105:1 117:1 
-1 -0.148154226820868 -0 -0.371923471984152 0 9:1 21:0 42:0 63:0 72:1 84:1 105:1 117:1 
-1 -1 -0 -1 1 9:1 72:1 84:0 93:1 105:1 117:1 
-0 -1 -0 -1 0 9:1 21:0 43:1 72:1 84:0 93:1 105:1 118:1 
-0 -0.2576504398145784 -0 -0 0 9:1 21:1 30:1 42:0 51:1 63:0 105:1 119:1 
-0 -0.7380214562718858 -0 -1 0 9:1 21:0 43:1 63:0 72:1 84:1 93:1 105:1 118:1 
-0.4637449538502602 -1 -0.6102285794446036 -1 0 9:1 21:0 22:1 63:0 72:1 84:1 93:1 105:1 117:1 
-0 -1 -0 -1 0 9:1 21:0 43:1 72:1 84:0 93:1 105:1 118:1 
-0 -0 -0 -0.1380892386741667 0 9:1 21:0 22:1 51:1 63:0 72:1 84:1 105:1 119:1 
-0 -1 -0 -0 0 9:1 21:1 30:1 42:0 51:1 63:1 105:1 119:1 
-0 -1 -0 -0 0 9:1 21:1 30:1 42:0 51:1 63:1 105:1 119:1 
-0 -0.5394898639465006 -0 -0 0 9:1 21:1 30:1 42:1 51:1 63:1 105:1 119:1 
-0 -1 -0 -0 0 9:1 21:1 30:1 42:0 51:1 63:1 105:1 119:1 
-0 -1 -0 -0 0 9:1 21:1 30:1 42:1 51:1 63:1 105:1 119:1 
-0.7520990550523891 -0 -0 -0.6362108536466502 0 9:1 21:0 22:1 58:1 63:0 72:1 84:0 93:1 105:1 126:1 
-0.05597075805262824 -0 -0 -0 0 9:1 21:0 37:1 42:0 51:1 63:0 72:1 84:1 105:1 119:1 
-0 -1 -0 -1 0 9:1 21:0 42:0 43:1 63:0 72:1 84:1 93:1 105:1 118:1 
-0 -0 -0 -0.03230587494860158 0 9:1 21:1 22:1 42:0 51:1 63:0 72:1 84:1 105:1 119:1 
-0 -1 -0 -0 0 9:1 21:1 30:1 42:0 51:1 63:1 105:1 119:1 
-1 -1 -0 -1 0.7549755428875241 9:1 21:0 42:0 63:0 72:1 84:1 93:1 105:1 117:1 
-0 -0.8113847915716613 -0 -0 0 9:1 21:1 30:1 42:0 51:1 63:1 105:1 119:1 
-0.3814943837584622 -0 -0 -0.1026431428613345 0 9:1 21:1 42:0 63:0 72:1 84:1 93:1 105:1 117:1 
-0.1366724318542161 -0.9680272994187227 -0.2300767023366138 -0.04262705473183612 0 9:1 21:1 30:1 42:1 51:1 63:1 105:1 119:1 
-1 -1 -0 -0.780541127527324 1 9:1 21:0 42:0 63:0 72:1 84:1 93:1 105:1 117:1 
-0.668860699898664 -0 -0.3509458842505732 -0 1 9:1 107:1 117:1 
-1 -0 -0 -0.01703283608006668 0.5515833428319459 9:1 72:1 84:0 107:1 117:1 
-0 -0 -0 -0 1 9:1 21:0 51:1 107:1 119:1 
-0.7848080935631662 -0 -0 -0 1 9:1 72:1 84:0 93:1 105:1 107:1 117:1 
-0 -0 -0 -0 0.210625778475009 9:1 21:0 43:1 107:1 118:1 
-0 -0 -0 -0.1087331409222339 0 9:1 21:0 43:1 72:1 84:0 93:1 105:1 107:1 118:1 
-1 -1 -1 -0 0.5660551327964531 9:1 21:0 43:1 56:1 60:1 107:1 118:1 
-0.7277104725373973 -0 -0.8441504127252739 -0 0 9:1 21:0 43:1 56:1 60:1 72:1 84:1 107:1 118:1 
-0.3748733604417634 -0.6936121319791037 -0.9555963614444887 -0 0.03929014068007131 9:1 21:1 22:1 35:1 39:1 51:1 63:0 107:1 119:1 
-1 -1 -0 -0.4678886141280053 0 9:1 21:0 43:1 56:1 60:1 72:1 84:0 93:1 105:1 107:1 118:1 
-0.4684957694051375 -0.5264300246951127 -0 -0.4126945911347275 0 9:1 21:0 22:1 35:1 39:1 51:1 63:0 72:1 84:1 107:1 119:1 
-0.4967524005507402 -0 -0.03300725804682794 -0.1866526687490122 0.4285744383713447 9:1 21:1 38:1 42:0 43:1 63:0 112:1 118:1 
-0.07400592399967787 -0.005939200204941383 -0.7070546309367218 -0.06097860186449539 0 9:1 21:1 38:1 42:0 43:1 63:1 112:1 118:1 
-0.3266969716783813 -0 -0.03300985923361111 -0.08434474648819501 0.3103405957183386 9:1 21:1 38:1 42:0 43:1 63:0 110:1 118:1 
-0.2445538372507352 -0.01078547849395521 -0.7070522319326095 -0.1601388203231867 0 9:1 21:1 38:1 42:0 43:1 63:1 110:1 118:1 
-0.5597136854115511 -0 -0.2458492196792438 -0.02477177292628972 0.3189866110612806 9:1 21:1 38:1 42:0 43:1 63:0 111:1 118:1 
-0.02996459384360113 -0.0117567774482378 -0.4976748782905667 -0.2256169470878959 0 9:1 21:1 38:1 42:0 43:1 63:1 111:1 118:1 
-1 -1 -0.7857813940273288 -1 -1 17:1 64:1 84:0 93:1 105:1 107:1 117:1 
-1 -1 -0.4121870184693649 -0.7261463475937761 -1 17:1 80:1 84:0 85:1 105:0 107:1 117:1 
-0 -1 -0 -0 -0 17:1 21:0 59:1 64:1 84:0 93:1 105:1 107:1 127:1 
-1 -0.6302118521432439 -0.6333531765003176 -0.2634245093096607 -1 17:1 80:1 84:0 101:1 105:0 107:1 117:1 
-0.1850002350652514 -0 -0.2694695370444533 -0.3318771514095574 -0.9072161920021697 17:1 21:0 59:1 80:1 84:0 85:1 105:1 107:1 127:1 
-1 -0.556392036556295 -0.2283396405911181 -0.392438591634905 -1 17:1 21:0 38:1 59:1 63:0 64:1 84:1 93:1 105:1 107:1 127:1 
-1 -1 -0 -1 -0 17:1 64:1 84:0 93:1 105:1 112:1 117:1 
-1 -1 -0 -1 -1 17:1 64:1 84:0 93:1 105:1 112:1 117:1 
-0 -0.7669974891450027 -0 -0 -0 17:1 80:1 84:0 85:1 105:0 112:1 117:1 
-1 -1 -0.8747158817919171 -1 -0.9189182500435685 17:1 64:1 84:0 93:1 105:1 112:1 117:1 
-0 -1 -0.4396857293804496 -0 -0.08440145152283166 17:1 80:1 84:0 85:1 105:0 112:1 117:1 
-0 -0.3224189026712302 -0 -0 -0 17:1 21:0 59:1 64:1 84:0 93:1 105:1 112:1 127:1 
-0 -0 -0.5405623393921541 -0 -0.4428103236814749 17:1 80:1 84:0 101:1 105:0 112:1 117:1 
-0.3604251573620926 -0 -0.2887890727963739 -0 -0 17:1 21:0 59:1 80:1 84:0 85:1 105:1 112:1 127:1 
-0.03473195494773827 -0 -0.1838199658777568 -0 -0 17:1 21:0 38:1 59:1 63:0 64:1 84:1 93:1 105:1 112:1 127:1 
-1 -1 -0.9219208975255702 -1 -1 17:1 64:1 84:0 93:1 105:1 110:1 117:1 
-0.877969907135449 -1 -0.2246239039267521 -0.7895418859728884 -0.533882407481614 17:1 80:1 84:0 85:1 105:0 110:1 117:1 
-0 -1 -0 -0 -0 17:1 21:0 59:1 64:1 84:0 93:1 105:1 110:1 127:1 
-0.4197792728010097 -0.6518798211906025 -0.663363606979144 -0.1819780072230593 -0.6046442780404071 17:1 80:1 84:0 101:1 105:0 110:1 117:1 
-0.2231527922572035 -0 -0.4046589154788102 -0.3397120226612863 -0 17:1 21:0 59:1 80:1 84:0 85:1 105:1 110:1 127:1 
-1 -0.5405394257057238 -0.109991786556282 -0.3978689545032061 -0.1378957730431551 17:1 21:0 38:1 59:1 63:0 64:1 84:1 93:1 105:1 110:1 127:1 
-1 -1 -0.8394911841391605 -1 -1 17:1 64:1 84:0 93:1 105:1 111:1 117:1 
-1 -1 -0.2906553176087171 -0.8664289848738324 -0.393496837562063 17:1 80:1 84:0 85:1 105:0 111:1 117:1 
-0 -1 -0 -0 -0 17:1 21:0 59:1 64:1 84:0 93:1 105:1 111:1 127:1 
-0.3013350089015494 -0.6543915556712655 -0.6726595355884998 -0.1550389115099947 -0.7477517528556934 17:1 80:1 84:0 101:1 105:0 111:1 117:1 
-0.1862046044803923 -0 -0.3319577934605481 -0.2449179272026951 -0 17:1 21:0 59:1 80:1 84:0 85:1 105:1 111:1 127:1 
-1 -0.5342382799545708 -0.1928659015279225 -0.4455124431517519 -0.1409700211369914 17:1 21:0 38:1 59:1 63:0 64:1 84:1 93:1 105:1 111:1 127:1 
