svm_type c_svc
kernel_type rbf
gamma 0.03125
nr_class 9
total_sv 330
rho -0.254512 -0.785124 -0.33761 -1.10391 -0.427922 -0.722189 -0.735878 -0.0617181 -0.169209 -0.0201229 -0.504529 -0.158495 -0.593757 -0.463936 0.129629 0.230744 0.564512 -0.109335 -0.235986 -0.382547 0.0482186 -1.79086 0.0255663 -0.653844 -0.550022 0.0438222 -0.44456 -0.941807 -0.635693 0.142304 -0.327774 -0.324631 0.218609 0.0588705 0.44589 0.33973
label 10 1 -2 0 -1 -3 3 4 -4
probA -5.03075 -4.74184 -3.92389 -4.13828 -4.13273 -3.68718 -3.74194 -4.40468 -4.44683 -4.10679 -3.70528 -4.08324 -3.184 -3.37259 -4.09584 -3.86577 -4.27057 -3.8463 -3.12786 -3.28557 -3.92239 -2.82273 -3.48493 -2.64871 -2.81315 -3.51868 -3.75741 -3.0585 -3.23687 -4.35942 -2.65173 -2.73252 -3.45037 -1.91308 -2.91834 -2.85839
probB -0.188391 -0.40743 -0.419685 -0.277377 -0.837872 -1.50237 -1.41051 -0.834121 -0.106944 -0.71249 -0.228818 -0.623988 -1.21238 -1.19737 -0.505689 -0.261794 0.272993 -0.505734 -1.04259 -0.993314 -0.38616 0.616144 0.00239552 -0.737114 -0.359588 -0.074533 -0.403926 -1.1488 -1.148 -0.775722 -0.60407 -0.550867 0.157367 0.0629822 0.569319 0.709218
nr_sv 70 69 51 20 68 20 3 3 26
SV
0 0 4.444885722922089 10.48878423141811 0.3603003167977868 0 0 0 3:1 21:0 56:1 60:1 72:1 84:1 105:1 125:1 
0 0 0 0 0 0 0.003447383663319214 0 3:1 21:1 35:1 39:1 51:1 63:0 105:1 119:1 
0 0 0 0 0.8884509284002164 0 0 0 3:1 21:0 35:1 39:1 51:1 63:0 66:1 84:1 105:1 119:1 
0 0 0 0.1112907435879778 0 0.7501824745539474 0 0 3:1 21:0 35:1 39:1 63:0 72:1 84:1 105:1 117:1 
0 0 4.021625045704686 0 0 0 0 0 3:1 21:0 56:1 60:1 72:1 84:0 93:1 105:1 125:1 
0 0 0 0 5.518471777210779 0 0 0 3:1 21:0 45:1 105:1 118:1 
0 0 0 7.024491064501898 0 0 0 0 3:1 72:1 84:0 105:1 117:1 
0 0 0 3.828904285462072 0 0 0 0 3:1 21:0 56:1 60:1 72:1 84:0 105:1 125:1 
0 0 0 0 0 0 0 3.456900999059867 3:1 84:0 98:1 105:1 117:1 
0 0 5.784722914822712 0 2.696770760374701 0 0 0 3:1 21:0 56:1 60:1 66:1 84:0 93:1 105:1 125:1 
0.8195020741112992 21.31345221834895 7.994679206303801 13.33627554040172 0 1.759773316751902 1.315382458843313 0 18:1 72:1 84:0 87:1 105:1 117:1 
0 0 0.002110739663359368 0 0 0 0 0 3:1 21:0 30:1 42:0 45:1 63:0 79:1 84:0 98:1 105:1 118:1 
0.3232128711507056 0 2.906681199138265 0 0 0 0 0 3:1 21:0 43:1 56:1 60:1 72:1 84:1 105:1 118:1 
0.1866593029003638 0 0 0 0 0 0.1368860203629956 0.03381401066516378 3:1 21:1 22:1 35:1 39:1 51:1 63:0 105:1 119:1 
0.7095080566594791 0 0 0 0.2893961705507127 0 0 0.1081772655123999 3:1 21:0 22:1 35:1 39:1 51:1 63:0 66:1 84:1 105:1 119:1 
0 0 1.386699318685425 0 0 0 0 0 3:1 21:1 30:1 42:0 45:1 63:0 105:1 118:1 
0 0 0 0 0 0.1332600205803455 0 0 3:1 21:0 22:1 35:1 39:1 63:0 72:1 84:1 105:1 117:1 
0 0 0 7.121356819943308 0 0 0.8541037973602078 0 3:1 21:1 42:0 51:1 63:0 105:1 119:1 
0 0 3.269957129962184 0 0 0 0 0 3:1 21:0 43:1 56:1 60:1 72:1 84:0 93:1 105:1 118:1 
0 0 0.8403967121781643 0 0 0 0 0 3:1 21:1 30:1 42:0 51:1 63:0 105:1 119:1 
3.069197329388505 0 0 0 0 0 0 0 3:1 21:0 22:1 35:1 39:1 45:1 63:0 72:1 84:1 93:1 105:1 118:1 
0 0 0 0 0 0.00791493347277105 0 0 3:1 21:0 22:1 35:1 39:1 63:0 72:1 84:1 93:1 105:1 117:1 
0 0.02360231175685888 0 0 0 0 0 0 1:1 14:1 18:1 66:1 84:0 93:1 105:1 117:1 
0 0 1.088342008277652 0 0 0 0 0 3:1 21:0 43:1 56:1 60:1 72:1 84:0 93:1 105:1 118:1 
0.8215609847485338 0 0 0 0 0 0 0.06365352624610718 3:1 21:1 30:1 42:0 51:1 63:1 105:1 119:1 
0 6.119328872699997 0 0 0 0 0 0 1:1 14:1 18:1 72:1 84:0 93:1 105:1 117:1 
0.9141806415762272 0.1384175095309877 1.35244138244822 0 1.590811260883956 0 0 0 3:1 21:1 30:1 42:0 51:1 63:0 66:1 84:1 105:1 119:1 
0 0.1325339616013353 0 0 0 0 0 0 3:1 21:1 30:1 42:0 45:1 63:1 105:1 118:1 
0.0219401895633686 0.08307747388294515 0 0 0 0 0 0 1:1 14:1 18:1 84:0 87:1 105:1 117:1 
1.217891087357254 0.5885445877955734 0.01621371407850213 0 0.1495953157818409 0.6616673256123311 0.7156968621849505 0 3:1 21:1 30:1 42:0 51:1 63:1 66:1 84:1 105:1 119:1 
0.6499909947782433 0.1085884760148804 0.2874037358812122 3.064433675004549 0 0 0.5777660011634741 0.01168185460206467 3:1 21:1 30:1 42:1 45:1 63:1 105:1 118:1 
0 8.466374938080854 0 0 0 0 0 0 1:1 14:1 18:1 66:1 84:0 93:1 105:1 117:1 
1.22532429185555 0 0 0 0 0 0 0 3:1 21:0 43:1 56:1 60:1 72:1 84:0 100:1 105:1 118:1 
1.45405861636041 0 0 0 0 0 0 0 3:1 21:0 22:1 35:1 39:1 51:1 63:0 79:1 84:0 98:1 105:1 119:1 
0.3948483211660243 6.094934450886322 0 0 1.324598834479578 0 0.5121014144623854 0 1:1 14:1 18:1 66:1 84:0 87:1 105:1 117:1 
0.7870793051563469 0 8.407903994873838 0 0.2588517509279026 0 0 0 3:1 21:0 43:1 56:1 60:1 66:1 84:0 93:1 105:1 118:1 
0.2632789237999787 0 0 0 0 0 0 0 3:1 21:0 22:1 35:1 39:1 45:1 63:0 72:1 84:0 100:1 105:1 118:1 
0 8.401894524104408 0 0 0 0 0 0 1:1 14:1 18:1 72:1 84:0 87:1 105:1 117:1 
0.3986315447775326 0 0 0 0 0 0 0 3:1 21:0 22:1 35:1 39:1 51:1 63:0 66:1 84:0 100:1 105:1 119:1 
0.4276199285096752 0.03907901544930903 0.8894809705045279 0 0.3607232833467715 0 0 0 3:1 21:0 30:1 42:0 45:1 63:0 79:1 84:0 98:1 105:1 118:1 
0.0775084754720404 2.584043363417585 0 0 0 1.318401659488752 0.2303478636683605 1.720810216047456 1:1 14:1 18:1 84:0 87:1 105:1 117:1 
0 2.370245893351437 2.442164924735146 9.769426348762211 0 0 0 0 1:1 14:1 18:1 84:0 93:1 105:1 117:1 
0 0 0 0.2147255492675706 0 0 0 0 3:1 21:0 42:0 51:1 63:0 79:1 84:0 98:1 105:1 119:1 
0 0 0 0 0 1.128985229370811 0 1.687092659174696 3:1 79:1 84:0 87:1 105:1 117:1 
1.943516663613525 4.509200421158282 1.642812676865309 5.656092302591587 2.838828298321007 0.2221407383211158 0.4680844245144117 0 18:1 66:1 84:0 100:1 105:1 117:1 
0 0 0 0 0 0 0 0.0146798847494456 3:1 21:0 45:1 79:1 84:0 87:1 105:1 118:1 
1.479135121115206 0 0 0 0.6379242115186671 0 0 0 3:1 21:0 56:1 60:1 66:1 84:0 100:1 105:1 125:1 
0.7227153837417776 0 0 0 0 0 0 0.3802284658029832 3:1 21:0 35:1 39:1 45:1 63:0 79:1 84:0 87:1 105:1 118:1 
0.1620618481643439 2.815845306972375 0 2.550909578944339 0.1668121672416518 2.274500690101762 0.39386829488167 0.490670607439165 3:1 21:0 24:1 42:0 58:1 63:0 84:1 95:1 105:1 126:1 
0 0.2586402481125012 0 1.113687133532847 0 0.6604624870967618 1.473374573474501 0 3:1 21:1 32:1 42:0 54:1 63:1 66:1 84:1 105:1 122:1 
0.03109869701453008 0 0 3.070566987851987 0.04789758150652786 0 1.154258341684916 0.06701217998822552 3:1 21:1 33:1 42:1 45:1 63:1 105:1 118:1 
0.4682864689021564 0 0 0 0 0 0 0 3:1 21:1 38:1 42:0 56:1 60:1 63:0 107:1 125:1 
0.3767618181731046 0 0 0 0 0 0.07167292376345334 0 3:1 21:1 38:1 42:0 56:1 60:1 63:1 107:1 125:1 
0 0.04576187748284521 0.01576921214362226 0 0 0 0 0 3:1 21:1 38:1 42:0 56:1 60:1 63:1 112:1 125:1 
4.242990332473402 0 0 7.544024311105517 1.361844963460461 0 0 3.101580311555223 18:1 72:1 84:0 107:1 117:1 
2.985402589225394 0 0 2.773292795355647 0 0 0 0 18:1 72:1 84:0 93:1 105:1 107:1 117:1 
0.3748606419105089 0 0 0 0 0 0 0 18:1 72:1 84:0 93:1 105:0 107:1 117:1 
0.1053047342973187 0 2.097052636794641 0 1.278059835481562 0.06261430137630079 0.2815202022558484 0 18:1 66:1 84:0 93:1 105:1 107:1 117:1 
0.1472424921214787 0 0 0 0 0 0 0 3:1 21:0 60:1 72:1 84:1 107:1 118:1 
0 0.01256752942797435 0 0 0 0 0 0 18:1 66:1 84:0 93:1 105:0 107:1 117:1 
0.4276475330885328 3.995217759345174 0 0 0.01540271203097877 0.1210407814617055 0 1.863830957630052 18:1 66:1 84:0 93:1 105:0 107:1 117:1 
0 0 0 0 0 0 0 0.2362256265426327 3:1 72:1 84:0 100:1 105:0 107:1 117:1 
0 0 0 5.691858347225892 0 0 0 0 3:1 105:1 117:1 
0 0.4410203971698606 0.6114301807060981 3.030497787233404 1.098531374109499 0 0 0.2500036439712236 3:1 21:1 38:1 42:0 56:1 60:1 63:0 112:1 125:1 
0 0.3276164731585668 0 6.474454109394356 0.1489830254565042 0.01396138625069644 0.2684602156853859 0.1278160382086054 3:1 21:1 38:1 42:0 56:1 60:1 63:1 112:1 125:1 
0 0 0.6254043850332448 0 0 0 0 0.1922684132599715 3:1 21:1 38:1 42:0 56:1 60:1 63:0 110:1 125:1 
0 0 0 0 0 0.01191383299111652 0.2684602156853849 0.2051999196555054 3:1 21:1 38:1 42:0 56:1 60:1 63:1 110:1 125:1 
0 0 0.05357570220877489 0 0 0 0 0 3:1 21:1 38:1 56:1 60:1 63:0 111:1 125:1 
0 0 0.4660480422541911 0 0 0 0 0.3495545853913846 3:1 21:1 38:1 42:0 56:1 60:1 63:0 111:1 125:1 
0 0 0.1043703365186742 0 0 0.01223569497721425 0.2761283814719427 0.05386696458099943 3:1 21:1 38:1 42:0 56:1 60:1 63:1 111:1 125:1 
-0 0 0 0.532402898014351 0 0 0 0 9:1 21:1 35:1 39:1 45:1 63:0 105:1 118:1 
-0 1.285491438164491 1.087842699620714 9.527740224026696 2.760635696339357 0.3955117433758708 0 0 9:1 21:0 56:1 60:1 66:1 84:1 105:1 125:1 
-0 1.409965422919044 0 2.095436835277749 0.3052694527319223 0.9461556275056638 0.4742176166242216 0 9:1 21:0 35:1 39:1 63:0 66:1 84:1 105:1 117:1 
-0 0 0 0 0.09514132404285643 0 0 0 9:1 21:0 35:1 39:1 51:1 63:0 66:1 84:1 105:1 119:1 
-0 0 0.3090583773175566 3.428666601519607 0 0 0 0 9:1 21:0 56:1 60:1 72:1 84:0 87:1 105:1 125:1 
-0 0.6044512784137328 0.2047730190974154 3.009820511610674 0 1.179193723887784 0.2546108777196474 0.7329974265649237 9:1 21:0 35:1 39:1 63:0 72:1 84:1 87:1 105:1 117:1 
-0 0 1.91174788253445 8.009651375758445 0 0 0 0 9:1 21:0 24:1 51:1 63:0 72:1 84:1 105:1 119:1 
-0.01890182978520099 0 0 0 0 0 0 0 9:1 21:1 30:1 42:0 51:1 63:0 66:1 84:1 105:1 119:1 
-0.07806519111493616 0 5.48532999135819 6.639000040708041 0.1841238508030631 0 0 0 9:1 21:0 56:1 60:1 72:1 84:0 93:1 105:1 125:1 
-0.01621428790075759 0 0 0 0 0 0 0 9:1 21:1 24:1 42:0 51:1 63:1 72:1 84:1 105:1 119:1 
-0 0 0 0 0.01260900186946596 0 0 0 9:1 21:1 30:1 42:1 51:1 63:1 105:1 119:1 
-0.01197841010048324 0 0 0 0 0 0 0 9:1 21:1 30:1 42:0 51:1 63:0 66:1 84:1 87:1 105:1 119:1 
-0 0 2.720704739671101 0 0 0 0 0.9174963638601021 9:1 21:0 45:1 84:0 98:1 105:1 118:1 
-0 0 0 5.852291460940314 2.814398180015838 0 0 0 9:1 21:0 45:1 84:0 105:1 118:1 
-0 0 0 0 0.4485758193253562 0 0 0 9:1 21:0 35:1 39:1 45:1 63:0 84:0 105:1 118:1 
-0.02390443440539849 0 0 0 0 0 0 0 9:1 21:0 45:1 79:1 84:0 98:1 105:1 118:1 
-2.040506775445433 0 0 0 2.189758224963787 0 0 0 9:1 21:0 56:1 60:1 66:1 84:0 100:1 105:1 125:1 
-0.006572699706872949 0 0 0 0 0 0 0 9:1 21:0 24:1 45:1 63:0 79:1 84:0 98:1 105:1 118:1 
-0 0 0.0331219386523108 0 0 0 0 0 9:1 21:0 24:1 42:0 45:1 63:0 79:1 84:0 98:1 105:1 118:1 
-0.3864585236905064 0 6.692969159615942 0 2.161223343663808 0 1.115767001242658 0.7493132265581364 9:1 21:0 56:1 60:1 66:1 84:0 87:1 105:1 125:1 
-0.976118250849604 0 0 0 0 0 0 0 9:1 21:0 35:1 39:1 63:0 66:1 84:0 100:1 105:1 117:1 
-0 0 0 0 0.05437548249451322 0 0.2871965005237346 0.03498055250818496 9:1 21:0 60:1 66:1 84:0 87:1 105:1 118:1 
-0 0 0 0.1042955692582286 0 0 0 0 9:1 21:1 22:1 35:1 39:1 45:1 63:0 105:1 118:1 
-0.03310037583196004 0 0.8047970634866948 0 0.3841683334731621 0 0 0 9:1 21:0 43:1 56:1 60:1 66:1 84:1 105:1 118:1 
-0 1.320542878780758 0 0 0.6049486946899106 0.9238716404163116 0 0 9:1 21:1 24:1 42:0 45:1 63:0 105:1 118:1 
-0 0 4.429635589179679 0 0 0 0 0 9:1 21:0 43:1 56:1 60:1 66:1 84:0 87:1 105:1 118:1 
-0 0 0 0.8352004128309984 0 0 1.37072059614403 0 9:1 21:1 42:0 45:1 63:0 105:1 118:1 
-0 0.1598656396260867 0.1854984913188284 0.1239496216730692 0.1856052047844898 0.1715787216648686 0.2063081237504676 0 9:1 21:0 22:1 35:1 39:1 63:0 66:1 84:1 105:1 117:1 
-0 0 1.46194040719303 3.522627970502756 0 0 0 0 9:1 21:1 24:1 42:0 51:1 63:0 105:1 119:1 
-0.02992206006189393 0 0 0 0 0 0 0 9:1 21:0 43:1 56:1 60:1 72:1 84:0 87:1 105:1 118:1 
-0.5696902779985457 0 0 0 0.2147606092666967 0 0 0 9:1 21:0 22:1 35:1 39:1 51:1 63:0 66:1 84:1 105:1 119:1 
-0 0.1278791832670283 0 0 0 0.8352442102348775 0 0 9:1 21:1 24:1 42:0 45:1 63:0 72:1 84:1 105:1 118:1 
-0.3336017303903315 0 0.2598433271746796 0 0 0 0 0 9:1 21:0 43:1 56:1 60:1 72:1 84:0 87:1 105:1 118:1 
-0.660320036151104 0 0 0 0 0 0 0 9:1 21:0 22:1 35:1 39:1 51:1 63:0 66:1 84:1 87:1 105:1 119:1 
-0 0 0 0 0 0 0.6160787655962414 0 9:1 21:1 42:0 45:1 63:0 72:1 84:1 105:1 118:1 
-0 0.9510506579199316 0.4972208193891279 5.243316677144795 0 0.9705305561107521 0.8542244620542967 0 9:1 21:1 24:1 42:0 51:1 63:1 105:1 119:1 
-0.2704534693519427 0.2804906262548401 0.3256550876534663 0.05526338675228028 0 0.04997204651034388 0.08431848377155696 0.5802385790249698 9:1 21:0 22:1 35:1 39:1 63:0 72:1 84:1 87:1 105:1 117:1 
-0 0 0 0 0 0 0.3825127791477234 0 9:1 21:1 42:0 51:1 63:0 66:1 84:1 105:1 119:1 
-2.467205168888427 0 0 0 0 0 0 0 9:1 21:0 22:1 35:1 39:1 45:1 63:0 72:1 84:1 93:1 105:1 118:1 
-0.7965001320140044 0 0 0 2.125580361810844 0 0 0 9:1 21:1 30:1 42:0 51:1 63:0 66:1 84:1 105:1 119:1 
-0 0.006366990170884783 0.0368604216802145 0 0 0 0 0 9:1 21:0 24:1 42:0 45:1 63:0 72:1 84:1 93:1 105:1 118:1 
-0.8546036022093014 0.1995626299205208 0 3.056459496273229 0 0 0 0 9:1 21:1 30:1 42:0 51:1 63:1 105:1 119:1 
-0.8852234279841082 0 7.215341958908473 0 0 0 0 0 9:1 21:0 43:1 56:1 60:1 72:1 84:0 93:1 105:1 118:1 
-0.03136927905373085 0 0 0 0 0 0 0 9:1 21:0 22:1 35:1 39:1 51:1 63:0 72:1 84:0 87:1 105:1 119:1 
-0 0 0.332715778856026 0 0 0 0 0 9:1 21:0 30:1 42:0 51:1 63:0 66:1 84:1 87:1 105:1 119:1 
-0.5627821655518643 0.5461328242811303 0.6074424816368583 0 0 0.2084623209602509 0 0 9:1 21:1 24:1 42:0 45:1 63:0 72:1 84:1 93:1 105:1 118:1 
-0.3322717269773791 0.7499756845044007 0 0 0 1.110222992642397 0.1188028495394729 0 9:1 21:1 24:1 42:0 51:1 63:1 72:1 84:1 105:1 119:1 
-1.195998594223361 0.4262151721337379 0 0.260063112647297 0.201690268516158 0 0.9746620441575126 0.08613314653187065 9:1 21:1 30:1 42:1 51:1 63:1 105:1 119:1 
-0.2759119948595832 0 0 0 0 0 0 0 9:1 21:0 22:1 35:1 39:1 63:0 72:1 84:0 93:1 105:1 117:1 
-0.7231318918189701 0.4879044361973231 0.05620473555823249 0 0 0.04627318911817869 0.6300672086965881 0.4011399155311391 9:1 21:1 30:1 42:0 51:1 63:0 66:1 84:1 87:1 105:1 119:1 
-1.294239549705121 0 0 0 0 0 0 0 9:1 21:0 22:1 35:1 39:1 45:1 63:0 79:1 84:0 98:1 105:1 118:1 
-1.328455190978445 0 0 0 0 0 0 0 9:1 21:0 43:1 56:1 60:1 66:1 84:0 100:1 105:1 118:1 
-0 0.4596131195788987 0.05774297514401143 0 0.1121671117843035 0 0 0 9:1 21:0 24:1 42:0 45:1 63:0 79:1 84:0 98:1 105:1 118:1 
-0 0 1.619922891897538 0 0.01380142677104306 0 0 0.2286552180201868 9:1 21:0 43:1 56:1 60:1 66:1 84:0 87:1 105:1 118:1 
-0.649442658779404 0 0 0.5545743697376593 0 0 0 0 9:1 21:0 42:0 45:1 63:0 79:1 84:0 98:1 105:1 118:1 
-0.7458731089212558 0 0 0 0.04575613327570935 0 0 0 9:1 21:0 22:1 35:1 39:1 63:0 66:1 84:0 100:1 105:1 117:1 
-0.686367933774701 5.014078175660159 0.01267873287152551 6.700143985945161 0 1.483087285045156 0.4425688678751528 7.337131101661665 9:1 107:1 117:1 
-4.460308770073993 0 0 0 0 0 0 0 9:1 72:1 84:0 107:1 117:1 
-3.31166073725463 1.634913874195496 0 0 0.1984199595503737 0 0 0.3726146892384687 9:1 72:1 84:0 93:1 105:1 107:1 117:1 
-0 0 0 0 0.0862100620946229 0 0 0 9:1 21:1 30:1 51:1 63:0 107:1 119:1 
-0 0 0 0 0.5704812469974544 0 0 0 9:1 21:0 45:1 72:1 84:0 93:1 105:1 107:1 118:1 
-0 0 0 0 0.5668893664949618 0 0 0 9:1 21:1 30:1 42:0 51:1 63:0 107:1 119:1 
-0 0 0 0 0.3446705327035072 0 0 0 9:1 21:1 39:1 45:1 63:0 107:1 118:1 
-0 0 0 0 0.1343857560646702 0 0 0 9:1 21:1 24:1 42:0 51:1 63:0 107:1 119:1 
-0.4242673052575357 0 0 0 0.2360127399368489 0 0 0 9:1 21:1 30:1 42:0 51:1 63:1 107:1 119:1 
-0 0 0 0 0 0 0 0.1125855460796324 9:1 21:0 45:1 79:1 84:0 98:1 105:1 107:1 118:1 
-0.3268118942994779 0 0 0 0 0 0 0 9:1 21:0 45:1 72:1 84:0 100:1 105:0 107:1 118:1 
-0.03128552547309153 0 0.3478810934544659 0 0.9704887478407491 0 0 0.6058380723316222 9:1 21:0 24:1 51:1 63:0 79:1 84:0 98:1 105:1 107:1 119:1 
-0.3894982522894646 0 1.231004714367333 0 0 0 0 0.1021630348497485 9:1 21:0 30:1 42:0 51:1 63:0 79:1 84:1 98:1 105:1 107:1 119:1 
-0.01901946225242037 -0 0 0 0 0 0 0 14:1 18:1 66:1 84:0 87:1 105:1 117:1 
-0.02469099812789285 -0 0 0 0 0 0 0 14:1 18:1 72:1 84:0 93:1 105:1 117:1 
-6.367374227681395 -1.360074567227648 0.267535818082906 2.335456690597965 0 0 0 0 14:1 18:1 72:1 84:0 93:1 105:1 117:1 
-0 -0 0.9307172118722316 0 0 5.924796133953794 0 0 14:1 21:0 24:1 63:0 84:1 105:1 117:1 
-0.01017612844492547 -0 0 0 0 0 0 0 14:1 21:0 24:1 63:0 84:0 105:1 117:1 
-0 -0 12.49881197295851 3.433601229276394 0.5780520388253646 0.06677180247856755 0 0 14:1 21:1 30:1 42:0 63:0 84:1 105:1 117:1 
-0.3777758854992641 -2.757517563521276 0.9959151567566257 5.174983233824208 0.7940636520353832 2.758583969307774 3.174281525463933 0.6003369226674827 14:1 21:1 42:0 63:1 84:1 105:1 117:1 
-0.7341807754248578 -5.314482789019991 1.99526137985974 4.515344516655655 5.219615271148268 0 0 2.163089144652417 14:1 21:0 24:1 63:0 84:0 105:1 117:1 
-0 -0 3.820862202204308 0 1.154084851845589 0 0 1.23056500527866 14:1 21:0 30:1 42:0 58:1 63:0 77:1 81:1 84:1 105:1 126:1 
-14.25960082698135 -0 0 0 0.34991847534263 0 0 0 14:1 18:1 66:1 84:0 93:1 105:1 117:1 
-0.4466063207522561 -0 0 0 0 0 0 0 14:1 21:0 24:1 42:0 58:1 63:0 69:1 84:1 86:1 105:1 126:1 
-0.3790819797135355 -0 0 0 0 0 0 0 14:1 21:0 30:1 42:0 58:1 63:0 70:1 84:1 100:1 105:1 126:1 
-29.13404258874301 -0.9737032613032893 0.2478975409543779 4.339560899229827 0 0.2436901884179523 0 0.5352592480109263 14:1 18:1 72:1 84:0 87:1 105:1 117:1 
-0 -0 0 0 0 0 0 0.9031809878065064 14:1 18:1 84:0 87:1 105:1 117:1 
-0.005498492166565288 -0 0 0 0 0 0 0 14:1 21:1 30:1 42:0 58:1 63:0 84:1 95:1 105:1 126:1 
-0.3368725715850667 -0 0.009959107107639488 0 0 0.5300440543548873 0.3116323899549117 0 14:1 21:1 24:1 42:0 58:1 63:0 67:1 84:1 90:1 105:1 126:1 
-0 -0 0 0 0 0 0.2535948597694629 0 14:1 21:1 30:1 42:0 58:1 63:0 72:1 84:1 105:1 126:1 
-1.257547206232292 -0 0 0 0 0 0.1774932253316725 0 14:1 21:0 24:1 42:0 58:1 63:0 64:1 84:0 100:1 105:1 126:1 
-0.5544846020080701 -0 0 0 0 0 0.251128003748496 0 14:1 21:1 30:1 42:0 58:1 63:0 84:1 95:1 105:1 126:1 
-0.2705802874498065 -0 0 0 0 0.6588433181059633 0.1397112820365868 0 14:1 21:1 24:1 42:0 58:1 63:0 84:1 100:1 105:1 126:1 
-7.926449137672392 -0.09915958496785278 0 0 0.3541608374240449 0.08429297674180182 1.431157588273726 0 14:1 18:1 66:1 84:0 87:1 105:1 117:1 
-0.7861423663639083 -0 0 0 0 0.2519274880531956 0 0.5320345221007531 14:1 18:1 79:1 84:0 87:1 105:1 117:1 
-0.2099417821361655 -1.47917969663796 0.04134852650469763 0 0.5621304376925373 0 0 0 14:1 18:1 21:0 59:1 66:1 84:1 107:1 127:1 
-1.118125724660575 -0.5943891599979692 0 0 0.2058538376427758 0 0 0.4805818995900779 14:1 18:1 21:0 38:1 59:1 63:0 66:1 84:1 107:1 127:1 
-0.3375628203469817 -0 0.3656242157909816 0.0512402654030825 0.05333560675693953 0.05359187823470312 0.2121720996467356 0.006905004919924977 14:1 18:1 21:1 38:1 42:0 59:1 63:0 66:1 84:1 107:1 127:1 
-0 -0 0 3.361143227400845 0 0 0 0 14:1 18:1 84:0 93:1 105:1 112:1 117:1 
-0 -0 0 2.723588666069487 0 0 0 0.5518154103889411 14:1 21:0 58:1 84:1 112:1 126:1 
-0 -0.3870148527192306 0 1.056603107336928 0.9517632284977022 0 0 0.3404454296134959 14:1 21:0 58:1 84:0 93:1 105:1 112:1 126:1 
-0 -0 0 2.771266778127702 0.5044338758170409 0 0.3640308131054306 0 14:1 21:0 58:1 84:0 105:1 112:1 126:1 
-0 -0.1976960748335749 0 0 0 0 0.4131324940277294 0 14:1 21:0 58:1 84:0 93:1 105:1 126:1 
-0 -2.242560487053955 0 0 0 0 0 0 14:1 21:1 30:1 42:0 58:1 63:0 84:1 107:1 126:1 
-1.117873631246101 -0 0 0 0 0 0.1708780347848184 0.03064172393709906 14:1 21:1 30:1 42:0 58:1 63:1 84:1 107:1 126:1 
-0.05806834277643472 -0 2.015793148080909 0.7514890497674561 3.010378299876564 0 0 3.96065180875045 14:1 18:1 77:1 81:1 84:0 105:1 112:1 117:1 
-0 -0 0 0.7935086369726607 0 0 0 0 14:1 18:1 69:1 84:0 105:0 112:1 117:1 
-0 -0 0 0.6859925405106606 0 0 0 0 14:1 18:1 68:1 84:0 105:1 112:1 117:1 
-0 -0 0 3.039219654023032 0 0 0 0 14:1 18:1 84:0 105:0 112:1 117:1 
-0.324806599834201 -0 0 0 0 0 0 0 14:1 18:1 84:0 91:1 105:1 117:1 
-0.01718161978691379 -0 0 0.005320269015639901 0 0 0 0 14:1 18:1 84:0 100:1 105:0 112:1 117:1 
-0 -0.2587219947057171 0 0.7991575097212753 0 0 0 0 14:1 18:1 64:1 84:0 100:1 105:0 112:1 117:1 
-0.9752091460720778 -0 0 0.7941465044657282 0 0 0 0 14:1 18:1 84:0 95:1 105:0 112:1 117:1 
-1.821094085790559 -0 0 0.5579496405354429 0 0 0 0 14:1 18:1 84:0 100:1 105:0 112:1 117:1 
-0 -0 0 1.518439275910649 0 0 0 0 14:1 18:1 76:1 84:0 105:0 112:1 117:1 
-0 -0 0 1.912843119922259 0 0 0 0 14:1 18:1 21:0 59:1 66:1 84:1 112:1 127:1 
-0 -0 0 0 0.01940913336228566 0 0 0 14:1 18:1 21:0 38:1 59:1 63:0 66:1 84:1 112:1 127:1 
-0 -0 0 0.8523275950905421 0 0.0553414397293318 0.07534967258610883 0 14:1 18:1 21:1 38:1 42:0 59:1 63:0 66:1 84:1 112:1 127:1 
-0 -0 0.002979883866663607 0 0.1320451727487716 0 0 0 14:1 18:1 21:0 59:1 66:1 84:1 110:1 127:1 
-0 -0 0 0 0.04835459312069957 0 0 0.5781694083449467 14:1 18:1 21:0 38:1 59:1 63:0 66:1 84:1 110:1 127:1 
-0 -0 0.4069846297726953 0.05054137394925987 0 0.05359187823470313 0.3416800704726805 0 14:1 18:1 21:1 38:1 42:0 59:1 63:0 66:1 84:1 110:1 127:1 
-0 -0 0.05125280571444014 0 0.03541861137561056 0 0 0 14:1 18:1 21:0 59:1 66:1 84:1 111:1 127:1 
-0 -0 0 0 0.1457310194314081 0 0 0.5097261256813012 14:1 18:1 21:0 38:1 59:1 63:0 66:1 84:1 111:1 127:1 
-0 -0 0.3615944978840299 0.05098647456028451 0 0.04973570320638817 0.3412826928353861 0.05342970766000738 14:1 18:1 21:1 38:1 42:0 59:1 63:0 66:1 84:1 111:1 127:1 
-3.529464554380827 -0.200225418469285 -0 0 0 0 0 0 21:0 56:1 60:1 66:1 84:0 93:1 105:1 125:1 
-0.1546373784116036 -0 -0 5.199162815867192 0 0 0 0 21:0 56:1 60:1 72:1 84:0 87:1 105:1 125:1 
-0 -4.105840119762187 -0 0 0 0 0 0 21:0 56:1 60:1 72:1 84:0 93:1 105:1 125:1 
-0 -7.080340071884295 -0.6620813379314242 11.09238316022312 2.718058734743568 0.4690181721844623 2.259847774585236 1.481229219665425 21:0 56:1 60:1 66:1 84:0 87:1 105:1 125:1 
-5.890552290418708 -1.681021634856267 -0.5280619892852368 21.30557480198183 0 0 0 0 21:0 56:1 60:1 72:1 84:0 93:1 105:1 125:1 
-0 -0 -0 11.3665815579089 15.79247876339832 0 0 0 21:0 24:1 51:1 63:0 77:1 84:1 105:1 119:1 
-3.582052433804848 -5.380609304832497 -3.195155682741214 24.05162641466032 1.08236570120139 3.07620428623208 1.201921403480497 1.779620408612445 21:0 24:1 42:0 51:1 63:0 84:1 98:1 105:1 119:1 
-7.590120260461011 -1.071091130889898 -15.60956644208297 15.29701754483927 3.467026665623995 4.425144841626392 2.643791682532438 3.81432039169282 21:1 30:1 42:0 63:0 77:1 84:1 105:1 117:1 
-0.7722545227696211 -1.659791393546312 -0 0 6.623877603566403 0 0 2.86909678751611 21:0 45:1 77:1 84:0 105:1 118:1 
-3.820813330289589 -0.007723049398817225 -0.7610905005364713 0 6.28410863202442 0 0 0 21:0 56:1 60:1 66:1 84:0 93:1 105:1 125:1 
-5.679214006765259 -0.743069747581371 -0.577523506102377 31.33635313647036 0 0.5911816511288498 0 1.531760936189855 21:0 56:1 60:1 72:1 84:0 87:1 105:1 125:1 
-0 -0.02083753669644155 -0 0 0 0 0 0 21:0 43:1 56:1 60:1 72:1 84:0 87:1 105:1 118:1 
-3.783382599552925 -0 -0 0 0 0 0 0 21:0 43:1 56:1 60:1 72:1 84:0 93:1 105:1 118:1 
-0 -6.209325340881131 -0.2270434003131466 0 0 0.1910687193085297 0.6708030890133281 0.1927736404231886 21:0 43:1 56:1 60:1 66:1 84:0 87:1 105:1 118:1 
-1.644797845984851 -7.474930866455684 -0.1511430977562387 0 0 0 0 0 21:0 43:1 56:1 60:1 72:1 84:0 93:1 105:1 118:1 
-8.629418395041256 -0.3988975403807354 -0.1491485404869443 0 0.4149505666176711 0 0 0 21:0 43:1 56:1 60:1 66:1 84:0 93:1 105:1 118:1 
-2.853273861987391 -0.6182020756217993 -0.1117740919971878 0 0 0.07488222561863865 0 0.1395888151386486 21:0 43:1 56:1 60:1 72:1 84:0 87:1 105:1 118:1 
-0 -0 -0.6285674027783359 0.5564018007457658 0 0 0 0 21:0 37:1 42:0 45:1 63:0 74:1 84:1 96:1 105:1 118:1 
-0 -1.132143060616649 -0 5.861761042633111 0 0.9492742701176675 1.576477070955009 0 21:1 37:1 42:0 45:1 63:0 74:1 84:1 96:1 105:1 118:1 
-2.822190412836452 -0.1438860857645027 -1.411382105399202 3.95662787950028 0.6347834677021215 0 0 0.5744243872140008 21:0 37:1 42:0 45:1 63:0 74:1 84:0 96:1 105:1 118:1 
-0 -0 -0 -0 1.219298671648031 0 0 0 21:1 42:0 56:1 63:0 105:1 125:1 
-0 -0 -0 -0 0 0 1.40655318724956 0 21:1 42:0 56:1 63:1 105:1 125:1 
-4.61688730296577 -14.0712114447912 -0.9449174949295679 -32 6.83139212088711 3.102988622220356 0.9254343323737041 0.4768146545538801 21:0 24:1 51:1 63:0 84:1 105:1 119:1 
-0 -0 -0 -6.739683831288737 0 0 0 0 21:1 30:1 42:0 63:0 84:1 105:1 124:1 
-0 -0 -0 -0 0 0 0.5824663518696936 0 21:1 42:1 56:1 63:1 105:1 125:1 
-4.881440237106779 -0 -6.164934100309322 -0 0 0 0 0 14:1 18:1 21:1 37:1 42:0 56:1 63:0 84:1 105:1 125:1 
-0 -0 -0 -0 2.027760831350212 0 0 0 16:1 21:1 35:1 42:0 49:1 63:1 84:1 105:1 124:1 
-0 -0 -0.4096871672285898 -0 0 0 0 0 21:1 28:1 42:1 58:1 63:1 105:1 124:1 
-0 -0 -0 -0 0.3745211692408956 0 0 0 16:1 21:1 34:1 42:1 63:1 73:1 76:1 84:1 97:1 105:1 124:1 
-0 -0 -0.6985156244793266 -0 0 0 0 0 10:1 13:1 21:1 42:1 58:1 63:1 76:1 84:1 105:1 124:1 
-0 -0 -0 -12.04310453229118 0 0.7628874812645197 0.3529910043395452 0 21:1 37:1 42:0 56:1 63:0 84:1 87:1 105:1 125:1 
-0 -0 -0.6306819844116871 -0.7125576454383777 0 0 0 0 21:1 35:1 42:0 63:1 66:1 84:1 105:1 124:1 
-13.36777392382235 -0 -0 -0 0 0 0 0 3:1 21:1 42:1 63:1 105:1 124:1 
-0 -0 -0 -0 0 0 0.1323147049937122 0.01746026369243976 4:1 21:1 37:1 42:0 56:1 63:1 69:1 84:1 105:1 125:1 
-0 -10.07622502839202 -0 -0 0 0 0.07461499015305957 0 9:1 21:1 37:1 42:0 56:1 63:1 84:1 105:1 125:1 
-0 -0 -0 -0 0.6285066874427659 0 0 0 1:1 21:0 37:1 42:0 56:1 63:0 79:1 84:0 85:1 105:1 125:1 
-0 -0 -0 -0 0 0 0 0.1035847222096114 16:1 21:0 35:1 42:0 43:1 63:0 64:1 84:1 94:1 97:1 105:1 124:1 
-0 -0 -0.3908484369344412 -0 0 0 0 0 1:1 21:1 22:1 42:0 58:1 63:0 73:1 76:1 84:1 94:1 105:1 124:1 
-0 -0 -0 -0 0 0 0 0.05112290583177018 10:1 21:1 22:1 42:1 52:1 55:1 63:1 73:1 84:1 94:1 97:1 105:1 124:1 
-0 -0 -0 -0.4839785830084689 0 0 0 0.2415011703988031 10:1 21:1 31:1 34:1 42:1 52:1 63:1 73:1 76:1 84:1 94:1 97:1 105:1 124:1 
-0 -0 -0 -0 0 0 0 0.1367942951156887 10:1 13:1 21:1 31:1 42:1 52:1 55:1 63:1 105:1 124:1 
-0 -0 -0 -2.632817805053397 0 0 0.1045585455041691 0 21:1 37:1 42:0 56:1 63:1 74:1 84:1 96:1 105:1 125:1 
-0 -0 -0 -0 0 4.017214663368701 0 0 11:1 21:1 35:1 42:1 63:1 75:1 84:1 105:1 124:1 
-0 -0 -0 -0 0 0 14.03252747363292 0 12:1 21:1 42:1 53:1 63:1 105:1 124:1 
-0 -0 -0 -0 0 0 0.06255459593861666 0 21:1 37:1 42:0 56:1 63:1 79:1 84:1 96:1 105:1 125:1 
-0 -0 -0.4104677245844655 -0 0 0 0 0 12:1 21:1 42:1 58:1 63:1 105:1 124:1 
-0 -0 -6.065780405565994 -0 3.256400428906737 0 0 4.491329679736999 112:1 117:1 
-0 -0.2874233276912195 -0 -0 0 0 0 0 72:1 84:0 112:1 117:1 
-0 -0 -0 -0 0.007294060205372273 0 0 0 84:0 105:1 112:1 117:1 
-32 -5.222029819403791 -8.0733421302017 -17.49992601874022 0.4366891431129023 1.574460527123216 0.5701343926729716 0.6126945054240169 72:1 84:0 105:1 117:1 
-0 -12.55265917067027 -0 -0 0 0 0 0 9:1 21:0 84:0 105:1 124:1 
-0 -3.324321557313732 -0 -0 0 0 0 0 9:1 21:1 35:1 39:1 63:0 112:1 124:1 
-0 -0 -0 -0 1.858392992963471 0 0 0 21:0 56:1 60:1 84:0 105:1 112:1 125:1 
-11.39769910435482 -10.56112390568476 -0 -32 3.72512975635002 0 0 0 21:0 56:1 60:1 72:1 84:0 105:1 125:1 
-0 -1.967646791001847 -0 -0 0 0 0 0 9:1 21:0 35:1 39:1 63:0 84:1 105:1 124:1 
-0 -0 -0.7819186589323704 -0 0 0 0 0 21:1 30:1 42:0 63:1 105:1 124:1 
-1.688740076183015 -0 -0 -0 0 0 0 0.3300124528292441 21:1 37:1 42:0 56:1 63:1 107:1 125:1 
-0 -0 -0 -0 0 0 0 0.3033322114216636 21:1 37:1 42:1 56:1 63:1 107:1 125:1 
-0 -0 -0.06333704566400114 -0 0 0 0 0 84:0 85:1 105:1 112:1 117:1 
-9.778724007648455 -0.09358704849730874 -5.621880072347814 -0 0.5485647656657867 0 0.02433300386346339 0.3359051719398475 18:1 65:1 84:0 93:1 105:1 112:1 117:1 
-0 -0 -0 -0 0 0 0 0.0405211448625041 2:1 21:0 60:1 72:1 84:1 112:1 124:1 
-0 -0.3588383091089598 -0 -0 0 0 0 0.08556847263539435 9:1 21:1 39:1 44:1 63:0 112:1 124:1 
-1.867295723050001 -0 -3.888554856177425 -0 0.08410995801347644 2.445928988251265 1.02835563880679 7.432828213646093 84:0 87:1 105:1 112:1 117:1 
-0 -0 -0.2216688586196837 -0 0 0 0.005274025667226807 0.3735486234501304 6:1 84:0 97:1 105:0 112:1 117:1 
-0 -0 -0.2163701309397555 -0 0.2797780128185492 0 0 0.5778815403887623 5:1 84:0 112:1 117:1 
-0 -0 -0.06153880048606282 -0 0.1049050928360244 0 0 0 84:0 91:1 105:1 112:1 117:1 
-0 -0 -0.2155911249092936 -0 0 0 0 0.5783186350742588 70:1 84:0 112:1 117:1 
-0 -0 -0.5776854854459292 -0 0.2073826985506697 0 0 0 79:1 84:0 93:1 105:1 112:1 117:1 
-1.200952515875147 -0 -0 -0 0 0 0.05546359558307853 0.5287521118357614 1:1 79:1 84:0 85:1 105:0 112:1 117:1 
-0 -0 -0 -0 1.954074642168089 0 0 0 16:1 21:0 43:1 64:1 84:0 94:1 97:1 105:0 112:1 124:1 
-0 -0 -0 -0 0 0 0 0.2540624806469868 1:1 21:0 22:1 58:1 63:0 73:1 76:1 84:0 94:1 105:0 112:1 124:1 
-0 -0 -0.145985701363297 -0 0.1172528636897538 0 0 0.293883905049096 74:1 84:0 96:1 105:1 112:1 117:1 
-0 -0 -0 -0 0 1.854072035048662 0 0 11:1 21:0 75:1 84:1 112:1 124:1 
-0 -0 -0 -0 3.169349237175438 0 0 0 16:1 21:0 75:1 84:1 112:1 124:1 
-0 -0 -0.6031240306469147 -0 0.2850315033348123 0 0.007299391864291452 0.5373869081103667 13:1 84:0 100:1 105:0 112:1 117:1 
-6.953403123661072 -0 -5.387880424189339 -0 0 0 0 0.2439555866520217 14:1 18:1 21:0 56:1 60:1 84:1 112:1 125:1 
-0 -0 -0 -19.48999479989574 0.2153127430867424 0 0 0 21:0 56:1 60:1 84:0 87:1 105:1 112:1 125:1 
-4.946716541783672 -0 -0 -0 0 0 0 0 3:1 21:1 42:0 63:0 112:1 124:1 
-0 -0 -0 -0 0.3509982237206701 0 0 0.002696272661571237 16:1 21:1 42:0 55:1 63:0 73:1 76:1 84:1 112:1 124:1 
-0 -0 -0 -0 0.1955998866623422 0 0 0 21:0 56:1 60:1 84:0 91:1 105:1 112:1 125:1 
-0.1654390551339139 -0 -0 -3.165460778347023 0.3516364278944594 0 0 0 21:0 56:1 60:1 70:1 84:1 105:1 125:1 
-0 -0.764722220523315 -0 -3.255966160767007 0.1144831465712057 0 0 0 21:0 56:1 60:1 79:1 84:0 93:1 105:1 112:1 125:1 
-0 -0.2711159275429315 -0 -0 0 0 0 0 9:1 21:1 42:0 58:1 63:0 112:1 124:1 
-0 -0 -0 -0 0 0 0 0.2189379852167115 16:1 21:0 35:1 39:1 43:1 63:0 64:1 84:0 94:1 97:1 105:0 112:1 124:1 
-0 -0 -0 -0 0.1890776546665318 0 0 0 21:0 56:1 60:1 74:1 84:0 96:1 105:1 112:1 125:1 
-0 -0 -0 -0 0 0 0 0.2406848299094558 11:1 21:0 35:1 39:1 63:0 75:1 84:1 112:1 124:1 
-0 -0 -0 -0 0 0 0 0.009719680314351772 12:1 21:1 42:0 53:1 63:0 112:1 124:1 
-0 -0 -0 -0 0.2654770813113844 0 0 0 16:1 21:0 34:1 42:0 63:0 73:1 76:1 84:1 97:1 105:1 112:1 124:1 
-0 -0.3719166483354202 -0 -0.6676458351984987 -0 0 0 1.17890703997565 16:1 21:0 24:1 51:1 63:0 77:1 84:0 98:1 102:1 105:1 119:1 
-0 -0.002352978687096877 -0 -0 -0 0 0 0 16:1 21:0 30:1 42:0 45:1 63:0 77:1 84:1 88:1 105:1 118:1 
-0 -0 -0 -0.7709162459830745 -0 0 0 0 16:1 21:0 24:1 45:1 63:0 77:1 84:0 90:1 105:1 118:1 
-0 -0 -0 -0.06310939161133657 -0 0 0 0 16:1 21:0 24:1 42:0 45:1 63:0 77:1 84:0 85:1 105:1 118:1 
-0 -0 -0 -0.5522346511401973 -0 0 0 0 16:1 21:0 30:1 42:0 45:1 63:0 77:1 84:1 105:1 118:1 
-0 -0 -0 -0.7680959881354014 -0 0 0 0 16:1 21:0 24:1 42:0 45:1 63:0 77:1 84:0 97:1 105:1 118:1 
-0 -0.371308685141775 -0 -0.5004541814852119 -0 0 0 0 16:1 21:0 30:1 42:0 45:1 63:0 77:1 84:1 88:1 105:1 118:1 
-1.370165911626075 -0.9348613939279536 -1.068438241062522 -5.382504745339203 -1.378198427013947 0.3503350483176023 0 0 16:1 21:0 24:1 42:0 51:1 63:0 77:1 84:1 93:1 105:1 119:1 
-0 -0 -0 -0.7022883318340051 -0 0 0 0 16:1 21:0 24:1 42:0 45:1 63:0 77:1 84:0 85:1 105:1 118:1 
-0 -0 -0 -9.433148259620259 -5.436186214631499 1.443770461925249 0 0 16:1 21:0 24:1 42:0 51:1 63:0 77:1 84:1 105:1 119:1 
-0 -0 -0 -2.313703777120319 -0 0 0 0 16:1 21:0 30:1 42:0 45:1 63:0 77:1 84:1 105:1 118:1 
-5.698519841459317 -1.985665466878947 -0 -1.283812505447216 -0.9979174591308978 0 1.215029010953568 0.4676128342037441 16:1 21:0 45:1 66:1 84:0 105:1 118:1 
-1.639432807718212 -1.931093157242709 -0 -0.4977236087101482 -0.730925923917689 0 0.3420318312489663 0.6224188067665281 16:1 21:0 39:1 45:1 63:0 66:1 84:0 105:1 118:1 
-0 -0.04099849421250398 -0 -0 -0 0 0 0 16:1 21:0 24:1 45:1 63:0 66:1 84:0 105:1 118:1 
-0 -0.9607483754220792 -2.594989655284105 -0 -0.7801165654836171 1.58437508275934 0.3429982050989561 0 16:1 21:0 24:1 42:0 45:1 63:0 66:1 84:0 105:1 118:1 
-5.959606024529423 -7.516305881022754 -1.356223972115 -8.882330200587589 -9.004443621787738 0.2689551715140365 1.374622907144211 0.9356921326660516 16:1 21:0 56:1 60:1 66:1 84:0 105:1 125:1 
-0 -0 -3.038666613911367 -0.01872409779571233 -0 0.01129667664238717 0.01045482804326579 3.470007769917169 16:1 77:1 84:0 105:1 112:1 117:1 
-2.261962889551515 -0.5477008999802269 -1.412584673211325 -0.4949516387753363 -8.584874197460417 0.3431446967095387 0.3467766104758612 4.641549049516627 16:1 77:1 84:0 105:0 112:1 117:1 
-1.951232818817213 -0 -3.717058994034676 -2.998124268206757 -0 2.421208998843579 1.004951800417976 0.2636371012409039 16:1 77:1 84:0 105:1 117:1 
-2.151334274179352 -3.359194951454003 -0.9307867933246211 -1.687882407887619 -1.885757390847647 0.4140043660495344 1.794613446673612 0.3530512855522306 16:1 21:1 30:1 42:0 51:1 63:0 77:1 84:1 105:1 107:1 119:1 
-1.468428321718651 -2.833985292145782 -3.877116813720145 -5.811606280130798 -3.150877770066927 -2.916964039611739 0.8895216639551913 0.9492351552899593 11:1 21:1 24:1 42:0 63:0 75:1 84:1 105:1 117:1 
-1.901249293072079 -2.472033658230902 -3.057091494402645 -0.8416291994216371 -4.41990933447978 -0.6668135399445897 2.657088862215376 0.7373471583197923 11:1 21:1 24:1 42:0 63:1 75:1 84:1 105:1 117:1 
-5.769377257616805 -3.014085107095771 -3.797002522696273 -3.123538686664185 -6.186765212730014 -3.253312923204938 1.408301960011865 4.375879330793162 11:1 21:0 24:1 42:0 63:0 75:1 84:1 87:1 105:1 117:1 
-3.367865677322484 -2.719758232309911 -3.567488123253611 -2.827394659215337 -2.765345457774101 -2.827372160794047 -2.264954527711185 2.301383567011299 12:1 21:1 42:0 53:1 63:1 105:1 121:1 
-2.270885507403653 -1.524181815456863 -0.7017663270675365 -0.776643929995966 -14.50932438549065 -0.6678608149199227 -0.4793099753219479 0.6846969686980356 12:1 21:1 42:1 53:1 63:1 105:1 121:1 
-3.362808190400386 -3.568116129076531 -3.388270301716531 -4.748802431355204 -2.090205391248052 -2.936245664342446 -2.2106479831493 2.333741684345027 12:1 21:1 42:0 53:1 63:0 66:1 84:1 87:1 105:1 121:1 
-2.325812617569205 -2.633554917693051 -0.6078149294766723 -1.224017765539206 -0.2639903951210467 -0.4838652749276172 -0.5997398535642914 -0.3773017909748694 17:1 77:1 81:1 84:0 87:1 105:1 107:1 117:1 
-1.788676894205991 -2.286187223228353 -0.1118216889274212 -0.20276448125972 -0.092335743585822 -0.07126040438659785 -0.2667509845833194 -0 17:1 80:1 84:0 98:1 102:1 105:0 107:1 117:1 
-2.596322230390656 -3.698694190367941 -0.6315128294616098 -0.6824437620623083 -0.4280832901763419 -0.230056552822697 -0.3508037668486591 -0.4067385181637609 17:1 80:1 84:0 101:1 105:0 107:1 117:1 
-0 -0 -0.2952960351721736 -0.4712796717697744 -0.1981417567099287 -0.3693247950078882 -0 -0.2723020061323065 17:1 21:0 59:1 80:1 84:0 98:1 102:1 105:1 107:1 127:1 
-0.1930200603916693 -0.4304208418650882 -0.460881871666473 -0.5212052746867898 -0.1604600144822546 -0.1341997606286353 -0.2995500404776312 -0.2784065500474114 17:1 21:0 38:1 59:1 63:0 77:1 81:1 84:1 87:1 105:1 107:1 127:1 
-0 -0.01471931716408535 -0 -0 -0 -0.007424329738098034 -0 -0 17:1 77:1 81:1 84:0 87:1 105:1 112:1 117:1 
-0 -0 -0.08287691771552524 -0 -0 -0.01232148546181811 -0 -0 17:1 80:1 84:0 98:1 102:1 105:0 112:1 117:1 
-0 -0 -0.02531192522796358 -0.1843149578903951 -0 -0.006278562815067197 -0 -0 17:1 21:0 38:1 59:1 63:0 77:1 81:1 84:1 87:1 105:1 112:1 127:1 
-0 -0 -0 -0 -0 -0.05659959135550417 -0 -0 17:1 77:1 81:1 84:0 87:1 105:1 112:1 117:1 
-0 -0 -0 -0.05945836826469533 -0 -0.2493945710710384 -0 -0 17:1 80:1 84:0 98:1 102:1 105:0 112:1 117:1 
-0 -0 -0 -0.2594148321607019 -0 -0.05809068883910157 -0 -0 17:1 80:1 84:0 101:1 105:0 112:1 117:1 
-1.027492925444208 -0.3059073816115608 -3.928440818535805 -1.327211831877103 -7.224382697561111 -4.397296505032281 -0.5296010233449301 -0.3774971742147218 17:1 77:1 81:1 84:0 87:1 105:1 112:1 117:1 
-0.344102634982546 -0.1917801770464033 -0.08020674633077864 -0 -2.474879433279603 -1.13168627361431 -0.2163595585675869 -0 17:1 80:1 84:0 98:1 102:1 105:0 112:1 117:1 
-0.6020080415766916 -0.2005003420646027 -1.231604026378792 -0.4409642575763151 -5.74184151478155 -2.438914805523113 -0.4110784085942639 -0.4027996894022294 17:1 80:1 84:0 101:1 105:0 112:1 117:1 
-0.4188132567908385 -0.105853141359967 -0.5678801058392531 -0.6105772711588598 -0.5434278765453329 -0.1320384950350318 -0 -0.2768504358132685 17:1 21:0 59:1 80:1 84:0 98:1 102:1 105:1 112:1 127:1 
-0.09549342645024084 -0.2518958520475817 -0.1358449743639598 -0.2105546976097303 -0.1393956113836533 -0.1582399587864814 -0.3605535062094518 -0.2725994962170361 17:1 21:0 38:1 59:1 63:0 77:1 81:1 84:1 87:1 105:1 112:1 127:1 
-0.9530123993455728 -0.3433373997029998 -0.4169945433629403 -1.328064877256432 -0.09911926221405806 -0.3010834159767855 -0.5354444785410029 -0.4428078364143254 17:1 77:1 81:1 84:0 87:1 105:1 110:1 117:1 
-0.5182801317118177 -0.1016322460670795 -0.1882716645707843 -0.05949024237177892 -0.1004474258918296 -0.1947131997232364 -0.2130515104997144 -0 17:1 80:1 84:0 98:1 102:1 105:0 110:1 117:1 
-0.5328268233983862 -0.2521967960134834 -0.6908173422739062 -0.702908815665787 -0.1777105041408066 -0.1355282409078855 -0.4181925471690574 -0.3545686724526831 17:1 80:1 84:0 101:1 105:0 110:1 117:1 
-0.2980047232777375 -0.1584612828110375 -0.2132401726530376 -0.6130728795047135 -0.07327166168824262 -0.2390828251940696 -0 -0.3240174875417614 17:1 21:0 59:1 80:1 84:0 98:1 102:1 105:1 110:1 127:1 
-0.2057530166943177 -0.214264855353611 -0.6587712141800323 -0.3907016272841067 -0.1742284172052007 -0.1304674958988583 -0.34863705048607 -0.2069379684524118 17:1 21:0 38:1 59:1 63:0 77:1 81:1 84:1 87:1 105:1 110:1 127:1 
-0.9558353796635741 -0.4180152229289539 -0.4625474835555962 -1.248878719801741 -0.1052302045007193 -0.3161824811281457 -0.611845647252 -0.4452691508810233 17:1 77:1 81:1 84:0 87:1 105:1 111:1 117:1 
-0.4134150847138514 -0.1049270869238354 -0.2689622808147673 -0.09672665677311108 -0.0391359617448761 -0.08227117931696701 -0.2298120603695161 -0 17:1 80:1 84:0 98:1 102:1 105:0 111:1 117:1 
-0.6108011623247852 -0.1997550034693836 -0.5962503724751463 -0.7443234496111315 -0.220595587505435 -0.2035237072811492 -0.3715270099143198 -0.3527565721916218 17:1 80:1 84:0 101:1 105:0 111:1 117:1 
-0.353658231497913 -0.2032191437515854 -0.1762964336535544 -0.5278992461701929 -0.1049272387409012 -0.288856041241029 -0 -0.3182675754694114 17:1 21:0 59:1 80:1 84:0 98:1 102:1 105:1 111:1 127:1 
-0.1817390896531702 -0.1459644512900459 -0.645187972766796 -0.4765409001579004 -0.1576938263487202 -0.104175378125497 -0.299514197981099 -0.21070129568552 17:1 21:0 38:1 59:1 63:0 77:1 81:1 84:1 87:1 105:1 111:1 127:1 
