svm_type c_svc
kernel_type rbf
gamma 0.03125
nr_class 9
total_sv 293
rho -0.0260224 0.0803505 -0.130968 0.05665 -0.20731 -0.183008 -0.445951 -0.339897 0.834934 0.0315504 0.130923 -0.198369 0.481376 -0.464894 -0.380986 -0.272739 -0.405389 -0.44869 -1.20658 -0.753776 -0.742872 0.0041401 -0.212754 -0.720407 -0.601297 -0.46722 -0.432034 -0.682686 -0.611461 -0.513806 0.449289 -0.428983 -0.31442 -0.823735 -0.640264 0.0587949
label -4 -2 10 1 0 -3 -1 3 4
probA -3.74965 -4.31892 -4.01471 -3.37372 -3.39904 -4.12618 -2.76999 -2.79649 -4.52971 -4.44903 -3.70402 -3.85515 -4.07279 -3.15137 -3.2261 -4.9551 -3.69135 -4.13377 -3.92641 -3.68878 -3.70018 -3.92072 -4.0332 -3.61649 -3.18965 -3.35223 -3.19768 -2.39483 -2.54993 -2.64218 -3.71594 -2.62782 -2.76966 -3.02305 -3.15333 -2.0234
probB 0.350119 0.906506 0.580016 0.261588 -0.0104431 0.727172 -0.572404 -0.605783 0.51207 0.187231 -0.595155 -0.452893 0.161531 -1.0475 -0.932942 -0.208972 -0.705543 -0.774644 -0.510185 -1.4391 -1.44533 -0.776941 -0.568136 -0.197102 -1.14173 -1.14385 0.170348 0.774472 -0.462505 -0.535916 0.215748 -0.591675 -0.522645 -0.981887 -1.10001 0.0488183
nr_sv 19 42 68 59 18 18 61 4 4
SV
0.6179850002379624 3.614854969939527 4.465153981142874 0.8111781900968374 0.2521585792831181 0.3649731743098527 0.4987186388808211 0.5626852741496891 17:1 80:1 84:0 101:1 105:0 107:1 117:1 
0.03964718233923676 0 0 0.5142757585656745 0.1449091140315692 0.0443544515742466 0 0.296730344936058 17:1 21:0 59:1 80:1 84:0 98:1 102:1 105:1 107:1 127:1 
0.9377274495582167 0.8926544896899897 1.152449398365671 0.6993304425375878 0.3897457320742422 0.2948655393126496 0.6161027841051514 0.4613404202461758 17:1 21:0 38:1 59:1 63:0 77:1 81:1 84:1 87:1 105:1 107:1 127:1 
0.4407094416660686 0.4687841504312589 0 0.4780303961206682 0.1831525147753122 0.1339043031306008 0.472467928006423 0.3127803061460933 17:1 80:1 84:0 101:1 105:0 111:1 117:1 
0.2771301639480152 0.3339433144629919 0.01448756027243906 0.7199033937663345 0.387722629772824 0.1441988731285397 0 0.2873570902690857 17:1 21:0 59:1 80:1 84:0 98:1 102:1 105:1 111:1 127:1 
0.4003418598062831 0 0 0.1152890326789075 0 0.02317434636987738 0.2138515717530983 0.16636411122582 17:1 21:0 38:1 59:1 63:0 77:1 81:1 84:1 87:1 105:1 111:1 127:1 
0.3815098084598614 2.104907170714932 2.835599024455499 0.2366729539487788 0.3427581224975085 0.2348142915748435 0.4021948457722093 0 17:1 80:1 84:0 98:1 102:1 105:0 107:1 117:1 
0 0 0.3059092156581135 0 0 0 0 0 17:1 21:0 59:1 77:1 81:1 84:0 87:1 105:1 107:1 127:1 
1.223211771348593 0.4133567327986152 0 0.555377496302695 2.457069138555497 5.932992414881974 0.322674638803612 0.2830838144085051 17:1 80:1 84:0 101:1 105:0 112:1 117:1 
0.6382445932290658 0.2853456880756618 0.03775595338685627 0.668720592312239 0.1337102666502995 0.6977557724954143 0 0.3407937361413144 17:1 21:0 59:1 80:1 84:0 98:1 102:1 105:1 112:1 127:1 
0.183967535243849 0 0 0.1914298953381853 0.1238220234370552 0.09377126872656405 0.2278305862006482 0.1304604394425271 17:1 21:0 38:1 59:1 63:0 77:1 81:1 84:1 87:1 105:1 112:1 127:1 
0.1137887537918924 0.1333658940787411 0 0 1.384286543463593 2.32131277110879 0.2290292272466077 0 17:1 80:1 84:0 98:1 102:1 105:0 112:1 117:1 
4.314424842323403 1.659586161073155 1.094172744008908 0.8633599918330114 4.475036985182244 7.372406380414342 0.7370763393548485 0.5742122485691937 17:1 77:1 81:1 84:0 87:1 105:1 112:1 117:1 
0.1566232365208778 0.1225402460888945 0 0 0.1884832532638084 0.1122444407434174 0.2942190449178178 0 17:1 80:1 84:0 98:1 102:1 105:0 110:1 117:1 
0.6374477523307198 1.688002812071493 1.124998370975042 0.956447328004408 0.5594233059541659 0.2427358039848233 0.8171309975057487 0.5661147591101481 17:1 77:1 81:1 84:0 87:1 105:1 111:1 117:1 
0.4823812326093017 1.672599447277611 1.110462741540111 0.9416935167484871 0.4477454340598594 0.1399568981115632 0.7097496582127033 0.4906832021438919 17:1 77:1 81:1 84:0 87:1 105:1 110:1 117:1 
0.4792400242803759 0.3866613525607574 0 0.4904880165426871 0.1202438379805119 0.1207772336074096 0.2614814889048198 0.3627385081995391 17:1 80:1 84:0 101:1 105:0 110:1 117:1 
0.1705831376880469 0.3105699736462341 0.02394354566130449 0.7167578060873172 0.2635724610379314 0.05439095597094178 0 0.2662660324689479 17:1 21:0 59:1 80:1 84:0 98:1 102:1 105:1 110:1 127:1 
0.5908836638647552 0 0 0.1279856791517597 0.1118881208857328 0.1220159703645481 0.2569532424652219 0.2166822461393233 17:1 21:0 38:1 59:1 63:0 77:1 81:1 84:1 87:1 105:1 110:1 127:1 
-0.02953177909358443 0 0.4171162476073228 0.5669604670675938 0.107499528335337 0.3202017428046747 0.1431008083186273 0.2927921262516149 14:1 18:1 21:1 38:1 42:0 59:1 63:0 66:1 84:1 107:1 127:1 
-0.5209537922703524 7.840117015013915 1.070102630756529 0 0 3.210199479880259 0.2783907874203331 0.1891628134558927 14:1 18:1 72:1 84:0 87:1 105:1 117:1 
-0.01533224450842509 0 0 0 0 0 0 0 14:1 21:0 30:1 42:0 58:1 63:0 77:1 81:1 84:1 105:1 126:1 
-0 7.387498203086063 0 0 0 0 0 0 14:1 18:1 66:1 84:0 93:1 105:1 117:1 
-0.03705636475112752 0 0 0 0 0 0 0 14:1 18:1 84:0 87:1 105:1 117:1 
-0.002492728792431473 0 0.3616276294226498 0.5578816923436527 0.421810072135325 0.7772404494630871 0.7258435762368944 0.2126817356365399 14:1 21:1 24:1 42:0 58:1 63:0 67:1 84:1 90:1 105:1 126:1 
-0 2.611978193091908 0.07684066241882853 0.4524692009893322 0.1629922551438951 0.2908118710141682 1.167344533761705 0.09678182654437963 14:1 21:1 24:1 42:0 58:1 63:0 84:1 100:1 105:1 126:1 
-0.5205171259407615 1.024946739897314 0.6128875469940483 2.325490794243328 0 0.6816109444162041 0.2755580898564006 0.2210541488242267 14:1 18:1 79:1 84:0 87:1 105:1 117:1 
-0.4667086231739541 0 0 0 0.20183722565497 0.3146573717063247 0.1415431036390947 0.2971424599242363 14:1 18:1 21:1 38:1 42:0 59:1 63:0 66:1 84:1 111:1 127:1 
-0.01351648437640319 0 0 0 0 0 0 0 14:1 21:0 58:1 84:1 112:1 126:1 
-0.6051066370736429 2.652546749234648 0.8388990969820868 0.02351491032273589 0 0 0 0 14:1 18:1 21:0 38:1 59:1 63:0 66:1 84:1 107:1 127:1 
-0 0 0 0 0.07975048925856931 0.8712193559902405 0.04650820717630542 0.2698461996804899 14:1 18:1 21:1 38:1 42:0 59:1 63:0 66:1 84:1 112:1 127:1 
-0 0 0 0 0 8.882070581294444 0 0 14:1 18:1 84:0 93:1 105:1 112:1 117:1 
-0 0 0 0 0.7700940334599981 5.443121566245511 0 0 14:1 18:1 84:0 105:0 112:1 117:1 
-0.6642666532851514 0 0 0 0 3.439803914640111 0 0 14:1 21:0 58:1 84:1 112:1 126:1 
-0.6602441972748073 0 0 0.8353883744587081 0 0 0 0 14:1 21:0 58:1 84:0 93:1 105:1 112:1 126:1 
-0.07293003490354638 1.706488890346218 2.725079028007249 0 0.5768329076593365 0 0 0 14:1 21:1 30:1 42:0 58:1 63:0 84:1 107:1 126:1 
-4.317131477832095 0 0 0 2.902988794419489 1.084613479192145 0.1298974165445199 0.03764929404013571 14:1 18:1 77:1 81:1 84:0 105:1 112:1 117:1 
-0 0 0.1020271457814474 0 0.2727013859961406 0.6302959172242688 0 0 14:1 18:1 69:1 84:0 105:0 112:1 117:1 
-0 0 0 0 0.09234444925312582 1.391481496838446 0 0 14:1 18:1 68:1 84:0 105:1 112:1 117:1 
-0 1.700756229001939 0.2343957507177354 0 0.1702735612125155 1.751023478832492 0 0 14:1 18:1 84:0 91:1 105:1 117:1 
-0 5.023118414057587 0.3561777036703269 0 0 0 0 0 14:1 18:1 84:0 100:1 105:0 112:1 117:1 
-0 0.9274406580370465 0.5312314801817248 0 0.3549044268829096 0.6583456352118982 0 0 14:1 18:1 64:1 84:0 100:1 105:0 112:1 117:1 
-0 0 0.3367084848580432 0 0.4124826158417491 1.514935789074818 0 0 14:1 18:1 76:1 84:0 105:0 112:1 117:1 
-0 0 0 0.009050837828373329 0 0.7363905637178688 0 0 14:1 18:1 21:0 59:1 66:1 84:1 112:1 127:1 
-0.5854169112062655 0 0 0 0 0 0 0 14:1 18:1 21:0 38:1 59:1 63:0 66:1 84:1 110:1 127:1 
-0 0 0 0.6365250929451886 0.1667365417896672 0.003232179025236543 0 0 14:1 18:1 21:0 59:1 66:1 84:1 111:1 127:1 
-0 12.09225871230949 2.400123963815424 1.773275357441509 0 0.8374106633537522 0 0 14:1 18:1 72:1 84:0 93:1 105:1 117:1 
-0 0 0 0 0.003077647513409558 0 0 0 14:1 18:1 66:1 84:0 87:1 105:1 117:1 
-0 0 0 1.425942109704357 0 0 1.566412086939241 0 14:1 21:0 24:1 58:1 63:0 84:1 105:1 126:1 
-0 0.4925581766171927 1.092264679352404 0.5998547204786429 1.204653973106032 0 0 0 14:1 21:0 24:1 58:1 63:0 84:0 105:1 126:1 
-0 8.994327182349931 0.2455414119619 0.8462197057467511 1.502509205576132 0 0 0 14:1 18:1 66:1 84:0 93:1 105:1 117:1 
-0 0 0.1658261052851207 0.2292886779838114 0.04600234822940382 2.479242635940119 0 2.978033783838356 14:1 21:1 42:0 58:1 63:1 84:1 105:1 126:1 
-1.418221286580705 0 0.07879762659914702 0.2920160417975639 1.257343525793184 0 0 0 14:1 21:0 30:1 42:0 58:1 63:0 77:1 81:1 84:1 105:1 126:1 
-0 0.3271333009065597 0.3163214379526108 0.5858015350784662 0.187117612830745 0.1699990789302883 0.2758794264000328 0 14:1 21:0 24:1 42:0 58:1 63:0 69:1 84:1 86:1 105:1 126:1 
-0 0.7938047131841329 0 0.08679976195918315 0 0 0 0 14:1 21:0 30:1 42:0 58:1 63:0 70:1 84:1 100:1 105:1 126:1 
-0 10.1415699285529 1.560789620078869 0 0.829456262165556 0 0 2.222972189836909 14:1 18:1 66:1 84:0 87:1 105:1 117:1 
-0 0 0 0.5021405064151052 0.3278430323237846 1.250434746383226 0 0.03667142568750886 14:1 21:1 30:1 42:0 58:1 63:0 72:1 84:1 105:1 126:1 
-2.156421108183272 0 0 0 0 0 3.068738767523936 0 14:1 18:1 84:0 87:1 105:1 117:1 
-0 0.1740825226792172 0 0 0.3213204548844158 0.3748663197751933 0 0.1819151949886519 14:1 21:1 30:1 42:0 58:1 63:0 84:1 95:1 105:1 126:1 
-0 0 0 0.5496128842750985 0.05897625439569516 0 0 0 14:1 18:1 21:0 59:1 66:1 84:1 110:1 127:1 
-0 0 0 0.08778215560890217 0.3030686907414117 0.3175211065871422 0.143100808318625 0.2988958539283117 14:1 18:1 21:1 38:1 42:0 59:1 63:0 66:1 84:1 110:1 127:1 
-0 -0 0.2872738747090037 0 0 0 0 0 3:1 21:1 38:1 42:0 56:1 60:1 63:1 107:1 125:1 
-0 -0 0 0 0 12.53081791614579 0 0 3:1 72:1 84:0 105:1 117:1 
-0 -0 0 0 0.132661164945659 0 0 0 3:1 21:0 35:1 39:1 45:1 63:0 72:1 84:1 105:1 118:1 
-0 -0 0 0 0.6815552971628569 0 0 0 3:1 21:0 35:1 39:1 51:1 63:0 66:1 84:1 105:1 119:1 
-0 -0 0.4180194254606046 0 0 0 0 0.1374958973059965 3:1 21:1 22:1 35:1 39:1 51:1 63:0 105:1 119:1 
-0 -3.587957001902219 0 0 0 0 0 0 1:1 14:1 18:1 66:1 84:0 87:1 105:1 117:1 
-0 -0 0.2024104509461738 0 0.1714633006956181 0 0 0 3:1 21:0 22:1 35:1 39:1 45:1 63:0 72:1 84:1 105:1 118:1 
-0 -0 0 0 0 0.8446869314225298 0.9115440592957581 0 3:1 21:0 22:1 35:1 39:1 63:0 72:1 84:1 105:1 117:1 
-0 -0 3.354195420821023 0 0 0 0 0 3:1 21:0 22:1 35:1 39:1 45:1 63:0 72:1 84:1 93:1 105:1 118:1 
-0 -5.213087185132324 0 0 0 0 0 0 1:1 14:1 18:1 72:1 84:0 93:1 105:1 117:1 
-0 -0.2058417238476585 0 0 0 0 0 0 3:1 21:0 22:1 35:1 39:1 63:0 72:1 84:1 93:1 105:1 117:1 
-0 -0.6481217338311674 0 0 0 0 0 0 3:1 21:0 42:0 45:1 63:0 72:1 84:1 93:1 105:1 118:1 
-0.3891089160169937 -0 1.27449386542018 0.3110499488581487 0 0 0 0 3:1 21:0 22:1 35:1 39:1 51:1 63:0 79:1 84:0 98:1 105:1 119:1 
-0 -0.2056150755842819 0 0 0 0 0 0 1:1 14:1 18:1 84:0 93:1 105:1 117:1 
-0 -0 0 0.8296672351987275 0 0 0 0 3:1 21:0 42:0 51:1 63:0 79:1 84:0 98:1 105:1 119:1 
-0 -0.007638195597811042 0 0 0 0 0 0 3:1 79:1 84:0 87:1 105:1 117:1 
-0 -12.1949860871827 2.316705249634755 3.115134869545109 3.67649486025932 6.923809073403138 0.5949948773779903 0.8706475559723205 18:1 66:1 84:0 100:1 105:1 117:1 
-0 -0 0 0.01120163165307954 0 0 0 0.06941657156542125 3:1 21:0 60:1 79:1 84:0 87:1 105:1 118:1 
-0 -0 0.6693779866975137 0 0 0 0 0 3:1 21:0 56:1 60:1 66:1 84:0 100:1 105:1 125:1 
-0.1614550518780759 -0 0.9107560974907674 0 0 0 0 0 3:1 21:0 35:1 39:1 45:1 63:0 79:1 84:0 87:1 105:1 118:1 
-0.5653159107480528 -3.52765467682782 0.1708935139323804 0 0.4960403222968702 1.851049153644773 2.207540610564536 0.3887837432492715 3:1 21:0 24:1 42:0 58:1 63:0 84:1 95:1 105:1 126:1 
-0.05407501029764952 -0.276037146006227 0 0 0.1892052202521758 1.542072991195399 0.6479416351909946 1.458613553133314 3:1 21:1 32:1 42:0 54:1 63:1 66:1 84:1 105:1 122:1 
-0.09500002341379045 -0 0.002918671540884702 0 0 3.093139272948004 0.02738942782810364 1.148033698615992 3:1 21:1 33:1 42:1 45:1 63:1 105:1 118:1 
-0.09245325492526324 -0 0 0.009153393323738809 0 0 0.004058601121814689 0.2998769983365381 3:1 21:1 38:1 42:0 56:1 60:1 63:1 111:1 125:1 
-2.914564418359523 -0 6.74135364216732 0 0.8120382153259544 10.79538454372757 0.3008171858078019 0 18:1 72:1 84:0 107:1 117:1 
-0 -2.580626846741365 0.6034371621780086 3.103020403198094 0 4.598817958071019 0.3214470127215397 0.2881191742141602 18:1 72:1 84:0 93:1 105:1 107:1 117:1 
-0 -0.0760080847900983 0 0 0 0 0 0 18:1 72:1 84:0 93:1 105:0 107:1 117:1 
-0 -0 0 0.03456480396881978 0 0 0 0 3:1 21:1 38:1 42:0 56:1 60:1 63:0 112:1 125:1 
-0 -0 0.4400743931675686 0 0 0 0 0 3:1 21:1 38:1 42:0 56:1 60:1 63:0 107:1 125:1 
-0.03357671048300891 -0 0.006616116615976652 0.1545239635198528 0 7.640247431261061 0.01457475272845118 0.294975619087802 3:1 21:1 38:1 42:0 56:1 60:1 63:1 112:1 125:1 
-0 -3.93346460203087 0.5531429459239035 0 0 0 0 0 18:1 72:1 84:0 93:1 105:0 107:1 117:1 
-0 -0 0 0.6856953806776195 0.1962328625501555 0 0 0.2357211395447713 18:1 66:1 84:0 93:1 105:1 107:1 117:1 
-0 -0 0.1201355715120247 0 0 0 0 0 3:1 21:0 60:1 72:1 84:1 107:1 118:1 
-1.840649722792003 -3.349913599196674 0.3293562810661527 0 0.6255659499717422 0 0 0 18:1 66:1 84:0 93:1 105:0 107:1 117:1 
-0.3644645260640981 -0 0 0 0 0 0 0 3:1 72:1 84:0 100:1 105:0 107:1 117:1 
-0 -0 0.05197333119678974 0 0 0 0 0 3:1 21:1 38:1 56:1 60:1 63:0 112:1 125:1 
-2.329892018566998 -0 0 0 0 2.349212374734127 0 0 3:1 105:1 117:1 
-0.3679550970903374 -1.573264888004656 0 0 1.285869845396042 2.402156564121697 0 0 3:1 21:1 38:1 56:1 60:1 63:0 112:1 125:1 
-0 -0 0.01886672494522909 0.02509091698962083 0 0 0 0 3:1 21:1 38:1 42:0 56:1 60:1 63:0 110:1 125:1 
-0.3077189898691003 -0 0.06490875270023028 0.1770746778216081 0 0 0 0 3:1 21:1 38:1 56:1 60:1 63:0 111:1 125:1 
-0 -0 0 0 0.139552092803019 0 0 0 3:1 21:0 45:1 72:1 84:1 105:1 118:1 
-0 -1.049562576020133 1.301475029544623 0 1.499117131485035 0 0 0 3:1 21:1 30:1 42:0 51:1 63:0 66:1 84:1 105:1 119:1 
-0 -0 0.08817893316783638 0 0 0 0 0 3:1 21:1 30:1 42:0 51:1 63:1 105:1 119:1 
-0 -0 0 0 4.508045035324509 0 0 0 3:1 21:0 45:1 105:1 118:1 
-0 -0 0 0.7026233274853148 0 0 0 0 3:1 21:0 56:1 60:1 66:1 84:0 93:1 105:1 125:1 
-0 -0 0.007320833705884771 0 0 0 0 0 3:1 21:1 30:1 42:1 45:1 63:1 105:1 118:1 
-0.6651763987565141 -0 0 0 0 0.7760926792629487 0 0 3:1 79:1 84:0 98:1 105:1 117:1 
-0 -0 0 1.88649522784944 0.2710702360607771 13.23606067948262 0 0 3:1 21:0 56:1 60:1 72:1 84:0 105:1 125:1 
-0.04562807831899075 -0 0 0.5252751955786499 0.365835420897574 0 0 0 3:1 21:0 45:1 79:1 84:0 98:1 105:1 118:1 
-0 -0 0 13.21732671532556 3.4943192268258 0 0 0 3:1 21:0 56:1 60:1 66:1 84:0 93:1 105:1 125:1 
-0 -7.641135423565135 0 0 0 2.503170710886779 0 0 1:1 14:1 18:1 72:1 84:0 87:1 105:1 117:1 
-0 -0 0.8659967888946101 0 0.1334770462840034 0 0 0 3:1 21:0 22:1 35:1 39:1 51:1 63:0 66:1 84:1 105:1 119:1 
-0 -0 0 0 0.3698632710538771 0 0 0 3:1 21:1 30:1 42:0 45:1 63:0 105:1 118:1 
-0 -0 0 0 0 3.752647841053499 0 0.9089438870406999 3:1 21:1 42:0 51:1 63:0 105:1 119:1 
-0 -0 0 0.9298585212440079 0 0 0 0 3:1 21:0 43:1 56:1 60:1 72:1 84:0 93:1 105:1 118:1 
-0 -0 0.7964993569504616 0 0 0 0 0 3:1 21:1 30:1 42:0 51:1 63:1 105:1 119:1 
-0 -0 0 13.07814801493535 0 0 0 0 3:1 21:0 43:1 56:1 60:1 72:1 84:0 93:1 105:1 118:1 
-0 -1.198575092205836 0.4257420016834146 0 1.416880357535453 0 0 0.08108507231702089 1:1 14:1 18:1 66:1 84:0 87:1 105:1 117:1 
-0 -0 1.19477833096535 3.253687061885538 0.3143013317527859 0 0 0 3:1 21:0 43:1 56:1 60:1 66:1 84:0 93:1 105:1 118:1 
-0 -3.589134524912739 0 0.6265831817297112 0 7.082769240012773 0 0 1:1 14:1 18:1 84:0 93:1 105:1 117:1 
-0 -0 1.083422811344932 0 0 0 0.647968308883724 0.6572129760216482 3:1 21:1 30:1 42:0 51:1 63:1 66:1 84:1 105:1 119:1 
-0.09707070823879775 -0 0.8893791553105271 0 0.2125291978238122 3.096313735691706 0 0.6158722338184544 3:1 21:1 30:1 42:1 45:1 63:1 105:1 118:1 
-0 -8.052346655740861 0 0 0 0 0 0 1:1 14:1 18:1 66:1 84:0 93:1 105:1 117:1 
-0 -0 1.5774867544619 0 0 0 0 0 3:1 21:0 43:1 56:1 60:1 72:1 84:0 100:1 105:1 118:1 
-1.877161332067366 -4.625110663916119 0.2688036026161999 1.777009114978704 0 0.8786777862986396 1.83543826346095 1.160391863877732 1:1 14:1 18:1 84:0 87:1 105:1 117:1 
-1.48383834147286 -0.354543845329336 0 0 0 0 1.45785389492663 0 3:1 79:1 84:0 87:1 105:1 117:1 
-0.2292594511811194 -0 0 0.01308556114454868 0 0 0 0 3:1 21:1 38:1 56:1 60:1 63:0 110:1 125:1 
-0.1728084423693198 -0 0.04085131849371357 0.1524607239919434 0 0 0.01083661758554347 0.2949756190877975 3:1 21:1 38:1 42:0 56:1 60:1 63:1 110:1 125:1 
-0 -0 -0 0 3.596102427097461 4.011061298330062 0 0 9:1 21:0 45:1 105:1 118:1 
-0.7076485004778257 -0.7093612081967764 -0.5515624163335795 0.05659773866689544 3.580641779129794 0 0.1055130129648426 1.269098839603666 9:1 21:0 56:1 60:1 66:1 84:0 87:1 105:1 125:1 
-0 -0 -0 0 0.5375938953173458 0 0 0 9:1 21:0 35:1 39:1 51:1 63:0 66:1 84:1 105:1 119:1 
-0 -0.4106428056910234 -1.698671979939757 0 2.389083353042017 0 0 0 9:1 21:1 30:1 42:0 51:1 63:0 66:1 84:1 105:1 119:1 
-0 -0 -0.09072726100215729 0 0 0 0 0 9:1 21:1 30:1 42:0 51:1 63:1 105:1 119:1 
-0 -0.6784991203499715 -1.239375846285879 14.49528218522252 0.9881458106628339 11.13288182206526 0 0 9:1 21:0 56:1 60:1 72:1 84:0 93:1 105:1 125:1 
-0.1419354623592835 -0.17501875147553 -0 0.2845842707430987 0 0 0 0 9:1 21:0 30:1 42:0 51:1 63:0 66:1 84:1 87:1 105:1 119:1 
-0 -0 -0.008629699049763004 0 0 0 0 0 9:1 21:1 30:1 42:0 51:1 63:0 66:1 84:1 87:1 105:1 119:1 
-0 -0 -0.004390862234127051 0 0 0 0 0 9:1 21:0 45:1 79:1 84:0 98:1 105:1 118:1 
-0 -0 -0.1925430788632155 0 0 0 0 0 9:1 21:0 35:1 39:1 45:1 63:0 79:1 84:0 98:1 105:1 118:1 
-0 -0 -0 1.316234612311745 0.8732561796637935 0.8419534932122549 0.06842816757974153 0 9:1 21:0 43:1 56:1 60:1 66:1 84:1 105:1 118:1 
-0 -0 -0 0 0 3.087866752031969 0 1.563473830437911 9:1 21:1 42:0 45:1 63:0 105:1 118:1 
-0 -0 -0 0 0 0 0.8697225710698552 0 9:1 21:1 24:1 42:0 45:1 63:0 72:1 84:1 105:1 118:1 
-0 -0 -0.1497496058327053 1.561206785475155 0 0 0 0 9:1 21:0 43:1 56:1 60:1 72:1 84:0 87:1 105:1 118:1 
-0 -0 -1.072757626305763 0.3728855533379322 0 0 0 0 9:1 21:0 22:1 35:1 39:1 51:1 63:0 66:1 84:1 87:1 105:1 119:1 
-0 -0 -0 0 0 0.1045130945034559 0 0.5097927879560071 9:1 21:1 42:0 45:1 63:0 72:1 84:1 105:1 118:1 
-0 -0 -0 0.2192793549134543 0.2678699992954715 2.383528011315773 0.9579423381281711 0.8221907258336874 9:1 21:1 24:1 42:0 51:1 63:1 105:1 119:1 
-0 -1.448433028369599 -0.6303444805881142 0 0 0 0.2078827479382147 0 9:1 21:1 24:1 42:0 45:1 63:0 72:1 84:1 93:1 105:1 118:1 
-0 -0.01381666112618132 -0.3560361516442501 0.1259798548372674 0 1.004664331361907 1.075089471679277 0.1047221817045466 9:1 21:1 24:1 42:0 51:1 63:1 72:1 84:1 105:1 119:1 
-0.2789076939251233 -0.4920943284835275 -1.394891669860004 0.1982719956552215 0 0.14275284853331 0 0.9619086816798172 9:1 21:1 30:1 42:1 51:1 63:1 105:1 119:1 
-0 -0.2151303081538428 -2.828734576780646 0 0.5625026977781596 0 0 0 9:1 21:0 43:1 56:1 60:1 66:1 84:0 100:1 105:1 118:1 
-0 -0.587066006622729 -1.661201224904074 0 0.4602788120616034 0 0 0 9:1 21:0 22:1 35:1 39:1 63:0 66:1 84:0 100:1 105:1 117:1 
-0 -0 -0.1382233076713967 0 0 0 0 0 9:1 72:1 84:0 107:1 117:1 
-0 -0 -0 0.0008461720540291913 0 0 0 0 9:1 21:1 24:1 42:0 51:1 63:0 107:1 119:1 
-0 -0 -0.003494643579898227 0 0 0 0 0 9:1 21:1 30:1 42:0 51:1 63:1 107:1 119:1 
-0 -0 -0.01559156223982718 0.01315573742983011 0 0 0 0 9:1 21:0 45:1 79:1 84:0 98:1 105:1 107:1 118:1 
-7.695006169759125 -4.911876210821796 -1.274728569975961 0 1.099502998771024 7.283821902827984 1.586193750627187 0.4650428928979113 9:1 107:1 117:1 
-0 -0.4073638099703651 -6.746331106005072 0 0 0 0 0 9:1 72:1 84:0 107:1 117:1 
-0 -0 -0.07401085321019936 0 0 0 0 0 9:1 21:0 45:1 72:1 84:0 93:1 105:1 107:1 118:1 
-0 -0 -0 0.2027931530652625 0.04230051777908438 0 0 0 9:1 21:0 24:1 51:1 63:0 72:1 84:1 107:1 119:1 
-0 -0 -0.05924060209638372 0 0 0 0 0 9:1 21:0 60:1 72:1 84:0 93:1 105:1 107:1 118:1 
-0 -0 -0 0.2640263000091906 0 0 0 0 9:1 21:1 24:1 42:0 51:1 63:0 107:1 119:1 
-0 -0 -0.2036386417966653 0 0.1262457597230325 0 0 0 9:1 21:0 39:1 45:1 63:0 72:1 84:1 93:1 105:1 107:1 118:1 
-0 -0 -0 0.01641847434175965 0 0 0 0 9:1 21:1 24:1 42:0 51:1 63:0 72:1 84:1 107:1 119:1 
-0 -0 -0.5272174199741596 0 0 0 0 0 9:1 21:1 30:1 42:0 51:1 63:1 107:1 119:1 
-0.5857698477969974 -0 -0.1434442112805612 0.1353321238343608 0 0 0 0 9:1 21:0 45:1 79:1 84:0 98:1 105:1 107:1 118:1 
-0 -0 -0 0 0.6826418457802517 0 0.9130698233370287 0 9:1 21:1 24:1 45:1 63:0 105:1 118:1 
-0 -0 -0 0.05751396957618102 0 0 0 0 9:1 21:1 24:1 51:1 63:0 105:1 119:1 
-0.08880766035458623 -0 -0 0 0 8.359117158306216 0 0 9:1 21:0 56:1 60:1 72:1 84:0 87:1 105:1 125:1 
-0 -0 -0 0.1182046259197104 0 0 0 0 9:1 21:0 35:1 39:1 51:1 63:0 66:1 84:1 87:1 105:1 119:1 
-0.7351376235587522 -1.104940042477719 -0 0 0 3.853922172973415 1.400668131629673 0.4797094859541765 9:1 21:0 35:1 39:1 63:0 72:1 84:1 87:1 105:1 117:1 
-0 -0 -0 0.09637586900408851 0 0 0 0 9:1 21:1 42:0 51:1 63:0 66:1 84:1 105:1 119:1 
-0 -0 -0 1.427932371765442 0 0 0 0 9:1 21:0 24:1 51:1 63:0 72:1 84:1 105:1 119:1 
-0 -0.4353680509722226 -0.7016761867280032 0 0 0 0 0 9:1 21:0 35:1 39:1 63:0 72:1 84:0 93:1 105:1 117:1 
-0 -0 -0 0.1348821194719316 0 0 0 0 9:1 21:0 42:0 51:1 63:0 72:1 84:1 87:1 105:1 119:1 
-0 -0 -0 0.1572605774410803 0 0 0 0 9:1 21:0 24:1 45:1 63:0 79:1 84:0 98:1 105:1 118:1 
-0.5727210622347 -0.6076876656195966 -0 1.959676208297149 0.9907948019613694 0 0 0 9:1 21:0 24:1 42:0 45:1 63:0 79:1 84:0 98:1 105:1 118:1 
-0.2356125726408865 -0 -0 12.92448241314409 0 0 0 0 9:1 21:0 43:1 56:1 60:1 66:1 84:0 87:1 105:1 118:1 
-0 -0 -0 0 0.9288995781858117 5.193867311864826 0.9306460710112984 0.5256876963598922 9:1 21:0 22:1 35:1 39:1 63:0 66:1 84:1 105:1 117:1 
-0 -0 -0 0.1210761758426169 0 0 0 0 9:1 21:1 24:1 42:0 51:1 63:0 105:1 119:1 
-0.572742853180733 -0 -0 0 0 0 0 0 9:1 21:0 22:1 35:1 39:1 63:0 72:1 84:1 87:1 105:1 117:1 
-0 -0 -0.1481587021015807 0.175498274773118 0.07897024004716452 0.4542268806473758 0 0.4920485438601295 9:1 21:1 42:0 51:1 63:0 66:1 84:1 105:1 119:1 
-0 -0 -2.856012476293432 0 0 0 0 0 9:1 21:0 22:1 35:1 39:1 45:1 63:0 72:1 84:1 93:1 105:1 118:1 
-0 -0.01893913802764661 -0 0 0.2322643538632214 0 0 0 9:1 21:0 24:1 42:0 45:1 63:0 72:1 84:1 93:1 105:1 118:1 
-0 -0 -0.568248408885862 0 0 3.182936082931337 0 0 9:1 21:1 30:1 42:0 51:1 63:1 105:1 119:1 
-0.2040841610237187 -0 -0 0 0 0 0 0 9:1 21:0 42:0 51:1 63:0 72:1 84:1 87:1 105:1 119:1 
-0.3442473987963135 -1.306521116084942 -0.2875515935959152 0.2592775846976823 0 0 0.1638117224169547 0.6082813683878554 9:1 21:1 30:1 42:0 51:1 63:0 66:1 84:1 87:1 105:1 119:1 
-0 -0 -0.9236546848588919 0.1821974008831163 0 0 0 0 9:1 21:0 22:1 35:1 39:1 45:1 63:0 79:1 84:0 98:1 105:1 118:1 
-0.002311529358774466 -0 -0.526004945348102 0.5137265559603168 0 0.7441675457084087 0 0 9:1 21:0 42:0 45:1 63:0 79:1 84:0 98:1 105:1 118:1 
-0 -0.04345213143969349 -0 -0.8512788629225474 0 0 0 0 21:0 56:1 60:1 72:1 84:0 93:1 105:1 125:1 
-0.1766699327849499 -0 -0 -0 0 0 0 0 21:0 56:1 60:1 72:1 84:0 93:1 105:1 125:1 
-0.002579565716885185 -0.004323344139874291 -0 -0 0 0 0 0 21:0 24:1 42:0 51:1 63:0 79:1 84:1 98:1 105:1 119:1 
-0 -0 -0.9365792160384048 -0 0 0 0 0 21:0 56:1 60:1 66:1 84:0 93:1 105:1 125:1 
-0 -0 -0 -0.2703569649059091 0 0 0 0 21:0 43:1 56:1 60:1 66:1 84:0 93:1 105:1 118:1 
-0.9249570468391721 -0.8983124146251427 -1.419024892282039 -13.9357907821179 3.264150155763994 0 0.5444297457291537 1.576506756234082 21:0 43:1 56:1 60:1 66:1 84:0 87:1 105:1 118:1 
-0 -0 -0 -0.01186580685769971 0 0 0 0 21:1 37:1 42:0 45:1 63:0 74:1 84:1 96:1 105:1 118:1 
-0 -1.963914815720224 -0 -1.166263643685703 0.2894917750221405 4.609086748873946 1.97665298981789 2.278800184290311 21:1 37:1 42:0 45:1 63:0 74:1 84:1 96:1 105:1 118:1 
-2.325758274354325 -0.9427898663940406 -3.011378510402736 -0.7275686967791679 2.788221467578369 3.027378779000615 0 0 21:0 37:1 42:0 45:1 63:0 74:1 84:0 96:1 105:1 118:1 
-0 -0 -0 -0 0 5.614268625629925 0 0 21:0 56:1 60:1 72:1 84:0 93:1 105:1 125:1 
-0.8154788886979768 -1.866648874635207 -3.900042561683886 -13.6886720023315 0 32 0.503178779743206 0.04049585598739308 21:0 56:1 60:1 72:1 84:0 93:1 105:1 125:1 
-2.833467202628207 -4.061974719822785 -3.579551006816919 -4.212009376100185 5.846780173052274 9.735740918123273 3.098087799201396 1.732520303184894 21:0 24:1 42:0 51:1 63:0 79:1 84:1 98:1 105:1 119:1 
-1.035688686946957 -1.905824592878374 -14.91080305826396 -0.311325968701648 13.82302482119816 7.871312685090144 0.556474314850397 1.510724507667889 21:0 56:1 60:1 66:1 84:0 93:1 105:1 125:1 
-0.9723408920671047 -0.6987740670329624 -1.13725089458263 -2.114110438202828 0 6.087411710078459 0.6021442134310083 0 21:0 43:1 56:1 60:1 72:1 84:0 87:1 105:1 118:1 
-0 -0 -1.521859045446841 -0.1017559160691537 0 0 0 0 21:0 43:1 56:1 60:1 72:1 84:0 93:1 105:1 118:1 
-0 -0 -11.53913839564981 -0 0 0 0 0 21:0 43:1 56:1 60:1 72:1 84:0 93:1 105:1 118:1 
-0 -0 -2.663102289735975 -0 0 0 0 0 21:0 43:1 56:1 60:1 66:1 84:0 93:1 105:1 118:1 
-0 -0 -0 -0 0.01290059642443089 0 0 0 21:0 37:1 42:0 45:1 63:0 74:1 84:1 96:1 105:1 118:1 
-0 -0.01221290020862837 -0 -0 -0 0 0 0 16:1 21:1 30:1 42:0 63:0 77:1 84:1 105:1 117:1 
-0.01138871344861451 -0 -0 -0 -0 0 0 0 16:1 21:0 24:1 51:1 63:0 77:1 84:0 98:1 102:1 105:1 119:1 
-0 -0 -0 -0.2125023311326304 -0 0 0 0 16:1 21:0 30:1 42:0 45:1 63:0 77:1 84:1 88:1 105:1 118:1 
-0.002595097151678918 -0.01121047095337631 -0 -0 -0 0 0 0 16:1 21:0 45:1 66:1 84:0 105:1 118:1 
-0.6133852121460204 -0.6106767954027301 -1.606025366935915 -2.215385305074373 -0.7199830592181822 0.7342134882969208 0 0.3498169733119267 16:1 21:0 39:1 45:1 63:0 66:1 84:0 105:1 118:1 
-0 -1.113357951151601 -0 -0.2766055953159696 -0 0 1.879442262476642 0 16:1 21:0 24:1 42:0 45:1 63:0 66:1 84:0 105:1 118:1 
-0.9305928941952614 -1.723035833106383 -6.227263632231267 -5.584816432432821 -15.19031361736663 9.129538755041729 0.2906906063472102 1.411518791070156 16:1 21:0 56:1 60:1 66:1 84:0 105:1 125:1 
-0.02779525356764106 -0 -0 -0 -0 0 0 0 16:1 77:1 84:0 105:1 112:1 117:1 
-0 -0.003497907829033233 -0 -0 -0 0 0 0 16:1 21:0 24:1 51:1 63:0 77:1 84:1 105:1 107:1 119:1 
-3.129830854270497 -1.547715519172135 -0 -0 -0 1.201706466596757 0.07729306039663432 0 16:1 77:1 84:0 105:1 112:1 117:1 
-4.726328320952428 -3.199032459391877 -2.43258125328606 -0.3829209754820036 -0 10.94840434692953 0.295916154974511 0 16:1 77:1 84:0 105:0 112:1 117:1 
-0 -0.2999699196304801 -0 -1.117363027427112 -0 0.5686220415887178 0.2937754139657615 0.2349521202320768 16:1 21:0 24:1 51:1 63:0 77:1 84:1 105:1 107:1 119:1 
-0.7380541137340165 -2.624237831690996 -2.622948134404972 -2.291013514818192 -0 2.339014381657266 3.504423198375668 2.476088478758325 16:1 21:1 30:1 42:0 63:0 77:1 84:1 105:1 117:1 
-1.309903787841489 -0.0886618306371162 -0.2238415853034097 -0.5926648744024099 -0.7125028972833056 0 0 0.2246363639396808 16:1 21:0 24:1 51:1 63:0 77:1 84:0 98:1 102:1 105:1 119:1 
-0 -0 -0 -0 -0 0 0 0.09454269447167643 16:1 21:0 24:1 42:0 51:1 63:0 77:1 84:0 91:1 105:1 119:1 
-0 -0.9199551091314221 -2.036656410412188 -1.130112224050675 -6.03434108653066 1.28040391801456 0.3010945236007556 0.2349521202320771 16:1 21:0 24:1 42:0 51:1 63:0 77:1 84:1 93:1 105:1 119:1 
-0 -0 -0 -0 -0 0 0.9634671648522352 0 16:1 21:0 24:1 42:0 51:1 63:0 77:1 84:1 105:1 119:1 
-0.4758538155976269 -0.5810527662970196 -5.842801004129226 -3.633710770023253 -3.367428328640589 1.659519810716629 0 1.597802118667227 16:1 21:0 45:1 66:1 84:0 105:1 118:1 
-0.09044267475716716 -0 -0 -0 -0 -0 0 0.294459195195184 4:1 21:1 37:1 42:0 56:1 63:1 69:1 84:1 105:1 125:1 
-0.0622612870162735 -0 -0 -0 -0 -0 0 0 6:1 21:1 35:1 42:1 46:1 63:1 105:1 124:1 
-0 -0 -0 -0 -0 -0 0 0.1703022446388405 21:1 37:1 42:0 56:1 63:1 79:1 84:1 96:1 105:1 125:1 
-0 -0.6329720862717882 -0 -0 -0 -0 0 0 12:1 21:1 42:1 58:1 63:1 105:1 124:1 
-7.444440515576694 -2.763012169184063 -0 -2.825294830836632 -0 -0.2803055017341161 2.29776581639498 1.192659919619531 84:0 87:1 105:1 112:1 117:1 
-0 -0 -5.485534661406874 -0 -0 -0 0 0 3:1 21:1 63:0 112:1 124:1 
-0.5639862637628545 -0.3323193627935316 -2.056945038975281 -0 -0 -0.06877721550231897 0 0.0702755275472671 1:1 79:1 84:0 85:1 105:0 112:1 117:1 
-0 -0 -0 -0 -0 -1.828329561847932 0 0 16:1 21:0 43:1 64:1 84:0 94:1 97:1 105:0 112:1 124:1 
-0.200005294962134 -0.5028504122410034 -0 -0 -0 -0 0 0 1:1 21:0 22:1 58:1 63:0 73:1 76:1 84:0 94:1 105:0 112:1 124:1 
-0.1357905692097539 -0 -0 -0 -0 -0 0 0 10:1 21:0 22:1 42:0 52:1 55:1 63:0 73:1 84:1 94:1 97:1 105:1 112:1 124:1 
-0.1240229880454736 -0 -0 -0 -0 -0 0 0 10:1 21:1 31:1 34:1 42:0 52:1 63:0 73:1 76:1 84:1 94:1 97:1 105:1 112:1 124:1 
-0.3146237237524945 -0 -0 -0 -0 -0.2847765030660357 0 0 74:1 84:0 96:1 105:1 112:1 117:1 
-0.0869023349350312 -0 -0 -0 -0 -0 2.317050560482767 0 11:1 21:0 75:1 84:1 112:1 124:1 
-0.030561283419351 -0 -0 -0 -0 -0 0 0 16:1 21:0 35:1 39:1 63:0 75:1 84:1 112:1 124:1 
-5.758007620071647 -4.867017310479136 -0 -0 -0 -5.816709273939902 0 0 112:1 117:1 
-0 -0 -0 -0 -0 -1.828014574063775 0 0 84:0 105:1 112:1 117:1 
-0.7511984159513869 -4.998789030388653 -32 -8.00270929078158 -5.339527758458923 -1.58744933973811 2.655633900244329 1.068600542161805 72:1 84:0 105:1 117:1 
-0 -0 -0 -9.244556283602101 -0 -0 0 0 9:1 21:0 84:0 105:1 124:1 
-0 -0 -0 -0 -6.523680312805995 -0 0 0 21:0 51:1 63:0 84:1 105:1 124:1 
-0 -0 -0 -2.336374473895572 -0 -0 0 0 9:1 21:1 35:1 39:1 63:0 112:1 124:1 
-0 -0 -0 -0 -0 -1.450542781661183 0 0 21:0 56:1 60:1 84:0 105:1 112:1 125:1 
-0 -0 -11.41472837284451 -12.54800818745783 -32 -3.384994591065739 0 0 21:0 56:1 60:1 72:1 84:0 105:1 125:1 
-0.1412592175022995 -0 -0 -5.726013532584449 -0 -0 0 0 9:1 21:0 35:1 39:1 63:0 84:1 105:1 124:1 
-0.4694260551184583 -0 -4.252915875891757 -0 -0 -0 0 0.1561620593528977 21:1 37:1 42:0 56:1 63:1 107:1 125:1 
-0 -0 -0 -0 -0 -0.2178175568482708 0 0 84:0 85:1 105:1 112:1 117:1 
-0.3582652272534509 -8.807885082223487 -8.873103737649892 -0.7871171452907558 -2.700937618793729 -0.46881431716099 0 0.1093517843892533 18:1 65:1 84:0 93:1 105:1 112:1 117:1 
-0 -0 -0 -0.3368896574927467 -0 -0 0 0 9:1 21:1 39:1 44:1 63:0 112:1 124:1 
-0.004901640916531406 -0.9232429550164272 -0 -0 -0 -0.2760162727682101 0 0 84:0 91:1 105:1 112:1 117:1 
-0.5935128695889217 -0.2670492177866297 -0 -0 -0 -0 0 0 70:1 84:0 112:1 117:1 
-0 -0 -0 -0 -0 -3.193267244885948 0 0 16:1 21:0 75:1 84:1 112:1 124:1 
-0.1925269062844011 -6.227575960090762 -7.021605544286056 -0 -0 -0 0 0 14:1 18:1 21:0 56:1 60:1 84:1 112:1 125:1 
-0.01851073574286292 -0 -0 -0 -0 -0 0 0 6:1 21:0 56:1 60:1 84:0 97:1 105:0 112:1 125:1 
-0.02810065181047771 -0 -0 -0 -0 -0 0 0 21:0 35:1 39:1 48:1 63:0 76:1 84:0 100:1 105:1 112:1 124:1 
-0 -0 -0 -0 -0 -0.4623203512213247 0 0 16:1 21:1 42:0 55:1 63:0 73:1 76:1 84:1 112:1 124:1 
-0 -0.3166674545706147 -0 -0 -0 -0 0 0 10:1 13:1 21:1 34:1 42:0 58:1 63:1 112:1 124:1 
-0.04421269534535921 -0 -0 -0 -0 -0 0 0 5:1 21:0 56:1 60:1 84:1 112:1 125:1 
-0 -0 -0 -0 -0 -1.637989735048944 0 0.04333081489345136 21:0 56:1 60:1 70:1 84:1 105:1 125:1 
-0 -0 -0 -1.539779277738024 -15.87177269208078 -0.5349116207681356 0 0 21:0 56:1 60:1 79:1 84:0 93:1 105:1 112:1 125:1 
-0 -0.4342404859568716 -0 -0.1068948454541063 -0 -0 0 0 9:1 21:1 42:0 58:1 63:0 112:1 124:1 
-0.3583270089978344 -0 -0 -0 -0 -0 0 0 16:1 21:0 35:1 39:1 43:1 63:0 64:1 84:0 94:1 97:1 105:0 112:1 124:1 
-0.1575059510507581 -0 -0 -0 -0 -0 0 0 10:1 13:1 21:1 31:1 42:1 52:1 63:1 73:1 76:1 84:1 112:1 124:1 
-0.1119444964034687 -0 -0 -0 -0 -0 0 0 10:1 13:1 21:1 31:1 42:1 52:1 55:1 63:1 112:1 124:1 
-0.1764871082444028 -0 -0.2620685124544244 -0 -0 -0.1589634944865246 0 0 13:1 21:0 56:1 60:1 84:0 100:1 105:0 112:1 125:1 
-0 -0 -0 -0 -0 -0.5513094076332906 0 0 16:1 21:0 34:1 42:0 63:0 73:1 76:1 84:1 97:1 105:1 112:1 124:1 
-0 -0.506131266553817 -0 -0 -0 -0 0 0 10:1 13:1 21:1 42:0 58:1 63:0 76:1 84:1 112:1 124:1 
-0 -0 -0 -0 -0 -1.450699107171387 0 0 21:1 37:1 42:0 56:1 63:0 105:1 125:1 
-0 -0 -0 -0 -0 -0 0 0.5188250977644252 21:1 37:1 42:1 56:1 63:1 105:1 125:1 
-0 -5.224800652174284 -1.883654544106252 -0 -0 -0 0 0 14:1 18:1 21:1 37:1 42:0 56:1 63:0 84:1 105:1 125:1 
-0.04747543759343861 -0 -0 -0 -0 -0 0 0 6:1 21:1 37:1 42:0 56:1 63:0 65:1 84:1 105:1 125:1 
-0.02169709567359629 -0 -0 -0 -0 -0 0 0 2:1 21:1 35:1 42:0 48:1 63:1 84:1 105:1 124:1 
-0.04439137909860406 -0 -0 -0 -0 -0 0 0 21:1 27:1 42:1 44:1 63:1 105:1 124:1 
-0.005138412318033936 -0 -0 -0 -0 -0 0 0 7:1 21:1 37:1 42:0 56:1 63:0 79:1 84:1 105:1 125:1 
-0 -0 -0 -0 -0 -2.379414758229972 0 0 16:1 21:1 35:1 42:0 49:1 63:1 84:1 105:1 124:1 
-0 -0.6261769218108477 -0 -0 -0 -0 0 0 21:1 28:1 42:1 58:1 63:1 105:1 124:1 
-0 -0 -0 -8.327643181479754 -0 -0 0 0.4052103302307896 9:1 21:1 37:1 42:0 56:1 63:1 84:1 105:1 125:1 
-0 -0 -0 -0 -1.879552171368016 -0 1.416994962029916 0.6072441388779496 21:1 37:1 42:0 56:1 63:0 84:1 87:1 105:1 125:1 
-0 -0 -0 -0 -0.8382385468923766 -0 0 0 21:1 35:1 42:0 63:1 66:1 84:1 105:1 124:1 
-0 -0 -12.64657059574903 -0 -0 -0 0 0 3:1 21:1 42:1 63:1 105:1 124:1 
-0 -0 -0 -0 -3.791490366396539 -0 0 0.2088822559794258 21:1 37:1 42:0 56:1 63:1 74:1 84:1 96:1 105:1 125:1 
-0.06494444571416143 -0 -0 -0 -0 -0 3.984608409270912 0 11:1 21:1 35:1 42:1 63:1 75:1 84:1 105:1 124:1 
-0.0497745836930766 -0 -0 -0 -0 -0 0 14.2773546027495 12:1 21:1 42:1 53:1 63:1 105:1 124:1 
-0.03275972324059268 -0 -0 -0 -0.01529444072468181 -0 -0 0 11:1 21:1 24:1 42:0 63:1 75:1 84:1 105:1 117:1 
-0.6975667356379572 -0.7401950234990096 -1.897005896066309 -2.436834121151442 -0.800836313493298 -0.7254610598086794 -4.325716709753734 2.671526992353499 11:1 21:1 24:1 42:0 63:1 75:1 84:1 105:1 117:1 
-4.365629344168203 -4.542610400941244 -5.30303289780646 -3.11517382739761 -3.296778178508423 -2.339255808881632 -5.600272407677027 1.404322413074346 11:1 21:0 24:1 42:0 63:0 75:1 84:1 87:1 105:1 117:1 
-0.9635251890829788 -2.679512187695461 -1.782366453621068 -2.726959859833192 -3.168058910046648 -4.541385516299106 -2.746064530992145 0.8797797827485111 11:1 21:1 24:1 42:0 63:0 75:1 84:1 105:1 117:1 
-0.01097581151625933 -0 -0 -0 -0 -0 -0 -0 12:1 21:1 42:0 53:1 63:1 105:1 121:1 
-0.680687887209263 -0.7006741874013431 -2.289935342803372 -1.519944502163655 -0.7690776405919884 -0.6643942518158319 -14.67830085165481 -0.4756737791083817 12:1 21:1 42:1 53:1 63:1 105:1 121:1 
-2.332031848030431 -3.693726507550021 -3.152360527081673 -3.519364163445669 -3.855765085328852 -3.243462152634183 -2.224363831497215 -2.204887340527617 12:1 21:1 42:0 53:1 63:0 66:1 84:1 87:1 105:1 121:1 
-2.294596986840359 -2.94119835768589 -3.467869733303896 -2.762648369066277 -2.514204881443729 -2.716453256233131 -2.219993830248294 -2.275068068540357 12:1 21:1 42:0 53:1 63:1 105:1 121:1 
