svm_type c_svc
kernel_type rbf
gamma 0.125
nr_class 9
total_sv 213
rho -0.0882949 -0.269518 -0.485653 0.188374 -0.352805 -0.680602 -0.599912 -0.31544 -0.116735 -0.255823 -0.474522 -0.219651 -0.571024 -0.565177 -0.203871 -0.332576 -0.980925 -0.227317 -0.693365 -0.77054 -0.17334 0.784107 0.00984885 -0.431915 -0.3565 0.0807856 -0.670887 -0.936752 -1 -0.334254 -0.443997 -0.397494 0.0579056 0 0.408499 0.453148
label 10 1 0 -2 -1 -3 3 4 -4
probA -4.5909 -4.27314 -4.2462 -4.24379 -4.12405 -3.12887 -3.13166 -3.89078 -3.90313 -3.82432 -3.80658 -4.05437 -2.72632 -5.31289 -3.53748 -3.26382 -2.06781 -3.13607 -1.9849 -2.0092 -3.01332 -4.04553 -3.14495 -1.9939 -2.00815 -2.84608 -3.7182 -2.64898 -0.0926045 -3.68323 -2.03431 -2.02416 -2.89155 -1.09861 -1.90873 -1.90217
probB -0.2395 -0.542366 -0.705018 0.766653 -0.848338 -2.0314 -2.03414 -1.21149 -0.316233 -0.421805 0.106581 -0.10673 -1.63356 1.89474 -0.79788 -0.256794 0.552246 -0.558807 -1.10128 -1.08106 -0.533571 0.48866 0.0961816 -0.957632 -0.967953 -0.25758 -0.616059 -1.93643 -3.68525 -1.00172 -0.947321 -0.934347 -0.214466 1.47862e-16 0.811195 0.80386
nr_sv 52 43 15 11 68 14 1 2 7
SV
0 0.1874838631254239 0 0.7441447903964556 0 0.0885405834955573 0 0 3:1 18:1 19:1 29:1 40:1 
0.1807269254213812 0.02786292629240272 0 0 0.2087889636227244 0.002906109796239256 0 0 3:1 18:1 19:1 29:1 35:1 56:1 
0 0 0 0.3962077656090026 0.04161118155761855 0 0 0 3:1 18:1 19:1 29:1 40:1 51:1 
0 0 0 0 0 0.2569924368729346 0 0 3:1 18:1 19:1 29:1 56:1 
0.001085346302205158 0 0 0 0 0 0 0 2:1 3:1 13:1 51:1 67:1 
0.3049615393340213 2.918456618715763 0 1.412282288540871 0.4894465336433126 0 0.02271862606831348 0 3:1 34:1 35:1 45:1 51:1 72:1 
0.1663889498818355 0.0456916712134884 0 0 0.04980286030375735 0.02073589213870686 0.02162706481614303 0.03267549324677568 3:1 18:1 19:1 29:1 35:1 56:1 72:1 
0 0 0 0 0.0383751524023707 0 0 0.1225340270361569 3:1 51:1 
0 0 0 0 0.8505074041952569 0 0 0 3:1 35:1 
0 0 0 0.5644537542112612 0 0.04739680420486356 0 0 3:1 18:1 19:1 29:1 51:1 72:1 
0 0.2321777909899347 0 5.814777036877561 0 0 0 0 3:1 34:1 35:1 45:1 56:1 
0.5295147276230832 0.2398516989450613 0.01630357567742264 0.5245028621416413 0 0 0.0227120639501541 0 3:1 34:1 35:1 45:1 56:1 79:1 
0 0 0 0 0 0 0.002609981305230671 0.1553348729293058 3:1 51:1 72:1 
0 0 0 0 0.126040382137938 0 0 0 3:1 35:1 56:1 79:1 
0.2196451128645897 0 0 0.4627073155196431 0 0 0 0 3:1 18:1 19:1 29:1 40:1 51:1 79:1 
0 0 0.05327002341124639 0 0 0 0 0 2:1 3:1 13:1 67:1 
0.2714414325609092 0.001575729724897802 0.1495703652362532 0.3485764309504226 0 0 0.0231081338154515 0.04930573285247809 3:1 18:1 19:1 29:1 56:1 79:1 
0 0.3101568871822714 0 0 0 0 0 0.3293478395524749 2:1 3:1 56:1 67:1 
0.1170322585520817 0.3986069372323012 0 0 0.3650747732112763 0.2771945524992009 0 0 3:1 18:1 19:1 40:1 51:1 79:1 
0.04113691416253441 0 0 0.1498648028482985 0 0.03446226404215014 0 0 3:1 17:1 18:1 19:1 29:1 56:1 
0 0.00135594246649171 0 0 0 0 0 0 3:1 33:1 34:1 35:1 45:1 56:1 72:1 
0.8389452955828619 0.09741775216423448 0.04008191448403149 0 0 0.01616911054825762 0.05737993667186372 0.06209682815053431 3:1 17:1 18:1 19:1 29:1 56:1 72:1 
1.67451573447689 3.810309026820863 0.1480053590432424 0.002693293086408019 0.06311219141389447 0.09976401605610817 0.1422093278745446 0.2135855642660346 3:1 33:1 34:1 35:1 45:1 56:1 72:1 
0 1.000061863579575 0.4759915123336285 0.7109296125957623 0.05935340534068684 0 0.1233020758300631 0.06589509112467402 3:1 24:1 40:1 
0 0.1727009755595631 0.124421248575542 0.8464277113224538 0 0.06372074920656165 0.0009010536587147823 0.1037185871273617 1:1 2:1 3:1 13:1 67:1 
0.2982669787243736 0.02073562112142936 0.08498274342830818 0.3248097108729908 0.1018514185651945 0.07480946885492511 0.03988626263602828 0.104047462257781 3:1 17:1 18:1 19:1 29:1 51:1 72:1 
0.7645138423891692 0 0.1211008496334872 0 0.8128610723915987 0 0.007619637710393778 0.1993739832570837 3:1 24:1 40:1 51:1 
0 0.5911136914970654 0.3491779805081486 0.1482457674897681 0.5092474033609822 0.03266287043738701 0 0 3:1 24:1 35:1 
0.6713006805301844 0.4967278894880952 0.1086558215824941 0.4773262202369388 0.2670508930297447 0.1129465011379169 0.1027549657691312 0.1873528764705776 3:1 17:1 18:1 19:1 29:1 40:1 63:1 77:1 
0.3553386738644788 0.09693459246700908 0.03232740145427088 0 0.1018905395570305 0.005177439088935342 0.08614387750295366 0 1:1 2:1 3:1 13:1 56:1 67:1 
0.7984054618197723 0 0.05353990475630252 0.1913656368178368 0.04764353960368702 0 0.08850145690134104 0.1313493261320652 3:1 17:1 18:1 19:1 29:1 40:1 51:1 79:1 
0.8325280884575306 0.2851273758180098 0.2027229116171322 0.3795634825984251 0.1531547555368298 0.09792533219394296 0.1073406075548852 0.156738603884908 3:1 24:1 35:1 63:1 77:1 
0 0 0.1543360749940061 0 0 0.02984875257922677 0.04292894180487929 0 1:1 2:1 3:1 13:1 72:1 
0.5145947804737724 0.7809701894989586 0 0 0.1589218150692142 0 0.03223049307650287 0.02527069706242369 3:1 40:1 63:1 77:1 
0 0 0.1221189715572712 0.544213503726042 0 0.09648658350390336 0.1241721120671241 0.9175180170561019 3:1 63:1 67:1 
0 0 0.2263421991632323 0 0 0 0.04587617546420166 0.2692396268733295 3:1 51:1 79:1 
0.283060128127452 0.05242154800294109 0 0 0.32221541198487 0 0 0 3:1 35:1 63:1 67:1 
0.2162505780507163 0.7266447600506004 1.701895075755755 0.8038501470350469 0.4184411220091184 0.7301164964409019 0.18121717917705 0.3092628658906866 3:1 19:1 47:1 74:1 
0 0 0.02325277468315827 0 0 0 0 0 2:1 3:1 13:1 72:1 
0 0 0.2250207296593863 0 0 0 0.0677738547134573 0 3:1 56:1 79:1 
0.2335626961901681 0.6045581478673329 0.8733628806416635 0.5755871284397277 0.7224194975943488 0.07458778690828545 0.1234084957242348 0.960778473140823 2:1 3:1 13:1 50:1 51:1 61:1 
0 0 0.646567245981377 0.6330359798755584 0 0.03751780256845049 0.03510585766146693 0 2:1 3:1 13:1 54:1 
0 0 0.6476811794093595 3.978130381358572 0 0 0 0 2:1 3:1 13:1 
0 0 0.2732193010044877 0.8243935062708471 0 0.039796816095908 0.03510585766146727 0 2:1 3:1 13:1 71:1 
0 0 0 0.1451285556217579 0 0 0 0 2:1 3:1 13:1 74:1 
0 0 0.5515123594293057 1.427668042477021 0 0.04030699559699547 0.03640824698909756 0 2:1 3:1 13:1 60:1 
0 0 0 32 0 0 0 0 3:1 
0 0 0 32 0 0 0 0 3:1 
0 0 0.1397287677275171 30.82312651711278 0 0.7952839251980751 1.769180137539769 0 3:1 
0 0 0 0.3616247805739554 0 0 0 0 2:1 3:1 13:1 48:1 51:1 
0.2053699769384948 0 0.1483376670309212 0 0.08632787449772654 0.04729205007133598 0.09505231351763128 0.1661326311631847 2:1 3:1 13:1 32:1 48:1 51:1 
0.11640068577987 0.4132502232643442 0.1065137037787535 2.561741597647785 0.08949556352786205 0.1155352053908879 0.1166145177064061 0.3371083405735304 3:1 32:1 34:1 35:1 45:1 
-0 0 0 0.965190202393525 0.1616361960948996 0 0 0 8:1 34:1 35:1 45:1 51:1 
-0 0.1827725915479007 0.2110714645852743 0 1.169157324672288 0.796613775958659 0 0 8:1 19:1 35:1 
-0.2058965001662758 0.7992450046812696 0 0 0 0 0 0 8:1 34:1 35:1 45:1 56:1 67:1 
-0.476627116804571 0 0 0 0.002272197779294617 0 0 0 8:1 18:1 19:1 29:1 40:1 51:1 
-0 0.01919286907353152 0 3.486514508142425 0 0.09831426662745348 0 0.1101692016543995 8:1 18:1 19:1 29:1 56:1 67:1 
-0.3572893794605738 1.101456345007511 0 0.7939472477731593 0 0 0 0 8:1 34:1 35:1 45:1 56:1 72:1 
-0 0 0 0 0.02325808473262253 0 0 0 8:1 18:1 19:1 29:1 40:1 56:1 67:1 
-0 0 0 9.198121102120096 0 0 0 0 8:1 18:1 19:1 29:1 35:1 
-0.5361673833735291 0.1611322302588306 0 0.2162126860206625 0.05883036849079255 0 0.005533204176376962 0.009092653247936452 8:1 18:1 19:1 29:1 35:1 63:1 77:1 
-0 0.08177527505324016 0.1637041317957395 0 0.180600462782031 0.1299777553676762 0.0260163631982856 0 8:1 19:1 35:1 63:1 77:1 
-0.1909143839253231 1.014199855591876 0.04551334515392372 0 0 0 0.01146611521403123 0.04833648916100858 8:1 34:1 35:1 45:1 51:1 67:1 
-0 0.06264564771541865 0.002329144952793595 0 0.01544348527681042 0 0 0 8:1 35:1 63:1 77:1 
-0 0.0621958685243474 0.4116505529053121 3.294209307081224 0.1777892659997285 0.2290892240418498 0.1758966604480474 0.1896755619225805 8:1 18:1 19:1 29:1 51:1 79:1 
-0.03636273461192983 0.04256696956437971 0.006924932415705722 0 0.506749315455911 0 0 0.4193597336299248 8:1 34:1 35:1 51:1 67:1 
-0 0 0 0.1779190080869245 0.1875991677180168 0 0 0 8:1 33:1 34:1 35:1 45:1 51:1 
-0 0.2927549116668988 0.6541585091747055 0 0.365718695367372 0 0.6378039390077208 0.04847052954255782 8:1 35:1 
-0 0 0.08226690740304901 3.017581654788737 0.170546201780814 0.1555580525904098 0.1491974190352116 0.02285174232315654 8:1 17:1 18:1 19:1 29:1 51:1 
-0 0.0510007847755024 0.02432182077009114 0 0 0.01589368180113718 0.01804199127909813 0.2241413400248328 8:1 17:1 18:1 19:1 29:1 56:1 67:1 
-0 0 0 0 0.3277375072276972 0 0 0 8:1 40:1 51:1 
-0.2083049102879326 0.02534771055657607 0 0 0.08076017541810999 0 0 0 8:1 17:1 18:1 19:1 29:1 35:1 56:1 72:1 
-0 0 0 0 0.01197118595191484 0 0 0 8:1 24:1 40:1 
-1.560232849917231 2.704040821147711 0.04168222307431347 0.1659624408685164 0.007800911343850752 0.03729917340949044 0.01349016913989364 0.1100373893104866 8:1 33:1 34:1 35:1 45:1 56:1 72:1 
-0.4580630712114818 0.1132563649688592 0 0 0.2043229823346843 0 0 0 8:1 17:1 18:1 19:1 29:1 40:1 56:1 67:1 
-0.4510838477710563 0 0 0 0.566455788755081 0 0 0 8:1 24:1 40:1 51:1 
-0 0.043067095297442 0 0 0.09299144309530924 0 0 0 8:1 19:1 35:1 56:1 72:1 
-0 0.0450378901526838 0 0 0 0 0 0 8:1 24:1 40:1 
-0.9331782189738732 0.1890989552668245 0.1635206601601506 0.6162653651100302 0 0.1315617559259351 0.07988648051507671 0.05642036804733082 8:1 17:1 18:1 19:1 29:1 56:1 72:1 
-0 0 0 0 0 0 0 0.0591058294486852 8:1 40:1 56:1 67:1 
-0.3940380773412807 0.2338389010690009 0.2729182542289294 0 0.3467639345315131 0.0250337309136295 0.05951755418871014 0.732345107065468 8:1 24:1 40:1 51:1 67:1 
-0.5009014891046495 0.2863047584699843 0.3127293162417392 0 0.252525644234069 0.06482215413969912 0.09926029193848622 0.06348796481368196 8:1 33:1 34:1 35:1 45:1 51:1 79:1 
-0.03168115643424275 2.633146514423812 0.1274305795536966 0 0 0.1135657659836972 0.1471092318134593 0.3073155659665484 8:1 33:1 34:1 35:1 45:1 51:1 67:1 
-1.044486270616385 0.24918298606873 0.2082031428963587 0 0.1103733582292915 0.002720761113133249 0.0400248711793316 0.2320175186256261 8:1 17:1 18:1 19:1 29:1 51:1 79:1 
-0 0.1414456268276909 1.182837511007588 3.043520822115822 0 0.4597357365885814 0.8324890902640092 0.7016959298102805 8:1 56:1 
-0 0 0.1545520922749165 6.09278948989213 0 0 0.676714628004889 0.2921497266431179 8:1 40:1 
-0 0.761257034410615 0.5831973720849226 0.09614645667962937 0.1104599841316365 0 0.07916036274925915 0 8:1 24:1 40:1 
-0 0 0 2.451853320709984 0 0 0 0 8:1 18:1 19:1 40:1 
-0 0.9314857402026783 0.2876711900647639 0 0 0.8723070231890147 0 0 8:1 19:1 40:1 
-0.5687085049527784 0.02305927317102695 0.07763022188175119 0 0.03297605928069126 0 0.1104925179620941 0.5080957522870528 8:1 35:1 63:1 77:1 
-0.2280453844724173 0 0 0 0.02207075873328802 0 0 0 8:1 35:1 56:1 79:1 
-0.2058950071882412 1.462154195699874 0.07927086813317177 0 0.2673540975042361 0.09968870130278966 0.02131712895814249 0.1901716987677976 8:1 19:1 40:1 63:1 77:1 
-0 0 0 0 0.2163410315029006 0 0 0 8:1 35:1 56:1 72:1 
-0.3005767753160684 0.09031792532525167 0 0 0.09337096858126058 0 0 0 8:1 19:1 40:1 56:1 79:1 
-0.9465337461785346 0.2494760163037017 0.2012280145555032 0.2351928707799854 0.2508932558146451 0.05275200567778912 0.1335700124256985 0.07641734987867604 8:1 24:1 40:1 63:1 77:1 
-0.3082247666331395 -1.159168921600881 0.06379707018274315 7.576721449776668 0 0.1170474535040566 0.1488982467584866 0 34:1 35:1 45:1 56:1 72:1 
-0.2841994944135092 -1.10094720586444 0.354132349432463 9.632720365382093 0.783637481983895 0.1207088881225653 0.143201446238634 1.022392889961163 34:1 35:1 45:1 51:1 67:1 
-2.404338946725575 -3.154541758856937 1.632671380338535 4.648565813135196 2.146529507658826 1.556980741309905 0.9488145752940041 1.210442176557941 19:1 40:1 77:1 
-1.936413353380065 -1.252762116244119 3.125089665358351 7.988996232604665 4.826264589917233 0.8994101648277445 1.364106871335922 1.828918445668474 24:1 61:1 
-2.862729166813514 -0.09102997226547803 0.4241625502559816 0.3451695301422907 0.4382804697835824 0.08884982846700076 0.1583341800882494 0 34:1 35:1 45:1 51:1 72:1 
-0.5591906233559697 -0.8671234733466219 0.1309663097668405 16.88129004674981 0 0.08032101429932083 0.1680917573461068 0.03148341177123906 34:1 35:1 45:1 56:1 67:1 
-0.01196634563536234 -0.08399761898069724 0 0 0 0 0 0 33:1 34:1 35:1 45:1 51:1 72:1 
-0.01034177090415179 -0.02606638433794595 0 0 0 0 0 0 33:1 34:1 35:1 45:1 56:1 67:1 
-0.1788651520130883 -0.1999634468261057 0.07690084626605335 0.08270667540313317 0.2159891213436707 0.0644174092043563 0.03512684319448118 0.04256129431351234 33:1 34:1 35:1 45:1 51:1 72:1 
-0 -0.5889226066219095 0 0 0 0 0 0 33:1 34:1 35:1 45:1 56:1 72:1 
-0.2376740771039832 -2.638407255062646 0.1477197072562038 0.09387337121797465 0.1019957194098522 0.03237988738621296 0.05080703222354956 0.2027698179523919 33:1 34:1 35:1 45:1 51:1 67:1 
-3.600882413632665 -1.992883360352646 0.1463173723811077 0.09565538023633853 0.009396886308043044 0.03610883278854921 0.04564218630812592 0.03964731986192492 33:1 34:1 35:1 45:1 56:1 72:1 
-0.1765451464183415 -0.1495664588384961 0.07751607058025917 0.08637603636127493 0.1772664111315651 0.07317156713485207 0.02542913281150611 0.2271130322494127 33:1 34:1 35:1 45:1 56:1 67:1 
-0 -0.02187089182757783 0 0 0 0 0 0 31:1 35:1 58:1 75:1 
-0.9408224660586931 -0.725204691796666 0.9522176239050212 6.397461369423863 0.9387759629077929 0.4574554462187542 0.6305480771792453 0.6567521278581929 31:1 35:1 58:1 75:1 
-3.415758049706609 -2.642695757812475 -3.513176956311531 7.112090461896175 2.385434098635757 1.36468486474056 2.365578346764471 1.967536067455671 13:1 
-1.152857847925676 -0.7374258525134694 -1.599696963503104 1.115770716897265 1.182544546580916 0.1604922190167482 0.2830632639024634 1.238882018380028 13:1 24:1 47:1 50:1 51:1 61:1 
-0.7013899006574223 -0.4210163407691718 -0.4305963080387189 0.5533606490608288 0.4355853794279028 0.3648582522100903 0.1943146634742181 0.3845281814537555 13:1 19:1 47:1 54:1 66:1 
-0.2481741156113273 -0.4206594848963204 -0.4775886911264881 1.041494673219052 0.1067355870475904 0 0.1665915237134615 0.06850902996028162 13:1 24:1 47:1 55:1 79:1 
-0 -0 -0.001493448343649986 0 0 0 0 0 13:1 19:1 47:1 49:1 79:1 
-0.7256806643730735 -0.09082554114670509 -0.3465423182583821 0.5925505072966561 0 0 0.04362590937711813 0 13:1 24:1 47:1 74:1 
-0.4599877664973545 -0.09369541984758498 -0.06532572771293776 0.5199415895273434 0.0398345460727343 0.3934288549832476 0.001737830243924997 0 13:1 19:1 47:1 60:1 
-0.5065769636705033 -0.4210856343161716 -0.4309110243234963 0.5530106403372121 0.3315435731355341 0.3650841291456464 0.1934465428195556 0.2497845076492914 13:1 19:1 47:1 52:1 70:1 
-0.5896152341157401 -0.4674082240125016 -0.2661595081052501 0.4752022006012377 0.2848517272085491 0.3006976639416499 0.1364068141511228 0.2270586289222222 13:1 19:1 47:1 49:1 79:1 
-0 -0 -0 0 0 0.1283338597675991 0 0 13:1 19:1 47:1 79:1 
-0 -0 -0 0.3337015627985992 0 0 0.02455963210591386 0 13:1 47:1 72:1 
-3.582483808082812 -0 -0 -1.565997082345816 0 0.001347531662026959 0 0 2:1 3:1 13:1 31:1 45:1 
-0 -0 -0.04762571649015811 -0 0 0 0 0 31:1 45:1 67:1 
-32 -0 -0 -0 0 0 0 0 3:1 
-0 -0 -0 -0 0 0.005319311887691969 0 0.4339315689907159 6:1 31:1 45:1 50:1 
-0 -0 -0 -0 1.379153705704407 0 0 0 15:1 29:1 39:1 
-0.1126624379378632 -0 -0 -1.056799799953901 0 0 0 0.007782065251137915 23:1 47:1 
-0 -0 -2.095191110039663 -0 0 0 0 0 31:1 45:1 58:1 75:1 
-0 -0 -0 -0 0 0.00464159258516589 0 0 4:1 31:1 45:1 54:1 
-0.07621878758780579 -0 -0 -0 0 0 0 0 6:1 29:1 36:1 
-0 -0.1785806375101007 -0.1853347300929 -0 0.02997347438842515 0.02065736543691488 0 0.3353433395858944 1:1 31:1 45:1 63:1 65:1 66:1 
-0.2835573900918451 -0 -0.5001732843463595 -0.1341883541616082 0.3735486720031795 0 0 0.4352658376751246 15:1 29:1 33:1 49:1 50:1 73:1 76:1 
-0.6860388117348323 -0.5930903391887284 -0.6042133182487928 -0.03923066988998047 0 0.02146486812033823 0 0.2173175873486388 1:1 2:1 17:1 47:1 57:1 60:1 73:1 
-0 -0.03688175033232911 -0.4502973879643298 -0 0 0.01644495549368506 0 0.08500804347247086 9:1 12:1 31:1 33:1 34:1 57:1 73:1 
-0.1275054584999964 -0.6972676536180835 -0.1994069839207184 -0.009768337273079061 0 0 0 0.154156275845637 9:1 17:1 18:1 41:1 44:1 57:1 73:1 76:1 
-0.1108813883282675 -0.2995438211936685 -0.5964423468290224 -0.01538577096124379 0 0.02020462393096343 0 0.1355229367654275 9:1 25:1 28:1 41:1 57:1 60:1 73:1 76:1 
-0.1285780705660232 -0 -0 -0 0 0 0 0.05281051518773276 9:1 12:1 25:1 41:1 57:1 60:1 
-0.1190935278385535 -0 -0 -0 0 0.01331139310060181 0 0.1465923295720931 9:1 12:1 25:1 41:1 44:1 
-0 -0 -0 -0 1.380114265349254 0 0 0 15:1 29:1 59:1 
-0.05265550819113655 -0 -0 -1.055650222713171 0 0 0 0 11:1 47:1 
-0 -0 -0 -0.005220857119442374 0 0 0 0 
-4.449235398404882 -3.09038098373719 -16.4994478927925 -0 0.1022308202218397 0 0 0 34:1 35:1 45:1 56:1 
-0.1142749907675893 -18.32393096091264 -0 -0.1064762125867442 0 0 0 0 8:1 18:1 19:1 29:1 
-1.424036830121042 -4.605967292017032 -0.8595902119608961 -0.1151331109852283 0.8861997643733961 0 0 0 40:1 
-0.6095056601470861 -0 -4.290582047183177 -1.75308133866703 0.1079658291312951 0 0 0 24:1 
-0 -0 -0.6208487717859491 -0 0 0 0 0 31:1 45:1 56:1 
-0 -2.813507578247506 -0 -0 0 0 0 0 8:1 29:1 
-0 -0 -0 -1.402947664796352 0 0 0 0 
-0 -0 -0 -0.1172556313047764 0 0 0 0 65:1 
-0 -0 -0 -0.2449995901804028 0 0 0 0 49:1 
-0.6485984204068225 -0 -0.991971883778772 -0.114910196154656 0 0 0 2.166624003694526 67:1 
-0.5938284036939081 -1.106519558576333 -2.231167022920428 -0.6834378870406912 3.354286436662964 0 0 1.244806450925874 51:1 
-32 -0 -0 -0 0 0 0 0 3:1 
-0 -0 -0 -0.06695379355197389 0 0 0 0 6:1 76:1 
-0.1999660435443265 -0.0859388419147421 -0 -0.3622791902956858 0 0 0 0.01023862081339826 38:1 60:1 79:1 
-0 -0 -0 -0.1148597798757454 0 0 0 0 5:1 
-0 -0 -0 -0.1161381084027293 0 0 0 0 37:1 
-0.2797236428258067 -0 -0 -0.1147212377967354 0 0 0 0 71:1 
-0 -0 -0 -0.001323970449432328 0 0 0 0 55:1 
-0 -0 -0 -0.7081698085253864 0 0 0 0 55:1 
-0.09824189030891525 -0 -2.572490622625215 -0.1224718205177093 0 0 0 0.007292096967058274 58:1 75:1 
-0 -0 -0 -0.07908741117475776 0 7.957268599850983 0 0 10:1 59:1 
-0 -0 -0 -0 0 0 32 0 11:1 42:1 
-0 -0 -0 -0 0.08770420009792809 0 0 0 34:1 35:1 45:1 65:1 
-0 -0 -0 -0.137242059640253 0 0 0 0 18:1 19:1 29:1 49:1 
-0 -0 -0 -0.09713110017959742 0 0 0 0 1:1 
-6.38731169887735 -0.2381285357069146 -0 -0.8418882607581049 0.1716332861910683 0.01927360661182297 0 0.2133696993733483 2:1 3:1 13:1 34:1 35:1 45:1 
-0 -0.5045067289557498 -0 -0 0 0 0 0 18:1 19:1 29:1 34:1 35:1 45:1 
-0 -0.3112790466177239 -18.02450190679803 -0 0.3964914220175731 0 0 0.0293992630494001 34:1 35:1 45:1 67:1 
-1.992201911179701 -0.4049277041599509 -1.67923859493652 -0.0456190934272768 0 0 0 0.08330437871848304 18:1 19:1 29:1 51:1 
-32 -0 -0 -0 0 0 0 0 3:1 
-0 -0 -0 -0 0 0.002187731957973809 0 0 6:1 34:1 35:1 45:1 76:1 
-0.6238136439184441 -0 -0.3790336390406922 -0.1457171130739065 0 0.01457951071983308 0 0.1902951035064506 18:1 19:1 29:1 38:1 60:1 79:1 
-0.2161523775054005 -0.04067017583164224 -0 -0 0 0.007536251666733218 0 0.06718183146746025 12:1 22:1 63:1 73:1 76:1 
-0.027504158510902 -0 -0 -0.04631037365017197 1.143625781190502 0 0 0.01154313321133302 15:1 44:1 57:1 60:1 
-0.1309401655892504 -0 -0 -0.2615953572155049 0 0.002698440717299539 0 0.1060399557928746 9:1 12:1 28:1 47:1 
-0 -0 -0 -0 0.3439709999753875 0 0 0 34:1 35:1 45:1 71:1 
-0.1148417687067651 -0 -0 -0.05430527218670675 0 0 0 0 18:1 19:1 29:1 55:1 
-0 -0 -0 -0.08493798374749321 0 0 0 0 7:1 
-0 -0 -0 -0 0.1035483073449335 0 0 0 34:1 35:1 45:1 55:1 
-0.1141234623882326 -0 -0 -0.04645683698512461 0 0 0 0 7:1 18:1 19:1 29:1 
-0 -0 -0 -0 0.1489126761413579 0.01200288454874461 0 0.1280401090309839 34:1 35:1 45:1 58:1 75:1 
-0.2986834592994088 -0 -0.08945984741468144 -0.06240541237217615 0 3.979718748569108 0 0.1489360671621759 10:1 18:1 19:1 29:1 59:1 
-0.07573354678715666 -0 -0 -0 0 0 32 0.09542162620657883 11:1 42:1 
-0 -0.5203048740425128 -0 -0 0.1495039646312797 0.0009854018585266668 0 0 12:1 34:1 35:1 45:1 79:1 
-0.3173024114181938 -0 -0.2894662700784297 -0.07731618543273923 0 0.01379702086655821 0 0.03143753193787002 18:1 19:1 29:1 44:1 63:1 73:1 76:1 
-0.08876340431321249 -0 -0 -0 0.587843872174301 0.005995020004243666 0 0.0335997173167154 15:1 28:1 57:1 60:1 76:1 
-0.09292014468129473 -0 -0 -0.2897101062410368 0 0 0 0 9:1 12:1 47:1 60:1 
-0 -0 -0.6230526811860762 -0 0 0 0 0 12:1 31:1 41:1 44:1 
-0.8363037632444346 -0.9152383361614351 -1.256535144816485 -0.5469548077035626 -0.9020357928903178 0.3302251316736296 0.300597784927739 1.217388458081513 15:1 19:1 40:1 61:1 66:1 67:1 77:1 
-0.1401758322787719 -0.1476588451809518 -0 -0.03258854310567312 -0 0.0595660439292302 0 0 15:1 19:1 35:1 61:1 70:1 
-0.4063152250391221 -0.3809904450925815 -0.2241856314611368 -0.2010552783346746 -0.5837445556843439 0.2976501159670081 0.1449323679728015 0.03376923163090822 15:1 19:1 40:1 61:1 71:1 
-0.1407404443357979 -0.1476588451809521 -0 -0 -0 0.05956604392922995 0 0 15:1 19:1 35:1 61:1 76:1 
-0.5481062640936613 -0.3289720907858389 -0.6523325733022733 -0.2568288843114526 -0 0.04403778931031448 0.04905846841228623 0.2565983355394347 15:1 24:1 35:1 61:1 68:1 
-0.1403829716419185 -0.1471434464208963 -0 -0 -0 0.05909602534159211 0 0 15:1 19:1 35:1 61:1 65:1 
-0 -0 -1.107065363381586 -0 -0 0 0 0 15:1 24:1 35:1 61:1 
-2.211417334073458 -1.768495368578867 -0.993839625076127 -0.9613415628630397 -4.720019860332006 0 0.9088146957368691 1.291305652681878 15:1 35:1 51:1 
-0.509658889446427 -1.190071347236325 -1.153949525102671 -0.6249029149983366 -0.201388356135436 1.069977129732505 0.1183858984104322 0.03621972106056397 15:1 19:1 35:1 51:1 
-0 -0 -0.008150344776493318 -0.006814416748124097 -0 0 0 0 15:1 61:1 
-0.11186314921634 -0 -1.996289748963314 -1.581803669160796 -3.513712177561798 0.724017034637959 1.281793995076316 1.268408851212051 15:1 61:1 
-0 -0 -0 -0 -0 0.2639725319808722 0 0 15:1 19:1 40:1 61:1 
-0 -0 -0.04484544529331439 -0 -0 0 0 0 15:1 24:1 40:1 61:1 
-1.038669881187112 -0.988541128182912 -2.200942748271059 -0.554239380883324 -0.8258067349951916 0 0.1746128286175675 0.1168830832402312 15:1 24:1 40:1 61:1 
-3.238176544927658 -3.284933564630945 -3.526851233263317 -3.077579843805541 -12.11943485958922 -2.908107846502341 2.151747481954321 2.356981409345985 10:1 19:1 59:1 
-0 -0 -0 -0.001859669899199128 -32 -0 -0 0 11:1 42:1 
-3.5538892551685 -3.316988031497822 -3.71900034877831 -3.40746485665305 -32 -2.978196039154012 -2.151747481954321 2.700129970929091 11:1 42:1 
-0 -0 -0 -0 -0 -0.00353531512002559 -0 -0 16:1 32:1 48:1 50:1 51:1 61:1 67:1 
-0 -0 -0 -0 -0 -0.001557587942418883 -0 -0 16:1 64:1 66:1 67:1 77:1 
-1.637958113675678 -1.494462362118083 -1.879340120037758 -1.664762682410966 -2.426725766313569 -1.292048065502349 -1.082621615820132 -1.304057527022789 16:1 64:1 80:1 
-0.4292911398137884 -0.3943554615753029 -0.3864061138506935 -0.3047896591130574 -0.4419860883351832 -0.3124422752629006 -0.1976051991205187 -0.181569104240026 16:1 48:1 64:1 66:1 67:1 77:1 
-0.7609554716795848 -0.5850021940521737 -0.5687151989543552 -0.4443186004111837 -0.6454904263833461 -0.4519960708273135 -0.2865763057131969 -0.2630741791353658 16:1 32:1 48:1 50:1 51:1 61:1 67:1 
-1.467509602116871 -1.20838297957018 -1.60961134609129 -1.336281126924086 -1.9879403108924 -1.390897635632621 -0.508619054528694 -0.6199261476811697 16:1 50:1 51:1 61:1 67:1 
-0.6029526127623687 -0.7191544548554091 -0.8180077372601556 -0.3861463649619561 -1.069117496944905 -0.7680963831589528 -0.281559234163443 -0.3315030128497401 16:1 64:1 66:1 67:1 77:1 
