svm_type c_svc
kernel_type rbf
gamma 0.125
nr_class 8
total_sv 243
rho -0.115949 0.238652 -0.547625 -0.35838 -0.533191 -0.674637 -0.319283 -0.316753 -0.241499 -0.153087 -0.368791 -0.536194 -0.169458 -0.821843 -0.818175 -0.771345 -1.35038 -0.410568 0.115758 -0.274069 -0.312471 0.0808299 -0.253856 -0.46726 -0.0215869 -0.169538 0.276922 0.382367
label 10 1 0 -2 -3 4 3 -4
probA -5.06652 -4.55322 -4.54629 -4.55291 -4.24243 -3.82259 -4.56565 -3.80741 -4.07674 -4.22235 -3.79092 -3.34505 -4.1479 -4.24888 -3.74592 -4.03124 -2.78213 -4.33916 -3.39448 -3.05025 -2.60681 -3.46163 -3.06238 -2.64513 -3.50717 -2.26072 -3.19527 -2.77686
probB -0.298247 0.943321 -1.02899 -0.865403 -1.39354 -1.84062 -0.982897 -0.251555 -0.692329 -0.551199 -0.984946 -1.40706 -0.5524 -0.737317 -0.246753 -1.19747 -1.21436 -0.759842 -0.0722104 -0.326372 -0.734097 0.0697219 -0.323403 -0.746487 0.0410194 -0.411408 0.355052 0.817691
nr_sv 72 52 83 13 13 3 2 5
SV
0 1.089861914625632 0 0 0 0.05193253862325884 0 3:1 19:1 20:1 31:1 42:1 
0 0 0 0.1508632188714107 0 0 0 3:1 19:1 20:1 31:1 37:1 59:1 
0 0 0 0.1819674270163895 0 0 0 3:1 19:1 20:1 31:1 42:1 54:1 
0 0 0 0 0 0.1564967081754425 0 3:1 19:1 20:1 31:1 59:1 
0 0 0 0 0 0.03889675165705647 0 3:1 19:1 20:1 31:1 59:1 76:1 
0 0 0 0 0.2825732992196305 0 0 3:1 54:1 
0 0.3639669550444539 0 0 0 0.007240464552023152 0 3:1 19:1 20:1 31:1 54:1 76:1 
0 2.077155910147825 0 0.01176907292504391 0 0 0 3:1 36:1 37:1 48:1 59:1 
0 0.7884416307729952 0.1182335537726083 0 0.2402505303381958 0.1739723747133189 0.6802732338561785 3:1 82:1 
0.1081559684593597 0.2294770313735492 0 0.02511023756292538 0 0 0 3:1 19:1 20:1 31:1 42:1 67:1 82:1 
0 0 0 0 0.1229367621909798 0 0 3:1 54:1 76:1 
0 0.6985369929079046 0 0.8074080048361926 0 0 0 3:1 36:1 37:1 48:1 54:1 76:1 
0 0 0 0 0 0.06133288291528289 0 2:1 3:1 14:1 71:1 
0 0.1230872108852411 0.1396154141398933 0 0 0 0 3:1 19:1 20:1 31:1 59:1 84:1 
0 0.1890100972115745 0 0 0.1995229128660719 0.1059477059986893 0.2808573912458414 2:1 3:1 59:1 71:1 
0.09842044224449051 0 0.01593111513611955 0.4439333351964356 0 0.2576076113777527 0.009537211612775934 3:1 19:1 20:1 42:1 54:1 84:1 
0 1.067525410697321 0 0.1993859999282346 0 0 0 3:1 35:1 36:1 37:1 48:1 59:1 
0 0.04592715917717574 0 0 0 0.0745144800587864 0 3:1 18:1 19:1 20:1 31:1 42:1 
0 0 0 0.04540126263683227 0 0 0 3:1 18:1 19:1 20:1 31:1 37:1 59:1 
0 0 0 0.09882763612271298 0 0 0 3:1 18:1 19:1 20:1 31:1 42:1 54:1 
0 0 0 0 0 0.007383165328924227 0 3:1 18:1 19:1 20:1 31:1 59:1 
0.466744017673217 0 0.01247107547764587 0 0 0.05184453052179473 0.03282383613689561 3:1 18:1 19:1 20:1 31:1 59:1 76:1 
1.087728679726379 1.350062218836625 0.03995413621603049 0 0.01843832237177116 0.04947748034445872 0.003247780000011307 3:1 35:1 36:1 37:1 48:1 59:1 76:1 
0 0.7784496197133569 0.5011896822416775 0.4586103027817798 0.1297796394692896 0.06479988339790539 0 3:1 25:1 42:1 
0.632211958030933 0 0 0.1417470232300177 0.05172775988062209 0 0.08692511234469727 3:1 18:1 19:1 20:1 31:1 37:1 59:1 76:1 
0 0 0.02534052787055015 0 0 0 0 1:1 2:1 3:1 14:1 59:1 76:1 
0.1963088994260909 0.3520977827907834 0.105175364677546 0.03215177702603324 0 0.07013964814280015 0.05575333625483481 3:1 18:1 19:1 20:1 31:1 54:1 76:1 
0.7457334753457191 0 0.1381703307378763 0.274973124000693 0.1234170118682912 0 0.241853310465832 3:1 25:1 42:1 54:1 
0 0 0.4316596182530654 0.3110649239589693 0 0.003392590431995033 0 3:1 25:1 37:1 
0.6878486412559983 0 0.1091520180082196 0 0.1136622051262583 0.03614732465457672 0.1507519615929937 3:1 35:1 36:1 37:1 48:1 59:1 84:1 
0.7010348507880104 0.3610888804275963 0.07117258348935906 0.1642881803827684 0.01376059379629229 0 0.05162861721401817 3:1 18:1 19:1 20:1 31:1 42:1 67:1 82:1 
0.06484457135581646 0 0 0.03087568841274421 0.2482648887877311 0 0.1178975741154964 1:1 2:1 3:1 14:1 54:1 71:1 
0.4661028249829312 2.691775746633279 0.0462207712982116 0.2056070081757654 0.1163709025130329 0.03575596169278807 0.1936160481307753 3:1 35:1 36:1 37:1 48:1 54:1 76:1 
0.2467932817486089 0 0 0 0.0008037916010576995 0 0.03221427940676235 3:1 18:1 19:1 20:1 31:1 37:1 59:1 84:1 
0.3383982744259915 0 0.07082178921992231 0.09281074735327334 0 0 0.006158105486215113 1:1 2:1 3:1 14:1 59:1 71:1 
0.7543333481752459 0.01943129956023212 0 0 0.08569157248909721 0 0.1828792746122037 3:1 18:1 19:1 20:1 31:1 42:1 54:1 84:1 
0.7200688432580385 0.2245195470937463 0.1278016439368765 0.2062165345309277 0 0 0 3:1 25:1 37:1 67:1 82:1 
0 0.4297669410474081 0.05753534390328308 0 0 0.1716157739375484 0 1:1 2:1 3:1 14:1 71:1 
0.09243319202726889 0.3550280701509164 0.1290087150709732 0 0 0.01339718754406484 0 3:1 18:1 19:1 20:1 31:1 59:1 84:1 
0 0.654943660223593 0.1273793279776262 0 0 0 0 1:1 2:1 3:1 14:1 76:1 
0.4865107154811354 0.03330630762321924 0 0.1170970506958063 0 0 0 3:1 42:1 67:1 82:1 
0 0.03055464698294531 0.07099200916267176 0 0.5421588350426378 0.3086083994393063 0.8573195438996221 3:1 67:1 71:1 
0.1093534719188496 0.2936583879969659 0 0.09974878310922149 0.0223816893524959 0 0.03411766161828657 3:1 36:1 37:1 67:1 71:1 
0 0 0 0 0.1247604691893647 0 0.01463203389273893 3:1 54:1 84:1 
0 0 0 0 0.06347979970137814 0 0 2:1 3:1 14:1 54:1 71:1 
0.625210616720254 0.6734840589012968 0 0.6585516716119727 0 0 0 3:1 36:1 37:1 48:1 54:1 84:1 
0.4834978495926169 0.5479981951938919 0.01586988015655697 0.3070165673029418 0 0.2381128242455489 0.08735212862950473 3:1 19:1 20:1 31:1 37:1 67:1 71:1 
0.05009597808965243 0.6195945309727234 1.794923149761319 0.3996140809820941 0.7573567424873356 0.7311198769216494 0.1424614830507971 3:1 20:1 50:1 78:1 
0 0.1632123155288311 0.09137390452644463 0 0 0 0 2:1 3:1 14:1 67:1 71:1 
0.2207489849318949 0.5905431614994815 0 0 0.1910464773660387 0 0.1204009693452744 3:1 19:1 20:1 31:1 50:1 78:1 
0.1406122568627248 0.08424814807600095 0.1873407488102271 0.2169041389983251 0.2636125523925583 0.1067099803801075 0.3064653095928074 3:1 27:1 45:1 54:1 
0 0.3615838857330363 0 0.2132270533440051 0.1390221579977747 0.05485893600480848 0.04019962780552574 3:1 28:1 37:1 
0 2.558902005624263 0.04499813514601154 0 0 0 0 2:1 3:1 14:1 76:1 
0 2.862003989477075 0 0 0 0 0 2:1 3:1 59:1 76:1 
0 1.186823320907501 0 0 0 0 0 2:1 3:1 54:1 76:1 
0 0 0.01277651431232027 0 0 0 0 3:1 59:1 84:1 
0 0 0 0 0.03139753379466105 0 0 3:1 59:1 76:1 
0.1738095610951748 2.913115615586612 0.8534359933308924 0.6474484722014211 0.09753282091164686 0.05003099955300505 0.9150121856209078 2:1 3:1 14:1 53:1 54:1 65:1 
0 0.6578007169058837 0.5655631552751114 0 0 0 0 2:1 3:1 14:1 57:1 
0 0.6570645344078093 0.2400990036435366 0 0 0 0 2:1 3:1 14:1 56:1 
0 0.9810868625518349 0.0952069736470649 0 0 0 0 2:1 3:1 14:1 
0 0.658438826496751 0.2401215770539641 0 0 0 0 2:1 3:1 14:1 75:1 
0.04617254027417512 0.575998197289488 0.7889408111884461 0 0.03925903915404809 0.02240705248032415 0 2:1 3:1 14:1 52:1 84:1 
0 0.00178232543397703 0 0 0 0 0 2:1 3:1 14:1 78:1 
0 1.196273190850458 0.337933646213589 0 0 0 0 2:1 3:1 14:1 63:1 
0 1.868492264340418 0 0 0 0 0 3:1 
0 32 0 0 0 0 0 3:1 
0 32 0 0 0 0 0 3:1 
0 32 0 0 0 0 0 3:1 
0 30.48505131124841 0.1411547628588497 0 0.739810653387155 0.3251800996240823 0 3:1 
0.1728228341877331 0 0.1349258462442378 0 0.07177042300657809 0.02750518832064259 0.1540295925813533 2:1 3:1 14:1 34:1 51:1 54:1 
0 2.490517400229841 0.04838567610108771 0.3884143524646911 0.1099381181893332 0.09385584325875201 0.1940504878915437 3:1 34:1 36:1 37:1 48:1 
-0 0 0 2.003087892762538 0 0 0 8:1 36:1 37:1 48:1 54:1 
-0 11.44658020680933 0 0.1016419069699666 0 0 0 8:1 19:1 20:1 31:1 54:1 
-0.02183779990539289 0 0 0 0 0 0 8:1 36:1 37:1 48:1 59:1 71:1 
-0.1379539350412677 0 0 0.1816895060415281 0 0 0 8:1 19:1 20:1 31:1 42:1 54:1 71:1 
-0 1.629243713358292 0.02910795401360047 0 0.0490940467015223 0.3434575844625397 0.1301808000067911 8:1 19:1 20:1 31:1 59:1 71:1 
-0.01014923517282408 0 0 0 0 0 0 8:1 36:1 37:1 48:1 59:1 76:1 
-0.09641233327087514 1.717648273202412 0.04933962139544246 0 0 0 0 8:1 19:1 20:1 31:1 59:1 76:1 
-0 0.9108946352363559 0 0.06934290580353324 0 0 0.1864818618036277 8:1 37:1 82:1 
-0 4.841549657054379 0 0 0 0 0 8:1 19:1 20:1 31:1 37:1 
-0.3394378496612729 0 0 0 0 0 0 8:1 19:1 20:1 31:1 37:1 67:1 82:1 
-0.4966274303765708 0 0.010456233507666 0.1004881046457666 0 0 0 8:1 36:1 37:1 48:1 54:1 84:1 
-0.038692883963589 0 0 0.02244829651854793 0.0400488090604153 0 0.05063657962248638 8:1 36:1 37:1 48:1 54:1 71:1 
-0.1300548730916589 0.225536039523897 0.2315759462209443 0.09490952563679247 0.1382691731005278 0.08321495636452213 0.116127026996856 8:1 19:1 20:1 31:1 54:1 84:1 
-0.1110043351342951 0 0 0.1584055061138171 0.2791407209484599 0 0.3196624715947656 8:1 36:1 37:1 54:1 71:1 
-0 0.02022906567558185 0 0 0 0 0 8:1 18:1 19:1 20:1 31:1 37:1 
-0 0 0.3385371959968961 0 0 0.6145024200582079 0 8:1 20:1 37:1 
-0 0 0 0.002039040165023157 0 0 0 8:1 35:1 36:1 37:1 48:1 54:1 71:1 
-0.3334092928070031 0 0 0 0 0 0 8:1 18:1 19:1 20:1 31:1 42:1 54:1 
-0.2827636734341246 0 0.07188416686346107 0 0.01895761780727552 0.06295270154671151 0.07895018747273053 8:1 35:1 36:1 37:1 48:1 59:1 71:1 
-0.1755684503701384 0 0 0.182750117177029 0.1201738830250715 0 0.1309383618378017 8:1 18:1 19:1 20:1 31:1 42:1 54:1 71:1 
-0 0.1156398531141187 0.130856362540735 0 0.1128598607624167 0.1401449521501839 0.1654956925195836 8:1 18:1 19:1 20:1 31:1 59:1 71:1 
-0.5596206604973584 0 0 0.06756475143571916 0.01099747846842203 0 0 8:1 18:1 19:1 20:1 31:1 37:1 59:1 76:1 
-0 0 0 0.00206466277379225 0 0 0 8:1 18:1 19:1 20:1 31:1 42:1 59:1 71:1 
-0.408714211224137 0 0.1347791555360207 0.1699621410084846 0 0 0 8:1 25:1 42:1 54:1 
-0 0 0 0.003556604458126023 0 0 0 8:1 20:1 37:1 59:1 76:1 
-1.450224189947049 0.8649838891766831 0.1394819319759589 0.1898471989238173 0.06772473083695869 0 0.04546619194817198 8:1 35:1 36:1 37:1 48:1 59:1 76:1 
-0.3481818729100298 0 0 0.0514397823485119 0 0 0 8:1 18:1 19:1 20:1 31:1 42:1 59:1 71:1 
-0 0 0.04169221962686 0.1351027466707485 0 0.04980498452768561 0 8:1 20:1 37:1 59:1 76:1 
-0.5415895724009313 0.1074338220825981 0.1360153391184082 0 0 0.01487580309380744 0 8:1 18:1 19:1 20:1 31:1 59:1 76:1 
-0 0 0 0.005540147259207771 0.06864810688349227 0 0.17598185240697 8:1 42:1 59:1 71:1 
-0.3521553266700231 0 0.2881891907755893 0.3354063470100133 0.515448083349458 0.1289729460459517 0.6174287570195014 8:1 25:1 42:1 54:1 71:1 
-0.6135069322816437 0.1157856624726381 0.0970053761618611 0.1657086519557559 0.1195341622246756 0 0.1509302765813633 8:1 18:1 19:1 20:1 31:1 37:1 67:1 82:1 
-0.70668469105212 0 0.2278996196101879 0.1948501365504781 0.1114026119989067 0 0.09411781237837165 8:1 35:1 36:1 37:1 48:1 54:1 84:1 
-0 0 0.1954202268891143 0.09051596318648762 0 0.1426333362888551 0 8:1 20:1 37:1 67:1 82:1 
-0.06438595719917206 2.034006545425551 0.05925567203963909 0.1802687008475668 0.1937628571765087 0.1819112951628243 0.2802279892285783 8:1 35:1 36:1 37:1 48:1 54:1 71:1 
-0.6684990709629653 0.1555118236432245 0.1885131924019868 0.1705192800342996 0.1131849187382043 0.154446110448245 0.1706892920536537 8:1 18:1 19:1 20:1 31:1 54:1 84:1 
-0 32 2.420404759639103 0 2.231529555934647 0.64134811029644 1.116215634546733 8:1 
-0 9.457774351965051 0 0 0 0 0 8:1 59:1 
-0 5.327703813963613 0 0 0 0 0 8:1 42:1 
-0.05716021585707287 0 0.1340718490035399 0 0.231239794328056 0.05449357933507876 0.2663064521203201 8:1 59:1 76:1 
-0 2.467049851600101 0 0 0 0 0 8:1 37:1 
-0 6.209443465097168 0 0 0 0 0 8:1 36:1 37:1 
-0 3.416547303374611 0 0 0 0 0 8:1 19:1 20:1 42:1 
-0 0 0 0.7156728419143717 0 0 0 8:1 19:1 20:1 37:1 
-0 1.354897796708408 0 0.2171607264238452 0 0.6808852154862185 0 8:1 20:1 42:1 
-0 0 0 0.2497020694385499 0 0 0 8:1 19:1 20:1 37:1 59:1 76:1 
-0 0.3130636052532997 0.2442484031673076 0.3592621010891126 0 0 0 8:1 25:1 42:1 
-0.3198775534236729 0 0 0 0.09462991579786421 0 0.1528276443752557 8:1 37:1 67:1 82:1 
-0.2188306043130641 0 0 0 0 0 0 8:1 37:1 59:1 84:1 
-0.2204744375119564 0.8242099321330943 0.005754723308183618 0.3169987195034256 0.07982138919768206 0.1505228073507959 0.1470196380606586 8:1 20:1 42:1 67:1 82:1 
-0.2441174976209344 0 0.2794747332848954 0.1428207401979965 0 0.001816390217458752 0 8:1 20:1 42:1 59:1 84:1 
-0.9680611919771691 0.06407417914313096 0.2640724723424286 0.2576981637757031 0.04899751438858589 0 0.1366687612897909 8:1 25:1 42:1 67:1 82:1 
-0 -0.2646711522721314 0 1.432983741925237 0.1400155803924053 0 0.3635417270209423 36:1 37:1 48:1 54:1 71:1 
-0.1981798498571937 -0.8533555861432562 0 0 0 0 0 36:1 37:1 48:1 59:1 76:1 
-0.5020777730637253 -0.6173071857596905 0.04782151342519422 3.689303331993562 0.01470367146987782 0 0.2315811939925952 20:1 42:1 65:1 
-0 -0 0.5509024044036537 0 0 2.396983087562295 0 20:1 42:1 
-0.8806052158142278 -1.89695120860141 0.09457547769362759 0 0.07644933012078303 0 0.1903367903912925 20:1 42:1 82:1 
-0.569376030243992 -0 0.7883726735340476 1.263036089908008 0.08775997572662608 0 0.5474226356751042 25:1 65:1 
-0.2912900675611222 -0 0 3.47678518828858 0 0 0.2621258797613099 37:1 65:1 
-3.497049914593911 -0 1.554247536323856 0 0.03129305916537815 0 0 2:1 3:1 14:1 33:1 48:1 
-32 -0 0 0 0 0 0 3:1 
-0 -0 0 0 0 0 0.3459262476755972 6:1 33:1 48:1 53:1 
-0 -0 0 0 0.02487063754812286 0 0 23:1 36:1 
-0 -0 0 1.473169602856819 0.03451046802677995 0 0 16:1 31:1 41:1 
-0 -0 1.024324393292865 0 1.528221957444229 0 0 24:1 50:1 
-0 -0.3165612467306039 0 1.651505798588251 0 0 0 36:1 37:1 48:1 54:1 76:1 
-0.2421012624658972 -0.875832220639013 0 0 0 0 0 36:1 37:1 48:1 59:1 71:1 
-0.07603863306103198 -2.043663139210777 0 0 0.09537065110513555 0 0.1928714868465648 35:1 36:1 37:1 48:1 54:1 71:1 
-1.797911472595835 -1.012634229850277 0 0 0.001186359612881781 0 0 35:1 36:1 37:1 48:1 59:1 76:1 
-0.2651634052948695 -0 0 0 0 0 0.1479346688129811 31:1 54:1 
-32 -0 0 0 0 0 0 3:1 
-0 -0 0 0 0.06308807207522518 0 0 4:1 33:1 48:1 57:1 
-0 -0 0 0 0.06657097766432435 0 0 6:1 31:1 38:1 
-0.04193593425783633 -0 0 0 0 0 0 31:1 42:1 
-0 -0 0 0 0.03643731495670557 0 0.066536245102434 1:1 33:1 48:1 67:1 69:1 70:1 
-0 -0 0 0 0 0 0.0616720161847118 16:1 31:1 35:1 52:1 53:1 77:1 80:1 
-2.479203499461378 -0.1954850954039318 0 0 0 0 0 35:1 36:1 37:1 48:1 54:1 76:1 
-0.6426240675805673 -0.1914691995663911 0 0 0 0 0 35:1 36:1 37:1 48:1 59:1 71:1 
-0 -0.4846826383065033 0 0 0.04529304006343336 0 0 33:1 37:1 61:1 79:1 
-0 -18.63735796422005 0 0 0 0 0 8:1 
-1.835287184912372 -0 0.2064203709616715 0 0 0 0 59:1 
-0 -31.39907496201224 0 0 0 0 0 8:1 
-0 -0.4177816393322821 0 0 0 0 0 36:1 37:1 48:1 59:1 
-0 -15.68906649024843 0 0 0 0 0 8:1 19:1 20:1 31:1 
-0 -0 3.202623015096898 0 0 0 0 25:1 
-0 -0 0.2044516563178133 0 0.004080566942420083 0 0 52:1 
-8.104184740347215 -0 0 0 0.06227678041376353 0 0.4496955440066594 2:1 3:1 53:1 76:1 
-0 -3.063111146322683 0 0 0 0 0 2:1 36:1 37:1 59:1 
-0 -2.725236446755256 0 0 0 0 0 8:1 19:1 20:1 36:1 
-0 -0 0.01354509395900852 0 1.454592063419668 0 1.737037529386084 71:1 
-1.26983359833907 -0 0.6278469349348065 0 1.454015972275967 0 0.6990113002776691 54:1 
-32 -0 0 0 0 0 0 3:1 
-0 -0 0.003100573640902534 0 0.03271186961323721 0 0 6:1 80:1 
-0.04082034727284287 -0 0.2310051678002812 0 0 0 0 40:1 63:1 84:1 
-0 -0 0.01360104143093526 0 0.04852033039349904 0 0 5:1 
-0 -0 0 0 0.04950831907909798 0 0 39:1 
-0 -0 0.01360104143093517 0 0.04907872697671913 0 0 75:1 
-0 -0 0.3970037317448508 0 0.04770723986016462 0 0 58:1 
-0 -0 0.174732125059179 0 0.0321578134862853 0 0 67:1 76:1 
-0 -0.003871880314307601 0 3.014529436031579 0.04910333522835181 0 0 16:1 59:1 
-0.4272936642256612 -0 0.1435660077976964 0 0.04885034137962571 0 0.3136615097275584 1:1 67:1 69:1 70:1 
-0 -0 0.166113358075542 0.6331526762376436 0.03846476659641303 0 0.1893630283666144 16:1 35:1 52:1 53:1 77:1 80:1 
-0 -0 0.0603389789990653 0 0.05725095347046738 0 0 61:1 79:1 
-0 -0 0.02421376635089722 0 0.0727169522308828 7.791529825373984 0 10:1 62:1 
-0 -0 0 0 0.0004009392043302967 0 0 67:1 79:1 
-0 -0 0 3.020752378917025 0 0 0 16:1 62:1 
-0 -0 0.1765067331071457 0 0 0 0 12:1 84:1 
-0 -0 0 0 0.005567119426228387 0 0 46:1 67:1 77:1 80:1 
-0.08507086867626586 -0 0.1517574631364335 0 0 0 0 19:1 20:1 31:1 52:1 
-6.490863614338908 -0 0.8248853716259902 0 0 0 0 2:1 3:1 14:1 36:1 37:1 48:1 
-1.415853855159055 -3.663459888716134 0.0351310046370585 0 0 0 0.01107878172033767 19:1 20:1 31:1 54:1 
-32 -0 0 0 0 0 0 3:1 
-0.6157330880070658 -0 0.1483731806262595 0 0.02763443174826685 0 0.122512295724965 19:1 20:1 31:1 40:1 63:1 84:1 
-0.1214238409530198 -0 0 0 0 0 0.03754326669279577 12:1 23:1 67:1 77:1 80:1 
-0 -0 0.01775819420579576 0.840996208379549 0 0 0 16:1 46:1 60:1 63:1 
-0.02388794138413098 -0 0.1766638846326045 0 0.4211085706554533 0 0.05091512384542542 9:1 12:1 29:1 50:1 
-0 -0 0.02799247475352858 0 0 0 0 19:1 20:1 31:1 39:1 
-0 -0 0.03582607269057148 0 0 0 0 19:1 20:1 31:1 58:1 
-0 -0 0 0 0.05022321715051703 0 0 7:1 
-0 -0 0.0282453336701087 0 0 0 0 7:1 19:1 20:1 31:1 
-0.7091263394479318 -0.2187026355287209 0.01394542017438807 0.1567880840873155 0.01093591477934343 0 0 16:1 19:1 20:1 31:1 59:1 
-0 -0.6979503101051041 1.023614497411753 0 1.526343076495402 0 0 8:1 50:1 
-0 -0.2030853674020641 0 0 0 0 0 1:1 36:1 37:1 48:1 67:1 69:1 70:1 
-0 -0 0.06754969469423716 0.1237861550072339 0.06402341172520323 0 0.1947773900292409 16:1 19:1 20:1 31:1 35:1 52:1 53:1 77:1 80:1 
-0.4126594370315875 -0 0.02500280335054856 0 0.3039091051448479 0 0.1271114383089478 1:1 2:1 18:1 50:1 60:1 63:1 77:1 
-0 -0 0 0 0 0 0.03703247351476647 9:1 12:1 33:1 35:1 36:1 60:1 77:1 
-0.2243907870000457 -0.01935025250448519 0.01008194307405049 0 0.01596278738537165 0 0.1696366533273434 9:1 18:1 19:1 43:1 46:1 60:1 77:1 81:1 
-0.1772123411522315 -0.12914560006781 0.03316945553256355 0 0 0 0.1598566808419711 9:1 26:1 29:1 43:1 60:1 64:1 77:1 81:1 
-0.05038620742618366 -0 0.02884189150123697 0 0.03213474020383874 0 0.06158782184471912 9:1 13:1 26:1 43:1 60:1 64:1 
-0.08090595888087959 -0 0.009915595525867696 0 0.02278174056027154 0 0.10058206537332 9:1 13:1 26:1 43:1 47:1 
-0.1497732853827 -0 0.04925592203788839 0 0.03022818645711676 3.759958055893601 0.01717835751456412 10:1 19:1 20:1 31:1 62:1 
-0 -0 0 0.1525111222494097 0 0 0 16:1 19:1 20:1 31:1 62:1 
-0.407708686565486 -0 0 0 0.04362600394052946 0 0 19:1 20:1 31:1 46:1 67:1 77:1 80:1 
-0.02408081046776343 -0 0 0.497637302754538 0 0 0.03999149511135831 16:1 29:1 60:1 63:1 80:1 
-0.2316345563579177 -0 0.294243686367938 0 0.2805286697591105 0 0.009766686569837717 9:1 12:1 50:1 63:1 
-0.09258776019660767 -0.4119384015967292 -2.873893839435854 0.2262786239649704 0 0.03227686898917206 0 14:1 25:1 
-2.790611414078128 -2.167861899870942 -4.61861888522977 1.410727247795354 1.201091858862367 0.02277364515105133 1.967215878550499 14:1 
-0.648139977310205 -0.8465694530654805 -0.08700266820281767 1.049902967092481 0 2.289890757837312 0 14:1 20:1 
-1.1651829554054 -0.6278397359632051 -1.192943965136706 1.214763896509102 0.4680769449390865 0.2968970336592765 1.23750698244879 14:1 25:1 50:1 53:1 54:1 65:1 
-0.6111014123305193 -0.306352452196663 -0.6334044184189606 0.3686198519140343 0.2744958165360915 0.2097943595901346 0.3856947526596993 14:1 20:1 50:1 57:1 70:1 
-0.2865536980158946 -0.3292362635041425 -0.6733215564784697 0.1662611963753829 0.2066634161428357 0.1645058504615321 0.06975852412070828 14:1 25:1 50:1 58:1 84:1 
-0.161601170488694 -0 -0.5000501581900175 0 0.1173106288220706 0.01015227987237166 0 14:1 20:1 50:1 63:1 
-0.4409169637718204 -0.3066600958456338 -0.598555158893014 0.2700711656166633 0.2747606983433697 0.2096670620200006 0.2494845125759751 14:1 20:1 50:1 55:1 74:1 
-0 -0.237219419621761 -0.2943383000568 0 0.1181329439110624 0.02627495290947611 0 14:1 25:1 50:1 59:1 
-0.9059558879576107 -0.4003603153016563 -0.6749896085677759 0.2112587312230113 0.2050744514861385 0.1537095099576981 0.2261045989319345 14:1 20:1 50:1 52:1 84:1 
-0.7923646379769855 -0 -0.1484639715325222 0 0.1168979759703722 0.02713449871086523 0 14:1 25:1 50:1 78:1 
-0 -0 -0 0 1.744010002951125 0 0 14:1 50:1 
-0.03585892132794988 -0.08399830845361726 -0.4255849548869855 0 0.3881567381553995 0.02184465706089422 0 14:1 50:1 76:1 
-0.7658186985564204 -0.8484296974439204 -1.247335720444025 -0.4834696618482255 0.5041775387659061 0.4796508695206454 1.151734525567517 16:1 20:1 42:1 65:1 70:1 71:1 82:1 
-0.03101875997686334 -0.0387403349627778 -0.1862964894913759 -0.01032575586782415 0 0.06378244599910797 0 16:1 20:1 37:1 65:1 74:1 
-0.1918894147778784 -0.2126786585711928 -0.9587696347967987 -0.1709059601859257 0.05911054536226432 0.2616230468966957 0 16:1 20:1 42:1 65:1 75:1 
-0.03186913847127353 -0.03954230758061218 -0.7317636469296929 -0 0 0.06316113693921629 0 16:1 20:1 37:1 65:1 80:1 
-0.5727678855493361 -0.3536467217425573 -0.6932040061552771 -0.279996487335291 0 0.02099733351891539 0.2131145022334923 16:1 25:1 37:1 65:1 72:1 
-0.5731162323319863 -0.4585855554826603 -1.567199933348967 -0.1707875716854259 0.05911054536226412 0.2605725575794791 0 16:1 20:1 42:1 65:1 76:1 
-0.03276318733998995 -0.03829433762563551 -0.1888952426776191 -0 0 0.0631611369392167 0 16:1 20:1 37:1 65:1 69:1 
-0.2789034753974299 -0 -2.691242392962743 -0.1315171377281201 0.9870100742306332 0 0.6291425688325851 16:1 37:1 54:1 
-1.229268438539793 -1.540112657867788 -0.9283407686905577 -0.4689790540539692 0.2857429924220313 0.2829385088658405 0.3129112927422846 16:1 19:1 20:1 37:1 54:1 
-0 -0 -0 -0.6577129514365823 0 0.7073427345601775 0 16:1 20:1 37:1 54:1 
-2.272180361453335 -2.640213568670644 -3.42312675024678 -0.4963828208504408 0.420270896342131 0.1626074253015797 0.5511051757362613 16:1 36:1 37:1 48:1 54:1 
-0.1027695785853716 -0 -7.430594294045827 -1.497462454778176 1.36223874935857 0.6657299740217357 1.325752323036749 16:1 65:1 
-0.8486685046799506 -0.7682214386927675 -1.380168237435089 -0.5503438247210188 0.2216335849102774 0 0.1220144337214899 16:1 25:1 42:1 65:1 
-1.577267981161192 -1.459306549398352 -2.240254315560302 -0.8122901678343283 -1.258652812110133 0.7234069554910324 1.67410529213772 11:1 44:1 54:1 71:1 
-0.7923182684056508 -1.024824806363874 -0.8313104479298773 -0.5496301829434467 -0.8310273255460875 0.6436367993704071 0.3305887474590157 11:1 44:1 
-2.571141254924485 -2.161333874966925 -5.510650277884122 -3.752751125342142 -1.809614789097857 1.208506124789518 1.635599888856331 11:1 50:1 
-2.085738951878432 -2.275732520805433 -12.69983967915654 -2.768891945966725 -2.051592601860197 -1.613110057736908 1.17862528996419 10:1 20:1 62:1 
-1.304545312418262 -1.170250672030093 -1.248631289673337 -0.69602953025306 -0.979974568282413 -0.9624398219140496 1.365978623750677 10:1 20:1 62:1 71:1 
-1.466967388146032 -1.230714545207977 -2.221635229588528 -1.333999495088371 -1.3883241979619 -1.185179186852822 -0.6408104185808109 17:1 53:1 54:1 65:1 71:1 
-0.7083573657911779 -0.7444488352523821 -1.077292975039991 -0.3891151992986844 -0.7560037591898233 -0.5323811923054509 -0.4555044974938415 17:1 68:1 70:1 71:1 82:1 
-1.644797256152649 -1.605678726373522 -2.492783874591172 -1.664075161654223 -1.328415744037278 -1.334050741049554 -0.9463707929902119 17:1 68:1 85:1 
-0.4395051901475781 -0.3847183017733904 -0.4624735632692789 -0.3022271011888966 -0.3377241769952997 -0.2387852985367193 -0.2022462607618596 17:1 51:1 68:1 70:1 71:1 82:1 
-0.7328308961664566 -0.5667928752567395 -0.6841026911587408 -0.4463482920574316 -0.4953069436860785 -0.3498975097085196 -0.2996719438881428 17:1 34:1 51:1 53:1 54:1 65:1 71:1 
