svm_type c_svc
kernel_type rbf
gamma 0.25
nr_class 7
total_sv 328
rho 0.251253 0.183994 0.130283 -0.279521 -0.0364215 -0.461751 0.109186 -0.0881473 -0.502439 -0.224138 -0.575743 -0.0740576 -0.49735 -0.210186 -0.569047 -0.309385 -0.276681 -0.548824 0.24305 -0.204559 -0.420033
label 1 2 3 4 5 6 7
probA -4.51771 -5.00571 -4.81257 -4.46639 -4.68357 -3.98057 -3.81598 -5.21491 -4.248 -4.9067 -4.27018 -5.23391 -4.06333 -4.91569 -4.22766 -3.64417 -4.59279 -4.2547 -4.42841 -4.04326 -4.10195
probB 0.0576476 0.740907 0.730729 -0.205984 -0.406335 -0.317747 0.131377 0.546375 -0.682597 -0.545504 -0.483261 0.249344 -0.393094 -0.504741 -0.473449 -0.0430022 -0.581938 -0.329731 0.0638637 -0.180898 -0.405177
nr_sv 47 72 69 51 23 47 19
SV
0.3865481289438695 0 0 0 0 0 1:2 13:1 17:1 21:1 
0.6718391361316742 0.7661083609690951 0.5501977193116095 0.3741198474522649 0.4659422738703138 0.2683746073714712 1:3 13:1 17:1 21:1 
0.4015418140747313 0.8554406531187349 1.99972160373302 0.6801475421542088 1.133103438030914 3.296172476808835 1:1 21:1 
1.297182532373734 0.4459917975571926 0.4332439198510196 0.2820110757684338 0.5019815869080113 0.2027219017600167 9:5 12:3 21:1 
0.6521469114628777 0.2530121373414702 0.1801934741748684 0.1130466994925378 0.1535676659422613 0.08795693968037971 1:1 9:5 12:3 13:1 17:1 21:1 
0.2264467282295659 0.3842427982944437 0.3060486670608474 0.1969838577241825 0.2547982096565216 0.1436629108321983 1:3 9:5 12:3 13:1 17:1 21:1 
2.334488570460299 0 0 0 0 0 1:2 9:5 12:3 15:1 21:1 
0 0.4949385375467096 0.3978312806324441 0.2516444196501767 0.3498127822668533 0.1902627918640527 1:3 9:5 12:3 15:1 21:1 
0.5291722983900817 0.5298270046105209 0.5085283805502745 0.3197693729680485 0.339723384138849 0.2446126223042564 9:6 12:3 21:1 
0.1859044458179253 0.2489127169545004 0.2390910767194374 0.1534180206615708 0.2035124437738388 0.1113267829994895 1:1 9:6 12:3 13:1 17:1 21:1 
0.5129519533294989 0.3714156461448732 0.3561411275285832 0.2253136791256755 0.3081164524902005 0.1716897090880098 1:3 9:6 12:3 13:1 17:1 21:1 
0.3201143988086558 0 0 0 0 0 1:2 9:6 12:3 15:1 21:1 
0 0.4205699868080648 0.4006001384135685 0.2573798821412523 0.3338478308600412 0.1898783683168084 1:3 9:6 12:3 15:1 21:1 
0.6870692988029055 0.6698197452712613 0.6404401928781402 0.3522938258659118 0.6762362659847821 0.3403147071064554 9:3 21:1 
0 0 0.005096412994943338 0.006350008105736579 0.01236144442527717 0.009683021036455138 1:1 9:3 13:1 17:1 21:1 
0.6804365800031277 0.7243427832411117 0.7033408000717902 0.4572460898320905 0.6007459155798186 0.3313801940250814 1:2 9:3 13:1 17:1 21:1 
0.2772373498862598 0.69248297631468 1.61999627623165 0.3449511998684841 1.04153918593666 0.3630673805543154 8:1 21:1 
0 0 0 0 0 0.4535786164969054 1:1 8:1 15:1 21:1 
0.7956308581974038 1.258393788243568 0 0 0 0 1:1 8:1 13:1 17:1 21:1 
1.010832367980117 1.874391986637169 0 0.06170531700791535 0 0.02433107593796627 8:3 21:1 
0.5045402308363488 0.5041244666270732 0.5062361024108012 0.2773421265559236 0.3599768514373385 0.1095284341620045 1:1 8:3 15:1 21:1 
2.22347802840647 2.107264549481948 0.20345775955697 0.2063172952867964 0.2460224329403112 0.1430223114723869 1:1 8:3 13:1 17:1 21:1 
4.449948119246155 1.131582593283597 0.9597381902063815 0.8938935516307787 0.4214794530241742 0 8:1 20:1 
3.504017942098367 0.7781823194617702 0.2290695099651399 0.04265442675197574 0.2177928381949412 0.178912317680998 8:3 20:1 
1.234600114615755 1.193146816382924 1.599258398088109 1.229958082216662 1.381957587887458 0.4299156795139136 9:1 20:1 
0 0 0 0 0 0.06198996135921948 1:1 9:1 15:1 20:1 
0.2439583644005046 0.4086575813179892 0.5715629361312077 0.2856327160752579 0.4229070416120418 0.2824226070882041 1:3 9:1 15:1 20:1 
1.455484824976822 0.3704322140622882 0 0 0 0 1:1 8:1 13:1 17:1 20:1 
0.2805612941497364 0.4465763833974133 0.5162661048426029 0.2542417507847574 0.371164537742418 0.1965869603620367 1:1 8:3 13:1 17:1 20:1 
1.323609834324228 0.5099849998068723 0 0 0 0 1:1 9:1 13:1 17:1 20:1 
0.1566456317209182 0.1654366369929928 0.1834064573375816 0.1204608542603407 0.1882366699320907 0.0911815084915277 1:3 9:1 13:1 17:1 20:1 
3.016142319562679 0 0 0.2777422948156554 0 0 1:1 20:2 
2.64368895813832 4.805530894280515 0.5515349198817336 0.9775550287335857 1.368998273986834 0.4006375038700131 1:1 20:3 
0 0.5304206359192005 10.59096743803469 0.3588727478771773 0 0.0909078465540684 1:1 20:4 
0.5892334762622663 0.5273484674994932 0.1847393298228551 0.7023689248185905 1.436031242198713 0.3126918744368807 1:1 20:5 
0.1099791400215076 0 0 0 0.1788825296307563 0 1:1 20:6 
2.181894127846092 2.252813056051647 2.200919447871709 1.911728676372224 2.248293859400663 0.5568909372488099 1:1 20:7 
1.010998972521209 1.06846842997562 1.054859220947711 0.9844116641197354 0.8851161056202869 0.7600272844673732 1:1 8:1 16:3 20:1 
1.217651817737529 0.08631459073805885 0 0 0 0.013315819969739 1:1 8:1 16:1 20:3 
0 0 0 0 0 0.1150018598875437 1:1 8:1 16:2 20:3 
0.3372229983799359 0.5085673438905273 0 0.4556320257626827 0.4133719973325288 0.2643319898407246 1:1 8:1 16:3 20:3 
0 0.5864756372734574 4.531987795225206 0.002513279570313683 0.06282554436609639 0.1269910313993843 1:1 8:1 16:1 20:4 
0.3660779852012271 0.2777960033236835 0 0.3986890550381649 0.3552440651467422 0.271814007193609 1:1 8:1 16:3 20:4 
0 0 0 0.04247170304389732 0 0 1:1 8:1 16:1 20:5 
0.1603506234200504 0.02959113694293772 0.1644559545403107 0.03154509615167288 0.1414829197833964 0.2182919338843016 1:1 8:1 16:1 20:6 
0 0 0 0 0 0.02810361457010555 1:1 8:1 16:2 20:6 
1.210354191776252 1.185767732365246 0.812888830065728 1.030073737820945 0.9204173931610525 0.7253942567318798 1:1 8:1 16:3 20:6 
-0 2.451532566443073 2.74303721857467 0.8685817517431442 1.491074868240075 1.672153753895766 2:1 21:1 
-1.217646933448188 0 0 0 0 0 2:1 8:1 21:1 
-0.03465856499626421 0 0 0 0 0 2:1 8:2 21:1 
-2.391126511040639 0.9929454994602176 0.364216188960041 0.0957745448912117 0.1609963032007628 0.1596048810604002 2:1 8:3 21:1 
-0 0 0.1856382665296148 0.1687459515909447 0.246640603931579 0.03613508347459769 2:2 8:3 21:1 
-1.027957189594266 0 0.1951298053662104 0.07606413406619365 0.1212760902616461 0.3748178494341977 1:1 2:1 13:1 21:1 
-0 2.403429726884093 0 0 0 0 2:1 3:1 8:1 13:2 15:1 17:1 21:1 
-0 0 0.1309103568900322 0 0.2152823106500265 0.003481504437068391 2:1 4:1 6:1 8:1 13:2 15:1 17:1 21:1 
-0.3870934528305275 0.4867876528363068 0.3724477437531412 0.2227149908711158 0.5014258370533878 0.2015724800495757 2:1 6:1 8:1 9:1 12:2 13:2 15:2 17:1 21:1 
-0.1335957739204789 0.3683098344455556 0.4078769815237531 0.2009531549062055 0.4847230573169433 0.04410151546023426 2:3 6:1 13:1 15:1 21:1 
-0 0 0 0.1202185305171242 0 0 2:2 5:1 13:1 15:1 21:1 
-0 0 0 0 0 0.1819028671151925 2:2 7:1 8:1 13:1 15:1 21:1 
-0.006179214062697764 0 0.2606226646955276 0.1646670729153178 0.2253738222030855 0.09646623834168801 2:2 8:2 13:2 15:2 17:1 21:1 
-0.03344286676078562 0.2827370603440622 0.1886633228661793 0.1021892095302673 0.1564189195302101 0.08905260541464999 1:2 2:2 8:1 9:5 12:3 13:2 15:2 17:1 21:1 
-0 0 0.1805070441875904 0.08609671627899398 0.05477739392292011 0.02340162551598948 2:1 8:1 10:1 11:1 13:2 15:1 17:1 21:1 
-0.1280868623486313 0.1227603471285333 0.1180932855757316 0.01569705893915828 0 0.02011008899098127 2:1 8:1 11:1 13:2 15:2 17:1 21:1 
-0.4913495802988156 0.7612645165238305 0.6428421209025879 0.3442927629339417 0.617254293636183 0.2900682748364647 2:2 8:1 9:1 12:3 13:1 15:2 17:1 21:1 
-1.248075185819775 0 0 0 0 0 1:1 2:1 8:1 13:1 17:1 21:1 
-2.318042656247687 1.027037621933765 0.1059382344937875 0.08036048948065282 0.09913622795573819 0.07214167120328793 1:1 2:1 8:3 13:1 17:1 21:1 
-0 0 0.3190216548285007 0.1678672756478602 0.2674298853843191 0.1253580175750491 1:1 2:2 8:3 13:1 17:1 21:1 
-0.07463094575785834 1.078343546171082 0 0 0.01551372254675434 0.01463720372745239 1:1 2:1 3:1 8:1 13:2 15:1 17:1 21:1 
-0.2597591731283386 0.5517631393288767 0.3178097423111187 0.1380279059160557 0.2231973553642175 0.1317417810136302 1:1 2:1 4:1 6:1 8:1 13:2 15:1 17:1 21:1 
-0.714893994052617 0.8520840006741104 0.6547692628926651 0.3578364561413858 0.5588419788030082 0.3035948064395307 1:3 2:2 8:1 9:5 12:3 13:2 15:2 17:1 21:1 
-0.1680727372324544 0.2617368935377584 0.1670972998649808 0.09298020896958091 0.1430894422410692 0.05115219028686249 1:1 2:1 8:1 10:1 11:1 13:2 15:1 17:1 21:1 
-0.2223431472791199 0.7086705648673396 0.2634461628461766 0.1440558101554328 0.2154762165399952 0.2134068961034869 1:1 2:1 8:1 11:1 13:2 15:2 17:1 21:1 
-2.662164328004738 0 0.08787435579024568 0.04777714633622488 0.1743239170861092 0.03917860253740252 1:1 2:1 9:5 12:3 15:1 21:1 
-0.7796315689411629 0 0.253600440133399 0.138711170456645 0.2131797280603742 0.1190084923481197 1:1 2:1 9:5 12:3 15:1 17:1 21:1 
-0 0.6030264502003617 0.4304732414554387 0.2341205129429376 0.3179105783283261 0.2018641043233077 1:1 2:2 9:5 12:3 15:1 21:1 
-0 0.2650697145916917 0.1989270207872748 0.1096715380972085 0.1709909346902117 0.09161113955489494 1:1 2:2 9:5 12:3 13:1 15:1 17:1 21:1 
-0 0.421200700541874 0 0 0 0 2:1 13:1 16:2 17:1 20:1 
-0.8749160008151894 1.400334745032141 0.8120384564849732 0.7563522941534742 0.7428304530439079 0.5986302310660568 2:1 13:1 16:3 17:1 20:1 
-1.889218316909186 1.843250720471712 1.874127109250653 1.818526499924466 2.093589991310528 0.4755162854650031 2:1 20:7 
-1.589989626263284 0 0.7168775875949067 2.174953569311415 2.074931935031376 0 20:2 
-4.173071861170349 0 0.1261178398013326 0 0 0 8:1 20:2 
-0 0.08342274118006146 0.1989160580517784 0 0 0 13:1 15:1 20:2 
-0 0.5623155780916316 0 0 0 0 8:1 13:1 15:1 20:2 
-0 0 0.00231183967031265 0 0 0 8:2 20:2 
-2.902691568016405 2.203172770297533 0.2673751887170822 0.1732570213738182 0.1816563487651391 0.05175144918302325 8:3 20:2 
-0 1.422637910415179 0 0 0 0 8:1 17:1 20:2 
-0.6528504584153151 1.164251381929397 0.3980906635689693 0.1881994526741008 0.350866427906308 0.1944430101014117 8:3 17:1 20:2 
-0 1.325457252406779 0 0 0 0 2:1 8:2 17:1 20:2 
-0 0 0 0.04336941406790684 0.0005408096523684054 0 2:1 8:3 17:1 20:2 
-0.0427197137497634 0.5935665821404642 0.3686963152075292 0.09143100156059682 0.3225522050429238 0.1778994281723 2:1 8:3 13:1 15:1 20:2 
-0.4190038210502036 19.78606605633238 0.5685770115039904 0.2794583133902945 0.4356621715131851 0 3:1 20:2 
-0.4605251749104063 1.180958448500898 0.687211679489414 0 1.364239404257134 0.08433377866551642 6:1 9:1 12:2 15:1 20:2 
-0.4215237683630828 1.184483043174688 0.7605126737391171 1.047166546938567 0.4358385380496881 0.5940112084330413 5:1 20:2 
-0.4216601616835693 1.186427244495407 1.020716997192525 0.2796904087961629 0.4363144994316902 1.403945614332871 7:1 20:2 
-0.2201494151393754 0 0 0 0 0 8:1 15:1 20:2 
-0.8294361569265915 2.729434552482302 0.5044585050091313 0.2756181823594409 0.4255609079651873 0.2352135065659244 1:2 9:5 12:3 15:1 20:2 
-0.4023783334976599 1.490338553681632 0.7045483180938139 4.2260309061805 0.3729373389014835 0 10:1 11:1 20:2 
-0.1476347955626333 0.9407104030348883 1.064397239147834 4.367723453874773 0.2071277576441412 0 11:1 15:1 20:2 
-0.2555808685056344 1.952556578600838 0.2377054319785368 0.1943627165088438 0 0.1895862101842524 9:1 12:3 15:1 20:2 
-3.991834658734419 0.01454951583803247 0.178345201964002 0.03962448579788867 0.06793753394521222 0 1:1 13:1 17:1 20:2 
-0 3.414823835439604 0.7682570522464077 0.3261565642458576 0.5110347666899896 0.2272187445494991 13:2 17:2 20:2 
-0 4.869736892628251 0 0 0 0 3:1 13:1 17:1 20:2 
-0 0.8156360425427777 0.1377363590380325 0 0.07195017382394088 0.05480536340215516 6:1 9:1 12:2 13:1 15:1 17:1 20:2 
-0.6160448790449082 2.818365445969782 0.4840102609079013 0.2644487009934223 0.411556596390877 0.22532867797064 1:2 9:5 12:3 13:1 15:1 17:1 20:2 
-0 0.5572502610744284 0 0.01078870942860134 0.03864479465039938 0 10:1 11:1 13:1 17:1 20:2 
-0 0.1329752815148813 0.08919765127893528 0 0 0 11:1 13:1 15:1 17:1 20:2 
-0.2999235386144275 2.052740715559196 0.363883578136324 0.2365150983703873 0.301682536130663 0.1699129778890398 9:1 12:3 13:1 15:1 17:1 20:2 
-1.277783041436201 0 0 0 0 0 2:1 20:1 
-0.3493578466048766 6.749585367086398 6.166491488088519 0.7345916100091545 0.5704199828331288 0 2:1 20:4 
-0.9606675343090965 0 0.7339539657070265 0.5369480153904601 1.218342414157187 0.4572018282434838 2:1 20:5 
-0 0 0 0 0.2969595873530374 0 2:1 20:6 
-0 2.795460538735123 0 0 0 0 2:1 13:1 16:1 17:1 20:3 
-0.1961097769491968 0.5938793446127332 0.295421795035713 0.3002754984682859 0.2788570804700348 0.2438104308764562 2:1 13:1 16:3 17:1 20:3 
-0 1.053460366715267 0.8893428924379689 0.0376785210720337 0.03262545957802396 0.01638699419472705 2:1 13:1 16:1 17:1 20:4 
-0 0 0 0 0 0.1795621367944886 2:1 13:1 16:2 17:1 20:4 
-0.4911201815002387 0 0.1145262014533526 0.3117812285988935 0.3352237974925581 0.1303275909417129 2:1 13:1 16:3 17:1 20:4 
-0 0 0.3310416864145037 0 0 0 2:1 13:1 16:1 17:1 20:5 
-0.1460061421701195 0 0 0.09067491320863086 0.2125372267314875 0.1998080719980354 2:1 13:1 16:1 17:1 20:6 
-0.8590340424279275 2.114828228907147 0.8046072121291434 0.7367699598649353 0.7131193553828881 0.5709410359889686 2:1 13:1 16:3 17:1 20:6 
-0.1680534258437157 -0 2.403910313282866 0.6380108280083959 1.469673240234995 1.698933058453129 3:1 21:1 
-0.8322793416483306 -0 0 0 0 0 3:1 8:1 21:1 
-2.517943895119095 -1.563522412986696 0.5429109662795426 0.2037405458604949 0.3166404434678768 0.2233551329277884 3:1 8:3 21:1 
-0 -0.185140360129307 0 0 0 0 3:1 8:3 13:1 17:1 21:1 
-0 -0 0.08436485635885699 0.09270863411013287 0.1501070958304749 0.008459302961725739 3:2 8:3 21:1 
-0 -0 0.02438751125217338 0.02385136224607083 0.02991336707358986 0.0143938842135118 3:2 8:3 13:1 17:1 21:1 
-0 -0.630972290111062 0 0 0 0 3:1 8:1 13:2 17:1 21:1 
-1.052488739919405 -0 0.2237602227660996 0.108153336881595 0.1197890509908307 0.3903722506111647 1:1 3:1 13:1 21:1 
-0 -1.853631995836396 0 0 0 0 3:1 8:1 13:2 15:1 17:1 21:1 
-0.1010708844436495 -0.0702992511353501 0.2807775152733522 0.07365008507299513 0.292900759228627 0.05673720826610376 3:1 4:1 6:1 8:1 13:2 15:1 17:1 21:1 
-0 -0.5147677062553325 0.08557623807581893 0.03146747841192762 0.3526565678884463 0 2:1 3:2 6:1 13:1 15:1 21:1 
-0.06295424246673935 -0 0.3704250982871666 0.1218030828590944 0.1990878566627261 0.3485410567435672 3:2 7:1 8:1 13:1 15:2 21:1 
-0.5084227077002477 -0.7069065576892573 0.5002966247064883 0.2725759891498251 0.4303220167855869 0.2344694400202472 1:2 3:2 8:1 9:5 12:3 13:2 15:2 17:1 21:1 
-0 -0.03172942394861478 0.09037196415137132 0.1001628951932108 0.01383096259503821 0.01652064606866022 3:1 8:1 10:1 11:1 13:2 15:1 17:1 21:1 
-0.1860829700607945 -0.3897059832660619 0.1993069785338369 0.1235800809658819 0.1114085969968202 0.02463708321224916 3:1 8:1 11:1 13:2 15:2 17:1 21:1 
-0.7258042742792808 -1.158844203093206 0.8192288593437944 0.4478229371508443 0.8182134601679485 0.379622917460491 3:2 8:1 9:1 12:3 13:1 15:2 17:1 21:1 
-1.214268266942208 -0 0 0 0 0 1:1 3:1 8:1 13:1 17:1 21:1 
-2.344448296353673 -1.129639778610664 0.1635916825605982 0.09742655761115518 0.1551653417967292 0.1004867333617434 1:1 3:1 8:3 13:1 17:1 21:1 
-0 -0 0.3171399916703269 0.1656039831044256 0.260482574552116 0.123616140613797 1:1 3:2 8:3 13:1 17:1 21:1 
-0.2930055554037487 -0.9355048775233725 0.3143278669275913 0.1416170037624623 0.2301562763961754 0.1358133835637987 1:1 3:1 4:1 6:1 8:1 13:2 15:1 17:1 21:1 
-0.5364517424175566 -0.6021876039915073 0.526739418903717 0.2847514365866384 0.4466067178030443 0.2435574857609944 1:3 3:2 8:1 9:5 12:3 13:2 15:2 17:1 21:1 
-0.1711649408100619 -0.5727175594988813 0.1646292147992286 0.08568214408954779 0.1443116598217154 0.05405094391107038 1:1 3:1 8:1 10:1 11:1 13:2 15:1 17:1 21:1 
-0.2586958410299398 -0.92323730746155 0.2693995218238954 0.1455417812368594 0.2253092258242063 0.2157153962522519 1:1 3:1 8:1 11:1 13:2 15:2 17:1 21:1 
-0 -0 0.1284581384099293 0.1082418342875188 0 0 3:2 10:1 11:1 15:1 21:1 
-0 -0 0.1735804652400999 0.08337353451234335 0 0 3:2 10:1 11:1 15:1 17:1 21:1 
-0.239896203263474 -0.006526973771079032 0.3172525516730419 0.115142487447559 0.238871889352708 0.05081716441395635 3:3 10:1 11:1 15:1 21:1 
-0.1693920271127145 -0.1768030182850559 0.2157657247896554 0.1249967783672961 0.2406426848629654 0.1170476469788154 3:3 10:1 11:1 13:1 15:1 17:1 21:1 
-0.952405772091812 -0.802614438655479 0.8817496933045262 0.7670272454298426 0.7839829095071703 0.6286615423964776 3:1 13:1 16:3 17:1 20:1 
-0 -6.321689911375923 0 0 0 0 3:1 13:1 16:1 17:1 20:2 
-2.005707178395677 -1.841128689769794 1.134641647338827 1.824569056594946 1.890990896337907 0.3443205299289518 3:1 20:7 
-2.278113433532759 -2.720722274763835 3.988318078093797 2.281478353108038 2.509675805217216 0 20:3 
-0 -10.27176902275056 0 0 0 0 3:1 20:3 
-0.7010687062574256 -0 0.398039706096398 0 0 0 8:1 20:3 
-0 -1.199342165332867 0.8922847435426893 0 0.04737484536583925 0 13:1 15:1 20:3 
-0 -0 0.008173015938236541 0 0 0 8:1 13:1 15:1 20:3 
-0.6512626376640316 -2.120766914655065 0.3362222599216836 0.1786694772754471 0.1917505236763868 0.06739703402090283 8:3 20:3 
-0.4394471188023932 -1.059768178160309 0.3318089347894395 0.1219742902674915 0.2400793418375869 0.1545181199304146 8:3 17:1 20:3 
-0 -0 0.002065703396080601 0.1102584858063428 0.1154635244445514 0.07135759850572709 3:1 8:3 17:1 20:3 
-0.3523675601137006 -0.7746460658390497 0.497406828829881 0.1458347958465243 0.4093077908442121 0.2304347477971501 3:1 8:3 13:1 15:1 20:3 
-0 -5.015633070546369 0.3127363261221704 0.1280473930973957 0.2047322196448933 0 2:1 8:1 17:1 20:3 
-0.3861152686562865 -1.11917410622638 1.772504333071513 0 1.122877059464627 0.0794307868508939 6:1 9:1 12:2 15:1 20:3 
-0.4585590458142682 -1.344867259229424 1.169183017547259 1.097428808468458 0.4434703450698179 0.7519509768760257 5:1 20:3 
-0.4579660921196447 -1.346668607939414 2.596761537563141 0.2818010994605903 0.4423901021844985 0.9550523530090294 7:1 20:3 
-0.1576639266749497 -0 0 0 0 0 8:1 15:1 20:3 
-0.5841553969677391 -2.69212029604338 0.5771412743179732 0.3148573431219839 0.4983489812571722 0.2686799566139489 1:2 9:5 12:3 15:1 20:3 
-0.423779502042904 -1.556689902963775 0.7012107044328372 4.226003892903789 0.396220786612761 0 10:1 11:1 20:3 
-0.2098484154986847 -0.7552308378437986 1.989910097649487 4.409983299949739 0.1973589361579164 0 11:1 15:1 20:3 
-0.3085192170388055 -1.906253218235209 0 0.1926496393748111 0 0.1912025120301328 9:1 12:3 15:1 20:3 
-2.596909590903053 -0.4058097943276002 0.3602129109469409 0.04796243598208184 0.07134541924019062 0 1:1 13:1 17:1 20:3 
-0 -3.777382041394384 1.1681442981891 0.3348901215291455 0.5292929604791917 0.2443432824082171 13:2 17:2 20:3 
-0 -0.8348842747920707 0.2823341908421317 0 0.1382747207165457 0.08436914526881734 6:1 9:1 12:2 13:1 15:1 17:1 20:3 
-0 -0.128985464052495 0 0 0 0 5:1 13:1 17:1 20:3 
-0 -0.1285119461851651 0 0 0 0 7:1 13:1 17:1 20:3 
-0.5463077551462873 -2.748191641601236 0.5569364180610348 0.3019219873109171 0.4747749709678064 0.2589259335360851 1:2 9:5 12:3 13:1 15:1 17:1 20:3 
-0 -0.7102729129412866 0 0.01358374719455926 0.02596381341259383 0.0306136337735244 10:1 11:1 13:1 17:1 20:3 
-0 -0.007052717447697326 0.4136692845670065 0 0 0 11:1 13:1 15:1 17:1 20:3 
-0.3695088092571008 -1.98289808360137 0.3039384566424621 0.2711236175985236 0.3393291765013103 0.184588706108889 9:1 12:3 13:1 15:1 17:1 20:3 
-1.677120915413608 -14.58001868119206 0 0.8209625616661339 0.4173972740207136 0 3:1 20:1 
-0 -0 3.599792120024835 0 0 0 3:1 20:4 
-0.7924846339910363 -0 3.97288602123301 0.6789109511349133 0.8602525142326037 0 3:1 20:5 
-0 -0.24500014158615 0 0 0.869674169130298 0.361476456763971 3:1 20:6 
-0 -0 0 0 0 0.06312314662012734 3:1 13:1 16:2 17:1 20:3 
-0.2758932802346434 -0 0.1811926013671424 0.2986102464487954 0.2665412491189383 0.1897493155613841 3:1 13:1 16:3 17:1 20:3 
-0 -0 0.212844131477284 0 0 0 3:1 13:1 16:1 17:1 20:4 
-0 -0 0 0 0 0.08563576421588126 3:1 13:1 16:2 17:1 20:4 
-0.403797139499431 -0.5938639209123477 0.3248427485177837 0.3099791228188987 0.3277980155543179 0.2012618310511369 3:1 13:1 16:3 17:1 20:4 
-0 -0 0.7515146488935471 0 0 0 3:1 13:1 16:1 17:1 20:5 
-0.1150920374564291 -0.3186131168414285 0 0.1043763708069564 0.1945394143892692 0.22675642928617 3:1 13:1 16:1 17:1 20:6 
-0.9378566197413439 -1.908669234004771 0.7085681926644221 0.7393165972594833 0.7354361369525673 0.570365662249086 3:1 13:1 16:3 17:1 20:6 
-0.7926962581680368 -0 -0 0 0.6760994560305468 0 4:1 21:1 
-2.296658552321431 -1.822716676908048 -1.517252699874752 7.814606078819699 1.153814634807449 1.394120894820444 11:1 21:1 
-0.3121896385036799 -0.9607891350891525 -0.9246087377760197 0.09270952265973743 0.5709406642907576 0.9181533661647044 11:1 15:1 21:1 
-0.3769183603789869 -0 -0 0 0.1705981275910168 0.5923643535668954 14:2 21:1 
-0 -0 -0 0 0 3.45057753197509 4:1 7:1 21:1 
-0.4886594611189594 -1.353677423897173 -0.6075613017359418 0 0.4077656856643374 0.2530210779957853 2:1 14:2 21:1 
-0 -0 -0.4340705428788389 0 0 0 3:1 4:1 14:2 21:1 
-0.0832528705193134 -0.2376039441761724 -0.2554703649797391 0.8529205024188533 0 0 4:1 11:2 14:2 15:1 21:1 
-0 -0 -0 0 0.3947594869730117 0 4:1 6:1 11:1 14:2 15:1 21:1 
-0.2909513609173637 -0.4657861345787574 -0.4339487578299021 0 0.2809063078372775 0.9583641383631631 4:1 7:2 14:1 21:1 
-0.5301573264021877 -0.5234319186466614 -0.5189865256152875 0.3669862295314681 0.315002365188762 0.249905168775253 1:2 4:2 7:1 11:1 15:1 21:1 
-0 -0.06259346796889341 -0 0 0 0 2:1 4:2 7:1 11:1 14:1 15:1 21:1 
-0.4446855520134608 -0.6231896535255756 -0.9125651847404785 0.3875680592217336 0.3923771495827825 0.09205762787562145 3:2 4:2 7:1 11:1 14:1 15:1 21:1 
-0.05332292852106146 -0.3402998718681639 -0.3412575790700194 0.1249203997012013 0.1957274056530811 0 4:3 7:1 21:1 
-0.5734735366629241 -0.3665100747248639 -0.3484368720542176 0.143045384623095 0.2324832771094941 0.0119869178616758 1:2 4:2 7:1 14:1 21:1 
-0.01017806768009263 -0 -0 0 0 0 4:1 9:1 11:1 14:2 15:1 21:1 
-0.9517255509867183 -0.8197076549101908 -0.8309065840400902 0.3494411177107585 0.4342345316500956 0.2853533591557594 4:1 8:2 14:2 15:1 21:1 
-0.8297556869927161 -0.8989575429126737 -0.8633307528773616 0.6652915679171783 0.6687423885314704 0.4966427510547445 4:2 16:3 20:1 
-0 -0 -0 0 0.1085413092091639 0.1045456197636365 4:2 16:2 20:3 
-0.2813861304154596 -0.3877702815202788 -0.3980245603036368 0.2910125924298816 0.1568560153196858 0.2136599676900684 4:2 16:3 20:3 
-2.144373242504956 -2.06442684229027 -1.853364282078069 0 1.807876936483337 0.590733311259347 4:1 20:7 
-2.830337965717097 -2.503566771672684 -5.976362188450954 0 9.938110072026504 0 20:4 
-0.5374277195078669 -0.4801124186091461 -0.4759521150566231 0 0.3409463269512261 0.1619388469394075 14:2 20:4 
-0 -0 -1.632733897720177 0 0 0 11:1 15:1 20:4 
-0 -0.4094218081845036 -0.41709085637855 0.3648860789325224 0.1890380727923678 0.07231431018469817 11:1 14:2 15:1 20:4 
-0.3438679640946894 -0.6719695222242624 -0.6047397597955572 25.24423614140279 0.111072055128302 0 11:1 20:4 
-0 -0.2187690589391375 -0.1822710725145948 0 0.3093253038913591 0.1719996280647145 4:2 11:1 15:2 20:4 
-4.235962601384017 -0.09962803312395878 -0.1198861216458781 0 0.1270951168130549 0 1:1 15:1 20:4 
-0.1008894114045618 -0.8893304671727679 -1.098940955949704 4.454721869562783 0.5082985366583793 0.5486195132592216 5:2 11:1 15:1 20:4 
-0.5097485578604616 -0.5788740549167445 -0.5151199577783839 0.04457457453823103 14.54365849590462 0.1569842094489655 6:2 20:4 
-0.4827132231494616 -0.978541053326954 -2.617831638343119 0 0.40252849702173 0.9849167068690032 7:1 20:4 
-8.204048941008415 -0.7808730442613014 -1.160146089614875 0 0.4008162800906301 0.1352306569346808 1:1 8:1 20:4 
-0.1345637585363474 -1.841798686524035 -0.7670623247886116 0.2394489851669366 0.3003583943976667 0.1399443165382721 2:1 13:2 15:1 17:1 20:4 
-0.1398796352401964 -0.3235227167216231 -2.186393863108679 0.2411573862164021 0.3042050025179327 0.1347752678137893 3:1 13:2 15:1 17:1 20:4 
-0.2680134406909557 -0.9284318077938528 -1.888561681060597 0.4135343823081391 0.9605892407546179 0.2030805797773336 6:2 9:1 12:2 15:1 20:4 
-0 -3.452447460076938 -0 0 0 0 2:1 4:1 20:4 
-0 -0 -3.007539807212372 0 0 0 3:1 4:1 20:4 
-0.1794066738144782 -0 -0 0 0 0.06595937750015236 4:1 5:2 11:1 15:1 20:4 
-0 -0 -0 0 0 0.03534726280587646 4:1 6:2 20:4 
-0.173015591581125 -0 -0 0 0.08898525105766165 0.0855667499784985 2:1 4:1 13:2 15:1 17:1 20:4 
-0.1666958143152069 -0 -0 0 0.08581536751911038 0.09073841705609592 3:1 4:1 13:2 15:1 17:1 20:4 
-0.3703582159949088 -0.2101349841567615 -0.1798004179836947 0.1340740268553222 0.27886793724016 0.2143223013884319 4:2 11:1 14:2 15:1 20:4 
-0.3818464175140623 -0.2625486072663772 -0.238486580997691 0.1532733301971417 0.2811708920656257 0.1921076594817143 4:1 6:2 9:1 12:2 15:1 20:4 
-1.834489913256786 -1.375817550248199 -0 0 0.5832349003815726 0 4:1 20:1 
-0.2982190336202594 -2.088600864736509 -4.127797182562326 3.382739847352599 0.4301685263584122 0.1086661787237459 4:1 20:2 
-0 -0 -0 3.89913335325082 1.201533055643764 0 4:1 20:6 
-0.6873372425525284 -0 -0 0 0.1276190525301852 0.04825937156597096 4:2 16:2 20:4 
-0.03517138536764647 -0.2647021581826875 -0.2352483354734331 0.2931789530003354 0.2835683126524578 0.1496528567503974 4:2 16:3 20:4 
-0 -0 -0 0 0 0.03761307454482568 4:2 16:1 20:6 
-0 -0 -0 0 0 0.105146706386761 4:2 16:2 20:6 
-0.8274414343625175 -0.9718849834130761 -0.9714860582019168 0.6425842934353588 0.6102957495842276 0.4934069399099449 4:2 16:3 20:6 
-0.7115470878631143 -0.4050994467672239 -0.5171211701612994 -4.589500537378606 0.5764267626376415 1.155893412519797 5:1 11:1 21:1 
-0.5544727798657123 -1.107511159056178 -0.8588495386921013 -0 0.6070252387854712 0.4047597688628776 5:2 11:1 15:1 21:1 
-0 -0 -0 -4.331479981066008 0 0 11:2 21:1 
-0.4885780921163708 -0.669482910943506 -0.7753553066380973 -0 0.5996376679398973 0.3045524744697397 11:3 21:1 
-0.6670510370869728 -0.7652054527545084 -0.7833460370023704 -0.1496545767863038 0.6457230601761806 0.3148536555509584 5:2 11:3 15:1 21:1 
-1.30713468984401 -1.299681286733285 -1.327737617482618 -1.132146713866542 1.092932504914546 1.310539631035444 5:1 11:1 16:3 20:1 
-0 -0.2732629154033121 -0 -0 0 0 5:1 11:1 16:1 20:2 
-0 -0.06248649847993597 -0.3511317382241063 -0 0 0.5119552809951637 5:1 11:1 16:1 20:3 
-0.5906113416845272 -0.5260039969306683 -0.5144990581268674 -0.0294885391776724 0.5004737297816034 0.4652859459688753 5:1 11:1 16:3 20:3 
-0 -0 -0 -3.238226345639946 0 0 5:1 11:1 16:1 20:4 
-0.5186643241349008 -0.5322004637384261 -0.5031141455162326 -0.1726656114563052 0.4080267003305059 0.4930135219207113 5:1 11:1 16:3 20:4 
-2.152010855818576 -2.289981376937862 -2.297407212851085 -0 2.500090859649591 0.6943221957779036 11:1 20:7 
-0.624853255527832 -0.4640141601660395 -0.4379368758162722 -15.48921031309278 1.227742704773799 0 11:1 20:5 
-0.2201477781035193 -0.2483466020091945 -0.2103467583862 -0 0.1976355826433227 0.9236632032031861 5:1 11:1 18:1 20:5 
-0.5794765620080463 -0.7930985739683626 -1.06882678794461 -3.394472881486194 0.6273041177177359 0.2689715798068573 5:2 11:1 15:1 20:5 
-0.211376304019869 -0.3030491528970907 -0.1927335412280884 -0.08989158763483746 0.03246854019559241 0.2720989327565544 11:3 20:5 
-0.283042879016311 -0.324305344282268 -0.3017994490690472 -0.133676267446179 0.2802538429538223 0 5:1 11:3 18:1 20:5 
-0.6340628853755097 -0.7367096570251438 -0.7157946130945095 -0.6955676819228123 0.6025500636910764 0.3848024769158599 5:2 11:3 15:1 20:5 
-2.18365103054793 -1.487505267344649 -1.314169357182873 -0 1.398586267699824 0.7193216101423389 11:1 20:1 
-0 -8.14459461393743 -0 -0 0 0 11:1 20:2 
-1.493142713869675 -1.7462651314392 -10.08541483900651 -16.42114489788611 1.353677881112093 0.262617800404867 11:1 20:3 
-0 -0 -0 -0 0 0.437144761330716 5:1 11:1 16:2 20:6 
-1.340662258622751 -1.340993469076231 -1.336541690949197 -0.7289187424127033 1.119611802172216 1.039329765636091 5:1 11:1 16:3 20:6 
-1.814559516751688 -1.521168441407555 -1.637757168018144 -2.201515085925112 -0.791924509246256 1.706243131021515 6:1 21:1 
-0.3404156365034647 -0.283889433411507 -0.2251361860958387 -0.2895975271050868 -0.09930515951031861 0.2274713668065809 6:1 9:1 12:1 15:1 21:1 
-0.6438246582936881 -0.5620358101943138 -0.399959696771973 -0.319857212143796 -0.2181163307247281 0.1692954059031517 6:1 9:2 12:2 15:1 21:1 
-0 -0.2054042986519939 -0.2503545001756943 -0.2604104426843108 -0.1559448822327875 0.02369382168065357 6:2 9:2 12:2 15:1 21:1 
-0 -0.1668751083076776 -0 -0 -0 0 6:1 9:1 12:2 15:1 21:1 
-0.3834594375170213 -0.5781864128437108 -0.5555764425004793 -0.5397743099063811 -0.314741948017417 0.2393954710569573 6:1 9:2 12:4 15:1 21:1 
-0.5178293922412954 -0.5129121980162848 -0.5115069737924793 -0.5802883026951871 -0.3424270052687137 0.2844164036187023 6:2 9:2 12:4 15:1 21:1 
-0 -0 -0 -0 -0 0.1338722021089642 6:1 15:1 19:1 21:1 
-0 -0.1990304692513126 -0.1494248520317086 -0.0421035619039807 -0.02469435245538218 0 6:1 9:1 12:3 15:1 19:1 21:1 
-0 -0 -0 -0.03212280377878746 -0.01629310986781042 0.0395267328669438 6:2 9:1 12:3 15:1 19:1 21:1 
-0.5543577130088477 -0.6215081449491209 -0.5668217162956318 -0.7242684984274216 -0.3938925198433403 0.3008367405266272 6:1 15:1 19:2 21:1 
-0 -0.07910786813852289 -0.1593189289167153 -0.04989070846272815 -0.04913012981940115 0 6:2 15:1 19:2 21:1 
-0.2874792899989027 -0.3732820417776841 -0.3650460858815841 -0.380825051584293 -0.234392305394943 0.2191238153147835 6:1 12:2 15:1 19:2 21:1 
-0.3642671346654678 -0.4268109556012276 -0.4155542430979863 -0.4459733131963679 -0.2625994329042457 0.1284643645498688 6:2 12:2 15:1 19:2 21:1 
-0.9283144300501628 -1.008790100298862 -1.039172408930479 -1.116007400063632 -0.7907177357264245 0.6164734947398731 6:2 16:3 20:1 
-0.3949096899952352 -0.3443684843649198 -0.3279677997001153 -0 -0.3147269510007729 0.2807954514768081 6:2 16:3 20:3 
-0 -0 -0 -4.473571268027767 -0 0 6:2 16:1 20:4 
-0 -0 -0 -0 -0 0.07183906786423941 6:2 16:2 20:4 
-0.4036780484854354 -0.4765244401605729 -0.4407574816711262 -0 -0.3317072663162757 0.200660535424298 6:2 16:3 20:4 
-1.612259917172946 -1.668491278322151 -1.629128267413189 -1.311476644739157 -1.526770484379991 0.4211781971497588 6:1 20:7 
-0.6859175634123736 -0.661733012641369 -0.75196483477508 -0.8724154392230465 -0.6124224719963145 0.1662582080491708 9:1 12:1 20:6 
-0 -0.04389918947612011 -0 -0 -0 0.09104973089716724 9:2 12:2 20:6 
-0.5078224798742714 -0.5934145445908485 -0.5935940477697906 -0.624268354823612 -0.3698177344688116 0.2643020595832064 9:2 12:4 20:6 
-0.1792884000320256 -0.2410257916136343 -0.2678165337758462 -0.2670854685270708 -0.2166318335321812 0.1287134433739264 9:1 12:1 15:1 20:6 
-0.07519749490821274 -0.0979833395828406 -0.1223379931326728 -0.03323441198422924 -0 0.02796327155110815 9:2 12:2 15:1 20:6 
-0.2512311395321502 -0.2927837892416498 -0.297812451291656 -0.3227864151215044 -0.1925050289429586 0.1408515602645986 9:2 12:4 15:1 20:6 
-0 -0 -0 -0.4710123175844895 -0 0 6:2 9:1 12:1 15:1 20:6 
-0.3318272134707074 -0.414788317881769 -0.4422691455899606 -0.5048377173579626 -0.2153827688472141 0.206925829318962 6:2 9:2 12:2 15:1 20:6 
-0.590487321364252 -0.6910717485830504 -0.6794219637643181 -0.7170506417028113 -0.4417389129971681 0.3233423377564569 6:2 9:2 12:4 15:1 20:6 
-1.141414131406305 -1.112556118564044 -1.23476376988938 -1.457104643208343 -1.056254228855342 0.217842634823029 19:1 20:6 
-0.02036133660251013 -0.02151775980515202 -0.02788658369973933 -0.02320919783286947 -0.003170019727049274 0.009005180315602237 9:1 12:3 19:1 20:6 
-0.2963754032631293 -0.2494302099316557 -0.3204903380641769 -0.4205347395624884 -0.3368071535803462 0.05962760855268139 15:1 19:1 20:6 
-0.001013748946492183 -0.01496897677396232 -0.03362831274696566 -0.01586804144639643 -0.01366625735843555 0.01080099397287372 9:1 12:3 15:1 19:1 20:6 
-0.03341970153651632 -0.0445555468153297 -0.06254701511000174 -0.1817485055944688 -0.02033521892864889 0.01908499566802749 6:2 9:1 12:3 15:1 19:1 20:6 
-0 -0 -0 -0 -0 0.09716917509536896 19:2 20:6 
-0.233386608898708 -0.322662792854521 -0.290066826718342 -0.2782953385206323 -0.1340505439351178 0.1807306690640295 12:2 19:2 20:6 
-0 -0.1164353486710286 -0.03514902374896865 -0 -0 0.1076607334170525 15:1 19:2 20:6 
-0.1987004066042929 -0.2069649979740801 -0.2194680083193679 -0.208740698796919 -0.1215780373580311 0.08421476905924362 12:2 15:1 19:2 20:6 
-0.246088014011152 -0.327372156501241 -0.3101238490317679 -0.5177914274541557 -0.08960742608366809 0.1963063139946799 6:2 15:1 19:2 20:6 
-0.4590545321800387 -0.5406062905129145 -0.537126640729875 -0.5390063732069911 -0.3503112971282888 0.2545410713751344 6:2 12:2 15:1 19:2 20:6 
-1.234615224565858 -0.1129753482977825 -0.3844757668152234 -0.7459965990380811 -0.905585426412968 0.1110990371612832 6:1 20:1 
-0.4698357599759755 -3.603593212990893 -0.392677402540485 -0 -0.3923359514691443 0.2098369088996284 6:1 20:2 
-0.6806231191275345 -0 -3.40401871785648 -1.205167400610946 -0.6048262660931814 0.3269043545620657 6:1 20:3 
-1.139254120462063 -1.409304960852318 -0.8753170408637249 -17.36663425655932 -1.03320245261297 0.3477393809971745 6:1 20:4 
-0 -0 -0 -0 -0 0.04640325957509378 6:2 16:1 20:6 
-0 -0 -0 -0 -0 0.06220205253473701 6:2 16:2 20:6 
-0.9742216384034632 -1.031844641237808 -1.034294673144557 -0.8335560631034917 -0.7925541741382715 0.5969943139746323 6:2 16:3 20:6 
-0.7235354101864498 -2.067902504287689 -1.682151903180851 -5.120894278614022 -1.101235500719908 -1.755523290141545 7:1 21:1 
-0 -0 -0 -0.01454470758500268 -0 -0 7:2 21:1 
-3.222447813457864 -0.4327654475259711 -0.4323715813292248 -0.08061835230093106 -0.1743768596393048 -0.1953983599180865 1:1 7:1 21:1 
-0.1681072831026036 -0.1726757175731106 -0.2509823384113098 -0.2485601148006961 -0.6401827981913408 -0.2016482954719239 5:1 7:1 18:1 21:1 
-0.4662891835075173 -0.3155013274549719 -0.3101712376808839 -0.2341833808339673 -0.2543246546752838 -0.2857353281844708 1:1 5:1 7:1 18:1 21:1 
-0.1818147379569955 -0.1153230918355811 -0.1653978153499125 -0.1900515979462547 -0 -0.1756121618048541 7:1 18:1 21:1 
-0 -0 -0 -0.2588682310377259 -0 -0 1:1 7:1 14:1 15:1 21:1 
-1.251278238800178 -1.118624953657213 -1.138642959329587 -1.19849631270902 -0.8583183383483955 -1.046680318489921 1:1 7:1 14:1 15:2 21:1 
-0 -0 -0 -0.0728136794951872 -0 -0 1:1 7:2 14:1 15:1 21:1 
-0.09225090167250191 -0.502699852563357 -0.507979014635713 -0.6550302936877361 -0.3558165873682404 -0.4500964552923389 1:1 5:1 7:2 14:1 15:1 18:1 21:1 
-0.2330250242150955 -0.03897251108568323 -0.08137351204354984 -0.110749138889672 -0.2187512034107806 -0.146880902018199 5:1 7:1 16:1 18:1 20:1 
-1.274463866617748 -1.204328378652288 -1.315708029288211 -1.238765042241948 -1.46410036409258 -1.152953764202054 5:1 7:1 16:3 18:1 20:1 
-0 -1.02457941564333 -0 -0 -0.1603353946161083 -0 5:1 7:1 16:1 18:1 20:2 
-0.9391362982501361 -0.9036275905187389 -1.805696352010836 -0.9089944278181564 -0.6423597490485902 -0.9524856178195752 5:1 7:1 16:1 18:1 20:3 
-0.3228327203730922 -0.08617572051131486 -0.09729592639218952 -0.308418751260901 -0.4584658407623849 -0.2552866251254474 5:1 7:1 16:3 18:1 20:3 
-0.162954185756622 -0.1413589688076208 -0.05950427243767334 -0.8110120184493957 -0.5679933363586029 -0.1169359961006363 5:1 7:1 16:1 18:1 20:4 
-0.4967908060687065 -0.6196578585808109 -0.5256741096524266 -0.3090720907417589 -0.4818036878398144 -0.4526419029553357 5:1 7:1 16:3 18:1 20:4 
-1.228909910783047 -1.288568919882549 -1.286764305322566 -1.198532647730912 -1.366838072929833 -1.279475641991503 5:1 7:1 16:1 18:1 20:6 
-1.043137465618861 -1.004435989578209 -1.021648983533075 -0.9884719521014022 -1.218223629296773 -0.8835014364307693 5:1 7:1 16:3 18:1 20:6 
