svm_type c_svc
kernel_type rbf
gamma 0.25
nr_class 7
total_sv 291
rho 0.220151 0.206397 0.102012 -0.430582 -0.196757 -0.418658 0.15263 -0.06509 -0.535057 -0.333561 -0.509004 -0.0684792 -0.531962 -0.339858 -0.517476 -0.538223 -0.291573 -0.424247 0.223723 -0.0498628 -0.230153
label 1 2 3 4 5 6 7
probA -4.82739 -5.07853 -4.90586 -3.42342 -4.33111 -4.03396 -4.53601 -5.09717 -4.24527 -4.56502 -4.33696 -5.13525 -4.2602 -4.56708 -4.24143 -3.68854 -4.73026 -3.54783 -4.02647 -3.46714 -3.83253
probB 0.258116 0.206376 -0.225442 -0.302561 -0.0198266 -0.32933 0.270045 0.094416 0.0571775 -0.103504 -0.169554 -0.152466 0.0301158 -0.322332 -0.320731 0.395989 0.231968 -0.40718 -0.277089 -0.272366 -0.155639
nr_sv 42 70 71 51 15 25 17
SV
3.164056652804271 0 0.1653932837473127 0 0.07857390488596756 0.06659870964841309 1:2 2:2 3:1 13:1 18:1 
0 1.256035259866625 0 0 0 0 1:2 2:1 3:1 13:1 18:1 
0 0 0.5399703645416454 0.1729568904512741 0.3922239779931799 0.293477857011903 1:3 2:2 3:1 13:1 18:1 
2.132004515340108 1.545580985972449 2.23288113036913 4.135289609258765 1.374062243749557 3.260489220618366 1:1 18:1 
0.5598290193471909 0.4261158925193542 0.3975576015572677 0.207912430427851 0.4265599484742615 0.2074109843521456 9:5 12:3 18:1 
0.6605886667991395 0.2556517247250391 0.1917398935643947 0.1027743385318524 0.1318264476749587 0.1018386939932275 1:1 2:1 3:1 9:5 12:3 13:1 18:1 
0.5567864617330402 0.5151862129480628 0.3760798232099751 0.1925476731557549 0.2778413128928869 0.199619830285781 1:3 2:2 3:1 9:5 12:3 13:1 18:1 
2.066696746019607 0 0 0 0 0 1:2 2:1 9:5 12:3 15:1 18:1 
0 0.2484788677036247 0.1982116837013357 0.1006486706931457 0.1879667212352429 0.1078579868411334 1:2 9:5 12:3 15:1 18:1 
0 0.3160220047985174 0.2794545842663577 0.1463778433721611 0.1846359756204314 0.1439062091118429 1:3 2:1 9:5 12:3 15:1 18:1 
0.5456499016157542 0.5278822262807056 0.4831960912591636 0.248411987837008 0.2551441787220311 0.2571967738684113 9:6 12:3 18:1 
0.2398676670560068 0.2770858676810389 0.2536743415486039 0.1286888975271433 0.1906858229701832 0.1332301757622255 1:1 2:1 3:1 9:6 12:3 13:1 18:1 
0.5374028691623636 0.4728610700901574 0.4385418405187675 0.2281875475893283 0.3167912378341959 0.2302787139763359 1:3 2:2 3:1 9:6 12:3 13:1 18:1 
0.3462397518208604 0 0 0 0 0 1:2 2:1 9:6 12:3 15:1 18:1 
0 0.2180067812387248 0.2034017497483017 0.1066145088027284 0.1186244232039212 0.1038974729579284 1:2 9:6 12:3 15:1 18:1 
0 0.3059701866848791 0.2741697586821011 0.1400650779776567 0.2128632418072795 0.1482759845337606 1:3 2:1 9:6 12:3 15:1 18:1 
0.7397013074799443 0.7759802107006855 0.732233031351985 0.3159226851767012 0.7070088632064025 0.3949951647856365 9:3 18:1 
0.04506343067277368 0.2040190925972298 0.1705826524359935 0.02431907962023421 0.1338473909717195 0.09745978700000403 1:1 2:1 3:1 9:3 13:1 18:1 
0.7912742811116227 0.6714657855624581 0.699911886555995 0.3881342466519605 0.5090477238977797 0.3672807187878852 1:2 2:2 3:1 9:3 13:1 18:1 
0 1.184495554481176 2.150254812611745 4.171265664079714 1.325885766367101 0.3526971633288434 8:1 18:1 
0 0 0 0 0 0.423009363685174 1:1 8:1 15:1 18:1 
4.354332446564889 3.293844934598868 0 0 0 0 1:1 2:1 3:1 8:1 13:1 18:1 
1.66757223094227 2.458234367374142 0 0 0 0.04051612915555493 8:3 18:1 
0 0.009683507333126392 0.4623138450967392 0 0.2638560619735118 0.1416814634289613 1:1 8:3 15:1 18:1 
2.818221820953218 3.047763063915788 0.2942603069099822 0 0.237031549161102 0.1906258135275676 1:1 2:1 3:1 8:3 13:1 18:1 
3.760399515989054 0.3763793364589638 0 0 0 0 8:1 17:1 
4.016914154122853 1.016208016909974 0.326257121503131 0 0.1990402069325387 0.1988399500061304 8:3 17:1 
0.7998497673607315 0.7793162145552395 1.096801926328996 2.026405978747161 0.8179853105703055 0.3719252350508185 9:1 17:1 
1.19247973319893 0 0.1004450474835189 0 0.07080248693612209 0.1300133221808339 1:1 2:1 9:1 15:1 17:1 
0.5224703959687675 0.5788873859732164 0.587848741907137 0.02122880962128048 0.3847110628947 0.3069367052120801 1:3 2:1 9:1 15:1 17:1 
0.9840100129933483 0.05848240599268417 0 0 0 0 1:1 2:1 3:1 8:1 13:1 17:1 
0.3720478971455364 0.5754278380117502 0.5058978042562847 0.2221272939274612 0.3523238567413238 0.2375903290521201 1:1 2:1 3:1 8:3 13:1 17:1 
1.044667422064044 0.8899910761436421 0.08913627949042612 0 0.01461915498432604 0.01571989614255299 1:1 2:1 3:1 9:1 13:1 17:1 
0 0.2418202308793301 0.3251255159076859 0.2584922050337277 0.2587462965478635 0.1680556035063088 1:3 2:2 3:1 9:1 13:1 17:1 
0.7561230610694609 0.8595987404415383 1.035611716656711 1.071777832278748 0.7900419992205305 0.5623679272422131 1:1 8:1 16:3 17:1 
0.2536712463315069 0 0 0 0 0 1:1 8:1 16:1 17:2 
3.399656554586163 2.586016913593816 0.2946006405683877 0.1200731141033815 0.2296448672528516 0.1923760096547034 1:1 8:1 16:1 17:3 
0 0 0 0.6027077715372491 0.3467557642859101 0.2269125299920307 1:1 8:1 16:3 17:3 
0 0.7064371049432088 4.078286656998396 0.8099537358636865 0.3291682009928507 0.207596503880659 1:1 8:1 16:1 17:4 
0.008954945386065402 0.06979478278375552 0 0.1882055176521375 0.2276146257140117 0.1704776393967804 1:1 8:1 16:3 17:4 
0.7196676572622072 0.7322705384316617 0.8648283473920634 0.9739483701013774 1.010085668234829 0.4783002949090392 1:1 8:1 16:1 17:6 
0.9594180226816649 0.8813094649084218 0.6585544688926539 1.009597093255401 0.6206733765323169 0.4885980180725472 1:1 8:1 16:3 17:6 
-0.2705985529502998 1.031291956332196 2.932831936166841 3.982907373400128 1.774899189189446 1.657339717118625 2:1 18:1 
-1.794951095327536 0 0 0 0 0 2:1 8:1 18:1 
-3.725115457489148 1.161139849765365 0.5697234456299771 0.251452994997972 0.3416630616756141 0.2448928860463072 2:1 8:3 18:1 
-0 0.0606266513773407 0 0 0 0 2:2 3:1 8:3 13:1 18:1 
-0 0 0.1326076565994578 0.04168481457905181 0.1024152462604076 0.06091087827174677 2:3 3:1 8:3 13:1 18:1 
-4.394634419863535 0.732888176348389 0.3682911514851069 0.1725939792133037 0.1512054683411611 0.4539987201386054 1:1 2:1 13:1 18:1 
-0 1.919512908066608 0 0 0 0 2:2 3:2 8:1 13:2 15:1 18:1 
-0 0.1740017841824347 0.06266024010718285 0 0.01171749711677557 0 2:2 3:1 4:1 6:1 8:1 13:2 15:1 18:1 
-0.3472562975749602 0.5027875939046846 0.4010002762269541 0.2149657231497556 0.3734749531054675 0.2236089279957904 2:2 3:1 6:1 8:1 9:1 12:2 13:2 15:2 18:1 
-0 0 0 0 0.2922817444491243 0 2:2 6:1 13:1 15:1 18:1 
-0 0 0 0 0 0.180140610471538 2:2 7:1 8:1 13:1 15:1 18:1 
-0 0 0.3711751819861756 0.20212900836226 0.2707298231617831 0.1876802244465231 2:3 3:1 8:2 13:2 15:2 18:1 
-0.0947325156978391 0.2218810895915415 0.1135815645465411 0.05652679882897477 0.07770966507310043 0.06088569577836933 1:2 2:4 3:1 8:1 9:5 12:3 13:2 15:2 18:1 
-0 0 0.09070315158975979 0 0.01728880642592424 0 2:2 3:1 8:1 10:1 11:1 13:2 15:1 18:1 
-0 0.3398586683455585 0.05077114921774419 0.01314852913902681 0 0 2:2 3:1 8:1 11:1 13:2 15:2 18:1 
-0.5410021721836726 0.8475509133500959 0.6769746556372283 0.3262553557947002 0.4852478724401297 0.3492131872819911 2:3 3:1 8:1 9:1 12:3 13:1 15:2 18:1 
-3.73313546487534 0 0 0 0 0 1:1 2:2 3:1 8:1 13:1 18:1 
-1.963483130782828 1.155067558894046 0 0 0 0 1:1 2:2 3:1 8:3 13:1 18:1 
-0 0 0.4484201455344421 0.2252783732251614 0.3196720550846641 0.2337105130360155 1:1 2:3 3:1 8:3 13:1 18:1 
-0.8788149305957613 1.032644385061357 0.01797457783278586 0.04445587869210514 0.06586109200947407 0.04304917653596552 1:1 2:2 3:2 8:1 13:2 15:1 18:1 
-0.1825084453576023 0.558372591353488 0.312688424985024 0.08444215911477845 0.1792945885335731 0.1047240044995799 1:1 2:2 3:1 4:1 6:1 8:1 13:2 15:1 18:1 
-0.6923722018023821 0.9210786756745676 0.7134678810690586 0.354562772037719 0.5106771250653714 0.3736297346256717 1:3 2:4 3:1 8:1 9:5 12:3 13:2 15:2 18:1 
-0.155272940722801 0.2915343781682271 0.1629042019863262 0.05600901971689301 0.1193506527457217 0.05407803847125429 1:1 2:2 3:1 8:1 10:1 11:1 13:2 15:1 18:1 
-0.1499631647151454 0.6265672514581617 0.2722042781521664 0.1429106081410726 0.1570563704681208 0.1728226493812771 1:1 2:2 3:1 8:1 11:1 13:2 15:2 18:1 
-2.585674350479096 0 0.5175395621374692 0.2570743489125122 0.4245677973346696 0.2736572395913078 1:1 2:2 9:5 12:3 15:1 18:1 
-0 0.03313695403556235 0.07897466363928117 0.04016319701221489 0.05072810162409354 0.04220369092704791 1:1 2:3 3:1 9:5 12:3 15:1 18:1 
-0 0.4026659073922169 0.07436948561691051 0.03665369649406844 0.01753222653940437 0.03642876745019863 1:1 2:3 9:5 12:3 15:1 18:1 
-0.2883274170118512 0.5343023200217484 0.5166795544288603 0.2564739395980511 0.3776977055292923 0.2713367837052373 1:1 2:4 3:1 9:5 12:3 13:1 15:1 18:1 
-0 0.5296348031980356 0 0 0 0 2:2 3:1 13:1 16:2 17:1 
-0.7133089273697759 1.445449917695458 0.7424785498136504 0.4751355121841991 0.557644449820657 0.395177933573985 2:2 3:1 13:1 16:3 17:1 
-2.492217207589641 0 0 0 0 0 8:1 17:2 
-0 0.1833167680847527 0.03809277703165512 0.03726350690964788 0.09581342732749815 0 13:1 15:1 17:2 
-0.238635330361487 0.6927872468229003 0.1392646038604536 0.01345117124091852 0.006462788698596033 0 8:1 13:1 15:1 17:2 
-1.396104571603965 0 0 0 0 0 8:2 17:2 
-3.017172836873252 2.800607747180817 0.4923765735342001 0.2357124730344337 0.3230285910500708 0.2102914450913384 8:3 17:2 
-0.07373770884989118 0 0 0 0 0 2:1 3:1 8:2 17:2 
-0.2044895973146126 1.879305529251689 0 0 0 0 2:1 3:1 8:3 17:2 
-0 0.418099495209688 0 0 0 0 2:2 3:1 8:1 17:2 
-0 1.062185144589373 0 0 0 0 2:2 3:1 8:2 17:2 
-0 0 0.3859777488383384 0.1700312509382596 0.2862329376834122 0.2057921461875963 2:2 3:1 8:3 17:2 
-0.230937228027549 0.3493487733126102 0.3139723455346898 0.1386306386445489 0.2211980331822009 0.1654049206755227 2:1 8:3 13:1 15:1 17:2 
-2.697573008312735 0.864085840694551 0.3986087804971296 0.105298506679128 0.2175226659756659 0 1:1 17:2 
-0 0.7291546301296674 0.05071934521823716 0.02792464381053978 0.0993908615951699 0 3:1 17:2 
-0.3811392122189646 1.189961208153023 0.6807036114231033 0.1600800937623555 0.8797101995996025 0.1255944508217538 6:1 9:1 12:2 15:1 17:2 
-0 0.8598833541429627 0.5148499076343218 4.096720100944465 0.2495393819482365 0.005558495899675874 5:1 17:2 
-0 0.8676379136738653 0.4493779496938891 0.1732479468353997 0.24974644049449 1.435951673483975 7:1 17:2 
-0.36568664810466 0 0 0 0 0 8:1 15:1 17:2 
-0.9731056809236884 3.098718444544205 0.5864926414451762 0.2914668371266549 0.4193056213189559 0.3079271507856883 1:2 2:1 9:5 12:3 15:1 17:2 
-0.2119108862445474 1.25327654092146 0.5152161437184145 0.2499680244673599 0.310561835272067 0 10:1 11:1 17:2 
-0.1012347123910154 0.5852967138229166 0.8080351636770527 0.3261135524668305 0.1093234324018598 0.05399763530948935 11:1 15:1 17:2 
-0.3316836238630147 2.17542637823784 0.3172556110103831 0.218375592682915 0.2353454781390901 0.2435711239923501 9:1 12:3 15:1 17:2 
-1.372057565553604 0 0 0 0 0 1:1 2:1 3:1 13:1 17:2 
-0.2295165432518 3.143930136544199 0.8214405026239548 0.1794705133021136 0.3960846432339772 0.281830443325742 2:2 3:2 13:2 17:2 
-0.2356604246428849 7.251816057485834 0 0 0.005932084897534401 0 2:1 3:2 13:1 17:2 
-0.2037356205623665 0.9901855728898712 0.1723174390552637 0.007662372441731602 0.05775046912499747 0.05899904936628568 2:1 3:1 6:1 9:1 12:2 13:1 15:1 17:2 
-0 0.02832573732339849 0 0 0 0 2:1 3:1 5:1 13:1 17:2 
-0 0.02014802772549249 0 0 0 0 2:1 3:1 7:1 13:1 17:2 
-0.5388980213446224 2.960375101834286 0.489101675739273 0.2434793856314065 0.3461256779271222 0.2573169857861655 1:2 2:2 3:1 9:5 12:3 13:1 15:1 17:2 
-0 1.035509736074331 0 0 0 0 2:1 3:1 10:1 11:1 13:1 17:2 
-0 0.5131851507955005 0.2104096147695545 0 0 0 2:1 3:1 11:1 13:1 15:1 17:2 
-0.3087122109107636 2.210604994185899 0.394615561072528 0.2184707313335435 0.2994105226842792 0.215689698654914 2:1 3:1 9:1 12:3 13:1 15:1 17:2 
-0 0 0 0.06803689554171964 0 0 2:2 3:1 13:1 16:2 17:2 
-0 3.132348693577778 0 0 0 0 2:2 3:1 13:1 16:1 17:3 
-0 0 0 0.09107517213677278 0 0 2:2 3:1 13:1 16:2 17:3 
-0.2903603438129229 0.2426607532649163 0.2006346683546501 0.2380242550898744 0.2482286261090453 0.1785411713443503 2:2 3:1 13:1 16:3 17:3 
-0.1171810789611945 2.727338501062109 1.841920614163518 0.307172157098398 0.2129021155327104 0.1316902407506903 2:2 3:1 13:1 16:1 17:4 
-0.2611401891701542 0 0 0.08443279286447779 0.1873043057503371 0.1445108127169004 2:2 3:1 13:1 16:3 17:4 
-0.05452123858696096 0 0 0 0 0 2:2 3:1 13:1 16:1 17:5 
-0.5958967033586527 1.087525435846724 0.6801470273488158 0.4510204023011536 0.5799247038505349 0.3593335447109706 2:2 3:1 13:1 16:1 17:6 
-0.5811584779488665 1.777937510798891 0.58180563556075 0.4842112011565347 0.4538116781788452 0.3440200174092327 2:2 3:1 13:1 16:3 17:6 
-0.2662095762892459 -1.929021239043407 2.403689864473538 3.951974353834065 1.855597774001177 1.642083316532901 3:1 18:1 
-1.919419641902657 -0 0 0 0 0 3:1 8:1 18:1 
-3.716659053683703 -2.041735071620693 0.6977510802043754 0.3199968023545169 0.4313245317344809 0.308220276192266 3:1 8:3 18:1 
-0 -0.0877592526657953 0 0 0 0 2:1 3:2 8:3 13:1 18:1 
-0 -0 0.2050041804736168 0.07903001553288519 0.1565252240786855 0.1064399738694851 2:1 3:3 8:3 13:1 18:1 
-0 -0.756819083014487 0 0 0 0 2:1 3:2 8:1 13:2 18:1 
-3.543107460944084 -0.6961130337241523 0.344145205782944 0.1928948921912972 0.2027064495376858 0.4670818018659494 1:1 3:1 13:1 18:1 
-0 -1.530798635191713 0 0 0 0 2:1 3:2 8:1 13:2 15:1 18:1 
-0 -0.2572330464262474 0.1935730934040424 0.005184750647242336 0.1263598642937342 0.02561068936955341 2:1 3:2 4:1 6:1 8:1 13:2 15:1 18:1 
-0 -0 0 0 0.1495452467703939 0 3:2 6:1 13:1 15:1 18:1 
-0 -0 0.3687391599012988 0.03045588138381259 0.1728837069853922 0.3832035440280103 3:2 7:1 8:1 13:1 15:2 18:1 
-0 -0 0 0.01176638340946031 0 0 2:1 3:3 8:2 13:2 15:1 18:1 
-0.4787860994408884 -0.6744300999304906 0.5064599026262596 0.254263965642161 0.3594550965651586 0.2623852473801199 1:2 2:2 3:3 8:1 9:5 12:3 13:2 15:2 18:1 
-0.06030410671571822 -0.4858341438419056 0.08498485102311477 0.09730413545835437 0.05925559618042141 0 2:1 3:2 8:1 11:1 13:2 15:2 18:1 
-0.7122768242311672 -1.108961534337254 0.8390161297660884 0.4211215171308401 0.6279372467785983 0.4316120227604477 2:1 3:3 8:1 9:1 12:3 13:1 15:2 18:1 
-1.614062349422794 -0.01944586933899781 0 0 0 0 1:1 2:1 3:2 8:1 13:1 18:1 
-0.04749974487188338 -0 0 0 0 0 1:1 2:1 3:2 8:2 13:1 18:1 
-2.506150923246901 -1.17405577679554 0 0 0 0 1:1 2:1 3:2 8:3 13:1 18:1 
-0 -0 0.441236443963452 0.2154793013802736 0.3062288431599736 0.2297887305934616 1:1 2:1 3:3 8:3 13:1 18:1 
-0.4538688182746934 -0.8833183929687842 0.3044232432776438 0.1303116229135055 0.1886330242338449 0.1364378562757717 1:1 2:1 3:2 4:1 6:1 8:1 13:2 15:1 18:1 
-0 -0 0.02949992881394514 0.03739273104521462 0.03964184692548859 0.009857772893638496 1:1 2:1 3:3 8:2 13:2 15:1 18:1 
-0.5111972277469692 -0.5773144375915731 0.5285395602783991 0.2658140750322975 0.3739476451337541 0.273285261930704 1:3 2:2 3:3 8:1 9:5 12:3 13:2 15:2 18:1 
-0.237996311840283 -0.5139576989638778 0.07139909841574199 0.004822547692334187 0.06092307100569368 0.02267032648337636 1:1 2:1 3:2 8:1 10:1 11:1 13:2 15:1 18:1 
-0.3229545271438038 -0.8699020307416768 0.3119646737631338 0.1656485939449476 0.2092677475809149 0.1825302579103378 1:1 2:1 3:2 8:1 11:1 13:2 15:2 18:1 
-0 -0 0.4595001792416394 0 0 0 3:2 10:1 11:1 15:1 18:1 
-0 -0.2666659338928249 0 0 0 0 2:1 3:3 10:1 11:1 15:1 18:1 
-0 -0 0 0 0.03992192753043586 0 3:3 10:1 11:1 15:1 18:1 
-0.4281458180767297 -0.3788024859863476 0.6122814754915097 0.2909407312122766 0.4451218757431325 0.3337893416147626 2:1 3:4 10:1 11:1 13:1 15:1 18:1 
-0.1546053372953937 -2.014813508413944 0 0 0 0 2:1 3:2 13:1 16:1 17:1 
-0.6895530934175531 -0.5541591197362383 0.7215511579510684 0.5014281616319529 0.5722604642561967 0.4044673488659837 2:1 3:2 13:1 16:3 17:1 
-0 -5.282679172171515 0 0 0 0 2:1 3:2 13:1 16:1 17:2 
-0.09380277197590836 -0 0 0 0 0 8:1 17:3 
-0 -1.467388172326964 0 0 0 0 2:1 3:1 13:1 17:3 
-0 -0.217241516532664 0.3151526966885927 0 0.1321068565892759 0 13:1 15:1 17:3 
-0.2657287045801853 -0.3155754681896192 0 0 0 0 8:1 13:1 15:1 17:3 
-1.272085605898899 -0 0.2414444582074402 0 0 0 8:2 17:3 
-0.4783922644896937 -2.782459529915376 0.482129842248018 0.2296264710695579 0.3228126105132764 0.2133703539325101 8:3 17:3 
-0 -1.21816472764625 0 0 0 0 2:1 3:1 8:3 17:3 
-0.3281699533484921 -0.5259215023277389 0.4236705790316803 0.2294661021613333 0.3259477162509837 0.247602609471436 2:1 3:2 8:3 17:3 
-0 -0 0.167400991826809 0 0 0 3:1 8:1 13:1 15:1 17:3 
-0.3152374696288418 -0.4722002087401466 0.3108485960265571 0.1859747249204446 0.2703097527075892 0.2030057229134601 3:1 8:3 13:1 15:1 17:3 
-2.231396422770824 -0.7659551558642917 1.319630309061623 0.02969289944535 0.2467144074593848 0 1:1 17:3 
-0.4015293737220765 -2.929785858027616 0.3205191757842297 0.07684675925346197 0.2054766587807862 0.09306788461329973 2:2 3:1 8:1 17:3 
-0 -0 0.4068750600006804 0 0 0 3:1 17:3 
-0.2311553152076812 -1.136320734095394 1.808165791526076 0.1101850234211972 0.6134294222093083 0.106791245285134 6:1 9:1 12:2 15:1 17:3 
-0.02021889939528428 -0.7676910702802522 1.22052419885438 4.174517152053402 0.2585688158075952 0.143951901312733 5:1 17:3 
-0.02048555865786805 -0.7741712233484441 1.357684427513432 0.1732607157811219 0.2569180028938565 0.967056631997333 7:1 17:3 
-0.07705337114231214 -0 0.05914723376272833 0 0 0 8:1 15:1 17:3 
-0.6313384601816817 -2.985956404761605 0.6347496884061175 0.318703651547774 0.4546243310887589 0.3288181486919576 1:2 2:1 9:5 12:3 15:1 17:3 
-0.251334213344985 -1.165656650403319 0.4741456263649905 0.3704396192876941 0.2829719273048326 0.01810679118736297 10:1 11:1 17:3 
-0.01001239537568105 -0.6248318697345867 1.422892497007459 0.4933376601569997 0.1172637192433697 0.02713970654245912 11:1 15:1 17:3 
-0.3726692512939258 -2.096716724645686 0 0.2275709567224285 0.2668743674448109 0.2352628991541178 9:1 12:3 15:1 17:3 
-0.2008543135304483 -0.4459639115391792 0 0 0 0 1:1 2:1 3:1 13:1 17:3 
-0.4845736731700351 -4.680138821225865 1.673177007705764 0.2108759019598344 0.4204520187550683 0.3090026093670172 2:2 3:2 13:2 17:3 
-0 -0.7072662581265938 0 0 0 0 2:1 3:2 13:1 17:3 
-0.1948375701192663 -1.030177201859852 0.33836913559717 0.0822961048436343 0.1317835012401261 0.1048486250015795 2:1 3:1 6:1 9:1 12:2 13:1 15:1 17:3 
-0 -0.4523737754326252 0 0 0 0 2:1 3:1 5:1 13:1 17:3 
-0 -0.4456774304552543 0 0 0 0 2:1 3:1 7:1 13:1 17:3 
-0 -0 0.2651669940442077 0 0 0 2:1 3:1 8:1 13:1 15:1 17:3 
-0.5735612090363417 -2.902238164518245 0.6141761997842803 0.3091729439009688 0.4347034318967696 0.3183730414726691 1:2 2:2 3:1 9:5 12:3 13:1 15:1 17:3 
-0.06606528516415065 -1.107439530106107 0 0 0.05999246791473822 0.06705530419218918 2:1 3:1 10:1 11:1 13:1 17:3 
-0 -0.6442445038401624 0.8547253820208947 0 0 0 2:1 3:1 11:1 13:1 15:1 17:3 
-0.3581282612114223 -2.10591605402348 0.3629717029762867 0.2212244957337111 0.3085636391730048 0.2238100339153287 2:1 3:1 9:1 12:3 13:1 15:1 17:3 
-0 -0 0 0.3540199549061347 0 0 2:1 3:2 13:1 16:2 17:3 
-0.314175239363746 -0 0.3432343425412518 0.1164774341779593 0.2323969260078776 0.1721823237418152 2:1 3:2 13:1 16:3 17:3 
-0 -0 0.2073815569800884 0 0 0 2:1 3:2 13:1 16:1 17:4 
-0.2783349355406687 -0.8231090841693226 0 0.09528618077826401 0.2390585206162462 0.1661435840097453 2:1 3:2 13:1 16:3 17:4 
-0 -0 1.923862090432393 0.1861859599408037 0 0 2:1 3:2 13:1 16:1 17:5 
-0 -0.08708465356349709 0 0 0 0 2:1 3:2 13:1 16:2 17:5 
-0.6329721812740265 -1.353013940595592 0 0.4024690216714234 0.6127693403333236 0.3637662249678694 2:1 3:2 13:1 16:1 17:6 
-0.5953940331309413 -1.518477759705438 0.5096187111409708 0.4799297496971875 0.4421429092691395 0.3400505983666653 2:1 3:2 13:1 16:3 17:6 
-1.874841584236486 -1.139906191805086 -0.8180703872628513 3.964340066745165 1.157217691003166 0 4:1 18:1 
-2.248209023721134 -1.736014242701679 -1.510087353940426 7.626655650622411 1.270699598588168 0.4091269886081627 11:1 18:1 
-0.3673664182751524 -0.7531068250849905 -0.7786104137234333 0.2053639430214221 0.4473092738602039 1.090413561480792 11:1 15:1 18:1 
-0.3182150574803929 -0 -0 0.924998747165986 0.1924945412849535 0 14:2 18:1 
-0 -0 -0 0.1254707570138365 0 7.055691678145955 4:1 7:1 18:1 
-0 -0 -0 0 0 0.05802432782650092 4:1 7:1 11:1 15:1 18:1 
-0.5739337349886582 -1.354282781687919 -0.5973980344059865 0.2550539601867369 0.3887170143793202 0.3083786081176781 2:1 14:2 18:1 
-0 -0 -0.454803182678762 0 0 0 3:1 4:1 14:2 18:1 
-0 -0 -0 0 0.371707986684202 0 4:1 6:1 11:1 14:2 15:1 18:1 
-0.3105689330764698 -0.4210692612916977 -0.4128977303216765 0.1047815674340477 0.2785646566484553 5.287951944944395 4:1 7:2 14:1 18:1 
-0.6746127005251678 -0.7582549113769641 -0.6383798877184599 0.1227008800280244 0.3916529082158407 0.5237940643989766 1:2 2:1 4:2 7:1 11:1 15:1 18:1 
-0.4714868728527738 -0.6290331742284384 -0.922913777010744 0.07333919264041935 0.38250558049218 0.04077462195716133 3:2 4:2 7:1 11:1 14:1 15:1 18:1 
-0.05000351094496085 -0.2936189280441889 -0.2819136802352775 0 0.1720090738396919 0 4:3 7:1 18:1 
-0.5679946667070033 -0.3465119657688832 -0.369542667841821 0 0.2270240673747251 0 1:2 4:2 7:1 14:1 18:1 
-0.9728626739211458 -0.7858646164903267 -0.8029821681307544 0.1803348041331113 0.422819312493507 0.2642816600004994 4:1 8:2 14:2 15:1 18:1 
-0.103097592006075 -0.2520311087025453 -0.2605819507081504 0 0 0 4:1 11:2 14:2 15:1 18:1 
-0.8518138483794314 -0.7483854388929906 -0.6874456625866855 0.6373695635383125 0.6543965953038133 0.5940514410456326 4:2 16:3 17:1 
-0.3545556293110649 -0.8224711781086369 -1.021043311676735 0 0.1113068297471415 0 4:2 16:1 17:2 
-0.05070198110438672 -0 -0.1153565017422261 0 0.03689102075952003 0 4:2 16:1 17:3 
-0.04047864085072965 -0 -0 0.4866806697690736 0.1659516877053308 0.06791252478444436 4:2 16:2 17:3 
-0.2099203374712245 -0.2299609310991686 -0.2383229900058675 0.05202434816609112 0.1319075858930813 0.3640014748687134 4:2 16:3 17:3 
-0 -0 -0 0.6081279320577689 0 0 17:4 
-0.3125044715739635 -0.286509105773135 -0.3297248578926535 0.2600463069219667 0.2609343078822046 0.1215448705079348 14:2 17:4 
-0 -0 -1.069036960155682 0 0 0 11:1 15:1 17:4 
-0.2505314913303808 -0.4088815391287885 -0.4009203229370304 0.01979675630053426 0.2128266161565609 0.1661938288742071 11:1 14:2 15:1 17:4 
-0 -0 -0.3074382043556441 3.655377570301062 0 0 11:1 17:4 
-0.4035165084629521 -0.5618026880875399 -0.564810800878722 0.1102953520983696 0.3456975263093076 0.2096945519835835 4:2 11:1 15:2 17:4 
-0 -0 -0.2930627491045334 0 0.008322823381842469 0 1:1 15:1 17:4 
-0 -0.9302260176460941 -0.7510224836892097 0.1684558855588436 0.02103653150852632 0 2:1 17:4 
-0 -0.2604171180045662 -1.610052681396339 0.1699156597166229 0.02327373786153364 0 3:1 17:4 
-0.2177307627731084 -0.1973140081994544 -0.6096191450590174 1.274254723958457 0.1923508939162109 0.1075974941830744 5:2 15:1 17:4 
-0.3647520402255708 -0.3552444074726004 -0.3507775808664307 0.2567705984840461 3.935106946254205 0.1860353109854102 6:2 17:4 
-0.0819720309464439 -0.1975876190599412 -1.230914410256403 0.6226827290227476 0.1695279096562053 0.3074286845435089 7:1 17:4 
-4.068958669515022 -0.5775325404201609 -1.289693174254429 0.2871197013995759 0.3273842512231508 0.06229997161693984 1:1 8:1 17:4 
-0.3118282276465195 -1.421317182125879 -1.131388023831628 0.134246781970777 0.2403504749112346 0.188926883611879 2:2 3:1 13:2 15:1 17:4 
-0.3036448072774677 -0.4946237244245604 -1.916591113230147 0.1366122686440524 0.2422187160512576 0.1861653008853784 2:1 3:2 13:2 15:1 17:4 
-0.3380731256607824 -0.575731711984977 -0.5383895935803049 3.165361980576464 0.2769592195635328 0.2071388921409173 5:2 11:1 15:1 17:4 
-0.4185000920365122 -0.7711938498030664 -1.726600343284074 0.193170311983645 0.942030103246053 0.2645133831346804 6:2 9:1 12:2 15:1 17:4 
-0.04876765103536428 -0.1106556895546491 -0.0936089681429137 0 0.05460684741592514 0.2265919558410495 4:1 5:2 15:1 17:4 
-0.05401422995461617 -0.1148717028695125 -0.09182815758265474 0.004699999237623249 0.05231328294055218 0 4:1 6:2 17:4 
-0 -0 -0 0 0 0.7161871824465527 4:1 7:1 17:4 
-0.2417043822603483 -0.2923454242309425 -0.2942530870259712 0.1255034559386548 0.1941520230522834 0.1502046710278029 2:2 3:1 4:1 13:2 15:1 17:4 
-0.2453442192339935 -0.2945309867982507 -0.2890370365221003 0.1222268154311284 0.1913198011251824 0.1534651022182074 2:1 3:2 4:1 13:2 15:1 17:4 
-0.3901118864947642 -0.467707443197304 -0.4556985390491401 0.2174953087914292 0.3063788274820747 0.2499752042807685 4:2 11:1 14:2 15:1 17:4 
-0.07396402240494131 -0.04981120056776192 -0.05096955055891712 0.3711246309937228 0.0434665577678036 0.06562259352392433 4:1 5:2 11:1 15:1 17:4 
-0.3812548875021184 -0.4465189254501218 -0.4488642551645573 0.1969611362675479 0.2981972870257628 0.243151816633894 4:1 6:2 9:1 12:2 15:1 17:4 
-0.2168715374756043 -0 -0 0 0 0 4:2 16:2 17:4 
-0.3432230083447759 -0.3516125677377717 -0.3010764457658136 0.2137303892128032 0.3133179790147366 0.1787226202478099 4:2 16:3 17:4 
-0 -0 -0 0.1205306262515653 0 0 4:2 16:1 17:5 
-0.6841332898406756 -0.5123704643008721 -0.2933011513694335 0.9563494783647004 0.7071717949260803 0.4589963983123235 4:2 16:1 17:6 
-0.7151584012140053 -0.7620402040728318 -0.8323941884423248 0.4938257445446103 0.5012550188775607 0.6330859477732566 4:2 16:3 17:6 
-0 -0.1670981421355894 -0.02010049229896404 -4.67284074146571 0 0 5:1 11:1 18:1 
-1.016453918749129 -1.26997484768826 -1.23383970525397 -0 0.96931999608369 0.8143590997532596 5:2 11:1 15:1 18:1 
-0.4411495379912868 -0 -0 -0 0 0 5:1 16:1 17:1 
-1.404766604171914 -0.6234584526656867 -1.033898837770223 -1.232438001916768 1.127103635367627 1.003926351019921 5:1 16:3 17:1 
-0.6404080420461333 -4.0439710008945 -0.3965908293809674 -0 0.2727156415885091 0.1554312819051507 5:1 16:1 17:2 
-0.5803279175869405 -0.5153158653655118 -4.265228365717102 -2.681242304004914 0.4144998739722087 0.5170160216444807 5:1 16:1 17:3 
-0.4871124639354718 -0 -0 -0 0.4079398126096377 0.3040880478221231 5:1 16:3 17:3 
-0 -0 -0 -1.134392016167534 0 0 5:1 16:1 17:4 
-0.6502470523934718 -0.4807454997498354 -0.01190318868173942 -0.2510607936045198 0.4216868598560397 0.3856944264738513 5:1 16:3 17:4 
-8.357437094228516 -4.733375646189414 -4.462710993510291 -8.284686960182453 4.247050949176799 4.083674163060486 18:1 
-1.039950354992105 -0.8922753373464101 -1.347315128463738 -4.175102592991802 1.134417623308598 0.1021484723380259 11:1 17:5 
-0.5541897293192821 -0.6871072328648491 -0.7645142564456745 -0.9944026799980459 0.4561074240288203 1.357822341527939 4:1 5:1 7:1 11:1 17:5 
-0.6804906968464769 -0.9014936826195945 -1.06654190678346 -3.906930486449693 0.5946048219277794 0.3346841503396185 5:2 11:1 15:1 17:5 
-0.7713094558956695 -0.3049581888397002 -0.07302062822304096 -0 0.898544991570173 0.4973035737716061 5:1 16:1 17:6 
-1.490792005118493 -1.23239040467578 -1.377725613338955 -1.310699717711919 1.001521309994372 0.9288458447536314 5:1 16:3 17:6 
-2.882159993066208 -2.391505265846733 -2.338710005767639 -2.945001951811274 -4.105832566845741 2.016595386004406 6:1 18:1 
-0.5304055276265747 -0.3320963139873124 -0.343710739207774 -0.5316267084092526 -0.2943733220840554 0.4134068381276018 6:1 9:1 12:1 15:1 18:1 
-0.5941542114078949 -0.2614989090396249 -0.2249480607429835 -0.2105562530608188 -0.2869913842091465 0.1345148821973333 6:1 9:2 12:2 15:1 18:1 
-0.08832659565479777 -0.3521345684035991 -0.3913274865544509 -0.3298105267261375 -0 0.1458693332527013 6:2 9:2 12:2 15:1 18:1 
-0 -0.4761987683987779 -0.2087397477200148 -0.05353464974960318 -0.03310397558823724 0 6:1 9:1 12:2 15:1 18:1 
-0.4830905061594603 -0.6863258195489986 -0.6438082634241985 -0.5943250721322391 -0.306746193479228 0.3535176818946546 6:1 9:2 12:4 15:1 18:1 
-0.596682591034968 -0.5566121996058251 -0.580307852226933 -0.5986967400343917 -0.4210638634582275 0.3714205955511388 6:2 9:2 12:4 15:1 18:1 
-1.07373736730959 -1.013972780269535 -1.062458153582357 -1.095940482085481 -0.863633612751287 0.648450882493588 6:2 16:3 17:1 
-0.04012949111740312 -0.3469657086022079 -0 -0 -0 0 6:2 16:1 17:2 
-0.7659503143364713 -0.8682275897196039 -1.178633278725689 -0.7998317789125818 -0.3593912625985788 0.4438039851293761 6:2 16:1 17:3 
-0.2693445825645673 -0.1469416958445774 -0.1479505758907946 -0 -0.3613463816342093 0.1792564988352442 6:2 16:3 17:3 
-0.08812364347569089 -0.01561087956830903 -0.06473775889197782 -3.764634083546663 -0.4298158268335142 0.07292826701884518 6:2 16:1 17:4 
-0.4165518169493984 -0.4602120984349273 -0.4157710593678385 -0 -0.2152167552861236 0.2401905039232047 6:2 16:3 17:4 
-0.7882726820010869 -0.51620735329625 -0.5711224722278223 -0.8404531230485618 -1.152648814299913 0.3881012679000279 9:1 12:1 17:6 
-0 -0.1010767353273803 -0.05811265926969656 -0 -0 0.01752456424489476 9:2 12:2 17:6 
-0.1110807231211178 -0.1994210032764623 -0.2413903613429549 -0.17791965465156 -0 0.1014798475630861 9:1 12:3 17:6 
-0.5432653284132948 -0.5492766707837219 -0.5385709264018037 -0.5519318715275087 -0.3498833593439842 0.3329638255728491 9:2 12:4 17:6 
-0.4500719143688338 -0.4790669002428798 -0.5174886309047348 -0.4616079362402248 -0.4167865477536772 0.2792571335767143 9:1 12:1 15:1 17:6 
-0 -0.006380934002146135 -0.02716384694925813 -0 -0 0 9:2 12:2 15:1 17:6 
-0.3150760919801195 -0.3566732771253429 -0.3811161035489249 -0.3421965648036136 -0.1957498749717994 0.2041578094516861 9:2 12:4 15:1 17:6 
-0.2494576702907268 -0.3814038628223505 -0.3926570861001883 -0.985283949246031 -0.07940918278025404 0.1912648648243837 6:2 9:1 12:1 15:1 17:6 
-0.3729069139005033 -0.3895136339455312 -0.4078966655878888 -0.3506862898064284 -0.1791524995867977 0.2350001717154498 6:2 9:2 12:2 15:1 17:6 
-0.7133921092340541 -0.7996078774064873 -0.8055870814691862 -0.8576033474694719 -0.4912205200907506 0.4584418677641693 6:2 9:2 12:4 15:1 17:6 
-0.6597234337713883 -0.5593899979381929 -0.5312611532355891 -0.3270236662615196 -0.5998871766141083 0.3514731163357394 6:2 16:1 17:6 
-0.9447861626980428 -0.9230511705334978 -0.939948556854586 -0.8447102522997252 -0.803259819274621 0.5857265945934644 6:2 16:3 17:6 
-1.046228308677909 -2.198442848083065 -1.849814289555983 -4.636014541907612 -3.934462131953344 -1.996998526469537 7:1 18:1 
-3.317914295926026 -0.6317273269101139 -0.6322211754656741 -0 -0.2864564815917822 -0.3093552662099938 1:1 7:1 18:1 
-0 -0.03172122920322545 -0.128254114177791 -0.1710658606964892 -0 -0 4:1 5:1 7:2 18:1 
-0 -0.004558068803443521 -0.003903720331691509 -0 -0 -0.0374460344404179 1:1 4:1 5:1 7:2 18:1 
-0 -0 -0 -7.493183937351357 -0 -0 4:1 7:2 18:1 
-0 -0 -0 -1.616116164527208 -0 -0 1:1 7:1 14:1 15:1 18:1 
-1.130617753281959 -1.061560003769422 -1.09541121755307 -0.5341876470403421 -0.7922544402207271 -0.8933355679344023 1:1 7:1 14:1 15:2 18:1 
-0.7719035121727429 -0.9886306720089792 -0.9930854365147137 -1.215838395066781 -0.5647636210867214 -0.8062335541652051 1:1 4:1 5:1 7:3 14:1 15:1 18:1 
-0.03989483766871129 -0.09606177817263702 -0.09668787016278844 -0.1024731701311534 -0 -0.08890902373830727 4:1 5:1 7:2 16:1 17:1 
-1.13978928090725 -1.084653010195757 -1.153974373885247 -1.192697489730356 -1.065470029336033 -0.9690138777727439 4:1 5:1 7:2 16:3 17:1 
-0.06477602449619471 -0.520349124407533 -0 -0 -0.1346913994328203 -0 4:1 5:1 7:2 16:1 17:2 
-0.7569964153157481 -0.8949714029447037 -1.259335193136543 -0.7506213303168542 -0.2979226325198669 -0.6764882650782249 4:1 5:1 7:2 16:1 17:3 
-0.2769488471613989 -0.1382530989569497 -0.1677724129214826 -0.3501156961033542 -0.3636745397835492 -0.2393044661899456 4:1 5:1 7:2 16:3 17:3 
-0.1183430093843303 -0.05205323115648345 -0.09462675396217704 -0.76475400356005 -0.8095134064513688 -0.09030131888331072 4:1 5:1 7:2 16:1 17:4 
-0.4439580674172914 -0.5165530393087896 -0.4549207846325063 -0.2902523848117231 -0.2393570651767133 -0.3770781309526424 4:1 5:1 7:2 16:3 17:4 
-0.9899168208973679 -1.010957136989721 -1.008298541266931 -1.029364018274906 -1.185565699799032 -0.9102611633095296 4:1 5:1 7:2 16:1 17:6 
-0.9207670076529905 -0.9150184147488556 -0.9305641251368533 -1.00126092143383 -0.810862327058133 -0.7706207228262981 4:1 5:1 7:2 16:3 17:6 
