svm_type c_svc
kernel_type rbf
gamma 0.25
nr_class 7
total_sv 205
rho 0.159355 0.166171 0.0569071 -0.454732 -0.184413 -0.411629 0.115961 -0.0599289 -0.523249 -0.281459 -0.481674 -0.0901925 -0.556203 -0.309769 -0.499956 -0.562785 -0.229112 -0.399292 0.279192 0.00226829 -0.240905
label 1 2 3 4 5 6 7
probA -4.21793 -4.64967 -4.59788 -4.08006 -4.41535 -4.3611 -5.35132 -4.88066 -4.31137 -4.49063 -4.51255 -4.59278 -3.7124 -4.57527 -4.19603 -2.60701 -4.05616 -3.17237 -2.96828 -2.99575 -3.66538
probB 0.226816 0.087979 -0.169946 0.500333 0.249273 0.179968 0.10195 -0.215744 0.898433 0.0897438 0.0891005 0.235777 0.155639 0.132392 -0.0909618 -0.258689 -0.0957231 0.0669696 0.0832946 -0.0610549 -0.0944191
nr_sv 35 41 49 39 9 20 12
SV
1.081730636389056 0.7278533694538805 0.7612865576655615 0.238759733421372 0.5544320144832477 0.3905005223628381 1:3 2:2 3:1 13:1 18:1 
0.2282889504823052 0.09954219738265296 0.06464835505113804 0.03266643526176325 0.0661200607415828 0.03695040144440959 1:1 2:1 3:1 9:5 12:3 13:1 18:1 
0.491436568302805 0.4494765940522524 0.339062468957643 0.1756519190022503 0.2546733273405152 0.1871260919035298 1:3 2:2 3:1 9:5 12:3 13:1 18:1 
0.5267470164271845 0 0 0 0 0 1:2 2:1 9:5 12:3 15:1 18:1 
0 0.006555280346114441 0.002006050604799078 0.001027140005517131 0.05358054203094679 0 1:2 9:5 12:3 15:1 18:1 
0.4745162974554464 0.5049221790353131 0.4726193901941498 0.2439419726909939 0.3564717989787332 0.2645077506784781 1:3 2:1 9:5 12:3 15:1 18:1 
0.4884175693242138 0.5016739037168246 0.4538079300202264 0.2336554481612635 0.3619766819237812 0.2534949277597254 1:3 2:2 3:1 9:6 12:3 13:1 18:1 
0.4054511540489367 0.4152650377017879 0.3814022194045069 0.1973017365880869 0.2669472831164947 0.2121546517167848 1:1 2:1 3:1 9:6 12:3 13:1 18:1 
0.1126577190065939 0 0 0 0 0 1:2 2:1 9:6 12:3 15:1 18:1 
0.3437687266965694 0.4820998704016777 0.4360961906263868 0.224865491592154 0.2945255704824393 0.2428655606357694 1:2 9:6 12:3 15:1 18:1 
0.8404579747554377 0.8407144087227061 0.7701964430364004 0.3977343818896232 0.6578614306323709 0.4285915591739367 9:5 12:3 18:1 
0.2753561022863801 0.5325873497206565 0.5233097884795251 0.2634441399384697 0.4654580517677667 0.289785257905959 1:1 2:1 3:1 9:3 13:1 18:1 
0.6832272559870287 0.5727451937774776 0.5397153159034352 0.2727496132687506 0.3888959849461244 0.2979696100797414 1:2 2:2 3:1 9:3 13:1 18:1 
0 0 0.1091353433701 0 0.009330296844440443 1.078006653265197 1:1 8:1 15:1 18:1 
3.445935045106501 2.489406497390869 0 0 0 0 1:1 2:1 3:1 8:1 13:1 18:1 
0.5083453925558079 0.6552193423791007 0.709076845598069 1.133973354809395 0.5635330392431499 0 8:2 18:1 
0 2.49740309662111 0 0 0 0.1464576846883623 8:3 18:1 
0 0 0.2662022913988401 0 0.2272288104925657 0 1:1 8:3 15:1 18:1 
1.136957893339731 3.212597712675992 0.3035766029442149 0.008537147333028738 0.2311218526694873 0.1676390727826169 1:1 2:1 3:1 8:3 13:1 18:1 
1.276685401623162 1.184494478980696 2.631361431334661 4.014366783141424 1.894243197406345 2.197865716716628 1:1 18:1 
4.125341764585724 0.8701946416785649 0.3049688776926431 0 0.2452436892084908 0.2385311034028087 8:3 17:1 
0.4849497849588214 0 0 0 0 0 1:1 8:1 17:1 
0.7285585971590297 0.3095508229922413 0.391886954835143 0 0.2846265184712566 0.3318138062480914 1:2 2:1 9:1 15:1 17:1 
0.2863125615822302 0 0 0 0 0 1:1 2:1 3:1 8:2 13:1 17:1 
0.5065009659846911 0.5625440562164228 0.4306076718584063 0.2622493565257718 0.3368907519529191 0.2346041823204476 1:1 2:1 3:1 8:3 13:1 17:1 
1.716290049905251 0.9000443413189499 0.3965646022666851 0.3239491427892962 0.3097949383626736 0.176612083561502 1:1 2:1 3:1 9:1 13:1 17:1 
0.4452961147056289 0.652088135601028 0.7189428307222862 1.090601002542595 0.6813025836252971 0.5562686868671604 1:1 8:1 16:3 17:1 
2.808441698010513 1.420141313889237 0.9478645458475257 0.2569610578314414 0.2511960950806507 0.02666019780817545 1:1 8:1 16:1 17:2 
0 0.04083839753334977 0.005057549307252002 0.3537439897877605 0.1261253357279628 0.2303571287087414 1:1 8:1 16:2 17:3 
0.2074341028847839 0.4044652576731088 0.5153223257030718 0.439884282121737 0.4167247399798084 0.188375693917822 1:1 8:1 16:3 17:3 
0 0 0 0.06361388995025138 0 0 1:1 8:1 16:2 17:4 
0.4686367660650703 1.216253593671703 2.755427737419549 0.6941328108748903 0.22579229414335 0.1511553108826656 1:1 8:1 16:1 17:5 
0.794242559559003 0.6096765976810751 0.3106798701388533 0.5828749962786145 0.5956626279945777 0.4117084287589874 1:1 8:1 16:3 17:5 
0.6321528735472485 0.3043252297489594 0 0.2331092584003239 0.9348158297416717 0.3769476994672235 1:1 8:1 16:1 17:6 
0 0 0 0.1553658014455775 0 0.1179660119286616 1:1 8:1 16:2 17:6 
-2.150304094065742 0.05353387970925989 0 0.048495167837426 0 0 2:1 8:1 18:1 
-0.8318058374454582 1.468645998064536 0 0 0 0 2:2 3:1 8:3 13:1 18:1 
-0.5886511060519952 0.2478630868069839 0.3899631198691234 0.1016512119170325 0.3067893892915758 0.1823908328862838 2:2 8:3 18:1 
-0 0 0.1198736801299115 0.07361695495550931 0.09074780014097651 0.06505045028691933 2:3 3:1 8:3 13:1 18:1 
-0 1.846223885230357 0 0 0.0234911956577941 0 2:2 3:2 8:1 13:2 15:1 18:1 
-0.02960405104945399 0.1447719123181329 0.2770305274497872 0 0.3139037569966261 0.06777775067595447 2:3 6:1 13:1 15:1 18:1 
-0 0 0 0 0 0.2036971756510517 2:2 7:1 8:1 13:1 15:1 18:1 
-0.07411220346721828 0 0.4145888804796384 0.2337830966637261 0.3202410572600036 0.2185734180184409 2:3 3:1 8:2 13:2 15:2 18:1 
-0 0.2208511084941039 0.1181612659710742 0.007822907683879983 0.06149385236738734 0 2:2 3:1 8:1 10:1 11:1 13:2 15:1 18:1 
-2.620416399998535 0 0 0 0 0 1:1 2:2 3:1 8:1 13:1 18:1 
-0.7506889543919472 0 0 0 0 0 1:1 2:2 3:1 8:2 13:1 18:1 
-0 0.1104710643457969 0.4473276490481199 0.2303893832593633 0.3394462756950049 0.2456619679499778 1:1 2:3 3:1 8:3 13:1 18:1 
-0.3535414511017695 1.005777255282969 0.06237502748032944 0.05635713769593904 0.07876039908572534 0.07821350968721208 1:1 2:2 3:2 8:1 13:2 15:1 18:1 
-0.3878802368826648 0.771261436969372 0.3720529413831543 0.1251581250613517 0.269815308784483 0.1594459990550171 1:1 2:2 3:1 4:1 6:1 8:1 13:2 15:1 18:1 
-0.2708874646022146 0 0.1435213909073739 0.06497073233921365 0.09843118186542825 0.1010602194446034 1:1 2:2 3:1 8:1 10:1 11:1 13:2 15:1 18:1 
-0.305417373470581 1.055308788185318 0.3433348936745886 0.1698919844808325 0.2122082736713841 0.1620904797893448 1:1 2:2 3:1 8:1 11:1 13:2 15:2 18:1 
-1.022201196906262 0.6439631509515465 0.5521560053367774 0.2801057212236499 0.4303409893585713 0.3042969472928769 1:1 2:3 9:5 12:3 15:1 18:1 
-0.5323806719014541 0.8353269582096164 0.6660474068704779 0.3377229846855506 0.5061162167601811 0.3673621356875531 1:1 2:4 3:1 9:5 12:3 13:1 15:1 18:1 
-0.7309121973919126 1.823957840308333 0.7402983991839327 0.508424373159301 0.5409274742771815 0.3976186140696891 2:2 3:1 13:1 16:3 17:1 
-0.7123069685979657 1.291190704010907 2.789931275337022 4.073445720375301 1.932475237500719 1.834729725805293 2:1 18:1 
-0 0.2602981106903002 0.2746096110561452 1.591138375571631 0.308269381109723 0.01870458807620853 17:2 
-0.2950703169319162 0.9954719384735854 0.1483589592365427 0.04813797708383299 0.04629444882269035 0.02718922339924856 8:1 13:1 15:1 17:2 
-1.175481072579142 0.9381342605040981 0 0 0 0 8:2 17:2 
-3.582730357085689 2.047923982391921 0.628545822157452 0.3102995048722459 0.4479191149335066 0.3315159111311387 8:3 17:2 
-0 1.08919451228677 0 0 0 0 2:1 3:1 8:1 17:2 
-0.4961568143412707 0.6866279968736499 0.4152708508576648 0.1957557374072526 0.3220123124210176 0.219645563598219 2:1 8:3 13:1 15:1 17:2 
-2.590386438415189 1.799739923510929 0.7704788597704727 0.2625574685942136 0.3967007949146918 0.4490751316001915 1:1 17:2 
-0.4490677356719538 2.529106830475689 0.7749219058061839 0.285232102118525 1.007924518034093 0.3189686675028107 6:1 9:1 12:2 15:1 17:2 
-1.274994363684369 1.050407858452877 0.8803277688803116 0.4463784257794188 0.6783667463403936 0.485604107344863 1:2 2:1 9:5 12:3 15:1 17:2 
-0 0.6232584947206465 1.210175106580811 0.3982086033037471 0.3124682801678124 0.3348392514157827 11:1 15:1 17:2 
-1.431568906322282 0.8515878610617953 0 0 0 0 1:1 2:1 3:1 13:1 17:2 
-0.3310220171923594 4.651355014189086 0.7421758373879844 0.2004152707971804 0.3820155222569038 0.1944100666319757 2:2 3:2 13:2 17:2 
-0.1795649927712053 0.6705829143248496 0.1203038759634426 0 0.05037702826128363 0 2:1 3:1 6:1 9:1 12:2 13:1 15:1 17:2 
-0 1.716376872987134 0.039631362546722 0 0 0.3267120608154828 2:1 3:1 7:1 13:1 17:2 
-0.1043719105967676 2.441478307506484 0.2480227874452493 0 0.1436220863284628 0 2:1 3:1 10:1 11:1 13:1 17:2 
-0.5626750403811622 3.266311624722702 0.6135479346634727 0.3394877182134741 0.4727089862789329 0.3701966627060643 2:1 3:1 9:1 12:3 13:1 15:1 17:2 
-0 0.3322649209550465 0 0 0 0 2:2 3:1 13:1 16:1 17:3 
-0.4364453027086283 0.7445461498905921 0.1868269263712662 0.3383918325022184 0.374450621510174 0.2643471983257594 2:2 3:1 13:1 16:3 17:3 
-0.3479084849166129 3.647978561526884 1.855533407701058 0.4789093510568361 0.4613481278860399 0.2837097881839464 2:2 3:1 13:1 16:1 17:4 
-0.10899893463928 0 0 0.0319325642540586 0 0 2:2 3:1 13:1 16:3 17:5 
-0.7965846471721524 1.687001639563332 0.8099808638077685 0.4689510645268752 0.7169169832915632 0.5257578527355919 2:2 3:1 13:1 16:3 17:6 
-0.780171097601113 -0 0 0 0 0 3:1 8:1 18:1 
-4.112512592010945 -1.213382840145786 0.578165635743077 0.3035567330012098 0.4526079278101434 0.32247213206155 3:1 8:3 18:1 
-0 -0.7271527157739573 0 0 0 0 2:1 3:2 8:3 13:1 18:1 
-0 -0 0.2326423786698859 0.08490496077145118 0.1771722446430095 0.1168649073139691 2:1 3:3 8:3 13:1 18:1 
-0 -1.019858787394251 0 0 0 0 2:1 3:2 8:1 13:2 18:1 
-0 -1.192005604532471 0 0 0 0 2:1 3:2 8:1 13:2 15:1 18:1 
-0 -0.4672955135141088 0 0 0.1685536600487962 0 2:1 3:2 6:1 13:1 15:1 18:1 
-0.1293529689670779 -0 0.3330504291732951 0.03703453165628706 0.1981314041493384 0.3364154859631058 3:2 7:1 8:1 13:1 15:2 18:1 
-0.5058175741897877 -0.5779008788294188 0.5051877415206406 0.2459968204584689 0.3826779095274376 0.2771226116445213 1:2 2:2 3:3 8:1 9:5 12:3 13:2 15:2 18:1 
-0.184176365052123 -0.6093875207516635 0.1643527731549608 0.04388182464807799 0.1129179457086953 0.09133805185465607 2:1 3:2 8:1 10:1 11:1 13:2 15:1 18:1 
-0.004950783673447917 -0.07828677377388285 0.1162804183361859 0.09582435509008297 0.05660196629740019 0 2:1 3:2 8:1 11:1 13:2 15:2 18:1 
-0.7469958253338925 -0.9930564010443472 0.8267815751696878 0.4035938954736525 0.6592273899901595 0.451888669119737 2:1 3:3 8:1 9:1 12:3 13:1 15:2 18:1 
-2.127912121842289 -0.1915003764903883 0 0 0 0 1:1 2:1 3:2 8:1 13:1 18:1 
-2.391222951889351 -0.5176859614965984 0 0 0 0 1:1 2:1 3:2 8:3 13:1 18:1 
-0 -0 0.4416010172414311 0.221693464404901 0.3384298094726574 0.247640856987532 1:1 2:1 3:3 8:3 13:1 18:1 
-0.513620722595346 -1.060949453210258 0.4638304049796214 0.1544865635334796 0.3220792275346552 0.2262032268162416 1:1 2:1 3:2 4:1 6:1 8:1 13:2 15:1 18:1 
-0.5322821347889232 -0.4613262196080278 0.514959744345333 0.2514818464020596 0.3916230023498996 0.2838691639781442 1:3 2:2 3:3 8:1 9:5 12:3 13:2 15:2 18:1 
-0.4425345696170354 -1.342993719208781 0.33273849892427 0.179088315679426 0.2468675036968837 0.2016855978420658 1:1 2:1 3:2 8:1 11:1 13:2 15:2 18:1 
-0 -0 0.2048560568895984 0 0 0 3:2 10:1 11:1 15:1 18:1 
-0.2173533017632465 -0.1856596989882948 0.3218904117828976 0 0.2704277078837802 0.145629739713539 3:3 10:1 11:1 15:1 18:1 
-0.8277403355339455 -1.563211321273889 0.7837905201160122 0.4772133098825513 0.623678852494931 0.4673989080732927 2:1 3:2 13:1 16:3 17:1 
-0.1255455223335168 -2.737448960286294 0 0 0 0 2:1 3:2 13:1 16:1 17:2 
-0 -0 0 0.1787223586661776 0 0 2:1 3:2 13:1 16:2 17:2 
-1.487688554065048 -2.079520614842927 2.579460196234833 4.06141719826676 1.947093069265815 1.907328659836947 3:1 18:1 
-0.1246694244053381 -0.5242606000769717 0 0 0 0 8:1 13:1 15:1 17:3 
-0 -0.4978031834418356 0.7498736850557441 0.1345110858786195 0.1724304346264533 0 13:1 15:1 17:3 
-1.097028525694686 -2.045042495604149 0.6297671878482908 0.04065398849279729 0.1229454138662285 0 8:2 17:3 
-0.1130716943762926 -0.6086022743945692 0.1140504145953868 0.1311470656194935 0.1573889207441606 0.1518011972670286 3:1 8:3 17:3 
-0 -0.7470891167421012 0 0 0 0 2:1 3:1 8:2 17:3 
-0.2286840191330596 -0 0.3373690210254778 0.08686643659531045 0.2387801162745506 0.1490358370532564 2:1 3:2 8:2 17:3 
-0 -0 0.4504935854396233 0 0 0 3:1 8:1 13:1 15:1 17:3 
-0.5418451204220095 -0.8184674961776702 0.4023864700757637 0.2486130832156393 0.3757271121441247 0.2830578070231444 3:1 8:3 13:1 15:1 17:3 
-1.285942524623758 -1.54978214237135 1.453159126435716 0.005407021992570209 0.258344792636346 0 1:1 17:3 
-0 -0 0.8078436420426459 0 0 0 3:1 17:3 
-0.4626385521395201 -2.488057411324236 1.28603487943699 0.2657057531130364 0.7958619374267456 0.2616989514791352 6:1 9:1 12:2 15:1 17:3 
-0.02041771648225158 -0.2976095893132618 0.9462842440118485 4.04603855747401 0.2600336988647369 0.1584177588333036 5:1 17:3 
-0.01891340730747376 -0.1547357219401861 1.568423225921161 0.005619804497894109 0.2590568451469922 0.9754364108712071 7:1 17:3 
-0.2330544794314515 -0.4729193260223348 0.7530733625444697 0.254746719301462 0.3211024921348536 0.03310397616232433 10:1 11:1 17:3 
-0.2960407328875523 -0.9750523008523391 0.09408143765612945 0 0 0 1:1 2:1 3:1 13:1 17:3 
-0.5085435622846205 -4.606829128625552 1.648646577883337 0.2224923319181422 0.4638920117111145 0.3350759363932765 2:2 3:2 13:2 17:3 
-0.1047727789540028 -0.6369678866319577 0.3316275707350707 0.01300563946991158 0.07179115917103353 0.04318317513549207 2:1 3:1 6:1 9:1 12:2 13:1 15:1 17:3 
-0 -1.641024555935125 0.1064022642655246 0 0 0 2:1 3:1 7:1 13:1 17:3 
-0.1399881179384668 -2.241447816412827 0.2508573342434077 0 0.09244294391126506 0.08730985317477766 2:1 3:1 10:1 11:1 13:1 17:3 
-0.5668207445820771 -3.140295323756218 0.4374014279817821 0.3111930746037044 0.4396494144884502 0.3470309546285605 2:1 3:1 9:1 12:3 13:1 15:1 17:3 
-0 -0 0 0.0725595878127045 0 0 2:1 3:2 13:1 16:1 17:3 
-0.6698219558417008 -1.300932208068852 0.4313086569747092 0.4409173826258202 0.5485779355754621 0.3760392858117804 2:1 3:2 13:1 16:3 17:4 
-0 -0 2.120245451632774 0.1052106099965104 0 0 2:1 3:2 13:1 16:1 17:5 
-0.6041698321986594 -0.1907816235902607 0.02696105601416367 0.2853539360709768 0.5748919749748458 0.2798686160572877 2:1 3:2 13:1 16:1 17:6 
-0.3163782904037445 -1.592471281548459 0 0.1679572956252242 0.2053901938697388 0.2297576758632707 2:1 3:2 13:1 16:2 17:6 
-1.275144541263096 -1.1905477687689 -1.065198060666263 3.999761561911833 1.258625322810202 0 4:1 18:1 
-1.434045534794009 -1.428626701233672 -1.4179619888495 7.685431678622549 1.230723411691887 0.7487894985611501 11:1 18:1 
-0 -0 -0 0.1315379262752776 0 7.015150657392013 4:1 7:1 18:1 
-0.4323676876809774 -0.8442018705593948 -0.5703662988469319 0.211596544808191 0.4776302419526867 0.7179833700509078 11:1 15:1 18:1 
-0.7504535211586071 -0.7805584584649313 -0.8022654665399289 1.149689373889841 0.5778548766774316 0 14:2 18:1 
-0.1665623466055867 -0.2426110488938271 -0.2386180106993877 0 0.5127803813441779 0 4:1 6:1 11:1 14:2 15:1 18:1 
-0.4759963435981709 -0.5168769060226532 -0.5493348937383954 0.1006237069110241 0.3837153157104382 5.03106356100643 4:1 7:2 14:1 18:1 
-0.9972969429301419 -0.8948214983433356 -0.7581206672313558 0.1087932769993645 0.5451446490795588 0.484425694083278 1:2 2:1 4:2 7:1 11:1 15:1 18:1 
-0.1215236536848912 -0.2228338884270709 -0.6046272932796846 0 0.09498290754795319 0 3:1 4:2 7:1 11:1 15:1 18:1 
-0.2286812634992917 -0.233661446858883 -0.2334504308949233 0 0 0 4:1 9:1 11:1 14:2 15:1 18:1 
-0.06847816229369154 -0.1444843518788885 -0.09538027939664342 0 0.0762610900360942 0 4:2 7:1 12:1 14:1 18:1 
-0.5240474663440631 -0.5314417426967327 -0.4277809561186338 0 0.2650422174831268 0 4:2 16:2 17:1 
-0.6546980134766622 -0.5561687736537423 -0.6258125349644614 0.7237594414455718 0.5724088407779894 0.7743575424305267 4:2 16:3 17:2 
-0.08471164716148903 -0.4040858334405692 -0.8400560252356597 0.2968587297680523 0.08778839235534069 0 4:2 16:1 17:3 
-0 -0.04613428204453505 -0 0 0 0 4:2 16:3 17:3 
-0.2146533366227788 -0.142686417890293 -0.3396659295784502 0.2406339075338048 0.1906978858188804 0.1256816743947567 14:2 17:4 
-0 -0.009401392303306834 -0 0 0 0 11:1 15:1 17:4 
-0 -0 -0 0.7576439856791076 0 0 17:4 
-0.1859025479080533 -0.2057778103985173 -0.0928657171713026 0 0.1791919675637416 0.04766726292275037 4:1 14:2 17:4 
-0.3641895235009579 -0.5701319700805478 -0.4680998641087157 0.06724278773910046 0.3240180390010858 0.2191860671398712 11:1 14:2 15:1 17:4 
-0 -0 -0.3111325934427372 0 0 0 11:1 17:4 
-0.535411360306832 -0.6588821048721846 -0.5746982357678607 0.1611610451235935 0.4657171401187444 0.2869927750829603 4:2 11:1 15:2 17:4 
-0.03908827742077775 -0.0118946462302214 -0.05251021786129341 0.04459286818605101 0.009619730522178356 0.03539028987815315 4:1 11:1 14:2 15:1 17:4 
-0 -0.07919778691097557 -0.4621913281130872 0 0.1109626134444373 0 1:1 15:1 17:4 
-0.02048672444964923 -1.021146023006309 -0.6951886626822846 0.1665803929529433 0.1932423317701163 0 2:1 17:4 
-0 -0.236469946430359 -1.986556699076892 0.1553758586583388 0.1720720648155497 0 3:1 17:4 
-0.1695955641725832 -0.1021123630970106 -1.58215691778138 0.2424394119502945 0.3322705878742839 0.313443022909001 7:1 17:4 
-2.504405238249784 -0.6512215568514206 -1.433678650785376 0.2719318349811725 0.390528114257073 0.1146917763107012 1:1 8:1 17:4 
-0.589485170255303 -1.066219802747072 -2.321276426968311 0.2533224903859728 0.4610296337746443 0.360023343376239 2:1 3:2 13:2 15:1 17:4 
-0.5004559294726115 -0.664338724068481 -0.9340019737170772 4.986957301488998 0.4465631762372235 0.2956980879227774 5:2 11:1 15:1 17:4 
-0 -0 -0 0 0 0.797711713642425 4:1 7:1 17:4 
-0.5486265061369768 -1.200335282192599 -0.9847894946245968 0.2352719069922146 0.4365793375442861 0.3355778866872217 2:2 3:1 4:1 13:2 15:1 17:4 
-0.1573679383553644 -0.1423532170169604 -0.1166642593168912 0.04548265272248424 0.1235158784250441 0.2546137178348611 4:1 5:2 11:1 15:1 17:4 
-0.8156309182625394 -1.121240295998897 -1.645981916297518 0.373614547559183 1.247600149416722 0.5054421995760814 4:1 6:2 9:1 12:2 15:1 17:4 
-0 -0 -0 0.1322889073945889 0 0 4:2 16:2 17:4 
-0.447933836708502 -0.1508042215413592 -0.03352359722180497 0.1206981530279962 0.2968685546741102 0.1346084574525143 4:2 16:3 17:4 
-0.2082241430649202 -0 -0 0.04329542355026109 0.02943928717096342 0 4:2 16:1 17:5 
-0.1774620184345574 -0.4182129858291732 -0.5119490497773813 0.1891889823355363 0.1651684016728433 0.3669106651538252 4:2 16:3 17:5 
-0.8479000325682053 -0.6658932246010348 -0.5699739833470168 0.4698107107373629 0.7130409281553524 0.590239115842928 4:2 16:2 17:6 
-0 -0 -0.01329883496206306 -4.716593305284555 0 0 5:1 11:1 18:1 
-1.104587111642171 -1.109694316782005 -1.255986840198979 -0 1.012154547545685 0.8428110407332624 5:2 11:1 15:1 18:1 
-0.2337422565109846 -0.7991332120354154 -0.09722359595435381 -0 0.1135711239986631 0.06159153648432045 5:1 16:1 17:1 
-1.53283347214889 -0.9840290880226652 -1.10605606107424 -1.126516340937524 1.051962606329474 1.009639608243327 5:1 16:3 17:1 
-0.7478391064233196 -1.522496589367914 -4.288608102501674 -2.451350336000446 0.6192718602459584 0.578076188075212 5:1 16:1 17:3 
-0.8540196307104868 -0.4617255044197887 -0 -0.3839182501901129 0.6333098302721851 0.510487274014942 5:1 16:3 17:3 
-4.713213953290603 -4.703772508418825 -4.467941354472544 -8.331794963316183 4.283581787758665 4.113148470608747 18:1 
-1.190140973905533 -1.222747589713433 -1.611194613749434 -5.262637837146896 1.14046599379205 0.8481481169197524 5:2 11:1 15:1 17:5 
-1.518784381020365 -0.9040326886595386 -0.7365861493251243 -1.092774376754992 1.138722849965855 0.9511145375830458 5:1 16:2 17:5 
-2.321975952057687 -2.294739005846579 -2.281815993555727 -2.983697961116206 -4.114255799123376 2.052398820606333 6:1 18:1 
-0.2623407358697001 -0.3424099893105503 -0.3793886828596899 -0.2971176658036894 -0 0.1462481460744622 6:2 9:2 12:2 15:1 18:1 
-0.5590655305966602 -0.6207753330761607 -0.619196696407766 -0.563729889351944 -0.2875631317408951 0.3456126028995928 6:1 9:2 12:4 15:1 18:1 
-0.5300321860202544 -0.5575798001080025 -0.5745771119217029 -0.5751244325115491 -0.3894000232526456 0.3648941517239156 6:2 9:2 12:4 15:1 18:1 
-0.3632683724219771 -0.3295427641270394 -0.3452292999817103 -0.5287521103049012 -0.2873367269046425 0.3694515983041631 6:1 9:1 12:1 15:1 18:1 
-0.3931048836594905 -0.2477344721558394 -0.2204545329806514 -0.2038837343573374 -0.2633218217573055 0.1455009542800658 6:1 9:2 12:2 15:1 18:1 
-0 -0.4400120762010498 -0.2064823678868612 -0.0484783361032614 -0.02577701437048622 0.005267074652457423 6:1 9:1 12:2 15:1 18:1 
-0.1600144925701227 -0.3143213196906305 -0.1516808953004714 -0 -0 0 6:2 16:1 17:1 
-1.068942041293525 -0.9028954977379725 -0.9236495167630485 -0.948389125621957 -0.9077557236221613 0.6522977211729184 6:2 16:3 17:2 
-0.6386781535849193 -0.979784812659646 -1.099614096694724 -0.9899237644197918 -0.514928042579445 0.4554611063653756 6:2 16:1 17:3 
-0.2946087608106494 -0.07606814635557216 -0.1853574371552293 -0.4937345238850314 -0.3580586270084693 0.1074434613168159 6:2 16:1 17:5 
-0.7123224833449309 -0.6783225498114271 -0.6703486423276742 -0.6763677318099344 -0.5663566008392278 0.4336758217706873 6:2 16:3 17:5 
-0.3731720803687095 -0.5087196550253527 -0.4772240429072608 -0.336234201452181 -0.196417487526839 0.2907069981983473 9:2 12:2 17:6 
-0.2694118845249618 -0.2157414252848178 -0.2795751943991949 -0.3061570060654979 -0.1265989452055584 0.1309386186243992 9:1 12:2 17:6 
-0.7737692882121792 -0.5875221954536483 -0.7020606687550908 -0.8637548710662974 -0.6422725673090344 0.3753359582205003 9:1 12:1 15:1 17:6 
-0.3814080585227774 -0.427194071428284 -0.457761845934417 -0.4005227972172434 -0.2369649496797484 0.248209866364226 6:1 9:2 12:4 15:1 17:6 
-0.4302342887799086 -0.5442978967762991 -0.5437921986157132 -0.5877940841610296 -0.2029149221751279 0.2964691628922522 6:2 9:1 12:1 15:1 17:6 
-0.1837531273862158 -0.2018020509255665 -0.2329247846979293 -0.3672752648577939 -0.1258968385560995 0.1230839473722213 6:2 9:2 12:2 15:1 17:6 
-0.6976238988603497 -0.7436086926027707 -0.7508530533717722 -0.7478183112131316 -0.4220749028974543 0.4422034870658817 6:2 9:2 12:4 15:1 17:6 
-0.640849128503633 -0.6335116066931231 -0.6044099559240704 -0.4523276584053899 -0.3251464753600213 0.4014418666098247 6:2 16:2 17:6 
-0.02871838128889659 -0.1266053072939287 -0.1362128708965778 -0.2264909037314159 -0 -0.04157969617838202 4:1 5:1 7:2 18:1 
-1.671935922448258 -2.096287881636208 -2.085538328171768 -4.889539112967673 -3.951452342870593 -2.041953587118225 7:1 18:1 
-0 -0 -0 -7.112422119633935 -0 -0 4:1 7:2 18:1 
-2.362726596613011 -0.8694972931162737 -0.8153445163501386 -0.5998040736684739 -0.6093567221977881 -0.6894971178035794 1:1 7:1 15:1 18:1 
-0 -0 -0 -0.6258013842009069 -0 -0 1:1 7:2 14:1 15:1 18:1 
-0.911589265981656 -1.082365431575076 -1.101268128875343 -1.201129080919125 -0.5939681784202175 -0.9117355696541142 1:1 4:1 5:1 7:3 14:1 15:1 18:1 
-1.113446204256631 -1.11292698916408 -1.124429894336444 -1.14770502406289 -1.008064432345137 -0.9425683834827512 4:1 5:1 7:2 16:3 17:1 
-0.4587516832366794 -0.707590419734645 -0.9254690098383676 -0.4493273871716251 -0.3142569420140549 -0.4097885304409271 4:1 5:1 7:2 16:1 17:3 
-0.6072253993341312 -0.5522616316811307 -0.486098244394653 -0.5547005645777809 -0.5832643948144812 -0.5238712322570829 4:1 5:1 7:2 16:3 17:3 
-0.631951726023118 -0.5264265451906402 -0.6547905971663458 -1.282246980682617 -0.7263171862361479 -0.5611012076666738 4:1 5:1 7:2 16:1 17:4 
-0.5461001834022108 -0.5074196649565688 -0.4901947098885343 -0.4839491480518459 -0.4851540194207772 -0.4824040735049875 4:1 5:1 7:2 16:2 17:6 
-0.9024704324016721 -0.9572641354189499 -0.9673291470409748 -0.9825325999830871 -0.643182554343411 -0.7821419664077156 4:1 5:1 7:2 16:3 17:6 
