svm_type c_svc
kernel_type rbf
gamma 0.03125
nr_class 5
total_sv 104
rho 0.0285175 0.275124 -0.0606254 0.131996 0.445269 0.00574084 0.050385 -0.828687 -0.139582 0.49082
label 10 -3 5 0 -4
probA -4.3246 -4.49874 -4.28673 -3.98408 -3.98746 -3.75122 -3.5602 -3.81878 -3.97457 -3.34864
probB -0.40862 -0.0272426 -0.442722 -0.494028 0.333454 -0.0603846 -0.266388 0.321528 -0.54057 -0.291006
nr_sv 31 20 26 12 15
SV
1.653669445361729 0 0 0 6:1 21:0 48:1 63:0 79:1 84:1 94:1 97:1 105:1 118:1 
1.045590344659798 1.133321124591519 1.672901115403885 0 6:1 21:0 27:1 63:0 79:1 84:1 94:1 97:1 105:1 117:1 
0 0 11.91918950808308 0 6:1 21:0 48:1 63:0 79:1 84:0 94:1 97:1 105:1 118:1 
0.8799902878482592 0 9.590691789725964 0 6:1 21:0 27:1 63:0 79:1 84:1 104:1 105:1 117:1 
0.3014509627984399 0 3.277739261807328 0 6:1 21:0 48:1 63:0 79:1 84:1 104:1 105:1 118:1 
0 0 3.566356547759413 0 6:1 21:0 69:1 84:0 100:1 105:1 117:1 
0 0 0.663861225284447 0 6:1 21:0 48:1 63:0 79:1 84:0 104:1 105:1 118:1 
0.5148186057442458 0.6534549745389835 3.330072884635941 7.881084370668764 6:1 84:0 90:1 105:1 117:1 
0 0 1.37846336139127 0 6:1 21:0 27:1 63:0 79:1 84:0 104:1 105:1 117:1 
0.362388863376758 0.3396287093461364 0.2740601814044564 1.009300642441124 6:1 21:0 59:1 69:1 84:1 107:1 127:1 
0 0 0.2447121464405995 0 6:1 21:1 38:1 42:0 48:1 63:1 107:1 118:1 
0 0 0 0.006929378373149126 6:1 21:0 38:1 59:1 63:0 69:1 84:1 112:1 127:1 
0 0 0 2.425200013352926 6:1 21:0 38:1 59:1 63:0 69:1 84:1 112:1 127:1 
0 0 0.007527306383800721 0 6:1 21:1 38:1 42:0 48:1 63:1 112:1 118:1 
0.362793320663195 0.3445831077996294 0.2808309404248292 0 6:1 21:0 59:1 69:1 84:1 112:1 127:1 
0 0 0.2334905566652924 0 6:1 21:1 38:1 42:0 48:1 63:1 112:1 118:1 
0 0 0.06478448548883667 0.9665283286240759 6:1 21:1 38:1 42:0 59:1 63:0 69:1 84:1 110:1 127:1 
0.005216975532285671 0 0.4046709249833611 0 6:1 21:1 38:1 42:0 48:1 63:1 110:1 118:1 
0.002136453481078358 0 0 0 6:1 69:1 84:0 100:1 105:0 111:1 117:1 
0 0 0.0007292535541307665 0 6:1 21:0 48:1 79:1 84:0 94:1 97:1 105:1 111:1 118:1 
0.225322179172615 0.003364701753928539 0.2447494811545025 0.3661633074156913 6:1 21:0 48:1 79:1 84:0 94:1 97:1 105:1 111:1 118:1 
0 0 0.111710740897854 0 6:1 21:0 48:1 79:1 84:0 104:1 105:1 111:1 118:1 
0 0.06847186437093804 0 0 6:1 21:0 48:1 79:1 84:0 104:1 105:0 111:1 118:1 
0 1.703968499836681 0 0 6:1 79:1 84:0 104:1 105:1 111:1 117:1 
1.020729719998025 2.968325446400696 0 1.359686267398613 6:1 69:1 84:0 100:1 105:0 111:1 117:1 
0 0 0 0.1368854374439754 6:1 21:0 48:1 79:1 84:0 104:1 105:1 111:1 118:1 
0 0 0 1.60634445353408 6:1 21:0 38:1 59:1 63:0 69:1 84:1 111:1 127:1 
1.962231699887049 0.08806515899056408 0 0 6:1 21:1 38:1 42:0 48:1 63:0 111:1 118:1 
4.752017233551292 6.744363246289023 0 0 6:1 105:1 117:1 
0 0.8354573947627608 0.02576352367422848 0 6:1 21:1 38:1 42:0 59:1 63:0 69:1 84:1 111:1 127:1 
0.521968286105856 3.139781306875827 0.1434476380866588 0 6:1 21:1 38:1 42:0 48:1 63:1 111:1 118:1 
-0 0 0.368917990075333 0.1624079821939468 16:1 21:0 27:1 48:1 63:0 73:1 76:1 84:1 105:1 118:1 
-0.7494961873308874 0 2.164086218892782 0 16:1 21:0 48:1 73:1 76:1 84:0 97:1 105:1 118:1 
-1.340859078168283 1.606814224189401 1.199530784384041 0.9797709476527925 16:1 21:1 42:0 48:1 63:0 73:1 76:1 84:1 105:1 118:1 
-1.114872764954852 0 0.8620632520179651 0 16:1 21:0 42:0 63:0 73:1 76:1 84:1 94:1 97:1 105:1 117:1 
-0 0.183590134639621 0 0 16:1 21:0 27:1 42:0 63:0 73:1 76:1 84:1 97:1 105:1 117:1 
-0.379720426596622 2.183057600217626 0.379020686468278 1.034590192101715 16:1 21:0 27:1 42:0 63:0 73:1 76:1 84:0 97:1 105:1 117:1 
-0.01114564895251634 0 0 0 16:1 21:0 48:1 83:1 84:0 97:1 105:1 118:1 
-0.3029414286818553 0 0 0 16:1 21:1 42:0 48:1 63:0 83:1 84:1 105:1 118:1 
-0.7063823039448555 0 0 0 16:1 21:0 42:0 48:1 63:0 83:1 84:1 94:1 97:1 105:1 118:1 
-0 0 0.3744406376813821 0 16:1 21:0 42:0 63:0 83:1 84:0 97:1 105:1 117:1 
-0.7540038343430424 0 3.558597027320575 0 16:1 21:0 48:1 83:1 84:1 105:1 118:1 
-0.6696241702440361 0 0.3356427593451695 0 16:1 21:0 42:0 48:1 63:0 83:1 84:0 97:1 105:1 118:1 
-1.048981044300723 1.792189109651342 1.181529096552526 0.1229085902292091 16:1 21:1 42:0 63:0 83:1 84:1 105:1 117:1 
-0 0 0 0.9080876189257499 16:1 21:0 42:0 63:0 83:1 84:1 104:1 105:1 117:1 
-1.952196034304995 0 5.812723222017021 0 16:1 21:0 27:1 63:0 83:1 84:0 104:1 105:1 117:1 
-0.6653326431403929 5.009914274735464 1.058144791072613 0.8867380662143934 16:1 73:1 76:1 84:0 94:1 97:1 105:1 111:1 117:1 
-0.3606522479720914 1.821385089098841 0 0.0384711470931251 16:1 21:0 27:1 48:1 63:0 73:1 76:1 84:1 111:1 118:1 
-0 1.336727879933951 0 0 16:1 83:1 84:0 97:1 105:0 111:1 117:1 
-3.554116565245475 5.819829902045019 0.9532542206205489 5.587264489356691 16:1 83:1 84:0 111:1 117:1 
-0 0 0 0.01955679215667094 16:1 83:1 84:0 104:1 105:1 111:1 117:1 
-1.442701523033197 -0 0.1955816111776562 0.6712040159194298 10:1 13:1 21:1 27:1 42:0 58:1 63:0 105:1 126:1 
-0 -0 0.5716640646278234 0 10:1 13:1 21:0 27:1 58:1 63:0 76:1 84:0 94:1 97:1 105:1 126:1 
-0 -0.6352754002001142 0 0.03348004164086391 13:1 21:0 37:1 42:0 52:1 55:1 63:0 73:1 76:1 84:1 97:1 105:1 123:1 
-0 -0.04873207268540016 0 0 10:1 13:1 21:0 27:1 42:0 58:1 63:0 76:1 84:1 94:1 97:1 105:1 126:1 
-0.1286694192644072 -0 0 0.3799602140314617 13:1 21:1 37:1 42:0 52:1 55:1 63:1 105:1 123:1 
-0.5450571592673805 -0 0 0.344544147415201 10:1 13:1 21:0 42:0 58:1 63:0 76:1 84:1 94:1 97:1 105:1 126:1 
-0.004132846533599929 -0 0.7192328750115128 0 10:1 13:1 21:1 41:1 42:0 55:1 63:0 76:1 84:1 105:1 123:1 
-1.313929887245732 -0 0 0.2628601806327066 13:1 21:1 34:1 42:0 52:1 55:1 63:1 105:1 123:1 
-0 -0.2762334927065999 0 0.2594336511704159 13:1 21:1 34:1 42:1 52:1 55:1 63:1 105:1 123:1 
-0 -0 1.446131716470178 0 20:1 21:1 27:1 58:1 63:0 105:1 126:1 
-0 -2.351715717584797 0 0 20:1 21:1 27:1 42:0 58:1 63:0 83:1 84:1 105:1 126:1 
-0.04316323217827224 -0 0 0 20:1 21:0 27:1 42:0 58:1 63:0 76:1 84:1 104:1 105:1 126:1 
-1.450964902009119 -0 19.9038448266855 0 13:1 21:1 37:1 42:0 62:1 63:1 105:1 123:1 
-0.2450569042577063 -0 0 0 20:1 21:0 42:0 58:1 63:0 76:1 84:1 104:1 105:1 126:1 
-0.4458231949523281 -1.816817727123013 0 0.3321068990516983 13:1 21:1 37:1 42:0 62:1 63:0 83:1 84:1 97:1 105:1 123:1 
-0 -0 1.972661661536261 0 20:1 21:1 41:1 42:0 55:1 63:1 76:1 84:1 105:1 123:1 
-0.5705685461948836 -0 2.248456983340472 0.193545548962976 13:1 21:1 34:1 42:1 62:1 63:1 105:1 123:1 
-0 -0 16.50780378066168 0 20:1 21:1 37:1 42:0 62:1 63:1 105:1 123:1 
-0.7116894358780768 -0.3206127383422549 0.6185405607938612 0.4254489185859254 20:1 21:0 42:0 58:1 63:0 83:1 84:1 105:1 126:1 
-1.010411914762963 -4.109641088495849 0 1.286376928729866 10:1 13:1 73:1 76:1 84:0 111:1 117:1 
-0 -1.892441512452784 0 0 20:1 73:1 76:1 84:0 111:1 117:1 
-0 -0 0.2703494822601795 1.023437898952888 13:1 21:0 62:1 111:1 123:1 
-0 -2.588818609126139 0 0 20:1 76:1 84:0 94:1 97:1 105:0 111:1 117:1 
-0 -0.8504049397308524 0 0 13:1 21:0 62:1 73:1 76:1 84:0 97:1 105:1 111:1 123:1 
-8.883602088560428 -2.295395654458549 3.443957595209703 7.380046355852104 20:1 111:1 117:1 
-1.227014481418592 -2.567419261604911 1.115901648363417 0.4138503191950797 20:1 76:1 84:0 97:1 105:1 111:1 117:1 
-0.003844170126771433 -0.06111578156042567 -0 0 69:1 84:0 90:1 105:1 117:1 
-1.040441788065845 -0 -0 0 21:0 48:1 79:1 84:0 94:1 97:1 105:1 118:1 
-0 -0.008222139716758663 -0 0 21:0 48:1 84:0 100:1 105:1 118:1 
-2.271378876956714 -1.872248980808319 -1.63306864484917 0.3627561431548592 21:0 27:1 63:0 79:1 84:0 94:1 97:1 105:1 117:1 
-10.36576759009014 -0.7055984979764303 -0 0.1894542346687344 21:0 48:1 63:0 79:1 84:0 94:1 97:1 105:1 118:1 
-0.5094264777175291 -0.8409053912275631 -32 0.5715264553663548 21:1 37:1 42:0 62:1 63:1 105:1 123:1 
-3.663257638941998 -0.4410916485615881 -0.9339900461872424 21.1369456194666 69:1 84:0 90:1 105:1 117:1 
-3.33026088457021 -1.58114844820177 -0.1262397709750883 0.4147845155413724 21:0 48:1 63:0 79:1 84:1 104:1 105:1 118:1 
-11.52584396128092 -3.724176387676096 -1.824107364511512 0.5260870580920778 21:0 27:1 63:0 79:1 84:1 104:1 105:1 117:1 
-1.437178899622957 -3.585230588783405 -2.376924723785561 0 69:1 84:0 105:1 117:1 
-2.776363829496757 -4.58126812196925 -2.08630597226756 0.7705157259049057 21:0 48:1 84:0 100:1 105:1 118:1 
-0.5119887563800374 -0.8469446999666282 -8.033490283562113 0.5742664094780594 21:1 41:1 42:0 62:1 63:1 105:1 123:1 
-2.494135508656282 -1.439219173661333 -1.450464593923342 -9.137240765195392 17:1 69:1 84:0 90:1 105:1 107:1 117:1 
-0.2977869126508914 -0 -0 -0 17:1 80:1 84:0 101:1 105:0 107:1 117:1 
-0.3042738844624655 -0 -0 -0 17:1 21:0 38:1 59:1 63:0 69:1 84:1 90:1 105:1 107:1 127:1 
-0.009235373683638696 -0 -0 -0 17:1 80:1 84:0 101:1 105:0 112:1 117:1 
-0.03131457317377077 -0 -0 -0 17:1 21:0 38:1 59:1 63:0 69:1 84:1 90:1 105:1 112:1 127:1 
-0.1405032119678519 -0 -0 -0 17:1 80:1 84:0 90:1 105:0 112:1 117:1 
-1.962041658053023 -1.439219173661334 -1.448371474568052 -9.134073544352797 17:1 69:1 84:0 90:1 105:1 112:1 117:1 
-0.6078348859919298 -0 -0 -0 17:1 80:1 84:0 101:1 105:0 112:1 117:1 
-1.653558843847833 -0 -0 -0 17:1 21:0 38:1 59:1 63:0 69:1 84:1 90:1 105:1 112:1 127:1 
-1.407074945854448 -0.3793525165613345 -0.277628089010509 -1.83704623063563 17:1 80:1 84:0 101:1 105:0 110:1 117:1 
-1.583375627462118 -0.1340597936696251 -0.1533252141051236 -0.9998114120630638 17:1 21:0 38:1 59:1 63:0 69:1 84:1 90:1 105:1 110:1 127:1 
-1.654714766315082 -1.044949299353515 -1.915377903760156 -1.468050182230791 17:1 80:1 84:0 90:1 105:0 111:1 117:1 
-0.6887795639461718 -0.002168917414808537 -1.105609896481778 -1.970114027195292 17:1 21:0 59:1 69:1 84:0 90:1 105:1 111:1 127:1 
-1.204342916140576 -4.152853736689641 -5.818269597007371 -0 17:1 80:1 84:0 101:1 105:0 111:1 117:1 
-1.719149527046316 -1.147973214912704 -0.837248351284284 -0 17:1 21:0 38:1 59:1 63:0 69:1 84:1 90:1 105:1 111:1 127:1 
