svm_type c_svc
kernel_type rbf
gamma 0.03125
nr_class 5
total_sv 137
rho -0.135939 -0.0711252 0.148762 -0.437793 0.0317716 0.249555 -0.0249497 0.517522 0.0644206 -0.772826
label -4 10 -3 5 0
probA -4.40324 -4.13337 -4.44785 -3.96608 -4.92555 -5.08546 -4.90262 -4.84875 -4.40452 -4.66327
probB 0.620199 0.390132 0.773848 0.457767 -0.391647 -0.000382157 -0.393315 0.288932 -0.0380709 -0.0404865
nr_sv 15 30 33 41 18
SV
0.1941581205861965 0 0 0 17:1 80:1 84:0 90:1 105:0 107:1 117:1 
1.367260956124108 1.107272981725086 1.121341168653137 7.337462917374327 17:1 69:1 84:0 90:1 105:1 107:1 117:1 
0.7573170817815953 0 0 0 17:1 80:1 84:0 101:1 105:0 107:1 117:1 
1.559470691162391 0 0 0 17:1 21:0 38:1 59:1 63:0 69:1 84:1 90:1 105:1 107:1 127:1 
0.1668171368719732 0 0 0 17:1 80:1 84:0 90:1 105:0 112:1 117:1 
1.385572165896698 1.107832586096659 1.117197614390733 7.333088484977684 17:1 69:1 84:0 90:1 105:1 112:1 117:1 
0.7717931197587993 0 0 0 17:1 80:1 84:0 101:1 105:0 112:1 117:1 
1.554185341767524 0 0 0 17:1 21:0 38:1 59:1 63:0 69:1 84:1 90:1 105:1 112:1 127:1 
0.677744700591572 0 0 0 17:1 80:1 84:0 101:1 105:0 110:1 117:1 
0.9211979167887926 0 0 0 17:1 21:0 38:1 59:1 63:0 69:1 84:1 90:1 105:1 110:1 127:1 
1.438934756864301 0.8963282933470352 1.720732394394545 0.8902793539248105 17:1 80:1 84:0 90:1 105:0 111:1 117:1 
0.5383448972530762 0 0.817703110556832 1.348823277847403 17:1 21:0 59:1 69:1 84:0 90:1 105:1 111:1 127:1 
1.305681798709474 4.591738193258843 6.114481205807534 1.361293454060058 17:1 80:1 84:0 101:1 105:0 111:1 117:1 
1.370773496634064 1.094566763575179 1.089349615449185 0.6888159476761682 17:1 21:0 38:1 59:1 63:0 69:1 84:1 90:1 105:1 111:1 127:1 
1.789821534330609 1.108652801766007 1.117197614390729 7.337462917374339 17:1 69:1 84:0 90:1 105:1 110:1 117:1 
-1.862112643914069 0 0 0 6:1 21:0 38:1 59:1 63:0 69:1 84:1 107:1 127:1 
-0 1.215692912814297 0 5.529541418319976 6:1 21:0 48:1 63:0 79:1 84:1 94:1 97:1 105:1 118:1 
-0 0.6010499552108108 0 4.08519781638178 6:1 21:0 27:1 63:0 79:1 84:1 94:1 97:1 105:1 117:1 
-0 0 0 5.387334527400746 6:1 21:0 48:1 63:0 79:1 84:0 94:1 97:1 105:1 118:1 
-0 1.046512482596543 0 4.997003365013319 6:1 21:0 27:1 63:0 79:1 84:1 104:1 105:1 117:1 
-0 0.2538558473538853 0 3.225568286780386 6:1 21:0 48:1 63:0 79:1 84:1 104:1 105:1 118:1 
-0 0 0 3.665000044574626 6:1 21:0 69:1 84:0 100:1 105:1 117:1 
-0 0 0 1.333820706058816 6:1 21:0 48:1 63:0 79:1 84:0 104:1 105:1 118:1 
-7.899662275831929 0.5302984457246827 0.6329497537688558 3.442570078772237 6:1 84:0 90:1 105:1 117:1 
-0 0 0 3.707525841534955 6:1 21:0 27:1 63:0 79:1 84:0 104:1 105:1 117:1 
-0 0.1424974466040893 2.809860149187831 0 6:1 79:1 84:0 94:1 97:1 105:0 111:1 117:1 
-0 0 1.585771629618045 0 6:1 79:1 84:0 104:1 105:0 111:1 117:1 
-0 0 0 0.002285792779213249 6:1 21:1 38:1 42:0 48:1 63:1 112:1 118:1 
-0 0.2480749859857329 0.2494707281916039 0.2027048212705859 6:1 21:0 59:1 69:1 84:1 107:1 127:1 
-0 0 0 0.3333105014090125 6:1 21:1 38:1 42:0 48:1 63:1 107:1 118:1 
-1.869395419956302 0 0 0 6:1 21:0 38:1 59:1 63:0 69:1 84:1 112:1 127:1 
-0 0.2443454535625197 0.2496352425007288 0.212607207509959 6:1 21:0 59:1 69:1 84:1 112:1 127:1 
-0 0 0 0.3193747292091568 6:1 21:1 38:1 42:0 48:1 63:1 112:1 118:1 
-0.6732301832784821 0 0 0 6:1 21:1 38:1 42:0 59:1 63:0 69:1 84:1 110:1 127:1 
-0 0 0 0.3418994611522583 6:1 21:1 38:1 42:0 48:1 63:1 110:1 118:1 
-0.3691174033108902 0.78120961375857 0 0.2395583889515012 6:1 21:0 48:1 79:1 84:0 94:1 97:1 105:1 111:1 118:1 
-0 0 0 0.06954423993935156 6:1 21:0 48:1 79:1 84:0 104:1 105:1 111:1 118:1 
-1.401409289577433 1.001404760319803 2.247134067626377 0 6:1 69:1 84:0 100:1 105:0 111:1 117:1 
-0.1361976658985772 0 0 0.0234873961204658 6:1 21:0 48:1 79:1 84:0 104:1 105:1 111:1 118:1 
-0.9021464585255931 0 0 0 6:1 21:0 38:1 59:1 63:0 69:1 84:1 111:1 127:1 
-0 1.899092074423291 0.1199218855734726 0 6:1 21:1 38:1 42:0 48:1 63:0 111:1 118:1 
-0 4.94906082450583 7.180860836900572 0 6:1 105:1 117:1 
-0 0 0.8367521652357884 0.07942404281373566 6:1 21:1 38:1 42:0 59:1 63:0 69:1 84:1 111:1 127:1 
-0 0.5310464986632576 2.635295719721574 0.1490016793298157 6:1 21:1 38:1 42:0 48:1 63:1 111:1 118:1 
-0.6858023748278992 0.2437059080592 0.2511801038886156 0.197330061867414 6:1 21:0 59:1 69:1 84:1 110:1 127:1 
-0 -0.08341137566989523 0 0 16:1 21:0 27:1 42:0 48:1 63:0 73:1 76:1 84:1 94:1 97:1 105:1 118:1 
-0 -0 0.7390901692175939 0.140757970870541 16:1 21:1 27:1 42:0 63:0 73:1 76:1 84:1 105:1 117:1 
-0.7292916581391882 -0.606425496182201 0 0.7182623247935936 16:1 21:0 42:0 63:0 73:1 76:1 84:0 97:1 105:1 117:1 
-0.1293989096118821 -0.01725589994152635 0 0.4009248279303227 16:1 21:0 27:1 48:1 63:0 73:1 76:1 84:1 105:1 118:1 
-0 -0.5305329063719141 0 1.749754958086834 16:1 21:0 48:1 73:1 76:1 84:0 97:1 105:1 118:1 
-0.178053018403024 -1.096548611253068 0.4122011605548062 0.8468872860272268 16:1 21:1 42:0 48:1 63:0 73:1 76:1 84:1 105:1 118:1 
-0 -0 0.02807116570571268 0 16:1 21:0 27:1 42:0 48:1 63:0 73:1 76:1 84:0 97:1 105:1 118:1 
-0 -0.03683118671628394 0.1874501242599144 0 16:1 21:0 27:1 42:0 63:0 73:1 76:1 84:1 94:1 97:1 105:1 117:1 
-0.03521677031243467 -0.5719002836491659 0.1227515011902243 1.333893508386549 16:1 21:0 42:0 63:0 73:1 76:1 84:1 94:1 97:1 105:1 117:1 
-0 -0 0.03714877970396795 0 16:1 21:0 27:1 42:0 63:0 73:1 76:1 84:0 97:1 105:1 117:1 
-0 -0 0.06605942769155494 0 16:1 21:0 27:1 48:1 63:0 83:1 84:1 94:1 97:1 105:1 118:1 
-0 -0.4691933601715987 0.2244821186591434 0 16:1 21:1 42:0 48:1 63:0 83:1 84:1 105:1 118:1 
-0 -0 0.1511688270862454 0.7487729445166226 16:1 21:0 42:0 48:1 63:0 83:1 84:1 94:1 97:1 105:1 118:1 
-0.2465817088434295 -0 0 0 16:1 21:0 27:1 63:0 83:1 84:1 105:1 117:1 
-0 -0.3100186009440501 0 0.01846979224972885 16:1 21:0 42:0 63:0 83:1 84:1 94:1 97:1 105:1 117:1 
-0.2477255755539262 -0.2143561117510049 0 0.1297631651423108 16:1 21:0 42:0 63:0 83:1 84:0 97:1 105:1 117:1 
-0.6375683198251985 -1.070151338352338 0 3.722399849020186 16:1 21:0 48:1 83:1 84:1 105:1 118:1 
-0 -0 0.499710998007462 0 16:1 21:1 27:1 42:0 48:1 63:0 83:1 84:1 105:1 118:1 
-0 -0.2288668364093949 0 0.3524933164386095 16:1 21:0 42:0 48:1 63:0 83:1 84:0 97:1 105:1 118:1 
-0 -0 0.1853346498930648 0 16:1 21:1 27:1 42:0 63:0 83:1 84:1 105:1 117:1 
-0.6500735456728217 -1.066010440721568 1.12614033990538 1.639587014779634 16:1 21:1 42:0 63:0 83:1 84:1 105:1 117:1 
-0.4786641560571865 -2.101152136992965 0.0813356712624428 4.824699563236098 16:1 21:0 27:1 63:0 83:1 84:0 104:1 105:1 117:1 
-2.318756859919292 -1.770185340114989 8.969294422777018 1.113014476378453 16:1 73:1 76:1 84:0 111:1 117:1 
-0 -0 0.6641273699948054 0 16:1 21:0 48:1 73:1 76:1 84:0 97:1 105:0 111:1 118:1 
-0.187971860061111 -0 0 0 16:1 83:1 84:0 94:1 97:1 105:1 111:1 117:1 
-0.01508153485833172 -1.347948269438727 0 0.879415437166596 16:1 21:0 48:1 83:1 84:0 94:1 97:1 105:1 111:1 118:1 
-0.07704830521236762 -0 1.06439331322075 0 16:1 73:1 76:1 84:0 94:1 97:1 105:1 111:1 117:1 
-0 -0 0.03643405885027937 0 16:1 21:0 27:1 48:1 63:0 73:1 76:1 84:1 94:1 97:1 105:1 111:1 118:1 
-0 -0 2.050517037824954 0 16:1 83:1 84:0 97:1 105:0 111:1 117:1 
-0 -0 0.1298394885364181 0 16:1 21:0 27:1 48:1 63:0 83:1 84:1 94:1 97:1 105:1 111:1 118:1 
-3.504674036550928 -2.142142717882606 4.907560361802042 0 16:1 83:1 84:0 111:1 117:1 
-0.4702853607476895 -0 0.4793342471682313 0 16:1 83:1 84:0 104:1 105:1 111:1 117:1 
-0 -0.02491629701921506 0 0 16:1 21:0 48:1 83:1 84:1 111:1 118:1 
-0.1867647991162255 -0 -0 0 10:1 13:1 21:0 27:1 58:1 63:0 76:1 84:1 105:1 126:1 
-0.482848901128781 -0.6894356350733931 -0 0 13:1 21:1 37:1 42:0 52:1 55:1 63:0 105:1 123:1 
-0 -0 -0.003572566601405077 0 13:1 21:1 37:1 42:0 52:1 55:1 63:0 73:1 76:1 84:1 97:1 105:1 123:1 
-0.1570646643994797 -0.9876902365639201 -0 0 10:1 13:1 21:1 42:0 58:1 63:1 105:1 126:1 
-0.02884595679089667 -0.6356418170322378 -0 0 10:1 13:1 21:0 42:0 58:1 63:0 76:1 84:0 94:1 97:1 105:1 126:1 
-0.2429067409143019 -0.4220927773250636 -0.5429805407030927 0 13:1 21:1 34:1 42:0 52:1 55:1 63:1 84:1 105:1 123:1 
-0 -0 -0.02809782447370826 0 20:1 21:1 27:1 42:0 58:1 63:0 73:1 76:1 84:1 105:1 126:1 
-0 -0.3714892436826189 -0 0 13:1 21:1 37:1 42:0 62:1 63:0 105:1 123:1 
-0 -0 -0 0.1920907567679553 20:1 21:0 27:1 58:1 63:0 76:1 84:0 104:1 105:1 126:1 
-0.702418636700207 -1.034589909396224 -0.1800564534149027 0.6321883878077064 13:1 21:0 37:1 42:0 62:1 63:0 83:1 84:1 97:1 105:1 123:1 
-0.03663304633261111 -0.8690896190730849 -0 1.819679974306744 13:1 21:1 34:1 42:0 62:1 63:1 105:1 123:1 
-0.5743333450617072 -0.5240797316683029 -0 0.1000627257009919 10:1 13:1 21:1 27:1 42:0 58:1 63:0 105:1 126:1 
-0 -0 -0.1334464825391372 0 13:1 21:0 37:1 42:0 52:1 55:1 63:0 73:1 76:1 84:1 97:1 105:1 123:1 
-0 -0 -0 0.07785562863759643 10:1 13:1 21:1 31:1 34:1 42:0 55:1 63:0 76:1 84:1 105:1 123:1 
-0 -0 -0.1088995583279187 0 10:1 13:1 21:0 27:1 42:0 58:1 63:0 76:1 84:1 94:1 97:1 105:1 126:1 
-0.1278752309052967 -0.3381992886242988 -0 0 10:1 13:1 21:0 42:0 58:1 63:0 76:1 84:1 94:1 97:1 105:1 126:1 
-0 -0 -0.2305755759743682 0 13:1 21:1 37:1 42:0 52:1 55:1 63:0 73:1 76:1 84:1 97:1 105:1 123:1 
-0 -0 -0 0.8362927085090663 10:1 13:1 21:1 31:1 34:1 42:0 55:1 63:1 76:1 84:1 105:1 123:1 
-0 -0.1196619450480912 -0 0 13:1 21:1 34:1 42:0 52:1 55:1 63:1 105:1 123:1 
-0 -0 -0.5379200078541524 0 20:1 21:1 27:1 42:0 58:1 63:0 73:1 76:1 84:1 105:1 126:1 
-0.2320735267232436 -0.1515566010452463 -0 2.585851426744322 13:1 21:1 34:1 42:1 52:1 55:1 63:1 105:1 123:1 
-0 -0 -0 0.6900447534780073 20:1 21:1 27:1 58:1 63:0 105:1 126:1 
-0 -0 -0 0.8809940094992705 20:1 21:1 27:1 42:0 58:1 63:1 105:1 126:1 
-0 -0 -0.5709465031647507 0 20:1 21:1 27:1 42:0 58:1 63:0 83:1 84:1 105:1 126:1 
-0 -0 -0 15.63599852368381 13:1 21:1 37:1 42:0 62:1 63:1 105:1 123:1 
-0 -0 -1.078151134339723 0 13:1 21:1 37:1 42:0 62:1 63:0 83:1 84:1 97:1 105:1 123:1 
-0 -0 -0 3.994629995007879 20:1 21:1 41:1 42:0 55:1 63:1 76:1 84:1 105:1 123:1 
-0.2174285621322757 -0.2433441688270482 -0 4.037251904401036 13:1 21:1 34:1 42:1 62:1 63:1 105:1 123:1 
-0 -0 -0 0.4237722207600184 20:1 21:1 42:0 58:1 63:1 105:1 126:1 
-0 -0 -0 18.64594610249563 20:1 21:1 37:1 42:0 62:1 63:1 105:1 123:1 
-0.1851911741198341 -0 -0 0.1520916459894428 20:1 21:0 42:0 58:1 63:0 83:1 84:1 105:1 126:1 
-0 -0 -0.002130209190946672 0 20:1 76:1 84:0 94:1 97:1 105:0 111:1 117:1 
-0 -0 -6.840024620156636 0 20:1 83:1 84:0 111:1 117:1 
-1.282123786678531 -0.9335564738858544 -5.139667694645204 0 10:1 13:1 73:1 76:1 84:0 111:1 117:1 
-0 -0 -4.009898345777249 0 20:1 73:1 76:1 84:0 111:1 117:1 
-0.6293369708907786 -0 -0 0 13:1 21:0 62:1 111:1 123:1 
-0 -0.3602370487521905 -0.9264152957335626 0 20:1 76:1 84:0 94:1 97:1 105:0 111:1 117:1 
-0 -0 -0.8745119458132776 0 13:1 21:0 62:1 73:1 76:1 84:0 97:1 105:1 111:1 123:1 
-7.622230999345287 -10.33383509785702 -0 2.403324091063433 20:1 111:1 117:1 
-0.3899263824032389 -0.7103562071920596 -0.7548618829471153 0.2606059531605727 20:1 76:1 84:0 97:1 105:1 111:1 117:1 
-0 -0.07397648116681237 -0.2002885916548605 1.775316298454871 13:1 21:1 41:1 55:1 63:0 111:1 123:1 
-0 -0.009808142932050994 -0 -0 69:1 84:0 90:1 105:1 117:1 
-0 -0.2682189645835492 -0 -0 21:0 48:1 79:1 84:0 94:1 97:1 105:1 118:1 
-0.5414364425762002 -9.348246758668322 -3.482329517592822 -1.219356103677799 21:0 48:1 63:0 79:1 84:1 94:1 97:1 105:1 118:1 
-0 -0.008139309400090994 -0 -0 21:0 48:1 84:0 100:1 105:1 118:1 
-0.5998352334087844 -0.489782198234979 -0.5736852325920238 -7.117976025864051 21:1 31:1 34:1 42:1 55:1 63:1 105:1 123:1 
-0 -0.005757404442619509 -0 -0 21:0 27:1 63:0 79:1 84:1 104:1 105:1 117:1 
-0 -0.2044520086839688 -0 -0 21:0 27:1 63:0 79:1 84:0 104:1 105:1 117:1 
-0.0155910672326065 -0.1524450479695468 -0.4523335757461496 -2.334254881011 21:1 41:1 42:0 55:1 63:1 105:1 123:1 
-0.08406448460832656 -4.461712365495923 -0.337269394083436 -0 21:0 27:1 63:0 79:1 84:0 94:1 97:1 105:1 117:1 
-0 -1.032421836164196 -0 -0 21:0 48:1 63:0 79:1 84:0 94:1 97:1 105:1 118:1 
-0.2892539340326006 -0.374730070618847 -0.7103976898651528 -32 21:1 37:1 42:0 62:1 63:1 105:1 123:1 
-23.40387475426008 -3.739106227960661 -0.475291179735058 -0.8957995124850455 69:1 84:0 90:1 105:1 117:1 
-0.5712675011951277 -9.022711836839413 -4.049523850246253 -2.242150797958235 21:0 27:1 63:0 79:1 84:1 104:1 105:1 117:1 
-0 -1.466968673363248 -3.762387156076026 -1.183105105085271 69:1 84:0 105:1 117:1 
-0.5186896810881495 -2.863521592047225 -4.483760816789109 -0.8212807237736839 21:0 48:1 84:0 100:1 105:1 118:1 
-0 -0.2174806111011542 -0 -0 21:0 27:1 63:0 79:1 84:0 104:1 105:1 117:1 
-0 -3.639456186062169 -0 -0 21:0 48:1 79:1 84:0 104:1 105:1 118:1 
-0.2732132548329155 -0.2391311726213405 -0.2921180222972715 -7.330073956613268 21:1 41:1 42:0 62:1 63:1 105:1 123:1 
