svm_type c_svc
kernel_type rbf
gamma 0.00390625
nr_class 5
total_sv 87
rho -1.92645 -0.367921 -0.748505 -1.23344 -0.00281452 -0.207103 0.232608 -0.105604 0.157674 0.195504
label 10 0 -3 -2 -4
probA -4.15063 -3.48678 -3.48353 -3.80613 -2.88874 -3.26302 -1.67798 -2.68173 -2.00283 -1.81966
probB -0.179021 -0.608369 -0.800543 -0.450096 0.0803569 -0.0682385 -0.625166 -0.105457 -0.257525 -0.166454
nr_sv 38 22 10 10 7
SV
3.916115428988477 0 0 0 7:1 
32 0 30.35378475697974 0 7:1 67:1 80:0 
0 18.10700290709925 0 0 7:1 61:1 80:0 
32 0 19.96766583275411 17.58346607822173 1:1 20:0 47:1 
30.54337419903401 0 2.970049122016505 0 5:1 18:1 67:1 80:0 
32 0 0 0 7:1 20:0 45:1 58:1 
32 0 0 0 5:1 18:1 67:1 80:0 81:1 100:1 
0 7.881499304041101 0 0 7:1 20:0 45:1 58:1 61:1 80:1 
32 17.9456511370873 9.722839173106111 0 1:1 20:1 25:1 38:1 47:1 60:0 
7.701919100663122 0 0 0 7:1 20:1 45:1 58:1 60:0 
0 0 0 3.395694178081736 5:1 18:1 80:0 87:1 100:1 
32 0 0 0 5:1 18:1 67:1 80:0 100:1 
3.725670944000455 0 0 0 7:1 20:0 45:1 58:1 80:1 
32 0 0 0 7:1 20:0 
0 32 0 0 7:1 20:0 61:1 80:1 
32 32 0 0 1:1 20:1 47:1 60:0 
32 0 0 24.16347601439803 7:1 20:0 
32 0 13.92505677967949 0 18:1 20:0 60:0 67:1 80:1 
20.69020291700786 0 0 0 7:1 20:1 40:0 58:1 60:0 
32 31.69404028155933 7.789451914807835 26.02382036505746 18:1 20:0 60:0 80:1 87:1 100:1 
1.981310394551986 0 28.96340851233752 3.489446176580294 7:1 75:1 80:0 81:1 100:1 
0 0 0.05889761153228323 0 1:1 20:1 27:1 55:1 60:0 
0 0 5.116331212682494 1.301294972877665 1:1 20:1 27:1 40:0 55:1 60:0 
4.512579109564861 0 0 0 1:1 20:0 34:1 55:1 60:0 67:1 80:1 87:1 100:1 
32 0 0 0 7:1 20:0 54:1 67:1 80:0 95:1 100:1 
0 0 0.005334830696959281 0 1:1 20:1 27:1 40:0 55:1 60:1 
32 0 0 0 1:1 20:0 34:1 55:1 60:0 67:1 80:1 87:1 100:1 
0 0 23.18269878204173 0 5:1 18:1 74:1 80:0 87:1 100:0 
0 0 14.65797372773621 0 7:1 20:0 25:1 38:1 54:1 60:0 75:1 80:0 81:1 100:1 
11.70251520632196 0 0 0 1:1 20:1 27:1 40:0 55:1 60:0 67:1 80:1 
29.24002330945009 0 4.391133522151542 2.309310295069588 1:1 20:0 34:1 40:0 55:1 60:0 67:1 80:1 87:1 100:1 
2.611507131848536 0 0 0 7:1 20:1 35:1 40:0 41:1 60:0 67:1 80:1 
25.02409588665489 1.65634162018161 0 0 7:1 20:0 40:0 54:1 60:0 67:1 80:1 95:1 100:1 
0 0 0.1233060080579592 0 1:1 20:1 27:1 40:1 55:1 60:1 
0 0.2024599972538694 0 0 5:1 18:1 20:1 36:1 40:0 56:1 60:0 67:1 80:1 101:6 
0 0 0 2.167772317382001 5:1 18:1 20:0 56:1 67:1 80:1 101:5 
0 0 0 11.18282846652805 5:1 18:1 20:0 36:1 56:1 60:0 67:1 80:1 101:5 
0 0 0 12.5372853046766 7:1 20:1 36:1 40:0 45:1 58:1 60:0 101:5 
-0 0.5010869144160605 0.4309822837693599 32 65:1 78:1 80:0 87:1 100:1 
-32 0 10.20535564858046 0 20:0 45:1 58:1 67:1 80:1 
-32 24.13998190547032 17.34527613542073 0.6184751069983327 20:1 25:1 38:1 47:1 60:0 
-32 0 32 0 67:1 80:0 
-32 0 0 0 67:1 80:0 81:1 100:1 
-32 0 0 0 80:0 87:1 100:1 
-32 0 0 0 20:0 67:1 80:1 
-32 5.861293863249002 2.290431453547887 0 80:0 87:1 100:1 
-32 0 0 0 20:0 67:1 80:1 
-3.308239935274611 0 0 0 67:1 80:0 100:1 
-32 32 0 1.988893064487766 20:1 47:1 60:0 
-32 0 32 2.583445595855872 67:1 80:0 
-32 24.37384913388076 32 3.960443801811136 80:0 87:1 100:1 
-32 30.00099749703267 9.587211875202195 1.973523687945621 20:0 67:1 80:1 
-1.067551398168845 0 0 0 80:0 98:1 100:0 
-0 0 0.003187702760296562 23.45936624967941 20:0 78:1 80:0 87:1 100:1 
-32 0 5.124566372871823 25.76318225088234 80:0 98:1 100:0 
-28.88242737631422 0 0 5.882508128953274 20:0 78:1 80:0 100:1 
-32 0 0 0 20:1 40:0 58:1 60:0 67:1 80:1 
-32 2.036535643851648 20.85852452630494 0 20:0 54:1 67:1 80:0 95:1 100:1 
-32 0 10.59133365659061 0 20:0 34:1 55:1 60:0 67:1 80:0 95:1 100:1 
-12.39109491832858 4.166971598221415 32 1.926920437627516 20:0 45:1 58:1 74:1 80:0 87:1 100:0 
-32 -13.37221430218349 22.93112030134398 14.55752509484151 15:1 20:0 47:1 61:1 80:1 
-3.824215119713242 -0.3966975385271109 0 0 15:1 20:0 34:1 47:1 60:0 61:1 80:1 
-20.28825325852974 -23.22462621448978 0 0 15:1 20:1 40:0 47:1 60:0 61:1 80:1 
-32 -32 32 32 15:1 20:0 54:1 80:0 87:1 100:0 
-32 -32 0.01053242548960767 0.0424547724594686 15:1 20:1 40:0 47:1 60:0 61:1 80:1 
-0.05606200653557818 -0 0 0 15:1 20:1 27:1 40:0 47:1 60:0 61:1 80:1 
-2.597524983236298 -0 0 1.571880812212342 15:1 20:0 54:1 61:1 80:0 87:1 100:1 
-0 -0 0.9180248461157504 3.784736919076003 15:1 20:0 34:1 40:0 47:1 60:0 61:1 80:1 87:1 100:1 
-18.05869159457212 -21.58399666799984 17.84455963348822 0.6040970274764516 15:1 20:0 25:1 38:1 54:1 60:0 61:1 80:0 87:1 100:1 
-0.6622482846354806 -0.5031818329216455 0.4560103340148927 0.5802015165047263 15:1 20:1 27:1 40:0 47:1 60:1 61:1 80:1 
-32 -32 -32 32 14:1 80:0 87:1 100:0 
-28.47903237857757 -32 -20.90248773111518 16.56342127447006 14:1 75:1 80:0 100:0 
-0 -2.519268351293453 -0 0 14:1 67:1 80:0 95:1 100:0 
-12.85082162287074 -0 -0 0 14:1 75:1 80:0 81:1 100:0 
-24.78277745287907 -32 -1.294903669436983 5.010217585108723 14:1 67:1 80:0 95:1 100:0 
-0 -32 -1.089105615853699 0 14:1 67:1 80:0 87:1 100:0 
-30.24546372677059 -0 -0 0.5981377546606563 14:1 75:1 80:0 81:1 100:0 
-0.1363353486497375 -32 -0.1015523701559029 0.6001923631373388 14:1 20:0 45:1 58:1 67:1 80:0 95:1 100:0 
-0.733501256832786 -9.917601303754845 -0.4552514565598847 0.01793886939606506 14:1 20:0 45:1 58:1 75:1 80:0 81:1 100:0 
-32 -32 -18.3169466973308 6.62145750092395 14:1 20:0 25:1 38:1 60:0 67:1 80:0 87:1 100:1 
-17.68139888310294 -32 -16.90081502332273 -25.63328123726998 16:1 65:1 78:1 80:0 87:1 100:1 101:1 
-22.56379695753054 -21.50773886703821 -10.06039513146727 -11.92146654392943 16:1 76:1 80:0 85:1 98:1 100:0 101:1 
-0 -28.0740632601472 -0 -0 16:1 20:0 56:1 65:1 78:1 80:0 87:1 100:1 101:1 
-32 -17.21145814536928 -19.66241602230439 -23.45071578445111 16:1 76:1 80:0 96:1 100:0 101:1 
-25.05081407952936 -1.363498051686574 -6.517269965476101 -0.4059017820462704 16:1 20:0 36:1 56:1 60:0 65:1 78:1 80:1 87:1 100:1 101:1 
-6.195097130826309 -0 -0 -0 16:1 76:1 80:0 96:1 100:0 101:6 
-0.6632871178840068 -0 -0 -0 16:1 20:0 36:1 56:1 60:0 65:1 78:1 80:1 87:1 100:1 101:6 
