svm_type c_svc
kernel_type rbf
gamma 0.03125
nr_class 5
total_sv 51
rho 0.0681747 0.0318855 -0.0305204 0.149267 -0.018091 -0.0363321 0.0872154 0.0053282 -0.0476546 -0.240112
label 4 10 0 -3 -4
probA -3.55856 -3.86537 -2.87133 -3.42486 -4.17084 -3.1843 -3.76985 -3.2035 -4.03993 -3.08314
probB 0.350949 0.578046 -0.388502 0.1841 0.223078 -0.703909 -0.162182 -0.61903 -0.45376 0.469679
nr_sv 8 15 14 6 8
SV
2.657815758016917 0.6625032209783835 0.1906600936749454 1.016520722945276 11:1 21:1 63:1 69:1 
1.435862429420292 11.97982161887602 0.3248078643056638 1.014408817516346 11:1 37:1 63:1 69:1 
12.55040461728838 0.3423052906490064 0.007024122460386706 10.72515548392253 11:1 
0.1117155136392501 2.0824352315692 0.5065936882948427 0.2873264308155217 11:1 36:1 37:1 39:1 
0 0 6.973433400052549 0 11:1 37:1 
0 8.03058367106609 0.500305879713682 0 11:1 31:1 37:1 
0.1822037514329866 0.5301075237924613 0.4986195031095934 0.2844444111805997 11:1 20:1 21:1 23:1 
0 11.35355334157386 2.449594282142388 0 11:1 21:1 
-9.942954604702747 11.01586392062632 3.152826814074994 2.414065930252807 5:1 
-0.4687510403011048 1.166888772074591 0.4628041283833141 0.4597093817233274 5:1 79:1 
-0.01908558103775992 0 0 0 5:1 63:1 69:1 
-0 0.03706361116509308 0.03375790342127966 0.1028180753932652 5:1 59:1 79:1 
-0 0 0 0.3781869234452973 5:1 27:1 47:1 
-0.01188180927309105 0 0 0 5:1 48:1 
-0.1271141253291936 0.2302201694189984 0.2478691959537762 0.3150549848946772 4:1 5:1 7:1 59:1 
-0 15.74934566859437 0.04477299240253037 0 5:1 59:1 
-0.7923997782266169 0.8295187285702865 0.1974011233715279 0.1677564341507733 5:1 21:1 47:1 59:1 
-0.1682197375974385 0.2933821840018443 0.2636149666896591 0.2646234235686383 4:1 5:1 7:1 75:1 
-0 0.3798212099251432 2.734758514297108 0.09476112421261289 5:1 75:1 
-4.182754982493056 2.570524754394031 0.5008173998095647 2.416247438731984 5:1 63:1 69:1 
-0.7564677450002851 0.5834039380697219 2.723519162977335 0.2252151483476299 5:1 21:1 47:1 75:1 
-0 0.02206497861057304 0.01924577267255466 1.62552102297464 5:1 48:1 
-0.4683726658365264 0.4990637495359329 0.4911736496130937 5.28582662637479 5:1 32:1 48:1 
-0 -0 6.171487871305709 29.72610112127652 53:1 
-0 -0.7303622753515767 0 0.1918966484405382 21:1 59:1 
-0 -0.5079905521233389 0 0.1629560888386326 43:1 
-0.2460956475230974 -0.7410445097561081 0.519945036797827 0.4818952884421103 53:1 79:1 
-12.50896627076033 -2.193752963694966 0 0.6221098936719083 37:1 63:1 69:1 
-0.4813879800701231 -0.01604910448173826 8.321006631805206 0.3061723623843338 21:1 43:1 
-0.2443214457817496 -0.7518847750255285 14.39359956474084 0.4783087794734482 53:1 75:1 
-7.860788610560231 -0 0 0 31:1 37:1 
-0 -16.08186338787274 0 0.1254018801374216 59:1 
-1.709546969380852 -0 0 0.1717516189946134 36:1 37:1 39:1 59:1 
-0 -0.9397807633222381 0 0 
-0 -10.32779237130334 0 0 
-0.07802711885683795 -0 0 0.4479019519686652 32:1 37:1 
-11.8521758555718 -1.086640982055336 0 0 21:1 
-0 -0.03674253213987627 -0 0 15:1 37:1 53:1 75:1 
-1.470424286550977 -5.297199825251793 -12.14744582481014 2.98626092280419 15:1 21:1 53:1 75:1 
-0 -2.778589103862637 -12.37875922767433 5.580422734721609 15:1 43:1 53:1 
-1.473142851028228 -0 -0 0 15:1 21:1 43:1 53:1 
-0 -0.393853917704485 -2.615178024836001 0 15:1 37:1 53:1 75:1 
-8.507471696174846 -2.366176244707946 -2.26465602732911 5.579789147344462 15:1 37:1 53:1 
-0 -0.1179213855143951 -0 -0 16:1 53:1 
-0 -0.01058476414073502 -0 -0 16:1 64:1 80:1 
-0 -0.110999326371628 -0 -0 16:1 48:1 64:1 69:1 
-7.03836285459368 -2.362730149821667 -30.45113122997242 -12.78052760289181 16:1 53:1 
-3.732760005410976 -2.300580994351627 -1.035442971206606 -0.2703496597524829 16:1 64:1 69:1 
-2.078101021511847 -1.932688279846763 -0.4856187074360629 -0.3937893548504368 16:1 64:1 80:1 
-0.08310174536196145 -1.721696560556079 -0 -0.1257997032280411 16:1 48:1 64:1 69:1 
-0.3955302395018093 -5.192585053467551 -0.7423027250130986 -0.5760064841474891 16:1 32:1 48:1 53:1 
