svm_type c_svc
kernel_type rbf
gamma 0.25
nr_class 7
total_sv 220
rho -0.307767 0.757208 -0.0500845 0.142261 -0.3094 -0.377146 0.848998 0.228191 0.410808 -0.0335743 -0.100886 -0.529907 -0.346162 -0.769522 -0.775841 0.239759 -0.223926 -0.312132 -0.454947 -0.483238 -0.078306
label 10 4 -1 -3 -2 0 -4
probA -4.67457 -4.77193 -4.87946 -4.94586 -4.57561 -4.48962 -4.08586 -4.25203 -4.32259 -4.15448 -3.88427 -3.77817 -4.23788 -4.07163 -4.72698 -4.44058 -4.23383 -4.03076 -4.42545 -4.13375 -3.86854
probB -0.666079 0.987016 -0.294516 -0.28199 -0.412316 -0.917505 1.53026 0.198837 0.303269 0.0293347 -0.302545 -0.826511 -0.895718 -0.623924 -1.14217 0.0412707 -0.0985024 -0.462881 -0.239084 -0.548999 -0.329619
nr_sv 26 15 118 16 33 7 5
SV
0 0 0.02693525364960625 0 0 0 4:1 7:1 23:1 91:1 
0.2719809149672305 0.3577000782624187 0 0.09959410229327233 0.5115344971221222 0.5245844457791647 4:1 61:1 64:1 
0 0 0 0 0.5308677988679243 0 4:1 7:1 42:1 
0 0 0 0 0.04942573514158459 0 4:1 7:1 42:1 71:1 
0.1475697137341466 0.3534063339069565 0.3480063172560234 0.4415117592514579 0.09144524056650734 0.1121959018921643 4:1 7:1 23:1 58:1 77:1 
0.09896381360670618 0.1401575788977422 0.1843813491555935 0.454281774241749 0 0.03930365578300445 4:1 7:1 23:1 71:1 78:1 
0 0 0.1118703135949933 0.1736389955379075 0 0 4:1 7:1 34:1 49:1 60:1 
0.2049628717958866 0.52585531557655 0.2629125757128175 0.6398945515657223 0.09640590719917533 0.1755139992356066 4:1 7:1 34:1 49:1 71:1 79:1 
0 0 0 0 0 0.1434809978904864 4:1 7:1 23:1 61:1 
0.1763451583077603 0.5745487010550895 0.5706296299331735 0.2308999355540964 0.01348404958405782 0.1809988218494943 4:1 80:1 83:1 
0.009458257213546765 0 0 0.007262131414632861 0 0 4:1 7:1 23:1 71:1 77:1 
0.6366460723911137 0.9237077560457294 0.5273205069759759 0.4697526122022996 1.143437223488529 0.3143028315655985 4:1 61:1 64:1 90:1 
0.09037160226752546 0.6321263133947524 0.3976108416197899 0.5202098575082548 0.3885984961130294 0.1071522300287435 4:1 7:1 42:1 71:1 88:1 
0.2016685278952203 0.4485741497933979 0.009351676070218039 0.2102552811283623 0 0.0264462335774156 4:1 91:1 
0 6.825112891754826 0 0 0 0 4:1 72:1 87:1 
0.3998985087476481 0.2460317727278658 0.1110835462505424 0.3624473956675512 0 0.0740367086809601 4:1 71:1 90:1 
0 32 0 0 0 0 4:1 72:1 87:1 
0.1957864502493555 31.68762168936484 0.2544410831878195 0.3335090602047484 1.206761679691873 0.1625437322916162 4:1 72:1 87:1 
0.2622958320008703 1.306486199220961 0.306655835790123 0.6123150366397275 0.188864270046553 0.2326392708569543 4:1 34:1 49:1 72:1 
1.455282064958152 5.090749963713632 0.9429201879278937 0.944236938420714 0.8041335248861706 1.129743167270224 7:1 
0.2729838238883796 0.6571575570438287 0.34535484345904 0.382844884480842 0.02027473266075023 0.2315340489392163 4:1 89:1 93:1 
0.0636898923314842 0.1016603193915296 0.0252058887349719 0 0 0.02581974248815419 4:1 81:1 
0.06286569982882632 0.09815249368389048 0.02568658534577406 0.05450184592624455 0 0.02784843230064787 4:1 82:1 
0 0 0 0 0 0.2884440797698379 4:1 54:1 80:1 
0.3278960462373741 0.7513383431009799 0.4374628534603353 0.51249102808708 0.4174494960401639 0.7140761333557404 4:1 35:1 54:1 80:1 
0.3096665141064223 4.333509677880198 0.2191416061634662 0 0 0 4:1 23:1 
-0.3535969198550644 0.5251257002311925 0.3986556270348968 0.3143338280481617 0.2168412604714755 0.1550336712537199 11:1 23:1 53:1 61:1 64:1 90:1 
-0 1.025571270965342 0 0 0 0 11:1 23:1 53:1 71:1 90:1 
-0.1377831824693456 0.5662045688342821 0.1685338075454021 0.1835227578438042 0.07132522058552512 0.1062198750612026 11:1 25:1 53:1 
-0.1384165784860102 1.694880202678725 0.3090374294288623 0.1835518487532067 0.07053325490124822 0.1058874712550375 11:1 20:1 53:1 
-0.1386705810492811 0.7387894430110025 0.1678162135406531 0.1847646725260797 0.07066905202883006 0.1065034504170831 11:1 21:1 53:1 
-0.553021713015206 0.9258872851219 0.4425714635335337 0.5972047467933772 0.5292124654366633 0.4632019791894088 11:1 53:1 61:1 64:1 79:1 
-0.3361018585337485 0.03617606574928236 0 0 0.6697858899831108 0.2164232140959567 11:1 53:1 61:1 64:1 90:1 
-0.2528493510609012 0 0.04061851037172837 0.30131611100628 0.01917285795132518 0.06896705935583189 11:1 53:1 71:1 90:1 
-0 32 0 0 0 0 11:1 23:1 53:1 71:1 90:1 
-0.5234284233402516 32 0.5903383268422541 0.569390755584525 0.2978364675829622 0.2537282128176464 11:1 23:1 53:1 71:1 90:1 
-0 2.760405934351986 0 0 0 0 11:1 23:1 53:1 
-0 32 0 0 0 0 11:1 23:1 53:1 
-2.270553516895247 3.699301190368121 1.24470464943809 1.370750407222321 1.240908477030005 1.388614632724558 11:1 
-0 29.34481723127488 0 0 0 0 11:1 23:1 53:1 
-0.4839096398225933 1.193307059441787 0.4205765139048157 0.6242670623115613 0.3920883004724715 0.4869909263583808 11:1 23:1 53:1 61:1 91:1 
-0 -0 0 0.2078082057130636 4.087996287010677 0.01314623364074821 42:1 45:1 72:1 87:1 
-0 -0 0 0.673286122968434 0 0 42:1 45:1 91:1 
-0 -0 0 0.2642501892908564 0 0 23:1 26:1 52:1 91:1 
-0 -0 0 0 0 0.001074410761436809 87:1 
-0.09268255694697808 -0 2.683364542883609 0 0 0.09162775127605174 68:1 
-0 -0 0 0.7227538674016677 0 0 23:1 42:1 45:1 
-0 -0.01881292672003113 0 0 0 0 23:1 26:1 91:1 
-0 -0 0.9500955048413376 1.070918804004779 0 0 30:1 42:1 45:1 
-0 -0 0.102670826927824 0.07825617358727438 0 0 2:1 33:1 52:1 
-0 -0 0.02026870593095326 0 0 0 3:1 33:1 52:1 
-0 -0 0.2186195303228419 0.2394280720259475 0.1198109593205383 0.0344275262163049 6:1 33:1 52:1 72:1 87:1 
-1.500323983587504 -0 0.004122914526105453 0.1556357850520151 0 0.0465588172608862 7:1 23:1 26:1 52:1 
-0 -0 0.1343226785365653 0.2570753297410335 0.03128882979510576 0.03957739734596746 4:1 23:1 26:1 52:1 72:1 87:1 
-0 -0.01816766527771824 0 0.4627137200794912 0 0 1:1 42:1 45:1 58:1 91:1 
-0 -0 0 0.1213295546399851 0.1197176132363336 0.06575524475981799 1:1 23:1 26:1 39:1 72:1 87:1 
-0 -0 0.09850483759644438 0.2201333292982588 0.08504855627280031 0.02219320048842349 2:1 23:1 26:1 52:1 72:1 87:1 
-0 -0.05343971248570158 0.2326817735658462 0.2545407611858063 0 0.07108214162818054 3:1 30:1 42:1 45:1 
-0 -0.004064695807525456 0 0 0 0.02128591428600635 23:1 26:1 41:1 
-0 -0 0.1315838643254382 0.4770187998120671 0 0.05282573942914847 3:1 23:1 26:1 52:1 60:1 
-0.08092086220927612 -0 0 0 0 0.05855038665507948 3:1 33:1 41:1 
-2.696730540220168 -0.02683477139006164 0 0.1417882388056687 0 0.08233715768781669 4:1 42:1 45:1 
-0 -0 0.3408137179226052 0 0.06674667963847095 0 23:1 26:1 42:1 
-0 -0 0.1368754172164357 0.170373552974492 0 0.04015291040958654 1:1 23:1 26:1 52:1 58:1 
-0.04677216858026533 -0 0 0 0 0.04945540912950099 1:1 33:1 39:1 
-0 -0 0 0.06171181160704423 0 0 8:1 33:1 52:1 
-0 -0 0.1411673347212287 0.1245089844458377 0 0.03468938134155313 9:1 33:1 52:1 
-0.05817117156148323 -0 0.39547152540275 0.1512439661464643 0 0.04469491728890406 8:1 33:1 53:1 65:1 
-0.1037216826803058 -0.03827622766792377 0 0.1530370997813114 0 0.08600930159233358 8:1 34:1 46:1 
-0 -0 0.1415534397885418 0.1902972466791449 0 0.0592627473814373 10:1 33:1 52:1 
-0 -2.012408599185868 0.0949911705959146 0.02397362133139008 0 0.006625947699241807 11:1 33:1 52:1 
-0 -0 0.004122914526105272 0.04330919816533045 0 0 12:1 23:1 26:1 52:1 
-0 -0 0 0 32 0 42:1 72:1 87:1 
-0 -0 0 0.01896841853014896 0 0 33:1 52:1 72:1 87:1 
-0 -0 0 0.2376009900848192 0 0 33:1 52:1 91:1 
-0.0739563906183363 -0 0 0 0.0568963866586125 0 33:1 72:1 87:1 
-0 -0 0 0 2.821480341328966 0 42:1 
-1.313138184178275 -0 0 0 3.781948182980398 0 72:1 87:1 
-0.07301800430005438 -0 0 0 0 0.03576317661189185 49:1 
-0.7854752919802364 -0 0 0.5185558866768254 0 0 34:1 49:1 
-0.1133185799107616 -0 0 0 0 0.01497678347521761 30:1 
-0 -1.549315454365761 0 0 0 0 23:1 53:1 
-3.353552302566788 -0 0 0 0 0.1559815426339625 
-0.04108722800552899 -0 0 0 0 0 58:1 91:1 
-0.168684182130884 -0 0 0 0 0 1:1 72:1 
-0.1401106697034764 -0 0 0 0 0.08009126519653588 78:1 
-0.1042338949660058 -0.01557523992268389 0 0 0 0.1250417254435685 59:1 
-0.2379027346251271 -0.3307263323527708 0 0 0 0.08197094402649761 79:1 
-0.1039607656293959 -0.01404731172869345 0 0 0 0.1056874573841882 60:1 
-32 -0 0 0 0 0 4:1 72:1 87:1 
-0 -0 32 0 0 0 15:1 42:1 68:1 
-0 -32 0 0 0 0 11:1 23:1 53:1 
-0.07370134517350765 -0 0 0 0 0.01107636842488036 62:1 
-0.04553086454461797 -0.005938899656601674 0 0 0 0.02605471642856583 6:1 63:1 
-0.4844191787928647 -0.02203991976545122 0 0 0 0.1260254959142053 83:1 
-0.7884921498084333 -0.5261281951326818 0 0 0 0.1251162901009556 64:1 
-0.1978746113281097 -0.06034167336084115 0 0.09871006705992026 0 0.1187159122634755 58:1 84:1 
-0.05957000742786746 -0.05974188507132185 0 0 0 0.08854218851292713 1:1 65:1 
-0.07877492472118677 -0.03496326753076082 0 0.06853198111024875 0 0.05125891697411074 70:1 74:1 78:1 
-0.05735414019807524 -0 0 0.1524684221983831 0 0 13:1 17:1 59:1 91:1 
-0.07978342791579635 -0.04289494606532279 0 0 0 0.04596783536851828 70:1 74:1 79:1 
-0.06032213072820763 -0 0 0 0 0 13:1 17:1 60:1 91:1 
-0.5687138651203145 -0.8463369057214897 0 0 0 1.176117281719496 61:1 91:1 
-32 -0 0 0 0.1113721731373421 0.009693265976403836 4:1 72:1 87:1 
-0 -0 32 0 0 0 15:1 42:1 68:1 90:1 
-0 -32 0 0 0 0 11:1 23:1 53:1 71:1 90:1 
-0 -0 0 32 0 0 14:1 34:1 49:1 71:1 
-0 -0 0 32 0 0 14:1 30:1 52:1 
-0 -0.05439938769618675 0 0 0 0.0684535304384985 62:1 87:1 
-0.07159243903547745 -0 0 0 0 0 5:1 68:1 91:1 
-0.1697919707294759 -0.05200003582134556 0 0 0 0.1061347610858954 63:1 82:1 
-0.01952107834964014 -0 3.081001013951814 0 0 0 15:1 39:1 
-0.02190536329110754 -1.580802869042067 0 0 0 0.03303028223615601 20:1 53:1 
-0 -0 0 0 0.07681350107863716 0 42:1 78:1 
-0.07662479455440818 -0.01857503805660325 0 0 0 0.08870603435651404 2:1 
-0.1036657130757272 -0.002777655084473341 0 0 0 0.09524749725927949 40:1 
-0 -0 0 0 0.07515321542650139 0 42:1 79:1 
-0.02685691070819764 -0 0 0 0 0.006718539551405453 3:1 
-0.05373225156889383 -0.001683677307772435 0 0 0 0.04751680686033087 41:1 
-0 -0 32 0 0 0 15:1 42:1 68:1 
-0 -32 0 0 0 0 11:1 23:1 53:1 
-0.1597433612519472 -0 0 0 0 0.01788691832145872 43:1 72:1 81:1 
-0.02852093280240465 -0 0.8300353665732579 0 0 0.02284071172374202 15:1 24:1 62:1 
-0 -0.2056305148410501 0 0 0 0 5:1 53:1 
-0 -0 0 0 0 0.03406352390539777 6:1 23:1 63:1 
-0.01336502592632778 -0.03681705598740025 0 0 0 0.04436138042621199 6:1 44:1 
-0 -0 0.05031397397193637 0 0.1307786674497333 0 42:1 83:1 
-0 -0 0 0 0.02686884999173802 0 23:1 64:1 
-0 -0 0.2169311510247248 0.2940457200235504 0.1440044047903778 0.01707399957611556 42:1 58:1 84:1 
-0 -0 0 0.105335944282444 0 0.01249603639103646 1:1 23:1 65:1 
-0.08613027401462629 -0.05197235715007019 0 0 0 0.07993805688220861 8:1 39:1 
-0 -0.014061306976484 0.02983368067587683 0.107886618323135 0.08845182582276101 0.02903504694606391 42:1 70:1 74:1 78:1 
-0.01308918648864905 -0.01860452542721283 0.05315992098717838 0.1790224602356713 0 0 13:1 17:1 23:1 59:1 91:1 
-0.1601584797705777 -0.005160951896911962 0.047777050389525 0.2220191507882293 0.01268033324100608 0.08184236719537238 2:1 51:1 55:1 72:1 89:1 
-0.08616095674514494 -0.04891041152323234 0.5541472858552801 0.1869421206706862 0 0.0794522598089136 15:1 32:1 36:1 40:1 70:1 
-0.05178036218603294 -0.452404939035238 0 0 0 0.06912939850518551 13:1 21:1 53:1 
-0 -0.0125294299890947 0.02880175220909779 0.2489454872337519 0.09025028467750018 0.03355963312921938 42:1 70:1 74:1 79:1 
-0.01012475125493809 -0.01944428141387111 0.02439701335135306 0.2517205208771212 0 0 13:1 17:1 23:1 60:1 91:1 
-0.1607458683424203 -0.002215282005684437 0.02396181766232431 0.1690148037859055 0.02830369804390857 0.08267123619978663 3:1 51:1 55:1 72:1 89:1 
-0.08847823009277274 -0.04748168988815329 0.3669166480987964 0.1872296967921723 0 0.07999649875126304 15:1 32:1 36:1 41:1 70:1 
-0.05168452534796064 -0.00306143715151617 0 0 0 0.06810909341570415 13:1 22:1 53:1 
-0.02147549686751514 -0 0 0 0 0.03209133751227516 34:1 51:1 
-0 -0 0 0.3922578872426529 2.271269749265839 0.01754977924351365 42:1 61:1 91:1 
-6.475053362506001 -0 0 0 0.005308703188672249 0.005821026439913265 4:1 23:1 72:1 87:1 
-0 -0.1817261984887988 32 0.1690162891243401 0.3670769699165609 0.06991810114522853 15:1 42:1 68:1 90:1 
-0.2982578081894094 -32 0.2074351579597115 0.4898687601102431 0 0.0986131869532547 11:1 23:1 53:1 71:1 90:1 
-0.3667212925013979 -0.1635691917126293 0 32 0 0.1018437081262615 14:1 34:1 49:1 71:1 
-0 -0 0.2208077594897029 32 0 0.06605526085198456 14:1 30:1 52:1 
-0 -0 0 0 1.501306943068245 0.01029338329851101 42:1 62:1 87:1 
-0 -0 0.5566777990994499 0.2851010290147688 0 0 5:1 23:1 68:1 91:1 
-0.08406221778484209 -1.317545909336703 0 0.1992322976037148 0 0.1075343307848454 11:1 43:1 72:1 81:1 
-0.09440660661597056 -0.03815230425968612 0.2646250356549578 0.2542833666117398 0 0.08614725932556236 15:1 24:1 49:1 62:1 
-0.03611538742349867 -0.07003405874456882 0 0.06146938389583174 0 0.06131855780011429 5:1 30:1 53:1 
-0 -0 0 0.3027039534069048 0.144003221802084 0.0173901640900803 42:1 63:1 82:1 
-0 -0.03884476710457188 0 0.3736722586049155 0 0 6:1 23:1 63:1 91:1 
-0.2039557836003501 -0 0.0233979534832792 0.2822871056068319 0.02247671356456781 0.1044102759752365 6:1 44:1 72:1 85:1 88:1 
-0.1707081886752234 -0.1106987938338978 0.6663104225317796 0.4074127085051781 0 0.1367601533631319 15:1 25:1 44:1 66:1 69:1 88:1 
-0.1197691988517012 -0.224281823424382 0 0.2895346408249712 0 0.1129502096107148 9:1 12:1 25:1 53:1 69:1 
-0.1474014761027128 -0.05702542961969001 0 0.278556047311066 0 0.128226874910527 12:1 34:1 47:1 50:1 
-0.3713935834069405 -0.2916398281397852 -1.071169586841633 0.4539617816203354 0.2386330844780867 0.2361471945100841 15:1 23:1 26:1 68:1 
-0.4048567811561654 -0.1894479699026325 -0.5634059724358071 0.3610835514022989 0.3217773177280168 0.1866099546110101 15:1 42:1 68:1 80:1 83:1 
-0 -0 -0.6108713894637828 0 0 0 15:1 42:1 68:1 90:1 
-0.3132972144908404 -0.2289030614167563 -0.6478660173119088 0.2630838270811384 0.1481128961600661 0.2245824212037151 15:1 33:1 44:1 68:1 
-0.5930394637578199 -0.4916534387340161 -2.114793357877434 0.5678891655939386 0.3112758124858874 0.415933599204712 15:1 20:1 39:1 68:1 
-0.3144337243756823 -0.2304201385316856 -0.6542285930824639 0.2640213155818286 0.1473269170523128 0.2245824212037149 15:1 33:1 40:1 68:1 
-0.5597579667121656 -0.2967161160672794 -0.5294026159563958 0.4349121598658716 0.1899124529801538 0.3305606738835787 15:1 23:1 68:1 80:1 83:1 
-0.4457228666381344 -0.5304575492099671 -0.4681467597715818 0.3394884467340992 0.04424835090633363 0.2181356674684923 15:1 23:1 68:1 90:1 
-0.9052511323395488 -0.6726765060998696 -1.795387678204483 1.150396424631227 0.6076080399495853 0.5981837627522013 15:1 33:1 52:1 65:1 84:1 
-0 -0 -32 0 0 0 15:1 42:1 68:1 90:1 
-0.1263723300001284 -0.04763631433596502 -32 0.1890731831030763 0.5487754018203947 0.03173319504092401 15:1 42:1 68:1 90:1 
-0 -0 -32 0 0 0 15:1 42:1 68:1 
-0 -0 -2.633574576070191 0 0 0 15:1 68:1 
-0 -0 -30.65099365034484 0 0 0 15:1 42:1 68:1 
-0 -0 -0.1706790286290981 0 0.2351869081247938 0.1169727829558755 15:1 42:1 68:1 80:1 
-1.072845831410732 -0.8033016192022797 -3.167242276610974 1.338659212939194 1.183359248425525 0.6875818974522256 15:1 30:1 42:1 
-0 -0 -0.4667991819619813 -0 0 0 14:1 23:1 42:1 45:1 91:1 
-0 -0 -1.484930798964278 -0 0 0 14:1 34:1 49:1 71:1 
-0 -0 -32 -0 0 0 14:1 34:1 49:1 71:1 
-0 -0 -32 -0 0 0 14:1 30:1 52:1 
-0 -0 -0.721392641401748 -0.07804238143846297 0 0 14:1 30:1 42:1 45:1 
-0.6489611527325791 -0.3304933755063946 -0.5489863654810873 -0.2170810119777236 0.01889596385515346 0.2911405526878303 14:1 71:1 78:1 
-0.2495414549117109 -0.1948159382422414 -0.4392875329072676 -0.069127738454348 0.1440136803844645 0.2580213465720026 14:1 52:1 59:1 
-0.2444902556486966 -0.118125831245149 -0.1927331168545285 -0.1548464296056776 0.2433022595936453 0.03585976905507293 14:1 42:1 71:1 79:1 
-0.2072339957561125 -0.185580696236987 -0.6743988564057676 -0.1332087486749622 0.04936145560457682 0.120387664875189 14:1 23:1 52:1 60:1 
-0 -0 -29.24251089028148 -0 0 0 14:1 34:1 49:1 71:1 
-0 -0 -29.94527134195463 -0 0 0 14:1 30:1 52:1 
-0.2469736472666587 -0.1015250873021694 -0.530141510718393 -0.3096041192432185 0.3063883442575449 0.1130884001871253 14:1 42:1 71:1 82:1 
-0.3949815350939181 -0.3308434372840285 -0.9624694166903026 -0.3147323229597179 0.1250273871643538 0.1975702585960167 14:1 23:1 52:1 63:1 91:1 
-0.2065218649129067 -0.1729655732191142 -0.4122819796893819 -0.140849257438415 0.741436654635512 0.08668646806449451 14:1 42:1 45:1 64:1 
-0.3320241325718604 -0.3611113720426922 -0.8389581068914835 -0.2111584997842214 0.7747738952868378 0.461676658887156 14:1 42:1 45:1 61:1 91:1 
-0.135185067860435 -0.03556289847199361 -0.5230596221428112 -0.1858160328800528 0 0 14:1 42:1 45:1 59:1 91:1 
-0.3394939846396537 -0.2374590888633356 -0.782223581529002 -0.4191808072666184 0.1698573527349355 0.2089387162300772 14:1 30:1 42:1 45:1 60:1 79:1 
-0.4341931032401036 -0.2189463168099181 -0.8764158657863488 -0.3340802372531747 0.3155813810177412 0.2230692497956973 14:1 42:1 45:1 58:1 77:1 
-0.2618189401394152 -0.1062702772482113 -0.6388145540543567 -0.2156861332916582 0 0.09755106049614874 14:1 34:1 49:1 71:1 84:1 
-0.1858258829493498 -0.1286506573317107 -0.8209089462070643 -0.3963649836618177 0.1112811958742003 0.1293056940252309 14:1 30:1 52:1 65:1 
-0.3724411812905184 -0.1744812408751168 -0.7950562109222515 -0.1732045553416806 0.05207378811491994 0.1520777069744925 14:1 34:1 49:1 71:1 85:1 
-0.1858258829493498 -0.12785471360711 -0.8114412432532757 -0.06687263825640397 0.1111826352773023 0.1298755848374565 14:1 30:1 52:1 66:1 
-0 -0 -0.1099956187596604 -0.03220670890473053 0 0 14:1 42:1 71:1 91:1 
-0.4982338582658102 -0.3070738552827115 -0.9433065026215688 -0.506435421566276 0.4568994801000626 0.2481644956970476 14:1 23:1 52:1 72:1 84:1 
-0.3724740083533079 -0.1757994308547829 -0.7556784509319302 -0.174096347347162 0.05361423982948985 0.1533369511060358 14:1 34:1 49:1 71:1 86:1 
-0.1869610584369149 -0.1286506573317109 -0.7569911886909643 -0.06738727416405479 0.1111977185667229 0.1305877799480177 14:1 30:1 52:1 67:1 
-0.446378397356804 -0.174481240875117 -0.8906551330244743 -0.1739655316066593 0.4116175719668906 0.1520777069744928 14:1 34:1 49:1 71:1 87:1 
-0.1861864264716851 -0.1283605358460278 -0.8580461889692768 -0.6699631458079065 0.1112811958742006 0.1286043006937856 14:1 30:1 52:1 68:1 
-0.2500175249527246 -0.2097715616505506 -0.7419755889409777 -0.3186587416280661 0.09242022122031344 0.139528873764278 14:1 23:1 42:1 45:1 69:1 
-0 -0 -0.3330560152372409 -0 0 0 14:1 52:1 91:1 
-0 -0.04796555000870874 -0 -0 0 0 14:1 23:1 52:1 91:1 
-0.0638838343241474 -0.3323128539535343 -0 -0 0 0.1762516739682542 14:1 71:1 
-0 -0 -0 -0 0.3277524133537083 0 14:1 42:1 71:1 
-0 -0 -0.395886854125256 -0 -0 0 42:1 61:1 64:1 
-0.5681460626827439 -0.4524017835464809 -0.9942932013738002 -0.4078117376928251 -0.7491244173507479 0.3745434695832325 42:1 61:1 64:1 77:1 
-0.6501800613359878 -0.4526699008258806 -0.9951304164488848 -0.6195247602147871 -0.6587088305086216 0.5668262647710854 42:1 61:1 64:1 80:1 
-1.245526252485982 -0.9039805263861407 -1.128896001363167 -0.6193825616052316 -0.6589882460751205 0.3766483823493547 42:1 61:1 64:1 90:1 
-0 -0 -9.941644070267364 -0 -0 0 42:1 72:1 87:1 
-2.046628634645023 -1.028304065157647 -32 -1.406561109267033 -1.605795981899069 0.8571329280323516 42:1 72:1 87:1 
-0.952201640258704 -0.7410169705274674 -2.8112025471289 -0.9229362613312787 -1.055341358879018 1.31980050370208 35:1 42:1 61:1 
-1.37681799836356 -1.242810748718895 -2.202462874327086 -0.835756791891231 -1.006618779228814 -1.271223263165263 16:1 61:1 
-0.5428279739168577 -0.4020719659281957 -0.6714852929792966 -0.5135156651594381 -0.4347992667733402 -0.4799436022010417 16:1 73:1 80:1 
-0.795116855286398 -0.7132391395294089 -1.176571485526115 -0.7372514456668399 -0.8544938529669688 -0.502165749542187 16:1 73:1 92:1 
-0.8095597485992108 -0.4004390057454976 -0.6471651037392506 -0.4778827586971651 -0.5391791912088386 -0.2356222301335218 16:1 54:1 73:1 80:1 
-0.9863418573890035 -0.5930096326068288 -0.9569161685589921 -0.7066169088718595 -0.79870982325794 -1.005996703396091 16:1 35:1 54:1 61:1 
