svm_type c_svc
kernel_type rbf
gamma 0.25
nr_class 7
total_sv 154
rho -0.294272 0.827425 -0.0719726 0.117167 -0.395478 -0.273123 0.984539 0.215187 0.353233 -0.0336583 -0.017052 -0.798435 -0.338191 -0.877398 -0.718257 0.186643 -0.105367 -0.207809 -0.434075 -0.37077 0.0158604
label 10 4 -1 -3 -2 0 -4
probA -4.79468 -4.83128 -5.03855 -4.81384 -4.46845 -4.47499 -4.19145 -4.40028 -4.3619 -4.17618 -3.89556 -3.65131 -4.25602 -3.43379 -4.72274 -4.55469 -4.23301 -4.0217 -4.3455 -4.08154 -3.89961
probB -0.731754 1.26291 -0.40833 -0.307383 -0.327904 -0.876537 1.45097 0.0998143 0.243339 9.66769e-05 -0.297798 -0.702067 -0.98323 -0.755273 -1.13422 -0.0972577 -0.0635455 -0.440061 -0.195244 -0.483179 -0.289243
nr_sv 16 9 87 10 22 6 4
SV
0 0 0.1883672280774004 0 0.7153237683093937 0 4:1 7:1 20:1 
0 0 0.07516407112701928 0.2062767690203914 0 0.00392678829765455 4:1 7:1 27:1 35:1 
0 0 0 0.0118299675767525 0 0 4:1 7:1 27:1 46:1 
0 0 0 0 0 0.07486859252581635 4:1 7:1 36:1 
0.9398139895080815 2.231830067755863 0.5728673186954706 0.6580063932231265 1.331151004597355 0.9021444727395787 4:1 36:1 39:1 
0 0.3450326019406429 0.3354282328395722 0.4285908798401619 0.3399981261060465 0.03806028788661683 4:1 7:1 20:1 46:1 
0 3.603842435406221 0 0 0 0 4:1 47:1 
0 32 0 0 0 0 4:1 47:1 
0 32 0 0 0 0 4:1 47:1 
0.7141236755515312 1.195623644005091 0.3085473583306027 1.008140186669775 0 0.1861848532554601 4:1 46:1 
0 32 0 0 0 0 4:1 47:1 
0.07411145655402142 32 0.1328521513620653 0 0.8250853078703915 0 4:1 47:1 
0.3977687481855833 1.719870123346817 0.4864862718992025 0.7617845074998237 0.3404803405280714 0.3547067179975289 4:1 27:1 47:1 
1.707459683393422 6.96906905249477 1.373035819011958 1.428878656784765 0.9803758419725501 1.329860054883422 7:1 
0.3835705482054704 1.026106386468407 0.5119948669729745 0.2849655228440397 0 0.8712760501476324 4:1 32:1 
0 0.8521987451632801 0 0 0 0 4:1 
-1.072486443433845 1.440567744912358 0.6825953149153736 0.7580242957025946 1.051329573954084 0.55258306138762 11:1 31:1 36:1 39:1 
-0 1.202601544252503 0 0 0 0 11:1 31:1 46:1 
-0 32 0 0 0 0 11:1 31:1 46:1 
-0.6997810371105185 32 0.5499490264802308 0.9510105009632581 0.2303289188331129 0.2392569093226969 11:1 31:1 46:1 
-0 0.5308359994916034 0 0 0 0 11:1 31:1 
-0 32 0 0 0 0 11:1 31:1 
-2.444580620853745 7.115776122535719 1.747833993441271 1.672761363871958 1.517154507711534 1.518970989354188 11:1 
-0 32 0 0 0 0 11:1 31:1 
-0 0.6519957846280307 0.01818025241230618 0 0.1657256980470205 0.5588490257833703 11:1 31:1 36:1 
-0 -0 0 0.3112476943535168 4.027739688338789 0 20:1 23:1 47:1 
-0.04968910783602305 -0 2.375387397116812 0 0 0 43:1 
-0 -0 0 1.369113858065101 0 0 20:1 23:1 
-0 -0 0.03553053124151793 0.2881024047709511 0.02878853636580546 0 6:1 30:1 47:1 
-2.754626764423114 -0 0.004930839885064067 0.1593340541305993 0 0.06249440348889928 7:1 30:1 
-2.75469855145566 -0 0.006599573437474839 0.2734087412544178 0.03825582054348625 0.03405582564929396 4:1 30:1 47:1 
-0 -0.006359223279693784 0.1074915819643909 0.7848508210066821 0 0.1196973773702303 1:1 20:1 23:1 33:1 34:1 
-0.06327615986382805 -0 0 0.09535160004469947 0.06210521711810226 0.08469476571131028 1:1 2:1 17:1 47:1 
-0 -0 0.03495592077465572 0.1706846949639946 0.02376074583330344 0 2:1 30:1 47:1 
-0 -0.0009030370712321623 0.0579889513382079 0.03995831919539834 0 0.01489680068379124 3:1 20:1 23:1 
-0 -0 0.0595436128305142 0.5873508940011138 0 0.03177060649742958 3:1 30:1 35:1 
-0.02677485599458553 -0.004385887029164586 0 0 0 0 3:1 19:1 
-2.127995000766785 -0.007161412952195817 0.07720551519546989 0.2709988343392465 0 0.08581539406450711 4:1 20:1 23:1 
-0 -0 0.01562032168265989 0.1613683686228261 0 0.05519982836185387 1:1 30:1 33:1 
-0.01139949952531609 -0.005407260738044118 0 0 0 0.001658803914649797 1:1 17:1 
-0 -0 0 0.04018822493552608 0 0 8:1 30:1 
-0 -0 0.005022550710773747 0.0776225264305381 0 0.01528519758353147 9:1 30:1 
-0 -0.006074985403301441 0.09298657894430322 0.2536165756668384 0 0.08165001148266249 8:1 31:1 40:1 
-0.08707605705675411 -0.006842348005363172 0 0 0 0.083163155098741 8:1 24:1 
-0 -0 0.00430600908902205 0.1594975967915926 0 0.06226664371439208 10:1 30:1 
-0 -3.967461704088552 0.005042388550555017 0 0 0 11:1 30:1 
-0 -0 0.004541081657090149 0 0 0 12:1 30:1 
-0 -0 0.07561415206507864 0 32 0 20:1 47:1 
-0 -0 0 0.9929262024860352 0 0 30:1 47:1 
-2.092185967379796 -0 0 0 2.230959601326686 0 47:1 
-0.8490383387112708 -0 0 0 0 0 27:1 
-32 -0 0 0 0 0 4:1 47:1 
-0 -0 32 0 0 0 15:1 20:1 43:1 
-0 -32 0 0 0 0 11:1 31:1 
-1.887910416822917 -0.6623760492130416 0 0 0 0 
-0.09581293378548365 -0.004985382435751458 0 0 0 0 33:1 
-0.06889758998258179 -0.002134401388937641 0 0.2186109024964075 0 0.04095367999008766 34:1 35:1 45:1 
-1.450393454759681 -1.083617780277247 0 0 2.509526132374358 3.145519341709234 36:1 
-32 -0 0 0 0 0 4:1 47:1 
-0 -0 32 0 0 0 15:1 20:1 43:1 
-0 -32 0 0 0 0 11:1 31:1 46:1 
-0 -0 0 32 0 0 14:1 27:1 46:1 
-0 -0 0 32 0 0 14:1 30:1 
-0.07048999465517762 -0.006031509604999355 0 0 0 0 37:1 
-0.04959463643390313 -0.003534296304913692 0 0 0 0 38:1 
-0 -0 0 0 0.03113819467205983 0 1:1 47:1 
-0.01270165710271146 -0.001247345690583896 4.127272984819862 0 0 0 15:1 17:1 
-0 -2.211446617341048 0 0 0 0 31:1 
-0.02594861110657546 -0 0 0 0 0 34:1 
-0 -0.002552273432982129 0 0 0 0 2:1 
-0.03334166618383658 -0.006897101615179597 0 0 0 0 18:1 
-0.02726244913330287 -0.002402291553832592 0 0 0 0 35:1 
-0.01225988297622783 -0.002403484155823378 0 0 0 0 19:1 
-0 -0 0 0 32 0 20:1 36:1 
-32 -0 0 0 0 0 4:1 47:1 
-0 -0 32 0 0 0 15:1 20:1 43:1 
-0 -32 0 0 0 0 11:1 31:1 
-0.050834338988683 -0 0 0 0 0 5:1 
-0.09796787029230705 -0 0 0 0.01786929720517141 0 21:1 47:1 
-0 -0.001709624191254824 2.072008970950142 0 0 0 15:1 37:1 
-0.01446358983499723 -0.004675565018139692 0 0 0 0.02041841207635944 6:1 22:1 
-0 -0 2.071083723433896 0 7.685385673065628 0 20:1 
-1.450788608757885 -0.6888572709742623 0 0 0 0.05933321782512862 39:1 
-0 -0 0.05429738982501763 0 0.06870144670252215 0 20:1 33:1 
-0.08800762460874174 -0.004434886016596759 0.008243846433254494 0.03011186936334766 0 0.04479392127260581 1:1 40:1 
-0.05080361516633976 -0.002239116547590157 0 0 0 0.05173444482157764 8:1 17:1 
-0.05987061061597776 -0.005560218561382666 0 0.2006539371266854 0 0.08173221089060075 2:1 3:1 13:1 34:1 
-0.0500961141794102 -0 0 0.2200628389820741 0.04110460392959175 0.08795192725531122 2:1 18:1 19:1 29:1 47:1 
-0.03822740554657071 -0.002784276435014373 1.923380019290754 0 0 0.05401766466967346 15:1 18:1 45:1 
-0 -0.005148456186616584 0 0.3844417628211636 0.08365832370281059 0.07139848189198428 20:1 34:1 35:1 45:1 
-0.05924999753055558 -0.004912750707091256 0 0.06666849356607382 0 0.08962141544709441 2:1 3:1 13:1 35:1 
-0.05503302567357837 -0 0 0.1724530324926573 0.06788450965577049 0.1025152432199945 3:1 18:1 19:1 29:1 47:1 
-0.03899406492804776 -0.004182680724310394 0.3926137462233414 0 0 0.05401766466967334 15:1 19:1 45:1 
-0 -0.004480355306332316 0 0 0 0.01026630728507075 13:1 31:1 
-0.05818307818940381 -0.009003186930985252 0 0 0 0 29:1 
-0 -0 0.1133950507900235 0.2717951593385898 32 0.03147693230703583 20:1 36:1 
-32 -0 0 0 0.03878551326362659 0 4:1 47:1 
-0 -0.002832235691646018 32 0.1466079069850732 0.07668169769557011 0.02110829066087797 15:1 20:1 43:1 
-0.3631780084606664 -32 0 0.4529553707682596 0 0.08247710311661385 11:1 31:1 46:1 
-0.4370370454888666 -0.2341920688816494 0 32 0 0.128356088939406 14:1 27:1 46:1 
-0 -0 0.006083739968897011 32 0 0.001304954873967916 14:1 30:1 
-0 -0 0 0 0.0683398324076982 0.01600364778753295 20:1 37:1 
-0.05842162937195448 -0.007173899813041332 0.1137276898870777 0.2961487110389362 0 0.1214645657471868 5:1 43:1 
-0 -1.928889351099537 0 0.06691244586158859 0.0679760783607779 0.09687503548347778 11:1 21:1 47:1 
-0.0425638306688497 -0 0.1135126041481099 0.2986312852931419 0 0.08956568699943362 15:1 27:1 37:1 
-0 -0.00489715900847879 0 0 0 0 5:1 31:1 
-0 -0 0.112973543845003 0.1841187652759373 0.06980387867347176 0 20:1 38:1 
-0.05954872063447628 -0.00599538381467018 0 0.1781653109148791 0 0.1068701186285254 6:1 38:1 
-0.0628617494186373 -0 0 0 0.06515288041906718 0.0453046005560756 6:1 22:1 47:1 
-0.09199159943448368 -0.008171175243421556 1.136601524333077 0.4292776536519967 0 0.1338078943121311 15:1 22:1 41:1 44:1 
-0.05491252966762353 -0.008200845454091244 0 0.2211683258433379 0 0.1265524539167366 9:1 12:1 31:1 44:1 
-0.1091644031675019 -0.009212297632212358 0 0.1950449605027673 0 0.1420194030332868 12:1 25:1 28:1 
-0.6016367552378058 -0.4411326483724493 -1.549292459570277 0.5647033161092372 0.310572428135866 0.4448828524285995 15:1 22:1 43:1 
-0.6023689846404554 -0.4421284948427051 -3.242843343679974 0.6667844578015021 0.4636191043943487 0.4449086264090676 15:1 17:1 18:1 43:1 
-0.1330447909448738 -0.09572403820532782 -0 0.04556907556327636 0 0.09920587686114994 15:1 18:1 43:1 
-0.9599763959634184 -0.7487665084577418 -2.113501837097892 1.646480796657462 0.4823415832920677 0.7005448261788471 15:1 30:1 40:1 
-0 -0 -32 0 0 0 15:1 20:1 43:1 
-0 -0 -32 0 0 0 15:1 20:1 43:1 
-0.2692229180422114 -0.2927730454270216 -4.166484630806722 0 0 0.1778124712284461 15:1 43:1 
-0 -0 -32 0 0 0 15:1 20:1 43:1 
-0 -0 -28.79021728846962 0.2063780060986641 0.09485140849783852 0 15:1 20:1 43:1 
-1.418493473487501 -0.9780338519439354 -7.345622280807564 1.100377434678323 2.571637797567644 0.87168237245104 15:1 20:1 
-0.1213461134706409 -0.1279653171342521 -0.8220203181977083 -0.02101688667894023 0.04292092228654822 0.1476963158778686 14:1 30:1 34:1 
-0.1706797401238245 -0.1298398595343784 -1.146031024725531 -0.02052063245115235 0.04338008822973237 0.1452376835391455 14:1 30:1 35:1 
-0.1759438458325024 -0.1592191975161771 -0.9221317709543888 -0.1148491164304631 0.04338008822973254 0.1576283524676509 14:1 30:1 38:1 
-0.3621139729955798 -0.2934527801251137 -0.5152101425079467 -0.2072333219447791 0.5165863048323877 0.09560449017268136 14:1 20:1 23:1 39:1 
-0.3618217653768752 -0.2929447655259383 -0.6816356191791594 -0.2068580545902842 1.384244843076005 0.6558422046861885 14:1 20:1 23:1 36:1 
-0.115861670657454 -0.06363911172146618 -0.7466816623700671 -0.1972674965033216 0 0.02446989327382267 14:1 20:1 23:1 34:1 
-0.1391499516679281 -0.06158311034576652 -0.3621086715018695 -0.1980381976245034 0 0.02605452775217847 14:1 20:1 23:1 35:1 
-0.1731586482530815 -0.1241804195715462 -0.9336029849152392 -0.2079704203086416 0.02127652629935606 0.09517693687977427 14:1 20:1 23:1 33:1 
-0.1773805946440814 -0.1591296184846544 -0.8595562124853847 -1.114792583803183 0.04292092228654835 0.1578045636318453 14:1 30:1 40:1 
-0 -0 -1.006782549170126 -0 0 0 14:1 27:1 46:1 
-0.1773805946440815 -0.1583105297402836 -0.8754155118159436 -0.114849116430463 0.04273686848729711 0.1573340211892344 14:1 30:1 41:1 
-0.4555482345156589 -0.1592191975161771 -2.221801549225043 -0.1142639533349342 0.9110163535629912 0.1576283524676509 14:1 30:1 47:1 
-0 -0 -32 -0 0 0 14:1 27:1 46:1 
-0.1757486898286708 -0.1591296184846543 -0.7515121493352928 -0.1145764882758599 0.04273686848729714 0.1574829319389625 14:1 30:1 42:1 
-0.8405314296707392 -0.3636084124970246 -31.85625325181247 -0.3831115502260841 0.07515027882482721 0.3536426004525033 14:1 27:1 46:1 
-0.175303365516997 -0.1592606151702357 -0.9464750553313257 -0.6078253773604109 0.04310771311100541 0.1578045636318454 14:1 30:1 43:1 
-0.1732972200056183 -0.1239086588450149 -0.6615939019394428 -0.2072333219447792 0.02149077174921239 0.09505986505938306 14:1 20:1 23:1 44:1 
-0 -0 -4.963786352104718 -0 0 0 14:1 30:1 
-0.9211234254027589 -0.846404948325128 -0.3926941876686302 -0 0 0.4371209872625215 14:1 46:1 
-0 -0 -32 -0 0 0 14:1 30:1 
-0.07208362085234321 -0 -0.3394267825256322 -0.3998865690006637 1.085160154330784 0 14:1 20:1 46:1 
-0 -0 -23.06473044561607 -0 0 0 14:1 30:1 
-1.589813640757727 -1.077918930102336 -1.055793226386059 -0.6234157208728806 -1.049611281391238 0.5707748162700095 20:1 36:1 39:1 
-0 -0 -10.10087114564642 -0 -0 0 20:1 47:1 
-2.105893812276233 -1.129407575363023 -32 -1.892814428210382 -1.836948628534731 0.8148663248743371 20:1 47:1 
-0 -0 -7.475152148379967 -0 -0 0 20:1 36:1 
-0 -0 -32 -0 -0 0 20:1 36:1 
-0.8367069363498471 -0.7572121930803929 -30.67180115124186 -1.406792172804503 -1.429548793867757 1.612991612074036 20:1 36:1 
-1.407519209207866 -1.314018647401197 -3.524567950823343 -0.9449634370659772 -1.150426193398154 -1.780811669316562 16:1 36:1 
-0.9501698115327256 -0.8444523277422942 -1.062701830888336 -0.9479620057533721 -0.9123886325997951 -0.5297200671264545 16:1 48:1 
-0.6994849261886367 -0.3573771711239979 -0.5976405976338437 -0.4217993264633059 -0.4776371534784333 -0.3457482492897165 16:1 32:1 48:1 
-0.7038538708044816 -0.3538118395803861 -0.6051991436624542 -0.4243122562744949 -0.4811363108068744 -0.3423527674856501 16:1 32:1 36:1 
