svm_type c_svc
kernel_type rbf
gamma 0.03125
nr_class 7
total_sv 324
rho -0.208595 0.680373 0.0705401 -0.113247 -0.305414 -0.433832 1.81633 0.262783 0.235539 -0.0389665 -0.422006 -1.38824 -0.691916 -0.672794 -0.62523 0.0797013 -0.145813 -0.542436 -0.349733 -0.496566 -0.331504
label 10 4 -1 -3 -2 0 -4
probA -4.9724 -4.71327 -5.07432 -5.12183 -4.32953 -4.48947 -3.68899 -4.34131 -4.47313 -4.09759 -3.76906 -3.73482 -5.00487 -3.98995 -4.51148 -4.5299 -4.24927 -3.85637 -4.27416 -3.94621 -3.76239
probB -0.645425 0.915935 -0.36886 -0.452555 -0.280364 -1.06403 0.772181 0.157613 0.211553 0.0789163 -0.449381 -0.866017 -0.435482 -0.660185 -1.26399 0.0634746 -0.214176 -0.547685 -0.198333 -0.616412 -0.357438
nr_sv 45 25 139 27 64 12 12
SV
1.60193911573345 2.289595932720861 0.9100849368637624 1.689014173871963 2.670803319122886 0 4:1 67:1 70:1 84:0 105:1 
0 4.718218740905638 1.988256435296881 0 2.023609410533962 0 4:1 7:1 21:0 46:1 84:1 
0 0.3347974451156431 0.01259440345110436 1.033433744532501 0 0 4:1 7:1 21:0 25:1 63:0 78:1 84:1 105:1 
0 0 0 0.7208524787621698 0 0 4:1 7:1 21:1 37:1 42:0 54:1 63:0 78:1 84:1 105:1 
0 1.635295006152353 1.915650309097887 0 0 0 4:1 7:1 21:0 25:1 63:0 84:1 105:1 
0 0 0 0 0 3.881518777072491 4:1 67:1 70:1 84:0 105:0 
0 0 0 0 3.516491269467001 0 4:1 7:1 21:0 46:1 84:0 105:1 
0 0 0 0 0.518168578565931 0 4:1 7:1 21:0 46:1 78:1 84:0 105:0 
0 0 0 0.0848282753796788 0 0 4:1 7:1 21:0 37:1 42:0 54:1 63:0 78:1 84:1 105:1 
0 0 0 0.8338669466882922 0 0 4:1 7:1 21:0 46:1 78:1 84:0 105:1 
0 0 0 0.06472795127716542 0 0 4:1 7:1 21:0 25:1 63:0 78:1 84:0 86:1 105:1 
0.0529064819608802 0.5411713172128101 0 0 0 0 4:1 7:1 21:1 37:1 42:0 54:1 63:0 66:1 84:1 105:1 
0 0 0 0.7566946992180996 0 0 4:1 7:1 21:0 37:1 42:0 54:1 63:0 78:1 84:1 87:1 105:1 
0 0 0 0 0 0.7897558651280312 4:1 7:1 21:0 25:1 63:0 67:1 84:1 105:1 
0.3047321047491359 0 3.840439764413538 0.3191524725905936 0 0 4:1 84:0 88:1 91:1 105:0 
0.3461438933338742 12.88427688897893 0 2.266837694937053 0 0.2242079675479639 4:1 84:0 100:1 105:0 
0.6418787056259435 0.6059007405644717 0.6104901236565292 2.02582291919952 0 0.2078612091743102 4:1 78:1 84:0 99:1 105:0 
0.6397721562633294 0 0 0 5.010378219943834 0.02869521130180184 4:1 67:1 70:1 84:0 99:1 105:0 
0 0 0 0.4508444582554817 0.1077153338924772 0 4:1 7:1 21:0 46:1 78:1 84:0 97:1 105:1 
0 0 0 0 0 3.138208383939565 4:1 21:0 59:1 84:0 88:1 105:1 106:1 
0 5.367537905557731 0 0 0 0 4:1 21:1 25:1 42:0 63:0 106:1 
0.1413259549924499 1.897805861526271 0.3635542808632579 0.1345202156586002 0 0.1237235670550465 4:1 21:0 38:1 42:0 59:1 63:0 84:1 88:1 105:1 106:1 
0.3696585342833911 0.5777181338823403 0.7508572055175262 0 0 0 4:1 21:1 25:1 42:0 63:1 106:1 
0.1931466709247014 0 0 1.467324532693972 0 0.2127167197332011 4:1 84:0 100:1 105:0 106:6 
6.254812786903235 15.52823383804529 0 1.268401563907797 0 0 4:1 84:0 105:1 106:6 
0 26.25107146059805 0 0 0 0 4:1 79:1 84:0 96:1 105:0 106:6 
0 32 0 0 0 0 4:1 79:1 84:0 96:1 105:0 106:6 
0.2328720583039998 10.37011313010919 1.638006443979029 0.550713937507746 0.423794132053526 0 4:1 21:0 37:1 42:0 54:1 63:0 79:1 84:1 105:1 106:6 
0.254066740067067 0 0.03775118552129607 4.158316535787606 0 0.220049136635551 4:1 78:1 84:0 99:1 105:0 106:6 
0.1511428622852687 32 0 0 0.2011234355077231 0.2209068048810344 4:1 79:1 84:0 96:1 105:0 106:6 
0.1388407373378215 7.870118773640304 0 0.06329333359063423 5.609939334154154 0.1941073800680978 4:1 79:1 84:0 96:1 105:0 
0.4115257588208215 1.354559975166169 0.283323979652128 2.094611197288811 0 0.0628144256937509 4:1 21:0 37:1 42:0 54:1 63:0 79:1 84:0 105:1 
0 0 0 0 0 0.8275708995819732 4:1 84:0 105:0 106:6 
8.560113806588241 30.80591232260183 5.573369060496376 5.489371132665701 4.450088094748045 5.261834258842246 7:1 21:1 42:0 63:0 106:6 
0.3060422820404163 0 0 0.04094512917831227 0 0.2881902210689914 4:1 84:0 85:1 105:0 106:6 
0.3582381249087084 0 0.1142978985878577 0.2499091504124663 0 0.2915825469990789 4:1 84:0 98:1 102:1 105:0 106:6 
0 0 0 0 0 2.21484646363055 4:1 84:0 88:1 105:0 106:6 
0.3071904907892764 0 0 0.03876913156572495 0 0.2890551164120194 4:1 84:0 89:1 105:0 106:6 
0.3049965380451437 0 0 0.03919078905459783 0 0.2868463743844808 4:1 84:0 90:1 105:0 106:6 
0 0 0 0 0 0.2154046888500453 4:1 21:0 59:1 84:0 88:1 105:1 106:6 
0 15.16894689028111 0 0 0 0 4:1 21:1 25:1 42:0 63:0 106:6 
0.339213225535232 0.465433089652359 2.033985303694128 0.5726906029269125 2.434492016811064 0.7468389609704502 4:1 21:0 38:1 42:0 59:1 63:0 84:1 88:1 105:1 106:6 
0 8.363386162403497 1.366270530815444 0 0 0 4:1 21:1 25:1 42:0 63:1 106:6 
8.133341973311868 0 0 0.2749564376534411 0 0.3616730367587007 4:1 
0 0 0 0 0 2.254294844968633 4:1 21:0 59:1 84:0 88:1 105:1 106:4 
-0.5847685108726522 0 1.031848672859289 0 1.029043572988532 0 12:1 21:0 42:0 58:1 63:0 67:1 70:1 84:1 99:1 105:1 
-1.404219988846598 3.237129643300278 4.336731093509813 3.938589851003504 1.213024259571437 0 12:1 84:0 105:1 
-0 0 0 0 0.5218338261737708 0 12:1 21:0 42:0 58:1 63:0 67:1 70:1 84:1 105:1 
-0.2180610175175782 0 0 0 0 0 12:1 21:0 25:1 58:1 63:0 67:1 70:1 84:0 99:1 105:1 
-7.383760197597478 0 0.01555039566085563 1.984198739452532 3.985277978203813 4.686265010994424 12:1 84:0 105:0 
-2.301971678176806 23.19527640068495 1.887226025411721 2.546207800324067 0.96489944564047 0.2993775451534924 12:1 21:1 42:0 63:0 
-0 0 0 1.16931445766934 0 0 12:1 21:0 25:1 58:1 63:0 78:1 84:0 99:1 105:0 
-0 0 0 0 0 1.096343945535169 12:1 21:0 42:0 58:1 63:0 67:1 70:1 84:0 105:1 
-0.6838376191422151 0 0 0 0.2368398820580126 0 12:1 21:0 25:1 58:1 63:0 67:1 70:1 84:0 99:1 105:0 
-0 8.985241546241426 0.7729155003192452 0 0 0 12:1 21:1 25:1 42:0 58:1 63:1 
-0.3280757734025971 0 0.09376566040120971 0.2311834483616692 0.4874078071148631 0.3026410870909446 12:1 21:0 42:0 58:1 63:0 67:1 70:1 84:1 87:1 105:1 
-0.02355765278772331 0 0 0 4.129223532567711 0.3022068580657006 12:1 21:0 42:0 58:1 63:0 67:1 70:1 84:0 99:1 105:1 
-0 2.779920761125017 1.570358195188254 1.941871644650256 0 0 12:1 21:0 42:0 58:1 63:0 78:1 84:1 99:1 105:1 
-0 1.460035301835425 0 0 0 0 12:1 21:0 25:1 58:1 63:0 78:1 84:0 99:1 105:1 
-0 28.5430483834497 2.853710838934739 0.3746834448253136 0.8065598718449917 0 12:1 21:0 25:1 58:1 63:0 84:1 106:6 
-3.347752386895953 8.136265849916652 0 0 0 0 12:1 21:1 42:0 58:1 63:0 106:6 
-6.821795336000495 9.988716020093349 2.251494413469772 4.359313871859804 0 0 12:1 84:0 105:1 106:6 
-0 4.743389603280725 0.7714632266995155 0.0274464427524879 0 0 12:1 21:0 25:1 58:1 63:0 84:1 105:1 106:6 
-0 4.839081631312289 0 0.7442594088465846 0.9005488457452523 1.830653961169963 12:1 21:0 25:1 58:1 63:0 67:1 84:0 100:1 105:1 106:6 
-0 4.169588317228896 0 0 0 0 12:1 21:1 42:0 58:1 63:1 106:6 
-0.1752804543971221 30.86604106713838 0 0 0 0 12:1 21:1 42:0 58:1 63:1 106:6 
-0.6080535351792123 1.431234394121086 0 0.1372847825775311 0 0 12:1 21:1 42:1 58:1 63:1 106:6 
-6.162766851987826 2.233016810443905 2.632026967323646 4.821551597477389 4.027418181074939 9.391116956858786 12:1 84:0 105:0 106:6 
-0 19.59693972747781 0 0 0 0 12:1 21:0 25:1 58:1 63:0 84:0 105:1 106:6 
-0 0 0 0 0 0.6725348765245045 12:1 21:0 25:1 58:1 63:0 67:1 84:0 100:1 105:0 
-1.750951242728837 -0 0 0 0 0 21:0 54:1 
-0.1600394291153213 -0 9.67466739693203 0 0 0.1654990082962204 75:1 84:0 
-0 -0 0 0.296697419129015 0 0 21:1 25:1 46:1 49:1 63:0 
-0 -0 0 0 12.28469004799183 0 21:0 46:1 49:1 79:1 84:0 96:1 105:1 
-0 -0 0 0.08064741362155911 0 0 21:0 25:1 28:1 42:0 57:1 63:0 79:1 84:1 96:1 105:1 
-0 -0 0 0.01239413264498778 0.209586976601834 0 21:0 54:1 84:1 
-12.46921246713931 -0 0 0 0 0 84:0 100:1 105:0 
-0 -0 0 0 12.04431912908615 0.00306277866136795 21:0 79:1 84:0 96:1 105:1 
-0 -0 0 0.6007317587860297 0.0852969275254116 0 21:0 36:1 57:1 63:0 84:1 
-0 -0 0 0 1.432337821382799 0 21:0 46:1 49:1 84:1 
-0 -0 0 0.5003909342604981 0 0 21:0 25:1 28:1 57:1 63:0 84:1 
-0 -0 0 1.160848973239678 0 0 21:0 25:1 46:1 49:1 63:0 84:1 
-0 -0 0 6.629111080182774 0 0 21:0 46:1 49:1 84:0 100:1 105:1 
-0 -0 0 1.455363311925659 0 0 21:0 25:1 28:1 57:1 63:0 84:0 100:1 105:1 
-0 -0 0 12.2170633900554 0 0 21:1 33:1 42:0 46:1 49:1 63:1 84:1 
-0 -0 0 0.1935478574890808 0 0 21:0 25:1 28:1 42:0 57:1 63:0 84:1 100:1 105:1 
-0 -0 0 0 0 0.2478843629779308 21:0 54:1 84:0 105:1 
-0 -0 0 1.014282443169603 0.2078455998913679 0.06228377790079818 21:0 33:1 63:0 84:1 
-0 -0 0 0.3344683414694534 0 0.1504743555686427 21:0 84:0 96:1 105:1 
-0 -0 11.88323642241888 0.9481433882738957 0.05472245738056202 0 21:0 63:0 75:1 84:1 
-6.486150853183048 -12.43281499443621 0 0 6.186954868316276 7.973521363504309 84:0 105:0 
-0 -0 0.1050658897152269 0 0 0 21:0 36:1 42:0 57:1 63:0 84:1 105:1 
-0 -0 0.2208512009453223 0 0 0 21:1 36:1 42:0 57:1 63:0 84:1 105:1 
-0 -0 0 0 0 0.05964589530711716 21:0 36:1 42:0 57:1 63:0 84:0 105:1 
-0 -5.664217858884971 0 0 0 0 21:1 42:0 63:0 
-0 -0 0 2.968629857367567 0 0 21:0 25:1 46:1 49:1 63:0 84:1 105:1 
-0 -0 0 0 5.379740884074921 0 21:0 46:1 49:1 84:0 105:0 
-0 -0 0 0.2787019736132624 0.202512793255809 0 21:0 42:0 63:0 79:1 84:1 96:1 105:1 
-0 -0 0 0 0 0.2146984162894603 21:0 42:0 46:1 49:1 63:0 84:0 105:1 
-0 -0 2.145315638898548 0.6069662365860009 0 0 21:1 33:1 42:0 46:1 49:1 63:0 84:1 105:1 
-0 -0 0 0.08298316127718842 0 0.1195026844844866 21:0 25:1 28:1 42:0 57:1 63:0 84:0 105:1 
-0 -0 0.6671341352610816 0 0 0 21:1 25:1 28:1 42:0 57:1 63:1 84:1 105:1 
-0 -0 0 0.04784673917451558 0.1176512267674535 0.01477871025509645 6:1 21:0 36:1 42:0 57:1 63:0 79:1 84:1 96:1 105:1 
-6.900447835403409 -0 0 0.1219300296364189 0 0.03275480408910483 4:1 21:0 25:1 28:1 57:1 63:0 79:1 84:1 96:1 105:1 
-0 -0 0 0.4788123681446413 0 0 1:1 21:0 42:0 46:1 49:1 63:0 64:1 84:1 100:1 105:1 
-0 -0 0 0 0 0.05380542606873678 1:1 21:1 25:1 28:1 42:0 43:1 63:0 79:1 84:1 96:1 105:1 
-0 -0 0 0.04281397869015253 0 0 3:1 21:1 33:1 42:0 46:1 49:1 63:1 84:1 
-0 -0 0 0.1311403884277241 0 0 3:1 21:1 25:1 28:1 42:0 57:1 63:1 66:1 84:1 
-0 -0 0 0 0 0.09518505629249766 3:1 21:1 36:1 42:1 45:1 63:1 
-11.8074234670183 -0 0 0 0 0 4:1 21:1 42:0 46:1 49:1 63:0 84:1 
-0 -0 0.8765328121784259 0 4.760799006204563 0 21:1 25:1 28:1 42:0 46:1 63:1 
-0 -0 0 0 0 0.01205324330351874 1:1 21:1 36:1 42:0 43:1 63:1 
-0 -0 0 0 0 0.04171210976199144 9:1 21:1 36:1 42:0 58:1 63:0 72:1 84:1 
-0 -0 0 0 0 0.09566449709860526 9:1 21:1 37:1 42:0 51:1 63:1 
-0 -13.29876841205067 0 0 0 0 12:1 21:1 36:1 42:0 57:1 63:1 
-0 -0 0 0.8349563196750964 0 0 21:0 46:1 106:6 
-1.385670370096237 -0 0 0 0 0.1164534672381189 21:0 54:1 106:6 
-6.410182711204079 -0 0 0 0 0 21:1 37:1 42:0 54:1 63:0 106:6 
-0 -0 0 0 10.66300769762829 0 21:0 46:1 84:1 106:6 
-0 -0 0 0.9694728005014256 0 0 21:0 36:1 57:1 63:0 84:1 106:6 
-0.164477146300481 -0 0 0 0 0 21:1 36:1 42:0 63:0 106:6 
-0 -0 0 0.05056028776556561 0 0 21:0 36:1 57:1 63:0 84:0 100:1 105:1 106:6 
-0.06825295525247577 -0 13.52764074529505 0 0 0 21:1 33:1 63:0 106:6 
-1.738711860327254 -0 0 0 0 0 21:1 37:1 42:0 54:1 63:0 84:1 106:6 
-0 -0 3.59881854340871 0 0 0 21:1 33:1 42:0 63:1 106:6 
-0.4464531961642206 -0 0 0 0 0 21:1 37:1 42:1 63:1 106:6 
-0 -12.7218464317833 0 0 0 0 84:0 105:1 106:6 
-0 -5.137729747485881 0 0 0 0 21:0 84:1 106:6 
-2.605636293134663 -0 0 0 0 0 21:1 42:0 63:0 106:6 
-13.67549980348388 -0 0 2.397532535343028 0 9.713357928792005 84:0 105:0 106:6 
-0 -0.4722232403702328 0 0 0 0 21:0 84:0 100:1 105:1 106:6 
-0 -0 0 2.582501515826314 0 0 21:0 46:1 84:0 105:0 106:6 
-0 -0 0 3.221048023299764 0 0 21:0 25:1 63:0 84:0 100:1 105:1 106:6 
-0 -0 0 0.3342051967795987 0 0 21:0 36:1 57:1 63:0 84:0 105:1 106:6 
-0 -0 0 4.828084438340599 0 0.1162107801625408 21:0 36:1 42:0 57:1 63:0 84:0 105:1 106:6 
-32 -0 0 0 0 0 21:1 42:0 63:0 106:6 
-0 -0 5.660757073325525 0 0 0 21:1 33:1 42:0 63:0 84:1 106:6 
-7.10551781389587 -0 0 0 0 0 21:1 42:0 63:1 106:6 
-0 -7.151105788841507 0 0 0 0 21:1 25:1 42:0 58:1 63:0 84:1 105:1 
-0 -0 7.105589497669127 0 0 0 16:1 21:0 43:1 63:0 84:1 106:6 
-0.1166421427739095 -0 0 0 0 0.01198425484498535 21:1 22:1 42:0 58:1 63:0 106:6 
-0.1166878844308115 -0 0 0.09619152242408237 0 0.1476545994448385 84:0 86:1 105:0 106:6 
-0 -0 0 0.2313769624457385 0 0.1677453072069675 21:0 65:1 84:0 105:1 106:6 
-0.1640542593265671 -0 0 0 0 0 21:1 42:0 44:1 63:0 106:6 
-0.05226526690876008 -0 0 0.1059092889070806 0 0.09203652587786454 84:0 87:1 105:0 106:6 
-0 -0 0 0.245456198521715 0 0.1672063949445526 21:0 66:1 84:0 105:1 106:6 
-0.1629727103662403 -0 0 0 0 0 21:1 42:0 45:1 63:0 106:6 
-32 -0 0 0 0 0 4:1 21:0 79:1 84:0 96:1 105:1 106:6 
-0 -0 32 0 0 0 16:1 21:0 46:1 63:0 75:1 84:1 106:6 
-0 -32 0 0 0 0 12:1 21:1 25:1 42:0 58:1 63:0 106:6 
-0 -0 0 0 0 0.1629540343294658 84:0 91:1 105:1 106:6 
-0.1596148255764057 -0 0 0 0 0 21:0 70:1 84:1 106:6 
-0 -0 0 0 0 0.1812692055538785 64:1 84:0 93:1 105:1 106:6 
-0.05210883356863165 -0 0 0.005671814336298491 0 0.05232483821296371 77:1 81:1 84:0 86:1 105:0 106:6 
-0 -0 0 0.07828153733732512 0 0.1000299378924672 2:1 21:0 56:1 60:1 63:0 79:1 84:0 98:1 105:1 106:6 
-0 -0 0.8929043688792327 0 0 0.06313421550219329 16:1 21:0 35:1 39:1 42:0 44:1 63:0 77:1 84:1 105:1 106:6 
-0.1161526399981278 -0 0 0 0 0.104468565140158 77:1 81:1 84:0 87:1 105:0 106:6 
-0.09506570898559831 -0 0 0 0 0 14:1 18:1 21:0 66:1 84:0 100:1 105:0 106:6 
-0 -0 0 0.03676490834661904 0 0.07670859826585717 3:1 21:0 56:1 60:1 63:0 79:1 84:0 98:1 105:1 106:6 
-0 -0 0.817057114593543 0 0 0.04173894344088934 16:1 21:0 35:1 39:1 42:0 45:1 63:0 77:1 84:1 105:1 106:6 
-0 -0 0 0 0 0.004638121605085503 14:1 21:1 24:1 42:0 58:1 63:0 84:1 106:6 
-0.4435842166822521 -0 0 0 0 0 21:1 37:1 42:0 56:1 63:1 106:6 
-0.4621820493729473 -3.525708366573218 0 0 0 8.725414060653424 67:1 84:0 100:1 105:0 106:6 
-32 -0 0 0 0 0 4:1 21:0 79:1 84:0 96:1 105:0 106:6 
-0 -0 2.926161823840663 0 0 0 16:1 21:0 46:1 63:0 75:1 84:0 99:1 105:1 106:6 
-0 -0 0 0.001664931457307187 0 0 15:1 21:1 33:1 42:0 57:1 63:1 84:1 106:6 
-0 -0 0 0 0 0.149833306904687 68:1 84:0 96:1 105:0 106:6 
-0.1650418233209096 -0 0 0.02194917925521422 0 0.1929998759981478 69:1 84:0 90:1 105:0 106:6 
-0 -0 0 0.1249658611834129 0 0.1192909672452981 6:1 21:0 48:1 63:0 79:1 84:0 94:1 97:1 105:1 106:6 
-0 -0 1.141226954990009 0.05206030663849157 0 0.08980001954013053 16:1 21:0 27:1 42:0 48:1 63:0 73:1 76:1 84:1 97:1 105:1 106:6 
-0 -0 0 0 0 0.04043779065213701 10:1 13:1 21:1 27:1 42:0 58:1 63:0 76:1 84:1 106:6 
-0.2623492547171474 -0 0 0 0 0 13:1 21:1 37:1 42:0 52:1 55:1 63:1 106:6 
-0 -0 11.21645895347155 0 0 0 16:1 21:1 42:0 43:1 63:0 84:1 106:6 
-0 -1.458029168267188 0 0 0 0 21:1 22:1 42:0 58:1 63:1 106:6 
-0 -0 0 0.1956773485114618 0 0 21:0 46:1 84:0 87:1 105:1 106:6 
-0 -0.0731538948694327 0 0 0 0.110752351137131 21:0 46:1 67:1 84:0 100:1 105:1 106:6 
-7.047525800699833 -0 0 0 0 0 4:1 21:0 25:1 63:0 79:1 84:1 96:1 105:1 106:6 
-0 -0 32 0 0.5182297287870755 0 16:1 21:1 42:0 46:1 63:0 75:1 84:1 106:6 
-0 -32 0 0 0 0 12:1 21:1 25:1 42:0 58:1 63:1 106:6 
-0.1663521244886548 -0 0 0 0 0 6:1 21:1 42:0 48:1 63:0 106:6 
-0 -0 0 0.1363780227516896 0 0 21:0 46:1 84:0 91:1 105:1 106:6 
-0 -0 0 0.006306367624719892 0 0 21:0 25:1 63:0 70:1 84:1 106:6 
-0 -0 0 0.3709894815578264 0 0 21:0 46:1 64:1 84:0 93:1 105:1 106:6 
-0 -0 0 0.09624675058892751 0 0.06862539321622158 1:1 21:0 25:1 63:0 72:1 84:1 106:6 
-0.1652681247279449 -0 0 0 0 0.07241901862331804 9:1 21:1 42:0 43:1 63:0 106:6 
-0 -0 0 0.05208882769027021 0 0 21:0 46:1 77:1 81:1 84:0 86:1 105:0 106:6 
-0 -0 0 0.1094919155282066 0 0 14:1 18:1 21:0 25:1 63:0 65:1 84:0 100:1 105:1 106:6 
-0 -0 1.504664977101723 0 0 0 16:1 21:1 35:1 39:1 42:0 44:1 63:0 77:1 84:1 105:1 106:6 
-0 -0.5142852396924763 0 0 0 0 14:1 21:1 23:1 42:0 58:1 63:1 84:1 106:6 
-0 -0 0 0.1125217867518078 0 0 21:0 46:1 77:1 81:1 84:0 87:1 105:0 106:6 
-0 -0 0 0.0833704246691206 0 0 14:1 18:1 21:0 25:1 63:0 66:1 84:0 100:1 105:1 106:6 
-0 -0 1.579640290217204 0 0 0 16:1 21:1 35:1 39:1 42:0 45:1 63:0 77:1 84:1 105:1 106:6 
-0 -0.5132633004390617 0 0 0 0 14:1 21:1 24:1 42:0 58:1 63:1 84:1 106:6 
-0 -0 0 0.2508232732717369 7.828771894319223 0 21:0 46:1 67:1 84:0 100:1 105:0 106:6 
-32 -0 0 0.1450231215108959 0 0.01503963156703046 4:1 21:0 25:1 63:0 79:1 84:0 96:1 105:0 106:6 
-0 -0 31.99927409310636 0 0 0.08044582197868043 16:1 21:0 42:0 46:1 63:0 75:1 84:0 99:1 105:1 106:6 
-0 -16.89867627500017 0 1.688445810907351 0 0.07715849415788957 12:1 21:0 25:1 42:0 58:1 63:0 78:1 84:1 99:1 105:1 106:6 
-0 -0 0 8.581957458551738 0 0 15:1 21:1 37:1 42:0 54:1 63:0 78:1 84:1 105:1 106:6 
-0 -0 0.112748130471753 9.769975681972561 0 0 15:1 21:1 33:1 42:0 57:1 63:1 84:1 106:6 
-0 -0 0 0.09075791645191159 0 0 21:0 46:1 68:1 84:0 96:1 105:0 106:6 
-0 -0 2.38110832309774 0.1454027171411254 0 0 5:1 21:0 25:1 63:0 75:1 84:0 100:1 105:1 106:6 
-0 -9.67470028537628 0 0 0 0.04716678223659655 12:1 21:0 42:0 47:1 63:0 79:1 84:1 89:1 105:1 106:6 
-0 -0 5.550691721296282 0 0 0 16:1 21:1 26:1 42:0 54:1 63:0 68:1 84:1 106:6 
-0.1075985047227446 -0.511989692705708 0 0 0 0.07640201674394366 5:1 21:1 33:1 42:0 58:1 63:1 106:6 
-0 -0 0 0.157738040767212 0 0 21:0 46:1 69:1 84:0 90:1 105:0 106:6 
-0 -0 0 0.09707925941750199 0 0 6:1 21:0 25:1 63:0 69:1 84:0 100:1 105:1 106:6 
-0 -0 2.152089278833062 0 0 0 16:1 21:1 27:1 42:0 48:1 63:0 73:1 76:1 84:1 97:1 105:1 106:6 
-0 -0.1564127608735989 0 0 0 0 10:1 13:1 21:1 27:1 42:0 58:1 63:1 76:1 84:1 106:6 
-0 -0 0 0 0 0.1382288734697325 13:1 21:1 37:1 42:1 52:1 55:1 63:1 106:6 
-0 -0 -0.5003714545545296 0 0 0 16:1 21:0 25:1 28:1 63:0 75:1 84:1 
-0 -0 -0.6134101296134704 0.8389710169025781 0 0 16:1 21:1 25:1 28:1 42:0 63:0 75:1 84:1 
-0 -0 -9.118489858398645 0 0 0.1522867138763929 16:1 21:0 63:0 75:1 84:1 
-0 -0.6346391220217875 -0 0.8730959252296084 0 0 16:1 21:1 42:0 63:0 75:1 84:1 
-0 -0 -0 0 0.4331933845872488 0 16:1 21:0 46:1 75:1 84:0 88:1 91:1 105:0 
-0 -0.3050882022448607 -0 0.4326185407847631 0 0 16:1 21:1 42:0 63:1 75:1 84:1 
-0.454000463087973 -0.3696059269727787 -0.09056626193905778 0.5513071922885685 0 0.03766530495873786 16:1 21:1 42:1 63:1 75:1 84:1 
-0 -0 -0.5534936331500682 0 0 0 16:1 21:1 36:1 42:0 48:1 63:0 75:1 84:1 
-0.467463363257312 -0.3796671962546078 -3.430124383228017 0.5605279620765101 0 0.1375399625904252 16:1 21:1 22:1 42:0 43:1 63:1 75:1 84:1 
-4.290547611849631 -0.7925730018075179 -0.3619749873738141 0.7556095609493929 0 1.422116883959211 16:1 21:0 25:1 63:0 75:1 84:0 88:1 91:1 105:0 
-0.3352324045712534 -3.032128876237423 -2.611159673856086 0.507136030264457 0 0.7239231624613546 16:1 21:0 25:1 63:0 75:1 84:0 99:1 105:1 
-1.966813462733778 -1.867315023006415 -2.682465765886204 2.828893071912165 1.371417907751656 1.225244125464723 16:1 21:0 36:1 42:0 57:1 63:0 72:1 84:1 93:1 105:1 
-0.5314398481995941 -0 -7.407583547875937 0 3.426787365938195 0 16:1 21:0 46:1 75:1 84:0 99:1 105:0 
-1.055877998910819 -2.623506402568838 -2.429283466873915 2.707404182871582 0.3754544098749159 0 16:1 21:0 25:1 63:0 75:1 84:1 106:6 
-0 -0 -0.4035269599217 0 0.06432358365687416 0 16:1 21:1 36:1 42:0 63:0 75:1 84:1 106:6 
-0 -0 -4.324674684839122 0 0 0 16:1 21:0 46:1 75:1 84:0 105:1 106:6 
-0.8154425015755665 -0.8213099477577113 -32 1.925852342621108 4.60376377919953 1.012036501688553 16:1 21:1 33:1 42:0 46:1 63:0 84:1 106:6 
-0.2948298330122761 -1.982552495991048 -19.23304588578588 0 0 2.934408102449702 16:1 21:0 63:0 75:1 84:1 106:6 
-0.6133616702621314 -1.780234436653066 -32 2.375040441485034 0.3331934969137272 0.4150462516885664 16:1 21:0 46:1 75:1 84:0 105:1 106:6 
-1.73729348803079 -0.0867958152359011 -1.105696887332265 0.322839475320696 0.02267527236890219 2.722321611619762 16:1 21:0 46:1 75:1 84:0 88:1 105:0 106:6 
-2.250173499304577 -1.08137518324051 -7.174431587781033 0.8657510722456847 0 0.1722848220496116 16:1 21:1 33:1 42:0 46:1 63:0 84:1 105:1 106:6 
-0 -0 -11.36201232935284 0 0 0 16:1 21:1 42:0 63:0 75:1 84:1 106:6 
-2.201970500075449 -0 -20.93828535852531 0 0.08278057849126694 0 16:1 21:1 42:0 63:0 75:1 84:1 106:6 
-1.646169853642205 -0 -3.823394324283024 0 0.4354105061188887 0 16:1 21:1 42:0 63:1 75:1 84:1 106:6 
-0 -0 -19.28644677389235 0.3597189748344476 1.77272360902001 0 16:1 21:0 46:1 75:1 84:0 105:0 106:6 
-0 -0 -0 0 3.042424573199817 1.18684308001302 16:1 21:0 46:1 75:1 84:0 88:1 105:0 
-2.778315363393391 -2.460299359785594 -0.2891974314837747 5.901355760287895 3.897811308770528 0.8622314446640509 16:1 21:0 33:1 42:0 46:1 63:0 84:1 105:1 
-0 -2.084717294427392 -0 -0 0 0 15:1 78:1 84:0 105:1 
-0 -0 -0 -0 0 0.2924784970569984 15:1 21:0 57:1 84:1 
-0 -0 -1.472153043753705 -0 0 0 15:1 21:0 46:1 49:1 84:0 100:1 105:1 
-0 -0 -0.06798162174907715 -0 0 0 15:1 21:1 33:1 42:0 46:1 49:1 63:1 84:1 
-0 -0.03685102677343016 -0 -0 0 0 15:1 21:1 42:0 46:1 49:1 63:0 84:1 
-0 -0 -5.393096948060988 -0 0 0 15:1 21:0 25:1 46:1 49:1 63:0 84:0 100:1 105:1 
-0 -0.846888164353405 -0 -0 0 0 15:1 21:1 42:0 46:1 49:1 63:0 84:1 
-0 -0 -13.93191079763033 -0 0 0 15:1 21:1 33:1 42:0 46:1 49:1 63:1 84:1 
-0 -0 -0 -0.01337985456341635 0 0 15:1 21:0 42:0 46:1 49:1 63:0 84:1 100:1 105:1 
-0 -0.2984339918981983 -0 -0 0 0 15:1 78:1 84:0 105:0 
-0 -0.2461145800057717 -0 -0 0 0 15:1 21:0 57:1 84:0 105:1 
-0 -0 -0 -0.6688204407290685 0 0 15:1 21:0 46:1 78:1 84:0 105:1 
-0 -0 -0 -0.5814578526144033 0 0 15:1 21:0 25:1 57:1 63:0 84:1 105:1 
-0 -0.07452809685853298 -0 -0 0 0 15:1 21:0 46:1 49:1 84:0 105:1 
-0 -0 -0 -0.006382520239945189 0 0 15:1 21:0 25:1 46:1 49:1 63:0 84:1 105:1 
-0 -0 -0 -0.01222007394121776 0 0 15:1 21:0 42:0 46:1 49:1 63:0 84:1 105:1 
-0 -0 -0 -0.5883551556887153 0 0 15:1 21:0 25:1 46:1 49:1 63:0 84:1 105:1 
-3.174105964428231 -2.545822263062346 -0 -0 0 2.486026771091431 15:1 78:1 84:0 105:0 
-0 -1.268461602498369 -0 -0 0 0.0812270847618641 15:1 21:0 57:1 84:0 105:1 
-2.376497682818957 -0 -0 -0 0 0 15:1 21:0 37:1 42:0 54:1 63:0 78:1 84:0 105:1 
-0 -0 -0 -0 4.019284731625207 0 15:1 21:0 46:1 78:1 84:0 105:0 
-0 -0.56283698494686 -0 -0 0 0.8738979832764141 15:1 21:0 25:1 57:1 63:0 84:0 105:0 
-0 -0.1509571567811704 -0 -0 0 0 15:1 21:0 46:1 49:1 84:0 105:0 
-0 -0 -0 -2.862509150671301 0 0 15:1 21:0 33:1 42:0 46:1 49:1 63:0 84:1 105:1 
-0 -0.4049237987128122 -0 -0 0 0 15:1 21:0 25:1 46:1 49:1 63:0 84:0 105:0 
-0 -0 -0 -0.2168234520666401 0 0 15:1 21:0 42:0 46:1 49:1 63:0 84:1 105:1 
-0 -0.1155209084411549 -0 -0 0 0 15:1 21:0 42:0 46:1 49:1 63:0 84:0 105:1 
-0.4352675397091335 -0.38306767848854 -0 -0.1667699261424552 0 0 15:1 78:1 84:0 86:1 105:1 
-0 -0.0824628565883356 -0 -0 0 0.2557554376951115 15:1 21:0 57:1 65:1 84:1 
-0 -0 -0 -0.4624714619802078 0.2736315723915025 0 15:1 21:0 46:1 78:1 84:0 87:1 105:1 
-0 -0 -0.05540286480103525 -0 0 0 15:1 21:0 37:1 42:0 54:1 63:0 78:1 84:1 96:1 105:1 
-0 -0 -0.004222718379966993 -0.007711493254202137 0 0 15:1 21:1 33:1 42:0 57:1 63:0 75:1 84:1 
-0 -0 -0 -0.05652453509602985 0.3371903472612734 0 15:1 21:0 46:1 78:1 84:0 90:1 105:0 
-0.4418645775434957 -0.1157603333504859 -0.4465757861732756 -0 0 0 15:1 21:0 25:1 57:1 63:0 69:1 84:0 100:1 105:1 
-0.9581830665378369 -0.1308696319699627 -0.2093160558455469 -0.0633221451039853 3.869699851572793 0 15:1 21:0 46:1 49:1 70:1 84:1 
-1.696579843713863 -0.5115765066814401 -0.938035158443192 -0 4.576671694954119 2.469520233669415 15:1 21:0 46:1 49:1 67:1 84:0 100:1 105:1 
-0 -0 -0.806740250851353 -0.4679745229147297 0 0 15:1 21:0 42:0 46:1 49:1 63:0 65:1 84:1 100:1 105:1 
-0.4269730183748032 -0.2808780929328701 -0.953182546783625 -0 0 0 15:1 21:1 33:1 42:0 46:1 49:1 63:0 66:1 84:1 87:1 105:1 
-0.01008664972816416 -0.2121041140735212 -0.8877349359801808 -0.4756134027998346 0 0 15:1 21:0 42:0 46:1 49:1 63:0 64:1 84:1 85:1 105:1 
-0.01500462008351698 -0.1695795973837119 -0.6888094622997538 -0.8317962683848377 0 0 15:1 21:1 37:1 42:0 54:1 63:0 78:1 84:1 93:1 105:1 
-0.2449667855406226 -0.1959971487080163 -0.7960117798478441 -1.140514544250595 0.043631191718778 0.1117438482175561 15:1 21:1 33:1 42:0 57:1 63:1 72:1 84:1 
-0.9793328542303907 -0.4012696976696227 -1.011425120629587 -0 0 0 15:1 21:1 37:1 42:0 54:1 63:0 78:1 84:1 94:1 105:1 
-0.2487158768127247 -0.1932779658842625 -0.7861110777910628 -0 0.04688782508807587 0.1167533600691846 15:1 21:1 33:1 42:0 57:1 63:1 73:1 84:1 
-1.239045798632477 -0.297869963278335 -0.5007503885307657 -0.8786436243597446 2.188327510415542 0 15:1 21:0 25:1 57:1 63:0 79:1 84:0 93:1 105:1 
-0.2667090931268861 -0 -0.1128765998463446 -0.1261389952257087 0 0 15:1 21:0 37:1 42:0 54:1 63:0 78:1 84:1 95:1 105:1 
-0.1492375836313375 -0.1412584736180383 -0.09418130568062098 -0 0 0.07288946896558249 15:1 21:1 33:1 42:0 57:1 63:0 74:1 84:1 
-0.30982529665478 -0 -0.8250542149830371 -0.1278170336795464 0.6583998134999304 0 15:1 21:0 37:1 42:0 54:1 63:0 78:1 84:1 96:1 105:1 
-0.1492375836313369 -0.1435050218604926 -0.9605207172645246 -3.435186015583773 0 0.07288946896558268 15:1 21:1 33:1 42:0 57:1 63:0 75:1 84:1 
-0 -0 -0.7178884321478592 -0.1723530624085682 0 0 15:1 21:0 25:1 46:1 49:1 63:0 76:1 84:1 
-0.7374621744091484 -2.598878179488398 -9.49156442544923 -0 0 0.4949975521658224 15:1 78:1 84:0 105:1 106:6 
-0.8157507749268287 -0 -13.33952334081072 -1.351628199638727 3.171811241506242 0 15:1 21:0 57:1 84:1 106:6 
-0 -0 -0 -0.03505571455641358 0 0 15:1 21:0 46:1 78:1 84:0 105:1 106:6 
-0.2706876681634555 -0.1568514362900713 -0 -1.51634848512172 0 0 15:1 21:0 25:1 57:1 63:0 84:1 106:6 
-1.760451635779152 -0.1828330662804296 -2.872027806966149 -0 0 0 15:1 21:0 57:1 84:0 100:1 105:1 106:6 
-0 -0 -1.130712351210013 -0 0 0 15:1 21:0 46:1 78:1 84:0 105:0 106:6 
-0.04169164857381054 -0.6596123226106143 -0.8366535258656521 -0 0 0 15:1 21:0 25:1 57:1 63:0 84:0 100:1 105:1 106:6 
-0 -0.1035479584793271 -0 -0 0 0 15:1 21:0 57:1 84:0 105:1 106:6 
-0 -0 -1.320488288406312 -2.181980835565194 0.227718133311879 0 15:1 21:0 46:1 78:1 84:0 105:1 106:6 
-0.06706703272581137 -0.379990255555292 -5.103328262495974 -1.279259779300495 0 0 15:1 21:0 25:1 57:1 63:0 84:1 105:1 106:6 
-0 -1.164962675041959 -0 -0 0 0.3573173072779756 15:1 21:0 57:1 84:0 105:1 106:6 
-7.824597249314499 -2.545789838811015 -0.2974638736909568 -0 0 3.93668247962792 15:1 78:1 84:0 105:0 106:6 
-1.976520527935828 -2.501431444618832 -0 -0 0 4.303540542874633 15:1 21:0 57:1 84:0 105:0 106:6 
-0.07322695757775427 -0 -2.460699308847158 -2.079063004193011 3.270607233888888 0 15:1 21:0 46:1 78:1 84:0 105:0 106:6 
-0 -0.08647536137746263 -0 -0 0 0 15:1 21:0 25:1 57:1 63:0 84:0 105:0 106:6 
-2.666829506440152 -4.983847718212157 -0.8498179999610478 -2.503555845042814 -0.6341332971913907 0.3204119827671703 21:0 46:1 67:1 70:1 84:0 99:1 105:1 
-3.098755564130075 -1.899750631933594 -10.33919953453226 -0 -5.936242424509788 0.8299543503288822 21:0 46:1 67:1 70:1 84:0 105:1 
-0 -0.3009042771493371 -0 -0 -0 2.024895713685768 21:0 46:1 67:1 70:1 84:0 105:0 
-0.5209484676383416 -0.5229806696507892 -0 -0 -0.6724666439366374 0.3387773447058506 21:0 46:1 67:1 70:1 84:0 85:1 105:0 
-1.300130996197291 -0.5266833281707801 -0.8494713990650552 -2.559481030621723 -0.685018125066066 1.661134781417992 21:0 46:1 67:1 70:1 84:0 88:1 105:1 
-2.639338096538058 -0.4273103485011301 -0 -0.01159409561618242 -0.05348021344122741 0.02515319830436681 21:0 46:1 67:1 70:1 84:0 99:1 105:0 
-9.270501236115306 -3.687559704266422 -31.09963088544885 -5.92232499116442 -6.715961819398911 2.465932139211453 21:0 46:1 79:1 84:0 96:1 105:0 
-0 -0 -0 -1.094876074010965 -0.8758529051408627 0.8481493977669264 21:0 38:1 46:1 63:0 67:1 84:1 106:1 
-0.1346837701867534 -0.3714415365992345 -0 -0.4032002699660385 -0.5398348141675977 0.2304026877171949 21:1 38:1 42:0 46:1 63:0 67:1 84:1 106:1 
-2.929832984284962 -4.957512579680968 -16.25522032409833 -2.426737773867324 -6.103405810657596 4.386968755349142 21:0 38:1 46:1 63:0 67:1 84:1 106:6 
-4.405582523269665 -0.6240864088193784 -2.583126916108006 -4.940189695602091 -0.467465093724153 0.2298263223106992 21:1 38:1 42:0 46:1 63:0 67:1 84:1 106:6 
-0 -0 -0 -0 -0 3.253187853218092 21:0 38:1 46:1 63:0 67:1 84:1 106:4 
-2.570726140641639 -4.223408551219905 -5.117757266100027 -1.334539561808154 -3.40988731633692 -6.538977298852158 17:1 67:1 84:0 105:0 106:1 
-3.06220761184732 -1.28889338342411 -2.226364861361636 -2.721464312896728 -1.145664157369188 -1.607471308790118 17:1 80:1 84:0 88:1 105:0 106:1 
-3.910577487570207 -0.7889907142663394 -0.4317549216048309 -1.20751385517112 -1.16564056693107 -0 17:1 21:0 59:1 67:1 84:0 105:1 106:1 
-0 -1.292781026638905 -2.23055396807632 -0.4297028361176986 -1.137788930348866 -0.1924032905901935 17:1 80:1 84:0 101:1 105:0 106:1 
-0.2884494995935872 -0 -0 -0 -0 -0 17:1 21:0 59:1 80:1 84:0 88:1 105:0 106:1 
-0.6112564238191206 -0.4926653207564423 -0.5647022601111289 -0.5326897792631983 -0.5166909677553075 -2.101659057279079 17:1 21:0 38:1 59:1 63:0 67:1 84:0 105:1 106:1 
-3.491235220852989 -5.392669149424019 -13.93016202281416 -2.802094864434077 -4.044256764745048 -3.345940921305248 17:1 67:1 84:0 105:0 106:6 
-4.564670259546493 -1.957038319213392 -2.476022750208606 -2.665285125485753 -1.873490331180687 -0.1048681145105117 17:1 80:1 84:0 88:1 105:0 106:6 
-1.25801601885411 -0.6959585794317782 -0.6516036441077873 -0.09373479090061686 -0.2235022038935043 -0 17:1 21:0 59:1 67:1 84:0 105:1 106:6 
-0.8762092106333981 -1.952886352850462 -2.471493585890614 -0.6765813302014642 -1.880818798603901 -0.301807417239465 17:1 80:1 84:0 101:1 105:0 106:6 
-0.5772931003456454 -0 -0 -0 -0 -0 17:1 21:0 59:1 80:1 84:0 88:1 105:0 106:6 
-1.132061886993504 -0.495848844167631 -0.5660413321639819 -0.5403415112053001 -0.5279799985510001 -2.421667118216762 17:1 21:0 38:1 59:1 63:0 67:1 84:0 105:1 106:6 
