svm_type c_svc
kernel_type rbf
gamma 0.25
nr_class 7
total_sv 170
rho -0.322182 -0.389163 -0.564962 0.182008 -0.391661 -0.343475 -0.0497016 -0.139423 0.0101514 -0.0845026 -0.0252953 -0.190114 0.39954 -0.062022 0.00327811 0.814517 0.0433091 0.118771 -0.670988 -0.484093 0.0624554
label 10 1 0 -2 -1 -3 2
probA -5.08348 -4.49371 -4.35549 -3.66669 -4.53111 -4.36111 -4.11845 -4.06735 -3.72262 -4.25193 -4.08294 -3.26968 -3.0915 -3.37457 -3.23904 -4.19239 -3.39484 -3.26089 -4.27708 -0.9955 -3.39614
probB -0.264037 -0.797737 -0.995257 0.0521104 -0.790766 -1.07613 -0.698016 -0.709023 -0.274009 -0.575187 -0.799955 0.0564848 0.690062 0.260183 -0.0154333 0.770091 -0.00456205 -0.0870914 -0.580456 -1.36915 -0.141537
nr_sv 33 17 10 8 72 5 25
SV
0.2037122555717366 0.7960856210451984 0.02716460447735101 3.20466060406994 0.004586236131574458 0 2:1 18:1 19:1 29:1 40:1 
0 0 0.1182308133981583 0 0 0 2:1 3:1 13:1 40:1 
0 2.32994097584734 0.05262494904374225 1.119610148208114 0.423832691573947 0.009389347386554853 2:1 24:1 
0.8122351292336274 1.494437474701165 0.1554038357024867 0.4574679503625798 0.2094755873457772 0.3522877571506373 2:1 17:1 18:1 19:1 29:1 40:1 
0.8259593778658146 1.514357760314824 0.1483939780994481 0.6352104208138186 0.2156087489400848 0.2687520444418822 2:1 17:1 18:1 19:1 29:1 34:1 
0.1573082221413892 0.1542704573668793 0.03142850252263831 0 0.2067234299773241 0.1594445754290225 2:1 18:1 40:1 
0.2201917015311568 0.139568065679742 0.107034212765407 0.2438089932837088 0.0901109748089584 0.1024391914381676 1:1 2:1 3:1 13:1 40:1 
0.5529094889545492 0.003145910221921502 0.1110338116006926 0 0.1588015064129652 0 2:1 24:1 34:1 
0 0 0 0.5017116186851418 0 0 1:1 2:1 3:1 13:1 
0.8540472394350479 0.2155697581047568 0.134598319527904 0.3906576581967263 0.2152358653748387 0.2398841339149445 2:1 24:1 47:1 
0 0 0 0.6772330522424788 0 0 2:1 47:1 
0 0 0 1.214774283331936 0 0 1:1 2:1 31:1 41:1 44:1 
0.19870825284502 0.1509201302269062 0.1040126975446266 0.1680752606078276 0.1266967733236516 0.1422688183595511 2:1 18:1 19:1 47:1 
0 0 0 32 0 0 1:1 2:1 31:1 41:1 44:1 
0 0 0 32 0 0 1:1 2:1 31:1 41:1 44:1 
0.1477217515408825 0.7314934445371267 0.03545001603613066 0.7713762013706298 0.7672313613947038 0 2:1 18:1 19:1 29:1 34:1 
0.262553293216795 0.09393057759065837 0.03156381806133626 0.2357732360858064 0.1117135773258103 0.1048552671374074 2:1 18:1 47:1 
0 0 0 32 0 0 1:1 2:1 31:1 41:1 44:1 
0 0 0.09127319628387021 0.4203402744991714 0 0 2:1 3:1 13:1 47:1 
0.4159282739288169 0.413124673882298 0.6167151896399949 31.9993331552585 0.4025384028814525 0.74690551700573 1:1 2:1 31:1 41:1 44:1 
0.3478980635259297 0.3101022189963945 0.2650620956333904 1.003117253206169 0.3126807202234552 1.294167808686249 2:1 25:1 28:1 34:1 
0 0.0594181783446321 0 0 0.1598023790318168 0 2:1 18:1 
0.01657446438397907 0 0 0.2487184014800099 0 0 2:1 3:1 40:1 
0.159325679226717 0 0 0 0 0 2:1 18:1 19:1 40:1 
0.09366102090414843 0 0.1971750029935501 0 0 0 2:1 40:1 
0.3374076148200897 0.443038971992314 0.8237623959804348 0.6415537804397287 0.4798604833763249 0.2758537946275219 2:1 3:1 13:1 34:1 35:1 45:1 
0.09434157931896386 0.1019518926469909 0.3443220619064103 0.6629382591132124 0.007907958378200715 0.1063120248955008 2:1 3:1 13:1 38:1 
0.09569109752847969 0.1003824537646215 0.3443176971501727 0.6637784571629268 0.008035847003243104 0.1067299855131649 2:1 3:1 13:1 37:1 
0.09466111977971794 0.1022547525295267 0.3462665758816446 0.8443761893981516 0.3549740926735628 0.1053025269952007 2:1 3:1 13:1 33:1 
0 0 0 1.470469915475343 0 0 2:1 3:1 13:1 
0 0 0 31.96920460798638 0 0 2:1 3:1 13:1 
0 0 0.2565771528398397 0.7066915101647859 0 0.122621648851239 2:1 3:1 13:1 44:1 
0 0 0.6847612883655267 0 0 0 2:1 
-0.2276856879742693 0.7939902609164032 0.07042373368951271 0.8314305412722849 0.07282320494886414 0 8:1 18:1 19:1 29:1 40:1 
-0.1903852546532466 0.7734331358581379 0.06326505013010439 0 0.652913902167242 0 8:1 18:1 19:1 29:1 34:1 
-0.110044287732847 0.07631750605481862 0.05571769200191515 0 0.1908058212891621 0.06595845886966778 8:1 18:1 19:1 34:1 
-0.9531188107513251 1.562699658394663 0.2991043491802233 0.7867253345442543 0.3184809648807528 0.4475705753721103 8:1 17:1 18:1 19:1 29:1 40:1 
-0.637889320484811 0.3050831422598791 0.1911439081957377 0 0.2959566070503919 0.2283197581142339 8:1 24:1 34:1 
-0.9652780591002037 1.580641813518934 0.3029316372654676 0.03233454836705312 0.3220585507859028 0.4488950931059634 8:1 17:1 18:1 19:1 29:1 34:1 
-0.3570302214782654 0.09378091361636444 0.3666444328061191 4.81069941861604 0.2491963662352473 0.3946704997207262 8:1 34:1 
-0 0.1958135858344324 1.025955795391926 32 0 0.209935974596447 8:1 
-0.3210275183695722 0.06143974589004537 0.3950063486217246 5.729972170052634 0.05305121056768966 0.1234090596144102 8:1 40:1 
-0 0.04145114014435436 0 1.216686742639793 0 0.04867033012470691 8:1 18:1 19:1 
-0.2553770278582445 0.038342032252454 0.04826787741753837 0 0 0.03268315498346856 8:1 18:1 19:1 40:1 
-0 0.08331669594622793 0 3.886939733203365 0.2697128198914574 0.07212708295048292 8:1 18:1 
-0 2.058992266005759 0 6.140745182585061 0.3172444030408619 0 8:1 24:1 
-0.6298697777234982 0.3310325158388097 0.2549755496452329 0.5280183506332884 0.3185410379846229 0.3713434837787293 8:1 18:1 47:1 
-0 0.07045369573510551 0 0 0.09780239426075832 0.07444224487045857 8:1 18:1 40:1 
-0.3078164820542123 0.3029522050481371 0.1868514583557717 0 0.2970298431356067 0.2326441912334014 8:1 24:1 40:1 
-0.9353131775723666 0.3351213758645606 0.2964745350199162 0.3541892631564534 0.3211521262883242 0.2924997197879746 8:1 24:1 47:1 
-0 -0 0 6.240382660502767 0 0 18:1 19:1 29:1 40:1 
-0 -0 0 32 0 0 18:1 19:1 29:1 40:1 
-0.1312881246433665 -0.05820914342586955 0 1.912732662615605 2.267329765923745 0 24:1 45:1 
-2.780176891800806 -2.856942954240143 1.506132379794143 32 0.3355126192904754 0.9518270746010726 24:1 
-0.5992760138014693 -0.3244710485221731 1.865372682736878 2.923123524579723 0.5491153548071536 0.5632042776165045 45:1 
-0.4637180313655803 -0.4592447584008803 0.03849614917510294 0.9180059260390242 1.811857161982603 0.4972851736813544 18:1 45:1 
-0.9207654488000119 -0.903049744241477 0.3956057702944308 4.316277776143953 1.285052172554045 0.2109437233365236 18:1 19:1 29:1 34:1 
-0.9436236566064116 -0.9205970011530699 0.2937605035465205 32 0.143996601827208 0.08995144784200558 18:1 19:1 29:1 40:1 
-1.668106618933141 -1.600318441386285 0.2812764850227013 0.8293994060025227 0.3267355940329804 0.5132957191718714 17:1 18:1 19:1 29:1 34:1 
-1.64703853184251 -1.582028597809188 0.2851455977692881 0.5568190498933744 0.3295974454905045 0.5183511278210517 17:1 18:1 19:1 29:1 40:1 
-1.931153199491902 -1.631589611570048 -2.540925246189524 3.806366346879131 1.209935720626054 0.841435468767237 13:1 
-1.26665526881156 -0.7212350139759766 -1.057497411440662 1.151332507530693 0.8994517644859737 0.655613249886871 13:1 31:1 34:1 35:1 45:1 
-0.2888542230644449 -0.1448488592312656 -0.1526703293861991 0.4439474354184928 0.1138947594071943 0.1590900945927093 13:1 31:1 38:1 
-0.2886992016135898 -0.1448488592312655 -0.1533379509876113 0.3755021953351844 0.1139095404540825 0.1590900945927094 13:1 31:1 37:1 
-0.4752850776213083 -0.1447380329462698 -0.1524897827054444 0.6796577546555516 0.1139095404540825 0.3882638363268152 13:1 31:1 44:1 
-0.1263989841798031 -0.1437202491548863 -0.1538192650454993 0.3765028821907433 0.114047477996551 0.1587558543471042 13:1 31:1 36:1 
-0.3593250134763608 -0.4815838030903846 -0.3009740576403462 0.6924373476248095 0.1147463155380079 0.15927638259016 13:1 31:1 40:1 
-0.2908012471957866 -0.1441979385210932 -0.1540755249437785 0.6919990282108195 0.4161728320256892 0.1597998005016823 13:1 31:1 33:1 
-4.062216639761784 -0 -0 -0 0 0.002014366682315493 2:1 3:1 13:1 29:1 
-32 -0 -0 -0 0 0 1:1 2:1 31:1 41:1 44:1 
-0 -0 -0 -0 0 32 9:1 12:1 17:1 18:1 41:1 
-0 -0 -0 -0 0 32 9:1 25:1 28:1 41:1 
-0 -0 -0 -0 0 32 9:1 25:1 41:1 44:1 
-0 -0 -0 -0 0 32 9:1 12:1 25:1 41:1 44:1 
-0 -0 -0 -0 0 32 9:1 12:1 25:1 28:1 
-0 -0 -0 -0.1861629360457526 0.03669068106170231 0.1012083154760514 4:1 29:1 38:1 
-0.2259151479823061 -0 -0.1205452209321302 -0.1037074496906698 0 0.06621095064094575 6:1 20:1 
-0 -0.0510804831679406 -0 -0 0 0 8:1 29:1 
-32 -0 -0 -0 0 0 1:1 2:1 31:1 41:1 44:1 
-0 -0 -0 -0 0 32 9:1 12:1 17:1 18:1 41:1 
-0 -0 -0 -0 0 32 9:1 25:1 28:1 41:1 
-0 -0 -0 -0 0 32 9:1 25:1 41:1 44:1 
-0 -0 -0 -0 0 32 9:1 12:1 25:1 41:1 44:1 
-0 -0 -0 -0 0 32 9:1 12:1 25:1 28:1 
-0.1308693517467556 -0.989897567252817 -1.605100666297916 -0.515480395419727 0 0 40:1 
-0 -0 -32 -0 0 0 18:1 19:1 29:1 40:1 
-2.742711306235625 -2.603044150108518 -32 -0.01510322905242027 0 0.06846364687469901 18:1 19:1 29:1 40:1 
-0 -0 -1.828398759689503 -0 0 0 24:1 
-0 -14.81365467988559 -0 -0 0 0 8:1 
-0 -0 -1.930323480509564 -0 0 0 29:1 40:1 
-0 -32 -0 -0 0 0 8:1 
-0.9846620286709886 -2.427488576097914 -31.61647472490068 -0.1023743507819986 0.6632464935582675 0 24:1 
-32 -0 -0.09620358391304916 -1.990058878791296 0.0206449961135625 0.04000876775564149 2:1 3:1 13:1 
-0 -0 -0 -0.01511864295523931 0 0 6:1 
-0 -0 -0 -0.09712600451642268 0 0 5:1 
-0 -0 -0 -0.6047154366151986 0 0 
-0.9054588007719984 -0 -0 -0.03888723197670303 0 0 1:1 47:1 
-32 -0 -0 -0 0 0 1:1 2:1 31:1 41:1 44:1 
-0 -0 -0 -0 0 32 9:1 12:1 17:1 18:1 41:1 
-0 -0 -0 -0 0 32 9:1 25:1 28:1 41:1 
-0 -0 -0 -0 0 32 9:1 25:1 41:1 44:1 
-0 -0 -0 -0 0 32 9:1 12:1 25:1 41:1 44:1 
-0 -0 -0 -0 0 32 9:1 12:1 25:1 28:1 
-0 -0 -0 -0.09695936160558534 0 0 42:1 
-0 -0 -0 -0.4231360288151325 0.46222352756787 0 33:1 
-0 -0 -0 -0.0208418276762341 0 0 1:1 
-1.788160950396196 -0.4749285370504995 -0.3486256155172108 -0.0687921837491592 0.212905579443693 0.244487662484188 2:1 3:1 13:1 18:1 19:1 29:1 
-0.05791996628226764 -0 -0 -0.5280002910050229 0 0 35:1 
-0.5369613515197502 -0 -0 -0 0 0 3:1 
-0 -0 -0.2931050052790803 -0.01572449993137982 0.1846604953753367 0.04526081468097185 6:1 18:1 19:1 29:1 
-0.3248662586656256 -0 -0.09207730056793599 -0.1997525549336975 0 0 22:1 44:1 
-0.3502546370443199 -0 -0.07694937436096101 -0.07050592445477101 0.161338207205345 0.4157102576787018 15:1 28:1 41:1 44:1 
-0 -0 -0 -0.2288107825553768 0.02745016857132835 0.9103016773630513 9:1 12:1 31:1 
-0 -0 -0.3368112975472679 -0.01436978985564812 0.1836190241534276 0.06936154383074392 5:1 18:1 19:1 29:1 
-0 -0 -0 -0.1030827318382869 0 0 21:1 
-0 -0 -7.515781870202955 -0 0.2987430770958121 0 18:1 19:1 29:1 
-0 -0 -0 -0.09623227822579698 0 0 39:1 
-0 -0 -0.3367584591081887 -0.01378799962603586 0.1844267875194835 0.06942654762122333 18:1 19:1 29:1 39:1 
-0 -0 -0 -0.1032368584722715 0 0 7:1 
-0 -0.2608608572161542 -0 -0 1.173778533726253 0 15:1 40:1 
-0.2857618474401705 -0.5239732923980025 -0.1200476034396326 -0.8199180516909969 0.03172647455467986 0 8:1 31:1 
-0.2477535842856534 -0.4748389746742107 -0.3027205894679946 -0.05093036988439079 0.184729244437023 0.1856291897951282 1:1 18:1 19:1 29:1 47:1 
-0.8119460820688809 -0.8077692752960873 -0.9680482543901731 -0.2140172045061109 2.069199717822841 0.4656213298358337 15:1 17:1 33:1 34:1 
-32 -0.115703190188923 -0.2595987459826145 -0.09115119114729001 0 0.3376119023557391 1:1 2:1 31:1 41:1 44:1 
-0.3914772598206478 -0.7489600054950454 -0.4653923597412694 -0 0.0736430840362213 32 9:1 12:1 17:1 18:1 41:1 
-0.208411460671216 -0 -0.1027614497087731 -0.02128556041253202 0 32 9:1 25:1 28:1 41:1 
-0.3712681768442691 -0 -0.0281195270942193 -0.01930376345588989 0 32 9:1 25:1 41:1 44:1 
-0.00392735091248095 -0.02554169623852447 -0.04151385900017165 -0 0 32 9:1 12:1 25:1 41:1 44:1 
-0 -0 -0.08318509072862819 -0 0.1136969763589682 32 9:1 12:1 25:1 28:1 
-0 -0 -0.3372623000434199 -0.0134523856921463 0.1833777711149995 0.07065262260389241 18:1 19:1 29:1 42:1 
-0.2250070929961467 -0 -0.1882161041756855 -0.1147573256186993 0 0.07574472499024953 10:1 43:1 
-0.1526396449422099 -0 -0.1850912283099538 -0 0.04055956892415046 0.07657105035833098 11:1 26:1 
-0 -0 -0.0885040664933659 -0 0.03935202633240103 0 18:1 19:1 29:1 47:1 
-0 -0 -0 -0 1.173609066127861 0 15:1 43:1 
-0.1940688078775065 -0 -0.009339550710653236 -0.8201174810469374 0.007571652460536232 0 11:1 31:1 
-0 -0 -0.1409308888733718 -0 0.1298623809343718 0.028642279736205 12:1 18:1 19:1 29:1 
-0.4035613265992282 -0 -0.03427765544720869 -0.06908934883996058 0 0 28:1 47:1 
-0.1027792862197294 -0 -0 -0.03820440226369037 0.5475954710868777 0.563090261245385 15:1 41:1 44:1 
-0.3603929051317974 -0 -0.07857121087564878 -0.2898653361546808 0 0.7143311219021488 9:1 12:1 31:1 44:1 
-0.3818899665555303 -0 -0.06600516246774119 -0.003685408542273791 0 2.244062360389814 12:1 25:1 28:1 
-0.5226313724998688 -0.5633519432114342 -1.961672767287817 -0.04182596904265753 -0 0.3349456948184485 15:1 18:1 45:1 
-0.7215128123655483 -0.6328675339153796 -0.2192730425502586 -0.6904077874442115 -2.379389313629203 0.5711744257085872 15:1 18:1 33:1 34:1 
-1.372662725699342 -1.237574311691492 -1.742464566259747 -0.5956050689375714 -1.619501762247118 0.6611466426192756 15:1 18:1 19:1 29:1 33:1 34:1 
-0.519148467912051 -0.2474502566633505 -0.5580498171802215 -1.230881441138216 -2.865111980646634 0.4939402950943758 15:1 45:1 
-1.119861257700881 -1.095525207045227 -2.567736522630669 -0.5373476844249786 -1.340647949060056 0.5970757734295653 15:1 24:1 45:1 
-0 -0 -0 -0 -1.61336922719519 -0 9:1 12:1 17:1 18:1 41:1 
-0 -0 -0 -0 -1.027482045281327 -0 9:1 25:1 28:1 41:1 
-0 -0 -0 -0 -0.9709683894471094 -0 9:1 25:1 41:1 44:1 
-0 -0 -0 -0 -1.581976729767966 -0 9:1 12:1 25:1 41:1 44:1 
-0 -0 -0 -0 -32 -0 9:1 12:1 25:1 28:1 
-0 -0 -0 -0 -32 -0 9:1 12:1 17:1 18:1 41:1 
-0 -0 -0 -0 -32 -0 9:1 25:1 28:1 41:1 
-0 -0 -0 -0 -32 -0 9:1 25:1 41:1 44:1 
-0 -0 -0 -0 -32 -0 9:1 12:1 25:1 41:1 44:1 
-0 -0 -0 -0 -32 -0 9:1 12:1 25:1 28:1 
-0 -0 -0 -0 -32 -0 9:1 12:1 17:1 18:1 41:1 
-0 -0 -0 -0 -32 -0 9:1 25:1 28:1 41:1 
-0 -0 -0 -0 -32 -0 9:1 25:1 41:1 44:1 
-0 -0 -0 -0 -32 -0 9:1 12:1 25:1 41:1 44:1 
-0 -0 -0 -0 -32 -0 9:1 12:1 25:1 28:1 
-0 -0 -0 -0 -32 -0 9:1 12:1 17:1 18:1 41:1 
-0 -0 -0 -0 -32 -0 9:1 25:1 28:1 41:1 
-0 -0 -0 -0 -32 -0 9:1 25:1 41:1 44:1 
-0 -0 -0 -0 -32 -0 9:1 12:1 25:1 41:1 44:1 
-0 -0.1367422894632872 -0.3231224599109279 -0.2758295713291487 -32 -0.135413683851374 9:1 12:1 25:1 28:1 
-1.098324130382423 -1.046688285712986 -1.182858460301082 -0.7737688179634463 -32 -0.8831851584567793 9:1 12:1 17:1 18:1 41:1 
-0.5955085175936109 -0.2993135383690774 -0.3312830510058385 -0.2468816063711931 -31.96050309759785 -0.2669208932949332 9:1 25:1 28:1 41:1 
-1.029045187778898 -0.7603295314801708 -0.841857879528892 -0.8007614051259444 -32 -0.6767053660294801 9:1 25:1 41:1 44:1 
-0 -0 -0 -0 -31.30114231966242 -0 9:1 12:1 25:1 41:1 44:1 
-1.414336606077841 -0.8000959820972596 -0.6657366933236437 -0.5840833808155559 -2.338969585349395 -0.6960577300376859 9:1 12:1 25:1 28:1 34:1 
