svm_type c_svc
kernel_type rbf
gamma 0.03125
nr_class 4
total_sv 58
rho -0.0027971 0.0316246 -0.0345348 0.00528721 -0.0661121 -1.67462
label 10 -2 -1 0
probA -3.69025 -3.48066 -3.13716 -3.79177 -3.46844 -0.961569
probB 0.333088 0.102005 -0.240976 -0.235973 -0.545996 -0.361845
nr_sv 8 18 18 14
SV
10.70533977717645 1.000602466084561 0.4554113463359246 4:1 14:1 29:1 33:1 
10.59935447378636 0.3506295331770981 0.4625553601088751 4:1 14:1 29:1 31:1 
10.83435565058229 0.352328739637839 0.4583245030430987 4:1 14:1 29:1 42:1 
0.5028717102037439 0.3392893226748305 0.3655529864230908 4:1 5:1 7:1 44:1 
0 0.1955514564705551 0.1335654393967129 4:1 5:1 7:1 
0.01944664245345384 0.01770733489011896 0.01789327257069256 4:1 7:1 44:1 
1.390330713664714 15.91781089624793 15.89488932921189 4:1 44:1 
0 15.0352576399568 15.35789937993586 4:1 
-10.42098675844975 0.5103784125734706 0.4701261558587285 14:1 29:1 31:1 
-10.53138707914091 1.695610140607087 0.4669668440611364 14:1 29:1 33:1 
-0.1538042084007415 1.809802277316652 0.4748880347858626 14:1 29:1 32:1 
-0.2275672839370068 0 0.432506156261747 14:1 38:1 
-0 0.5105954252039829 0.04924018388791255 14:1 29:1 38:1 
-0.06255063688734623 0 0 14:1 34:1 44:1 
-10.65601580734558 0.5086102082539459 0.4741837141779386 14:1 29:1 42:1 
-0.01245477534958809 0.03505293126037301 0 14:1 19:1 34:1 44:1 
-0.470730342237604 0.488865364721155 13.82022062333392 14:1 19:1 20:1 22:1 44:1 
-0 1.133591285712021 0 14:1 19:1 44:1 
-0 1.456932588783182 5.236960215039483 14:1 29:1 44:1 
-0.5286060414006779 0 0 14:1 44:1 
-0.07023320985048463 0.05467357413072166 1.255773982429431 14:1 19:1 22:1 34:1 44:1 
-0 10.63183257917841 0.1344267968912445 14:1 19:1 
-0 0 4.636463104502389 14:1 
-0.3598389117764803 0.4358101402969869 4.791987486894366 14:1 34:1 44:1 
-0.5575239130908308 8.700152256761179 0 14:1 44:1 
-0 6.13808083462101 2.824464446221469 14:1 29:1 
-0.4025226264041146 -0.05967401430302914 0 1:1 29:1 
-0.7386576268401847 -1.306108773407865 0 3:1 19:1 29:1 33:1 
-0.1595086906705794 -0 15.6402441668192 3:1 18:1 
-0.2861776952038707 -1.383030548269794 0 2:1 29:1 32:1 
-0.3613643393917352 -0 15.64304981312355 2:1 17:1 
-0.03614051146804765 -0 0 8:1 29:1 
-0 -0.4473819519036468 0 1:1 19:1 29:1 
-0.3694522536133437 -0.4971433991646765 0 8:1 29:1 
-0 -0.5053175921812805 0 12:1 19:1 29:1 
-0.4118120231205391 -0 0 12:1 29:1 
-0 -0.3574805846999053 0 19:1 29:1 
-0 -0 2048 
-0 -9.327178154926798 543.8587738785062 19:1 
-16.23431672494183 -12.1064779941213 2048 44:1 
-0 -0.4650004477002445 0 19:1 29:1 
-0 -0 2.283530989784405 29:1 
-14.2092248974855 -0 2048 
-0 -7.655194558741631 541.6141279474767 29:1 
-0 -0 -238.7119094819903 
-0 -0 -1.35396271336617 34:1 
-0 -0 -147.8673580709676 29:1 44:1 
-0.0139975837320432 -0 -147.8971402604039 19:1 44:1 
-0 -0 -844.98808074219 
-0 -0 -2048 
-0.5254595284525594 -13.92756886470774 -1.349142719182575 19:1 20:1 22:1 44:1 
-0.01928133409904071 -1.209306117522851 -0.05686616199013623 19:1 22:1 44:1 
-1.451284457732514 -0 -0 44:1 
-0.5173568349227236 -6.150776072239182 -0.009363858868059679 34:1 
-1.744135791755318 -9.89375033722126 -380.6482185681843 29:1 44:1 
-0 -0 -379.2545562194181 19:1 44:1 
-16.2499353692446 -3.886806352654583 -2048 
-12.62464071708734 -0 -1024.903127999147 44:1 
