svm_type c_svc
kernel_type rbf
gamma 0.03125
nr_class 8
total_sv 128
rho -0.0380902 -0.0362038 -0.0244528 0.800041 -0.0370521 -0.142743 -0.130425 0.00396872 -0.151602 0.389991 -0.00589004 -0.250739 -0.10264 -0.583753 -0.531769 -0.0291746 -0.426422 -0.381559 0.249679 0.176454 -0.0605304 -0.0447596 -0.341514 -0.521658 -0.515085 -0.265546 -0.198911 0.0144889
label 10 1 0 -2 -1 -3 3 4
probA -4.83999 -4.21568 -4.12636 -3.77245 -4.03227 -3.44522 -3.46797 -3.98888 -3.56713 -3.25142 -3.81601 -3.10637 -3.2339 -3.21975 -2.85183 -3.21532 -2.54916 -2.57134 -3.67207 -3.02977 -2.43865 -2.45132 -2.93892 -2.315 -2.31717 -2.44268 -2.44777 -1.79724
probB -0.234193 -0.866777 -0.972065 0.110049 -1.00855 -1.65268 -1.63081 -0.639652 -0.790671 0.088942 -0.780807 -1.32437 -1.31629 -0.323218 0.529921 -0.0983554 -0.803444 -0.778815 0.539049 -0.00368819 -0.646796 -0.635753 -0.188293 -1.84755 -1.83853 -0.650892 -0.525485 0.00560394
nr_sv 35 18 12 9 42 5 3 4
SV
0 0 0 7.798461958466424 0 0 0 3:1 
0 0 0 32 0 0 0 3:1 
0 0 0.9587773684160817 30.55375356174482 0 8.635711586019946 4.445005538663933 3:1 
0 0 0 0.981536589599981 0 0 0 3:1 17:1 18:1 38:1 
0 0 0 27.49167573671404 0 0.03057096502522291 0 2:1 3:1 
0 0.03011196651415377 0 0 0 0 0 3:1 23:1 45:1 
0 0 0 0.0328010963078366 0 0 0 3:1 16:1 17:1 18:1 38:1 
0 13.69963136775979 0 7.298122068691398 0 0.4360348892179046 0 3:1 23:1 
0 0.09067188873659351 0 0.07378641515635835 0 0 0 1:1 2:1 3:1 33:1 
0 0.9669342919872864 0 0 0 0 0 3:1 16:1 17:1 18:1 33:1 
0 0.08190497694964828 0 0 0 0 0 1:1 2:1 3:1 38:1 
0 0 0 0.2214960093736064 0 0 0 3:1 33:1 
0 0.005838514676278066 0 0 0 0 0 3:1 18:1 38:1 
0.4607576504164418 0 0 0 0 0 0 3:1 23:1 33:1 
5.807120985599301 10.2037969259036 0.2777031884300833 0.4147588097505006 0 0.2945799058166085 0.2324654109141157 3:1 16:1 17:1 18:1 38:1 
0 0 0.1988768835298454 0.1210417427884063 0.3877681099152614 0 0.2761168088890424 1:1 2:1 3:1 33:1 
1.501698179857237 5.69439535118304 0.2211900160532121 0.6867853812927673 0.4952422215528857 0.1192538823282229 0.2073129456386541 3:1 16:1 17:1 18:1 33:1 
0.4715361341380754 0 0.00849040229157243 0 0.487148279599468 0 0 3:1 18:1 38:1 
0.4518075956765157 0.1486971657939764 0.3130397854761588 0 0 0.1926161971315448 0.1714451732876021 1:1 2:1 3:1 38:1 
5.224996616368013 0.1010190213178712 0.3715697089180023 0.6515854328022078 2.435354930909388 0 0.164810450219585 3:1 23:1 33:1 
0.2855084187150431 0 0 0 0 0 0 3:1 18:1 45:1 
0 0 4.806898370075125 0 0 0 0.06817801725693264 3:1 38:1 
0 0.09460777634839318 0 4.589834597462231 0 0.2396656857575361 0 1:1 2:1 3:1 
0.8743868515091476 0.302892792726859 0.1351596584556141 0 0.2423350371020591 0.007943678205007016 0.2926931739351836 3:1 23:1 45:1 
0 0 0.3089108085088519 0 0 0.3856604438176454 0.06337501994406816 3:1 45:1 
0 0 0 0.06308777624949237 0 0 0 3:1 30:1 
0.07419374740641023 0.1819869951156134 0.04023372956400277 2.123249062531399 0 0.05263571471496506 0.04341463268307624 3:1 17:1 18:1 45:1 
0 0 0.3348392929912636 1.053391538892781 0 0 4.522033892972408 3:1 33:1 
0 0 0 0.530121217692159 0 0 0 2:1 3:1 33:1 
0 3.161841694927794 0 4.084093197876139 10.2835613843278 0 0 3:1 17:1 18:1 33:1 
2.617017984241133 0 0 0 0.2703403123986868 0 0.01098418029750985 3:1 18:1 45:1 
0 0 0.01971479043486297 0 0 0 0.03655650288357408 2:1 3:1 45:1 
0.1534720301500175 0.3004107654969002 8.6059802505529 7.884675321707961 0.1336051817691238 0.4446172188191482 0.4361213915594218 3:1 30:1 
0.2840400678451934 0.2881714450790749 0.4958746612113041 0.9139205199999544 0.2687495283933063 0.391868429944183 0.4490313294367981 3:1 26:1 33:1 
0 0.06463407468727327 0 0.5148238108105517 2.021518392830345 0.01820917636267603 0 3:1 18:1 
-0.5003438779930622 0 0 0 0 0 0 8:1 23:1 33:1 
-0 3.344727532914012 0 0 10.35161117398897 0 0 8:1 17:1 18:1 33:1 
-0 1.285530280907336 0 0 0 0 0 8:1 16:1 17:1 18:1 33:1 
-0 0 2.626831063306773 7.227482463680873 2.131997352644651 2.257272245285196 0.2840212030341383 8:1 18:1 
-0 0 0 5.199201417668489 0 0 0 8:1 33:1 
-0.4013130595924431 0 0 0 0 0 0 8:1 16:1 17:1 18:1 38:1 
-0 0.04842827894601491 0 0 0 0 0 8:1 23:1 33:1 
-0 0.008363589401665371 0 0 0 0 0 8:1 23:1 38:1 
-0 0.4411397062498099 0 0 0 0 0 8:1 23:1 
-5.319219536087127 10.18077608351076 0 0 0 0 0.1609534971532967 8:1 16:1 17:1 18:1 38:1 
-0 0 0 0 0.2878699231674428 0 0 8:1 18:1 38:1 
-0.09547326577453207 13.63907748536547 3.044203893060668 22.28520584283528 0.01112711681273938 2.637563292746282 0.9600087088068354 8:1 23:1 
-0.391941120389964 0 5.57606017218781 6.809447146814219 0 2.634179881669926 0.806880820206455 8:1 38:1 
-0.7208070203331306 0.2972545058692143 0 0 0.2285703462362011 0 0 8:1 23:1 38:1 
-5.357364849206564 0.2564447416879745 0 0 2.665531703266965 0 0 8:1 23:1 33:1 
-1.572972394412529 5.453495031767198 0 0 0.5140112046432349 0 0.08064608488848914 8:1 16:1 17:1 18:1 33:1 
-3.732827171213688 0.4405631201578464 0.4305041113209954 0.7135585463542724 0.5034998299643534 0.3923628600751985 0.4655880065363887 8:1 18:1 45:1 
-0.1142739669194891 0 3.85207655781413 17.33521644416707 0.3131925520918062 2.634179881669931 8.559050718936353 8:1 33:1 
-0 -0 0 2.787252124539078 0 0 0 17:1 18:1 33:1 
-0 -0.5054044019958727 0 8.578247602578687 16.70412431306616 0 0 23:1 43:1 
-14.26409255460925 -14.15038569554096 8.994488588005046 32 0 5.289421728464339 5.195069473062948 23:1 
-0.5813411267296765 -0 8.999503303263774 24.40125839814322 0.02726415117805209 5.28942172846434 5.196126469928534 43:1 
-0 -0 0 0 0.9372285392784597 0 0 18:1 43:1 
-3.415096692781441 -3.496966433588797 1.305766088444215 32 16.621573649012 0.7788759526420912 1.915394552929193 17:1 18:1 33:1 
-0 -0 1.416581722147136 2.567739461286857 0 0.5091329197175927 0 17:1 18:1 38:1 
-0.8643492151972684 -1.404582204790345 0 0 0 0 0 16:1 17:1 18:1 33:1 
-5.797189349338506 -5.260028683568664 0.02678719357090969 1.693525441926922 0.2440718283013103 0.02104841853393113 0.323124884232705 16:1 17:1 18:1 33:1 
-10.22923005272352 -10.25612871508783 0.1871818446193238 1.493155164838883 0.2619135906143095 0.2824922782216888 0 16:1 17:1 18:1 38:1 
-0.0253020437116756 -0.01926093016731825 0 0 0 0 0.003502301473339938 18:1 40:1 
-0.2409459801128045 -0.3030432920375279 3.231508033151937 17.31729540049654 0.2647202942248798 2.053729389886311 1.711417168693019 18:1 40:1 
-8.14136061313364 -11.83993908862544 -22.15986173442217 16.32081355725597 9.301238871821557 10.3054053014067 10.22221662642573 13:1 
-1.218050106959337 -0.9121889783844135 -0.8634607411666411 2.210351302688056 2.585952794468321 0.3013455566617691 0.8074334644074787 13:1 30:1 32:1 33:1 
-0.4772437323723036 -0 -0 1.337709088281898 0 0.09519953299205418 0.02949163121361463 13:1 30:1 36:1 
-0.4728165022444965 -0 -0 0.6268914308858912 0 0.09519953299205418 0.03204051894863821 13:1 30:1 37:1 
-0.4792405691224793 -0 -0 2.019561373539781 0 0.1050630792289618 0.03164681462158216 13:1 30:1 42:1 
-0.4763213144103693 -0 -0 0.634146439560611 0 0.1050630792289618 0.03817307386731265 13:1 30:1 34:1 
-5.355981656060009 -2.77754773068052 -1.138494297613529 0.6272304741713871 0 0.09519953299205418 0.03164681462158216 13:1 30:1 38:1 
-0.4762444206062455 -0 -0 8.340392842828241 0 0.1028424152348525 0.0381730738673126 13:1 30:1 31:1 
-0 -0 -0 1.577348084873797 0 0 0 13:1 30:1 
-0.06862792123304699 -0 -0 -0 0 0 0 23:1 
-0 -0 -0 -7.262399623109041 0 0.2426611528808696 0.07399418587666057 31:1 
-3.314156471960083 -0 -0.1101151706894418 -0 0 0.08971447656094257 0.2465078422540861 1:1 
-32 -0 -0 -0 0 0 0.07094241433664046 2:1 3:1 28:1 
-7.865319791614343 -1.182917393767666 -32 -0.3877049790150409 10.00171658739123 0.2043379229114754 0.2225127806424418 17:1 18:1 
-0.01132703030885803 -0 -2.514268047313116 -0 0 0 0 33:1 
-32 -0 -0 -0 0 0 0 3:1 
-0 -0 -0.01037502454506025 -0 0 0 0 6:1 19:1 
-0 -0 -0.2972162583132339 -0.3825865035780622 0 0.2570846273478124 0.2472116201375184 21:1 
-0 -0 -0 -2.022171332504651 0 7.938628594331491 0.1780502497799681 
-0 -0 -0 -0.01887570655487137 0 0.1101131524511384 0.07810917167125715 7:1 28:1 45:1 
-0 -0 -0.1823915933252373 -0 6.077483426921497 0 0.1653455706328989 15:1 22:1 
-6.422793383049449 -0 -0 -15.51194439753141 0 0.03161215259430138 0 30:1 
-0 -0 -8.609033205383202 -0 0 0 0 23:1 
-0 -0 -0.00615408703273577 -0.06981405719597519 0 0 0 15:1 16:1 31:1 32:1 
-0.004061321948294007 -0 -0 -0.09086926728131076 0 0 0 1:1 2:1 30:1 39:1 42:1 
-0.003610912702929059 -0 -0.01009067782148598 -0 0 0 0 9:1 12:1 16:1 17:1 39:1 
-0 -0 -0 -0.05118902244147459 0 0 0 9:1 24:1 39:1 42:1 
-0 -0 -0 -0.03249124312106078 0 32 0 10:1 41:1 
-0 -0 -0 -0.02496510577621994 0 0 32 11:1 25:1 
-0 -0 -0 -0.01914940510383686 0 0 0.004049795071478179 11:1 30:1 
-0.8009718628875074 -0 -0.5486057151018982 -0.3755903703541916 0 0.1222540312237289 0.177789167224094 27:1 45:1 
-0 -0 -0 -0 3.213319074812691 0 0 15:1 39:1 42:1 
-0 -0 -0 -0.6912858057710367 0 0.01926091982161157 0 9:1 12:1 30:1 42:1 
-0 -0 -0 -0 0 0.06728888195071361 0.07155899685283469 12:1 24:1 27:1 
-7.256229248489749 -16.22409023618986 -32 -2.391467296644409 8.91931134237775 0.251153340767008 8.170527041710708 33:1 
-32 -0 -0.2958438469775873 -0.3797880691471504 0 0.2514461630066206 0.1817640233053157 3:1 
-0 -0 -0 -0.8041573471615594 0 0.1662623257756731 0.1624312619805349 4:1 28:1 36:1 
-0 -0 -0.5406119665628299 -0.3846381266311478 0 0.2533535497399662 0.2460300731314851 6:1 19:1 
-0 -26.19196724585881 -0 -0 0 0.08096323862370305 0.06727748529825862 8:1 28:1 
-7.175036042229237 -15.97113698570387 -32 -0.3820080989606575 0.8390028192605998 0.2513276770723134 0.2466804397914557 23:1 
-0.2174159524965974 -0 -0.803887552474731 -0.9734490830139317 2.257567117911599 0 0.1856549036193256 15:1 16:1 31:1 32:1 
-0.8350178101565113 -0 -0.2135732835138556 -0.5044364315527456 0 0.1808906908589575 0 1:1 2:1 30:1 39:1 42:1 
-0.007880216678836508 -0 -2.539090446014174 -0 0 0.1146355012293438 0.06742095570172582 9:1 12:1 16:1 17:1 39:1 
-0 -0 -0 -0.2266614329986702 0 0.05459277434464826 0.08208640745842224 9:1 24:1 39:1 42:1 
-0 -0 -0 -0 0 0 0.1313295317037511 9:1 12:1 24:1 39:1 42:1 
-0 -0 -0 -0 0 0.09037817133156024 0 9:1 12:1 24:1 27:1 
-0 -0 -8.938478427830937 -0 0 0.08438452109136363 0.07242746896016392 28:1 40:1 
-0 -0 -0.5449829357639869 -0.3542756719017302 0 32 0.2489715826949386 10:1 41:1 
-0 -0 -0.4305465225136608 -0.3525262167354426 0 0.2290032450259844 32 11:1 25:1 
-0 -0 -0 -0 6.079953555347405 10.94104724317598 0 15:1 41:1 
-0.1005538801555952 -0 -0.2432088326329962 -0 0 0.03685684005353063 10.93429565156929 11:1 30:1 
-0 -0 -0 -0 -0.08767329604270366 0 0 15:1 18:1 43:1 
-2.709923657055096 -2.697833689090404 -16.73246064142448 -5.365285585941796 -13.7086445004734 4.208924610927448 3.368660867368038 15:1 23:1 43:1 
-0 -0 -1.196666331646931 -0 -0.960724739735374 0.2566743743379144 0 15:1 18:1 43:1 
-3.685779151706997 -3.612999645423084 -0.03270460047174914 -6.103624621074469 -12.56311343173227 3.843265736335914 5.715237715487326 15:1 18:1 33:1 
-10.62992057003623 -10.69657786830287 -17.09906479213202 -0.4182814592736125 -10.06819795603902 0.3728788673276429 0.4063215182905172 15:1 17:1 18:1 33:1 
-0 -0 -0 -0 -22.06925119417073 -0 0 10:1 41:1 
-0 -0 -0 -0 -32 -0 0 10:1 41:1 
-11.24936777316061 -10.55555816144654 -14.2241224159303 -11.2053180307374 -32 -8.681743588928919 8.51810501920429 10:1 41:1 
-0 -0 -0 -0 -19.92164208948132 -0 -0 11:1 25:1 
-0 -0 -0 -0 -32 -0 -0 11:1 25:1 
-5.783533863909506 -2.890091932319706 -11.68113412807128 -10.00200639686613 -25.97284313717285 -3.482226113845593 -8.018103956310199 11:1 25:1 
-5.636010604672399 -8.427057107242243 -2.663500722248462 -1.228815621107121 -8.438483394751083 -6.007993987300289 -0.500001062894091 11:1 25:1 33:1 
