svm_type c_svc
kernel_type rbf
gamma 0.0078125
nr_class 4
total_sv 103
rho 0.0115356 0.028109 0 0.0146897 -0.0118965 -1.04728
label -2 10 -1 0
probA -3.73468 -3.40164 -3.11615 -3.99332 -3.78462 1.43331
probB 0.583055 0.266618 -0.0193077 -0.324236 -0.526894 -1.99542
nr_sv 17 36 29 21
SV
0.5016534897642494 0.7520093359806843 0.5009765550202587 14:1 
8 8 8 14:1 
8 8 8 14:1 
8 8 8 14:1 
8 8 8 14:1 
8 8 8 14:1 
8 8 8 14:1 
8 8 8 14:1 
8 8 8 14:1 
8 8 8 14:1 
8 8 8 14:1 
8 8 8 14:1 
8 8 8 14:1 
8 8 8 14:1 
8 8 8 14:1 
8 8 8 14:1 
8 7.820926152970126 8 14:1 
-8 0 0 4:1 14:1 
-8 0 0 4:1 14:1 
-8 0 0 4:1 14:1 
-8 0 0 4:1 14:1 
-8 0 0 4:1 14:1 
-8 0 0 4:1 14:1 
-0 0 7.380054746413862 4:1 
-0 0 8 4:1 
-8 0 0 4:1 14:1 
-0 0 8 4:1 
-8 0 0 4:1 14:1 
-0 7.808335309237369 8 4:1 
-8 0 0 4:1 14:1 
-0 8 8 4:1 
-0.5016534897642494 0.5265345865509854 0.4740066548730089 4:1 5:1 6:1 
-0 8 8 4:1 
-8 0 0 4:1 14:1 
-0 8 8 4:1 
-0 8 0 4:1 6:1 
-0 8 0 4:1 6:1 
-0 8 8 4:1 
-8 0 0 4:1 14:1 
-0 7.831131392677982 0.04723954045053746 4:1 6:1 
-0 8 8 4:1 
-8 0 0 4:1 14:1 
-0 8 8 4:1 
-0 8 8 4:1 
-0 8 8 4:1 
-0 8 8 4:1 
-8 0 0 4:1 14:1 
-0 8 8 4:1 
-8 0 0 4:1 14:1 
-0 8 8 4:1 
-8 0 0 4:1 14:1 
-0 8 8 4:1 
-8 0.5356806222617414 0.5505586469174383 4:1 14:1 
-0 -8 0 6:1 
-0.4372554875650563 -0.4483599931200979 1.210279201531475 11:1 
-0 -8 0 6:1 
-0.4372554875650569 -8 1.25 6:1 
-0 -0 8 
-0.4735646000045116 -0.4742943364137402 0.6018085515979988 3:1 10:1 
-0.4549957598659641 -0.4483599931200954 1.25 2:1 
-0.4294827466214715 -0.4498703033180469 1.227633045339052 1:1 
-0.4491642995624965 -0.4716054361783428 1.25 8:1 
-0.4491642995624968 -0.4945354811312855 1.210279201531475 12:1 
-0 -0 8 
-0 -0 8 
-0 -0 8 
-8 -0 8 
-8 -0 8 
-8 -0 8 
-8 -7.940072051071795 8 
-8 -8 8 
-8 -8 8 
-8 -8 8 
-8 -8 8 
-8 -8 8 
-8 -8 8 
-8 -8 8 
-8 -8 8 
-8 -8 8 
-8 -8 8 
-8 -8 8 
-5.442052808203758 -5.974584316374674 8 
-0 -0 -8 
-0 -0 -8 
-0 -0 -8 
-0 -0 -8 
-0.5009765550202587 -0.5080661995348305 -8 
-8 -8 -8 
-8 -8 -8 
-8 -8 -8 
-8 -8 -8 
-8 -8 -8 
-8 -8 -8 
-8 -8 -8 
-8 -8 -8 
-8 -8 -8 
-8 -8 -8 
-8 -8 -8 
-8 -8 -8 
-8 -8 -8 
-8 -8 -8 
-8 -8 -8 
-8 -7.943793389120015 -8 
