svm_type c_svc
kernel_type rbf
gamma 0.5
nr_class 6
total_sv 77
rho 0.640234 0 0.440173 0 0 -1.36567 -0.550023 -0.640333 -0.640333 1.51504 0 0 -0.440629 -0.371472 0
label -2 10 0 -1 2 1
probA -3.38578 -3.08689 -3.1445 -2.04717 -2.55297 -3.70467 -2.69751 -2.72703 -3.23077 -0.792206 -2.42602 -2.93181 -2.46752 -2.58939 -1.89209
probB 0.679099 0.378843 0.452492 -0.660878 -0.155077 -0.272381 -0.40874 -1.34285 -0.834694 0.590732 -1.03972 -0.533918 -1.09608 -0.965147 0.5058
nr_sv 2 9 29 32 2 3
SV
0.4885395392672251 0.5414941254173408 0.8729650946519465 0 0 13:1 
2 2 1.943553491931702 1.581976729767964 1.581976729767964 13:1 
-0 0 2 0 0 1:1 
-0 0 2 0 0 1:1 
-0.4632620474876331 0.5835783370428956 1.18016542184881 0.4637897123613234 0.4637897123613234 3:1 10:1 
-0 0 1.367314662298085 0 0 1:1 15:1 
-0 0 2 0 0 15:1 
-0.6754267987056399 1.691453103747184 2 0.675316448170981 0.675316448170981 1:1 
-0.6744367728052489 1.692234984883716 1.370010664631484 0.6747654254163216 0.6747654254163216 15:1 
-0 0 0.3824649792441109 0 0 2:1 
-0.6754139202687034 1.691451959147503 1.81710094102065 0.675316448170981 0.675316448170981 2:1 
-0 -0 0.3903264861522559 0 0 
-0 -0 2 0 0 
-0 -0 2 0 0 
-0 -0 2 0 0 
-0 -0 2 0 0 
-0 -0 2 0 0 
-0 -0 2 0 0 
-0 -0 2 0 0 
-0 -0 2 0 0 
-0 -0 2 0 0 
-0 -0 2 0 0 
-0 -0 2 0 0 
-0 -0 2 0 0 
-0 -0 2 0 0 
-0 -0 2 0 0 
-0 -0 2 0 0 
-0 -0 2 0 0 
-0 -0 2 0 0 
-0 -0 2 0 0 
-0 -0 2 0 0 
-0 -0 2 0 0 
-0 -0 2 0 0 
-0 -0 2 0 0 
-0 -0 2 0 0 
-0 -0 2 0 0 
-0 -0 2 0 0 
-0 -1.754555452545854 2 0 0 
-0.5414941254173408 -2 2 0.5414941254173408 0.5414941254173408 
-2 -1.904162932275445 2 2 2 
-0 -1.793209006692191 -0 0 0 1:1 
-0 -2 -0 0 0 1:1 
-0 -0 -2 0 0 
-0 -0 -2 0 0 
-0 -0 -2 0 0 
-0.3481754757124839 -2 -1.597315790530408 0.3487706987270933 0.3919705330442058 15:1 
-0 -0 -2 0 0 
-0 -2 -0 0 0 1:1 
-0 -0 -2 0 0 
-0 -0 -2 0 0 
-0 -0 -2 0 0 
-0.3481754757124839 -0.9646245181870603 -1.59784745254572 0.3487706987270933 2 8:1 
-0 -0 -2 0 0 
-0 -0 -2 0 0 
-0.3474348729522801 -2 -1.597315790530408 0.3487001304010527 0.3921456128287354 1:1 
-0 -0 -2 0 0 
-0 -0 -2 0 0 
-0 -0 -2 0 0 
-0 -0 -2 0 0 
-0 -0 -2 0 0 
-0.3487579918116274 -0.9640458804861833 -1.59784745254572 0.3487001304010526 0.3919705330442059 4:1 
-0 -0 -2 0 0 
-0 -0 -2 0 0 
-0 -0 -2 0 0 
-0 -0 -2 0 0 
-0 -0 -2 0 0 
-0 -0 -2 0 0 
-0 -0 -2 0 0 
-0 -0 -2 0 0 
-0 -0 -2 0 0 
-0 -2 -2 0 0 
-1.423974770394773 -0.3951772636777054 -2 1.420985851481388 1.595721167790046 
-0 -0.4931838304145582 -0.5414941254173408 -0.8729650946519465 0 9:1 
-1.581976729767964 -1.996004203705049 -2 -1.942962415085733 1.581976729767964 9:1 
-0 -0 -0 -0.8729650946519465 -0 8:1 
-0 -0.4931838304145582 -0.5414941254173408 -2 -0 8:1 
-1.581976729767964 -1.996004203705049 -2 -1.898842752055247 -1.581976729767964 8:1 
