svm_type c_svc
kernel_type rbf
gamma 0.03125
nr_class 4
total_sv 21
rho 0.0141078 0.0960591 -0.000235042 0.0887611 -0.0145203 -0.0418455
label 4 10 0 -3
probA -3.05478 -2.88075 -2.55196 -3.01795 -2.75668 -2.58309
probB 0.163155 -0.00871155 -0.338736 -0.19903 -0.450235 -0.208259
nr_sv 4 5 8 4
SV
8.111495713252292 3.836145739847284 5.339326718341456 11:1 
0.3139810820299421 12.56673194388147 5.507724288799896 11:1 20:1 
8.150619263020126 0.1811927567705938 0.2500631767722541 11:1 45:1 
0.210309050513215 16.6021919370577 0.2663315124265766 11:1 20:1 45:1 
-8.346843966490837 2.454964102876677 0.5087160565952003 5:1 45:1 
-0.4998373120430082 0.5548093012185318 0.1369349204011938 5:1 30:1 41:1 
-7.923163671403909 2.263406005829774 9.813283248035772 5:1 
-0.008280079438909285 27.48408981166503 0.3712767823725776 5:1 41:1 
-0.008280079438909299 0.01171155522120203 0.379755114631064 5:1 30:1 
-6.247829324552688 -0 0 20:1 
-1.224382280726811 -28.34785028352101 0 41:1 
-0.1276530497815591 -0 0 26:1 
-16.73138989022502 -2.02141082892837 0.4675430465059937 20:1 45:1 
-1.09975390095616 -1.198903651712953 0.5612435868627333 26:1 
-1.224382280726811 -1.200816012648884 31.10722870289847 35:1 
-0 -0 0.4646130025499899 20:1 41:1 
-6.53087165058801 -0 0 20:1 
-5.093850032277143 -10.18037178400862 -30.1604397250291 15:1 35:1 
-5.761874694531611 -0.5155124888685622 -1.384070664657499 15:1 20:1 35:1 
-0 -0 -0.3261687428951829 15:1 26:1 35:1 
-0.5077209695314291 -0.5140818491586281 -0.7299492062354053 15:1 26:1 35:1 
