svm_type c_svc
kernel_type rbf
gamma 0.03125
nr_class 4
total_sv 29
rho -0.913301 -0.517896 -0.582122 -0.0684181 -0.0326004 0.115362
label 10 0 -2 -3
probA -2.88031 -2.48389 -2.44854 -1.99081 -2.09831 -1.74685
probB -0.558537 -0.809216 -0.905183 -0.337455 -0.261461 0.0723136
nr_sv 15 7 4 3
SV
5.706796948564933 4.985591502196137 0 7:1 37:1 
0.05080351618148683 0 5.057637571407279 7:1 19:1 20:1 22:1 31:1 
29.70459526102853 4.203239883468556 7.131048939960144 1:1 22:1 
0 0 0.2123846221119343 4:1 5:1 7:1 
0.04919262584849221 0.2500578864215977 0 4:1 5:1 7:1 37:1 
7.365716969591156 0 0 7:1 19:1 20:1 22:1 
0 0 0.01076524643634976 4:1 7:1 
3.954881289452368 0 0.3919596985848493 7:1 
0.04606844866203745 0.217290336550457 1.148915975453344 7:1 29:1 45:1 
0 7.042377488656862 0 7:1 45:1 
13.49388342269355 0.03546737436567971 1.152027498202147 7:1 29:1 37:1 
0 0.600416700611841 0.367317808177621 1:1 30:1 
2.174008016159247 3.718295231256409 0 1:1 30:1 37:1 
0.04754865035365626 0.2465079517600981 0 7:1 16:1 37:1 
3.100679667623263 0 0.2037247853839085 7:1 22:1 
-0.9012928682856882 0.4799031152487301 0 34:1 35:1 37:1 
-7.843097317163103 0.4706702641436124 0 19:1 20:1 22:1 37:1 
-32 0.05165836184238091 13.47267715294719 22:1 
-0 15.40217251246665 0 37:1 
-11.02624096141425 16.18428966781853 1.376740296234334 
-0 0.005653394632962508 0 34:1 37:1 
-13.92354366929568 0.4716137313573279 1.837619496482738 29:1 37:1 
-3.14137434697236 -0 0 14:1 37:1 
-4.406250543011777 -15.74077619109571 8.652005523571981 14:1 
-6.167097999126562 -16.78142219670383 0.5660732954754906 14:1 37:1 
-7.584521466176938 -0.543762659710651 0.5699382906567272 14:1 45:1 
-0 -0.9176736914039509 -0 15:1 22:1 31:1 
-12.39840458074596 -12.91014784559089 -4.891459110356679 15:1 22:1 31:1 
-3.277377564971612 -2.859215408669416 -4.896557999347521 15:1 29:1 31:1 
