svm_type c_svc
kernel_type rbf
gamma 0.0078125
nr_class 4
total_sv 56
rho 0.00450077 0.365254 -0.00195185 0.395582 0.0650583 -0.0142777
label 4 10 0 3
probA -3.33579 -3.57708 -2.68189 -3.64226 -2.746 -3.22354
probB -0.00429972 0.251675 -0.196147 0.179017 -0.465376 0.205663
nr_sv 16 16 16 8
SV
8 8 0 11:1 
0 0.377846349791905 0 11:1 20:1 
0 8 0 11:1 20:1 
8 8 0 11:1 
0 8 0 11:1 20:1 
8 8 0 11:1 
8 8 0 11:1 
8 8 7.064688630440702 11:1 
8 8 2.23370063927944 11:1 
0 8 0 11:1 20:1 
0 8 6.75720430442717 11:1 20:1 
0 8 8 11:1 20:1 
0 7.968002083085242 8 11:1 20:1 
0 4.932860824690592 0 11:1 20:1 40:1 45:1 
8 3.711114344976137 0 11:1 40:1 45:1 
6.334248757107301 0.01323952672359277 0.5184624355620571 11:1 20:1 40:1 45:1 
-0 6.244011193601789 0 5:1 41:1 
-0 4.595550543017005 0 5:1 
-0 8 0 5:1 41:1 
-8 8 0 5:1 
-8 8 0 5:1 
-8 8 4.266218269269125 5:1 
-8 8 8 5:1 
-0 8 0 5:1 41:1 
-8 8 0 5:1 40:1 45:1 
-8 8 8 5:1 
-6.563169158053467 0.5768261240945615 0.5474232070680357 5:1 40:1 45:1 
-0.5040796415061567 0.01551625261902015 0 5:1 25:1 30:1 41:1 
-0 8 0 5:1 41:1 
-7.266999957547678 7.616789405419454 8 5:1 
-0 8 0.5665552314476228 5:1 41:1 
-0 0.693173508517871 0.5525492820065442 5:1 25:1 30:1 
-0.6458895928093973 -5.712164199995547 8 35:1 
-8 -8 0 26:1 
-8 -8 8 35:1 
-6.090081423638502 -6.029702827274154 0 20:1 41:1 
-8 -0 0 20:1 
-1.88478014792609 -8 0 41:1 
-8 -0 1.348069677968591 20:1 
-1.591954915744731 -8 0 41:1 
-8 -8 0 20:1 41:1 
-8 -8 5.303748881714575 26:1 
-8 -8 8 35:1 
-8 -8 0.5100442773595494 20:1 40:1 45:1 
-8 -8 6.504759509585346 26:1 
-7.768419048857962 -8 8 35:1 
-7.021938000290785 -8 0.5145275746944895 20:1 41:1 
-8 -0 8 20:1 
-7.541994826280819 -0 -6.371434647115691 10:1 15:1 20:1 35:1 
-0 -0 -0.1415093305104364 10:1 15:1 26:1 35:1 
-8 -2.946689076646439 -8 10:1 15:1 20:1 35:1 
-8 -8 -8 10:1 15:1 35:1 
-8 -8 -8 10:1 15:1 20:1 35:1 
-0 -0 -8 10:1 15:1 26:1 35:1 
-0 -5.477284997471703 -8 10:1 15:1 26:1 35:1 
-1.032061183428549 -5.508771915673188 -7.668205943696424 10:1 15:1 26:1 35:1 
