svm_type c_svc
kernel_type rbf
gamma 0.0078125
nr_class 4
total_sv 20
rho 0 0.00386047 0 0.00386047 0 -0.00411097
label 1 2 10 0
probA -2.94305 -3.62571 -3.58119 -3.16756 -3.12305 -3.80672
probB -0.458142 0.224509 0.180001 0.682651 0.638147 -0.0446014
nr_sv 5 5 5 5
SV
0 0 0.5009765550202587 8:1 
0 0 32 8:1 
0.5012091177861419 0.5020944617696401 32 8:1 
32 32 32 8:1 
32 32 32 8:1 
-0 0 0.5009765550202587 9:1 
-0 0 32 9:1 
-0.5012091177861419 0.5020944617696401 32 9:1 
-32 32 32 9:1 
-32 32 32 9:1 
-0 -0 31.8791489906571 1:1 
-0.5020944617696401 -0.5020944617696401 0.56163462245764 1:1 15:1 
-0 -0 32 1:1 
-32 -32 32 1:1 
-32 -32 32 1:1 
-0.5009765550202587 -0.5009765550202587 -0.5038917879306255 
-32 -32 -32 
-32 -32 -32 
-32 -32 -32 
-32 -32 -31.93689182518412 
