svm_type c_svc
kernel_type rbf
gamma 0.5
nr_class 7
total_sv 113
rho -0.296786 -0.360644 -0.3966 0.309895 -0.416622 -0.295221 -0.0549388 -0.14471 0.553709 -0.172727 -0.0332881 -0.135569 0.567824 -0.151552 0.00877979 0.634059 -0.0247784 0.100743 -0.678654 -0.522493 0.125953
label 10 1 0 -2 -1 -3 2
probA -4.83332 -4.25989 -4.28852 -4.19068 -4.17538 -4.24351 -4.00073 -4.00657 -4.39547 -3.93349 -3.99397 -3.15688 -3.16618 -3.22735 -3.28544 -3.78669 -3.08255 -3.23693 -3.75238 -2.16216 -3.24102
probB -0.252971 -0.680687 -0.608508 0.316079 -0.824743 -0.83581 -0.489653 -0.433277 0.0136971 -0.640273 -0.605549 -0.125127 0.472819 -0.00295911 0.032478 0.273141 -0.00332563 -0.0484027 -0.656681 -1.27697 0.0575578
nr_sv 25 12 8 8 40 4 16
SV
0 0 0.2916734269138219 0.1014063591769854 0 0 2:1 
0.1688865096364267 0.6015379672675166 0.04114982507659867 0.3682230808421991 0.02426519561734863 0.02950666998691752 2:1 17:1 18:1 38:1 
0 0 0 1.727142215826294 0 0 2:1 3:1 
0.1225229007956212 0.104095635129991 0.07849643849950767 0.1972456892004819 0.08037126070118158 0.1202368344941303 2:1 3:1 38:1 
0.1956089928440791 1.317636271464413 0.1117989972020958 0.7922544130717736 0.273070508399599 0.1062384888797702 2:1 23:1 
0.6226944993112999 1.056490483390606 0.2743946405931978 0.6141939411835824 0.2654906705873062 0.3632603417104039 2:1 16:1 17:1 18:1 38:1 
0.285090130119431 0.2595477245851451 0.2353160797828527 0.5090282421884378 0.2365050673064927 0.2684690378237372 1:1 2:1 3:1 32:1 
0.619638799639377 1.051342789671305 0.2755324458932131 0.6679646828492434 0.2660465393904191 0.3619361647487925 2:1 16:1 17:1 18:1 32:1 
0.1810087269657568 0.1487260206867403 0.1063370686279633 0.0566106065648045 0.1677482413463506 0.1797132910279776 2:1 17:1 38:1 
0.2856450032483242 0.2587334726884584 0.2370861864357411 0.508918651112257 0.2373521986569115 0.2844925369661017 1:1 2:1 3:1 38:1 
0.5446490933947019 0.1858511522862313 0.2167771253286424 0.3384048468152788 0.2102758949744862 0.1777495146110416 2:1 23:1 32:1 
0.213614419271674 0.02929393676623769 0.2062663223444098 0.2025355575643369 0 0 2:1 38:1 
0 0 0 0.2067340729877251 0 0 1:1 2:1 3:1 
0.2914628671171207 0.2357155483515242 0.218751968913821 0.5059373364860383 0.2219810582330933 0.2612525521021735 2:1 23:1 45:1 
0 0 0 0.2077397850478906 0 0 2:1 45:1 
0.248281048154584 0.2252283522627118 0.2089032400658258 0.740085808105312 0.185550909913205 0.2503955890937685 2:1 17:1 18:1 45:1 
0 0 0 1.259587130693696 0 0 1:1 2:1 30:1 39:1 42:1 
0.01550052424522918 0.004723261101934315 0.06392880960720729 0.02830990244009547 0.01011508307259477 0 2:1 3:1 32:1 
0.1972621247066504 0.6290093741397783 0.08001790191489981 0.2848987338300723 0.3665492715717652 0.04217449037636465 2:1 17:1 18:1 32:1 
0.4199725942757394 0.09668942698874108 0.09125745100590066 0.05734290408062202 0.1081181534838728 0.1080385864646742 2:1 17:1 45:1 
0 0 0 32 0 0 1:1 2:1 30:1 39:1 42:1 
0.195879039595007 0.2104943126655957 0.2083358931382167 0.505731479546454 0.164555719060623 0.2234013894540856 2:1 3:1 45:1 
0.5715161255843637 0.5307979909980244 0.6385274437020383 32 0.4756787041052517 0.6800074920523206 1:1 2:1 30:1 39:1 42:1 
0.4840986543386236 0.4395418896525202 0.4362872141077068 1.126477304816521 0.3972037025559577 0.8715832653882251 2:1 24:1 27:1 32:1 
0 0.1709737580762957 0.01252171667754317 0.4414903355574752 0.1580426952080052 0.01235356531349342 2:1 17:1 
-0.3171430033605532 0.680566501333137 0.1504053204869401 0.4979635443730876 0.117068496975353 0.1440502830188546 8:1 17:1 18:1 38:1 
-0.3327762677628057 0.7214397052337901 0.1512899339063855 0.4713399296068896 0.432904780697944 0.1729319989370712 8:1 17:1 18:1 32:1 
-0 0.08389188114805564 0.03547505124930106 0.497988632780028 0.09526385137943119 0 8:1 17:1 
-0.8197039376625902 1.143566645312988 0.3896859306037327 0.7207902133839903 0.3764893941501317 0.4746920596506867 8:1 16:1 17:1 18:1 38:1 
-0.07371139566067988 0.07902464073623858 0 0 0.1161018410804959 0.06752914093779902 8:1 17:1 38:1 
-0.3105724205118931 1.372689405646098 0.3705444201129343 1.918122853318831 0.3524620559357471 0.2123264822436558 8:1 23:1 
-0.4010133851998225 0.2197821784344827 0.4645398218453748 0.8718401422569437 0.116963143083444 0.2214670279225041 8:1 38:1 
-0.5129498663645172 0.3321529606075543 0.2255366478354848 0.2302408842666694 0.3236920229756105 0.3459711333487756 8:1 23:1 38:1 
-0.713498710276133 0.3324764998796629 0.2238213720015415 0.2297571536754036 0.3229953077962149 0.3451060190213843 8:1 23:1 32:1 
-0.8168294807866405 1.138566582082471 0.3884262210070523 0.7639630378318705 0.3757817581777686 0.4749519256730161 8:1 16:1 17:1 18:1 32:1 
-0.9988819155603593 0.5885980239177273 0.5323457134082497 1.05922028207497 0.5159527419244623 0.5911062637260971 8:1 17:1 45:1 
-0.3662516700980145 0.2536221079171038 0.4631276919196535 0.9404016157743925 0.2312854415426411 0.3096711726857477 8:1 32:1 
-0.335348278699958 -0.2480561465440608 0 1.708584740303713 1.439791839513742 0.2210425510774802 23:1 43:1 
-1.797377964408708 -1.750255491445363 1.070923437656275 32 0.4235347511431725 0.6716732442956886 23:1 
-0.4879684551676287 -0.3647460247962042 0.9136883416545231 1.212664129036303 0.208522825915336 0.4125095868765324 43:1 
-0.5844384770541284 -0.5102072717239203 0.2592368433528524 1.222268472697045 1.360322430671346 0.4267950251943872 17:1 43:1 
-0.9194527215313002 -0.8670757073586224 0.3901703604626066 2.446334210724745 0.785403039992013 0.3384020835422787 17:1 18:1 32:1 
-0.9154641016804378 -0.8615681296023128 0.3836980534423156 2.445846746831517 0.2504862835779227 0.303772264904454 17:1 18:1 38:1 
-1.256141861029084 -1.169402652446608 0.3924992896105318 0.8166182158955936 0.3865848641317534 0.5188897882197886 16:1 17:1 18:1 32:1 
-1.260237508602524 -1.175065708332218 0.3941998928876645 0.7389721684893777 0.3853997778965441 0.5202896882028718 16:1 17:1 18:1 38:1 
-0.8074833246983826 -0.7813205520960033 -1.254372879964582 1.385085862026229 0.5401244674166374 0.4787646151964329 13:1 
-0.847153418916022 -0.7216677572661929 -0.686343600213456 1.074992581251077 0.5906538465285324 0.6431198571670591 13:1 30:1 32:1 33:1 
-0.3643904684587232 -0.2878502992609319 -0.2964650175436106 0.6376664177040423 0.2542421611882836 0.2916585951999294 13:1 30:1 36:1 
-0.3637327339252662 -0.2871847882417657 -0.2964618580114149 0.6015951052904858 0.2541191893137351 0.2912152653836905 13:1 30:1 37:1 
-0.4500625136359481 -0.2876202370741779 -0.2965271559413924 0.753145829266587 0.2542421611882836 0.3497521439024323 13:1 30:1 42:1 
-0.3643718481230552 -0.2877926152563391 -0.2970560526761666 0.6018964947905214 0.2541191893137351 0.291368825006742 13:1 30:1 34:1 
-0.4720860173091808 -0.4534033487375421 -0.3802449815003501 0.6022353001465409 0.2538087066554898 0.2916585951999294 13:1 30:1 38:1 
-0.3640798707646257 -0.2883585264436972 -0.2969446732157957 0.7359664373713966 0.3308334063526948 0.2922005625178202 13:1 30:1 31:1 
-0 -0 -0.04625449138756561 -0.2948057365059231 0.1272705912204201 0 31:1 
-0.3886489623133313 -0 -0.08138898916328592 -0.0006645055868347275 0 0 1:1 
-2.250726513297345 -0.00981134349159469 -0.2099275775455295 -0.1790461160581333 0.1448131827832564 0.233503970944976 2:1 3:1 28:1 
-1.225641083591425 -1.198713662543165 -4.116300188259071 -0.1925180517952725 0.6879872862546459 0.3052432737528044 17:1 18:1 
-0 -0 -0.0136880275664852 -0 0 0 6:1 28:1 
-0.0148936685751613 -0.05549680105894825 -0.1736369707771029 -0.09101762787129251 0 0.01096759458213232 21:1 
-0.237851319103003 -0.07095531196828403 -0.1820247382587462 -0.1447172435064906 0.1187183853630702 0.1815514183516121 7:1 28:1 45:1 
-0.1727760941310797 -0.1382797097621785 -0.1713696424607551 -0.1311947999471513 0.5086662254036951 0.09107229994964661 15:1 22:1 
-0 -0 -0 -1.563322830596871 0 0 30:1 
-0 -0 -1.209129490770459 -0 0 0 23:1 
-32 -0 -0.0007134184926128593 -0 0 0 1:1 2:1 30:1 39:1 42:1 
-0 -0 -0 -0 0 32 9:1 12:1 16:1 17:1 39:1 
-0 -0 -0 -0 0 32 9:1 24:1 27:1 39:1 
-0 -0 -0 -0 0 32 9:1 24:1 39:1 42:1 
-0 -0 -0 -0 0 32 9:1 12:1 24:1 39:1 42:1 
-0 -0 -0 -0 0 32 9:1 12:1 24:1 27:1 
-0 -0 -0.0009224653481589783 -0 0 0 11:1 25:1 
-0.5436324400422743 -0.3349994674206047 -0.1682982636787526 -0.1199172269935013 0.03193821252516105 0.1416251324918608 27:1 45:1 
-0.4179754537407793 -0.1426143669926503 -0.152162336170941 -0.1836426008228299 0.3029788721361388 0.5502719377712214 15:1 39:1 42:1 
-0.4409155767403296 -0.2243086775086195 -0.227239185869023 -0.3103172321920365 0.1451358054088509 0.876940956243027 9:1 12:1 30:1 42:1 
-0.3868410587351484 -0.1121436714623812 -0.1620670655174559 -0.1296347547946491 0.07545020456691433 1.989499435360407 12:1 24:1 27:1 
-0.01510135863675637 -0.05609433325297867 -0.1738073755253355 -0.3313638599294108 0 0.01158460226665698 33:1 
-0.8065315500423601 -0.05166351391388731 -0.0961486406421239 -0.02636529685166623 0 0 3:1 
-0.2143428425629909 -0.03568778334275484 -0.246524671540256 -0.2618025122690816 0.1527380914760858 0.2479259767382363 4:1 28:1 36:1 
-0.3202761839483966 -0.2281035586619772 -0.2702799577224895 -0.2070627705679412 0.1025714494772319 0.2221090988916584 6:1 19:1 
-0 -1.769484561328412 -0.1131930627175148 -0.07105298993591133 0.01309045124625104 0.06897931146616305 8:1 28:1 
-0.8051816778479229 -1.388479563266775 -32 -0.09210092322884723 0.5445041146038921 0.01095662938593743 23:1 
-0.2692082566031722 -0.05442045947708681 -0.1368308900074793 -0.1282788649532615 0.1071233442778836 0.1616943462054179 1:1 28:1 45:1 
-0.6368729382411428 -0.5071251452639397 -0.5721941637075169 -0.3024920396092098 0.9815421098560224 0.3873304852994865 15:1 16:1 31:1 32:1 
-32 -0.331166080095222 -0.3086557306949748 -0.3223421314039889 0.204186152182923 0.4021580367145588 1:1 2:1 30:1 39:1 42:1 
-0.5187216923829288 -0.3916423275136872 -0.4236514224787687 -0.2397030855946399 0.2404325118618217 32 9:1 12:1 16:1 17:1 39:1 
-0.3408917701708899 -0.1555088983954533 -0.169175276699107 -0.1367870134568162 0.1222884385380433 32 9:1 24:1 27:1 39:1 
-0.2376542466091822 -0.09780988109655295 -0.1059684237470268 -0.108352958524633 0.008651609976577339 32 9:1 24:1 39:1 42:1 
-0.1789843134113125 -0.1337643992673606 -0.115674574225953 -0.09087247953440253 0.1048109378270391 32 9:1 12:1 24:1 39:1 42:1 
-0.12935345003567 -0.1157122540029067 -0.101644715380386 -0.08034432236964337 0.09164071645954375 32 9:1 12:1 24:1 27:1 
-0 -0 -0.1131187974494095 -0.07105298993591125 0.01428714773705095 0.069280196429723 28:1 40:1 
-0.303523339995322 -0.2112056890667787 -0.252961331925829 -0.1911998492628929 0 0.2194043096675751 10:1 41:1 
-0.2427165850858682 -0.1916663569797216 -0.2267592198227154 -0.1619411399316198 0.0886323428131061 0.2073578673630238 11:1 25:1 
-0.0616195238642725 -0.06073477292137974 -0.07812512846207725 -0.0601565201910951 0.5081495309119559 0.01014878762056892 15:1 41:1 
-0.2873811802795114 -0.1340356992877759 -0.1714524499633847 -0.1685135536249221 0.05182952469048747 0.05534589653945191 11:1 30:1 
-1.189720053360935 -1.045048955537612 -1.927116587348573 -0.8736850648817972 -1.74732810926738 0.8598817168513396 15:1 23:1 43:1 
-0.9191330729615547 -0.8059505733922889 -1.658648873828652 -0.6630582862300251 -1.26759930881119 0.6830472081484846 15:1 17:1 43:1 
-0.7108786496929117 -0.6198902691381721 -0.496542803882907 -0.5575541732293631 -1.265253014783641 0.5423598731732402 15:1 17:1 31:1 32:1 
-1.029189098169063 -0.9060710376511713 -1.157737547781697 -0.6378456036162065 -1.199256806735857 0.7013437188342164 15:1 17:1 18:1 31:1 32:1 
-0 -0 -0 -0 -2.354441805821671 -0 9:1 12:1 24:1 27:1 
-0 -0 -0 -0 -1.393550906895358 -0 9:1 12:1 16:1 17:1 39:1 
-0 -0 -0 -0 -0.7082353996530081 -0 9:1 24:1 27:1 39:1 
-0 -0 -0 -0 -1.052395694839944 -0 9:1 24:1 39:1 42:1 
-0 -0 -0 -0 -0.7046824084811619 -0 9:1 12:1 24:1 39:1 42:1 
-0 -0 -0 -0 -32 -0 9:1 12:1 24:1 27:1 
-0 -0 -0 -0 -32 -0 9:1 12:1 16:1 17:1 39:1 
-0 -0 -0 -0 -32 -0 9:1 24:1 27:1 39:1 
-0 -0 -0 -0 -32 -0 9:1 24:1 39:1 42:1 
-0 -0 -0 -0 -32 -0 9:1 12:1 24:1 39:1 42:1 
-0.3161778555819047 -0.2840221053875291 -0.3346292303911054 -0.2851201763564299 -31.38849898244526 -0.2412988792668407 9:1 12:1 24:1 27:1 
-1.149937928510822 -0.9651390233776269 -1.011046416755837 -0.7897447265777635 -31.99853328525409 -0.791728328514577 9:1 12:1 16:1 17:1 39:1 
-0.6962573990419563 -0.5056912089074388 -0.5122788496668433 -0.4453232988873995 -32 -0.4215503870081582 9:1 24:1 27:1 39:1 
-0.7118185054281176 -0.5513597346248749 -0.5878337661471629 -0.5197058236086608 -31.89534085422657 -0.4533290925635736 9:1 24:1 39:1 42:1 
-0.4409384833579624 -0.3542687057250105 -0.3176424632425859 -0.3107167666292497 -32 -0.3055501245685447 9:1 12:1 24:1 39:1 42:1 
-1.025679638573215 -0.6993227291431119 -0.649943506109947 -0.5791276675145325 -0.95927222641909 -0.5731757050855867 9:1 12:1 24:1 27:1 32:1 
