svm_type c_svc
kernel_type rbf
gamma 0.5
nr_class 7
total_sv 90
rho -0.296786 -0.371775 -0.469887 0.235004 -0.416622 -0.295221 -0.0655478 -0.233807 0.535557 -0.172796 -0.0333282 -0.234885 0.600355 -0.140984 0.0172655 0.706412 0.0641011 0.185214 -0.640795 -0.482818 0.125953
label 10 1 0 -2 -1 -3 2
probA -4.29552 -4.10766 -3.8976 -4.126 -3.66368 -3.87275 -3.5425 -3.48446 -4.12557 -3.36512 -3.57769 -2.83546 -2.47883 -2.86537 -3.16546 -3.3629 -2.72057 -3.05099 -3.26578 -2.30211 -2.88781
probB -0.22664 0.376032 -0.510764 0.235144 -0.792307 -0.666296 -0.188005 -0.455204 0.523013 -0.562616 -0.405409 -0.292688 0.424027 -0.278959 -0.212654 0.343979 -0.113227 -0.0242843 -0.643962 -1.05821 0.193563
nr_sv 23 12 7 6 26 4 12
SV
0 0 0 0.4429139274530332 0 0 2:1 3:1 
0 0 0.3430836806759837 0.3553137567477609 0 0 2:1 
0.1688865096364267 0.6007295115249894 0.0399826527257568 0.08186067831774782 0.02426519561734863 0.02950666998691752 2:1 17:1 18:1 38:1 
0.1225229007956212 0.09619551095767276 0.07955424297168988 0.189306342510077 0.08037126070118158 0.1202368344941303 2:1 3:1 38:1 
0.619638799639377 1.053537945393232 0.2417787054169651 0.6437196854588453 0.2660465393904191 0.3619361647487925 2:1 16:1 17:1 18:1 32:1 
0.1956089928440791 1.304480183527651 0.1241109161206136 0.8034638277456825 0.273070508399599 0.1062384888797702 2:1 23:1 
0.1810087269657568 0.1274527379983905 0.09130486848273894 0.2129997390810187 0.1677482413463506 0.1797132910279776 2:1 17:1 38:1 
0.5446490933947019 0.1795903371934239 0.1482740758836206 0.3475725931807578 0.2102758949744862 0.1777495146110416 2:1 23:1 32:1 
0.285090130119431 0.2524933488335827 0.204492731733351 0.4786163806925245 0.2365050673064927 0.2684690378237372 1:1 2:1 3:1 32:1 
0.6226944993112999 1.049246850446374 0.241344477408476 0.583613231856926 0.2654906705873062 0.3632603417104039 2:1 16:1 17:1 18:1 38:1 
0.2856450032483242 0.2526091273505887 0.2065770097651101 0.4770653194199277 0.2373521986569115 0.2844925369661017 1:1 2:1 3:1 38:1 
0.2914628671171207 0.2287385100570963 0.1906855350059886 0.5641770210531902 0.2219810582330933 0.2612525521021735 2:1 23:1 45:1 
0 0.005161911002368002 0.001649830863214327 0.1125387565485527 0 0 1:1 2:1 3:1 
0.213614419271674 0.06045406703352649 0.218285034661522 0.1891252256564615 0 0 2:1 38:1 
0.248281048154584 0.2210456066509792 0.1875903826098191 0.4342912420647427 0.185550909913205 0.2503955890937685 2:1 17:1 18:1 45:1 
0.01550052424522918 0.01199958694711472 0.02356641277792685 0.05770646933896846 0.01011508307259477 0 2:1 3:1 32:1 
0.1972621247066504 0.615994958867904 0.05519149042593184 0.08204970463779453 0.3665492715717652 0.04217449037636465 2:1 17:1 18:1 32:1 
0.4199725942757394 0.09384316816577065 0.07532231954797168 0.3018786008601666 0.1081181534838728 0.1080385864646742 2:1 17:1 45:1 
0 0 0 1.193366508782637 0 0 1:1 2:1 30:1 39:1 42:1 
0.195879039595007 0.2143857046530541 0.190344365740654 0.5649627713148138 0.164555719060623 0.2234013894540856 2:1 3:1 45:1 
0.5715161255843637 0.5235646447763775 0.5824575486343947 31.99296415691922 0.4756787041052517 0.6800074920523206 1:1 2:1 30:1 39:1 42:1 
0.4840986543386236 0.4354318140516187 0.3709087368799063 1.104439874924903 0.3972037025559577 0.8715832653882251 2:1 24:1 27:1 32:1 
0 0.2051010912372143 0.01793395562416275 0.01289586541975582 0.1580426952080052 0.01235356531349342 2:1 17:1 
-0.3171430033605532 0.6817134856115674 0.1285658667310948 0.2155890969703476 0.1185627445301668 0.1446663948462688 8:1 17:1 18:1 38:1 
-0.3327762677628057 0.7072276394948596 0.1291921782989418 0.1906478408502081 0.431240272698502 0.1718330121054855 8:1 17:1 18:1 32:1 
-0 0.1073250877976731 0.06258918612871027 0.2611298387627872 0.09785700594264675 0 8:1 17:1 
-0.3662516700980145 0.267615282412153 0.370299533756336 1.043772989908944 0.2293374049882319 0.3102692282217533 8:1 32:1 
-0.8197039376625902 1.136049705562524 0.3486569842815684 0.7158722727336558 0.3756935667354262 0.4745370180833967 8:1 16:1 17:1 18:1 38:1 
-0.07371139566067988 0.06598261275511343 0 0 0.113615258483947 0.0667419577185585 8:1 17:1 38:1 
-0.3105724205118931 1.367239669620256 0.3893415390796063 2.01086177915906 0.3509981496880698 0.2113021893468559 8:1 23:1 
-0.4010133851998225 0.2371557838820078 0.5006743043460832 0.9718563881643748 0.1180977799663575 0.2209201656163043 8:1 38:1 
-0.5129498663645172 0.3208216126006554 0.1751862826550159 0.221204915183128 0.3239340336043192 0.3468648685632318 8:1 23:1 38:1 
-0.713498710276133 0.3204273550014979 0.1767566567324015 0.223110423045505 0.3246773690256547 0.3453373233218611 8:1 23:1 32:1 
-0.8168294807866405 1.140094631097878 0.3483061285284414 0.75915709421518 0.3773200519431638 0.476346460868573 8:1 16:1 17:1 18:1 32:1 
-0.9988819155603593 0.5813796900200744 0.4774540291134249 1.057168594555173 0.5151072477268165 0.5917314899682899 8:1 17:1 45:1 
-0.9058999133412933 -0.855804677332576 0.3155869260435802 0.8240522208246363 0.7523747781435408 0.3319161602454682 17:1 18:1 32:1 
-0.9095279329876321 -0.8596694085783513 0.3838774822771434 0.825427569708152 0.2193469424276406 0.3011114241135532 17:1 18:1 38:1 
-0.5995540890614385 -0.5214415784782066 0.2256609478772143 0.4532269639682509 1.502679190734233 0.4327062829967132 17:1 43:1 
-1.94943984352056 -1.863345303476521 1.023918047574192 32 0.9236147148919883 0.7762816975922917 23:1 
-0.6438368331595972 -0.4823759918661554 0.8870477619141207 2.640988716735265 0.6957739396986536 0.5132532179649235 43:1 
-1.259584445057429 -1.173283341822302 0.3481357535310192 0.7556442763424978 0.3905838631842374 0.5229743341539256 16:1 17:1 18:1 38:1 
-1.264213559540981 -1.177112254302149 0.3480949005641525 0.824853035083732 0.3916175692725494 0.5237527425425279 16:1 17:1 18:1 32:1 
-0.9300382968857728 -0.8762393683205923 -1.329654875664242 1.808140009707103 0.6304592081618133 0.582742648942331 13:1 
-0.5044965548516979 -0.4134127805065251 -0.4244108385925379 0.6221183063645034 0.3654323154929452 0.4102483607545652 13:1 30:1 36:1 
-0.6082568935464167 -0.5771012265840729 -0.5052874147469338 0.5896251155280668 0.3654693626985714 0.4104139214811487 13:1 30:1 38:1 
-0.5044965548516979 -0.4135026577941583 -0.4244108385925379 0.6119428390779085 0.436202182219857 0.4108044427370307 13:1 30:1 31:1 
-0.5827370157760935 -0.4133453398514184 -0.4241448782281299 0.7753867124375541 0.3659275502822495 0.4645450115568266 13:1 30:1 42:1 
-0.5044136580441193 -0.4134213165948575 -0.4244129739570402 0.5892219121485988 0.3660814853597004 0.4102483607545651 13:1 30:1 34:1 
-0 -0.0005303811182068213 -0 -0.005895407752666668 0 0 6:1 19:1 
-0.035025656570258 -0 -0.05151239616630986 -0.03617563434096965 0.02928232195973611 0.02908657869741663 6:1 28:1 
-0.1445528604328401 -0.1597134244943391 -0.249299948761135 -0.1825213414924804 0.07363733819937587 0.05120934814606756 21:1 
-0 -0 -1.36384655985694 -0.9351093804372371 0 0 
-0.1833889745928589 -1.779604485705695 -0.1546861242779725 -0.1112417067626053 0.09839214708170646 0.121392740617555 8:1 28:1 
-0.9677522673701972 -1.542620844825618 -32 -0.1823768367663432 0.6895945321810587 0.05121144570982312 23:1 
-0.6148543085008689 -0.1033011494384201 -0.2052360184995209 -0.1447163405875439 0.1786721166129922 0.2423668526622515 1:1 28:1 45:1 
-0.7202096805683065 -0.5490357947157848 -0.4985600366380714 -0.2767975540203629 1.070961316721997 0.4297986147977408 15:1 16:1 31:1 32:1 
-32 -0.351393536460759 -0.3037878783125717 -0.3667721739313576 0.2331574677610175 0.4396414194832703 1:1 2:1 30:1 39:1 42:1 
-0.6142201771356168 -0.4493682094668759 -0.4798352197708274 -0.1969516561313245 0.3001803106662785 32 9:1 12:1 16:1 17:1 39:1 
-0.3765825214870038 -0.1661885551876008 -0.1570748762587004 -0.1193389255805444 0.143969501104039 32 9:1 24:1 27:1 39:1 
-0.2539600000124379 -0.1054151022981967 -0.1015866949396551 -0.09601794210699904 0.008950357066760653 32 9:1 24:1 39:1 42:1 
-0.1874232457778628 -0.1276222674720117 -0.08919962497171394 -0.02765016269082843 0.1043475042854041 32 9:1 12:1 24:1 39:1 42:1 
-0.1401186955895285 -0.1138065211160353 -0.0875118358370366 -0.04131592896518799 0.09634429306010854 32 9:1 12:1 24:1 27:1 
-0 -0 -0.02961216209659362 -0 0.0008483684713891819 0.03470722782068912 12:1 28:1 
-0.5753987314630269 -0.3880777863163939 -0.2078289565768205 -0.154355669777329 0.1243904073181129 0.1900137308288304 27:1 45:1 
-0.5073032508814934 -0.2001720493365369 -0.1938848512700584 -0.1886696437175038 0.4719676743763938 0.5888144227249098 15:1 39:1 42:1 
-0.5181091220080113 -0.2556476772087014 -0.2271039833333993 -0.4551860641004173 0.1854136986845785 0.903460997792235 9:1 12:1 30:1 42:1 
-0.4363351382471573 -0.1376193787278527 -0.1613759383457976 -0.1278572556009274 0.117384390305205 2.001451372175418 12:1 24:1 27:1 
-0.1442023491480182 -0.1600200579259568 -0.2479569804425954 -0.1822898247199732 0.07376463679597715 0.05062969935719118 33:1 
-0.9671898872210647 -0.1598362825947929 -0.2480216427049297 -0.1825213414924804 0.07363610352985456 0.05176271820306385 3:1 
-0.4294883516976568 -0.07457813905504232 -0.250099048123562 -0.2450287677727687 0.2071092213817001 0.2896408876977346 4:1 28:1 36:1 
-0.403159435985571 -0.2815667648846277 -0.2781478282760959 -0.1982892491720077 0.1881721303741046 0.249907666590336 6:1 19:1 
-0.1830201587978502 -0 -0.1541065540307664 -0.1112314141235665 0.09878128088875404 0.1213251097913601 28:1 40:1 
-0.4122200349323644 -0.2820504092733805 -0.292010947059589 -0.2141141329938089 0.1964904004732224 0.2577874786564461 10:1 41:1 
-0.4123268315655167 -0.2822024159255349 -0.2919066761118717 -0.2140105402265007 0.1962757240037414 0.2576616905540431 11:1 25:1 
-0.9191330729615547 -0.806294049141614 -1.858218792740929 -0.623359874948805 -1.0198009150825 0.6830472081484846 15:1 17:1 43:1 
-1.189720053360935 -1.044411670777374 -1.361159685519571 -0.8152166352680292 -1.674304718899663 0.8598817168513396 15:1 23:1 43:1 
-0.7108786496929117 -0.6202718106982537 -0.5206496748810886 -0.5082476919790486 -1.247071947179276 0.5423598731732402 15:1 17:1 31:1 32:1 
-1.029189098169063 -0.9054633547160613 -1.135962845211255 -0.582747902019254 -1.020545662142069 0.7013437188342164 15:1 17:1 18:1 31:1 32:1 
-0 -0 -0 -0 -0.0007121386705491995 -0 9:1 12:1 24:1 39:1 42:1 
-0 -0 -0 -0 -1.750651859039066 -0 9:1 12:1 24:1 27:1 
-0 -0 -0 -0 -1.43256566974526 -0 9:1 12:1 16:1 17:1 39:1 
-0 -0 -0 -0 -0.7006320633804397 -0 9:1 24:1 27:1 39:1 
-0 -0 -0 -0 -1.052395694839944 -0 9:1 24:1 39:1 42:1 
-0 -0 -0 -0 -0.6978004388453721 -0 9:1 12:1 24:1 39:1 42:1 
-0.3161778555819047 -0.2839411973580699 -0.3367778461135162 -0.2810167535421464 -31.99846794519907 -0.2412988792668407 9:1 12:1 24:1 27:1 
-1.149937928510822 -0.9651503650846367 -1.007450571974813 -0.7223444060421358 -31.91587827199417 -0.791728328514577 9:1 12:1 16:1 17:1 39:1 
-0.6962573990419563 -0.5050033972551353 -0.5111809635218321 -0.4068774822434173 -31.99142442968181 -0.4215503870081582 9:1 24:1 27:1 39:1 
-0.7118185054281176 -0.5518866899812921 -0.5888080234683424 -0.4936008746943816 -31.88595031710647 -0.4533290925635736 9:1 24:1 39:1 42:1 
-0.4409384833579624 -0.3542850244626304 -0.3132714643420677 -0.2778177947406907 -32 -0.3055501245685447 9:1 12:1 24:1 39:1 42:1 
-1.025679638573215 -0.7002834345188144 -0.644506990188832 -0.5073454349636956 -0.9353911738042398 -0.5731757050855867 9:1 12:1 24:1 27:1 32:1 
