svm_type c_svc
kernel_type rbf
gamma 0.125
nr_class 7
total_sv 64
rho 0.425454 -0.365264 0.0238796 -0.213265 -0.23602 -0.519141 -0.268276 0.0760179 -0.419414 -0.265309 -0.599153 0.310351 0.0937065 0.175127 -0.0202422 -0.395077 -0.0721467 -0.504148 0.0485185 -0.00410555 -0.141548
label 1 2 3 4 5 7 6
probA -3.36985 -2.95354 -3.39273 -3.2162 -2.96969 -2.85453 -2.28303 -3.25441 -3.02883 -2.81397 -2.62033 -2.62995 -2.67406 -2.31757 -2.329 -2.79771 -2.76183 -2.92206 -2.48669 -2.46565 -2.2958
probB -0.240249 -0.16681 0.188993 0.0125602 -0.355413 -0.475435 -0.185151 0.282701 -0.268719 -0.265363 -0.574843 0.545386 -0.237637 0.0635041 -0.413598 -0.612747 -0.489681 -0.488653 -0.0615154 -0.231229 -0.404625
nr_sv 11 17 6 12 6 6 6
SV
2 2 2 2 1.955949538459666 2 8:1 
2 1.110018426920642 1.276817264064236 2 1.892058830632836 2 9:1 
2 0 0 0 0 0.06102583925773777 1:1 15:1 
2 1.386361658462748 0.4956714651819036 1.861620623491013 1.008672148863448 1.980571650292773 1:1 15:1 
0.8721834470338081 0.7730233686771457 0.03722576955209058 0 0 0 1:1 8:2 15:1 
0.3788760476575835 0 0 0 0 0 1:1 8:2 
1.799239376207942 0 0 0 0 0 1:1 8:1 15:1 
0.2948337910654121 0 0 0.09906699443218432 0 0.2766039175516436 1:1 8:1 
1.579249526022973 0 0 0 0 0 1:1 9:1 15:1 
0.6284211590862455 0 0.6164614367792288 0 0.2223654775077157 0 1:3 9:1 15:1 
0 0 0 0 0 0.2734530833772985 1:2 9:1 
-2 1.068322448102931 1.312509430209042 2 2 2 13:1 
-0 0 0 0 0 0.1341855046937147 1:1 2:1 13:1 
-0 0.0542270358291708 0 0 0 0 1:1 2:2 13:1 15:1 
-0 2 0 0 0 0 3:1 8:1 10:1 15:1 
-1.282711548536267 0.2078366927738817 0 0 0 0 1:1 3:1 8:1 10:1 13:1 15:1 
-0.09231297954906781 2 0 0 0 0 3:1 8:1 10:1 15:1 
-0.1181217687193243 0 0 0 0 0 2:1 8:1 
-0 0 0.8739789826981723 0 0 0 1:1 2:1 4:1 13:1 15:1 
-0 2 1.112470404214075 1.204914563032462 0.9712278556291187 1.059839548347002 3:1 10:1 15:1 
-0 0.5588541719539803 0 0 0 0 3:1 8:1 10:1 13:1 15:1 
-1.998624249024556 2 0.05000762952752543 0 0 0 3:1 8:1 10:1 15:1 
-1.981188392788135 0 1.244492213776749 1.635723303654157 1.226644855608445 1.422278667915644 2:1 8:1 
-0.07984440845661558 0 0 0 0 0 1:1 2:1 15:1 
-0 0.1584802816868265 0 0.5323718204491489 0.2141116342667804 0 2:1 15:1 
-2 0 0 0 0 0 1:1 2:1 15:1 
-2 0 0 0.03752304841447618 0.04389973024688163 0.8578846927757549 1:1 2:1 15:1 
-2 0.3362791975237685 0.07208087532188112 0.3081612184595596 0.3907305920001123 0.2144837097151909 1:1 2:1 9:1 15:1 
-2 -2 2 2 2 2 10:1 
-1.379945384809591 -2 0 0 0 0 3:1 8:1 10:1 15:1 
-1.889458069250945 -2 1.369007257552813 1.455846592231414 1.333359583634051 1.380577193838844 3:1 8:1 10:1 15:1 
-0 -0.3839998278705591 0 0 0 0 3:1 10:2 15:1 
-0 -2 0 0 0 0 3:1 10:2 15:1 
-0 -2 0.2437399945025401 0 0 0 3:1 10:2 15:1 
-2 -2 -2 2 2 2 14:1 
-0.1639963078794809 -0.4441069795765682 -0 0.07418529402923121 0 0 2:2 4:3 14:1 
-0.2006072981345022 -0.143197113670176 -0.0287428215171289 0 0 0.4448999444707694 1:1 4:3 5:1 6:1 14:1 
-0.3016727103992626 -0.8339672387338014 -1.201003024470909 0.2851025529998643 0 0.1181307823659266 3:1 4:2 10:1 14:1 
-0.02347138289914614 -0 -0 0 0.4057531993009806 0 4:1 12:1 14:3 
-0 -0 -0.02764208667046065 1.191373517916259 0 0.2146492146402464 4:3 5:1 6:1 11:1 14:1 
-0.3921025371419229 -0.3483098076581844 -0.08288659095507799 0.5391734577697919 0.1685611868946967 1.377299951177469 4:1 6:2 14:2 
-0 -0 -0 0 0 0.06645041269428391 3:1 4:3 6:1 10:1 14:1 
-0.2237606553182593 -0.2445970545704515 -0.2608854914523692 0 0.3111106601147032 0.2502295724827364 2:2 4:3 6:1 14:1 
-1.113598937965395 -0.6293869645406821 -0.01158723698940757 0.2119970781540625 0 0.04674157080337871 4:2 8:1 14:1 
-0.006966105839490279 -0.02197437699758159 -0 0.212871191931041 1.497453971136278 0.04674157080337903 4:2 12:1 14:1 
-0 -0 -0 0.1406443457779922 0 0 4:1 14:2 
-1.612720448976657 -0.5417433287856112 -0 -0 0 0 11:1 
-0.454877386853796 -0.5323718204491489 -0.339991892582546 -1.802820977870954 0.3929350680520983 0 5:1 11:1 14:1 
-0 -0 -0 -0 0 1.784984069698318 4:1 5:1 6:1 11:1 
-0.58803249916419 -0.6881946021932134 -0.4390025126004964 -1.673687193104078 0.5077540996176966 1.849103702483389 4:1 5:1 6:1 11:1 
-2 -2 -1.714859979606339 -0 1.3486096116019 0.5288409983946055 11:1 
-1.305057282928555 -1.95638420258183 -0.9619922074420333 -1.17883926760321 1.794753462108481 1.984783507715709 11:1 
-2 -2 -2 -2 -2 2 12:1 
-0.431221869933215 -0.5183457408034317 -0.3587003376475527 -0.3544314171425946 -0.3458952267563092 0.2647599797541145 7:2 12:4 
-0.6478241255304517 -0.3581416647341213 -0 -0 -0 0 7:1 12:1 
-0 -0 -0 -1.380441851880346 -0 0 12:2 14:1 
-2 -1.970127262213786 -0.8660565571858571 -0 -1.698157014623867 1.678886956528067 7:1 12:1 
-0 -0 -0.1086026888006417 -0.6480057484237183 -0 0 7:2 12:1 
-0 -0 -0 -1.072601623300404 -2 -0 4:1 5:1 6:2 
-2 -1.663413868908553 -0.5433067237333336 -0.9112924090234333 -0.5312539560803934 -0.6067468787073058 1:1 6:1 
-0 -0 -0 -0.5532547346844088 -0 -0 4:1 6:2 
-0.6013937473672398 -0.02763515031036223 -0 -0 -0 -0 6:1 
-2 -2 -1.714859979606339 -1.895255094470365 -1.63810812627576 -1.338525315111121 6:1 
-1.990260743112213 -1.997623104228391 -1.122410490499172 -0.132739157959578 -1.978350195935868 -1.998374742463754 6:1 
