svm_type c_svc
kernel_type rbf
gamma 0.0078125
nr_class 4
total_sv 38
rho 0.172957 -0.87773 0.361804 -0.817534 0.251324 0.939404
label 4 10 -2 0
probA -3.02849 319.489 -3.87264 665.963 -3.88624 349.704
probB 0.288954 -321.589 0.644892 -667.808 -0.562179 351.714
nr_sv 13 11 1 13
SV
0 0 2.994585473965739 11:1 
7.941208278959095 0 8 11:1 
0 0 8 11:1 20:1 
8 0 8 11:1 
8 0 8 11:1 
0.5903180869335807 0.09320342934559793 8 11:1 19:1 20:1 22:1 
8 0 8 11:1 
0 0 8 11:1 20:1 
8 0 8 11:1 
0 0 8 11:1 20:1 
8 0 8 11:1 
0.009189174976318382 7.782422453321929 0.3044289899817209 11:1 20:1 
8 0.1243741173324734 8 11:1 
-0 0 8 5:1 41:1 
-8 0.09157326551738083 8 5:1 44:1 
-0 0 8 5:1 41:1 
-8 0 8 5:1 
-8 0 8 4:1 5:1 7:1 
-0 0.09266063544014574 3.609817409468415 4:1 5:1 7:1 41:1 
-8 0 8 5:1 
-0.5407155408689946 0 8 5:1 41:1 
-8 0 8 5:1 41:1 
-8 0 8 5:1 41:1 
-8 7.815766099042474 8 5:1 
-8 -8 8 14:1 20:1 
-0.3208813635198302 -8 -0 29:1 41:1 
-8 -8 -0 20:1 41:1 
-4.908810151947002 -0.3773494437157477 -0.03112861573750293 34:1 35:1 37:1 
-8 -1.428206775562159 -0.03064470828445957 19:1 20:1 22:1 41:1 
-8 -8 -0 20:1 41:1 
-8 -8 -0 
-8 -5.68831138976767 -0 35:1 
-8 -8 -0 26:1 
-6.06932294848063 -8 -0 41:1 
-8 -8 -0 35:1 
-8 -7.679231116136883 -0 35:1 
-8 -4.436718684285954 -7.938226675978038 20:1 
-8 -8 -0 41:1 
