svm_type c_svc
kernel_type rbf
gamma 0.0078125
nr_class 6
total_sv 152
rho 0.0865209 -0.211433 -0.373462 -0.26829 -0.353435 -0.0180716 -0.48833 -0.0337382 -0.0443336 -0.71308 -0.0213651 -0.0377332 0.0407221 0.22568 -0.0111896
label 2 10 0 -3 1 3
probA -4.51196 -4.1247 -3.38784 -4.35965 -3.95092 -4.46972 -3.49345 -4.62605 -4.14132 -6.09658 -4.48087 -4.16707 -3.60821 -3.36964 -4.17509
probB -0.0409527 0.115604 -0.947942 0.18693 0.0216089 -0.109251 -0.923136 0.00835478 -0.385259 2.33088 0.153849 0.235308 0.911627 -0.287579 -0.335106
nr_sv 22 36 44 8 29 13
SV
0 0 0 0 8 9:1 10:1 12:1 39:1 
0 0 0 0 6.747117721945687 9:1 10:1 12:1 16:1 39:1 
0.05743867122270015 3.019425479028215 0 0 0 9:1 10:1 12:1 16:1 17:1 18:1 39:1 
0.4879044356294208 0 4.899848301808033 2.167387230486339 7.437809796389075 9:1 10:1 12:1 16:1 39:1 
0.5877644830574072 0 0 0 0 9:1 39:1 40:1 42:1 
8 0 0 0 0 9:1 16:1 17:1 18:1 39:1 40:1 42:1 
0.8366980563821385 5.795483362951522 0 0 0.2407254497776164 9:1 16:1 17:1 18:1 39:1 40:1 42:1 
5.181591436834708 0 4.928301124454959 2.152490067633207 0.1051711367342063 9:1 16:1 39:1 40:1 42:1 
0.01059244129560573 0 0 0 0 9:1 12:1 24:1 27:1 
8 4.465493430024239 0 8 0 9:1 39:1 
8 0 0 0 0 9:1 39:1 40:1 42:1 
0.5455473988145555 1.345867162105281 0.3145531873118091 0.9258910103569777 0.3420361737044925 9:1 24:1 25:1 27:1 
5.329817128154465 8 0 0 0 9:1 16:1 17:1 18:1 39:1 
0 5.492331151851113 0 0 0 9:1 24:1 
0 2.259811123627072 1.167013076958137 0 0 9:1 16:1 17:1 39:1 
0 8 0 2.119926660311245 0 9:1 24:1 
4.616576564439367 8 0 8 0 9:1 39:1 
0 8 0 8 5.778468631851622 9:1 24:1 
8 8 0.3331157420259319 0.339825057523106 0.07924043106027337 9:1 16:1 17:1 18:1 39:1 
3.160705149381988 8 6.037442613614403 8 8 9:1 24:1 
0.01955320796923327 7.901299966142039 8 3.635637017211647 0.04531270859471224 9:1 16:1 17:1 39:1 
7.632773643700534 8 8 8 8 9:1 24:1 
-8 1.114792179841151 0 0.4707036838358467 0 1:1 16:1 17:1 18:1 39:1 40:1 42:1 
-0 4.850071620940251 0 0 0 1:1 16:1 17:1 18:1 31:1 32:1 
-0 0 8 0 0 1:1 31:1 32:1 
-0 8 0 0 0 1:1 16:1 17:1 18:1 31:1 32:1 
-0.4449343922647194 0 0 0 0 1:1 2:1 3:1 39:1 40:1 42:1 
-8 0 0 0 0 1:1 30:1 39:1 40:1 42:1 
-5.827386023433343 0 0.2575132873708083 0.02237643391619603 0.4813920061079533 1:1 2:1 16:1 39:1 40:1 42:1 
-8 8 0 0.008911481532224111 0.1214391148684106 1:1 16:1 17:1 18:1 39:1 
-0 1.544300146506451 6.723742729880263 0 0 1:1 16:1 17:1 18:1 31:1 32:1 
-0 0 8 0 0 1:1 31:1 32:1 
-0 0.689489545666685 0.2288284737418879 0 0 1:1 2:1 3:1 31:1 
-0.8121317389038396 0 7.77058736359842 0.1652945219137053 0.6015319528068062 1:1 16:1 17:1 18:1 31:1 32:1 
-0 0 2.88643064053665 0 0 1:1 2:1 16:1 39:1 
-2.956899575203654 0 0 0.0252224691375271 0 1:1 30:1 39:1 
-0 1.028700370071677 0.1561641509522852 0.4810868742291199 0.509948821460055 1:1 45:1 
-0 0 6.212171830208709 0.6471914758964948 0.1083764245994347 1:1 30:1 31:1 32:1 
-0 0.18157816044783 8 0.6136042467323579 0.3542036948795754 1:1 2:1 16:1 39:1 
-5.262930229474185 0.3239151160033992 0 0 0 1:1 2:1 16:1 17:1 18:1 39:1 
-0 4.174278993614655 0 0 0 1:1 38:1 
-0 8 0 0 0 1:1 38:1 
-0 8 0 0 0 1:1 38:1 
-0 7.365600005206401 0 0 0 1:1 40:1 45:1 
-0 8 0 0 0 1:1 38:1 
-0 8 0 6.119136926069555 4.310353658290915 1:1 38:1 
-0 8 0 8 8 1:1 38:1 
-0 8 0 8 8 1:1 38:1 
-0 8 0 0 0 1:1 40:1 45:1 
-0 0 0 1.623330323482457 0 1:1 
-0 8 0 0 0 1:1 40:1 45:1 
-0 2.576500690081659 0 8 0 1:1 
-4.242774962477455 8 0 8 5.874744148318691 1:1 
-8 8 0 8 8 1:1 
-0.4843778257789732 1.871911291428656 0 0 0 1:1 40:1 45:1 
-8 0.5482797642839552 0 6.450387508420794 8 1:1 
-0.4355278693459568 8 0.1627494495727306 8 6.890910687287361 1:1 38:1 
-0 0 0 0.1678944629735957 0.08275449787541272 1:1 2:1 3:1 
-0 -3.615731182630425 0 0 0 16:1 17:1 18:1 31:1 
-0 -0.07611053682668516 4.985513294666619 0 0 16:1 17:1 18:1 31:1 
-0 -0 4.189595883549784 0 0 31:1 32:1 33:1 
-0 -8 8 0 0 16:1 17:1 18:1 31:1 32:1 
-8 -8 0 0.493600155467099 0.4921009589246872 16:1 17:1 18:1 39:1 
-0.6005322638700044 -3.507808775199865 7.799084262991672 0.2034447977124318 0.3948307521261615 31:1 32:1 33:1 
-0 -0 0 8 8 16:1 38:1 
-0 -0 8 8 0 16:1 
-0 -8 0 0 0 40:1 45:1 
-0 -0.03855843718723848 0 0 0 23:1 
-0 -3.912651606954409 0 0 0 38:1 
-8 -4.04791572981624 0 0 1.29284827919039 
-0 -0.2570766419824438 0 0 0 38:1 
-0 -8 0 0 0 38:1 
-0 -0 0 8 8 16:1 38:1 
-1.895874659574626 -0 8 8 0 16:1 
-0 -8 0 0 0 40:1 45:1 
-0 -0 0 1.419509403731481 0 23:1 
-0 -0 0 8 0 23:1 
-0 -8 0 8 4.495181787867103 38:1 
-8 -8 0 0 8 
-0 -8 0 8 8 38:1 
-8 -0 0 0 0 16:1 17:1 18:1 
-0 -8 0 8 8 38:1 
-0 -0 0 8 0 23:1 
-0 -0 0.7372161884829025 8 8 16:1 38:1 
-0 -0 0 8 0 23:1 
-0 -0 5.702190524061947 0 0 31:1 
-2.99689133477642 -0 8 0 0 31:1 
-0 -2.003375630837351 0 0 0 16:1 40:1 45:1 
-8 -0 8 8 4.881351077789954 16:1 
-5.827950719489695 -8 0 0 0.4930412679226995 40:1 45:1 
-0 -0 0 8 0 23:1 
-0 -0 0.4149030093387704 0.5222612787016836 0 16:1 40:1 45:1 
-0 -0 0 8 0 23:1 
-1.937969286074257 -0.345522131527307 0.171496836908307 0.7320299362511691 0.3030076863103745 25:1 31:1 
-8 -0 0 0 0 16:1 17:1 18:1 
-0 -8 0 6.485451223667162 8 38:1 
-5.982314383604714 -0 0 0 0 16:1 17:1 18:1 
-8 -4.259690076990699 0 0 8 
-0 -8 0 0 0.007921201227741648 38:1 
-0 -3.753594985651577 0 0.03382857255936226 0 16:1 17:1 18:1 
-5.528965165767532 -8 0 0 0 38:1 
-5.509213862572231 -0.4513821484885269 0 8 0.4938406398053709 23:1 
-0 -8 -8 0 0 15:1 16:1 31:1 32:1 
-0 -8 -8 0 0 15:1 16:1 31:1 32:1 
-8 -0 -8 8 8 15:1 16:1 31:1 
-8 -0.4465352388379591 -8 8 8 15:1 16:1 31:1 
-0 -8 -8 0 4.564956865905564 15:1 16:1 31:1 32:1 
-1.680274046173274 -8 -8 7.681050766052524 7.723828378984788 15:1 16:1 31:1 32:1 
-8 -8 -8 8 8 15:1 16:1 31:1 
-8 -7.951652687023794 -8 8 8 15:1 16:1 31:1 
-8 -0.960386626175425 -0 -0 0 8:1 
-0 -0 -8 -8 0 8:1 16:1 
-0 -0 -8 -8 0 8:1 16:1 
-8 -8 -0 -0 0 8:1 
-8 -0 -8 -8 0 8:1 16:1 
-1.149986209124988 -0.1356805694316797 -0.1317526283534303 -0.4838350076581763 0.5154856463995873 8:1 25:1 30:1 
-0.7413696329277569 -1.015269123421591 -1.351497704770223 -8 4.981265793226954 8:1 16:1 
-8 -8 -0 -0 2.11112581133533 8:1 
-8 -8 -1.515223238773684 -0 8 8:1 
-8 -8 -0 -2.911476439919969 8 8:1 
-0 -0 -5.878310288399748 -0 0 8:1 38:1 
-0 -0 -8 -0 0 8:1 38:1 
-0 -0 -8 -0 0 8:1 16:1 38:1 
-0 -0 -8 -0 0 8:1 16:1 38:1 
-0 -4.713843666621526 -2.953771172086656 -0 0 8:1 38:1 
-0 -0 -7.792063339993634 -0 7.609814989396205 8:1 16:1 38:1 
-0 -0 -5.182708778982596 -0 0 8:1 23:1 
-0 -0 -3.100786185161811 -0 0 8:1 23:1 
-0 -0.7047027873864075 -0.7335860976475839 -0 0 8:1 25:1 30:1 38:1 
-0 -0 -8 -0 0 8:1 23:1 
-0 -0.7456874111705604 -0 -3.835020800554133 8 8:1 16:1 38:1 
-0 -0 -8 -0 0 8:1 23:1 
-0 -8 -8 -0 0 8:1 38:1 
-0 -0 -8 -0 0 8:1 23:1 
-0 -8 -4.008678908010114 -0 6.474058998243647 8:1 38:1 
-0 -0 -8 -0 0 8:1 23:1 
-0.721233755794251 -8 -0 -0 5.271767279619493 8:1 38:1 
-0 -0 -1.241747025910916 -0 0 8:1 23:1 38:1 
-0.7285674456755248 -0.5195702239326847 -8 -0.450718517920246 0.5105295323066965 8:1 23:1 
-8 -8 -8 -0 -8 10:1 
-0 -0 -4.864689802095944 -0 -0 10:1 15:1 16:1 38:1 
-0 -0 -0.5077598660250924 -5.578620791562654 -0 10:1 15:1 16:1 38:1 
-8 -8 -8 -8 -8 10:1 
-0 -0 -8 -8 -4.562857743921335 10:1 15:1 16:1 38:1 
-0 -0 -3.942266797645649 -0 -0 10:1 15:1 38:1 
-8 -0 -8 -8 -8 10:1 15:1 16:1 38:1 
-0 -1.334792927861711 -8 -0 -0 10:1 15:1 38:1 
-0 -8 -8 -0 -0 10:1 15:1 38:1 
-0 -8 -3.539407185397795 -0 -0 10:1 15:1 38:1 
-6.77099614143344 -2.000862078632907 -8 -7.82661961202652 -8 10:1 15:1 16:1 38:1 
-6.004885908624244 -8 -0 -0 -6.911190306606577 10:1 15:1 38:1 
-8 -8 -8 -6.883544841301178 -8 10:1 
