svm_type c_svc
kernel_type rbf
gamma 0.5
nr_class 6
total_sv 65
rho -0.512434 -0.555989 -0.513479 -0.779417 -0.515025 -0.373406 -0.543728 -0.680091 -0.325046 0.342944 -0.374761 0.0913293 -0.676861 -0.170707 0.440668
label 10 0 -2 -1 2 1
probA -4.14006 -3.7148 -3.98545 -2.84316 -4.46532 -3.38064 -2.01985 -2.42088 -3.06167 -3.3462 -2.03645 -2.6722 -2.70086 -2.95011 -1.85948
probB -0.0228385 -0.258993 0.172644 -1.23686 0.501252 -0.175249 -0.126782 -1.04082 -0.311653 0.19708 -0.677097 -0.1212 -0.404634 -0.177203 0.51527
nr_sv 21 15 5 18 2 4
SV
0.7520333242354935 0.4209008582986935 0.3025268779745691 0.02017964217329921 0.2747975398263048 2:1 30:1 31:1 
1.567246094800314 0.2439885172671768 0.1875357419874172 0.1210420335723163 0.2125919347763219 2:1 16:1 30:1 32:1 
0.8455835310528284 0.1733461789157024 1.187196089552014 0.08566788593141052 0.5430802524434973 2:1 17:1 
1.299780999653837 0.2675086703055255 2 0.1599905037067351 0 15:1 
1.68401761447071 0.48609809733989 1.177998490898963 0.278637674851749 0.3380921527438792 3:1 
0.8058066682434916 0.2770234003702142 0.4802528459714361 0.1367883038156399 0.5294743014579814 15:1 33:1 
0.5682174965187226 0.2092776392879974 0.5996668622294269 0.08176524709461755 0.4321751871265099 3:1 30:1 38:1 
0.5423782389794277 0.2007740906595701 1.374425378424345 0.09948492000583911 0.2704630666484636 3:1 23:1 
0.01653549991046728 0.06481874267617407 0 0.03487025412093567 0 2:1 38:1 
0.1289245731723104 0.1678294507964754 0.3126455132729089 0.08679528444612987 0.1501300493795862 15:1 38:1 
0.5430892073017108 0.2031286869617932 1.28052905030858 0.1013360401210709 0.08589546026005747 2:1 23:1 
0 0 0 0 0.006485182845562917 2:1 30:1 38:1 
0 0 0.6715903767634011 0 0 1:1 15:1 
0.5812862661238287 0.1290016857844408 0 0.01264544506777805 0 2:1 
1.20172985227185 0.8254257514122325 1.607443618621097 0.2507482439253038 0.482000270254707 1:1 39:1 
0.05981230784316502 0 0.0923959412186442 0 0.517448466060193 2:1 30:1 32:1 
0.1879109097106375 0.1707899996151366 0.1521142154338121 0.08556150386813373 0.2071890506557478 2:1 17:1 38:1 
0.5642474884040861 0.1869548517460491 0.4243202414930841 0.07152446293425296 0.3141055161045432 15:1 32:1 
0.001575618014096211 0 0.587213536441263 0 0 2:1 30:1 
0.03489355449868198 0.09223728658547733 0.01749912957520284 0.08132749765403909 0.1951382628881252 1:1 15:1 32:1 
0.189780056401489 0.04283844289452622 0.633446765538173 0.4215824896740604 0.1469347522829405 2:1 16:1 30:1 
-0.9419062398626119 0.3898591272623976 2 0.1986222532394835 0.420585290812884 24:1 
-0 0 2 0 0 
-0.2485701009509744 1.042175699193035 1.436391425279144 0.03314830402745838 0 31:1 
-1.363234644781137 0.383910576748361 1.83913577366355 0.142257504917854 1.629788219345352 30:1 33:1 
-1.190353069222184 0.3835920151442448 1.638070246483737 0.1957765603681923 0.3293856477410439 23:1 43:1 
-0.7722313555367789 0.277084563357743 1.53363266624914 0.1417020505509921 0.6098942564525641 17:1 43:1 
-0.4623645364644982 0 0 0 0 16:1 30:1 32:1 
-0 0 0.2650353318688637 0 0 45:1 
-1.811611276315742 0.455177738085459 1.421908064786088 0.5626901033116267 0.8477453521793255 16:1 30:1 32:1 
-1.010456363291067 0.2886094586651746 1.264656255062982 0.1474482284563941 0.6665666539403958 17:1 31:1 
-0 0 2 0 0 
-0.601878792214273 0 2 0 0 
-0.5851767564251829 1.216907235556144 1.938835401690727 0.1228790095243356 0.3138621222297925 45:1 
-2 0.09553123350420169 2 0.5011002437240052 0.3153227374769767 
-0.5870661665426995 0.2439370702853771 0 0.1256338652469501 0.1753341089220892 31:1 45:1 
-0.9412521544838964 -1.607980527160152 0.834993498043204 0.3895902589302991 0.6585188676989888 13:1 45:1 
-1.034320018035835 -1.607921018652274 0.8356786048235785 0.389590258930299 0.6585188676989888 13:1 31:1 
-1.245269922095264 -0.7808417045453925 0.8361542789444152 0.3895902589302991 0.6589522602812518 13:1 39:1 
-0.9411002563020794 -0.7800414674443202 0.835835769225195 0.3895902589302991 0.6595787854674973 13:1 44:1 
-0 -0 0.7283232418092742 0.03543952367840168 0 13:1 
-1.570035354675755 -0.9020792467394578 -0.3519491299419059 0.1593793777613639 0.4754563468783884 1:1 17:1 
-1.206844601243668 -1.483673226824239 -0.4092204255080076 2 0.2151796586281187 16:1 
-0 -1.990097026487618 -0 0 0 
-2 -0.6735844351662805 -0.2852963708104189 0 0.2878401803996747 15:1 28:1 
-1.927885634749495 -2 -0.4094222016185335 0.02776238665670858 0.8964856148875378 30:1 
-0.5853496550367782 -0.3418589245824523 -0.1554764318172544 0 0.1127454504042668 1:1 28:1 
-0.3199262044973702 -0.6737353755815284 -0.2852498927751725 1.053055974686121 0.2873565870007246 9:1 28:1 
-0.602410075160377 -0.0011771791149525 -0.002641944608710616 0 0 23:1 
-0 -2 -0 0 0 
-0.7545062522711172 -2 -0.1953257158067422 0 0.9178382534659211 17:1 
-0.3199262044973706 -0.6744953854945072 -0.2847980308164845 0 0.2879489493546584 14:1 28:1 
-0.9317187008162676 -0.9605573642352 -0.4084084542078617 0.02739290554258217 0.2154761239430955 29:1 
-0 -2 -0 0 0 
-0 -2 -0 0 0 
-0 -0.001924074440729749 -0 0 0 18:1 
-0 -0.723019386532333 -0.4699768303361189 0 0 
-0.9307217912992243 -0.9585435124633724 -0.40788555671103 0.02818408899928473 1.206054404478198 18:1 
-1.939476201456914 -1.952920027421561 -0.405334407887426 0.02818408899928487 0.2155126347765609 23:1 
-0.1299474329633111 -0.2048138634106882 -0 -1.333046830454653 0 9:1 16:1 
-2 -1.966444259956604 -1.593800559399598 -1.990911992190692 1.622177737558578 9:1 16:1 
-1.066134777567962 -0.9584402793242497 -0.7346158830703526 -1.633826815272552 -0.4527191137468854 8:1 18:1 
-1.055874268095906 -1.799252182434419 -0.582931852170971 -0.9251891613844795 -0.3583697550324038 8:1 30:1 33:1 
-1.271585737701993 -1.122230941618687 -0.582931852170971 -0.9248989587314937 -0.3583697550324038 8:1 30:1 32:1 
-1.31240666238856 -1.428560985723069 -0.7350891937344319 -1.63397926882862 -0.4527191137468854 8:1 17:1 
