svm_type c_svc
kernel_type rbf
gamma 0.5
nr_class 7
total_sv 117
rho -0.277456 -0.416622 -0.3966 -0.309692 0.309895 -0.295221 -0.192291 -0.163616 -0.0182698 0.538357 -0.0522668 0.0247773 0.201041 0.678676 0.125953 0.195509 0.634059 0.100743 0.599042 -0.0354859 -0.522493
label 10 1 -3 -2 0 -1 2
probA -4.86317 -4.20335 -4.30164 -4.35936 -4.21213 -4.26172 -3.96861 -4.09798 -4.17642 -4.3826 -4.00962 -3.16666 -3.33602 -3.73646 -3.26203 -3.18538 -3.76501 -3.21771 -2.85962 -3.40441 -2.48096
probB -0.228151 -0.81317 -0.560776 -0.641736 0.330736 -0.861481 -0.633928 -0.356541 -0.252789 -0.0523236 -0.6197 0.0562911 0.174239 0.409591 0.0380599 0.12172 0.312555 -0.0147062 0.220993 -0.198098 -1.6755
nr_sv 25 13 4 8 9 42 16
SV
0 0 0.2916734269138219 0.04717484511899714 0.1014063591769854 0 2:1 
0.1648674594946054 0.02426519561734863 0.04114982507659867 0.5754642271628788 0.3682230808421991 0.02950666998691752 2:1 17:1 18:1 38:1 
0 0 0 0 1.727142215826294 0 2:1 3:1 
0.1239172381047897 0.08037126070118158 0.07849643849950767 0.09838902780532091 0.1972456892004819 0.1202368344941303 2:1 3:1 38:1 
0.06914001251609098 0.273070508399599 0.1117989972020958 1.233911469937464 0.7922544130717736 0.1062384888797702 2:1 23:1 
0.6285753368498977 0.2654906705873062 0.2743946405931978 1.070440757767943 0.6141939411835824 0.3632603417104039 2:1 16:1 17:1 18:1 38:1 
0.2931796929573319 0.2365050673064927 0.2353160797828527 0.2697521175312331 0.5090282421884378 0.2684690378237372 1:1 2:1 3:1 32:1 
0.626540619039164 0.2660465393904191 0.2755324458932131 1.066683267801825 0.6679646828492434 0.3619361647487925 2:1 16:1 17:1 18:1 32:1 
0.2169246615918108 0.1677482413463506 0.1063370686279633 0.1214964746703926 0.0566106065648045 0.1797132910279776 2:1 17:1 38:1 
0.2934120681662573 0.2373521986569115 0.2370861864357411 0.2701332479573151 0.508918651112257 0.2844925369661017 1:1 2:1 3:1 38:1 
0.5246216124201724 0.2102758949744862 0.2167771253286424 0.1938562885659948 0.3384048468152788 0.1777495146110416 2:1 23:1 32:1 
0.1972264232577592 0 0.2062663223444098 0.1079223871485986 0.2025355575643369 0 2:1 38:1 
0 0 0 0.02076616938254137 0.2067340729877251 0 1:1 2:1 3:1 
0.5861560187076952 0.2219810582330933 0.218751968913821 0.2482825287045299 0.5059373364860383 0.2612525521021735 2:1 23:1 45:1 
0 0 0 0 0.2077397850478906 0 2:1 45:1 
0.255265124714978 0.185550909913205 0.2089032400658258 0.2431541379206104 0.740085808105312 0.2503955890937685 2:1 17:1 18:1 45:1 
0 0 0 0 1.259587130693696 0 1:1 2:1 30:1 39:1 42:1 
0.01904408483169049 0.01011508307259477 0.06392880960720729 0.02536104421008116 0.02830990244009547 0 2:1 3:1 32:1 
0.2099719634751363 0.3665492715717652 0.08001790191489981 0.6009657881509683 0.2848987338300723 0.04217449037636465 2:1 17:1 18:1 32:1 
0.3315347745562377 0.1081181534838728 0.09125745100590066 0.1002174101126628 0.05734290408062202 0.1080385864646742 2:1 17:1 45:1 
0 0 0 0 32 0 1:1 2:1 30:1 39:1 42:1 
0.2039067497809754 0.164555719060623 0.2083358931382167 0.2447010595650066 0.505731479546454 0.2234013894540856 2:1 3:1 45:1 
0.5880908341007532 0.4756787041052517 0.6385274437020383 0.5781056750160892 32 0.6800074920523206 1:1 2:1 30:1 39:1 42:1 
0.4987774658967021 0.3972037025559577 0.4362872141077068 0.4835389887205912 1.126477304816521 0.8715832653882251 2:1 24:1 27:1 32:1 
0 0.1580426952080052 0.01252171667754317 0.2395049634275925 0.4414903355574752 0.01235356531349342 2:1 17:1 
-0.7841498284672 0.3684908100724951 0.3812537474432073 0.4477930696543797 0.7854625185073792 0.4164165106353399 8:1 23:1 45:1 
-0.3041724384174862 0.1133549335003272 0.1476564362675604 0.6685502065589314 0.4915728092229029 0.1371049515815235 8:1 17:1 18:1 38:1 
-0.3583851298092489 0.4304684495881635 0.1454839623587335 0.6935240538317116 0.4674371717618128 0.1766770378777806 8:1 17:1 18:1 32:1 
-0 0.1850922531119848 0.1247932035394868 0.2461690549381542 0.6641746536566929 0.05676241629804758 8:1 17:1 
-0.8134222675088105 0.3684880193224563 0.3799399854449592 1.15312735959459 0.7157085163347867 0.467018268074593 8:1 16:1 17:1 18:1 38:1 
-0.1615117756580446 0.1139994307268946 0 0.04493205560445931 0 0.08625447184899369 8:1 17:1 38:1 
-0 0.1265747923373791 0.1372228027062476 1.074913560868914 1.440761468806989 0 8:1 23:1 
-0.384764056145496 0.1124400054452185 0.4632793940416719 0.3030515105288121 0.8760506597095461 0.2166712132751305 8:1 38:1 
-0.438829272550488 0.3182030718070832 0.2174378062065815 0.3131767995446644 0.2195144249266614 0.3192439473724368 8:1 23:1 38:1 
-0.6333215487123637 0.3160533393566266 0.2167363491472368 0.3127061914721711 0.2189395389764608 0.3196001097687455 8:1 23:1 32:1 
-0.8110299091684839 0.3676770512535562 0.3809665513942149 1.148779908745077 0.7557780362821671 0.4662269174458727 8:1 16:1 17:1 18:1 32:1 
-0.7504029015306932 0.3669497854672732 0.3795565874028017 0.4460905848386273 0.7864648629490263 0.436735387972024 8:1 17:1 45:1 
-0.3911630124937328 0.2271575590494165 0.4614381962420468 0.3222494342250818 0.9468791758456021 0.3130736583476612 8:1 32:1 
-1.189720053360935 -1.055888487813978 0.8736631443140003 1.948702190824814 1.746590733695225 0.8598817168513396 15:1 23:1 43:1 
-0.9191330729615547 -0.8158570449371862 0.6629497000959234 1.672760956546113 1.26814938302278 0.6830472081484846 15:1 17:1 43:1 
-0.7108786496929117 -0.6273938054215565 0.5584054627950545 0.5355285256016957 1.266082555860215 0.5423598731732402 15:1 17:1 31:1 32:1 
-1.029189098169063 -0.9158101628661538 0.6371910149138929 1.167670325578632 1.198224376547061 0.7013437188342164 15:1 17:1 18:1 31:1 32:1 
-0.8074833246983826 -0.7816158905588558 -0.5400267534892619 1.419003272161347 1.385085862026229 0.4787646151964329 13:1 
-0.847153418916022 -0.7318617224277495 -0.5906385936932734 0.7170670778239919 1.074992581251077 0.6431198571670591 13:1 30:1 32:1 33:1 
-0.3643904684587232 -0.2931330926274239 -0.253371474623554 0.3141663272556304 0.6376664177040423 0.2916585951999294 13:1 30:1 36:1 
-0.3637327339252662 -0.2926879888173454 -0.2537048024145756 0.3143594872794891 0.6015951052904858 0.2912152653836905 13:1 30:1 37:1 
-0.4500625136359481 -0.292433390454969 -0.2535420646814601 0.3141940728747138 0.753145829266587 0.3497521439024323 13:1 30:1 42:1 
-0.3643718481230552 -0.2937766009055782 -0.2542790215496617 0.3142715058125394 0.6018964947905214 0.291368825006742 13:1 30:1 34:1 
-0.4720860173091808 -0.456805446790013 -0.2542790215496616 0.3894216642965648 0.6022353001465409 0.2916585951999294 13:1 30:1 38:1 
-0.3640798707646257 -0.2934508896128141 -0.3323675901174228 0.314097073686758 0.7359664373713966 0.2922005625178202 13:1 30:1 31:1 
-0.857752973577264 -0.6748451249508022 -0.4541348466527444 -0.8634870746775609 32 0.6387001234152486 28:1 
-0.4673072937366172 -0.3562825790200073 -1.533487589373814 -0 1.762094564083911 0.3380304655897288 23:1 43:1 
-1.484694128977231 -1.505265669901401 -0.2406092442126831 -0.8637869606890944 32 0.4339266843356612 23:1 
-0.2118915342838571 -0.1401890259269667 -0.02886235053802239 -0.7116366842116043 1.146645589670202 0.175315547096854 43:1 
-0.5974409888671248 -0.5248873025994517 -1.363320458873339 -0.2512165181058059 1.240945720198619 0.425602581192942 17:1 43:1 
-0.8684189028940712 -0.8274636116732281 -0.7635180847289923 -0.3397820515602554 2.458390517521342 0.2983144120316841 17:1 18:1 32:1 
-0.8643093272575052 -0.8231076976101944 -0.2132090562791214 -0.3350537311580981 2.457371968377109 0.2631465801818199 17:1 18:1 38:1 
-1.241864477479559 -1.15963102611527 -0.3633269694034529 -0.3665453997851562 0.8254199022425672 0.5011341991623551 16:1 17:1 18:1 32:1 
-1.246142249605408 -1.163391752608252 -0.3641933984890844 -0.3650720610034593 0.7522992663677925 0.5026090658275417 16:1 17:1 18:1 38:1 
-0 -0 -0.127018091272758 -0.2948057365059231 -0.07369401881250932 0 31:1 
-0.3886489623133313 -0 -0 -0.0006645055868347275 -0.09434589688571791 0 1:1 
-2.250726513297345 -0.01535093285988831 -0.1451865036383169 -0.1790461160581333 -0.2544007429558272 0.233503970944976 2:1 3:1 28:1 
-1.225641083591425 -1.195217691092046 -0.6877100510440252 -0.1925180517952725 -4.141191757992186 0.3052432737528044 17:1 18:1 
-0 -0 -0 -0 -0.1670392966985952 0 6:1 28:1 
-0.0148936685751613 -0.04901928526856814 -0 -0.09101762787129251 -0.1970017469012756 0.01096759458213232 21:1 
-0.237851319103003 -0.1038236377890968 -0.1184337538098626 -0.1447172435064906 -0.2211629121583806 0.1815514183516121 7:1 28:1 45:1 
-0.1727760941310797 -0.1403911868668899 -0.5085769704990067 -0.1311947999471513 -0.1699714674253464 0.09107229994964661 15:1 22:1 
-0 -0 -0 -1.563322830596871 -0.01253585417044831 0 30:1 
-0 -0 -0 -0 -1.264977428048298 0 23:1 
-32 -0 -0 -0 -0 0 1:1 2:1 30:1 39:1 42:1 
-0 -0 -0 -0 -0 32 9:1 12:1 16:1 17:1 39:1 
-0 -0 -0 -0 -0 32 9:1 24:1 27:1 39:1 
-0 -0 -0 -0 -0 32 9:1 24:1 39:1 42:1 
-0 -0 -0 -0 -0 32 9:1 12:1 24:1 39:1 42:1 
-0 -0 -0 -0 -0 32 9:1 12:1 24:1 27:1 
-0 -0 -0 -0 -0.002643766162613463 0 11:1 30:1 
-0 -0 -0 -0 -0.136870753440906 0 12:1 28:1 
-0.5436324400422743 -0.4123477316850894 -0.03221550654828737 -0.1199172269935013 -0.1575312003671978 0.1416251324918608 27:1 45:1 
-0.4179754537407793 -0.1467709535674417 -0.3034638995546365 -0.1836426008228299 -0.145893023537439 0.5502719377712214 15:1 39:1 42:1 
-0.4409155767403296 -0.2313721318264591 -0.1450085745811088 -0.3103172321920365 -0.2021744821063867 0.876940956243027 9:1 12:1 30:1 42:1 
-0.3868410587351484 -0.1049318839228656 -0.07536764720223574 -0.1296347547946491 -0.1389566861082925 1.989499435360407 12:1 24:1 27:1 
-0 -0 -0 -0 -31.36417484760004 0 28:1 
-0.01510135863675637 -0.04944974953292392 -0 -0.3313638599294108 -0.196482812867494 0.01158460226665698 33:1 
-0.8065315500423601 -0.04335167602319567 -0 -0.02636529685166623 -0.1034749613983931 0 3:1 
-0.2143428425629909 -0.03940838824056104 -0.1520672000581741 -0.2618025122690816 -0.2927385816815853 0.2479259767382363 4:1 28:1 36:1 
-0.3202761839483966 -0.2320325560827585 -0.1029474766031386 -0.2070627705679412 -0.2246213251232267 0.2221090988916584 6:1 19:1 
-0 -1.759395087654549 -0.0135753077253073 -0.07105298993591133 -0.2496091315345049 0.06897931146616305 8:1 28:1 
-0.8051816778479229 -1.373310377818729 -0.5438295105010013 -0.09210092322884723 -32 0.01095662938593743 23:1 
-0.2692082566031722 -0.08708546546831135 -0.1077173855201521 -0.1282788649532615 -0.1722510341979433 0.1616943462054179 1:1 28:1 45:1 
-0.6368729382411428 -0.5168029224083824 -0.9812201145947741 -0.3024920396092098 -0.5506740673152726 0.3873304852994865 15:1 16:1 31:1 32:1 
-32 -0.3406162469587471 -0.2036304228868573 -0.3223421314039889 -0.2827984978483502 0.4021580367145588 1:1 2:1 30:1 39:1 42:1 
-0.5187216923829288 -0.4019330612893557 -0.2405511502232565 -0.2397030855946399 -0.3995927050028553 32 9:1 12:1 16:1 17:1 39:1 
-0.3408917701708899 -0.1559546080227031 -0.1223089598914734 -0.1367870134568162 -0.1630399218873974 32 9:1 24:1 27:1 39:1 
-0.2376542466091822 -0.101260938831005 -0.008910960169854813 -0.108352958524633 -0.1067779687071604 32 9:1 24:1 39:1 42:1 
-0.1789843134113125 -0.1405203405941389 -0.1044029945091755 -0.09087247953440253 -0.09917418796571878 32 9:1 12:1 24:1 39:1 42:1 
-0.12935345003567 -0.1202737855102619 -0.09142033606359343 -0.08034432236964337 -0.09332685306338813 32 9:1 12:1 24:1 27:1 
-0 -0 -0.01347461966151201 -0.07105298993591125 -0.248611931217378 0.069280196429723 28:1 40:1 
-0.303523339995322 -0.2157616827677486 -0 -0.1911998492628929 -0.2478342515856237 0.2194043096675751 10:1 41:1 
-0.2427165850858682 -0.1954100721462592 -0.08863720866822496 -0.1619411399316198 -0.2249310678721697 0.2073578673630238 11:1 25:1 
-0.0616195238642725 -0.06081366823145679 -0.5086638180485089 -0.0601565201910951 -0.07879833585756521 0.01014878762056892 15:1 41:1 
-0.2873811802795114 -0.1361377745205953 -0.05270858585004017 -0.1685135536249221 -0.1638640119640553 0.05534589653945191 11:1 30:1 
-0 -0 -0 -0 -0 -2.354441805821671 9:1 12:1 24:1 27:1 
-0 -0 -0 -0 -0 -1.393550906895358 9:1 12:1 16:1 17:1 39:1 
-0 -0 -0 -0 -0 -0.7082353996530081 9:1 24:1 27:1 39:1 
-0 -0 -0 -0 -0 -1.052395694839944 9:1 24:1 39:1 42:1 
-0 -0 -0 -0 -0 -0.7046824084811619 9:1 12:1 24:1 39:1 42:1 
-0 -0 -0 -0 -0 -32 9:1 12:1 24:1 27:1 
-0 -0 -0 -0 -0 -32 9:1 12:1 16:1 17:1 39:1 
-0 -0 -0 -0 -0 -32 9:1 24:1 27:1 39:1 
-0 -0 -0 -0 -0 -32 9:1 24:1 39:1 42:1 
-0 -0 -0 -0 -0 -32 9:1 12:1 24:1 39:1 42:1 
-0.3161778555819047 -0.2889596354333892 -0.2412988792668407 -0.2851201763564299 -0.3590169023816254 -31.38849898244526 9:1 12:1 24:1 27:1 
-1.149937928510822 -0.9785981376584061 -0.791728328514577 -0.7897447265777635 -1.050026454545608 -31.99853328525409 9:1 12:1 16:1 17:1 39:1 
-0.6962573990419563 -0.5136425575560358 -0.4215503870081582 -0.4453232988873995 -0.5404859516410517 -32 9:1 24:1 27:1 39:1 
-0.7118185054281176 -0.5584846984961186 -0.4533290925635736 -0.5197058236086608 -0.6208419411044735 -31.89534085422657 9:1 24:1 39:1 42:1 
-0.4409384833579624 -0.3621802143588952 -0.3055501245685447 -0.3107167666292497 -0.3315029073206593 -32 9:1 12:1 24:1 39:1 42:1 
-1.025679638573215 -0.7099196469953042 -0.5731757050855867 -0.5791276675145325 -0.674905501840417 -0.95927222641909 9:1 12:1 24:1 27:1 32:1 
