svm_type c_svc
kernel_type rbf
gamma 0.03125
nr_class 8
total_sv 297
rho -0.10377 -0.19531 -0.538908 0.73347 -0.180826 -0.103225 -0.211102 -0.0409704 -0.124043 -0.540643 0.201412 0.189635 0.0578395 -0.37791 -0.810366 0.143295 0.142171 -0.105108 1.06905 0.122265 0.400913 0.176158 -0.83619 -0.150573 -0.187647 0.166876 -0.010874 -0.200186
label 10 1 0 -2 -1 -3 2 -4
probA -5.21919 -4.37669 -4.48353 -4.11753 -4.47602 -4.40548 -4.54326 -4.01518 -4.07948 -2.97076 -4.18352 -4.05216 -4.08194 -3.24547 -3.40628 -3.35341 -3.20739 -3.3036 -4.09878 -3.35344 -3.34998 -3.35973 -3.90061 -0.95133 -4.38968 -3.35193 -3.43769 -3.44243
probB -0.367558 -1.14485 -1.15451 0.279546 -1.01168 -1.16049 -0.964389 -0.812168 -0.662541 0.0146135 -0.681598 -0.778207 -0.484313 -0.0894151 0.739474 0.14234 0.0381176 0.236714 0.672003 -0.0257307 -0.0899745 0.202221 -0.74668 -1.26334 -0.790067 -0.123255 0.125265 0.160326
nr_sv 71 55 19 13 92 17 25 5
SV
0 0 0 0.1828814408251787 0 0 0 2:1 34:1 35:1 45:1 56:1 
0 0 0 0 0.2035460107951978 0 0 2:1 18:1 19:1 29:1 40:1 
0 0 0.1533175643582485 0 0 0 0 2:1 18:1 19:1 29:1 56:1 
0 0 0.02278955069679883 0 0 0 0 2:1 18:1 19:1 29:1 56:1 72:1 
0 6.679348305193676 0 0 0 0 0 2:1 34:1 35:1 45:1 56:1 72:1 
0 0 0 0 0 0 1.601691379404283 2:1 50:1 
0 0 0 1.044664175983291 0.1497929131503985 0 0 2:1 34:1 
0 0 0 0 0.0202928827468303 0 0 2:1 18:1 19:1 29:1 34:1 56:1 72:1 
0 0 0.0955019241185282 0 0 0 0 2:1 18:1 19:1 29:1 50:1 72:1 
0 0 0 32 0.3640064759018746 0 0 2:1 34:1 35:1 45:1 56:1 
0 2.799406338733295 0.2070114651164325 0 0.5924428013562654 0 1.906530765044929 2:1 77:1 
0 0.8431472179915945 0 0 0 0 0 2:1 18:1 19:1 29:1 40:1 63:1 77:1 
0 0 0 0 0 0 0.2305131385566609 2:1 50:1 72:1 
0 1.776709742316095 0 5.477281175231966 0.8476613904199758 0 0 2:1 34:1 35:1 45:1 50:1 72:1 
0.08108084795231291 0 0 0 0 0 0 2:1 3:1 13:1 56:1 66:1 
0 0 0.02181922411407815 0 0 0.8526712839491356 0 2:1 3:1 13:1 66:1 
0 0 0.04613743401020636 0 0 0 0 2:1 18:1 19:1 29:1 56:1 79:1 
0.1455190064403055 0 0 0 0 0.2874783949992774 1.059888955364097 2:1 3:1 56:1 66:1 
0 0.7235587979039284 0 0 0.7038437597459694 0 0 2:1 18:1 19:1 40:1 50:1 79:1 
0 0.3613985648407013 0 0.510983659551203 0.1666357227190299 0 0 2:1 33:1 34:1 35:1 45:1 56:1 
0 0 0 17.67232233770659 0.1540882955733172 0.2304427929049372 0 2:1 17:1 18:1 19:1 29:1 40:1 
0.1443320338282105 0 0 1.003396657086836 0 0 0 2:1 17:1 18:1 19:1 29:1 34:1 56:1 
0.3372542139007328 0 0 0 0 0 0 2:1 17:1 18:1 19:1 29:1 40:1 50:1 
0 0 0 0.1528549127678568 0.2008690995816509 0 0 2:1 40:1 
0.008595819918644859 0 0 0 0 0 0 2:1 33:1 34:1 35:1 45:1 56:1 72:1 
0.01530809260745327 0 0 0 0 0 0 2:1 24:1 40:1 50:1 
1.521995197301639 0 0 0 0 0 0 2:1 17:1 18:1 19:1 29:1 56:1 72:1 
2.600375590431611 6.360976466020131 0 0 0 0.3534619386439499 0 2:1 33:1 34:1 35:1 45:1 56:1 72:1 
0 3.150647615931814 0.9567554819682068 0.3466601455152674 3.040821035692142 0 0.1075459337753958 2:1 24:1 40:1 
0.6246663716489614 0 0 0 0.1770953745453626 0 0 2:1 17:1 18:1 19:1 29:1 34:1 56:1 72:1 
0.228522925789722 0 0.06577632779407619 0 0 0 0.1660210743016459 2:1 17:1 18:1 19:1 29:1 50:1 72:1 
1.578122387614551 0 0 0 0 0 0.2641506851055784 2:1 24:1 40:1 50:1 
0 0 0.9200587871326601 0.5618455205490848 1.850348004980082 0.02839173937463172 0 2:1 24:1 34:1 
2.17614116970416 0 0 0 0 0.352223474477862 0 2:1 33:1 34:1 35:1 45:1 56:1 79:1 
2.534530035586453 0.4074701670755387 0 0.411358935721973 0.1210390786925012 0.06140754819159411 0 2:1 17:1 18:1 19:1 29:1 40:1 63:1 77:1 
0.008045481277262047 0 0 0 0 0 0 1:1 2:1 3:1 13:1 50:1 66:1 
1.432143201737275 10.17006878483394 0 0.4123249028834737 0.2736859038923631 0 0.03157909485462005 2:1 33:1 34:1 35:1 45:1 50:1 72:1 
0.3161037888234639 0 0 0 0 0 0 2:1 17:1 18:1 19:1 29:1 34:1 56:1 79:1 
0.2116362064279088 0 0 0 0 0 0 1:1 2:1 3:1 13:1 56:1 66:1 
1.791146105344392 0 0 0 0 0 0.09982778815901089 2:1 17:1 18:1 19:1 29:1 40:1 50:1 79:1 
1.888688769473148 0.1636358625283182 0.03981155509738067 0 0 0 0 2:1 24:1 34:1 63:1 77:1 
0 0 0 0.9930151594863452 0 0 0 1:1 2:1 3:1 13:1 66:1 
0 0 0.1906763483727718 0 0 0 0 2:1 17:1 18:1 19:1 29:1 56:1 79:1 
0 0 0 3.505937054954343 0 0 0 1:1 2:1 3:1 13:1 72:1 
0.4802680983834329 0 0 0 0.02359826355114095 0 0 2:1 40:1 63:1 77:1 
0 0 0.1700963904628907 0 0 0 2.319601564672235 2:1 63:1 65:1 66:1 
0 0.2226527025240702 0 4.011527834657866 0.2724447121984546 0 0 2:1 34:1 35:1 63:1 65:1 66:1 
0 0 0 0 0 0 0.3221919271054045 2:1 50:1 79:1 
0 0 0 0 0.06421478961572055 1.040498124338543 0 2:1 34:1 63:1 65:1 66:1 
0.8565086203231893 0 0 4.645078039976203 0 0 0 2:1 34:1 35:1 45:1 50:1 79:1 
0.6297301069874134 0.04950776858806064 0 0 0.5362341222896445 0 0 2:1 18:1 19:1 29:1 34:1 63:1 65:1 66:1 
0 0.7503217458212196 1.034000887528093 27.69461731837865 1.141762912685034 2.464116355522898 0.2034268941781986 1:1 2:1 18:1 47:1 57:1 60:1 73:1 
0 0 0.06076004397898609 0 0 0 0 2:1 3:1 13:1 63:1 65:1 66:1 
0.3409304031895026 0 0 2.184528750861922 0 0.2325200691085815 0.2032478397740299 1:1 2:1 18:1 19:1 29:1 47:1 57:1 60:1 73:1 
0.3047420998712175 0.0835263207398048 0.2075383723205336 0 0.05227354093864299 6.203890412726045 0.4212242297784468 2:1 25:1 28:1 41:1 44:1 50:1 
0 0 0 0.8964983419668484 0.3724768410923152 0 0 2:1 25:1 28:1 34:1 
0 0 0.08326419176735865 0 0 0 0 2:1 3:1 13:1 72:1 
0 0 0 7.127714043665004 0 0 0 2:1 34:1 35:1 56:1 
0 0 0 25.31826279801928 0 0 0 2:1 3:1 50:1 72:1 
0.09349812417056289 0.9836587097655007 2.062002328712993 0.1721493111585563 2.519368734425478 0 2.949424649943773 2:1 3:1 13:1 50:1 51:1 61:1 
0 0 0 8.121161633879858 0 0 0 2:1 3:1 13:1 
0 0 0.2305963430591272 0.8885991298725037 0 0 0 2:1 3:1 13:1 54:1 
0 0 0.2309294362103545 0.8891064487098426 0 0 0 2:1 3:1 13:1 53:1 
0 0 6.804098391267236 32 0 0 0 2:1 3:1 13:1 
0 0 0.2345375950584308 0.8864783490563758 0 0 0 2:1 3:1 13:1 71:1 
0 0 1.172116368375814 0.08388028015513287 0 0 0 2:1 3:1 13:1 49:1 79:1 
0 0 0.2314638157645702 0.8827642048170348 0 0 0 2:1 3:1 13:1 74:1 
0 0 0 5.706241821480573 0 0 0 2:1 3:1 13:1 60:1 
0 0 7.253721701457191 0 0 0 0.1859612897777795 2:1 
0.09431179311382813 0 0.1062042632834084 0 0 0 0 2:1 3:1 13:1 32:1 48:1 50:1 
0 0.4013029466565133 0 6.598505717290905 0.6780608316163068 0 0.5680150582104223 2:1 32:1 34:1 35:1 45:1 
-0 0 0 14.07693026883077 0 0 0 8:1 18:1 19:1 29:1 34:1 
-0 0 0 0 1.541407527906957 0 0 8:1 34:1 35:1 45:1 50:1 
-0 0 0 29.54372160427006 0.009559124174691401 0 0 8:1 18:1 19:1 29:1 50:1 
-0 0.3284435940211461 0 0 0 0 0 8:1 34:1 35:1 45:1 56:1 66:1 
-0.06617783389321152 0.02213808425001727 0 0 0.09374566666004007 0 0 8:1 18:1 19:1 29:1 40:1 50:1 66:1 
-0 0 0.0346120476205545 7.256993830845313 0 0 0.523856557851382 8:1 18:1 19:1 29:1 56:1 66:1 
-0.001941856968522063 0 0 0 0 0 0 8:1 18:1 19:1 29:1 34:1 56:1 72:1 
-0.02741336491619372 5.817041259955064 0 0 0 0 0 8:1 34:1 35:1 45:1 56:1 72:1 
-0.008560279399348964 0 0 0 0 0 0 8:1 24:1 40:1 50:1 66:1 
-0 0 0.09799270261183135 7.379043049963531 0 0 0 8:1 18:1 19:1 29:1 56:1 72:1 
-0 3.310675597982926 0 0.02134286628824379 0.6691003730606533 0.02172134874163751 0.1667622415294843 8:1 34:1 77:1 
-0 0 0 31.98369043142494 0 0 0 8:1 18:1 19:1 29:1 34:1 
-0.6577195791777645 0 0 0.0401963617626742 0 0 0 8:1 18:1 19:1 29:1 34:1 63:1 77:1 
-0.007753216176087599 0 0 0 0 0 0 8:1 34:1 35:1 45:1 50:1 79:1 
-0.7737099699872784 0 0 0 0.235561476068047 0 0 8:1 34:1 35:1 45:1 50:1 79:1 
-0 1.389903323092996 0 0 0.2963182877980406 0 0.01580937470988562 8:1 34:1 35:1 45:1 50:1 66:1 
-0.0490026894923982 0 0.2632691185083403 0.1650956849650145 0.09157566636267649 0 0 8:1 18:1 19:1 29:1 50:1 79:1 
-0 0 0 0 0 0 1.173621866736141 8:1 34:1 35:1 50:1 66:1 
-0 0 0 0 0.01594853816723505 0 0 8:1 33:1 34:1 35:1 45:1 50:1 
-0 0 0.7662707962826586 0 1.266075163333283 0.3167082290644669 0 8:1 18:1 34:1 
-1.979823659031812 0 0 0 0 0 0 8:1 17:1 18:1 19:1 29:1 40:1 50:1 
-0.1001321576624477 0.1178877901027126 0.02465265982903895 0 0 0 0 8:1 33:1 34:1 35:1 45:1 56:1 66:1 
-0.1735632567177866 0.2528650454273204 0 0 0.2410345918260352 0.1610226506464439 0.1034335686492418 8:1 17:1 18:1 19:1 29:1 40:1 50:1 66:1 
-0 0 0.09595705994562571 0.1229930157908081 0 0.4039424781878352 0.2581697212818535 8:1 17:1 18:1 19:1 29:1 56:1 66:1 
-0.004457911578502259 1.452914700186522 0 0 0 0 0 8:1 33:1 34:1 35:1 45:1 56:1 72:1 
-0.313660792591337 0 0.01295162516726665 0 0 0 0 8:1 24:1 40:1 50:1 
-4.301404741260327 5.256449170969271 0.04781077162269601 0 0.1821272012331656 0.2515342849386371 0 8:1 33:1 34:1 35:1 45:1 56:1 72:1 
-0.6136954783821854 0.1247652781233812 0 0 0 0 0 8:1 17:1 18:1 19:1 29:1 40:1 56:1 66:1 
-0 0 0 0 0.8670707929155345 0.1193696883995347 0 8:1 18:1 34:1 56:1 72:1 
-0 0 0 0 0.2593277669937132 0 0 8:1 24:1 40:1 
-1.923001001629181 0.1344911681104209 0.1378900118914957 0.003776323651912081 0.2108991497718675 0 0 8:1 17:1 18:1 19:1 29:1 56:1 72:1 
-0 0 0 0 0 0 0.2422622315707716 8:1 40:1 56:1 66:1 
-0.5578419356317592 0.4296759028439576 0.3294945378989935 0 0.8041257746290681 0.767773700481865 1.85267464975139 8:1 24:1 40:1 50:1 66:1 
-1.884603000634608 0 0 0.0629448002098216 0 0.08100024017566827 0 8:1 17:1 18:1 19:1 29:1 34:1 63:1 77:1 
-2.027462093653435 0 0.1926955358472727 0 0.1460959478535515 0.1088118581769482 0 8:1 33:1 34:1 35:1 45:1 50:1 79:1 
-0 0 0.2232617266851233 0 0.04982020842768615 0.3042047984935783 0 8:1 18:1 34:1 63:1 77:1 
-0 10.82071258124768 0 0 0.3033037621964377 1.184818172851943 0.5410542252550525 8:1 33:1 34:1 35:1 45:1 50:1 66:1 
-1.039440991583791 0 0.2453036474964453 0.06864117085953156 0.208007378748678 0.4603253689477569 0.2098084960009847 8:1 17:1 18:1 19:1 29:1 50:1 79:1 
-0 0 13.09346460234809 32 0 3.302012085292949 6.05113311087383 8:1 
-0 0 0 32 0 0 0 8:1 56:1 
-0 0 0 18.13514849268813 0 0 0 8:1 40:1 
-0 0 0.2721634773270781 0 0 0.06306633795470025 0.09315500951773825 8:1 56:1 72:1 
-0 0 0 14.94447777223461 0 0.623929218055848 0 8:1 34:1 
-0 0 0 25.19918684904481 0 0 0 8:1 34:1 35:1 
-0 0.01924711565899562 0 9.154805178248274 0 0 0 8:1 18:1 19:1 40:1 
-0 0 0 0 1.022615053889691 0 0 8:1 18:1 19:1 34:1 
-0 3.874650073468732 0 8.606363906432755 0.8971454533272096 0 0 8:1 18:1 40:1 
-0 0 0 0 0.01404060981602616 0 0 8:1 18:1 19:1 34:1 56:1 72:1 
-0 0.1427654273795559 0.5609832721417908 0.1617863114921927 3.382355707928412 0 0 8:1 24:1 40:1 
-0.02678350768135807 0 0 0.03395069564596326 0 0.2365476001248957 0.5345847417880518 8:1 34:1 63:1 77:1 
-0.844490736577857 0 0 0 0 0 0 8:1 34:1 56:1 79:1 
-0 2.847118260284403 0 0.03861460620278489 0.6109375917417497 0 0 8:1 18:1 40:1 63:1 77:1 
-0 0 0 0 0 0.04402841501731036 0 8:1 34:1 56:1 72:1 
-0.2682282755123457 0.4132808621482921 0.1801990146033059 0 0 0 0 8:1 18:1 40:1 56:1 79:1 
-2.793328161707815 0 0.255314432447451 0.07333469277212065 0.2299362608945278 0 0 8:1 24:1 40:1 63:1 77:1 
-0 -0.01552828253567741 0 0 0 0 0 34:1 35:1 45:1 50:1 72:1 
-0 -0.1176398514723592 0 0 0 0 0 34:1 35:1 45:1 56:1 66:1 
-0 -0 0 11.91964712679026 0 0 0 34:1 35:1 45:1 56:1 72:1 
-0.7560254422904783 -1.815222804963607 1.522721120679276 0 0.4836503491193734 0 3.767464716636986 34:1 35:1 45:1 50:1 66:1 
-6.476784114768206 -5.940262581033908 0 31.28788525657684 0.05486704443260759 0 0 34:1 35:1 45:1 56:1 72:1 
-0 -0.01919370999902278 0 0 0 0 0 34:1 61:1 
-0 -0.08467456535978612 0 5.775402194971988 14.33289548391281 0 0 18:1 40:1 61:1 
-5.214619928202778 -7.959238072603736 5.534314635316668 30.69823958444013 0.7303412273335489 2.464685767967707 3.214634462742646 18:1 40:1 77:1 
-3.961142244077929 -0.759480117821977 14.66251760909436 18.62601712433557 9.063967768511121 1.741348381903288 5.564153785904043 24:1 61:1 
-0 -1.728457446651506 0 8.746352180621406 8.284245748810172 2.337619182543202 1.964009349952665 34:1 61:1 
-2.383123043007088 -0.08117757613826164 1.762425666458118 17.01315581963409 1.097461104776032 0 0 34:1 35:1 45:1 50:1 72:1 
-0.1214874871337487 -0.5626036818926458 0 28.80953562793555 0.02271797974504697 0 0 34:1 35:1 45:1 56:1 66:1 
-0 -0.04650842007570931 0 0 0 0 0 33:1 34:1 35:1 45:1 50:1 72:1 
-0 -0.09920640205138824 0 0 0 0 0 33:1 34:1 35:1 45:1 56:1 66:1 
-0 -1.428245678446231 0 0 0 0 0 33:1 34:1 35:1 45:1 56:1 72:1 
-0.2246348908621257 -10.77652403864159 0.2880265600774796 0 0.2963111403181171 2.008056009140772 0.4547108335753352 33:1 34:1 35:1 45:1 50:1 66:1 
-6.50211583965237 -5.235927844524788 0 0 0.2360194920574257 0.3759875945446397 0 33:1 34:1 35:1 45:1 56:1 72:1 
-10.00429117420416 -0.01518768906732315 0.04522509368141581 0.9711569689693267 0.02619170736345686 0.2778547142852917 0 33:1 34:1 35:1 45:1 50:1 72:1 
-0.28311389326531 -0.06994647197387807 0 0.7147926764325458 0.05921591795259801 0.2790345663844792 0 33:1 34:1 35:1 45:1 56:1 66:1 
-0.5594476196460529 -0.7682468106328627 -10.03994464473949 14.57694321556563 0 0.2106507386613704 0 13:1 24:1 
-17.62492400995616 -12.63376907337154 -3.027066191361007 21.45633642562183 7.544979371562651 5.260970952604683 7.468329085982602 13:1 
-0.824077592945563 -1.775498222498389 -5.727837385757256 0 2.228676028551645 0.5775759634019318 0.6031915338387182 13:1 18:1 
-2.21803072714985 -0.5579917656414515 -5.020382463449562 1.089736952818097 3.290211147612834 0.5702213314727304 3.582033853812747 13:1 24:1 47:1 50:1 51:1 61:1 
-0 -0 -0 0.02887484275146881 0 0 0 13:1 18:1 47:1 54:1 
-0 -0 -0 0.02551806462766709 0 0 0 13:1 18:1 47:1 53:1 
-0 -0 -0 0.7052860493727672 0 0 0 13:1 24:1 47:1 71:1 
-0.164746276729178 -0 -0 0.8830425353840594 0 0.7014820341634811 0 13:1 18:1 47:1 60:1 
-0.04076555633212717 -0.1254988932222943 -0 0.5557261801600991 0 0.261889062120349 0 13:1 18:1 47:1 52:1 70:1 
-0 -0.3599203392454127 -0 0.7123809043108661 0 0 0 13:1 24:1 47:1 56:1 
-1.168994009267438 -0.4844582351190834 -0 1.23246256836814 0.3741100229288733 0.2627641765353591 0 13:1 18:1 47:1 49:1 79:1 
-0 -0 -0 0.1458314924885712 0 0 0 13:1 24:1 47:1 74:1 
-0 -0.1289037005440267 -0 0.3757961028004454 0 0 0 13:1 47:1 72:1 
-17.63981482472895 -8.916205431983318 -32 -0.9651517223886755 0 0 0.07548476216358058 18:1 40:1 
-22.24717415931973 -0 -0 -5.882679379494754 0 0 0 2:1 3:1 13:1 31:1 45:1 
-0 -0 -0 -0 0 0 0.1210149996718292 22:1 
-0 -0 -0 -0 0 32 0 9:1 12:1 31:1 33:1 34:1 57:1 73:1 
-0 -0 -0 -0 0 32 0 9:1 17:1 18:1 41:1 44:1 57:1 73:1 76:1 
-0 -0 -0 -0 0 32 0 9:1 25:1 28:1 41:1 57:1 60:1 73:1 76:1 
-0 -0 -0 -0 0 32 0 9:1 12:1 25:1 41:1 57:1 60:1 
-0 -0 -0 -0 0 32 0 9:1 12:1 25:1 41:1 44:1 
-0 -0 -0 -0 0 0 0.2533421596521447 4:1 31:1 45:1 54:1 
-0 -0 -0 -0 0 0 0.2389609030296305 6:1 29:1 36:1 
-0 -0 -0 -0 0 0 0.01622531774667504 1:1 31:1 45:1 63:1 65:1 66:1 
-0 -0 -0 -0 0 32 0 9:1 12:1 31:1 33:1 34:1 57:1 73:1 
-0 -0 -0 -0 0 32 0 9:1 17:1 18:1 41:1 44:1 57:1 73:1 76:1 
-0 -0 -0 -0 0 32 0 9:1 25:1 28:1 41:1 57:1 60:1 73:1 76:1 
-0 -0 -0 -0 0 32 0 9:1 12:1 25:1 41:1 57:1 60:1 
-0 -0 -0 -0 0 32 0 9:1 12:1 25:1 41:1 44:1 
-0 -0 -0 -0.0568442216076684 0 0 0 
-0 -32 -0 -0 0 0 0 8:1 
-0.2896758864268956 -0 -1.7180509168202 -0.6177784579265903 0 0 0.1183193902668449 56:1 
-0 -32 -0 -0 0 0 0 8:1 
-0 -0 -32 -0 0 0 0 34:1 35:1 45:1 56:1 
-0 -32 -0 -0 0 0 0 8:1 18:1 19:1 29:1 
-0 -0 -0 -0 6.171342470325988 0 0 34:1 35:1 45:1 
-12.88548739581625 -0 -0 -0.04722736726312545 0 0 0 18:1 19:1 29:1 
-0 -13.70555165747447 -32 -0 0 0 0.005788291562666506 34:1 35:1 45:1 56:1 
-0 -32 -0 -0 0 0 0 8:1 18:1 19:1 29:1 
-0 -0 -0 -7.964845221187709 0 0 0 
-0 -27.19630919801179 -0 -0 0 0 0 8:1 29:1 
-0 -0 -0 -0 0 0 0.04710633463533401 40:1 
-0 -0 -14.22595235990899 -16.45437466112974 0 0 0.1228687020672919 24:1 
-0 -0 -0 -0.6897586773404627 0 0 0 49:1 
-32 -0 -11.92370905338322 -0 0 0 1.628055838066897 2:1 3:1 50:1 72:1 
-32 -13.70726881355631 -0 -0 0 0 0 2:1 34:1 35:1 56:1 
-0.481186073250468 -32 -1.608812387775362 -0 3.48253333670406 0.2455128362481733 0.08485019259718754 8:1 18:1 19:1 34:1 
-0 -0 -0 -0 0 0 2.25896208116469 67:1 
-0 -0 -0 -0.8932434864817168 0 0 6.191579184411753 51:1 
-0 -0 -0 -0.2826405302314403 0 0 0.1736452408760474 38:1 60:1 79:1 
-0 -0 -0 -0 0 0 0.1227574475931875 5:1 
-0 -0 -0 -0 0 0 0.1189652536826159 37:1 
-0 -0 -0 -0.6147917973299304 0 0 0.1180641116126157 71:1 
-0 -0 -0 -0 0 0 0.06701338780991699 55:1 
-0 -0 -0 -0.1401156600212693 0 0 0 63:1 72:1 
-0 -0 -0 -0 7.256648471645373 0 0 15:1 56:1 
-2.419098205958684 -0 -0 -0 0 0 2.225609954076066 1:1 63:1 65:1 66:1 
-0 -0 -0.2826084469554832 -0.1418560370668071 18.1326421268754 2.84012543898516 0.9877300745443818 15:1 33:1 49:1 50:1 73:1 76:1 
-1.198999435048202 -0 -0 -0 0 0 0 1:1 2:1 17:1 47:1 57:1 60:1 73:1 
-0 -0 -0 -0 0 32 0 9:1 12:1 31:1 33:1 34:1 57:1 73:1 
-0 -0 -0 -0 0 32 0 9:1 17:1 18:1 41:1 44:1 57:1 73:1 76:1 
-0 -0 -0 -0 0 32 0 9:1 25:1 28:1 41:1 57:1 60:1 73:1 76:1 
-0 -0 -0 -0 0 32 0 9:1 12:1 25:1 41:1 57:1 60:1 
-0 -0 -0 -0 0 32 0 9:1 12:1 25:1 41:1 44:1 
-0 -0 -0 -0 0 0 0.1803042716958072 58:1 75:1 
-0 -0 -0 -0 0 0 0.2391377519602035 10:1 59:1 
-0 -0 -0 -0 7.252067757360622 0 0 15:1 59:1 
-0 -0 -0 -0.00359634655491937 0 0 0 12:1 79:1 
-0 -0 -0 -0 0 0.3489106970793668 0 44:1 63:1 73:1 76:1 
-0.2049956269196941 -0 -0 -0.2721212119871728 0 0 0 18:1 19:1 29:1 49:1 
-32 -0 -0 -2.921613764328017 0.08570357743999096 0 0 2:1 3:1 13:1 34:1 35:1 45:1 
-0 -0 -0 -0 0.8679256896334432 0 0 34:1 35:1 45:1 67:1 
-0.2736425678891176 -0 -0 -0.002876531320472701 0 0 0 18:1 19:1 29:1 51:1 
-0 -0 -0.06107343071910157 -0 2.309573615810818 0 0 6:1 34:1 35:1 45:1 76:1 
-2.632131367313737 -0 -0 -0.1642250940585033 0 0 0.1077731849797548 18:1 19:1 29:1 38:1 60:1 79:1 
-0 -0 -0 -0 0 0.2816124505073818 0 12:1 22:1 63:1 73:1 76:1 
-0 -0 -0 -0 1.380923204431512 0.6330332030125564 0 15:1 44:1 57:1 60:1 
-0 -0 -0 -0.1245245431566793 0 3.469300066273552 0.1589646987020295 9:1 12:1 28:1 47:1 
-0 -0 -0 -0 0.08241995524672699 0 0.002045928009547917 5:1 34:1 35:1 45:1 
-0.1381012836608561 -0 -0 -0 0 0 0 18:1 19:1 29:1 37:1 
-0 -0 -0 -0 0.08370772650560789 0 0.008715184934323798 34:1 35:1 45:1 71:1 
-0.1375873743610926 -0 -0 -0 0 0 0 18:1 19:1 29:1 55:1 
-0 -0 -0 -0 0 0 0.1189652536826162 7:1 
-0 -0 -0 -0 0.08253999970320167 0 0.0568362746343522 34:1 35:1 45:1 55:1 
-0.1380152966973506 -0 -0 -0 0 0 0 7:1 18:1 19:1 29:1 
-0 -0 -24.19564434987226 -0 0.1404194848898718 0 0 34:1 35:1 45:1 63:1 72:1 
-3.281811281170037 -0 -0.3893837931213165 -0 0 0 0 15:1 18:1 19:1 29:1 56:1 
-0 -6.054816291715233 -0 -1.505619898911997 0 0 0.1618437582138363 8:1 47:1 
-0 -0 -1.98348891218692 -0 0.248262135657346 0.7198838878970513 0.1809159227731179 1:1 34:1 35:1 45:1 63:1 65:1 66:1 
-0 -1.186738194595327 -0.6845709672391307 -0 1.621317722331854 0.3940341896713538 0.1859128340171189 15:1 18:1 19:1 29:1 33:1 49:1 50:1 73:1 76:1 
-32 -0 -0 -0 0 1.791217153490289 0 1:1 2:1 17:1 47:1 57:1 60:1 73:1 
-0 -0.3061483262878075 -1.076905464830154 -0 0 32 0 9:1 12:1 31:1 33:1 34:1 57:1 73:1 
-0 -0 -0 -0 0 32 0 9:1 17:1 18:1 41:1 44:1 57:1 73:1 76:1 
-0 -0 -0 -0 0 32 0 9:1 25:1 28:1 41:1 57:1 60:1 73:1 76:1 
-0 -0 -0 -0 0 32 0.2039405510293719 9:1 12:1 25:1 41:1 57:1 60:1 
-0 -0 -0 -0 0 32 0.1137491117209325 9:1 12:1 25:1 41:1 44:1 
-0 -0 -0.4119844778955482 -0 0.08595384648936417 0 0.107448593419865 34:1 35:1 45:1 58:1 75:1 
-0.1380080861551743 -0 -0 -0 0 0 0.04253772103086206 10:1 18:1 19:1 29:1 59:1 
-0 -0 -0 -0 0 0 0.2780660418219053 11:1 42:1 
-0 -0 -0 -1.50309426760268 0 0 0 11:1 47:1 
-0 -0 -0 -0 0.08495284937528234 0.08366636326319875 0 12:1 34:1 35:1 45:1 79:1 
-0.2769112374937218 -0 -0 -0 0 1.05400829687055 0 18:1 19:1 29:1 44:1 63:1 73:1 76:1 
-0 -0 -0 -0 1.74629419855785 0 0 15:1 28:1 57:1 60:1 76:1 
-0 -0 -0 -0.5389564568793239 0 1.509875823187091 0 9:1 12:1 47:1 60:1 
-0 -0 -0 -0 0 6.883762614509099 0.0932000796509264 12:1 31:1 41:1 44:1 
-0.8522387965766789 -1.310961032220992 -0.896212166858486 -0.2413766815676794 -1.042111763541279 0.9659367438988691 2.644619075912594 15:1 18:1 40:1 61:1 66:1 67:1 77:1 
-0.6010870890313693 -0 -0 -0.07337042130852203 -0 0.2008941705698294 0 15:1 24:1 34:1 61:1 70:1 
-0 -0.5574832752713552 -0.5810733727650357 -0 -0 0 0 15:1 18:1 34:1 61:1 70:1 
-0 -0.5601697553709714 -0.578177567235059 -0 -0 0 0 15:1 18:1 34:1 61:1 69:1 
-0 -0.09007822368955538 -0 -0 -0 0 0 15:1 24:1 34:1 61:1 
-0.5997419539949632 -0.4057813282603078 -0.4304015330386655 -0.07537186940103155 -0 0.2032003482530063 0 15:1 24:1 34:1 61:1 68:1 
-0.9934394020020274 -1.412054948484867 -1.531307270310617 -0 -0.413892943266955 0.1613164716558662 0 15:1 18:1 40:1 61:1 72:1 
-0.6957762667651527 -0.5583204214448251 -0.5793019629753309 -0 -0 0 0 15:1 18:1 34:1 61:1 65:1 
-0.7303178869620657 -0.6853817603748396 -6.926100380527226 -0 -0 0 0 15:1 24:1 34:1 61:1 
-0 -0 -0 -0 -10.76148876434943 1.86562955030379 1.68311334824314 15:1 34:1 49:1 50:1 73:1 76:1 
-1.349137610936309 -1.384587911770164 -0 -0.44196127435894 -4.764718329535676 0.5899834311383425 0 15:1 18:1 19:1 34:1 49:1 50:1 73:1 76:1 
-0 -0 -0 -1.821582681378786 -0 0.5171616382977673 0 15:1 18:1 34:1 49:1 50:1 73:1 76:1 
-2.478322661913487 -2.43001529905005 -1.742133029667841 -0.4029573821404299 -9.628699927769897 0.6064619278834681 0.5099070597474482 15:1 34:1 35:1 45:1 49:1 50:1 73:1 76:1 
-3.221196112957454 -0.6721794341569196 -8.562691910146176 -8.697344947779547 -24.21303242140798 3.013930457264684 6.408721856490444 15:1 61:1 
-0 -0 -10.95759569315643 -0 -0 0 0 15:1 18:1 40:1 61:1 
-0 -0 -0.1375734310200763 -0 -0 0 0 15:1 24:1 40:1 61:1 
-3.005345717066189 -3.581121685630128 -1.765316646631368 -1.684011312721069 -0.2912840191130927 0 0 15:1 24:1 40:1 61:1 
-0 -0 -0 -0 -6.990892571295468 -0 0 9:1 12:1 31:1 33:1 34:1 57:1 73:1 
-0 -0 -0 -0 -4.396648475891261 -0 0 9:1 17:1 18:1 41:1 44:1 57:1 73:1 76:1 
-0 -0 -0 -0 -2.396337944162485 -0 0 9:1 25:1 28:1 41:1 57:1 60:1 73:1 76:1 
-0 -0 -0 -0 -32 -0 0 9:1 12:1 25:1 41:1 57:1 60:1 
-0 -0 -0 -0 -32 -0 0 9:1 12:1 25:1 41:1 44:1 
-0 -0 -0 -0 -32 -0 0 9:1 12:1 31:1 33:1 34:1 57:1 73:1 
-0 -0 -0 -0 -32 -0 0 9:1 17:1 18:1 41:1 44:1 57:1 73:1 76:1 
-0 -0 -0 -0 -32 -0 0 9:1 25:1 28:1 41:1 57:1 60:1 73:1 76:1 
-0 -0 -0 -0 -32 -0 0 9:1 12:1 25:1 41:1 57:1 60:1 
-0 -0 -0.0129541845793173 -0 -32 -0 0 9:1 12:1 25:1 41:1 44:1 
-0 -0 -0 -0 -32 -0 0 9:1 12:1 31:1 33:1 34:1 57:1 73:1 
-0 -0 -0.002937534765056257 -0 -32 -0 0 9:1 17:1 18:1 41:1 44:1 57:1 73:1 76:1 
-0 -0 -0 -0 -32 -0 0 9:1 25:1 28:1 41:1 57:1 60:1 73:1 76:1 
-0 -0 -0 -0 -32 -0 0 9:1 12:1 25:1 41:1 57:1 60:1 
-0 -0 -0 -0 -32 -0 0 9:1 12:1 25:1 41:1 44:1 
-0 -0 -0 -0 -32 -0 0 9:1 12:1 31:1 33:1 34:1 57:1 73:1 
-0 -0 -0 -0 -32 -0 0 9:1 17:1 18:1 41:1 44:1 57:1 73:1 76:1 
-0 -0 -0 -0 -32 -0 0 9:1 25:1 28:1 41:1 57:1 60:1 73:1 76:1 
-0 -0 -0 -0.5748473915582623 -32 -0 0 9:1 12:1 25:1 41:1 57:1 60:1 
-1.718480808438222 -1.142488139019324 -1.606285043867691 -2.695284561938856 -32 -0.3570970181711711 0 9:1 12:1 25:1 41:1 44:1 
-1.690650981120846 -2.972775008561574 -3.775820166005142 -2.147944652421431 -32 -2.770685621900577 1.948051560483415 9:1 12:1 31:1 33:1 34:1 57:1 73:1 
-1.493236362445249 -1.362207185144196 -1.28870074437909 -1.277809849318292 -31.37564925300649 -1.754274651122973 0.908841802224949 9:1 17:1 18:1 41:1 44:1 57:1 73:1 76:1 
-3.063363446423732 -0.548522876590504 -0.6294346698914314 -0.6375738149986774 -32 -1.193981046406891 0.6293932561494311 9:1 25:1 28:1 41:1 57:1 60:1 73:1 76:1 
-0 -0.1496738988423876 -0.004965665211806821 -0 -0 -0 0.477811660731249 9:1 12:1 25:1 41:1 57:1 60:1 66:1 
-4.141370535809406 -2.275149367394032 -2.163488208069846 -0.5120939887243852 -7.095414776639116 -2.04847640166401 2.996109322560807 9:1 12:1 25:1 41:1 44:1 50:1 66:1 
-5.305637715271809 -4.216873515688219 -6.318094684107565 -5.063868296703616 -6.367415836318585 -4.764354028988077 -2.457630755406193 16:1 50:1 51:1 61:1 66:1 
-1.757532550539445 -1.98371814658588 -2.242254800762458 -0.4527041620149919 -2.266579907185786 -2.126415684495772 -1.160706313331418 16:1 64:1 66:1 67:1 77:1 
-4.737221920080948 -4.997436380529058 -5.735953269834279 -5.637236007722831 -7.879291880983927 -3.751101201062363 -2.622543119764472 16:1 64:1 80:1 
-0 -0.1459193150708021 -0.1746507020096031 -0.1318031930364468 -0.1553295207858571 -0.1506139390128262 -0.1710726177440497 16:1 48:1 64:1 66:1 67:1 77:1 
-0.8404500821143089 -0.4223784376418519 -0.4940196920977712 -0.3679428141561814 -0.548083644233774 -0.4538764868345878 -0.5482547959037186 16:1 32:1 48:1 50:1 51:1 61:1 66:1 
