svm_type c_svc
kernel_type rbf
gamma 0.03125
nr_class 8
total_sv 263
rho -0.358269 -0.31431 -0.162238 -0.543381 -0.288187 -0.0989444 -0.48233 -0.120638 -0.137056 -0.107268 0.211294 0.406831 -0.210926 -1.13468 -0.0917387 0.415294 0.514146 -0.353851 -0.741688 -0.15051 0.313874 -0.324592 0.176959 0.568001 -0.110454 0.301642 -0.293002 -0.644628
label 10 1 0 -1 -2 -3 2 -4
probA -4.63457 -4.17835 -3.47131 -4.12827 -4.54946 -4.40664 -3.94811 -3.75526 -2.67948 -3.66951 -4.10114 -3.71888 -3.52596 -2.46914 -2.86757 -2.66806 -2.94359 -2.91012 -3.79531 -3.55253 -2.42676 -3.77689 -3.13362 -3.02767 -2.82983 -2.97732 -3.07349 -2.92325
probB -0.373419 -0.559396 0.212368 -0.828024 0.057779 -0.532109 -0.989723 -0.28659 0.21025 -0.405027 0.0524109 -0.435731 -0.447033 0.34685 -0.217547 0.00995339 -0.205868 -0.4982 -0.437608 -0.462032 -0.523692 -0.80827 -0.000252584 0.064682 0.0306738 -0.153438 -0.157361 0.0669869
nr_sv 83 51 12 68 13 16 10 10
SV
0 0 0 0 0.4010114299421917 0 0 2:1 146:1 147:1 157:1 168:1 
0 1.544496670139373 11.82001665020423 0 0 0 0 2:1 162:1 163:1 173:1 178:1 200:1 
0.3267738029923202 3.539946796950719 2.234807040270275 0 0 0 0 2:1 162:1 163:1 173:1 184:1 200:1 
0.00457473829736603 2.169476711279949 0 0 0 0 0 2:1 130:1 131:1 141:1 152:1 168:1 
0 0 0 0.07772280332812909 0 0 0 2:1 3:1 13:1 194:1 216:1 232:1 
0 0 0 0.1241602347449293 0 0 0 2:1 146:1 147:1 157:1 184:1 200:1 
0 1.227532661072688 0 0 0 0 0 2:1 114:1 115:1 125:1 152:1 168:1 
0 0 4.095581573029205 0.1030704257334167 0.7598161649539346 0 0 2:1 114:1 115:1 125:1 136:1 152:1 168:1 
0 0 0 0 0 0 2.189207406592086 2:1 178:1 
0 0 1.222217663577984 0 0 0 0 2:1 162:1 
0 0 0 0 0 0 0.2106941891131094 2:1 178:1 200:1 216:1 232:1 
0 0 0 0 0.112070487978045 0 0 2:1 162:1 184:1 200:1 216:1 
0 0 0 0.1389458094310098 0 0.4698126795900652 0 2:1 3:1 13:1 200:1 216:1 232:1 242:1 258:1 
0 0 0.9835070317236249 2.853175352820861 0 0 0 2:1 98:1 99:1 109:1 136:1 152:1 168:1 178:1 
0 0 0.5124858683531874 0 0 0.1013090706903823 0 2:1 82:1 83:1 93:1 120:1 136:1 152:1 162:1 
0.008913220454836421 0.2980869666833726 4.661942598250832 0 0 0 0 2:1 162:1 163:1 173:1 184:1 237:1 
0.3106479004045026 0 0 0.1545140253033468 0.02460776747869332 0.1804136169185481 0.6328814317677453 2:1 184:1 207:1 221:1 226:1 227:1 237:1 
0 0 1.835338055211182 0 0.001079421066163788 0 0 2:1 162:1 163:1 173:1 184:1 207:1 221:1 259:1 
0.2012808861514668 0 0 0 0 0 0.4754121239859037 2:1 178:1 207:1 221:1 230:1 242:1 
0.9131945284227787 0.2674082630407507 0 0 0.3956040233373365 0.07341203549262991 0.6048992941616669 2:1 162:1 191:1 205:1 214:1 226:1 
0.3880528081971237 0 0 0 0 0 0.09487985127096686 2:1 178:1 200:1 223:1 237:1 263:1 
0.04596868672982782 0 0 0 0 0 0 2:1 162:1 184:1 207:1 221:1 247:1 
0.1690504401108169 0.03991092857786934 0 0 0 0 0.08325809634757336 2:1 3:1 13:1 178:1 194:1 216:1 239:1 253:1 287:1 296:1 
0.4142802116561258 1.029628351129848 0 0 0.3172222291130495 0 0 2:1 162:1 163:1 173:1 178:1 200:1 223:1 237:1 271:1 280:1 
0.9302968180394446 0.08266322309714515 0 0 0.1088223602973048 0 0 2:1 146:1 147:1 157:1 162:1 184:1 207:1 221:1 255:1 264:1 
0 0.005051044573774679 0 0.1968144590800938 0 0.155888975409636 0.0513058485129379 2:1 3:1 13:1 194:1 216:1 239:1 253:1 282:1 299:1 
0 0.1643982697874993 0 0 0.00916424371164907 0 0 2:1 146:1 147:1 157:1 184:1 207:1 221:1 250:1 267:1 
0.4508287122149486 1.175263602985792 4.985502708709124 0 0 0.05064846082670266 0 2:1 161:1 162:1 163:1 173:1 184:1 
0.1649381882264457 2.7251025342558 0 0 0 0 0 2:1 161:1 162:1 163:1 173:1 178:1 200:1 
0.6516483319786228 0.5787408486155394 0 0 0 0 1.000901536404778 1:1 2:1 3:1 13:1 184:1 194:1 210:1 
2.302577862105293 0 2.798118702111093 0 0 0 0 2:1 145:1 146:1 147:1 157:1 168:1 178:1 
1.035728174368939 0 0.2588059064508096 0.1160210250552414 1.219695790333184 0.3174770742966975 0 2:1 129:1 130:1 131:1 141:1 152:1 162:1 
0 0 0.7267579755180762 0 0 0 0 1:1 2:1 3:1 13:1 194:1 216:1 
0 0 3.902613698932917 0 0 0 0 2:1 145:1 146:1 147:1 157:1 184:1 
0 0 0.9702673483605571 0 0 0 0 1:1 2:1 3:1 13:1 200:1 210:1 
0.5777303235154733 0.449111570280577 0 0 1.003826366280833 0.5027862914123405 0.01640713223110919 2:1 129:1 130:1 131:1 141:1 168:1 
0 0 0 0 0.5508870282211427 0 0 2:1 129:1 130:1 131:1 141:1 152:1 168:1 
0 15.84032714191317 0 0 0.1109273297454674 0 0 2:1 161:1 162:1 163:1 173:1 178:1 200:1 216:1 
1.489577459498253 0 0 0 0 0 0 2:1 145:1 146:1 147:1 157:1 162:1 184:1 200:1 
1.141100977793839 0 0 0 0 0 0 2:1 129:1 130:1 131:1 141:1 152:1 168:1 178:1 
0 0.7161395747180267 1.264196802967917 2.059596744079654 1.171128886985815 0.6253758375628722 0 2:1 113:1 114:1 115:1 125:1 136:1 152:1 162:1 
0 0 0.4286896786502338 0 0 0 0 1:1 2:1 3:1 13:1 194:1 216:1 232:1 
0 0 0 0.1707303829012333 0 0 0 2:1 145:1 146:1 147:1 157:1 184:1 200:1 
0 0 0.1895780411741781 0 0 0 0 1:1 2:1 3:1 13:1 200:1 216:1 226:1 
2.381184851489828 0 0 0 1.70279182928866 0.2825634469244446 0.1835062708972313 2:1 113:1 114:1 115:1 125:1 152:1 168:1 
0.2501684909947476 0.3492024509999194 0 0 0.3646385317663292 0 0 2:1 161:1 162:1 163:1 173:1 178:1 200:1 216:1 232:1 
0.1973224177950572 0.1471369759072134 0 0 0.5395060150490348 0 0 2:1 145:1 146:1 147:1 157:1 162:1 184:1 200:1 216:1 
1.10493180703094 0 0.7157571433146398 0.233484186384704 0.1355211979760519 0.5675598646255414 0.2022021029440981 2:1 97:1 98:1 99:1 109:1 136:1 152:1 168:1 178:1 
0 0 0.2273000813174325 0 0.2387635432809091 0 0.03357952831079115 2:1 81:1 82:1 83:1 93:1 120:1 136:1 152:1 162:1 
0.6268798142236079 0.1990917188981856 0 0 0 0.2827575381323519 0 2:1 161:1 162:1 163:1 173:1 184:1 207:1 221:1 259:1 
0.1686506658792204 0.0464563777083186 0 0.01752951817731022 0 0 0 1:1 2:1 3:1 13:1 184:1 194:1 223:1 237:1 244:1 262:1 
0.4332351241929455 0.4520271476238661 1.259752308809313 0 0.1294564037778638 0 0.08729867691951554 2:1 145:1 146:1 147:1 157:1 168:1 191:1 205:1 212:1 230:1 
0.9563508849734872 0.8014587977596451 0 0 0.1049686333803621 0.2512449619830314 0 2:1 161:1 162:1 163:1 173:1 178:1 200:1 223:1 237:1 248:1 
0.06319874004779642 0 0 0 0 0 0 2:1 145:1 146:1 147:1 157:1 162:1 184:1 207:1 221:1 232:1 
0 0 0.1738878259837471 0 0 0 0 1:1 2:1 3:1 13:1 194:1 216:1 239:1 253:1 282:1 299:1 
0.9213463083761286 0 0 0.07222521665699422 0 0.1806799728752557 0.09762634292149297 2:1 145:1 146:1 147:1 157:1 184:1 207:1 221:1 250:1 267:1 
0 0 0.1666586856222902 0 0 0 0 1:1 2:1 3:1 13:1 200:1 210:1 239:1 253:1 287:1 299:1 
1.553311767805637 0.9936197334771782 0 0.1757573609834206 0.1082458372218306 0.3191173389313542 0.2109586727407542 2:1 129:1 130:1 131:1 141:1 168:1 191:1 205:1 239:1 251:1 
0.2547088219005691 0.1824632944461581 0.07370872512450954 0 0.2024695836625979 0.02500283679807447 0.2474242902881326 2:1 178:1 207:1 209:1 210:1 233:1 236:1 249:1 265:1 281:1 284:1 297:1 300:1 
0.3216437962507667 0 3.635555075173359 0 0.9649467056824169 0.4454370117990535 0.5759819762343779 2:1 162:1 191:1 193:1 194:1 217:1 220:1 233:1 249:1 265:1 268:1 281:1 284:1 
0.3039329898572546 0.6072506722350527 13.73269875982489 1.501116828070722 1.096918000248986 1.773023911688904 0 1:1 2:1 130:1 146:1 175:1 185:1 188:1 201:1 217:1 233:1 236:1 249:1 252:1 
0 0.06624540293744668 0.8011726875917206 0.02485279411513161 0 0.2692969374424229 0 2:1 3:1 13:1 191:1 193:1 194:1 217:1 220:1 233:1 249:1 265:1 268:1 281:1 284:1 290:1 306:1 
0 0 3.46657302508101 0 0.2293945068809668 0.3862265254938412 0.1140677402727865 1:1 2:1 146:1 147:1 157:1 175:1 185:1 188:1 201:1 217:1 233:1 236:1 249:1 252:1 258:1 274:1 
0.2795678938529048 0.2296550550266328 0.365558271726332 0.1336152685953797 0.187307198535275 1.540609110483128 0.2667816423928562 2:1 50:1 51:1 61:1 79:1 81:1 82:1 105:1 108:1 121:1 137:1 153:1 156:1 169:1 172:1 178:1 
0.2751983870395883 0.2021242680355932 0.4838355518680585 0.1331304740186331 0.327607717032041 0.8923567662858034 0.1820176520437396 2:1 34:1 35:1 45:1 63:1 65:1 66:1 89:1 92:1 105:1 121:1 137:1 140:1 153:1 156:1 162:1 
0 0 2.689871475423826 0 0 0 0 2:1 3:1 13:1 
0 0 0 5.593341594032177 0 0 0 2:1 3:1 13:1 200:1 
0 0 32 0 0 0 0 2:1 3:1 13:1 
0 0 0 0.09944658677531097 0 0 0 2:1 184:1 200:1 216:1 
0 0 4.54431272610874 0 0 0 0 2:1 3:1 184:1 
0 0 20.30670549436153 0 0 0 0 2:1 3:1 178:1 200:1 
0 0 25.81422454694172 0 0 0 0 2:1 162:1 163:1 184:1 
0 0 0 0.01444990339952426 0.2942574419195844 0 0 2:1 184:1 200:1 216:1 239:1 253:1 
0 0 0.3802874029471335 0 0 0 0 2:1 3:1 13:1 209:1 
0 0.1786506199325215 0 2.045025870844265 2.310358567134192 0 2.813369665398705 2:1 3:1 13:1 178:1 179:1 189:1 
0 0 0.8282488291816841 0 0 0 0 2:1 3:1 13:1 182:1 220:1 239:1 249:1 252:1 
0 0 0.4306556257135642 0 0 0 0 2:1 3:1 13:1 215:1 
0 0 0.437883918630085 0.1118315379699522 0 0 0 2:1 3:1 13:1 202:1 219:1 
0 0 1.995540763956778 0 0 0 0 2:1 3:1 13:1 188:1 223:1 233:1 236:1 252:1 
0 0 0.002802188403373115 0 0 0 0 2:1 144:1 160:1 162:1 163:1 173:1 
0 0 5.228942761375983 1.342275436132015 0 0 0.8155647572994509 2:1 
0 0 8.75400401272033 0 0 0 0 2:1 160:1 162:1 163:1 173:1 
0.1781028679863041 0.2294561076280732 0.4302729302982474 0 0.2798953330870828 0 0.2086217567776714 2:1 128:1 144:1 160:1 162:1 163:1 173:1 
-0.1229336705660818 0.004694528079696904 1.321523738362318 0 0 0 0 8:1 162:1 163:1 173:1 178:1 
-0.4096446625694494 0 0 0 0 0 0 8:1 146:1 147:1 157:1 162:1 184:1 
-0 4.478104065192914 0.9425724253061992 0 0.3209805914096984 0 0 8:1 130:1 131:1 141:1 146:1 168:1 
-0 0.22799850684564 0.5491671664502824 0 0.6606852719828001 0 0 8:1 114:1 115:1 125:1 146:1 168:1 
-0 0 8.299688057952544 0 0 0 0 8:1 146:1 147:1 157:1 184:1 194:1 
-0.6993059931899259 12.85255859641186 0 0 0.371692196482519 0 0 8:1 162:1 163:1 173:1 184:1 200:1 210:1 
-0.1206514988491665 0.303188421440909 0 0 0.01459306444703064 0 0 8:1 130:1 131:1 141:1 152:1 168:1 178:1 
-0 0 0 0 0.3209589780269348 0 0 8:1 114:1 130:1 152:1 168:1 
-0 0 3.048316184858233 0.1697176665036552 0.2835562017668638 0 0.7373253321426716 8:1 146:1 147:1 157:1 184:1 200:1 210:1 226:1 
-0 0 0 0 0 0 0.7119367532520301 8:1 130:1 131:1 141:1 168:1 184:1 194:1 210:1 
-0 0.846564799093186 0 0 0 0 0.78388225004182 8:1 114:1 115:1 125:1 152:1 168:1 178:1 194:1 
-0.09152287686476938 0 8.222724154175859 0 0 0 0 8:1 146:1 147:1 157:1 162:1 221:1 
-0.04325548373466911 0 0 0.1433506187909926 0.2186292875741254 0.2415125881691511 2.205677904958316 8:1 162:1 191:1 205:1 210:1 211:1 221:1 
-0 0 3.065340611367566 0 0 0 0 8:1 146:1 147:1 157:1 162:1 191:1 205:1 243:1 
-0 0 0 0 0.2305995281143315 0 0 8:1 146:1 162:1 191:1 205:1 231:1 
-0.7681865433543589 0.6147028754203985 0 0.2659350889770377 0.1330442626915469 0.2355536064469787 0 8:1 130:1 131:1 141:1 146:1 162:1 191:1 205:1 239:1 248:1 
-0 0.5400566931971995 0 0 0 0 0 8:1 130:1 131:1 141:1 162:1 191:1 205:1 234:1 251:1 
-0.1101373908107938 0 0 0 0 0 0 8:1 145:1 146:1 147:1 157:1 162:1 
-0 0 0.2841377082164884 0 1.503180983692587 0 0 8:1 129:1 130:1 131:1 141:1 146:1 162:1 
-0 0.796059808838497 0 0.3380356804215627 0.4794857050773429 0.3409362227812093 1.260482627108957 8:1 161:1 162:1 163:1 173:1 178:1 194:1 
-0 0 0 0 0 0.5711998055974679 0 8:1 129:1 130:1 131:1 141:1 162:1 
-0 0 11.67214945751234 0 0 0 0 8:1 145:1 146:1 147:1 157:1 178:1 
-1.170384414322152 11.83109618421479 0 0 0 0 0 8:1 161:1 162:1 163:1 173:1 184:1 194:1 
-1.412604864005578 0 0 0 0 0 0 8:1 145:1 146:1 147:1 157:1 168:1 178:1 
-0 1.092537495503849 0 0.4020753862150355 2.386224309593094 0.392968960277769 0 8:1 113:1 114:1 115:1 125:1 130:1 146:1 168:1 
-0 0 0 0 0 0.4613794226853668 0 8:1 161:1 162:1 163:1 173:1 184:1 194:1 210:1 
-0 0 0 0 0.04064281590098762 0 0.5008300252976938 8:1 145:1 146:1 147:1 157:1 168:1 178:1 194:1 
-0.07813356840605815 0 0 0 0 0 0 8:1 129:1 130:1 131:1 141:1 162:1 184:1 
-0.6776112195887228 0 0.4344722976448914 0 0.9335730036874118 0.3142621369188879 0 8:1 113:1 114:1 115:1 125:1 146:1 168:1 
-2.001355074192076 0 0 0 0.2473003756856217 0 0 8:1 129:1 130:1 131:1 141:1 168:1 178:1 
-0 0 0 0.1887089478177371 0 0 0 8:1 129:1 130:1 131:1 141:1 146:1 162:1 184:1 200:1 
-1.356416232001623 0.3517859985295449 0.5428464630300487 4.026888992997154 0.644599880997836 1.48655449977868 0 8:1 97:1 98:1 99:1 109:1 114:1 130:1 152:1 168:1 
-1.510552968624764 0.1645966823813265 0 0.1751273640632138 0.281627430911742 0.8140289490700479 0 8:1 145:1 146:1 147:1 157:1 184:1 200:1 210:1 226:1 
-0 0 0 0 0.1410827232953667 0.08196951204784048 0.4029341892250412 8:1 129:1 130:1 131:1 141:1 168:1 184:1 194:1 210:1 
-1.702423399842413 0 0 0.4936726146832677 0.7072231814598153 0.3440555652440963 0.4101064360846391 8:1 113:1 114:1 115:1 125:1 152:1 168:1 178:1 194:1 
-0.8518789836604016 0 0 0 0.008598636379662431 0 0 8:1 145:1 146:1 147:1 157:1 162:1 191:1 205:1 243:1 
-1.253693789934754 0.4844766522930035 0 0.1594029271672825 0.4046224898550415 0.4455400169266538 0 8:1 161:1 162:1 163:1 173:1 178:1 207:1 221:1 228:1 246:1 
-0.2385197811017908 1.096546145355925 0 0.0868425190613312 0.7548146373331063 0.07982630947770866 0 8:1 129:1 130:1 131:1 141:1 146:1 162:1 191:1 205:1 216:1 
-1.336039786779028 0 0 0.2071095897448028 0.2000453468713472 0.5101947374924174 0 8:1 129:1 130:1 131:1 141:1 162:1 191:1 205:1 234:1 251:1 
-1.672944200410244 0.1488870167489596 0 0.3709304665556227 0.394730554157538 0.4144537453202021 0.2852181507023219 8:1 145:1 146:1 147:1 157:1 178:1 207:1 221:1 255:1 267:1 
-0 0 32 4.337699711911302 0 0.4606443457667337 3.785285577578434 8:1 
-0 0 24.39638558516365 0 0 0 0 8:1 184:1 
-0 0 26.47852910731035 0 0 0 0 8:1 168:1 
-0 0 0 2.150242809621469 0 0 0 8:1 184:1 200:1 
-1.638176710763913 0 0 0 1.42454063287306 0 0 8:1 152:1 168:1 
-0 0 5.185161809445712 0 0 0 0 8:1 162:1 
-0 0 18.72395145039738 0 0 0 0 8:1 162:1 163:1 
-0 0 32 0 0 0 0 8:1 146:1 147:1 162:1 
-2.019386496049057 0.5112181218698911 0 0.1114555262726177 0.9178394340403483 0.1820434928306047 0 8:1 162:1 184:1 200:1 223:1 237:1 
-0.3038048089325303 0 0 0 0 0 0 8:1 146:1 168:1 184:1 207:1 221:1 
-0.2073352823008889 1.254713152623634 0 0 0 0 0 8:1 130:1 152:1 168:1 191:1 205:1 
-3.407510020472071 -1.14008111430358 7.76034508170999 1.444424304896931 2.52191363080536 0 1.27726407955901 162:1 163:1 173:1 178:1 200:1 216:1 
-2.396386499847672 -12.26123811616086 12.90450344474717 0.3248328092871589 0.07015545074833915 0 0.3791256184966002 162:1 163:1 173:1 184:1 200:1 210:1 
-1.20778071350467 -0.2252071897723996 1.823499269565627 0 0.7688322545101637 0.4051771273422765 0 162:1 163:1 173:1 184:1 200:1 216:1 226:1 242:1 
-4.023215857307227 -7.302061402643217 14.39701752188201 2.7959795727227 6.343728652122123 1.965113411393462 2.241956270234716 130:1 131:1 141:1 146:1 168:1 205:1 
-3.06406331782876 -2.747255924428393 10.70719812262731 8.046545556524574 9.453522901456735 2.312912963985282 2.641661517316064 114:1 115:1 125:1 130:1 152:1 189:1 
-0.9659656020178348 -0.5119451925143171 2.407634466206629 0.6915996019782823 0.6728717089309232 0.1739058947488009 0.578939981688689 162:1 163:1 173:1 178:1 200:1 223:1 237:1 266:1 283:1 
-6.530999172398074 -0.3756304226870321 0 0.5472908068532547 0 0.3732455811599443 0 161:1 162:1 163:1 173:1 178:1 200:1 
-1.660241454832891 -12.54744876203572 16.59438816862387 0.9644758765146113 0.3035520969214565 0.5082880264397469 2.249964050458104 161:1 162:1 163:1 173:1 184:1 194:1 
-12.14751726727514 -0 0 0 0 0 0 161:1 162:1 163:1 173:1 178:1 200:1 216:1 
-0 -0 0 0 0 0.6855836909918002 0 161:1 162:1 163:1 173:1 184:1 200:1 216:1 226:1 242:1 
-0 -0 0 0 0 0.3183798302388946 0 161:1 162:1 163:1 173:1 178:1 200:1 223:1 237:1 266:1 283:1 
-1.134443876233373 -0.4889176194957069 0 0.05595878235385274 1.037088506232767 0.4935671559382551 0 161:1 162:1 163:1 173:1 184:1 194:1 223:1 237:1 271:1 283:1 
-8.328279683493921 -2.383167298583539 -4.966757680318739 0 8.772836391440526 0 0.04480619764427315 146:1 168:1 
-6.601373036003821 -0 -3.453386593463775 10.15092574922232 0 0 0 130:1 152:1 
-0 -0 -0 2.130762385667595 0 0 0 114:1 136:1 
-9.458688999897586 -0 -0 3.69553937595305 0 0 0 2:1 3:1 13:1 114:1 136:1 159:1 173:1 
-0 -0 -0 1.631937749311343 0 0 0.05538605296026296 98:1 99:1 109:1 114:1 136:1 159:1 173:1 195:1 
-0 -0 -0 0 0 0 0.7382580491112235 82:1 83:1 93:1 98:1 120:1 143:1 157:1 179:1 
-0 -0 -0 0 0 0.04414802771075436 0 3:1 66:1 67:1 77:1 82:1 104:1 127:1 141:1 
-0 -0 -1.698679468674599 0 0 0.1727405891289992 0.8540516455920599 6:1 114:1 130:1 159:1 173:1 178:1 
-7.347523312707446 -0 -0 0 0 0 0 2:1 98:1 114:1 143:1 157:1 166:1 
-0 -0 -0 0 0.08613552890990681 0.4878136240889661 0 82:1 98:1 127:1 141:1 150:1 162:1 
-0 -0 -2.126581919211723 0 0 2.419605409860284 0 82:1 83:1 93:1 98:1 114:1 136:1 159:1 173:1 191:1 200:1 
-0 -0 -0 0 0.8112247178068656 2.357489730879515 0 15:1 66:1 67:1 77:1 82:1 98:1 120:1 143:1 157:1 184:1 
-0 -2.508072059431072 -0 0.6331214589259838 0 1.447219784740507 0.09000459665851486 8:1 50:1 51:1 61:1 66:1 82:1 104:1 127:1 141:1 175:1 
-0 -0 -0 0.03098422414529858 0.005517278836280028 0 0.1795270070493263 97:1 98:1 99:1 109:1 114:1 136:1 159:1 173:1 195:1 
-0 -0 -0 0.07738887609923395 0 0 0.2582515024077589 81:1 82:1 83:1 93:1 98:1 120:1 143:1 157:1 179:1 
-0 -0 -0 0.1188961188285102 0 0 0 4:1 97:1 98:1 99:1 109:1 120:1 130:1 159:1 173:1 182:1 
-0 -1.55510732738206 -0 0 0 0 0 8:1 81:1 82:1 83:1 93:1 98:1 114:1 136:1 159:1 173:1 
-0.3945912720456645 -0 -0 0 0 0 0.1906718409012713 11:1 49:1 50:1 51:1 61:1 82:1 104:1 127:1 141:1 170:1 
-0 -0 -0 0 0.1116690489138642 0 0.007206718564556703 15:1 65:1 66:1 67:1 77:1 104:1 114:1 143:1 157:1 187:1 
-0 -0 -0 0.1825760865786883 0 0 0.05718147775148769 11:1 49:1 50:1 51:1 61:1 88:1 98:1 127:1 141:1 175:1 
-0.01094514896909236 -0 -0 0 0 0 0 184:1 
-0 -32 -0 0 0 0 0 8:1 
-0 -0 -0 0 0 0 4.446178036833617 
-10.8140717771106 -0 -0 0 0 0 0.3520718019309786 184:1 
-0 -32 -0 0 0 0 0.04795977069186334 8:1 
-0 -11.38583243999013 -0 0 0 0 0.3063174306381863 168:1 
-0 -0 -0 0 0 0 0.3506910196901458 152:1 
-0 -10.79101909310741 -29.52298249702402 0 0 0 0 162:1 163:1 173:1 184:1 
-0 -32 -0 0 0 0 0 8:1 146:1 147:1 157:1 
-3.612026369614632 -0 -0 0 0 0 0 146:1 147:1 157:1 
-0 -0 -7.866424248677656 0 0 0 0 130:1 131:1 141:1 
-0 -9.078272551338369 -0 0 0 0 0 8:1 143:1 157:1 
-0 -0 -0 0 0 0 0.1140036866408027 177:1 
-32 -0 -3.95586558640955 0 0 0 1.510177924907608 2:1 3:1 178:1 200:1 
-32 -10.65839676626148 -0 0 0 0 0 2:1 162:1 163:1 184:1 
-2.599677684154453 -32 -0 0 1.995952864030696 0 0.2544845118492213 8:1 146:1 147:1 162:1 
-0 -0 -0 0 0 0 0.02805083592290931 12:1 150:1 191:1 201:1 204:1 
-0 -0 -0 0 0 0 0.1444837390718311 15:1 134:1 172:1 185:1 188:1 
-0 -0 -0 0 0 0 0.1848941659853742 9:1 12:1 118:1 156:1 175:1 
-3.832980920095203 -0.09703329108911271 -0.5466180693893729 0 0.186043823414702 0 0.9381411041802034 1:1 191:1 193:1 194:1 217:1 220:1 233:1 249:1 265:1 268:1 281:1 284:1 
-0.5255200888236332 -0.2417458598591059 -0.948207703073157 0 12.84320179067587 0 0.3246600158513894 15:1 161:1 177:1 178:1 201:1 204:1 217:1 233:1 249:1 252:1 265:1 268:1 
-19.04915412306951 -0 -0 0.2049534605776141 0 0 0 1:1 2:1 145:1 175:1 185:1 188:1 201:1 217:1 233:1 236:1 249:1 252:1 
-0 -0.4683195301515709 -0.6053414581547288 0 0 9.329541609170676 0 9:1 12:1 129:1 159:1 161:1 162:1 185:1 201:1 217:1 220:1 233:1 236:1 
-0 -0 -0 0 0.05750671455008938 8.353190660531878 0 9:1 113:1 143:1 145:1 146:1 169:1 172:1 185:1 201:1 204:1 217:1 220:1 
-0.3815000581694567 -0 -0 0 0 9.603005882063641 0.1059418026864431 9:1 97:1 127:1 129:1 130:1 153:1 156:1 169:1 185:1 188:1 201:1 204:1 
-0 -0 -0 0 0 8.859040793448573 0.151007074160594 9:1 12:1 81:1 111:1 113:1 114:1 137:1 140:1 153:1 169:1 185:1 188:1 
-0.1334369084166504 -0 -0 0 0 10.03970642522673 0.1844389503485215 9:1 12:1 65:1 95:1 97:1 98:1 121:1 124:1 137:1 153:1 169:1 172:1 
-0 -0 -0 0 5.107386691962962 0 0.1086165819378498 15:1 187:1 
-0 -0 -0 5.273542580327482 0 0 0.1175355038149304 11:1 175:1 
-0.249058992111883 -0 -0 0 0 0 0 146:1 147:1 157:1 177:1 
-0 -0 -0.7212890362715959 0 0 0 0 1:1 130:1 131:1 141:1 
-32 -0 -0 1.309642217616861 0.3045713685638417 0 0 2:1 3:1 13:1 162:1 163:1 173:1 
-0 -0 -3.094348972659619 0 1.325756027436824 0 0 146:1 147:1 157:1 162:1 163:1 173:1 
-0 -0 -0.6042324196805006 0 0.8327138610411151 0 0 6:1 162:1 163:1 173:1 204:1 223:1 233:1 236:1 
-0 -0 -0.03472776277497727 0 0 0.1648344097004946 0 12:1 130:1 131:1 141:1 150:1 191:1 201:1 204:1 
-0 -0 -1.69019388480401 0 1.534961554563857 0.1995776176754832 0.05650097543566706 15:1 114:1 115:1 125:1 134:1 172:1 185:1 188:1 
-0 -0 -0 3.381439329070799 0 0.2356980593365082 0 9:1 12:1 98:1 99:1 109:1 118:1 156:1 175:1 
-0 -0 -0.1960926469674589 0 0.00289708684517034 0 0 162:1 163:1 173:1 199:1 
-0.5834238516255154 -0 -0 0 0 0 0 146:1 147:1 157:1 183:1 
-0.4017848420905823 -0 -1.078173662013803 0 0 0 0.09586110510393764 7:1 130:1 131:1 141:1 
-0 -0 -0.6557999033975729 0 0.2234366546632621 0 0.1376230929519238 162:1 163:1 173:1 186:1 203:1 
-0.5971582221472597 -0 -0 0 0 0 0.08188123439416793 10:1 146:1 147:1 157:1 187:1 
-0.2083443204281299 -0 -1.098306059510409 0 0 0 0.002906689977685403 11:1 130:1 131:1 141:1 170:1 
-0 -0 -0 0 0.4813865669898404 0 0 12:1 162:1 163:1 173:1 207:1 217:1 220:1 236:1 
-0.6853596843176287 -0 -0 0 0 0 0 146:1 147:1 157:1 172:1 191:1 201:1 204:1 220:1 
-0.02173886570306472 -0 -0 0 1.450743891942645 0.1331541164090549 0 15:1 130:1 131:1 141:1 156:1 185:1 188:1 204:1 
-0 -0 -1.730576502885337 0.7665567312427034 0 0.8483076606118494 0.002309693437214252 9:1 12:1 114:1 115:1 125:1 140:1 175:1 188:1 
-0 -0 -0 0 0 0.8785627251479456 0 12:1 98:1 99:1 109:1 124:1 159:1 169:1 172:1 
-5.043807617705829 -3.902266078109131 -2.542174608008898 -8.85565418550725 2.512734664377402 1.958428600068984 1.852258437487357 13:1 98:1 99:1 109:1 114:1 136:1 
-3.172347551014147 -0.8973239081851447 -3.354056477825239 -0.9298993464410097 2.964963044515839 0.6277633980867617 3.339625254433484 13:1 130:1 152:1 175:1 178:1 179:1 189:1 
-0 -0 -4.813737574164788 -0.3351922256479949 0 0 0 13:1 114:1 115:1 125:1 130:1 152:1 175:1 211:1 
-0.5870755189282194 -1.212968060958484 -1.262033395283748 -1.260099635297742 0.7056450441493068 1.068743241918457 1.434920118949168 13:1 130:1 146:1 175:1 182:1 194:1 
-0 -0 -0.1758477512975713 -0 0 0.08108960105043767 0 13:1 114:1 130:1 152:1 175:1 199:1 
-0.6799936983955024 -0.9106061671887626 -0 -0 0.9436340451211929 0.6082113953096271 0 13:1 113:1 114:1 115:1 125:1 130:1 152:1 175:1 211:1 
-0.9811724375602847 -0.08075923306491641 -0.9592372655418158 -1.235244231831073 1.481813397470327 0.5618151890793607 0.1126516602818717 13:1 113:1 114:1 115:1 125:1 136:1 146:1 175:1 180:1 198:1 
-0 -1.378418861215624 -0 -0 0 0.1226986750769723 0 13:1 97:1 98:1 99:1 109:1 114:1 130:1 152:1 175:1 184:1 
-0 -0.3712592492099678 -0 -0 0 0.4575626929653073 0 13:1 97:1 98:1 99:1 109:1 130:1 152:1 175:1 202:1 219:1 
-0 -0 -0 -0 0 0.06264675007044267 0 13:1 97:1 98:1 99:1 109:1 136:1 146:1 175:1 207:1 219:1 
-6.663667682646096 -3.821907283270014 -1.764020239009304 -5.771584003129802 2.089098961337621 0.8104145854000155 1.889748355690443 13:1 175:1 200:1 
-0 -1.051687069602042 -0 -11.20059271571262 0 0 0 13:1 130:1 152:1 175:1 
-0.3647693323833775 -0 -0 -0 0 0 0 13:1 98:1 120:1 136:1 152:1 175:1 
-0.7306235480103169 -1.061782279385169 -0.9831356603491903 -0.6439821221726802 -0.05773078309943688 0.3277953018049237 3.192483913018593 15:1 146:1 168:1 189:1 194:1 195:1 205:1 
-0 -0 -2.586242866333271 -0.878955972468456 -0 0 0 15:1 130:1 131:1 141:1 146:1 168:1 189:1 227:1 
-0.4583725819942976 -1.040300693537759 -0 -0 -0.659858428179412 0.3064838892866407 0.9684288914524039 15:1 146:1 162:1 189:1 198:1 210:1 
-0 -0.3602065562188353 -0.2084339233728369 -0.2101945838656355 -0.2794869071385295 0 0 15:1 130:1 146:1 168:1 189:1 215:1 
-0 -0.6620756354941284 -2.165193647040981 -0.4577246133892381 -0.01886458614088396 0.4090957486097364 0 15:1 114:1 115:1 125:1 130:1 146:1 168:1 189:1 223:1 232:1 
-0 -0 -0 -0.2516759079763813 -0 0 0 15:1 114:1 115:1 125:1 146:1 168:1 189:1 218:1 235:1 
-1.085429243194006 -1.503532839756339 -0 -0.04300054568848481 -0 0.3627150459228887 0 15:1 129:1 130:1 131:1 141:1 146:1 168:1 189:1 227:1 
-1.914608264756899 -1.386399635138489 -2.868594921471836 -0.6667392961315076 -0.8440649776302029 0.8406578455285564 0.4760925506402021 15:1 129:1 130:1 131:1 141:1 152:1 162:1 189:1 196:1 214:1 
-1.423159931908748 -2.521121920538143 -2.959810114311879 -0.1516213805876686 -1.716907729157565 0.589491071384537 0 15:1 113:1 114:1 115:1 125:1 130:1 146:1 168:1 189:1 200:1 
-0 -0.4783751566053423 -0 -0.1351362994207382 -0 0.1411073574161325 0 15:1 113:1 114:1 115:1 125:1 146:1 168:1 189:1 218:1 235:1 
-1.785739269871275 -0.9161030890326612 -2.194714613801688 -0.4271466123285398 -0.7231276826572139 0.4894325216928552 0.4532352702927967 15:1 113:1 114:1 115:1 125:1 152:1 162:1 189:1 223:1 235:1 
-1.416110576275259 -0.8321389689293619 -0 -10.9410107441628 -0.6468107910667864 1.055712642617891 0.08658848785790291 15:1 146:1 162:1 177:1 178:1 201:1 204:1 217:1 233:1 249:1 252:1 265:1 268:1 
-1.430555364353666 -0.9059888044590981 -1.76967419651413 -3.800626544176407 -0.6016895398219817 0.9063000465435705 0.9523349883153754 15:1 162:1 163:1 173:1 177:1 178:1 201:1 204:1 217:1 233:1 249:1 252:1 265:1 268:1 274:1 290:1 
-2.911224025755404 -1.277394893208977 -3.870581897042345 -8.425317044254731 -2.824737468599795 1.076380039474298 3.420859942206765 15:1 189:1 216:1 
-0 -0 -0 -7.021280927988136 -0 0 0 15:1 146:1 168:1 189:1 
-2.247087769249122 -1.079451052003459 -1.565283361489712 -2.079529267976914 -2.32461026347988 0.3505232688590837 0.1535568282244942 15:1 114:1 136:1 152:1 168:1 189:1 
-1.296931673082448 -1.163172085732357 -1.208942721149255 -8.337717113553605 -1.220247461743945 -1.173449359899348 0.7082569146863318 9:1 12:1 114:1 130:1 159:1 161:1 162:1 185:1 201:1 217:1 220:1 233:1 236:1 
-0.2799745138604689 -0.4953219091617265 -0 -7.167501337386667 -0.7032553685196319 -0.3956946665971163 0.2530722010953693 9:1 98:1 114:1 143:1 145:1 146:1 169:1 172:1 185:1 201:1 204:1 217:1 220:1 
-1.189573978177301 -0.3170641057881755 -0.7923614496332316 -8.827090754127845 -0.1830835285099947 -0.7610007536740135 0.1609090475819111 9:1 82:1 98:1 127:1 129:1 130:1 153:1 156:1 169:1 185:1 188:1 201:1 204:1 
-0.7163716538814512 -0.3687940978580669 -0.4739697223894445 -6.749372338046608 -0.5720407224618608 -0.3998146437126663 0 9:1 12:1 66:1 82:1 111:1 113:1 114:1 137:1 140:1 153:1 169:1 185:1 188:1 
-1.341253044001181 -0.892680918855441 -0.8823724151162083 -9.679726583878761 -0.849703752841521 -0.6525858494702682 0.3795526504679048 9:1 12:1 50:1 66:1 95:1 97:1 98:1 121:1 124:1 137:1 153:1 169:1 172:1 
-1.426774672353676 -0.8658982230735051 -1.067682643580222 -3.44714633017078 -0.2532926314943544 -0.8469746734970068 0.4913018088696817 9:1 12:1 130:1 131:1 141:1 159:1 161:1 162:1 185:1 201:1 217:1 220:1 233:1 236:1 242:1 258:1 
-1.107107007255489 -0.7539848518046149 -1.255225130761244 -2.679654270836843 -0.4942846583119245 -1.041340416339182 0.5831090824553229 9:1 114:1 115:1 125:1 143:1 145:1 146:1 169:1 172:1 185:1 201:1 204:1 217:1 220:1 226:1 242:1 
-0.6841290681357003 -1.06705214996022 -0.4313841224307603 -2.590360171349362 -1.064396581233392 -0.427720815904364 0.7850509154391352 9:1 98:1 99:1 109:1 127:1 129:1 130:1 153:1 156:1 169:1 185:1 188:1 201:1 204:1 210:1 226:1 
-0.7600012811140763 -0.7165502957354194 -0.5289187822058961 -3.339702083614888 -0.4542740864435937 -0.5173525109618894 1.00891042566144 9:1 12:1 82:1 83:1 93:1 111:1 113:1 114:1 137:1 140:1 153:1 169:1 185:1 188:1 194:1 210:1 
-0.89088337380129 -0.7366052788622891 -0.5953166949722 -2.755366142766499 -0.5647953374661481 -0.6397610890852584 1.012518786387915 9:1 12:1 66:1 67:1 77:1 95:1 97:1 98:1 121:1 124:1 137:1 153:1 169:1 172:1 178:1 194:1 
-0 -0 -0.005591031754782171 -0 -0 -0 -0 16:1 178:1 179:1 189:1 194:1 
-1.629536815847192 -2.775254360331471 -2.24750111481517 -2.574454616652027 -1.070763488598939 -2.7682283117015 -1.106792560278535 16:1 192:1 194:1 195:1 205:1 210:1 
-0 -0 -0.003285170779573303 -0 -0 -0 -0 16:1 192:1 208:1 210:1 211:1 221:1 226:1 
-0 -0 -0.01382134504981002 -0 -0 -0 -0 16:1 176:1 192:1 194:1 195:1 205:1 210:1 
-5.906986055914913 -4.273640778374691 -4.141432151901475 -5.736368749420594 -4.904249562780595 -4.580133122726566 -1.616385547866663 16:1 178:1 179:1 189:1 194:1 
-0 -0 -0 -0 -0 -0 -0.006558802114935695 16:1 192:1 208:1 210:1 211:1 221:1 226:1 
-0 -0 -0 -0 -0 -0 -0.04878433497961501 16:1 160:1 176:1 178:1 179:1 189:1 194:1 
-2.935194339502708 -3.302455401734187 -2.151469143995903 -3.406346765643788 -1.9679939148142 -1.567667759835832 -1.645901568706486 16:1 192:1 208:1 210:1 211:1 221:1 226:1 
-0.1402750201146923 -0.1782850323249389 -0.1891217135885449 -0.197327709356316 -0.1941599254221529 -0.1970052159323749 -0.2681875503767633 16:1 176:1 192:1 194:1 195:1 205:1 210:1 
-0.7868557544499746 -0.5540436736266362 -0.6166898458679267 -0.607583996011076 -0.4920369352264377 -0.5905464618122602 -0.690071468322014 16:1 160:1 176:1 178:1 179:1 189:1 194:1 
