svm_type c_svc
kernel_type rbf
gamma 0.125
nr_class 8
total_sv 289
rho -0.255267 -0.30724 -0.536316 -0.0757183 -0.353582 -0.498799 -0.196105 -0.0457054 -0.19719 0.173668 -0.192986 -0.335883 -0.0731332 -0.265031 0.141622 -0.151754 -0.351531 0.0236737 0.196345 0.146125 -0.203226 0.13102 -0.409397 -0.456928 -0.20464 -0.199967 0.179531 0.289496
label 10 -2 1 0 -1 -3 2 -4
probA -4.74007 -4.67824 -5.17704 -4.81159 -4.15919 -3.75867 -4.88635 -4.29719 -3.79928 -4.56962 -3.66185 -3.53699 -4.43393 -4.26223 -4.52774 -3.87089 -3.54237 -4.2709 -3.29249 -3.12527 -2.98558 -3.49721 -3.86056 -3.75354 -4.74783 -2.92837 -3.37892 -2.97847
probB -0.151076 -0.00108473 1.39425 0.481997 -0.511154 -0.999187 0.306634 0.0578836 0.183662 0.835818 -0.441919 -0.553056 0.232333 -0.155639 0.63786 -0.414497 -0.773024 0.0294809 0.421131 -0.0585421 0.0356139 -0.0836516 -1.02898 -1.05951 -0.043983 -0.167187 0.190276 0.228665
nr_sv 59 37 57 13 85 16 8 14
SV
0 0.3080026612705462 0.02562778081468878 0.3027892302982214 0.2068632760526968 0 0 2:1 20:0 33:1 37:1 48:1 60:0 62:1 80:1 102:1 
0.3036343850479361 1.855761273663176 4.08867387825123 0.6521802746501995 0.08905139919916519 0.07186267563909826 0.1810215850565914 2:1 20:0 53:1 57:1 68:1 80:0 88:1 100:1 102:-2 
0 0 1.83467822240229 0 1.233685434697229 0 0 2:1 20:0 42:1 102:10 
0 0 0 0 0.1735451387959231 0 0 2:1 20:0 42:1 68:1 80:0 88:1 100:1 102:10 
0 0.1499222508281008 0 0 0 0 0 2:1 20:0 33:1 37:1 42:1 60:0 68:1 80:0 88:1 100:1 102:10 
0.008351607482550559 0.0004625071543114907 1.041416610291128 0.3797757575606088 0 0 0 2:1 20:0 53:1 57:1 68:1 80:0 100:0 102:-2 
0 0 0 0 0 0 0.5331714019252293 2:1 80:0 93:1 100:0 
0 0 0 0 0 0 0.1091388229882483 2:1 20:0 33:1 37:1 48:1 60:0 75:1 80:0 93:1 100:0 102:1 
0 1.575537189984693 0.08181642579204219 0 0 0.08484022058308992 0 2:1 20:0 42:1 75:1 80:0 93:1 100:0 102:10 
0.6001921044596242 0 0 0 0 0 0 2:1 62:1 80:0 88:1 100:0 
0 0.2601988974247814 0.1779308990110095 0 0.04201398464580818 0.1090860737324559 0 2:1 20:0 42:1 68:1 80:0 95:1 100:0 102:10 
0.4013163613651671 0.1771421226913169 4.223870467352128 0.09752287473028873 0 0 0.1122278416711289 2:1 20:0 53:1 57:1 62:1 80:0 88:1 100:0 102:-2 
0.1257271539351989 0.2127343300348553 0.05331443851298952 0.1550034239835456 0.1364395839638795 0 0.1346684640988646 2:1 20:0 33:1 37:1 42:1 60:0 68:1 80:0 95:1 100:0 102:10 
0 0.2350736561326743 0 0 0 0 0 2:1 20:0 33:1 37:1 48:1 60:0 62:1 80:0 95:1 100:0 102:1 
0.0508100832057644 0.06690771606694307 1.10597513982195 0.8927098975579946 0.9700441880630342 0.1572265158767499 0.1465348467425209 2:1 20:0 40:0 48:1 60:0 75:1 80:0 93:1 100:1 102:1 
5.679697349064346 0.5524188702664821 0.7706767131600732 0 0 0 0 17:1 68:1 80:0 82:1 100:0 
0 0 0 0 0.05461590098982722 0 0 2:1 20:0 37:1 48:1 60:0 62:1 80:0 95:1 100:0 102:1 
0.3357224102713227 0.2969213468840552 0.4033865095388506 0.4565738185346804 0.2579086902190948 0.1901879695722211 0 1:1 13:1 17:1 68:1 80:0 82:1 100:1 
0 0.141919399209449 0 0.06682295297070021 0 0.126830376852771 0 2:1 20:1 21:1 33:1 37:1 48:1 60:0 102:1 
0.0540630150703537 1.639684710613537 0.1588445424051826 0.06860802537710076 0.156779311754851 0.1583866431880577 0.06015470655689738 2:1 20:0 21:1 33:1 37:1 42:1 60:0 68:1 80:1 102:10 
0.005957509877229799 1.259690912794046 0.146556444400657 0 0.223425871747512 0.1722197176881726 0.1580678606474733 2:1 20:0 21:1 33:1 37:1 48:1 60:0 62:1 80:1 102:1 
0 0.1886119112942255 0.004839062038781423 0 0.4627105821907844 0.0006617739136861629 0 2:1 20:1 28:1 40:0 42:1 60:0 102:10 
0.3792916963405918 0.5106722699197849 0 0.9754349958697338 0.05542478075678555 0.06833063413224891 0 2:1 20:0 21:1 33:1 37:1 60:0 68:1 80:1 
0 0 0 0.03107953994815222 0.06878600514554492 0.1444325407551838 0 2:1 20:1 40:0 48:1 60:0 102:1 
2.270294746674833 0.02348072126328681 0 0 0.01981743241133204 0.06488447389826174 0.07892772452787719 1:1 13:1 17:1 62:1 80:0 88:1 100:0 
0.1360599465398255 1.653391040811511 3.899051399263709 0.1680387679552181 0.04719177672787896 0.2171508696645263 0.1462162976296411 2:1 20:0 41:1 53:1 57:1 68:1 80:0 88:1 100:1 102:10 
0.2047939560852844 0.6565157839039528 1.296658386173017 0.2567809260484978 0.3967040949041891 0.4169092646719996 0.2240360213883458 2:1 20:0 41:1 53:1 57:1 62:1 80:0 88:1 100:1 102:10 
0.2953119592658854 0.7035669107002339 0.09449857446749449 0.3657499147856081 0.3814491239272782 0.2960495513046643 0.3175310952466082 2:1 20:0 21:1 33:1 37:1 42:1 60:0 68:1 80:1 88:1 100:1 102:10 
0.6069753226962343 0.8087240263157075 1.119556143011768 0.8205578798717318 0.3401935795336213 0.2255676591868571 0.2045818911919917 2:1 20:1 28:1 40:0 48:1 60:0 62:1 80:1 102:1 
0.2438363228800823 0.3690684950167789 0.2471312068259723 0.3020172325433501 0.3458417540322752 0.2668498671271963 0.2625368644830676 2:1 20:1 28:1 40:0 42:1 60:1 102:10 
0.616406878500581 0 0.3262109337380633 0.4639696417434258 0.01673270709402403 0.02176231285014835 0 1:1 13:1 17:1 80:0 88:1 100:0 
2.327843506791075 0 0 0 0 0 0 1:1 13:1 17:1 68:1 80:0 88:1 100:0 
0.38111753717862 1.577506668877731 0 0.842148437116772 0.2159632259381344 0.4933852720121646 0.2167415427860089 2:1 20:1 28:1 40:0 48:1 60:1 102:1 
2.324033081116022 0.2619944629404536 0 0 0.0071647947326203 0.04686029707440903 0.1580835601340065 1:1 13:1 17:1 62:1 80:0 82:1 100:0 
0.1081640288241429 0.4957099032944345 3.131383333112483 0.1323901873538568 0 0 0.1146324204938039 2:1 20:0 41:1 53:1 57:1 62:1 80:0 88:1 100:0 102:10 
0.2799088717157994 0.4566913082147282 0.1877593457324981 0.2068473724111773 0.1579145130129299 0.1679229644629991 0.2661275370417751 2:1 20:0 21:1 33:1 37:1 48:1 60:0 75:1 80:0 93:1 100:1 102:1 
1.970082376211805 0 0 0 0 0 0 1:1 13:1 17:1 68:1 80:0 82:1 100:0 
0 0 0 0 0 0 0.1177036877749402 2:1 20:0 21:1 33:1 37:1 48:1 60:0 62:1 80:0 95:1 100:0 102:1 
0.1619291362974922 0.01630992796885092 0.09441572628522364 0.2016447139886231 0.3902477261260075 0.1052571855464251 0.1755889378027161 2:1 20:0 28:1 40:0 42:1 60:0 75:1 80:0 93:1 100:0 102:10 
0.6221820392396924 0 0 0.7196261948850922 0.1168382849503011 0 0.2506052376531087 1:1 13:1 17:1 80:0 82:1 100:0 
0 0.04395321381723345 0 0 0 0 0 2:1 20:0 21:1 33:1 37:1 60:0 68:1 80:0 95:1 100:0 
1.353496904069801 0.8557586083532616 0.5983375629937551 0.8065755441966407 0.09588419448753163 0.06931566769056045 0.005989337375787085 17:1 62:1 80:0 95:1 100:0 
0.1524230981423686 0.3997431420330808 0.1984081444563703 0.1910076272886261 0.1799313190152513 0.2380032729605805 0.1651783008211803 2:1 20:0 57:1 75:1 80:0 81:1 100:0 102:10 
0 0 0.001619561940947637 0 0 0 0 1:1 20:0 22:1 40:0 55:1 60:0 69:1 72:1 80:0 89:1 100:1 102:-3 
0 0 0 0 0.08982452015823274 0 0 2:1 20:0 42:1 75:1 80:0 81:1 100:0 102:10 
0.21522446547058 1.762106250345492 0.02671401512508016 0.6130441705263951 0.1381645134400436 0.07819737339397501 0.2239177223922949 2:1 20:0 53:1 57:1 62:1 80:0 95:1 100:0 102:-2 
0.1186155607188703 0.06166113567694001 0.0804108130045629 0.1458291492511091 0.314912126262067 0.0525397402988394 0.1274237943789952 2:1 20:0 33:1 37:1 42:1 60:0 75:1 80:0 81:1 100:0 102:10 
1.440592686838596 0.7977349387517226 1.039808951311746 1.886154983537828 0.5123634931741817 0.3711802522767772 0.948584088435441 1:1 20:0 22:1 40:0 55:1 60:0 69:1 72:1 80:0 89:1 100:1 102:-3 
0.1394572575043566 0 0.02962966796411272 0 0 0 0.1363876621853437 2:1 20:1 36:1 40:0 53:1 57:1 60:0 101:1 102:-2 
0.4859793707100183 0.2832974527712563 0.2361622218885 2.190544826983691 0.18446371056349 0.1318638542883867 0.3765874232627334 2:1 20:1 36:1 40:0 53:1 57:1 60:1 101:1 102:-2 
0 0 0 0.05292949478032729 0 0 0.8973195818081531 17:1 68:1 80:0 101:1 
0.9535986980399075 2.006932553986928 0.9503346488613001 0.8275037213520801 0.5045494974612431 0.1743115836970985 0.3516929171862969 17:1 68:1 80:0 88:1 100:1 101:1 
0 0 0 0 0 0 0.2934591792755697 2:1 68:1 80:0 95:1 100:0 101:1 
0.005956245327997303 0.01687567313865256 0 0 0 0 0 2:1 20:1 36:1 53:1 57:1 60:0 101:6 102:-2 
0.3754751238613545 0.3551119921715699 0.2373902425658389 0.7891914055017333 0.3352464863039704 0.2596655341408399 0.4102538149245029 2:1 20:1 36:1 40:0 53:1 57:1 60:1 101:6 102:-2 
0 0 0 0.316304087809569 0 0 0 2:1 
1.183736590071374 0.192712237706991 0.1807620281552728 2.765176613208949 0.6098505757851145 0.1580174404171045 0.7833013440716704 2:1 20:1 36:1 53:1 57:1 60:0 101:6 102:-2 
0.0009642514858031477 0 0 0 0 0 0 2:1 20:1 36:1 53:1 57:1 60:0 101:4 102:-2 
0.2525908929922528 0.2603508768630228 0.08995133249454895 0 0.2217262019312989 0.1710055715784184 0.506367937976499 2:1 20:1 36:1 40:0 53:1 57:1 60:0 101:4 102:-2 
-0.745344661697564 0 0 0 0 0 0 13:1 17:1 68:1 80:0 82:1 100:0 
-0.6600388267319439 0 0 0 0 0 0 13:1 17:1 62:1 80:0 88:1 100:0 
-3.202689558393652 0.6783849553629485 0.1049408396589134 0.3206163808303769 0.1240888464021729 0.1187478298600203 0.2711098656290561 13:1 17:1 68:1 80:0 88:1 100:0 
-0.7242172754406718 0.8341671469128051 2.100551054322976 2.623259203925441 0.235718093007608 0.1624214917042934 0.2728684623085849 13:1 20:1 28:1 40:0 60:0 80:1 
-2.83473988922126 0.2915735687116743 0.4230891816007996 0.2952464424607537 0.1116644324820092 0.1112667557564967 0.2256516824771733 13:1 17:1 62:1 80:0 88:1 100:0 
-0.6530662723036699 0.9244321685449817 0.3307626633510206 2.489092654727856 0.2997709661062493 0.6303890527653304 0.431464595456137 13:1 20:1 40:0 60:1 80:1 
-0.9515570160398338 1.258194899745374 1.791922129515515 1.941180390637015 1.181186482465658 0.2609524573817573 0.5949688145126176 13:1 20:0 22:1 60:0 80:0 100:1 
-0.4137754793141421 0.3978725136409638 0.6379474263502428 0.423515782626721 0.2897750462648632 0.197612226496836 0.7844742272981666 13:1 20:0 28:1 40:0 55:1 60:0 73:1 77:1 80:1 100:1 102:-3 
-0.4707852468482375 0.2196226754494453 0.2271986163735336 0.07608652586331115 0 0.02986975316766739 0.2831726807358406 13:1 20:0 22:1 40:0 55:1 60:0 66:1 80:0 100:1 102:-3 
-0 0 0 0.006707668080738523 0 0 0 13:1 20:0 22:1 40:0 55:1 60:0 65:1 80:1 100:1 102:-3 
-0.1256744415099328 0.0869523867789796 0.1570001955276157 0.4576435863390352 0.03165663771714029 0.02696871460183333 0.01764641872367764 13:1 20:1 28:1 40:0 55:1 60:0 80:1 87:1 100:1 102:-3 
-0.008990526305566104 0.02278132553406068 0 0.2255942216756741 0 0 0 13:1 20:1 28:1 40:0 55:1 60:0 80:1 95:1 100:1 102:-3 
-6.668939254073468 0.4085295233925395 0.4235354273978933 0.3331307523501774 0.1322241398237748 0.126716959857624 0.2826851670666554 13:1 17:1 68:1 80:0 82:1 100:0 
-0.003876429570978009 0 0 0 0 0 0 13:1 20:0 22:1 40:0 55:1 60:0 61:1 80:0 95:1 100:0 102:-3 
-0 0 0 0 0 0 0.09374417996027701 13:1 17:1 80:0 82:1 100:0 
-0.0190426684620476 0 0 0 0 0 0 13:1 20:1 28:1 40:0 55:1 60:0 80:1 90:1 100:1 102:-3 
-0 0 0 0 0 0 0.009937007091934307 13:1 17:1 80:0 88:1 100:0 
-0.5153684234194096 0 0 0.2640862885286229 0 0 0 13:1 20:0 22:1 40:0 55:1 60:0 72:1 80:1 100:1 102:-3 
-0.3012620068243217 0.2266220314994893 0.2294624457946181 0.570806469725507 0.2182482444292144 0.1752528978825896 0.2693682662407592 13:1 20:1 22:1 40:0 55:1 60:0 64:1 80:1 86:1 100:1 102:-3 
-0.6988841077076668 0.5295921946143048 0.414532430106566 0.6892371371939215 0.1939878560453186 0.1789770201660613 0.3329958004148084 13:1 20:0 22:1 40:0 55:1 60:0 61:1 80:0 95:1 100:0 102:-3 
-0.1077690472037393 0.08595313984788573 0.1576108599911509 0.46013869966439 0.0324610302221729 0.02845257755175599 0.01886394152921705 13:1 20:1 28:1 40:0 55:1 60:0 80:1 90:1 100:1 102:-3 
-3.012258804499345 0.6372996216281005 0 0.2733051432499126 0.1057791646242623 0.1042291707429074 0.2277993071062245 13:1 17:1 62:1 80:0 82:1 100:0 
-0.2641978772872645 0.3763641742376409 0.3930396376327712 0.1352124754486143 0.1500060985503353 0.133482624751316 0.8424244830174279 13:1 17:1 20:0 36:1 56:1 60:0 62:1 80:1 101:1 102:-4 
-0.560902306646872 0.2821336440677944 0.2289891262970757 0.8059193198315391 0.3039750080052396 0.2318731660853783 0.3298237793233612 13:1 17:1 20:1 36:1 40:0 56:1 60:0 62:1 80:1 101:1 102:-4 
-0.5550556453487261 0.4310407908032776 0.3605203763426134 1.230695324678626 0.34362968601384 0.2996990360209619 1.168715948189152 13:1 20:0 55:1 80:0 88:1 100:1 101:6 102:-3 
-0.5815897859417288 0.1065219988639665 0.08939901495805896 0.7371855566572538 0.2427301055887942 0.06843365047325994 0 13:1 20:0 55:1 80:0 88:1 100:0 101:6 102:-3 
-0 0 0 0.6863785655232426 0 0 0.04489638122923146 13:1 20:1 28:1 40:0 55:1 60:0 80:1 101:1 102:-3 
-0 0 0 1.58963979075645 1.177835388539313 0 0.7641992745290859 13:1 17:1 80:0 100:0 101:6 
-0.5127268465384525 0.2728768261825625 0.2138470636165594 0.620297595842311 0.4265931350229255 0.1809116055360716 0.4913803336230512 13:1 17:1 66:1 80:0 100:0 101:6 
-0.5786110310797004 0.3785100451183382 0.311141730855855 2.76228278120493 0.416685564533406 0.2546910471642687 0.7229264879397583 13:1 17:1 80:0 87:1 100:1 101:6 
-0.6330730751396914 0.422023302322187 0.3465920739336508 0.832321973807239 0.4276401258278348 0.2872140415048678 0.4913582260340986 13:1 17:1 61:1 80:0 95:1 100:0 101:6 
-0 0 0 0 0.05063550296067779 0 0.05786495306528821 13:1 17:1 80:0 95:1 100:0 101:6 
-0 0.02984190605790515 0.03471764526055606 0 0 0 0.3967062365412681 13:1 17:1 20:0 36:1 56:1 60:0 62:1 80:1 101:6 102:-4 
-0.9247874411911368 0.4932948744993769 0.4138852746415391 0.6923944171158635 0.4130585043919024 0.341736095598044 0.4752010348357931 13:1 17:1 20:1 36:1 40:0 56:1 60:0 62:1 80:1 101:6 102:-4 
-0 0.05242642634317282 0.05588182122122896 0.1408207181622414 0.0236918213255999 0.06086191840685736 0.2241615993382101 13:1 17:1 20:0 56:1 62:1 80:1 101:6 102:-4 
-0.2485151246129762 0.2818583623696261 0.2216806747813115 0.2537535710953128 0.1927703277324728 0.1584493624293269 0.4612242997007671 13:1 17:1 20:0 56:1 62:1 80:1 101:4 102:-4 
-0.194075462016741 0.02326317842839437 0 0 0.07182257913398091 0.05874138999246201 0 13:1 17:1 20:0 36:1 56:1 60:0 62:1 80:1 101:4 102:-4 
-0.2675677153949252 -0.4091689459867121 0 0.6231619323958838 0.1792385221955954 0.112789968222303 0.3276405310033152 8:1 20:0 53:1 57:1 62:1 80:0 82:1 100:1 102:-2 
-0 -0.1153624132805431 0.03278953892554268 0.3871142981809903 0 0 0 8:1 20:0 33:1 37:1 60:0 62:1 80:1 
-0 -0 0.1107986152069753 0 0.291395731533557 0 0 8:1 20:0 22:1 42:1 60:0 68:1 80:1 102:10 
-0.3399213315672818 -0.2343197610468253 3.059733341637084 0.4018937726364536 0.1058724214040219 0.07806074593367789 0.2851540709088645 8:1 20:0 53:1 57:1 68:1 80:0 82:1 100:1 102:-2 
-0 -0 0.07344891185224668 0 0.101374797044063 0 0 8:1 20:0 33:1 37:1 48:1 60:0 62:1 80:1 82:1 100:1 102:1 
-0 -0.2500026381817234 0.1336121303343662 0.4180991688069267 0 0 0 8:1 20:0 33:1 37:1 60:0 68:1 80:1 82:1 100:1 
-0 -0 0.148783398235032 0 0 0 0 8:1 20:0 42:1 68:1 80:0 88:1 100:1 102:10 
-0.1620385634070791 -0.06159897219021533 1.114055692992911 1.1821906864011 0.8716596660829391 0 0 8:1 20:0 22:1 48:1 60:0 68:1 80:1 102:1 
-0.8279122165940306 -0.2434552331265852 0.004903538925988524 0.2652070583573796 0.01973740632695745 0.1586038509111242 0.2384002729487733 8:1 20:0 33:1 37:1 42:1 60:0 68:1 80:1 88:1 100:1 102:10 
-0.006827537913045744 -0 0 0 0 0 0 8:1 20:1 22:1 40:0 48:1 60:0 68:1 80:1 102:1 
-1.594121572140738 -0.2276015172109814 2.556137571606456 0.9583104154061148 0.2368990377889732 0.1286600409168661 0.1671672321320177 8:1 20:0 53:1 57:1 68:1 80:0 88:1 100:1 102:-2 
-0 -0 0.01650073683159744 0 0 0 0 8:1 20:0 33:1 37:1 48:1 60:0 68:1 80:1 82:1 100:1 102:1 
-0.05180302559535712 -0.01305771492288367 0 0 0 0 0 8:1 20:1 28:1 40:0 48:1 60:0 62:1 80:1 102:1 
-0 -0.001278764903318564 0 0 0 0 0 8:1 20:1 28:1 40:0 48:1 60:1 102:1 
-0.470476376892561 -0.4573463487932959 1.793861362140004 0.2466410453329032 0 0.07536782470029525 0.2094630265280718 8:1 20:0 53:1 57:1 68:1 80:0 88:1 100:0 102:-2 
-0.2971311267970865 -0 0 0 0.005645325189604891 0 0 8:1 20:0 33:1 37:1 48:1 60:0 68:1 80:0 82:1 100:1 102:1 
-0.4191247698631437 -0.4657423695214714 0.9667620746408586 1.02324986454695 0.5453416043036522 0.1469947721633436 0.173165809134016 8:1 20:0 28:1 40:0 48:1 60:0 62:1 80:1 82:1 100:1 102:1 
-0 -0 0 0 0 0.01070790388538636 0 8:1 20:0 42:1 80:0 93:1 100:1 102:10 
-0 -0 0.3410843351081877 0 0.6612544431192154 0 0 8:1 20:0 42:1 80:0 100:1 102:10 
-0.006755851945977748 -0 0.2116088385178466 0 0.4623091822906406 0.1309295264846889 0 8:1 20:0 33:1 37:1 42:1 60:0 80:0 100:1 102:10 
-1.366476149889085 -0 0.6128599050432797 0 0.1687142121317232 0 0 8:1 20:0 42:1 75:1 80:0 93:1 100:0 102:10 
-2.009552505673148 -0.629415366799816 0.710730878725776 1.149156889729963 0.3203129819879735 0.2062810840248299 0.3861687741086413 8:1 20:0 53:1 57:1 62:1 80:0 95:1 100:0 102:-2 
-0 -0.01749977543086239 0 0 0 0 0 8:1 20:0 22:1 42:1 60:0 75:1 80:0 93:1 100:1 102:10 
-0.1534217798675288 -0.168847376185878 0 0.2035523428698566 0.376759858844799 0.1361528239391485 0.1819994050831277 8:1 20:0 22:1 40:0 42:1 60:0 75:1 80:0 93:1 100:1 102:10 
-0.2011725207837664 -0.1466546942013485 1.454261658656775 0 0 0 0.02563268327328307 8:1 20:0 53:1 57:1 62:1 80:0 82:1 100:0 102:-2 
-0.8554867002140192 -0.2795198545924481 0 0 0.03786524561303337 0.02669726107006375 0.1279776854179863 8:1 20:0 33:1 37:1 60:0 62:1 80:0 95:1 100:0 
-0.3046736662843604 -0.07844682999959503 0.1343287735293011 0.08651615057151874 0.1643133364988719 0 0.07672594470641926 8:1 20:0 57:1 62:1 80:0 82:1 100:0 102:10 
-0.1427636871719213 -0.006581422037142369 0.372658674682929 0.009477710049054181 0.1512938547926818 0.3560441628630147 0.008105411495304044 8:1 20:0 41:1 53:1 57:1 62:1 80:1 102:10 
-0.4994613703201916 -0.06693567570914272 0.263618713218045 0.07532344243839822 0.873458387054602 0.08903467777010982 0.06868155219487994 8:1 20:1 22:1 40:0 42:1 60:0 102:10 
-0.3735846305024106 -0.1777539455757617 0.3286019532402146 0.1907593007528514 0.1007533701824285 0.2084748574984878 0.1722753636555906 8:1 20:0 41:1 53:1 57:1 62:1 80:0 82:1 100:1 102:10 
-0.0468654689348914 -0 0.5783673618085883 0 0 0.00797961021721077 0 8:1 20:1 40:0 42:1 60:0 102:10 
-0.1042203449530704 -0.3447702154742479 0.2012056857063008 0.3159385605466815 0.02879968835520672 0.05558207728521074 0.07416471212474603 8:1 20:0 21:1 33:1 37:1 60:0 62:1 80:1 
-2.004005031140153 -0.3078782175246653 0.3288070661426471 0.3364414065602185 0.3911467835878275 0.1861433546895589 0.3012924928988184 8:1 20:0 21:1 33:1 37:1 42:1 60:0 68:1 80:1 102:10 
-0 -0 0.5926495926579808 0.2004952914682334 0.3120786363835472 0 0 8:1 20:1 22:1 40:0 48:1 60:0 102:1 
-1.570154377510427 -0 0 0 0 0.03462691937483517 0.07111599401346869 8:1 20:0 21:1 33:1 37:1 48:1 60:0 62:1 80:1 102:1 
-0.09321677282259168 -0.1946796518388028 0 0.2094514204924761 0 0.1008234532262416 0.1864550086784087 8:1 20:1 22:1 40:0 42:1 60:0 68:1 80:1 102:10 
-0.4143851293912887 -0.6477137596704363 0.3877037640339593 1.447538434360004 0.4503947134642692 0.3702466145454566 0.2809899737810398 8:1 20:1 22:1 40:0 48:1 60:1 102:1 
-0 -0.06941548598704642 3.020585190742816 0.07932909681580844 0.07492384428956578 0.1301040681905159 0.07029854661671617 8:1 20:0 41:1 53:1 57:1 68:1 80:0 82:1 100:1 102:10 
-0 -0 0.1021441344375967 0.2330874543863957 0.2741026929333259 0.1507928841462609 0.1692405875413403 8:1 20:0 21:1 33:1 37:1 48:1 60:0 62:1 80:1 82:1 100:1 102:1 
-0.5024099113526876 -0.347803548944534 0.1053958372056525 0.3092013048511157 0.01457698357621856 0.06612076865631679 0.08455678730097127 8:1 20:0 21:1 33:1 37:1 60:0 68:1 80:1 82:1 100:1 
-0 -0 0 0.0285364541427736 0 0.1921725354895066 0 8:1 20:1 40:0 48:1 60:0 62:1 80:1 102:1 
-2.01724048180205 -0.1693092338555053 3.725178146632149 0.1834223502603508 0.04633089492815803 0.1407565115810368 0.1652987931558605 8:1 20:0 41:1 53:1 57:1 68:1 80:0 88:1 100:1 102:10 
-0.1940824442060098 -0 0.1318163292287319 0.01309433104471888 0.1929608858430494 0.2205322872400039 0.1998949750749232 8:1 20:0 21:1 33:1 37:1 48:1 60:0 68:1 80:1 82:1 100:1 102:1 
-0.6106363463165678 -0.2840256104734925 0.1370714339067887 0 0 0 0 8:1 20:1 28:1 40:0 48:1 60:0 62:1 80:1 102:1 
-0.05406328809870374 -0.02027862599432483 0.0915018496462765 0.0236915586085189 0.3937026320734025 0.1765925226180742 0.02137712630822577 8:1 20:0 22:1 40:0 42:1 60:0 68:1 80:1 88:1 100:1 102:10 
-0.1609617766400832 -0.4602297946244255 0 0.2777225727858932 0 0.1446691815981448 0.06580963009971712 8:1 20:1 22:1 40:0 48:1 60:0 68:1 80:1 102:1 
-1.48138873400885 -0.4234179882214938 0.005687650420493035 0.2852636477647188 0 0.4031877893393137 0.01366297047197024 8:1 20:1 28:1 40:0 48:1 60:1 102:1 
-0.7174415479785933 -0.3110949572733259 0.5573905035187651 0.3387529438553974 0.2562259410272195 0.09061331333428864 0.3043652633121197 8:1 20:0 41:1 53:1 57:1 62:1 80:0 95:1 100:0 102:10 
-0 -0.04513232335250553 0.7177174784840499 0.04858590507760264 0 0 0.04272332148160645 8:1 20:0 41:1 53:1 57:1 62:1 80:0 82:1 100:0 102:10 
-0.2359425027329107 -1.03561820944561 0.03873884360076623 1.128775463805163 0 0 1.424075875832649 8:1 101:1 
-2.003940019322251 -0.648406650670818 0.3720094286972582 0.2457468395059505 0.3756410736252329 0.1350589156964267 0.2874320339766032 8:1 68:1 80:0 88:1 100:1 101:1 
-0.02460847491470643 -0 0 0 0 0.05930049115550477 0.1016709203321804 8:1 20:0 48:1 68:1 80:1 101:1 102:1 
-0.1576886908099613 -0 0.1290510402776964 0 0.137225352210539 0 0.2981416232844359 8:1 20:1 28:1 48:1 60:0 101:1 102:1 
-0.06819803235048424 -0 0.3099452953890449 0 0.1850383520918556 0 0 8:1 20:0 57:1 101:1 102:10 
-0.05948360714446931 -0.1039216060482253 0 0.1129590501839859 0.02916222982921837 0.1615117212376228 0.1023053535493169 8:1 20:0 57:1 68:1 80:1 101:1 102:10 
-0.1535170277349981 -0 0 0 0.1466325545228221 0.1453065681696152 0.117743547164375 8:1 20:1 37:1 48:1 60:0 101:1 102:1 
-0.4661362421733932 -0.2878481818617863 0.01040171130648142 0.3137492334831639 0.1399458670575435 0.2665096510050227 0.2813244142098127 8:1 20:0 42:1 75:1 80:0 93:1 100:1 101:1 102:10 
-0.1952964474278465 -0.4215151220520951 -2.527177783669954 1.375906759101972 0.2755701315306914 0.1215048429213848 0.4408263038798589 20:0 53:1 57:1 68:1 80:0 82:1 100:1 102:-2 
-4.468329769523867 -0.2915223130684307 -2.956046712856343 0.7291615047392517 0.1641443400021735 0.09630004546476204 0.1463777070594068 20:0 53:1 57:1 68:1 80:0 88:1 100:1 102:-2 
-0.0009288614327453937 -0.001196022339154149 -0.05726938419532683 0 0 0 0 20:0 42:1 73:1 80:0 100:0 102:10 
-0.5525179964030661 -0.2539535188212754 -1.18573086399386 7.214364184273089 7.547531886653138 0.3692137760036483 0.2468770645867164 20:0 22:1 48:1 60:0 73:1 80:1 100:1 102:1 
-2.313410600244036 -1.732471097870778 -1.81803597129633 8.614389361463941 0.8239593422136939 0.6972823839301828 1.012591286142604 20:0 22:1 40:0 48:1 60:0 80:1 93:1 100:1 102:1 
-1.889516999212412 -2.83929126603268 -1.18166551972074 2.618789292259019 0.4901932200160382 0.6116486232731529 0.9069344817600372 20:1 28:1 40:0 60:0 73:1 80:1 100:1 
-2.793867877760788 -0.7411664396513273 -2.436549512402321 0.7423055587855648 4.815990463613743 0.8463406888436557 0.7018658092470919 20:0 42:1 73:1 80:0 100:0 102:10 
-4.950807647050511 -1.319528406548404 -2.25967491996757 2.004600399838511 0.5323673660946118 0.351577799602822 0.8281573185431591 20:0 53:1 57:1 62:1 80:0 88:1 100:0 102:-2 
-1.685829267731421 -0.8756711466128985 -2.255665827990387 0.7596788832676656 0.2891775974837263 0.2450292584182115 0.5388413456805823 20:0 53:1 57:1 68:1 80:0 82:1 100:0 102:-2 
-1.257797079042967 -0.230839623804636 -0.5246551828064894 0.2327313622276797 0.6189227884279721 0.4988163541784597 0.2197442177484775 20:0 41:1 53:1 57:1 62:1 80:0 88:1 100:1 102:10 
-0.846437194163251 -0.5186156202713917 -4.337676314200068 0.5203889715706151 0.6197676611101414 0.5622170001936101 0.4900248227685759 20:0 41:1 53:1 57:1 68:1 80:0 82:1 100:1 102:10 
-3.712886163661398 -0.116586546430279 -2.859829411013948 0.1128741595995031 0.1392519204645547 0.1267442313156144 0.1088778822592243 20:0 41:1 53:1 57:1 68:1 80:0 88:1 100:1 102:10 
-3.516175469510959 -0.3258905860287147 -1.584531583782127 0.3251618951487347 0 0.07247078381428883 0.3072768855273265 20:0 41:1 53:1 57:1 62:1 80:0 88:1 100:0 102:10 
-0.7344307288314017 -0.04113248718944302 -0.78947576392221 -1.715343146777114 0 0 0.0853069005075232 20:0 40:0 53:1 60:0 80:1 100:1 102:-2 
-0 -0 -0 -0.03041451344477012 0 0 0 20:1 40:0 53:1 60:1 102:-2 
-2.816428175422417 -2.516208447563993 -3.627076197952768 -15.06299451247495 4.034852048723259 0.9769350658524881 0.9342719254165402 20:0 22:1 48:1 60:0 80:1 100:1 102:1 
-0.5692562118611311 -2.910128167638975 -0.4867203047566359 -1.330589269358262 0 0 0.09922848206781837 20:1 28:1 40:0 60:0 80:1 102:-1 
-0 -0.8084429128839467 -0 -0 0 0 0 20:1 40:0 60:1 102:-1 
-0 -0 -0 -0.09755325553453026 0 0 0 20:1 40:1 53:1 60:1 102:-2 
-0 -0.2716178498887279 -0 -0 0 0 0.1551309885147862 20:0 40:0 53:1 60:0 80:1 81:1 100:1 102:-2 
-0.8186397939342456 -0.1684174403410571 -0 -0 0 0 0 1:1 20:1 40:0 60:1 102:-1 
-0.4878421806087032 -1.950943783881288 -0.1255165902126587 -0.08933498610141212 0.08070922706405609 0.06016195050322548 0.1350676868037784 13:1 17:1 20:1 35:1 40:0 53:1 60:0 80:1 102:-2 
-1.474013146427277 -0 -1.164910756251594 -1.298941541958591 0 0.02545471778798566 0 20:1 33:1 40:0 53:1 57:1 60:1 102:-1 
-0.03872707323152896 -0 -0.2253670032232255 -0.1642471001961278 0 0 0.1631072783249604 6:1 20:0 35:1 40:0 53:1 60:0 80:1 92:1 100:1 102:-2 
-0.2614191365038798 -0.3213411382665327 -0.241797172297113 -0.1474260266531199 0 0.0081659453908436 0.1531960299781961 20:1 33:1 40:0 46:1 60:0 72:1 80:1 95:1 100:1 102:-1 
-0.02539793240675873 -0.2725974992847724 -0 -0.04093132555739539 0 0.04506086338359049 0.07009332382608523 12:1 20:1 26:1 40:0 60:1 75:1 80:1 89:1 92:1 100:1 102:-1 
-0 -0.0458261227358213 -0 -0 0.1358475487040013 0.003411958386953087 0.05867279729256913 15:1 20:1 40:1 52:1 60:1 69:1 72:1 80:1 102:-1 
-0.2895309201656923 -0.2222213080819127 -0 -0.1520788560673974 0.06736562980087561 0.05712823994021732 0.1797245785768215 9:1 12:1 20:1 32:1 40:1 55:1 60:1 102:-1 
-0 -0.2258218973425263 -0 -0 0 0 0.1337354851776442 20:1 33:1 40:0 45:1 60:1 102:-1 
-0 -0 -0 -0.1472258673069735 0 0 0 20:1 35:1 40:0 53:1 60:1 75:1 80:1 88:1 100:1 102:-2 
-0.09992146642632803 -0.0770991389898746 -0.1097670771593189 -0 0.1253914773702975 0 0 15:1 20:1 33:1 40:1 60:1 68:1 80:1 102:-1 
-0.2403195146290649 -0.3285614538859213 -1.67635542209732 -0 0 0 0.08382818589153641 8:1 20:1 40:1 55:1 60:1 102:-1 
-0 -0 -0.0009592674818340961 -0 0 0 0 1:1 20:0 35:1 40:0 53:1 60:0 75:1 80:0 81:1 100:1 102:-2 
-0 -0 -0.0009623804486780094 -0 0 0 0 9:1 20:1 21:1 40:1 49:1 52:1 60:1 69:1 80:1 89:1 92:1 100:1 102:-1 
-0 -0 -0 -0 0.1247277418361316 0 0 15:1 20:1 33:1 40:1 60:1 71:1 80:1 102:-1 
-0 -0.3072627063665286 -0 -0 0 0 0 11:1 20:1 40:1 55:1 60:1 102:-1 
-0 -0 -0.05949277268753424 -0 0.01511900274016056 0 0 12:1 20:1 35:1 40:0 53:1 60:0 80:1 95:1 100:1 102:-2 
-0 -0.01004016684589703 -0 -0 0 0.0299293753964701 0 20:1 33:1 40:0 52:1 60:1 75:1 80:1 89:1 92:1 100:1 102:-1 
-0 -0.05176635194465572 -0 -0.05241636346693112 0.177279044503773 0 0 15:1 20:1 32:1 40:1 60:1 69:1 72:1 80:1 92:1 100:1 102:-1 
-0 -0.06780098696097309 -0 -0 0 0 0 9:1 12:1 20:1 40:1 55:1 60:1 72:1 80:1 102:-1 
-0 -0 -0 -0 0 0.02046812036970739 0 12:1 20:1 35:1 40:1 49:1 52:1 60:1 102:-1 
-0 -0 -0 -0 0.07457589433013055 0.04053642711672895 0 4:1 20:1 35:1 40:0 53:1 60:1 66:1 80:1 102:-2 
-0.1348797250392992 -0.1071682239427722 -0 -0 0 0.07092331749488716 0.1827040849630838 6:1 20:1 33:1 40:1 44:1 60:1 102:-1 
-1.079079346878501 -0.272453188992531 -0.7644150526911702 -0.8357347095965569 0.2427909381438392 0.1523998633359526 0.4357405232961994 1:1 20:0 35:1 40:0 53:1 60:0 75:1 80:0 81:1 100:1 102:-2 
-0.6360580357153675 -0.4615240373398107 -0.4690917062837144 -0.3087166491346185 0.4254445954248104 0.1350869114000139 0.388828944394578 15:1 20:0 33:1 40:0 41:1 60:0 61:1 80:1 89:1 92:1 100:1 102:-1 
-0.961022651759188 -0.4495195797604379 -0.1267506931132078 -0.2928186282678632 0.0780068620409413 0.1607045690351371 0.2369816502620919 1:1 20:1 21:1 40:0 55:1 60:0 69:1 72:1 80:1 89:1 100:1 102:-1 
-0 -0.02573250846494038 -0.03245269790039065 -0.04513272393220008 0.01025733234027248 0.08088998540549816 0.01153403341429704 9:1 12:1 20:1 35:1 40:0 41:1 60:1 69:1 80:1 89:1 100:1 102:-1 
-0.1065142752041736 -0.1421476632553058 -0.1010826474763352 -0.1442149889779951 0.05783857100832572 0.3388962959256372 0.1113432894501859 9:1 20:1 21:1 40:1 49:1 52:1 60:1 69:1 80:1 89:1 92:1 100:1 102:-1 
-0.2891837712090273 -0.1883329841530923 -0.1807615202780361 -0.2193945323293544 0.08967831605626328 0.3792928155378942 0.1940188745262001 9:1 20:1 29:1 32:1 40:1 49:1 60:1 69:1 72:1 80:1 89:1 92:1 100:1 102:-1 
-0.0008218834155043468 -0.03849341225474815 -0.02319640336782613 -0 0 0.2474940744390347 0.04532144108274878 9:1 12:1 20:1 29:1 40:1 49:1 60:1 69:1 72:1 80:1 102:-1 
-0.3962890148105443 -0.1985867230929436 -0.2226339399944538 -0.2369751572736449 0.1531224599510497 0.439931200744943 0.2451241149517355 9:1 12:1 20:1 29:1 40:1 49:1 52:1 60:1 102:-1 
-0 -0 -0 -0 0.04968077279544086 0 0 20:1 35:1 40:0 53:1 60:1 70:1 80:1 91:1 100:1 102:-2 
-0 -0.08335213428903104 -0 -0 0 0 0.02762665179851167 10:1 20:1 33:1 40:1 60:1 71:1 80:1 102:-1 
-0.3121862875834329 -0.02748553434375776 -0 -0.09480949007107999 0 0 0.1847042319166138 11:1 20:1 40:1 50:1 60:1 102:-1 
-0 -0 -0 -0 0.444019803613232 0 0.6467438409978666 80:0 100:1 101:6 
-0.7048503377193828 -0 -0 -0 0 0 0 20:0 53:1 57:1 101:6 102:-2 
-0 -0.3930759106496987 -0.127684062093666 -0.1180890497357782 0 0.08201632359980687 0.180617916493316 20:0 35:1 53:1 60:0 68:1 80:1 101:6 102:-2 
-0.09122983057829702 -0.1793048924532835 -0 -0 0 0 0.1967153658068197 20:0 35:1 53:1 60:0 68:1 80:0 100:1 101:6 102:-2 
-0.1678837992323279 -0 -0 -0 0 0 0 20:1 28:1 40:0 60:1 101:6 102:-1 
-0.8621869038519749 -0 -0.0162353283065437 -0.07135949326841742 0 0 0.4941576624429619 20:1 35:1 40:0 53:1 60:1 101:1 102:-2 
-0 -0 -0 -0 0 0 0.115214387445776 80:0 81:1 100:1 101:6 
-0 -0.09261665729472324 -0 -0 0 0 0 20:0 61:1 80:1 101:6 102:-1 
-0.1683024058027753 -1.804599805907992 -0.2604064188093119 -0.2326437502848545 0.3501712339270623 0.1546228762371631 0.4642872504714006 17:1 62:1 80:0 88:1 100:1 101:6 
-0.6498872143665624 -0 -0.01199799898942894 -0.008186658129133214 0 0 0.105305963411591 2:1 20:0 57:1 68:1 80:1 101:6 102:-1 
-0.2800380546921933 -0.1020508147376751 -0.06777481492778475 -0.03900939841761666 0 0.02678878083021885 0.1784480650659025 8:1 20:1 37:1 42:1 60:0 101:6 102:-1 
-0 -0.3446294794143516 -0 -0 1.000542687165371 0 0.6880071091792994 5:1 80:0 101:6 
-0 -1.814446053673932 -0 -0 0.3154744844680488 0 0.4227341860114803 80:0 87:1 100:1 101:6 
-0 -0.2731822447374356 -0 -0 1.000854057985431 0 0.6884442154624422 67:1 80:0 101:6 
-0 -0.2712869653384756 -0.1056212411984343 -0.08106740396336926 0.5572993591749869 0.0571317487103257 0.4168491132487135 1:1 75:1 80:0 81:1 100:0 101:6 
-0 -0.1777861208988672 -0 -0 0.8409479928854268 0 0.04554795692648812 15:1 20:0 41:1 61:1 80:0 89:1 92:1 100:0 101:6 102:-1 
-0.05070667108046323 -0.3439841918216021 -0.09343562877478588 -0.08218625842992319 0.05636713483406584 0.05604684341807 0.1912313770147446 1:1 20:0 21:1 55:1 60:0 69:1 72:1 80:0 89:1 100:0 101:6 102:-1 
-0.06539400983692212 -0.01290281743905047 -0 -0 0 0 0.05184046312107878 9:1 12:1 20:0 35:1 40:0 41:1 60:0 69:1 80:0 89:1 100:1 101:6 102:-1 
-0 -0.09788226804404235 -0.01213708532282202 -0.002807768704650767 0 0.002313481181375437 0.1070484718415461 9:1 20:0 21:1 40:0 49:1 52:1 60:0 69:1 80:1 89:1 92:1 100:1 101:6 102:-1 
-0 -0 -0 -0 0 0 0.0007763205181228988 9:1 12:1 20:1 29:1 40:1 49:1 52:1 60:1 101:6 102:-1 
-0 -0.0692418221288994 -0 -0 0 0 0 20:0 33:1 37:1 60:0 61:1 80:1 101:6 102:-1 
-0.2959875840496859 -0.1422825155886143 -0 -0 0 0 0.1930969065291244 20:0 53:1 57:1 80:0 83:1 100:1 101:6 102:-2 
-0 -0.004828698172920681 -0 -0 0 0 0.01721477181645067 20:0 33:1 37:1 60:0 63:1 80:1 101:6 102:-1 
-0.5000052277023375 -0.2773296348285553 -0.08543349367330411 -0.08114026229191085 0.04167201697263569 0.0511572604915061 0.1939812778785023 6:1 20:0 53:1 57:1 80:0 92:1 100:0 101:6 102:-2 
-0.1082976809818537 -0.2864759007583362 -0.184080750459303 -0.1708788101962779 0 0.1162803879963872 0.2413937754514084 20:0 33:1 37:1 46:1 60:0 72:1 80:0 95:1 100:1 101:6 102:-1 
-0 -0.03325037319635868 -0.0892708089520796 -0.0835151171039424 0 0.0580620014584677 0.1095007250282348 12:1 20:0 26:1 40:0 60:0 75:1 80:1 89:1 92:1 100:1 101:6 102:-1 
-0.1534440531724277 -0.04755500108444441 -0.02762129063101499 -0.02714529837240325 0.5589509120193655 0.02034753776541454 0.08380335742744963 15:1 20:1 40:0 52:1 60:0 69:1 72:1 80:1 101:6 102:-1 
-0.2960617315262255 -0.2505412139134711 -0.09659391200314262 -0.09087065139001931 0.1660912791098506 0.06388720712340416 0.156319592782288 9:1 12:1 20:1 32:1 40:0 55:1 60:1 101:6 102:-1 
-0.2914334234320701 -0.1722260867641034 -0.02364054929309391 -0.02250483358448015 0 0.01523433227839372 0 20:0 53:1 57:1 67:1 80:1 101:6 102:-2 
-0.1794095155506921 -0 -0 -0 0 0 0.001498862970573497 7:1 20:1 33:1 37:1 60:0 101:6 102:-1 
-0.1753024657010681 -0.3575139575286281 -0.03797917421971558 -0.0451603478929893 0 0.01931870146066287 0.05007997676508587 20:0 53:1 57:1 75:1 80:0 88:1 100:1 101:6 102:-2 
-0 -0 -0.007532645603498822 -0.003725462483158085 0.4716850267975767 0 0 15:1 20:0 33:1 37:1 60:0 68:1 80:1 101:6 102:-1 
-0 -0.2083000730236771 -0 -0 0 0 0 8:1 20:1 40:0 55:1 60:0 101:6 102:-1 
-0.5166341652608898 -0.1632464362742514 -0.1937936201356267 -0.187808682171094 0 0.1289850329561867 0.05945192703390811 1:1 20:0 53:1 57:1 75:1 80:0 81:1 100:0 101:6 102:-2 
-0.287790791960077 -0.2488743436061653 -0.2875600294292364 -0.2696176448273927 0 0.1827641230570936 0.2561054574662929 15:1 20:0 33:1 37:1 41:1 60:0 61:1 80:0 89:1 92:1 100:0 101:6 102:-1 
-0.08958353334848372 -0 -0.08564558590941269 -0.08445557911655599 0 0.0556752501960487 0.02272027879560213 1:1 20:0 21:1 40:0 55:1 60:0 69:1 72:1 80:0 89:1 100:1 101:6 102:-1 
-0.003005713506909879 -0.05361870844807084 -0.1290463537899835 -0.120267445438671 0 0.0814069810821145 0.08764870733336814 9:1 12:1 20:0 35:1 40:0 41:1 60:0 69:1 80:1 89:1 100:1 101:6 102:-1 
-0.2410893277364974 -0.04776681407068031 -0.1655111051888819 -0.1626270424548114 0 0.1113155653191566 0.06960810275524337 9:1 20:1 21:1 40:0 49:1 52:1 60:0 69:1 80:1 89:1 92:1 100:1 101:6 102:-1 
-0.3451231192313091 -0.2021292354183785 -0.2631394461743398 -0.2463137399259629 0.09354053944697779 0.1674623118386067 0.2296298323801325 9:1 20:1 29:1 32:1 40:0 49:1 60:1 69:1 72:1 80:1 89:1 92:1 100:1 101:6 102:-1 
-0.200947067085916 -0.1581914886940689 -0.175066369729817 -0.1640355450444946 0.02915176611130797 0.1100492439759817 0.1456225357478819 9:1 12:1 20:1 29:1 40:1 49:1 60:1 69:1 72:1 80:1 101:6 102:-1 
-0.3430720039725744 -0.2477150963021455 -0.2084438060666702 -0.1952356175383634 0.2080431562901004 0.1323655836026666 0.2399297777767551 9:1 12:1 20:1 29:1 40:1 49:1 52:1 60:1 101:6 102:-1 
-0.2125815595811273 -0.05415293849801034 -0.11019939565255 -0.09993595614065531 0.05749933630136491 0.06951739790031189 0.2024179429384158 20:0 53:1 57:1 75:1 80:0 91:1 100:1 101:6 102:-2 
-0 -0.1325382775325962 -0.05780111354504244 -0.05247087088773802 0.4716843999099332 0.0386962121017223 0.14839154263673 15:1 20:0 33:1 37:1 60:0 71:1 80:1 101:6 102:-1 
-0.09032422159701851 -0.2789967497773561 -0 -0 0 0 0.05931441408932299 11:1 20:1 40:0 55:1 60:0 101:6 102:-1 
-1.346290672409083 -0.9581341175428235 -0.9102630528815553 -0.759252246191872 -0.8480192602041066 0.5148809316050335 1.011765004982525 15:1 20:0 22:1 48:1 60:0 73:1 80:0 93:1 97:1 100:1 102:1 
-0.9934673870126419 -0.2544325798789541 -0.4703867111284892 -1.733087312691964 -0.3000400277093669 0.09622067796343034 0.2510028531235138 15:1 20:0 28:1 40:0 42:1 60:0 73:1 80:0 86:1 100:0 102:10 
-0.5408911535218907 -0.3178012826061198 -0.9155116794357344 -0.8565288243850072 -0.3742217497606575 0.2991813228056375 0.3140765344928432 15:1 20:0 22:1 42:1 60:0 73:1 80:0 85:1 100:1 102:10 
-0 -0 -0.004799370249557481 -0 -0 0 0 15:1 20:0 22:1 40:0 48:1 60:0 73:1 80:1 100:1 102:1 
-0 -0.004120487904796682 -0 -0 -0 0 0 15:1 20:0 22:1 40:0 42:1 60:0 73:1 80:0 81:1 100:0 102:10 
-0.3347665259542212 -0 -0.4744690380403056 -0.5519329193332668 -0 0.2902979276233735 0 15:1 20:0 28:1 40:0 42:1 60:0 73:1 80:1 100:1 102:10 
-0 -0 -0.1102620819365596 -0.2763411232552406 -0 0 0 15:1 20:0 22:1 40:0 42:1 60:0 73:1 80:0 92:1 100:1 102:10 
-0.7185949112764405 -0.5117520710236257 -0.6117452047070107 -0.4514551880702392 -0.6048734570397993 0.4247695763149223 0.5055004801830421 15:1 20:0 28:1 40:0 42:1 60:0 73:1 80:1 84:1 100:1 102:10 
-0.8777503423824696 -0.2281163350548752 -0.8112785284488336 -1.663330374927288 -0.2761091065738946 0.1540248906204037 0.2313388873644181 15:1 20:0 22:1 40:0 42:1 60:0 73:1 80:0 81:1 100:0 102:10 
-0.9077725931627006 -0.9430826910088893 -1.37110878473429 -7.569465880224913 -3.691849199525107 0.5560956062699814 0 15:1 20:0 22:1 40:0 48:1 60:0 73:1 80:1 100:1 102:1 
-1.335919737736257 -0.5185493542277974 -1.005673495400665 -1.225385574690194 -0.6126113574932049 0.5001955775424701 0.5136845744587163 15:1 20:0 37:1 42:1 60:0 61:1 80:0 89:1 92:1 100:0 102:10 
-0 -0 -0.02571835383362652 -0 -0 0 0 15:1 20:0 22:1 42:1 60:0 61:1 80:0 89:1 92:1 100:0 102:10 
-0.2969148854580735 -0.2425630912952798 -0.5207905274294291 -0 -0.2862194997005398 0.2769186323626264 0.2381787298178419 15:1 20:0 22:1 40:0 42:1 60:0 61:1 80:0 89:1 92:1 100:0 102:10 
-0 -0 -0 -0.01220485219072113 -0 0 0 15:1 73:1 80:0 100:0 101:6 
-1.610101295853056 -2.675502581768083 -1.1466200445339 -0.8337363571190908 -4.975751151789328 0.7895172250447072 2.972959537138907 15:1 73:1 80:0 100:0 101:6 
-0.7918002954283194 -0.5435801949055215 -0.7444616374243785 -0.384156064530686 -0.6369878400503621 0.3601275630480127 0.9846223216817223 15:1 20:0 22:1 48:1 60:0 73:1 80:1 100:1 101:1 102:1 
-0 -0 -0.001608011175975412 -0 -0 -0 0 9:1 12:1 20:0 35:1 40:0 41:1 60:0 69:1 80:1 89:1 100:1 102:10 
-0 -0 -0.001461147674527097 -0 -0 -0 0 9:1 20:1 21:1 40:0 49:1 52:1 60:0 69:1 80:1 89:1 92:1 100:1 102:2 
-0 -0 -0.0009077495433102491 -0 -0 -0 0 9:1 12:1 20:1 29:1 40:1 49:1 60:1 69:1 72:1 80:1 102:2 
-1.927130808048694 -1.335458063944988 -1.920979025319955 -1.804016186282566 -1.456516660699013 -1.679562972392493 1.288803900715003 9:1 12:1 20:0 35:1 40:0 41:1 60:0 69:1 80:1 89:1 100:1 102:10 
-1.04816701791041 -0.8707467524254876 -0.9828618301223058 -0.9350754874543052 -1.104303702129623 -0.8333576585611057 0.7776706117762415 9:1 20:1 21:1 40:0 49:1 52:1 60:0 69:1 80:1 89:1 92:1 100:1 102:2 
-0.7183718981045772 -0.6395082920043859 -0.6653479415663603 -0.6101502233939686 -0.8268258101461509 -0.5821063057741405 0.5816063760128803 9:1 20:1 29:1 32:1 40:0 49:1 60:1 69:1 72:1 80:1 89:1 92:1 100:1 102:2 
-0.5455298662328247 -0.5110101207419347 -0.5259422123185543 -0.4736845779704367 -0.649821190384314 -0.4263154990649178 0.4264793503330784 9:1 12:1 20:1 29:1 40:1 49:1 60:1 69:1 72:1 80:1 102:2 
-1.07156556017946 -0.8712276167811911 -1.004322821458519 -0.7762193128585164 -1.036849518669192 -0.7408874954079423 0.7777786786776243 9:1 12:1 20:1 29:1 40:1 49:1 52:1 60:1 102:2 
-1.381285150185238 -0.8771974432625922 -1.086987167106375 -0.9305457070065439 -0.9677189485257662 -0.8226717011654835 -0.4447739924791721 16:1 76:1 80:0 93:1 97:1 100:0 101:1 
-0.4413649667116389 -0.3455263833229757 -0.3897127032551142 -0.4433050492323264 -0.3854830346993552 -0.1371025708185092 -0.1069966141952979 16:1 20:0 56:1 73:1 77:1 80:0 82:1 100:1 101:1 102:-4 
-1.795306858806351 -1.363729803017243 -1.759978836052619 -1.134659865563762 -1.440785453675555 -0.61174088850519 -0.5688700368654069 16:1 76:1 80:0 96:1 100:0 101:1 
-0.8615801660180997 -1.016257239438959 -0.6174830514959522 -0.6168259249767487 -0.8696399635529389 -0.4304440792602772 -0.3843527006350194 16:1 20:0 56:1 76:1 80:0 93:1 97:1 100:1 101:1 102:-4 
-0.6991061096276235 -1.211897672035734 -0.5332733217844838 -0.5019348783477736 -0.7518527074339222 -0.4509691142375074 -0.3845595499460052 16:1 20:0 36:1 56:1 60:0 73:1 77:1 80:1 82:1 100:1 101:1 102:-4 
-0 -0.006518980631385355 -0 -0 -0.002012458225983453 -0 -0 16:1 73:1 77:1 80:0 82:1 100:1 101:6 
-0.5459321002686884 -0.767847806573336 -0.3813366805888859 -0.3304927826821261 -1.256063021878356 -0.7255053320281424 -0.2803037253855294 16:1 76:1 80:0 93:1 97:1 100:0 101:6 
-0.121455993845226 -0.27054370132285 -0.1088303043039679 -0.1161920481466134 -0.2758820299727666 -0.06785418559133125 -0.04532928545999575 16:1 20:0 56:1 73:1 77:1 80:0 82:1 100:1 101:6 102:-4 
-0.6018405379462469 -1.17364535323426 -0.3255270527104125 -0.2831065705554264 -2.032911615585445 -1.109751510883536 -0.2449680833789835 16:1 76:1 80:0 96:1 100:0 101:6 
-0.8289311926358353 -1.146500576542897 -0.5710100565785515 -0.5068843602336879 -0.928147492828681 -0.4665330178586176 -0.4181881938943601 16:1 20:0 56:1 76:1 80:0 93:1 97:1 100:1 101:6 102:-4 
-0.768835156178918 -0.9629344063672317 -0.5258100346086613 -0.4671664103027253 -0.7034449134496297 -0.442234076568861 -0.3824701682597442 16:1 20:0 36:1 56:1 60:0 73:1 77:1 80:1 82:1 100:1 101:6 102:-4 
-0.4132751320676731 -0.9334792876884815 -0.2437700618121448 -0.2909572733186508 -1.752427378929182 -1.248737448934476 -0.2416751544845863 16:1 73:1 77:1 80:0 82:1 100:1 101:6 
-0.5772003430401487 -0.3428116749458314 -0.505901021283046 -0.3084320880273563 -0.4089508403999667 -0.3976255512856749 -0.2377318080911333 16:1 73:1 77:1 80:0 82:1 100:1 101:4 
-0.1586477446036261 -0.1687431255338472 -0.06287742221938242 -0.01789216680931968 -0.101671074339279 -0.1119594461059224 -0.1121196044395937 16:1 20:0 56:1 73:1 77:1 80:0 82:1 100:1 101:4 102:-4 
