svm_type c_svc
kernel_type rbf
gamma 0.000488281
nr_class 6
total_sv 135
rho -1.05948 -0.475212 -0.807872 -0.0825314 -1.04634 0.641565 1.18443 2.96047 1.43662 -0.0128424 0.15556 0.160549 0.170277 0.239794 -0.840013
label 10 2 0 -3 1 -4
probA -4.37023 -4.0888 -3.43433 -4.33661 -3.29311 -3.81886 -3.51524 -4.01174 -2.30322 -3.29941 -3.97323 -1.54088 -3.51106 -1.61349 -2.18541
probB -0.0918524 -0.339766 -0.670849 -0.142808 -0.720359 0.029427 -0.442133 -0.109575 -0.690279 -0.485716 0.194914 -0.640988 0.686839 -0.177058 -0.736391
nr_sv 34 24 31 15 27 4
SV
0 31.02817759659832 0 0 0 1:1 20:0 21:1 33:1 37:1 60:0 61:1 80:0 89:1 92:1 100:0 
49.31623226961882 0 24.00791745719964 0 0 1:1 20:0 40:0 41:1 60:0 69:1 72:1 80:0 89:1 100:1 102:10 
0 0 132.8005646821062 0 0 1:1 20:0 41:1 53:1 57:1 60:0 61:1 80:0 89:1 92:1 100:0 102:10 
0 10.7705509719238 0 0 0 1:1 20:0 21:1 33:1 37:1 40:0 41:1 60:0 69:1 72:1 80:0 89:1 100:1 102:10 
0 17.25495742509116 0 0 0 1:1 13:1 17:1 61:1 80:0 81:1 100:0 
0 757.4481761127194 0 0 0 1:1 20:0 41:1 53:1 57:1 61:1 80:0 89:1 100:0 102:10 
0 0 62.14185605086276 0 0 1:1 20:0 21:1 33:1 37:1 41:1 60:0 69:1 80:0 89:1 92:1 100:0 102:10 
0 0 0 0.1915664331706803 0 1:1 75:1 80:0 81:1 100:0 
0 22.91257021406716 33.06360580055711 0 58.04244796987432 1:1 20:0 21:1 55:1 60:0 61:1 80:0 89:1 100:0 102:-3 
0 0 18.53843794609447 0 0 1:1 20:0 35:1 40:0 41:1 60:0 69:1 80:0 89:1 92:1 100:0 102:10 
0 0 0 0.5534156086702506 0 1:1 13:1 17:1 80:0 81:1 100:0 
60.25787588066381 59.4380300747585 0 0 0 1:1 20:0 21:1 33:1 37:1 60:0 69:1 80:0 89:1 100:1 
20.53232012314418 0 0 0 0 1:1 13:1 17:1 80:0 89:1 100:0 
547.5090174593979 762.129830038704 0 0 0 1:1 20:0 41:1 53:1 57:1 69:1 80:0 89:1 100:1 102:10 
0 0 0 0.150764353331274 0 1:1 68:1 80:0 
0 0 0 112.0898739484285 0 1:1 68:1 80:0 100:1 
2.68241482114657 83.2423202423289 0 0 140.0198007358391 1:1 20:0 75:1 80:0 88:1 100:1 
5.307868475115532 51.98367267754178 0 0.5562284194350939 52.5210603549902 1:1 20:0 80:0 95:1 100:1 
0 0 0.5639245878206076 0 0 1:1 68:1 80:0 88:1 100:1 
0 196.436863510174 603.7767352299818 0 0 1:1 20:0 68:1 80:0 88:1 100:1 
0 35.53805413871969 0 97.26307537294694 105.1250539102303 1:1 80:0 88:1 100:0 
0 11.24342061012197 0 38.84046838228938 0 1:1 68:1 80:0 88:1 100:0 
0 0.7147658810096815 0 0.1719797137807951 0 1:1 75:1 80:0 88:1 100:0 
0 7.802569011847734 0 0 0 1:1 80:0 95:1 100:0 
0 0 0 265.4155659673408 42.78046980370953 1:1 68:1 80:0 88:1 100:1 101:1 
0 0 0 14.8858244551975 0 1:1 68:1 80:0 88:1 100:0 101:1 
145.2924692152158 0 0 0 21.75864352502018 1:1 69:1 80:0 101:2 
0 0 0 0 179.4279212946915 1:1 13:1 17:1 61:1 80:0 81:1 100:0 101:2 
44.95674166749042 0 0 40.74794756155062 0 1:1 20:0 41:1 53:1 57:1 61:1 80:0 89:1 100:1 101:2 102:10 
0 29.04604952370635 50.49838462968997 45.56702949203282 0 1:1 20:0 21:1 33:1 37:1 41:1 60:0 69:1 80:1 101:2 102:10 
0 0 0 6.06888311613592 0 1:1 
145.8594948517267 0 0 394.6792053245568 0 1:1 
23.64167037381134 0 0 0 158.1332036605654 1:1 20:0 56:1 68:1 80:1 101:6 102:-4 
0.7384441737597692 0 0 12.99297351537312 0 1:1 20:1 36:1 40:0 56:1 60:0 68:1 80:1 101:6 102:-4 
-6.649206958215179 42.78137039217913 1.472528614014575 11.88614943366851 0 9:1 12:1 69:1 80:0 89:1 100:0 
-0 0 50.38926047191114 0 0 9:1 12:1 20:0 21:1 40:0 41:1 60:0 69:1 80:0 89:1 100:1 102:10 
-0 3.397094193278374 0 0 0 9:1 12:1 20:0 35:1 40:0 41:1 60:0 69:1 80:0 89:1 100:1 102:10 
-34.44888043141107 0 11.38573845046228 11.85958591448682 0 9:1 69:1 72:1 80:0 89:1 100:0 
-0 0 1.791525281619329 0 0 9:1 20:0 41:1 53:1 57:1 69:1 72:1 80:0 89:1 100:0 102:10 
-0 0 6.571008300994967 0 0 9:1 20:0 21:1 40:0 41:1 60:0 69:1 72:1 80:0 89:1 100:1 102:10 
-7.513586454751381 82.99054332926161 7.694360394755588 0 0 9:1 20:0 41:1 53:1 57:1 60:0 69:1 72:1 80:0 89:1 100:0 102:10 
-12.71520418316728 0 24.92378879294373 0 0 9:1 20:0 21:1 40:0 41:1 60:0 69:1 72:1 80:0 89:1 100:1 102:10 
-81.08608084947167 0 4.631785312418219 45.58775145018743 8.336561538508619 9:1 69:1 80:0 89:1 100:1 
-0 0 3.754087170905644 65.77333391110288 0 9:1 20:1 29:1 49:1 60:0 102:2 
-587.3523684374493 1024 0 0 0 9:1 20:0 41:1 53:1 57:1 69:1 80:0 89:1 100:1 102:10 
-14.6517529576262 0 0 0 0 9:1 20:0 21:1 33:1 37:1 49:1 60:0 69:1 80:1 102:2 
-0 98.28808056449481 185.6794124763342 0 0 9:1 20:1 29:1 40:0 49:1 60:0 102:2 
-0 0 177.0825688753397 0 0 9:1 20:0 40:0 41:1 60:0 69:1 80:1 89:1 100:1 102:10 
-0 0.2895073032557 0.005896304080988943 0 0 9:1 20:1 29:1 40:0 49:1 60:1 102:2 
-28.68938303594232 104.2635433290331 25.74653529510366 0 1.221338045534854 9:1 20:0 21:1 33:1 37:1 60:0 69:1 80:1 89:1 100:1 
-0 0 0 21.03193870560323 0 9:1 20:1 40:0 49:1 60:0 69:1 80:1 102:2 
-1.62062863132616 0 0 0 0 9:1 20:1 21:1 33:1 37:1 40:0 49:1 60:0 69:1 80:1 102:2 
-4.381104396963606 36.00597205790199 0 0 0 9:1 20:0 21:1 33:1 37:1 41:1 60:0 69:1 80:1 89:1 100:1 102:10 
-0 78.19038736549169 1.084996724033883 16.29850844813283 0 9:1 20:1 29:1 40:0 49:1 60:1 102:2 
-249.2781002370124 0 0 162.1087988294589 616.368995068445 9:1 101:2 
-17.7082527377545 0 125.5596433380288 484.3167148280757 0 9:1 20:0 41:1 101:2 102:10 
-0 119.4664012812434 0 2.015045390175933 0 9:1 20:0 41:1 53:1 57:1 101:2 102:10 
-0 0 0 154.9382239280525 0 9:1 20:1 21:1 40:0 41:1 60:0 101:2 102:10 
-0 -0 8.273486775564121 0 0 20:0 41:1 53:1 57:1 61:1 80:0 81:1 100:0 102:10 
-0 -0 4.290105813450157 0.405493681800275 148.4496014626652 61:1 73:1 77:1 80:0 81:1 100:0 
-4.560203704866423 -1.283657238299713 0 0 0 61:1 73:1 77:1 80:0 89:1 100:0 
-648.1665731814574 -89.34006597779606 0 0 0 20:0 41:1 53:1 57:1 61:1 80:0 89:1 100:0 102:10 
-886.309231089519 -1024 0 0 0 20:0 41:1 53:1 57:1 69:1 80:0 89:1 100:1 102:10 
-32.36177222738124 -42.30775597780474 0 0.3395161454065974 0 61:1 73:1 77:1 80:0 89:1 100:0 
-0 -34.82876012012122 0.1286520296747982 0 0 20:1 21:1 48:1 60:0 102:1 
-52.53539191100263 -0 0 0 0.8735055678924585 61:1 80:0 95:1 100:0 
-8.088683343839557 -0 0 0 0 61:1 80:0 100:0 
-0 -23.74734355515982 4.8611583391249 0 0 20:0 41:1 60:0 75:1 80:1 88:1 100:1 102:10 
-7.250971783578708 -0 0 0 3.261830084696553 20:1 35:1 40:0 48:1 60:0 102:1 
-0.1978132289576308 -40.77350630586399 0 0 0 20:1 35:1 40:0 48:1 60:1 102:1 
-0 -75.07770228733992 7.272447448506234 2.491893274098389 9.965588601171923 20:0 21:1 33:1 37:1 60:0 68:1 80:1 
-35.91039085675983 -0 7.547732946842437 0 0 61:1 80:0 88:1 100:0 
-6.873346970609434 -0 0 0 2.465259101728153 20:1 28:1 40:0 48:1 60:0 102:1 
-93.29267302797267 -0 2.950997936743812 3.379506077296896 206.1738050702494 61:1 80:0 100:0 
-2.65140195077581 -0 0.02440564754736553 0 0 20:0 41:1 80:0 95:1 100:0 102:10 
-2.80944725296765 -0 0 0 0 20:0 41:1 75:1 80:0 88:1 100:0 102:10 
-0 -8.482808391393515 0 0 0 20:1 28:1 40:0 48:1 60:1 102:1 
-20.62094851340029 -0 0 0 0 20:0 21:1 33:1 37:1 60:0 68:1 80:0 88:1 100:1 
-0 -0 1024 1024 0 20:0 41:1 68:1 80:0 88:1 100:1 102:10 
-5.609352404661197 -26.725867708015 5.306464256361081 4.740264390747798 0 20:0 41:1 80:0 95:1 100:0 102:10 
-75.30546603780087 -0 0 2.91879946094303 57.79237380483713 20:0 21:1 60:0 75:1 80:0 88:1 100:1 
-0 -28.39547878588863 0 0 0.1905588242867375 20:1 28:1 40:0 48:1 60:1 102:1 
-6.143521744181596 -0 0 0 0 20:0 41:1 75:1 80:0 88:1 100:0 102:10 
-0.05379472752182839 -0.2204277935657013 0 0 0 20:1 28:1 40:1 48:1 60:1 102:1 
-0 -125.8185027333508 0 9.004946531101554 0 20:0 41:1 53:1 57:1 80:0 100:0 102:10 
-0.64400648367271 -65.3463039566863 0 0 19.41551641170459 20:0 21:1 33:1 37:1 60:0 80:0 88:1 100:1 
-79.98417247624089 -3.324718984854507 1024 1024 62.55557120929046 20:0 40:0 60:0 68:1 80:1 88:1 100:1 
-107.1251035008866 -0 0 0 0 20:0 21:1 33:1 37:1 60:0 68:1 80:0 88:1 100:1 
-0.4957416112586902 -0 0 27.38683383979161 0.5784678652788617 20:1 28:1 40:1 48:1 60:1 102:1 
-0 -0.1443511274446723 -0.6552487960740893 0 0 15:1 20:0 41:1 61:1 80:0 89:1 92:1 100:0 102:10 
-245.7213829259916 -186.2094503652049 -3.497767031606544 0.8013616589684265 0 15:1 20:0 41:1 61:1 80:0 89:1 92:1 100:0 102:10 
-10.02449444080821 -64.16981736493722 -20.21895104986142 0.9292301474465677 0 15:1 20:0 41:1 61:1 80:0 81:1 100:0 102:10 
-0 -0 -0.9463349039729476 0 0 15:1 20:0 21:1 60:0 68:1 80:1 
-0 -0 -0 341.2602692183972 0 15:1 20:0 41:1 60:0 68:1 80:1 102:10 
-0 -140.9627874133799 -0.5864250945865135 35.51354997645295 1.1854135900537 15:1 20:1 21:1 40:0 60:0 68:1 80:1 
-0 -0 -0.9149012113096906 0 137.8458712525317 15:1 20:0 21:1 60:0 68:1 80:1 
-24.70659764429833 -181.0041331983829 -1.635011727365742 165.9618707636068 0 15:1 20:0 41:1 68:1 80:0 100:1 102:10 
-0 -8.89559476747216 -0 3.134290644407829 0 15:1 20:0 21:1 60:0 68:1 80:1 100:1 
-0 -0 -0 437.6639723785098 0 15:1 20:0 21:1 40:0 60:0 68:1 80:1 88:1 100:1 
-0.186949601043131 -0 -15.71039930984186 0 0 15:1 20:0 40:0 60:0 68:1 80:1 88:1 100:1 
-0 -0 -1007.643829709048 15.86875748948883 0 15:1 20:0 41:1 68:1 80:0 88:1 100:1 102:10 
-275.9201249807983 -46.38700156612484 -1020.128905247968 38.31732678615902 72.80452077707912 15:1 20:0 40:0 60:0 68:1 80:1 88:1 100:1 
-0.783387432881738 -0 -8.882172765231383 0 0 15:1 20:0 41:1 68:1 80:0 88:1 100:0 102:10 
-368.0484893584912 -0 -7.83550434694852 11.45484146082661 72.7724094738462 15:1 20:0 21:1 60:0 68:1 80:0 88:1 100:1 
-536.5135163521521 -196.3925443542776 -8.642465826587467 -0.7886667534310077 110.2444242444681 8:1 
-5.718517127293901 -394.4917899979578 -8.057121908816127 -0.167538719862483 0 8:1 20:0 41:1 102:10 
-24.06355621103005 -0 -4.246873134058786 -0 0 8:1 20:0 41:1 80:1 102:10 
-0 -0 -0.05851920072310181 -0 0 8:1 20:1 40:0 55:1 60:1 102:-3 
-0 -0 -0 -0 138.5985768380343 8:1 20:1 40:0 55:1 60:0 102:-3 
-0 -0 -0 -0 75.99038321626918 8:1 20:0 21:1 55:1 60:0 80:1 102:-3 
-0 -0 -0 -1.461319591493278 0 8:1 20:1 40:0 60:0 
-0 -0 -0 -341.2027080535394 0 8:1 20:0 41:1 60:0 68:1 80:1 102:10 
-0 -0 -0 -169.5644009520574 0 8:1 20:0 41:1 68:1 80:0 100:1 102:10 
-0 -0 -0 -2.500577738025211 0 8:1 20:1 40:0 55:1 60:0 68:1 80:1 102:-3 
-0 -0 -0 -31.56035470548979 0 8:1 20:1 40:0 60:0 68:1 80:1 
-0 -0 -5.771028460394294 -480.8065780118256 0 8:1 20:0 21:1 60:0 68:1 80:1 88:1 100:1 
-0 -0 -1021.566215637588 -16.00192283274795 0 8:1 20:0 41:1 68:1 80:0 88:1 100:1 102:10 
-16.52570291123614 -0 -0.008981034529753041 -6.447114402601226 0 8:1 20:0 21:1 55:1 60:0 68:1 80:0 88:1 100:1 102:-3 
-6.394460416304172 -0 -8.749293513279303 -0 0 8:1 20:0 40:0 55:1 60:0 68:1 80:1 88:1 100:1 102:-3 
-0 -0 -0.5471666307929686 -0 0 8:1 20:1 40:0 60:0 68:1 80:1 88:1 100:1 
-0 -0 -27.30808774850672 -0 0 8:1 20:1 28:1 40:1 48:1 60:1 102:1 
-0.7047355268612032 -0 -1007.344163545592 -0 0 8:1 20:0 40:0 60:0 68:1 80:1 88:1 100:1 
-356.5535981447237 -33.87013324814093 -0 -0 189.7472621657348 8:1 68:1 80:0 88:1 100:1 101:1 
-0 -27.50914835724728 -0 -0 0 8:1 20:0 41:1 68:1 80:1 101:1 102:10 
-0 -91.57192110607878 -0 -0 0 8:1 20:1 21:1 48:1 60:0 101:1 102:1 
-38.26132963324398 -0 -6.367336760317568 -0 0 8:1 20:0 41:1 53:1 57:1 68:1 80:0 88:1 100:1 101:1 102:10 
-27.5953750388551 -0 -0 -0 0 8:1 20:0 21:1 33:1 37:1 48:1 60:0 68:1 80:1 101:1 102:1 
-6.158047560326698 -61.96526229593253 -0 -0 0 8:1 20:1 36:1 40:0 41:1 60:0 101:6 102:10 
-0.05699498943196975 -0.009226559567657267 -0 -0 0 8:1 20:1 36:1 40:0 41:1 60:1 101:6 102:10 
-11.21170129237227 -155.5297681369788 -0 -0.08029822615428532 14.51822227930086 8:1 20:1 36:1 41:1 60:0 101:6 102:10 
-0.4172664604092531 -14.47625678276348 -0 -0.3239905370365557 0.08132835969514311 8:1 20:1 36:1 40:0 41:1 60:1 101:6 102:10 
-377.7190772054965 -435.1597274837771 -443.959373571249 -245.2212387308686 -370.6539976855694 16:1 76:1 80:0 81:1 100:0 101:1 
-209.622153332295 -19.95476248827947 -67.7627044325525 -39.38697636264212 -158.5261994179331 16:1 20:0 56:1 61:1 80:0 88:1 100:1 101:1 102:-4 
-0 -8.102745586347027 -0 -0 -0 16:1 76:1 80:0 96:1 100:0 101:6 
-170.4673707171292 -162.7096590940849 -0 -0 -0 16:1 61:1 80:0 88:1 100:1 101:5 
