svm_type c_svc
kernel_type rbf
gamma 0.00390625
nr_class 8
total_sv 210
rho -0.953651 -0.537312 -0.859955 -0.274082 -0.775081 -0.244172 -0.0231964 0.107033 0.082117 -0.181301 0.656001 0.141966 0.0981999 -0.175861 -0.0181994 -0.186871 0.0372928 0.0644324 0.0456855 0.408473 -0.0116374 0.0424609 0.568443 0.0647945 0.296366 -0.337914 0.182842 0.00926738
label 10 -2 1 0 -3 -1 2 -4
probA -4.47294 -4.37109 -5.25357 -3.95724 -4.10797 -3.88901 -3.71121 -3.74836 -3.02323 -3.29731 -3.54368 -3.02298 -3.03136 -6.35246 -3.42991 -3.76591 -3.17595 -3.1919 -2.29602 -4.05133 -2.25879 -2.37294 -3.40477 -2.57142 -2.93892 -3.21844 -3.77704 -2.42497
probB -0.219753 -0.320007 2.31053 -0.407932 -0.238956 -0.433662 -0.638959 0.190263 -0.192721 -0.383081 0.646822 -0.662578 -0.470034 2.93739 -0.53687 0.135785 -0.847912 -0.597826 0.386431 -0.953051 -0.166407 -0.0226636 0.34899 -0.288606 -0.137079 -0.197079 -0.469637 0.0854967
nr_sv 49 35 42 6 12 48 7 11
SV
0 24.83791590260019 2.0654282628396 0.7672084618886799 0 0 0 2:1 21:0 35:1 39:1 51:1 63:0 65:1 84:1 105:1 119:1 
0 0 0 0 4.931656998578027 0.5565357003090282 0 2:1 21:1 42:0 51:1 63:0 105:1 119:1 
0 0 30.77453005581841 0 0 0 0 2:1 21:0 56:1 60:1 72:1 84:0 93:1 105:1 125:1 
8.137644371283534 0 0 0 0 0 0 2:1 72:1 84:0 93:1 105:1 117:1 
0 0 31.90004467294515 0 0 0 0 2:1 21:0 56:1 60:1 72:1 84:0 93:1 105:1 125:1 
1.156962630676233 0 0 32 0 0 0 2:1 21:0 44:1 105:1 118:1 
6.333696782456319 0 0 0 0 0 0 2:1 65:1 84:0 93:1 105:1 117:1 
2.604927100857077 0 0 0 10.64516820335132 6.277346865414422 0 2:1 21:1 30:1 42:0 51:1 63:0 65:1 84:1 105:1 119:1 
0 10.03284744951152 0 0.01862349454405895 0 8.597908086508227 0 2:1 21:1 30:1 42:0 44:1 63:1 105:1 118:1 
0 0 27.26297907710891 0 0 0 0 2:1 21:0 56:1 60:1 72:1 84:0 105:1 125:1 
0 0 0 0 14.99314249842048 0 14.719286119317 2:1 79:1 84:0 98:1 105:1 117:1 
0 8.370326153416414 0 0 0 0 0 2:1 21:0 35:1 39:1 51:1 63:0 79:1 84:0 98:1 105:1 119:1 
0 0 0 4.251101339050441 0 0 0 2:1 21:0 44:1 79:1 84:0 98:1 105:1 118:1 
0 12.07715403178288 0 0 0 0 0 2:1 21:0 35:1 39:1 51:1 63:0 65:1 84:0 100:1 105:1 119:1 
1.962769387925106 0 11.71056960759588 0 0 0 0 2:1 21:0 42:0 51:1 63:0 79:1 84:0 98:1 105:1 119:1 
32 16.12471388636214 23.96557612396898 7.023972617474118 0 3.807087058548224 5.957077684189123 18:1 72:1 84:0 86:1 105:1 117:1 
0 5.578397914733419 0 4.437878041043682 0 6.105500168411865 0 2:1 21:0 22:1 35:1 39:1 44:1 63:0 72:1 84:1 105:1 118:1 
0 0 0.08861794053788764 0 0 0 0 2:1 21:0 22:1 35:1 39:1 51:1 63:0 65:1 84:1 105:1 119:1 
0 0 0 23.33388794025501 0 0 0 2:1 21:1 30:1 42:0 44:1 63:0 105:1 118:1 
32 0 0 2.058648833191381 32 0 9.33832725286482 1:1 14:1 18:1 84:0 86:1 105:1 117:1 
0 0 0 0 18.10377787646055 0 0 2:1 21:0 22:1 35:1 39:1 63:0 72:1 84:1 105:1 117:1 
32 0 0 0 1.529528709164677 0 0 1:1 14:1 18:1 65:1 84:0 93:1 105:1 117:1 
0 14.36287174264473 0 0 0 2.01244100338113 0 2:1 21:0 43:1 56:1 60:1 72:1 84:0 93:1 105:1 118:1 
32 0 0 0 0 0 0 1:1 14:1 18:1 72:1 84:0 93:1 105:1 117:1 
9.880609742435066 0 0 0 0 0 0 1:1 14:1 18:1 65:1 84:0 86:1 105:1 117:1 
0 0 3.245623276528451 0 0 0 0 2:1 21:0 43:1 56:1 60:1 65:1 84:0 93:1 105:1 118:1 
5.422479304395154 9.538987127239466 0 0 0 0 0 2:1 21:0 22:1 35:1 39:1 44:1 63:0 72:1 84:1 93:1 105:1 118:1 
32 0 0 0 27.51519564294133 0 0 1:1 14:1 18:1 72:1 84:0 93:1 105:1 117:1 
0 0 0 0 2.598757276766023 0 0 2:1 21:1 30:1 42:0 51:1 63:1 105:1 119:1 
15.56845626391366 0 10.16710311665286 0 0 0 0 1:1 14:1 18:1 65:1 84:0 86:1 105:1 117:1 
0 0 29.54524864515208 0 0 2.987332213116461 0 2:1 21:0 43:1 56:1 60:1 65:1 84:0 93:1 105:1 118:1 
28.91905166041479 0 0 0 0 0 0 1:1 14:1 18:1 72:1 84:0 86:1 105:1 117:1 
0 0 0 0 0 0 0.08122871200952136 2:1 21:0 22:1 35:1 39:1 51:1 63:0 79:1 84:0 98:1 105:1 119:1 
32 0 0 0 0 0 0 1:1 14:1 18:1 72:1 84:0 86:1 105:1 117:1 
0 0.1876455623016077 0 0 0 0 0 2:1 21:0 30:1 42:0 44:1 63:0 79:1 84:0 98:1 105:1 118:1 
32 21.82923561377022 3.630862012110785 11.70964947121774 32 3.727719233933951 0 18:1 65:1 84:0 100:1 105:1 117:1 
0 0 0 0 0 1.176286575243923 0 2:1 21:0 60:1 79:1 84:0 85:1 105:1 118:1 
0 0 0 0 12.31636521729319 0 0 1:1 21:0 23:1 42:0 58:1 63:0 73:1 76:1 84:0 94:1 105:1 126:1 
0 0 0 0 22.18363630585626 0 0 2:1 21:0 44:1 79:1 84:0 85:1 105:1 118:1 
0 12.78026080189802 12.15457600508709 14.8008462406542 29.14692239181059 16.92878297297281 5.07422015528604 1:1 21:0 23:1 42:0 58:1 63:0 73:1 76:1 84:0 94:1 105:1 126:1 
0 2.075791685292523 1.593687821986238 0 0 0 0 2:1 21:1 38:1 42:0 56:1 60:1 63:0 107:1 125:1 
2.647470892318645 28.2301418199451 0 6.783636055125167 27.35483952069394 0.9834171597239816 17.34602018468751 18:1 72:1 84:0 107:1 117:1 
32 7.616983561303609 0 0 2.712756050759083 0 0 18:1 72:1 84:0 93:1 105:0 107:1 117:1 
32 4.744900893952419 0 2.982155652939042 0 0 11.86427475365411 18:1 65:1 84:0 93:1 105:0 107:1 117:1 
7.091531699615051 0 1.557669069811327 0.01593618743698988 32 0 7.554044717332268 2:1 21:1 38:1 56:1 60:1 63:0 112:1 125:1 
1.707417589346018 0.07007031315756443 0 0.3675968770687686 32 1.147339232487254 0 2:1 21:1 38:1 42:0 56:1 60:1 63:1 112:1 125:1 
9.756432759695832 0 0 0 0 0 21.24213535551811 2:1 105:1 117:1 
0 0.07237650882785307 0.801624394677094 0 1.06488492272194 1.147339232487252 0.6463272026969467 2:1 21:1 38:1 42:0 56:1 60:1 63:1 110:1 125:1 
0 0 1.535859917179249 0 0 0 0 2:1 21:1 38:1 42:0 56:1 60:1 63:0 111:1 125:1 
-32 0 0 0 0 0 0 14:1 18:1 72:1 84:0 86:1 105:1 117:1 
-32 0 0 0 0 0 0 14:1 18:1 65:1 84:0 93:1 105:1 117:1 
-32 0 0 0 0 0 0 14:1 18:1 72:1 84:0 93:1 105:1 117:1 
-32 0 0 0 0 0 0 14:1 18:1 65:1 84:0 93:1 105:1 117:1 
-32 0 0 0 0 0 0 14:1 18:1 72:1 84:0 93:1 105:1 117:1 
-32 9.69109695196048 4.257423918595719 0 14.02344796751779 0 0 14:1 18:1 72:1 84:0 93:1 105:1 117:1 
-0.1665043133439579 0 0 0 0 0 0 14:1 21:0 23:1 58:1 63:0 84:0 105:1 126:1 
-32 0 13.88167593915402 0.297336366493151 0 0 0 14:1 18:1 65:1 84:0 93:1 105:1 117:1 
-1.810353823099239 7.910027329994541 1.35233665253613 1.712100590104913 21.85125580673214 19.15979311993972 0 14:1 21:1 42:0 58:1 63:1 84:1 105:1 126:1 
-5.319094056118034 9.367704005258583 15.60937158341302 6.247526142640454 0 0 0 14:1 21:0 23:1 58:1 63:0 84:0 105:1 126:1 
-0 0.3045567838637328 1.978980871200934 4.837628724729503 0 0 5.030455641307481 14:1 21:0 30:1 42:0 58:1 63:0 77:1 81:1 84:1 105:1 126:1 
-32 3.902644195423776 0 0 0 0 0 14:1 18:1 72:1 84:0 86:1 105:1 117:1 
-0.9798611584847273 0.5572338886880887 0.5722187424382299 0.4669930306310909 0 0 0 14:1 21:0 23:1 42:0 58:1 63:0 69:1 84:0 105:1 126:1 
-0 0 5.106339349384667 0.3739906245609722 0 0 0 14:1 21:0 23:1 42:0 58:1 63:0 68:1 84:1 105:1 126:1 
-32 31.21403680820959 13.70259645590537 0.3003971531204388 9.988558315985692 0.6284136943775024 0.5492646184409355 14:1 18:1 72:1 84:0 86:1 105:1 117:1 
-32 0 0 0 0 5.924682949982819 22.23532530317696 14:1 18:1 84:0 86:1 105:1 117:1 
-1.846741989813486 2.967208826649243 0 2.177245260351682 4.606173228923838 0.6770180253710758 0 14:1 21:1 30:1 42:0 58:1 63:0 84:1 95:1 105:1 126:1 
-0 0 0 0 0 6.560647496492348 0 14:1 18:1 84:0 93:1 105:1 117:1 
-0 1.492048342702558 1.624657427087575 0 1.776383028478387 0 0 14:1 21:1 23:1 42:0 58:1 63:0 84:1 100:1 105:1 126:1 
-0 0 5.139784278222397 0.3760023978508247 0 1.711682585864676 0 14:1 21:0 23:1 42:0 58:1 63:0 76:1 84:1 105:1 126:1 
-0 1.03833172692318 1.097125412092477 1.422415923635086 3.278410913647685 0.06094907237954247 0 14:1 21:1 23:1 42:0 58:1 63:0 67:1 84:1 90:1 105:1 126:1 
-1.458034355455954 0 0 5.612923973986423 0 0 0 14:1 21:0 23:1 42:0 58:1 63:0 64:1 84:0 100:1 105:1 126:1 
-21.89658473068331 10.62341638255927 1.917518680859184 0 0 0.5266935603428539 0.5676840679427467 14:1 18:1 21:0 38:1 59:1 63:0 65:1 84:1 107:1 127:1 
-0 0 0 0 18.13798150564358 0 0 14:1 18:1 84:0 93:1 105:1 112:1 117:1 
-0 5.1822231336703 0 1.873259476019352 21.56232877036932 0 13.39388330335505 14:1 21:0 58:1 84:1 112:1 126:1 
-0 0 0 0 12.79965488174454 0 0 14:1 21:0 58:1 84:0 105:1 112:1 126:1 
-0 0 0 31.18358162436185 5.321780356419067 2.097018552491053 32 14:1 18:1 77:1 81:1 84:0 105:1 112:1 117:1 
-0 0 0 0 32 0 0 14:1 18:1 84:0 105:0 112:1 117:1 
-4.69418714777911 2.136499760068563 0 26.09189174653023 32 0 0 14:1 18:1 84:0 105:0 112:1 117:1 
-31.01808861055467 0 0 0 26.19168293512326 0 0 14:1 18:1 84:0 100:1 105:0 112:1 117:1 
-0 0 0 0 1.64457579032886 0 0 14:1 18:1 84:0 95:1 105:0 112:1 117:1 
-0 0 5.10149011771492 0 0 1.473721146147309 0 14:1 18:1 21:0 59:1 65:1 84:1 112:1 127:1 
-0 0 0 0 9.970811117867443 0 0 14:1 18:1 21:1 38:1 42:0 59:1 63:0 65:1 84:1 112:1 127:1 
-0 0 0 0 0 2.465025335526529 3.129292731655194 14:1 18:1 21:1 38:1 42:0 59:1 63:0 65:1 84:1 110:1 127:1 
-0 0 1.862965435634176 0 0 0.5767420426484918 2.10133857327053 14:1 18:1 21:0 38:1 59:1 63:0 65:1 84:1 111:1 127:1 
-0 -0 29.74211730248519 0 0 0 0 9:1 21:0 56:1 60:1 65:1 84:0 86:1 105:1 125:1 
-7.66856135987168 -0 0 12.44256767183375 32 0.3240896369688356 3.292311023769911 9:1 21:0 35:1 39:1 63:0 65:1 84:1 105:1 117:1 
-0.771964938197682 -0.4562568519311277 0 0 0 0 0 9:1 21:1 23:1 42:0 51:1 63:0 105:1 119:1 
-0 -0 0 15.98858012181368 0 0 0 9:1 21:0 23:1 44:1 63:0 72:1 84:1 105:1 118:1 
-0 -0.4779740638754066 0 0 0 0 0 9:1 21:1 23:1 42:0 51:1 63:0 105:1 119:1 
-0 -0 0 0 10.96493619479779 0 0 9:1 21:0 56:1 60:1 72:1 84:0 86:1 105:1 125:1 
-0 -0 0.4568888526255039 0 0 0 0 9:1 21:0 35:1 39:1 51:1 63:0 65:1 84:1 86:1 105:1 119:1 
-9.16585893176906 -16.60647424096364 0 0 1.672177930476739 5.358446106609078 0.869988206032968 9:1 21:0 35:1 39:1 63:0 72:1 84:1 86:1 105:1 117:1 
-19.82725359330153 -0 0 0 0 0 0 9:1 21:0 44:1 72:1 84:0 93:1 105:1 118:1 
-4.21487202227716 -0 20.09235747844978 0.8454578497259437 0 0 0 9:1 21:0 23:1 51:1 63:0 72:1 84:1 105:1 119:1 
-0 -0 0 15.29037048819133 0 0 0 9:1 21:1 30:1 42:0 51:1 63:0 105:1 119:1 
-0.3949643452389469 -0 0 0 0 0 0 9:1 21:1 30:1 42:0 51:1 63:1 105:1 119:1 
-0.02777421408171033 -1.654890641125012 32 0 0 0 0 9:1 21:0 56:1 60:1 72:1 84:0 93:1 105:1 125:1 
-0 -0.2329844331558044 0 0 0 0 0 9:1 21:0 23:1 44:1 63:0 72:1 84:1 93:1 105:1 118:1 
-1.063612250811939 -0 0 0 0 0 0 9:1 21:1 30:1 42:0 51:1 63:1 105:1 119:1 
-4.331790930673344 -0.5747701632427837 32 0.4724773991999436 27.12092667097437 0 0 9:1 21:0 56:1 60:1 72:1 84:0 93:1 105:1 125:1 
-6.442536209510354 -5.950492057179619 0.4022970708347527 2.805681627553889 0 0 0 9:1 21:0 30:1 42:0 51:1 63:0 65:1 84:1 86:1 105:1 119:1 
-0 -0 0 2.019366956303012 0 0 0 9:1 21:0 35:1 39:1 44:1 63:0 84:0 100:1 105:1 118:1 
-3.083568465496371 -0 0 0 0 0 0 9:1 21:0 44:1 79:1 84:0 98:1 105:1 118:1 
-0.9032064598937143 -0 0 0.110726140658772 12.33508652542345 0 0 9:1 21:0 56:1 60:1 65:1 84:0 100:1 105:1 125:1 
-0 -6.677749011970972 31.84005158689108 0 0 0 6.774885791323944 9:1 21:0 56:1 60:1 65:1 84:0 86:1 105:1 125:1 
-5.839083962813016 -1.766426630283428 13.79441748489863 11.48558293915313 6.270702409044259 1.306977482372119 11.04787222497253 9:1 21:0 42:0 44:1 63:0 79:1 84:0 98:1 105:1 118:1 
-32 -0 0 0 0 0 4.152170768216504 9:1 21:0 35:1 39:1 63:0 65:1 84:0 100:1 105:1 117:1 
-1.434664024001822 -3.896041779892784 0 0 0 0 2.223690327126878 9:1 21:0 60:1 65:1 84:0 86:1 105:1 118:1 
-0 -0 5.568790546233884 0.4737206788517244 0 13.32292855596571 0 9:1 21:0 43:1 56:1 60:1 65:1 84:1 105:1 118:1 
-0 -0 0 14.48044958036446 0 0 0 9:1 21:1 23:1 42:0 44:1 63:0 105:1 118:1 
-0 -7.169671652721146 0 5.079128626329473 25.82942997088643 13.32304099010709 0 9:1 21:1 42:0 44:1 63:0 105:1 118:1 
-0 -0 0 0 0 0.02067551738103856 0 9:1 21:0 22:1 35:1 39:1 44:1 63:0 72:1 84:1 105:1 118:1 
-1.902425797214626 -0 4.324922554652358 0 0 0 0.01977011571569835 9:1 21:1 23:1 42:0 51:1 63:0 105:1 119:1 
-13.4656732505702 -0 0 0 0 0 0 9:1 21:0 22:1 35:1 39:1 51:1 63:0 65:1 84:1 105:1 119:1 
-6.19438394195975 -8.175179254499579 0.4081590427190811 0 13.05618673117637 5.145877589020449 0.3632868775774915 9:1 21:1 23:1 42:0 51:1 63:1 105:1 119:1 
-11.90924452366559 -0 20.95640456321533 0 0 0 0 9:1 21:0 43:1 56:1 60:1 72:1 84:0 93:1 105:1 118:1 
-0 -4.492113789457496 0 0.07389661323101629 0 0.497299314480637 0 9:1 21:0 23:1 42:0 44:1 63:0 72:1 84:1 93:1 105:1 118:1 
-2.999202426766467 -0 0 0.5114148437090935 13.06943062422523 5.546091221731496 0 9:1 21:1 30:1 42:0 51:1 63:1 105:1 119:1 
-1.628931391912411 -0 0 0 0 0 0 9:1 21:0 43:1 56:1 60:1 65:1 84:0 100:1 105:1 118:1 
-32 -28.25600356567312 0 0 29.54013255571347 2.621730967581017 32 9:1 72:1 84:0 107:1 117:1 
-11.2259004011057 -0 0 5.368580349230112 0.8486834332881579 0 10.08807123244252 9:1 21:0 51:1 107:1 119:1 
-0 -0 0.4135935169944335 0 0 0 0 9:1 21:0 23:1 51:1 63:0 72:1 84:1 107:1 119:1 
-0 -0 0 2.052553922972356 0 0 0 9:1 21:0 60:1 107:1 118:1 
-0.03514752760663195 -0 0 0 0 0 0 9:1 21:0 60:1 72:1 84:0 93:1 105:1 107:1 118:1 
-0 -0 0 0 0 0 0.1915041026915267 9:1 21:1 30:1 42:0 51:1 63:0 107:1 119:1 
-0 -0 0 0 0 0 0.1872286557901576 9:1 21:1 30:1 42:0 51:1 63:1 107:1 119:1 
-32 -9.949414576187563 -32 0 32 0 0 21:0 56:1 60:1 72:1 84:0 86:1 105:1 125:1 
-32 -0 -32 0.1271485379571115 32 0 0 21:0 56:1 60:1 72:1 84:0 93:1 105:1 125:1 
-32 -29.55168981905947 -32 32 32 17.00801099379063 21.58126577472151 21:0 23:1 42:0 51:1 63:0 79:1 84:1 98:1 105:1 119:1 
-32 -9.541367932936566 -32 0.05067883723142479 32 0 0 21:0 56:1 60:1 65:1 84:0 93:1 105:1 125:1 
-32 -9.550997743498115 -32 17.5845399779435 32 7.617473666816186 21.74081378854828 21:0 56:1 60:1 72:1 84:0 86:1 105:1 125:1 
-32 -14.61101479255711 -32 17.72530879945935 21.91284957389438 17.84627829958337 10.22835274753301 21:0 43:1 56:1 60:1 65:1 84:0 93:1 105:1 118:1 
-8.427375883064467 -0 -3.752296772501697 -0 0 0 0 16:1 21:0 44:1 77:1 84:0 105:1 118:1 
-21.07559484482424 -7.196658595282623 -19.94639331953056 -5.199865451505724 28.26266749130851 16.37945486590653 2.816280657808253 16:1 21:1 30:1 42:0 63:0 77:1 84:1 105:1 117:1 
-32 -0 -20.07935698373949 -3.61822290727722 0 0 0 16:1 21:0 44:1 77:1 84:0 105:1 118:1 
-4.361565509646185 -0.2827020046800056 -7.008034569865166 -14.39585038507983 0 0 6.003961025632689 16:1 21:0 23:1 51:1 63:0 77:1 84:0 98:1 102:1 105:1 119:1 
-1.813899558018487 -0 -0 -0 0 0 0 16:1 21:0 30:1 42:0 44:1 63:0 77:1 84:0 90:1 105:1 118:1 
-0 -0 -0.8269815041469033 -0 0 0 0 16:1 21:0 23:1 44:1 63:0 77:1 84:0 89:1 105:1 118:1 
-0 -5.301236293064152 -14.55669508804791 -23.2550127653285 11.23596860443833 7.366042798870967 0 16:1 21:0 23:1 42:0 51:1 63:0 77:1 84:1 105:1 119:1 
-0 -0 -0.8076948971564792 -0 0 0 0 16:1 21:0 23:1 42:0 44:1 63:0 77:1 84:0 85:1 105:1 118:1 
-12.36975597217987 -1.033880469031714 -14.09603654758618 -10.02577283753801 27.04490757328619 13.23404183512022 5.8348452882518 16:1 21:0 39:1 44:1 63:0 64:1 84:0 94:1 97:1 105:1 118:1 
-17.34758170904481 -9.679461681431755 -8.427066126547299 -4.40973426239398 16.21365022569976 6.109523051687778 0.09764684148335924 16:1 21:0 23:1 44:1 63:0 64:1 84:0 94:1 97:1 105:1 118:1 
-2.587971571549716 -31.38629872524791 -0 -6.10445168596276 32 0.1214641159631861 32 16:1 77:1 84:0 105:1 112:1 117:1 
-10.56739616356151 -28.09305526627782 -0 -0.4787658575053609 32 0.5367251424266961 32 16:1 77:1 84:0 105:0 112:1 117:1 
-0 -0 -32 -32 -0 20.71466414378747 7.005970318159398 21:0 37:1 42:0 56:1 63:0 84:1 105:1 125:1 
-0 -0 -0 -0 -0 0 1.299797816596412 21:1 35:1 42:0 63:0 84:1 105:1 124:1 
-0 -0 -1.358712204279575 -6.195974389891409 -0 0 4.61283643656026 21:1 42:0 63:1 105:1 124:1 
-0 -0 -6.412665084712367 -0 -3.195798251617218 0 0 21:1 37:1 42:1 56:1 63:1 105:1 125:1 
-0 -0 -2.458185339514037 -0 -0 0 0 21:0 37:1 42:0 56:1 63:0 84:1 85:1 105:1 125:1 
-0 -0 -0 -0 -0 0 0.5738667724440639 21:1 35:1 42:0 63:0 64:1 84:1 105:1 124:1 
-32 -0 -0 -0 -0 0 0 1:1 21:1 42:0 63:1 105:1 124:1 
-32 -32 -0.03874083008200328 -0 -4.166602865463116 0 0 14:1 18:1 21:1 37:1 42:0 56:1 63:0 84:1 105:1 125:1 
-13.226375705023 -0 -20.91158069138795 -23.43794184942361 -0 0 0 21:1 35:1 42:0 56:1 60:1 63:1 105:1 124:1 
-0 -0 -1.958615856993381 -0.06248634837930154 -0 1.464760550481515 0 6:1 21:0 37:1 42:0 56:1 63:0 84:1 97:1 105:1 125:1 
-0 -0 -0 -0 -7.674183782557463 0 0 16:1 21:1 42:1 55:1 63:1 73:1 76:1 84:1 105:1 124:1 
-0 -0 -0 -0.1238989633243139 -0 0 0 10:1 13:1 21:1 34:1 42:1 58:1 63:1 105:1 124:1 
-0.6435308235691334 -0 -0 -0 -0 0 0 21:1 35:1 42:0 47:1 63:1 105:1 124:1 
-0 -0 -0 -0 -1.240324259165323 0 0 16:1 21:0 35:1 42:0 43:1 63:0 64:1 84:1 94:1 97:1 105:1 124:1 
-0 -0 -0 -0 -0 11.6793977192099 0 10:1 13:1 21:1 37:1 42:0 43:1 63:1 73:1 84:1 94:1 105:1 124:1 
-0 -0 -0 -0 -0 0.9016454502139247 0 10:1 13:1 21:1 31:1 42:1 52:1 63:1 73:1 76:1 84:1 105:1 124:1 
-0 -0 -0 -0 -0 32 0 10:1 13:1 21:1 31:1 42:1 52:1 55:1 63:1 105:1 124:1 
-0 -0 -0 -0.1709644889264779 -0 0 0.6125388017379637 12:1 21:1 42:1 53:1 63:1 105:1 124:1 
-2.818603035595642 -12.15583875738635 -0 -0.01637716464869309 -0 0 0 12:1 21:1 42:1 58:1 63:1 105:1 124:1 
-0 -0 -6.054453634023681 -0 -0 0 0 13:1 21:1 37:1 42:0 56:1 63:0 84:1 100:1 105:1 125:1 
-0 -0 -0 -0 -4.115513088740014 0 0 16:1 21:1 34:1 42:1 63:1 73:1 76:1 84:1 97:1 105:1 124:1 
-22.5368733718274 -0 -0.9158580382572274 -10.00915833122382 -0 0 0 1:1 21:0 37:1 42:0 56:1 63:0 79:1 84:0 85:1 105:1 125:1 
-0 -0 -0 -4.11803166733504 -31.97767719116481 0 0.03152441945807161 16:1 21:0 35:1 42:0 43:1 63:0 64:1 84:1 94:1 97:1 105:1 124:1 
-30.17526788805228 -2.528979876782874 -0 -0 -0 0 0.8251848100960866 1:1 21:1 22:1 42:0 58:1 63:0 73:1 76:1 84:1 94:1 105:1 124:1 
-0 -0 -0 -0 -0 31.17282056263353 0 10:1 13:1 21:1 37:1 42:0 43:1 63:1 73:1 84:1 94:1 105:1 124:1 
-0 -0 -0 -0 -0 21.95683800291044 0 10:1 21:1 31:1 34:1 42:1 52:1 63:1 73:1 76:1 84:1 94:1 97:1 105:1 124:1 
-0 -0 -0 -0 -0 32 0 10:1 13:1 21:1 31:1 42:1 52:1 63:1 73:1 76:1 84:1 105:1 124:1 
-0 -0 -0 -0.1913564768722532 -0 10.77131403592263 0 10:1 13:1 21:1 31:1 42:1 52:1 55:1 63:1 105:1 124:1 
-32 -32 -32 -4.583073542248902 -0.1940355791170753 0 17.33194143044086 72:1 84:0 105:0 112:1 117:1 
-0 -0 -32 -0 -0 0 0 9:1 21:0 84:0 105:1 112:1 124:1 
-0 -0 -0 -0 -0 0 0.05081772627471461 21:0 51:1 63:0 84:1 112:1 124:1 
-0 -0 -0 -31.14336476194552 -0 0 0 21:0 56:1 60:1 72:1 84:1 112:1 125:1 
-0 -0 -21.58919458026107 -0 -0 0 0 9:1 21:1 35:1 39:1 63:0 112:1 124:1 
-18.53984379486842 -13.00823043433785 -0 -0 -21.31680634303137 2.690109877030163 13.89727521135896 84:0 85:1 105:1 112:1 117:1 
-7.045542020663673 -8.284631245227464 -0 -0 -9.313228194287081 0 8.969824595217105 6:1 84:0 97:1 105:0 112:1 117:1 
-13.19846223218686 -16.40596489071811 -0 -0 -12.58194168505683 0 17.36220984376449 5:1 84:0 112:1 117:1 
-0 -0 -0 -0 -0 0 3.309854565066869 21:0 47:1 112:1 124:1 
-18.83343408976691 -13.00587852270369 -0 -0 -21.26604124060723 2.686723109316854 13.89727521135912 84:0 91:1 105:1 112:1 117:1 
-0 -0 -0 -0 -0 0 0.0590143255301126 21:0 70:1 84:1 112:1 124:1 
-32 -22.48604503403574 -15.00968678649499 -9.383014153174974 -10.72587285292248 1.524749163131877 7.269963447261783 79:1 84:0 93:1 105:1 112:1 117:1 
-0 -0 -0 -0 -12.58718761673416 0 0 16:1 21:0 72:1 84:1 112:1 124:1 
-22.76796024724477 -22.12723921400768 -0 -0 -6.40198094426863 14.52022158349996 8.989569585781087 13:1 84:0 100:1 105:0 112:1 117:1 
-25.31073840601931 -32 -0 -0 -0 0 0 14:1 18:1 21:0 56:1 60:1 84:1 112:1 125:1 
-0 -0 -0 -11.3254283604588 -0 0 0 21:0 56:1 60:1 84:0 87:1 105:1 112:1 125:1 
-0 -0 -0 -11.34016083657091 -0 0 0 21:0 56:1 60:1 84:0 91:1 105:1 112:1 125:1 
-0 -0 -0 -32 -0 0 0 21:0 56:1 60:1 79:1 84:0 93:1 105:1 112:1 125:1 
-0 -9.150236643581854 -0 -0 -0 0 0 9:1 21:1 42:0 58:1 63:0 112:1 124:1 
-0 -0 -0 -5.811618239470347 -0 0 0 21:0 56:1 60:1 74:1 84:0 96:1 105:1 112:1 125:1 
-0 -0 -0 -0 -0 -32 0 10:1 13:1 21:0 37:1 42:0 43:1 63:0 73:1 84:1 94:1 105:1 118:1 
-0 -0 -0 -0 -0 -32 0 10:1 13:1 21:1 31:1 42:1 52:1 55:1 63:1 105:1 120:1 
-27.57111066586255 -17.35840622048554 -24.77583533014061 -24.74899444238731 -21.03835060833135 -32 15.51854716631388 10:1 13:1 21:0 37:1 42:0 43:1 63:0 73:1 84:1 94:1 105:1 118:1 
-7.28675786144701 -5.215177514817185 -4.91265727315911 -4.404192119544073 -10.25413875926769 -0 4.748899137774719 10:1 21:1 22:1 42:0 52:1 55:1 63:0 73:1 84:1 94:1 97:1 105:1 120:1 
-5.468508455374574 -4.164439277818912 -1.205480027483551 -0 -3.060825268895935 -24.2412781610612 0 10:1 21:1 31:1 34:1 42:0 52:1 63:1 73:1 76:1 84:1 94:1 97:1 105:1 120:1 
-0 -0 -0 -0 -0 -31.84196603707705 0 10:1 13:1 21:1 31:1 42:1 52:1 63:1 73:1 76:1 84:1 105:1 120:1 
-15.12865851985439 -15.12436456844228 -16.57318475143421 -13.3185763982588 -9.393937173480406 -32 11.81670712465467 10:1 13:1 21:1 31:1 42:1 52:1 55:1 63:1 105:1 120:1 
-23.77961733445293 -5.683246469316673 -24.38678493924834 -4.782162956622693 -7.053385264960753 -7.865689281129712 -1.671282261135475 17:1 80:1 84:0 98:1 102:1 105:0 107:1 117:1 
-10.603323551474 -0.6629036012431098 -16.07897997046602 -3.835745022834905 -0.642431621029307 -0 -2.684350240203535 17:1 21:0 59:1 77:1 81:1 84:0 86:1 105:1 107:1 127:1 
-27.58056595246141 -32 -10.08985238443593 -13.11279492026174 -32 -32 -4.156984269458351 17:1 77:1 81:1 84:0 86:1 105:1 112:1 117:1 
-2.939555657476109 -15.20852312225418 -5.418353222289552 -0.5329344198486075 -24.63692892583988 -32 -3.048846724206464 17:1 80:1 84:0 101:1 105:0 112:1 117:1 
-0 -0 -0 -4.441577482937519 -1.238662302004225 -8.460281013645746 -1.578041521490735 17:1 21:0 59:1 80:1 84:0 98:1 102:1 105:1 112:1 127:1 
-0 -6.066871152563443 -0 -0.05401982211303374 -5.473808154320772 -6.010212546252728 -2.899894196466256 17:1 21:0 38:1 59:1 63:0 77:1 81:1 84:1 86:1 105:1 112:1 127:1 
-23.30350275736121 -4.012874273288545 -15.2368088092203 -7.76716152993145 -0 -11.84184572721752 -6.331231921392813 17:1 80:1 84:0 101:1 105:0 110:1 117:1 
-0 -0 -0 -4.269048656228352 -0 -0 -1.74358999376347 17:1 21:0 59:1 80:1 84:0 98:1 102:1 105:1 110:1 127:1 
-0 -7.510740890829089 -0 -6.084870787878038 -0 -0 -3.609396027719651 17:1 21:0 38:1 59:1 63:0 77:1 81:1 84:1 86:1 105:1 110:1 127:1 
-5.489962361644797 -5.389755982532209 -0 -6.145175223887259 -6.022994097263127 -7.921436748861643 -3.60417959493709 17:1 80:1 84:0 98:1 102:1 105:0 111:1 117:1 
-0.1264145226850051 -2.47232874712165 -0 -2.524941488259196 -1.684523447758049 -0 -0.7563566779694206 17:1 21:0 59:1 77:1 81:1 84:0 86:1 105:1 111:1 127:1 
