svm_type c_svc
kernel_type rbf
gamma 6.10352e-05
nr_class 5
total_sv 60
rho -2.00292 -0.352258 -0.768258 -2.02497 0.00399756 -0.00166692 0.000303208 -0.250548 0.169248 0.217121
label 10 0 -3 -2 -4
probA -3.93995 -3.33541 -3.35944 -3.68767 -2.79116 -2.95632 -1.38149 -2.60921 -1.88268 -1.69129
probB -0.692602 -0.5983 -0.772055 -0.557677 -0.0204303 -0.194608 -0.758496 -0.111028 -0.288453 -0.194463
nr_sv 27 12 9 8 4
SV
0 0 1369.490412846297 0 7:1 70:1 84:0 
0 0 0 0.1693476331119044 7:1 64:1 84:0 
0 1161.827203705061 1079.26083012018 1184.747746769842 1:1 21:0 49:1 
0 0 262.3222832578934 0 5:1 19:1 70:1 84:0 
88.18862650019182 0 0 0 7:1 21:0 47:1 61:1 
6.197459852830457 0 0 0 5:1 19:1 70:1 84:0 85:1 105:1 
0 0.9943775118556175 0 0 7:1 21:0 47:1 61:1 64:1 84:1 
1246.523692392104 0.917870842141653 783.9689464868973 0 1:1 21:1 26:1 40:1 49:1 63:0 
0 0 7.303120779114012 474.0973100321139 5:1 19:1 84:0 91:1 105:1 
1.505255788536333 4074.37785041995 0 0 7:1 21:0 64:1 84:1 
15096.86309081208 2607.220713087195 0 0 1:1 21:1 49:1 63:0 
0 0 0 1924.236371433897 7:1 21:0 
16398.79285020404 0 1336.350278602385 0 19:1 21:0 63:0 70:1 84:1 
4.559717969003867 0 0 0 7:1 21:1 42:0 61:1 63:0 
0 1539.883063261622 0 1633.54391606474 19:1 21:0 63:0 84:1 91:1 105:1 
0 0 2348.124804851053 191.6728003138955 7:1 79:1 84:0 85:1 105:1 
0 0 238.6466512317217 157.3286532923522 1:1 21:1 28:1 42:0 58:1 63:0 
0.6401302539536757 0 0 0 7:1 21:1 22:1 42:0 49:1 63:1 
16294.65417741528 0 0 0 7:1 21:0 57:1 70:1 84:0 100:1 105:1 
0 462.3056504268674 1428.434076757075 0 5:1 19:1 78:1 84:0 91:1 105:0 
0 0 1014.757991270273 0 7:1 21:0 26:1 40:1 57:1 63:0 79:1 84:0 85:1 105:1 
54.7031593479475 0 364.1452050713376 151.2877194304647 1:1 21:0 36:1 42:0 58:1 63:0 70:1 84:1 91:1 105:1 
5.635862649885994 0 0 0 7:1 21:1 22:1 42:0 49:1 63:1 
0 0 0.6555549014168749 0 1:1 21:1 28:1 42:1 58:1 63:1 
0 0 0 525.3288834432919 5:1 19:1 21:0 38:1 59:1 63:0 70:1 84:1 106:6 
0 0 0 562.7951900903128 7:1 21:1 38:1 42:0 47:1 61:1 63:0 106:6 
0 0 0 0.6058616404408479 7:1 21:1 38:1 42:0 47:1 61:1 63:1 106:6 
-0 0 0 8180.232104369111 68:1 82:1 84:0 91:1 105:1 
-78.75505667211068 0 3.700865675195649 0 21:0 47:1 61:1 70:1 84:1 
-1246.523692392104 2.73592606760284 1179.662023900069 0 21:1 26:1 40:1 49:1 63:0 
-15111.93863114875 4443.403385224891 0 1.343868017218491 21:1 49:1 63:0 
-0 0 5812.707311597502 0 70:1 84:0 
-53.72596536646869 1977.344882984431 4698.013485465613 0 84:0 91:1 105:1 
-16380.74961642864 2130.750968695384 1.167465957419722 1.143254735393584 21:0 70:1 84:1 
-0 0 7.541455468751771 5.503694371981275 84:0 103:1 105:0 
-9.610763919737828 0 0 0.3090580872872977 21:0 82:1 84:0 105:1 
-16270.40025539955 191.0032479785312 0 0 21:0 57:1 70:1 84:0 100:1 105:1 
-35.27084775306138 0 1.953556444005922 0.8461673729133281 21:0 36:1 58:1 63:0 70:1 84:0 100:1 105:1 
-11.28919410535652 723.8753307027107 2338.615999759819 0.9759293593029978 21:0 47:1 61:1 78:1 84:0 91:1 105:0 
-3621.251209216993 -78.27213636750044 1129.787666898002 929.9483168047101 16:1 21:0 49:1 64:1 84:1 
-0 -129.9830566505075 0 0 16:1 21:1 42:0 49:1 63:0 64:1 84:1 
-3617.313371538898 -4944.944765237061 4551.717096677818 2162.575702834927 16:1 21:0 57:1 84:0 91:1 105:0 
-2607.486217854757 -4314.224794585889 2.959279857236614 0.5715956279040757 16:1 21:1 42:0 49:1 63:0 64:1 84:1 
-1.475930644044183 -0 0 0 16:1 21:1 28:1 42:0 49:1 63:0 64:1 84:1 
-0 -0 0 24.35982091321265 16:1 21:0 57:1 64:1 84:0 91:1 105:1 
-0 -0 232.0842379317414 240.997881459729 16:1 21:0 36:1 42:0 49:1 63:0 64:1 84:1 91:1 105:1 
-0 -0 0 0.533704635414729 16:1 21:0 26:1 40:1 57:1 63:0 64:1 84:0 91:1 105:1 
-0 -1.688988812593807 1.058491830940284 0.5700477570111957 16:1 21:1 28:1 42:0 49:1 63:1 64:1 84:1 
-1316.167947432392 -5897.789501554 -5236.540994852606 2291.656088064375 15:1 84:0 91:1 105:0 
-1820.761463031733 -2318.966754432163 -453.775514477445 958.5800729079817 15:1 79:1 84:0 105:0 
-1423.511787095999 -11.95778694677574 -225.4726287805346 310.8361284546492 15:1 70:1 84:0 100:1 105:0 
-0 -1119.678183006877 -0 0 15:1 70:1 84:0 91:1 105:0 
-3363.274787239498 -0 -0 0.8077201949841477 15:1 79:1 84:0 85:1 105:0 
-0 -2330.064100928351 -0 0 15:1 21:0 47:1 61:1 70:1 84:0 100:1 105:0 
-0 -10.63154678643909 -0 0.5711601208946036 15:1 21:0 47:1 61:1 79:1 84:0 85:1 105:0 
-2309.744171376021 -2354.274290613771 -1.817635085152107 340.653570998409 15:1 21:0 26:1 40:1 63:0 70:1 84:0 91:1 105:1 
-1524.339038511989 -8180.875538530656 -1073.748925929387 -1673.001545260272 17:1 68:1 82:1 84:0 91:1 105:1 106:1 
-1325.016765309706 -4.5455160908726 -632.2367571433426 -743.6798881075283 17:1 80:1 84:0 89:1 103:1 105:0 106:1 
-2647.55909011149 -3.589153674459925 -1263.824944490339 -1486.423307373493 17:1 80:1 84:0 101:1 105:0 106:1 
-1308.898906211278 -1.343868017218491 -389.7464424698392 -0 17:1 21:0 38:1 59:1 63:0 68:1 82:1 84:1 91:1 105:1 106:1 
