svm_type c_svc
kernel_type rbf
gamma 0.125
nr_class 4
total_sv 76
rho 0.259461 -0.416558 0.0489169 -1.18089 -0.316301 0.683224
label 10 1 0 8
probA -3.81215 -2.9819 -3.12825 -3.63975 -4.09637 -3.0456
probB 0.0273887 -0.016354 0.25076 0.108976 0.234585 0.00147736
nr_sv 12 43 11 10
SV
0 0.5518357416815627 0.07077330054888169 21:1 77:1 95:1 96:0 103:1 120:1 122:1 132:1 
0.2845023012693039 0.3213179666224361 0.2048967376855458 21:1 93:1 96:0 101:1 119:1 120:0 122:1 132:1 
0.8249349207800301 0.5412353189910404 0.5535999491241993 21:1 93:1 96:0 117:1 120:0 122:1 132:1 
0.5488798043419038 0.384822275221769 0.4081439075507736 21:1 24:0 69:1 93:1 96:0 101:1 119:1 120:1 122:1 142:1 
0.6650247909006847 0.1960167748109286 0.3874652143114821 21:1 24:0 45:1 69:1 72:0 77:1 95:1 96:1 103:1 120:1 122:1 142:1 
0.8736705349546142 1.172427453311512 0.7575891818888575 21:1 77:1 95:1 96:0 103:1 120:1 126:1 132:1 
0.287710098377354 0.3191080243979197 0.1978890095058919 21:1 93:1 96:0 101:1 119:1 120:0 127:1 132:1 
0 0.5485325231345631 0.07482400615163946 21:1 77:1 95:1 96:0 103:1 120:1 127:1 132:1 
0.8211745166993386 0.5475831323984096 0.5545437868352505 21:1 93:1 96:0 117:1 120:0 127:1 132:1 
0.5511213696329944 0.3812751162647662 0.4140968477438213 21:1 24:0 69:1 93:1 96:0 101:1 119:1 120:1 127:1 142:1 
0.6619132436667873 0.2004586388489802 0.3828516184104008 21:1 24:0 45:1 69:1 72:0 77:1 95:1 96:1 103:1 120:1 127:1 142:1 
0.8747181237448703 1.171486613818805 0.7581945855857517 21:1 77:1 95:1 96:0 103:1 120:1 125:1 132:1 
-0.1603154553272378 0 0 5:1 23:1 24:0 69:1 79:1 96:1 122:1 142:1 
-0.3394763635196588 0 0.007686888780175394 5:1 23:1 24:0 45:1 69:1 72:0 79:1 96:1 122:1 142:1 
-0.1452751909520039 0.02388582499014525 0 7:1 24:1 45:1 48:0 53:1 71:1 72:0 122:1 133:1 
-0.05376035435717389 0 0.1163490687845704 5:1 23:1 24:1 45:1 48:0 69:1 72:0 79:1 96:1 122:1 142:1 
-0.157269669478673 0 0.205686796206314 7:1 24:1 45:1 48:0 53:1 71:1 72:1 122:1 133:1 
-0.3917146850012539 0 0.9306503111114325 7:1 73:1 96:0 120:1 132:1 
-0.3335637278698464 1.344246650712458 1.325188110902584 1:1 24:0 55:1 120:1 133:1 
-0 0.6263006178084471 0.7085596468984455 5:1 23:1 79:1 96:0 97:1 120:1 132:1 
-0 0.5225571390764621 1.517854869006856 7:1 24:0 53:1 71:1 73:1 96:1 120:1 133:1 
-0.1842573988455509 0 0.8643043667705382 1:1 24:1 29:1 47:1 55:1 72:0 120:1 133:1 
-0.7614137972016539 4.390123181730945 0 7:1 24:0 120:1 132:1 
-0 6.391245400914358 0 1:1 24:1 55:1 72:0 120:1 133:1 
-0 0.3780330061377041 0 7:1 24:1 72:0 120:1 132:1 
-0 6.053787882918579 0.6558542009339201 23:1 24:0 72:0 79:1 96:1 120:1 132:1 
-0 2.356704462355597 0 7:1 24:1 48:0 71:1 72:0 120:1 133:1 
-0.8265287123518433 1.194225066923706 0.8162723424889081 23:1 24:0 72:0 96:1 103:1 120:1 132:1 
-0.0460780236655623 0 0 7:1 24:1 47:1 48:0 72:1 120:1 132:1 
-0.03346954544068625 0 0 1:1 24:1 31:1 48:0 68:1 72:0 120:1 140:1 
-0.06149926024254401 0.08946494436229196 0.8997120015649769 7:1 24:0 67:1 79:1 96:0 116:1 120:1 140:1 
-0.1027630872023334 0 0.6982174390281181 7:1 24:0 43:1 55:1 72:0 92:1 96:1 97:1 120:1 133:1 
-0 0 0.0566623038628467 1:1 24:1 31:1 48:0 68:1 72:1 120:1 140:1 
-0.432312313057477 0.8765320107052994 0.2922914763137606 5:1 23:1 91:1 96:0 103:1 120:1 132:1 
-0.3421696572775833 0 0.7726240822207262 7:1 24:0 29:1 47:1 67:1 72:0 92:1 96:0 97:1 120:1 140:1 
-0 0.2862101642363085 0.02931363246570457 1:1 24:1 31:1 48:0 68:1 72:0 79:1 96:1 120:1 140:1 
-0.07267406630664013 0 0.006324668876505221 7:1 24:1 44:1 48:0 49:1 72:1 120:1 133:1 
-0.06154017657302022 0 0.36129553605974 5:1 23:1 91:1 96:0 116:1 120:1 132:1 
-0.3787636064560568 0.5732220255679046 0.8083390526996052 1:1 24:0 43:1 48:0 68:1 72:0 79:1 96:1 103:1 120:1 140:1 
-0 0.8290073581133969 0.1585707836965753 7:1 24:1 44:1 48:0 49:1 72:0 79:1 96:1 120:1 133:1 
-0 0.6073926418623403 0.1532745302689257 7:1 24:1 25:1 48:0 55:1 72:1 120:1 133:1 
-0.08402478802326441 0 0 5:1 23:1 96:0 115:1 120:1 132:1 
-0 0.1107358783400458 0 7:1 24:0 48:0 67:1 72:0 79:1 96:1 116:1 120:1 140:1 
-0 0.3628134896585563 0.3130105365585484 7:1 24:1 43:1 48:0 55:1 72:0 92:1 96:1 97:1 120:1 133:1 
-0.3559539114113433 0 0.3644741844209979 1:1 24:1 31:1 48:1 68:1 72:1 120:1 140:1 
-0.0448413891549856 0 0.06225125397115312 5:1 23:1 24:0 69:1 79:1 96:1 126:1 142:1 
-0.0611355348467748 0.02353053478397265 0.09422199178759659 7:1 24:1 45:1 53:1 71:1 72:0 126:1 133:1 
-0.3148778173054372 0 0 5:1 23:1 24:0 45:1 69:1 72:0 79:1 96:1 127:1 142:1 
-0 0.001111790843458788 0 7:1 24:1 45:1 48:0 53:1 71:1 72:0 127:1 133:1 
-0.1740580098486669 0 0 5:1 23:1 24:0 69:1 79:1 96:1 127:1 142:1 
-0.1594221248810464 0.021691672862613 0 7:1 24:1 45:1 53:1 71:1 72:0 127:1 133:1 
-0.06501173507193449 0 0.1253206424937079 5:1 23:1 24:1 45:1 48:0 69:1 72:0 79:1 96:1 127:1 142:1 
-0.1431635756339547 0 0.2028351784806776 7:1 24:1 45:1 48:0 53:1 71:1 72:1 127:1 133:1 
-0.04529292681832071 0 0.06275358093284635 5:1 23:1 24:0 69:1 79:1 96:1 125:1 142:1 
-0.06102280024535323 0.02388582499014387 0.09491022433508274 7:1 24:1 45:1 53:1 71:1 72:0 125:1 133:1 
-0.4074144598926216 -1.286908787340304 1.592152850669826 79:1 96:0 97:1 120:1 132:1 
-0 -0 1.468152724538367 79:1 96:0 120:1 132:1 
-0.4786772887745239 -9.042423350117728 1.796842022801301 24:1 55:1 72:0 120:1 133:1 
-0 -2.531729546245733 1.847205296086644 96:0 103:1 120:1 132:1 
-0.235350658513146 -6.70172141190247 1.188793957216054 24:0 79:1 96:1 120:1 132:1 
-0 -0.006449352393489349 0 96:0 119:1 120:1 132:1 
-2.952949020358886 -0 0.893885973889077 24:0 95:1 96:0 103:1 120:1 132:1 
-1.089550947267006 -1.735518388123619 0 96:0 119:1 120:1 132:1 
-0.04002711143246172 -1.742095010822877 0 24:0 95:1 96:0 120:1 132:1 
-0.4699875992961672 -2.204219409234531 1.330389823786211 24:1 48:0 71:1 72:0 79:1 96:1 120:1 133:1 
-0.6621424939678806 -1.835642313713975 1.852305306111305 24:0 53:1 71:1 91:1 96:0 103:1 120:1 133:1 
-0.6878247603002381 -1.889816094140204 -1.461720839259155 19:1 79:1 96:0 116:1 120:1 132:1 
-0.2010230608144754 -2.127751820216212 -1.00574622801377 20:1 24:0 43:1 55:1 72:0 73:1 96:1 120:1 133:1 
-1.12726251852461 -1.543807134589205 -4.35040237587673 19:1 79:1 96:0 103:1 120:1 132:1 
-0.1076350759205052 -0.7886315314630725 -1.49997379100467 20:1 24:1 31:1 48:0 55:1 72:0 73:1 96:1 120:1 133:1 
-0 -0.6409132804138136 -0.6997503925745747 19:1 24:0 53:1 71:1 79:1 96:0 116:1 120:1 133:1 
-0.3865123208569486 -0.09309768464328623 -0.2019300764008559 20:1 24:0 43:1 48:0 55:1 72:0 73:1 96:1 103:1 120:1 133:1 
-0.7505330050690243 -2.198238680132147 -1.674030576032307 19:1 24:0 53:1 71:1 92:1 96:0 97:1 120:1 133:1 
-0.7985230543275946 -1.883008542165275 -0.9087442312583803 20:1 24:0 29:1 47:1 67:1 72:0 73:1 96:0 103:1 120:1 140:1 
-0.2005275345920709 -0.5232106752159348 -0 19:1 24:0 29:1 47:1 72:0 79:1 96:0 103:1 120:1 132:1 
-0.5050268149370287 -1.01633425894269 -0.1674294446783425 20:1 24:1 31:1 48:0 55:1 72:1 73:1 96:1 120:1 133:1 
