svm_type c_svc
kernel_type rbf
gamma 0.03125
nr_class 7
total_sv 174
rho 0.000635951 0.0761844 -0.334104 0.129061 -0.0772871 -0.484546 0.531663 -0.814961 0.0351354 -0.231032 -1.04603 -1.06356 0.0499677 -0.457972 -1.00461 0.691993 0.147115 -0.761176 -0.284422 -0.936244 -0.397975
label 10 8 1 0 2 7 4
probA -3.58668 -3.91851 -3.7399 -3.52209 -2.7707 -11.1183 -4.22778 -4.00598 -3.98058 -3.10829 -2.57644 -4.32686 -4.22672 -3.41144 -2.62139 -3.88558 -3.80583 -4.25689 -3.14477 -2.40978 -1.72468
probB 0.314839 0.673223 0.441913 0.355324 -0.325606 9.04005 0.220105 0.147736 -0.0268186 -0.69329 -0.292389 -0.201122 -0.198923 -1.05928 -1.63213 -0.207995 -0.0703106 1.20341 -0.7876 -1.44335 -0.661234
nr_sv 16 31 54 36 30 6 1
SV
1.722772141932265 3.468896351428332 0.6493258079440118 3.645715236050103 0.1326656404347246 0.5141180233288165 21:1 90:1 94:1 96:0 99:1 120:1 122:1 132:1 
0.8708803700385834 2.709498615408183 0.3293987813487907 3.937525154878708 0.1300378832506554 0.2578279892249979 21:1 93:1 96:0 114:1 118:1 120:0 122:1 132:1 
0 0 0 0.7139068782441792 0 0 21:1 24:0 69:1 90:1 94:1 96:0 99:1 120:1 122:1 142:1 
1.219961130162256 1.62941327362054 0.6000577131161182 0 0.09913908616387378 0.488430267979372 21:1 90:1 94:1 96:0 99:1 120:1 126:1 132:1 
0.6346561793385603 0.185563927221312 0.3312725095600822 0 0.167906497223976 0.2831262837737793 21:1 93:1 96:0 114:1 118:1 120:0 126:1 132:1 
0 0 0 0.3311646249478706 0 0 21:1 24:0 69:1 90:1 94:1 96:0 99:1 120:1 126:1 142:1 
3.278510597396796 0 4.644099068115967 0 1.528785897401084 0 21:1 90:1 94:1 96:0 99:1 120:1 127:1 132:1 
0.5897299754265894 0 2.431173551148996 0 1.310796947179339 0 21:1 93:1 96:0 114:1 118:1 120:0 127:1 132:1 
3.466000220325172 2.207051033995579 6.469585739431932 1.805895187972642 2.778535423129015 0.6579368047464496 21:1 93:1 96:0 117:1 120:0 127:1 132:1 
0.3110601193232483 0.4314262673853572 0.4070713778252771 0 0.01336171613983486 0.3780880083169521 21:1 24:0 69:1 93:1 96:0 114:1 118:1 120:1 127:1 142:1 
0.6260168374153429 0.3532793109010403 0.3252669016914629 0.2911306537119537 0.954668165516652 0.6456929166460982 21:1 24:0 45:1 69:1 72:0 90:1 94:1 96:1 99:1 120:1 127:1 142:1 
0 0 0.04542421435514003 0 0 0 21:1 90:1 94:1 96:0 99:1 120:1 125:1 132:1 
0 0 0 0 0.01010963094811762 0 21:1 93:1 96:0 114:1 118:1 120:0 125:1 132:1 
1.21709210163716 2.157932449040433 0.4181953034907622 1.784136242940832 0.0588231407065423 0.6607957408521931 21:1 93:1 96:0 117:1 120:0 125:1 132:1 
0.3441677279004899 0.4691392190394966 0.2258078505357217 0 0.05050234101401699 0.3521876740036319 21:1 24:0 69:1 93:1 96:0 114:1 118:1 120:1 125:1 142:1 
1.211257901223994 0.3481577910042996 0.3615378668295873 0.3128882778013799 0.1946188379458289 0.6702034256876532 21:1 24:0 45:1 69:1 72:0 90:1 94:1 96:1 99:1 120:1 125:1 142:1 
-0 1.887252111867318 0 0.4910250828312351 0 0 18:1 22:1 24:0 69:1 75:1 96:1 122:1 142:1 
-0 1.033867135141298 0 0.3239848452424111 0 0 18:1 22:1 24:0 45:1 69:1 72:0 75:1 96:1 122:1 142:1 
-0.2499746933705406 0 0 0 0 0 18:1 22:1 24:0 45:1 69:1 72:0 75:1 96:1 126:1 142:1 
-0 3.516731381690917 0 0.6688001879134026 0 0 18:1 22:1 96:0 120:1 132:1 
-5.762206499853717 1.016756796680875 12.6606993922377 0 3.961535344379714 0 20:1 90:1 96:0 120:0 127:1 132:1 
-1.149494818929324 0 3.749009504319334 0 0 0 18:1 24:0 68:1 96:0 120:1 127:1 140:1 
-1.501203942105318 2.569792423298044 1.528609024094802 0 0 0 20:1 90:1 96:0 120:1 132:1 
-0.7414180637510741 4.118894990209759 0 1.21707873298594 0.004850635400406754 0 20:1 24:0 33:1 48:0 58:1 59:1 72:0 90:1 96:1 120:1 122:1 134:1 
-0.4671778661976867 3.368595514916906 0.5099290703596183 2.494614685823231 0.5700378194542 0.4438496616723782 18:1 24:1 34:1 35:1 48:0 68:1 72:0 96:1 122:1 140:1 
-0 0 2.78131870987793 0 2.321464621560441 0 18:1 22:1 96:0 120:1 127:1 132:1 
-0 0.639740711288568 7.906042053697932 0.9102509147898202 0.1016370363042308 0 18:1 22:1 96:0 120:0 127:1 132:1 
-0 0 0 0 1.123224717774015 0.5479733687622869 18:1 22:1 24:1 45:1 48:0 69:1 72:0 75:1 96:1 127:1 142:1 
-0.01282352929246292 0 0 0 0 0 18:1 22:1 96:0 99:1 120:1 132:1 
-0 22.88995304847189 0.7455261960892058 0.6715362053854997 0 0 18:1 22:1 81:1 96:0 105:1 106:1 120:1 132:1 
-0 0 0.5379564823367762 0.01291267195379557 0 0 18:1 22:1 96:0 105:1 120:1 132:1 
-3.686714154959865 0 1.166115936200073 1.488508982874039 0 0 18:1 22:1 96:0 99:1 120:1 132:1 
-0 0 0.009898946139334177 0.3071437156952042 0 0 18:1 22:1 96:0 105:1 106:1 120:1 132:1 
-0 0 0 0 0 1.610173474411653 20:1 24:0 51:1 90:1 96:0 120:1 133:1 
-0.003093588160105333 0 0 2.285984826634979 0 0 20:1 24:0 27:1 57:1 72:0 90:1 96:1 120:1 134:1 
-0 0 1.087090552859496 2.289506687632219 0.8457795500427434 0.127635636906061 18:1 24:1 33:1 48:0 68:1 72:0 96:1 120:1 140:1 
-0 8.618026393018658 0 0 0 0 18:1 22:1 75:1 96:0 105:1 120:1 132:1 
-0 0 0 1.668910505307034 0 0 20:1 24:0 27:1 48:0 57:1 72:0 90:1 96:0 120:1 134:1 
-0.5171686282807417 3.853309739607657 0.1230788337001229 1.411676286852484 0 0 18:1 22:1 81:1 96:0 99:1 120:1 132:1 
-0.2156303856359934 0 0 0 0 0 20:1 24:0 27:1 51:1 72:0 90:1 96:0 120:1 133:1 
-0 0 0 0.05458483473845817 0 3.312571568952103 20:1 24:0 33:1 48:0 51:1 72:0 90:1 96:1 120:1 133:1 
-0 0 2.332889977895229 0 0.8491449489442529 2.711538853405862 18:1 24:1 27:1 48:0 68:1 72:0 96:1 120:1 140:1 
-0.1110573296271822 4.226843504917266 3.066085285267629 5.50112008650526 0.4158585047863204 1.969712582638065 20:1 24:0 46:1 51:1 72:0 75:1 96:0 120:1 133:1 
-0 14.83716258506224 0 0 0 0 18:1 22:1 75:1 96:0 99:1 120:1 132:1 
-0 5.279813740063629 1.880941551473932 3.614142013477095 0 0 20:1 24:0 27:1 48:0 51:1 72:0 75:1 96:0 120:1 133:1 
-0.8995269356656552 0 0 0 0 0 18:1 22:1 24:0 45:1 69:1 72:0 75:1 96:1 125:1 142:1 
-0.1746148662907911 0 0 0.2207866929904764 0 0.552669079994236 18:1 22:1 24:1 45:1 48:0 69:1 72:0 75:1 96:1 125:1 142:1 
-0 -0 0 1.853517408906759 0 0 3:1 24:1 45:1 48:0 66:1 70:1 72:0 122:1 140:1 
-2.651417308434042 -3.687647086546546 4.971383799787309 3.975885676109307 1.239903243380401 0 22:1 81:1 96:0 122:1 132:1 
-0 -5.690878345020656 2.43832551426887 0 0 0 22:1 81:1 96:0 105:1 106:1 120:1 122:1 132:1 
-0.1569552363791489 -0.5083626818603653 0 0.6870145567738695 0.2758226054147059 0 22:1 81:1 96:0 106:1 107:1 120:0 122:1 132:1 
-0 -5.291661054109906 0.4942408512347374 0.5403908553315769 0 0 22:1 75:1 96:0 105:1 120:1 122:1 132:1 
-0 -0 0 0.3808038006071247 0 0.380674435158271 3:1 24:0 70:1 81:1 96:1 122:1 133:1 
-1.749087519864686 -2.340029224719216 0.6586057968862823 1.079715912677257 0.3493214948891899 0 22:1 75:1 96:0 105:1 120:0 122:1 132:1 
-0.3434711538878182 -0 0 0 0 0 3:1 81:1 96:0 106:1 107:1 120:0 122:1 132:1 
-2.778269837448266 -0 0 0 0.6668632656227962 0 3:1 120:1 132:1 
-0.5217119471639202 -0.3786889606329165 0.4637754325536769 0 0 0 3:1 24:1 45:1 48:0 66:1 70:1 72:0 127:1 140:1 
-0.08484206598501047 -0 5.283376736802561 0 2.682204768256765 0 3:1 24:1 45:1 48:0 66:1 70:1 72:1 127:1 140:1 
-0 -0 3.746508863413043 0 0 0 3:1 24:0 66:1 70:1 81:1 96:1 120:1 140:1 
-0 -0 1.14926000552717 0 0.5177038756962995 0 3:1 24:0 42:1 46:1 72:0 81:1 96:1 120:1 132:1 
-0 -0 0.3593342144820304 0.3541397100605684 0.1141784250547409 0 3:1 24:1 48:0 57:1 72:0 120:1 134:1 
-0 -0 0 0.106599617675415 0 0 3:1 24:1 33:1 48:0 57:1 58:1 72:0 120:1 134:1 
-0 -0.119980725296754 0 0 0 0 3:1 24:0 51:1 120:1 133:1 
-0 -0 0 0.05293476424381494 0 0 3:1 24:1 33:1 48:0 57:1 58:1 72:0 75:1 96:1 120:1 134:1 
-0 -0 0.00140139535706225 0.04145247638927382 0 0 3:1 24:1 33:1 48:0 57:1 58:1 72:1 120:1 134:1 
-0 -0 12.41087145449635 0.04864242062303154 0 0 3:1 24:0 66:1 70:1 81:1 82:1 96:0 105:1 120:1 140:1 
-0 -5.304352047809185 0 0 0 0.3283030926322074 3:1 24:0 51:1 120:1 133:1 
-0 -0 1.622606327641538 0 0 0 3:1 24:0 66:1 70:1 75:1 96:0 105:1 106:1 120:1 140:1 
-0 -0.04269466122770758 0 0 0 0 3:1 24:0 48:0 51:1 72:0 81:1 82:1 96:1 105:1 120:1 133:1 
-0.05993389444749274 -2.193683920335065 0 0 0.7770013716179358 0 3:1 24:1 33:1 48:0 58:1 59:1 72:1 75:1 96:1 120:1 134:1 
-0.08701016457384975 -0.8699801492200739 0.8915016441845055 0.7217069828088056 0.7826763540252155 1.194000172876505 3:1 24:1 34:1 35:1 48:1 51:1 72:1 120:1 133:1 
-1.613998601842724 -0 0 0 0.2791510407192764 0 3:1 92:1 96:0 114:1 120:1 132:1 
-0 -0 0 2.25017491493751 0 0 3:1 24:0 42:1 46:1 57:1 72:0 92:1 96:0 114:1 120:1 134:1 
-0 -0 0 0.3048563754452931 0 0 3:1 24:0 51:1 92:1 96:0 114:1 120:1 133:1 
-0 -4.341346859674386 0 0 0 0 1:1 18:1 22:1 75:1 96:0 99:1 120:1 132:1 
-0 -0 0.3098672903142763 0 0 0 3:1 24:0 49:1 66:1 70:1 75:1 96:0 105:1 120:1 133:1 
-0 -0.02728723623238308 0 0 0 1.157242447309147 3:1 24:0 25:1 42:1 46:1 51:1 72:0 81:1 96:1 120:1 133:1 
-0 -0.5943017385541776 0 0 0 0 1:1 18:1 22:1 81:1 96:0 99:1 120:1 132:1 
-0.05609273480150609 -0.3673265313359243 0 2.722040573028228 0 0 3:1 24:0 25:1 42:1 46:1 57:1 72:0 75:1 96:1 120:1 134:1 
-0 -0 0 0 0 4.454111776836339 3:1 24:1 33:1 48:0 51:1 72:0 120:1 133:1 
-0 -0 4.667061915178857 0 0 0 3:1 24:0 49:1 66:1 70:1 75:1 96:0 105:1 120:1 133:1 
-0 -0.6806035084577849 0 0 0 0 3:1 24:0 25:1 42:1 46:1 51:1 72:0 81:1 96:1 105:1 106:1 120:1 133:1 
-0 -15.84995411514045 0 0 0 0 1:1 18:1 22:1 81:1 96:0 105:1 106:1 120:1 132:1 
-0 -1.066309346656893 0 0.7249824694261459 0 0.4298440522468838 3:1 24:1 33:1 48:0 57:1 58:1 72:0 75:1 96:1 120:1 134:1 
-0 -0 0 2.707961856240433 0.1292273974158515 0 3:1 24:1 33:1 34:1 48:0 51:1 72:1 120:1 133:1 
-0.09759704984240151 -0 0.6144248526379146 0.6627436975986938 0.2954889682994047 0 3:1 24:1 33:1 48:0 57:1 58:1 72:1 120:1 134:1 
-0 -10.51884125026868 0 0 0 0 1:1 18:1 22:1 75:1 96:0 99:1 120:1 132:1 
-0 -0.4279282541986624 2.947477752691524 0 0 0 3:1 24:0 49:1 66:1 70:1 75:1 96:0 105:1 106:1 120:1 133:1 
-0 -0 0 0.7515104567724784 0 0 3:1 24:0 25:1 42:1 46:1 51:1 72:0 81:1 82:1 96:0 105:1 120:1 133:1 
-2.124536287809347 -1.940150403324912 3.838926759263256 1.356508813910456 0.6422771458265707 0.607325253239106 1:1 18:1 22:1 96:0 99:1 120:1 132:1 
-0 -0.5445205430969098 0 0 0 1.738604022363517 3:1 24:0 48:0 51:1 72:0 81:1 82:1 96:1 105:1 120:1 133:1 
-0 -1.505367809568777 1.408057428067564 0 0.3489771887239305 0 1:1 18:1 22:1 96:0 105:1 120:1 132:1 
-0.1577853329934286 -0 0 0.9121354243013765 0 0 3:1 24:0 48:0 57:1 72:0 92:1 96:0 114:1 120:1 134:1 
-0 -8.86926529948494 5.974951637956567 4.800448119430313 0.7129749626020621 0.7509364556758266 22:1 75:1 96:0 116:1 120:1 132:1 
-0.04605839167452631 -0 0.161672006819073 0 0 0 3:1 24:0 70:1 92:1 96:0 99:1 120:1 133:1 
-0 -0 0.007536643528522399 0.01472211656958367 0 0 3:1 24:0 27:1 48:0 68:1 72:0 96:1 120:1 140:1 
-0 -0 0 2.395148250314176 0 0 3:1 24:0 66:1 70:1 75:1 96:0 116:1 120:1 140:1 
-0.5882083894246286 -1.113927978071814 1.023385822146519 1.278032988113226 0 0 3:1 24:0 42:1 46:1 51:1 72:0 92:1 96:0 99:1 120:1 133:1 
-0.2552501106245022 -3.581650345389921 0.9532774523921215 0.7882032802169866 0 0.6646555539178092 3:1 24:0 27:1 48:0 68:1 72:0 96:1 120:1 140:1 
-0.364399116692354 -0 0 0 0 0 3:1 24:1 45:1 48:0 66:1 70:1 72:0 125:1 140:1 
-0.2237330951549188 -0 0 0 0 0 3:1 24:1 45:1 48:0 66:1 70:1 72:1 125:1 140:1 
-0 -1.659588042818997 -0 0 0 0 24:0 127:1 132:1 
-0.4532672535958581 -1.722342475753058 -2.946538786682642 6.370690725418412 0 0 24:0 42:1 46:1 72:0 96:1 120:1 132:1 
-0 -0 -0.01843013473159759 0 0 0 24:1 48:0 72:1 120:1 132:1 
-0 -0 -0 0 0 0.06518752151440942 24:1 42:1 48:0 72:0 96:1 127:1 132:1 
-0 -0 -0 0 10.19034432532276 0 24:1 48:0 72:1 127:1 132:1 
-0 -1.611440606480407 -0 0 0 0 24:0 44:1 66:1 72:0 96:0 120:1 140:1 
-0.08571806178807695 -0 -1.985038139774357 0 0 0 24:0 42:1 48:0 72:0 96:1 120:1 132:1 
-0 -0.8494709587698378 -1.61116776055958 0 0 4.011028636992137 24:1 48:0 72:0 96:1 120:1 132:1 
-0 -0 -2.518305109170467 0 0 0 24:1 48:0 72:1 120:1 132:1 
-0.05073554554628748 -0.004971822815090032 -2.985713286527845 1.709598699146976 0.1975322836105957 0 24:1 44:1 48:0 66:1 72:1 122:1 140:1 
-3.304070290938315 -5.96542757363903 -0 0 0 0 24:0 96:0 120:1 127:1 132:1 
-0 -0 -0.01540974584519561 0 0 0 24:0 72:0 96:1 109:1 113:1 120:1 127:1 132:1 
-9.181098180862662 -18.41218939413998 -7.944766370654041 0.3803657482965325 0 0 24:0 127:1 132:1 
-0 -0.03476102158216145 -0 0 0 0 24:0 42:1 46:1 72:0 96:0 120:1 127:1 132:1 
-0.264357296439785 -0 -0.02779954061662215 0 3.109560583503591 0 24:0 48:0 72:0 96:1 109:1 113:1 120:1 127:1 132:1 
-0.2037683333375946 -0 -0 0.1781702786973333 1.890826509326856 0.09807583311424055 24:1 48:0 72:0 85:1 89:1 96:1 127:1 132:1 
-0 -0 -0 0.5791141546840266 0 0 24:1 42:1 46:1 72:0 127:1 132:1 
-0.2607370978561232 -0.6038256087368031 -0 0.7488018374626054 0.1589794977271879 0 24:0 42:1 46:1 72:0 96:0 109:1 113:1 120:0 127:1 132:1 
-0.4195608456483709 -0.7715130525606234 -0.993814983941314 0.3638505030450213 2.041432975372112 0 24:0 48:0 72:0 85:1 89:1 96:0 109:1 120:1 127:1 132:1 
-0 -1.248832598442035 -7.12950067963388 0 0 0 24:0 66:1 70:1 75:1 96:0 105:1 120:1 140:1 
-0.5835651359875114 -0 -0.9129440354709353 0.2971203509308759 0 0 24:0 66:1 70:1 81:1 96:0 99:1 120:1 140:1 
-0 -0.3974532903911963 -1.876709071023075 0 0 0 24:0 66:1 70:1 81:1 96:0 105:1 106:1 120:1 140:1 
-0.6481090713280064 -0.759994940116005 -0 2.813313984025697 0 0 24:0 66:1 70:1 75:1 96:0 99:1 120:1 140:1 
-0 -0.1402804317112764 -12.6479726529209 3.306354360996527 0 0 24:0 66:1 70:1 81:1 82:1 96:0 105:1 120:1 140:1 
-0 -0.8754399383361264 -0 0 0 0 24:1 44:1 48:0 66:1 72:0 120:1 140:1 
-0 -0.02038521007571957 -0.02840680606765424 0 0 0 24:1 48:1 72:1 120:1 132:1 
-0.006050272841726503 -0 -0 0 0 0 24:1 42:1 48:1 72:1 120:1 132:1 
-0 -0 -0 0 0 4.825538999669282 24:1 44:1 48:0 66:1 72:0 96:1 120:1 140:1 
-0 -0.4046509467602248 -5.138531711978337 0 0.2249450655468323 0.6002159714255547 24:0 49:1 66:1 70:1 81:1 96:0 105:1 106:1 120:1 133:1 
-0.4673979124523313 -1.48603115848682 -5.027877555237509 21.43366855929875 0.02557801556498589 0.8390905356353303 24:0 49:1 66:1 70:1 75:1 96:0 99:1 120:1 133:1 
-0.5291810326648103 -0 -0 0.4092151160609737 0 0.2877565839552668 24:0 49:1 66:1 70:1 81:1 96:0 99:1 120:1 133:1 
-0 -0 -0 0 0.6483519717435422 0 24:1 44:1 48:0 66:1 72:1 96:1 120:1 140:1 
-0 -0 -0 0 0.1129076845104616 0 24:1 42:1 48:1 72:1 96:1 120:1 132:1 
-0 -0.02376870998183292 -0.01390865432060171 0 0 0 24:1 27:1 48:0 72:1 96:1 120:1 136:1 
-0.3483507363807312 -3.092823734951879 -0.8117134221508664 1.936436339520868 1.036049227190862 1.468393498456929 24:1 27:1 48:0 72:1 96:1 120:1 136:1 
-0.4322496177256556 -0 -1.763283150323905 1.521972502511654 0 0 24:1 48:1 72:1 120:1 132:1 
-7.479804166139112 -2.386188329955192 -5.767953972124332 -1.776864669291493 2.853859780790389 0 9:1 122:1 132:1 
-0 -0 -0.3930447503322895 -0 0 0 9:1 24:0 51:1 82:1 83:1 96:0 105:1 106:1 120:1 122:1 133:1 
-0 -1.688555766157179 -0.01274826942290536 -0 0 0 10:1 11:1 24:0 27:1 57:1 72:0 81:1 82:1 96:1 122:1 134:1 
-0 -0.308099557438429 -1.888455419254211 -1.066556497752551 0 0.1531395617841449 10:1 11:1 24:0 46:1 57:1 72:0 81:1 82:1 96:1 122:1 134:1 
-0 -0.6024307422115913 -0 -0 0 0.6581803809729858 9:1 24:0 46:1 51:1 72:0 82:1 83:1 96:1 105:1 106:1 120:1 122:1 133:1 
-0 -0 -0 -0.5933398782194652 0.1811601256770172 0 10:1 11:1 24:1 27:1 48:0 57:1 72:0 81:1 82:1 96:1 122:1 134:1 
-1.409594667797547 -1.616655509394571 -2.174463587135395 -1.536802086531653 0 0 10:1 11:1 24:0 27:1 57:1 72:0 92:1 96:0 114:1 120:1 122:1 134:1 
-0 -6.016865091543578 -0.3409738295383544 -0 0 0 9:1 24:0 51:1 120:1 133:1 
-0 -0 -0 -1.219704245017773 0 0 9:1 24:1 42:1 46:1 51:1 72:0 120:1 133:1 
-0 -0 -2.564899735940861 -0 1.254312002509919 8.099606517480481 9:1 24:1 48:0 51:1 72:0 120:1 133:1 
-0 -3.790392912374966 -1.840390993070528 -5.524563442002002 0.9745103887457767 0.3399314422312056 9:1 24:0 42:1 46:1 72:0 75:1 96:1 120:1 132:1 
-0 -0 -0.03299168517807568 -0 0 0 9:1 24:0 66:1 70:1 81:1 82:1 96:0 99:1 120:1 140:1 
-0.3898054148499066 -0.2090425811701834 -0.6853900831064337 -4.294487441375919 0 0 9:1 24:0 66:1 70:1 81:1 82:1 96:0 99:1 120:1 140:1 
-0.747270623230058 -0 -0.184955291765729 -0.007661621695724119 0 0 9:1 24:0 42:1 46:1 72:0 81:1 82:1 96:1 99:1 120:1 132:1 
-0 -0 -0 -0 0 0.09253989683049357 9:1 10:1 24:0 42:1 46:1 51:1 72:0 81:1 96:1 106:1 107:1 120:1 133:1 
-0 -0.006524532747171446 -0.008150773076097748 -0 0 0 10:1 11:1 24:1 33:1 34:1 48:0 57:1 72:1 120:1 134:1 
-0.8469625655503181 -2.923947554275292 -1.526133021566658 -0 0 1.745203500252261 10:1 11:1 24:1 33:1 34:1 48:0 57:1 72:0 75:1 96:1 99:1 120:1 134:1 
-0.5962855555879362 -0 -1.336957290536665 -0 0 0 9:1 24:0 51:1 92:1 96:0 114:1 120:1 133:1 
-0 -0 -0.9071066199236193 -0 0 0 9:1 24:0 42:1 46:1 51:1 72:0 92:1 96:0 114:1 120:1 133:1 
-0 -2.035130893434304 -4.161254578134605 -1.71171840544468 0.2025111981589848 0 9:1 24:0 66:1 70:1 75:1 96:0 116:1 120:1 140:1 
-0 -3.124727301381403 -0 -0 0 0 9:1 24:1 27:1 48:0 51:1 72:0 120:1 133:1 
-0.567823101424894 -0.2133626849090291 -0.3793800145763942 -20.59372370495715 0 0 9:1 24:0 49:1 66:1 70:1 75:1 96:0 99:1 120:1 133:1 
-0 -0 -0.08751795631942064 -0 0 2.259988052482614 9:1 24:1 27:1 48:0 51:1 72:0 81:1 82:1 96:1 120:1 133:1 
-0 -0 -0.03535225756116878 -0 0 0 9:1 24:0 49:1 66:1 70:1 81:1 82:1 96:0 99:1 120:1 133:1 
-0.3139762319538346 -0 -0.343140596640775 -0.1544766733279249 0.3623219037527424 0 9:1 24:0 25:1 42:1 46:1 72:0 81:1 82:1 96:1 99:1 120:1 132:1 
-0 -0.2205749983890227 -2.462996522016938 -2.184782472117586 1.119952395183184 0 10:1 11:1 24:1 33:1 34:1 48:0 57:1 72:1 120:1 134:1 
-0 -0 -0 -0 0.1304850971221823 0.2956289190706618 9:1 10:1 24:1 27:1 48:0 51:1 72:0 81:1 96:1 106:1 107:1 120:1 133:1 
-0 -0 -0 -0 0.6696598406343665 0 9:1 24:1 27:1 48:0 57:1 58:1 72:1 82:1 83:1 96:1 120:1 134:1 
-0.3171331405143475 -0.4900695042506698 -1.030054382946291 -1.383992022362325 0.5822678986421652 0 10:1 11:1 24:1 33:1 34:1 48:1 57:1 72:1 120:1 134:1 
-0.1537067894997121 -0 -3.347961888343954 -0 0 0 9:1 24:0 25:1 42:1 46:1 72:0 75:1 96:0 116:1 120:1 132:1 
-3.791944359928078 -5.358383381967903 -5.602726968303617 -12.1922053177573 -4.319788885573856 2.00328196833763 13:1 17:1 24:1 48:0 72:1 127:1 132:1 
-2.481360634323232 -2.835848418825944 -1.759789618268108 -3.323051887550539 -1.897171819967532 1.09076860345889 13:1 17:1 24:0 48:0 72:0 85:1 96:1 109:1 120:1 127:1 132:1 
-0.9380764972838118 -1.860205110403469 -1.429974020165394 -2.400956788454653 -1.413944758665215 1.594725237370912 13:1 24:1 48:0 61:1 65:1 72:0 85:1 96:1 109:1 113:1 120:1 127:1 139:1 
-0 -0 -0.5735169578877948 -1.720294145657293 -0.3724606663231048 0.2131242092018419 13:1 24:1 37:1 41:1 48:0 61:1 72:1 85:1 89:1 96:1 109:1 113:1 120:1 127:1 139:1 
-0 -0 -0 -0 -0 0.07941481917918496 13:1 17:1 24:1 37:1 48:1 61:1 72:1 85:1 89:1 96:1 127:1 139:1 
-0.2185697155185377 -0.1390962674490101 -0.4477645429202303 -0 -0.3276745006870196 0 13:1 17:1 24:1 37:1 48:1 61:1 65:1 72:1 127:1 139:1 
-4.908407134559943 -11.27612422674264 -11.70569726225561 -12.19528758076315 -13.64421827110485 -4.981314837548458 24:1 44:1 48:0 51:1 72:0 96:1 120:1 133:1 
