svm_type c_svc
kernel_type rbf
gamma 0.03125
nr_class 5
total_sv 189
rho 0.0399366 0.251082 -0.0182702 0.131695 0.511764 0.094993 0.0513948 -0.803909 -0.131235 0.370422
label 10 -3 5 0 -4
probA -5.10987 -5.25134 -5.05838 -4.35457 -5.05216 -4.63775 -4.1617 -4.9775 -4.50226 -4.11887
probB -0.364221 0.0785425 -0.368528 -0.778052 0.28723 -0.0774214 -0.570563 -0.403732 -0.984181 -0.485033
nr_sv 38 45 51 28 27
SV
1.099672322927666 0 4.514557336737177 0 6:1 21:0 48:1 63:0 79:1 84:1 94:1 97:1 105:1 118:1 
1.049977909096561 0 3.89904528794214 0 6:1 21:0 27:1 63:0 79:1 84:1 94:1 97:1 105:1 117:1 
0 0 3.266324712951845 0 6:1 21:0 48:1 63:0 79:1 84:0 94:1 97:1 105:1 118:1 
0 0 3.760649305895025 0 6:1 21:0 27:1 63:0 79:1 84:0 94:1 97:1 105:1 117:1 
0.5519106288240438 0 6.116861527568822 0 6:1 21:0 48:1 63:0 79:1 84:1 104:1 105:1 118:1 
0.4506951631933899 0 3.168579373860286 0 6:1 21:0 27:1 63:0 79:1 84:1 104:1 105:1 117:1 
0 0 3.631189213825562 0 6:1 21:0 69:1 84:0 100:1 105:1 117:1 
0 0 1.27465417918084 0 6:1 21:0 48:1 63:0 79:1 84:0 104:1 105:1 118:1 
0.5300665705507223 0.6332751416570366 3.393877942408223 7.885015961376821 6:1 84:0 90:1 105:1 117:1 
0 0 2.371594709547334 0 6:1 21:0 27:1 63:0 79:1 84:0 104:1 105:1 117:1 
0 0 0.2092862413600081 0.07561592799652887 6:1 21:0 59:1 69:1 84:1 107:1 127:1 
0 0 0 1.575713611737188 6:1 21:0 38:1 59:1 63:0 69:1 84:1 107:1 127:1 
0.1441127792125947 0 0 0 6:1 21:1 38:1 42:0 48:1 63:0 107:1 118:1 
0 0 0 0.1866903921481878 6:1 21:1 38:1 42:0 59:1 63:0 69:1 84:1 107:1 127:1 
0.03721179552324765 0 0.3278422891399987 0 6:1 21:1 38:1 42:0 48:1 63:1 107:1 118:1 
0 0 0.192488099215902 0.01146030328520407 6:1 21:0 59:1 69:1 84:1 112:1 127:1 
0 0 0 1.76581260130796 6:1 21:0 38:1 59:1 63:0 69:1 84:1 112:1 127:1 
0.04110305686420174 0 0 0 6:1 21:1 38:1 42:0 48:1 63:0 112:1 118:1 
0 0 0 0.08134060095765255 6:1 21:1 38:1 42:0 59:1 63:0 69:1 84:1 112:1 127:1 
0.1407444157338039 0 0.342223195969344 0 6:1 21:1 38:1 42:0 48:1 63:1 112:1 118:1 
0 0 0.180895414956611 0.3731762487066388 6:1 21:0 59:1 69:1 84:1 110:1 127:1 
0 0 0 1.307937831030071 6:1 21:0 38:1 59:1 63:0 69:1 84:1 110:1 127:1 
0 0 0 0.1435209404073645 6:1 21:1 38:1 42:0 59:1 63:0 69:1 84:1 110:1 127:1 
0.1802241652471437 0 0.359478434853321 0 6:1 21:1 38:1 42:0 48:1 63:1 110:1 118:1 
0 0 0 0.01388108413268717 6:1 79:1 84:0 94:1 97:1 105:1 111:1 117:1 
0 2.770949297985891 0 0 6:1 79:1 84:0 94:1 97:1 105:0 111:1 117:1 
0 0 0.2175539837616399 0.3612476500502875 6:1 21:0 48:1 79:1 84:0 94:1 97:1 105:1 111:1 118:1 
0.7626781482933583 0 0 0 6:1 21:0 48:1 79:1 84:0 94:1 97:1 105:0 111:1 118:1 
0 1.752036076666714 0 0 6:1 79:1 84:0 104:1 105:0 111:1 117:1 
0 0 0.1095783727481663 0.1547434810552542 6:1 21:0 48:1 79:1 84:0 104:1 105:1 111:1 118:1 
0.8201950463891734 2.037659136544123 0 1.544493068966098 6:1 69:1 84:0 100:1 105:0 111:1 117:1 
0.01473640022725564 0 0 0 6:1 21:0 48:1 79:1 84:0 104:1 105:0 111:1 118:1 
0.8771193629497674 1.93043633841732 0.04873520040296371 0 6:1 21:0 59:1 69:1 84:1 111:1 127:1 
0 0 0 0.1493156629460544 6:1 21:0 38:1 59:1 63:0 69:1 84:1 111:1 127:1 
1.690770850093625 0.2547306125976669 0 0 6:1 21:1 38:1 42:0 48:1 63:0 111:1 118:1 
0 0 0.06548426191389711 0.1926076855951829 6:1 21:1 38:1 42:0 59:1 63:0 69:1 84:1 111:1 127:1 
0.1985107963009974 2.556204998803972 0.1324620886491918 0 6:1 21:1 38:1 42:0 48:1 63:1 111:1 118:1 
5.190090199224517 7.38420114839243 0 0 6:1 105:1 117:1 
-0.07933127261413046 0 1.977060547741873 0.2598006020298762 16:1 21:0 48:1 73:1 76:1 84:1 105:1 118:1 
-0.9038141892694397 0 1.017553008584249 0.08898626673157695 16:1 21:0 48:1 73:1 76:1 84:0 94:1 97:1 105:1 118:1 
-0 0.3989505320804272 0 0 16:1 21:1 27:1 42:0 48:1 63:0 73:1 76:1 84:1 105:1 118:1 
-0.4178687700582612 0 0 0 16:1 21:1 42:0 48:1 63:0 73:1 76:1 84:1 105:1 118:1 
-0 0.004144578985291622 0 0 16:1 21:0 42:0 48:1 63:0 73:1 76:1 84:1 94:1 97:1 105:1 118:1 
-0 0.3967139078722521 0 0 16:1 21:1 27:1 42:0 63:0 73:1 76:1 84:1 105:1 117:1 
-0.5455930325136606 0.7438742162035265 0.7018540301908349 0.2483920601624091 16:1 21:1 42:0 63:0 73:1 76:1 84:1 105:1 117:1 
-0.459224983433706 0 0.7631426868998989 0.2796428166955351 16:1 21:0 27:1 63:0 73:1 76:1 84:1 105:1 117:1 
-0 0.01251884870739711 0 0 16:1 21:0 27:1 42:0 63:0 73:1 76:1 84:1 94:1 97:1 105:1 117:1 
-0.2809380398845984 0.1392915307291067 0.7830596388004625 0 16:1 21:0 27:1 63:0 73:1 76:1 84:0 94:1 97:1 105:1 117:1 
-0.341907557618524 0 0.5813495694553895 0.288002111859139 16:1 21:0 42:0 63:0 73:1 76:1 84:0 97:1 105:1 117:1 
-1.044042033166529 0.08659342670874969 1.717374238893982 0.01178129535621948 16:1 21:0 48:1 83:1 84:0 94:1 97:1 105:1 118:1 
-0.02973162261797115 0 0 0 16:1 21:1 42:0 63:0 83:1 84:1 105:1 117:1 
-0 0.1044902480478844 0 0 16:1 21:0 27:1 42:0 63:0 83:1 84:1 94:1 97:1 105:1 117:1 
-0.1797144939967087 0.03864251344099375 0.3075001201927933 0 16:1 21:0 42:0 63:0 83:1 84:1 94:1 97:1 105:1 117:1 
-0.4465958322757226 0.01488491804904285 0.6251743333898565 0 16:1 21:0 27:1 63:0 83:1 84:0 94:1 97:1 105:1 117:1 
-0 0 1.857257448467327 0.3045234524835362 16:1 21:0 48:1 83:1 84:1 105:1 118:1 
-1.04886263430243 0 2.347355001156034 0.1814636050055881 16:1 21:0 48:1 83:1 84:0 104:1 105:1 118:1 
-0 0.1865165171634773 0 0 16:1 21:1 27:1 42:0 48:1 63:0 83:1 84:1 105:1 118:1 
-0.5799330895488678 0.5328414052067255 0 0 16:1 21:1 42:0 48:1 63:0 83:1 84:1 105:1 118:1 
-0 0 0.03596776250658099 0 16:1 21:0 27:1 63:0 83:1 84:1 105:1 117:1 
-0 0.4901336196894648 0 0 16:1 21:1 27:1 42:0 63:0 83:1 84:1 105:1 117:1 
-1.073794117156771 0.3916258284347937 1.715432749165812 0.4311874615460313 16:1 21:1 42:0 63:0 83:1 84:1 105:1 117:1 
-0.1743689359943408 0 0.9223497484737189 0.3770954612292163 16:1 21:0 27:1 63:0 83:1 84:1 105:1 117:1 
-0.7794783520236436 0 1.712344821462399 0.02566568920236419 16:1 21:0 27:1 63:0 83:1 84:0 104:1 105:1 117:1 
-0.6344163876846194 0 0.7231542110242404 0.4133409979311933 16:1 21:0 42:0 63:0 83:1 84:0 97:1 105:1 117:1 
-1.375718767443121 7.975261143531336 0.6602976539650465 2.152110767960913 16:1 73:1 76:1 84:0 111:1 117:1 
-0 0.810490594247661 0 0.1544950948846028 16:1 73:1 76:1 84:0 94:1 97:1 105:1 111:1 117:1 
-0 0.813111948422731 0 0 16:1 73:1 76:1 84:0 97:1 105:0 111:1 117:1 
-0.3657989709502927 0 0 0 16:1 21:0 48:1 73:1 76:1 84:1 111:1 118:1 
-0 0 0 0.05155726722708129 16:1 21:0 48:1 73:1 76:1 84:0 94:1 97:1 105:1 111:1 118:1 
-0 0.4317484763406638 0 0 16:1 21:0 48:1 73:1 76:1 84:0 97:1 105:0 111:1 118:1 
-0 0.1451097767499008 0 0 16:1 21:0 27:1 48:1 63:0 73:1 76:1 84:1 94:1 97:1 105:1 111:1 118:1 
-0 0 0.02077703885470892 0.02862628521149228 16:1 83:1 84:0 111:1 117:1 
-0 0.2868359275470218 0 0.2213575584236912 16:1 83:1 84:0 94:1 97:1 105:1 111:1 117:1 
-0.0123536820647614 0 0 0 16:1 21:0 48:1 83:1 84:1 111:1 118:1 
-0 0.2020885085363001 0 0 16:1 21:0 48:1 83:1 84:0 94:1 97:1 105:1 111:1 118:1 
-0 0.08490172757354067 0 0 16:1 21:0 27:1 48:1 63:0 83:1 84:1 94:1 97:1 105:1 111:1 118:1 
-2.315595861309375 5.476643782694498 0.4304889273084568 3.558455054023907 16:1 83:1 84:0 111:1 117:1 
-0 0.4949569527147673 0 0.8871962632411331 16:1 83:1 84:0 104:1 105:1 111:1 117:1 
-0 1.785160220395832 0 0 16:1 83:1 84:0 97:1 105:0 111:1 117:1 
-0.690736984724595 0 0 0 16:1 21:0 48:1 83:1 84:1 111:1 118:1 
-0 0.1210561375628728 0 0 16:1 21:0 48:1 83:1 84:0 104:1 105:1 111:1 118:1 
-0 0.02554564294330105 0 0 16:1 21:0 48:1 83:1 84:0 97:1 105:0 111:1 118:1 
-0 0.00837429221338425 0 0 16:1 21:0 27:1 48:1 63:0 83:1 84:1 104:1 105:1 111:1 118:1 
-0 -0 0 0.1238946006269631 10:1 13:1 21:0 27:1 58:1 63:0 73:1 76:1 84:1 105:1 126:1 
-0.6327565954528067 -0 0.3634737238802362 0.1353101421472783 13:1 21:1 37:1 42:0 52:1 55:1 63:0 105:1 123:1 
-0.1017628969907896 -0 0.1192888331932248 0 10:1 13:1 21:0 27:1 58:1 63:0 76:1 84:0 94:1 97:1 105:1 126:1 
-0 -0.03483599700619874 0 0 10:1 13:1 21:1 27:1 42:0 58:1 63:0 73:1 76:1 84:1 105:1 126:1 
-0.06860637014260958 -0 0 0 10:1 13:1 21:0 27:1 42:0 58:1 63:0 76:1 84:1 94:1 97:1 105:1 126:1 
-0 -0 14.01639814447333 0 13:1 21:1 37:1 42:0 52:1 55:1 63:1 105:1 123:1 
-0.03210078628014624 -0 0 0.3018277616715703 13:1 21:1 37:1 42:0 52:1 55:1 63:0 84:1 105:1 123:1 
-0.02686087693613884 -0 0 0 10:1 13:1 21:0 42:0 58:1 63:0 76:1 84:1 94:1 97:1 105:1 126:1 
-0 -0.3936326740110334 0 0 13:1 21:1 37:1 42:0 52:1 55:1 63:0 73:1 76:1 84:1 97:1 105:1 123:1 
-0.01771374393079845 -0 0 0 10:1 13:1 21:0 42:0 58:1 63:0 76:1 84:0 94:1 97:1 105:1 126:1 
-0 -0 0.1252722173720082 0 10:1 13:1 21:1 31:1 34:1 42:0 55:1 63:0 76:1 84:1 105:1 123:1 
-0 -0 0.311833769264179 0 20:1 21:0 27:1 58:1 63:0 76:1 84:0 94:1 97:1 105:1 126:1 
-0.1805608461110516 -0 0.5788062859272673 0.02053773668289535 13:1 21:1 34:1 42:0 52:1 55:1 63:1 105:1 123:1 
-0 -0.738042759133291 0 0 20:1 21:1 27:1 42:0 58:1 63:0 73:1 76:1 84:1 105:1 126:1 
-0.01557112010352479 -0 0 0 20:1 21:0 42:0 58:1 63:0 76:1 84:1 94:1 97:1 105:1 126:1 
-0 -0.1483841141182992 0 0 13:1 21:1 37:1 42:0 62:1 63:0 73:1 76:1 84:1 97:1 105:1 123:1 
-0.1602653247755468 -0 1.863295844409893 0.2488139521154314 13:1 21:1 34:1 42:1 52:1 55:1 63:1 105:1 123:1 
-0.3493690013114967 -0 0 0 20:1 21:0 42:0 58:1 63:0 76:1 84:0 94:1 97:1 105:1 126:1 
-0.3543883136262787 -0.3993612517846234 0 0.06819329904122774 13:1 21:1 34:1 42:0 52:1 55:1 63:1 84:1 105:1 123:1 
-0.03641278016750443 -0 0.2611123345175921 0.2407099981025928 20:1 21:0 27:1 58:1 63:0 83:1 84:1 105:1 126:1 
-0 -0 0.3813240108961442 0 20:1 21:1 27:1 42:0 58:1 63:0 105:1 126:1 
-0.4798807481008781 -0 0.06532064555317044 0.3893524417078005 13:1 21:1 37:1 42:0 62:1 63:0 105:1 123:1 
-0 -0 0 0.0860068739613748 20:1 21:0 27:1 58:1 63:0 76:1 84:0 104:1 105:1 126:1 
-0.8341313580142556 -0 0 0 13:1 21:1 34:1 42:0 62:1 63:1 105:1 123:1 
-0.173032647980756 -0 0.4977860836131021 0 20:1 21:1 27:1 42:0 58:1 63:1 105:1 126:1 
-0 -0.4611445721025328 0 0 20:1 21:1 27:1 42:0 58:1 63:0 83:1 84:1 105:1 126:1 
-0.05858957590593591 -0 0 0.03239455638147388 20:1 21:0 27:1 42:0 58:1 63:0 76:1 84:1 104:1 105:1 126:1 
-0.6871974281190032 -0 0 0 20:1 21:1 42:0 58:1 63:1 105:1 126:1 
-0 -0 27.57915274586688 0 20:1 21:1 37:1 42:0 62:1 63:1 105:1 123:1 
-0.3470253641564734 -0 0 0.3948283587314732 20:1 21:0 42:0 58:1 63:0 83:1 84:1 105:1 126:1 
-0 -0 15.34484811736477 0 13:1 21:1 37:1 42:0 62:1 63:1 105:1 123:1 
-0 -0 0 0.1106948202831049 13:1 21:1 37:1 42:0 62:1 63:0 84:1 105:1 123:1 
-0.3774722484842865 -0 0 0.05965577600942552 20:1 21:0 42:0 58:1 63:0 76:1 84:1 104:1 105:1 126:1 
-0 -0.8023434667099545 0 0 13:1 21:1 37:1 42:0 62:1 63:0 83:1 84:1 97:1 105:1 123:1 
-0 -0 2.020233616162125 0 20:1 21:1 41:1 42:0 55:1 63:1 76:1 84:1 105:1 123:1 
-0.2345854781826003 -0 0.8716082116115446 0.2108339936576988 13:1 21:1 34:1 42:1 62:1 63:1 105:1 123:1 
-0.8099183955295836 -0 0.598823074148204 0 13:1 21:0 37:1 42:0 62:1 63:0 83:1 84:1 97:1 105:1 123:1 
-0 -0 0.05783613240755714 0 20:1 21:1 41:1 42:0 55:1 63:0 76:1 84:1 105:1 123:1 
-0.02480339798463112 -0.0487895602645045 0 0.1764082552218495 13:1 21:1 34:1 42:0 62:1 63:1 84:1 105:1 123:1 
-3.528266596225797 -0 0.1107232732452462 2.944622325080217 10:1 13:1 111:1 117:1 
-0 -4.330920030579071 0 0 10:1 13:1 73:1 76:1 84:0 111:1 117:1 
-0.1066725947393759 -0.1479895558540278 0 0.2461617691495797 10:1 13:1 76:1 84:0 97:1 105:1 111:1 117:1 
-0.399992431644533 -0.7852693264867175 0 0 10:1 13:1 76:1 84:0 94:1 97:1 105:0 111:1 117:1 
-0 -0.3227852414456476 0 0.09755774990712546 13:1 21:0 52:1 55:1 73:1 76:1 84:0 97:1 105:1 111:1 123:1 
-0 -4.50997861233327 0 0 20:1 73:1 76:1 84:0 111:1 117:1 
-0.2476174786790006 -0.4671963056434335 0 0 20:1 76:1 84:0 94:1 97:1 105:0 111:1 117:1 
-8.087134718403806 -0 1.860203537000291 6.366679919502902 20:1 111:1 117:1 
-0 -6.841656743934156 0 0 20:1 83:1 84:0 111:1 117:1 
-0.946803633085545 -0.5898635207059141 0.2864940741482025 0.8079360226181961 20:1 76:1 84:0 97:1 105:1 111:1 117:1 
-0 -0.06551597792300359 0 0 13:1 21:1 41:1 55:1 63:0 111:1 123:1 
-0 -1.114797512757269 0 0.3829614890292364 13:1 21:0 62:1 83:1 84:0 97:1 105:1 111:1 123:1 
-0.004694363573147167 -0 -0 0 69:1 84:0 90:1 105:1 117:1 
-0.1432613743977841 -0 -0 0 21:0 48:1 79:1 84:0 94:1 97:1 105:1 118:1 
-4.946653660887045 -2.260074169709713 -0.3542469780823843 0.2826334880329862 21:0 48:1 63:0 79:1 84:1 94:1 97:1 105:1 118:1 
-3.675654203219434 -2.212159437322813 -1.301410027628672 0.3247913351636383 21:0 27:1 63:0 79:1 84:1 94:1 97:1 105:1 117:1 
-0.1732574155578696 -0.2354489947358366 -14.40982618398095 0.08242556264900966 21:1 37:1 42:0 52:1 55:1 63:1 105:1 123:1 
-0.1869808267455049 -0.180290909436343 -1.212247912781107 0.268412426952139 21:1 31:1 34:1 42:0 52:1 55:1 63:1 105:1 123:1 
-0 -0.104928550061149 -0 0 21:1 31:1 34:1 42:0 55:1 63:1 105:1 123:1 
-4.353156185547219 -0 -0 0 21:0 27:1 63:0 79:1 84:0 94:1 97:1 105:1 117:1 
-2.405680061525823 -0 -0 0 21:0 48:1 79:1 84:0 94:1 97:1 105:1 118:1 
-0.2777914111862146 -0 -0 0 21:0 48:1 79:1 84:0 104:1 105:1 118:1 
-0 -0.4000525610467784 -0 0 21:0 48:1 63:0 79:1 84:1 104:1 105:1 118:1 
-0.1484881864482661 -0 -0 0 21:0 27:1 63:0 79:1 84:1 104:1 105:1 117:1 
-0.03712113893553852 -0.05810551688475103 -22.78946335121375 0 21:1 37:1 42:0 62:1 63:1 105:1 123:1 
-0.03068528616049919 -0 -0 0 21:0 27:1 63:0 79:1 84:0 104:1 105:1 117:1 
-0.01559663592507202 -0.06596506606665352 -0.9342943110477707 0.009284148515426423 21:1 41:1 42:0 52:1 55:1 63:1 105:1 123:1 
-0.2828463399893518 -0.3115063074789524 -1.460713879747285 0.2259440710691744 21:1 31:1 34:1 42:1 55:1 63:1 105:1 123:1 
-0 -0 -0 0.002654391285164941 21:0 48:1 69:1 84:0 100:1 105:1 118:1 
-3.69341923285515 -0.4591182776154539 -0.9169950293178685 24.4718604999899 69:1 84:0 90:1 105:1 117:1 
-0 -0 -0 0.3226494470643034 21:0 48:1 69:1 84:0 100:1 105:1 118:1 
-5.972580243008403 -0.6668684237946255 -0 0.1129149939470501 21:0 48:1 63:0 79:1 84:1 104:1 105:1 118:1 
-3.539351260177622 -2.049067126717157 -0.887978403693331 0.3385907363590411 21:0 27:1 63:0 79:1 84:1 104:1 105:1 117:1 
-0.1932668861677085 -0.4349497313708015 -19.88642765068647 0.1694838875800203 21:1 37:1 42:0 62:1 63:1 105:1 123:1 
-0.2968751679262936 -0.5006702315260255 -0.6138348673241207 0.1122229668284296 21:1 41:1 42:0 62:1 63:1 105:1 123:1 
-1.462073219863978 -4.005795399395036 -0.3033126346376011 0 69:1 84:0 105:1 117:1 
-2.842095554609519 -4.789168129889386 -0.8603935848539924 0.0269191882498815 21:0 48:1 84:0 100:1 105:1 118:1 
-2.546789067105919 -0 -0 0 21:0 27:1 63:0 79:1 84:0 104:1 105:1 117:1 
-0.2582342540257327 -0 -0 0 21:0 48:1 79:1 84:0 104:1 105:1 118:1 
-0.09680919704920025 -0.1653247034821893 -1.382689860059677 0.1296687920848616 21:1 41:1 42:1 55:1 63:1 105:1 123:1 
-0.8237830992593607 -0.2988017799074708 -0.1558618935635363 -6.268224318127531 17:1 69:1 84:0 90:1 105:1 107:1 117:1 
-0.4907778304425254 -0 -0 -0 17:1 80:1 84:0 90:1 105:0 107:1 117:1 
-0.01787110452492474 -0 -0.1100397309145108 -0 17:1 21:0 59:1 69:1 84:0 90:1 105:1 107:1 127:1 
-0.7847895818896337 -0.3824569622044444 -0.3569089225762648 -0.2406623441877375 17:1 80:1 84:0 101:1 105:0 107:1 117:1 
-0 -0 -0 -0.05037306164434558 17:1 21:0 59:1 80:1 84:0 90:1 105:1 107:1 127:1 
-1.724136815296974 -0.2343399716945003 -0.2501772491600652 -0.1628892747694861 17:1 21:0 38:1 59:1 63:0 69:1 84:1 90:1 105:1 107:1 127:1 
-0 -0.01536653476209812 -0 -0.02249642279285405 17:1 69:1 84:0 90:1 105:1 112:1 117:1 
-0 -0.04407844464023348 -0 -0 17:1 80:1 84:0 101:1 105:0 112:1 117:1 
-0 -0 -0 -0.01655989776679733 17:1 21:0 59:1 80:1 84:0 90:1 105:1 112:1 127:1 
-0.7744201021906617 -0.2598158386984585 -0.1729682879067634 -6.170714863628151 17:1 69:1 84:0 90:1 105:1 112:1 117:1 
-0.520256775293059 -0 -0 -0 17:1 80:1 84:0 90:1 105:0 112:1 117:1 
-0.004645246008062372 -0 -0 -0 17:1 21:0 59:1 69:1 84:0 90:1 105:1 112:1 127:1 
-0.7912015130914105 -0.3395359944190973 -0.3670328377110835 -0.2973872633039794 17:1 80:1 84:0 101:1 105:0 112:1 117:1 
-0 -0 -0 -0.01142600115853194 17:1 21:0 59:1 80:1 84:0 90:1 105:1 112:1 127:1 
-1.776291996351447 -0.2637696978239771 -0.3328427459020532 -0.2057272673591185 17:1 21:0 38:1 59:1 63:0 69:1 84:1 90:1 105:1 112:1 127:1 
-0.8185631036790997 -0.2714765029725826 -0.1450059035846131 -6.258175882829834 17:1 69:1 84:0 90:1 105:1 110:1 117:1 
-0.406543937740758 -0 -0 -0 17:1 80:1 84:0 90:1 105:0 110:1 117:1 
-0.2460281557698857 -0 -0.09415065348815377 -0 17:1 21:0 59:1 69:1 84:0 90:1 105:1 110:1 127:1 
-0.8551362116704517 -0.3762818026547948 -0.3829515614516595 -0.2456573287995089 17:1 80:1 84:0 101:1 105:0 110:1 117:1 
-0 -0 -0 -0.0568552581661882 17:1 21:0 59:1 80:1 84:0 90:1 105:1 110:1 127:1 
-1.50728148398119 -0.2702203405385576 -0.2542215378542286 -0.1581819567171868 17:1 21:0 38:1 59:1 63:0 69:1 84:1 90:1 105:1 110:1 127:1 
-2.311376447744146 -2.821943955193424 -3.820984672832705 -6.255301154450293 17:1 69:1 84:0 90:1 105:1 111:1 117:1 
-0.3477263316851451 -0.6000603297455745 -1.307333193448597 -0 17:1 80:1 84:0 90:1 105:0 111:1 117:1 
-0.1001291513859449 -0 -0.1000762518584095 -0 17:1 21:0 59:1 69:1 84:0 90:1 105:1 111:1 127:1 
-1.103915688104831 -3.564884798527808 -5.264694302932837 -0.2193307472800902 17:1 80:1 84:0 101:1 105:0 111:1 117:1 
-0 -0 -0 -0.09043498496036863 17:1 21:0 59:1 80:1 84:0 90:1 105:1 111:1 127:1 
-0.4176984755896718 -0.2206471574224852 -0.3301320964439344 -0.1500579078290314 17:1 21:0 38:1 59:1 63:0 69:1 84:1 90:1 105:1 111:1 127:1 
