svm_type c_svc
kernel_type rbf
gamma 0.03125
nr_class 6
total_sv 153
rho -0.056067 -0.133095 -0.335414 -0.134629 -0.319255 -0.127703 -0.192441 -0.0534457 -0.136294 0.0457885 -0.0297417 0.142236 0.0349111 -0.230943 0.110375
label 10 0 2 -3 1 -4
probA -4.64976 -4.96449 -4.22952 -4.84889 -3.45248 -4.59463 -3.93892 -4.54491 -3.38455 -4.28302 -4.79915 -3.93006 -4.20919 -2.8431 -3.64416
probB -0.283918 0.0375605 -0.664882 -0.0825816 -1.28287 0.333122 -0.321975 0.216942 -0.884387 -0.638894 -0.159747 -1.02421 0.597911 -0.610893 -0.969173
nr_sv 42 31 28 17 30 5
SV
0 0 0 0 0.4283800218720611 1:1 2:1 3:1 13:1 49:1 
1.849275080809972 3.017795046761289 0 7.694851708620879 0 1:1 33:1 34:1 35:1 45:1 
0.1325632151576132 0 0.1544745835510736 0 0.8811539957685607 1:1 33:1 34:1 35:1 45:1 49:1 50:1 
1.260012844904815 0 0 1.376016560812441 0 1:1 2:1 17:1 18:1 19:1 29:1 33:1 
0.9902095520956545 5.198547601414742 0 0 0 1:1 33:1 34:1 35:1 45:1 57:1 60:1 73:1 
0.08034630749356421 0.9377903574811829 0.4420837451183722 0.2446072936858386 0.350576152770518 1:1 17:1 18:1 19:1 29:1 49:1 50:1 73:1 76:1 
0 0 0.150059752507943 0 0 1:1 2:1 33:1 57:1 60:1 73:1 
0 0 1.169523596292906 0 0 1:1 33:1 34:1 35:1 45:1 49:1 50:1 73:1 76:1 
0 1.695757084728631 0 0 0 1:1 2:1 17:1 18:1 19:1 29:1 33:1 57:1 60:1 73:1 
0 0.534564713234339 0 0.4620228409562178 0 1:1 17:1 47:1 57:1 60:1 73:1 
0 0 1.069652336675823 0 0 1:1 17:1 47:1 49:1 50:1 73:1 76:1 
0 0 0.04555841464240694 0 0 1:1 2:1 31:1 33:1 57:1 60:1 73:1 
1.425910668097634 0.603117748427045 0 0 0 1:1 33:1 34:1 35:1 45:1 57:1 73:1 76:1 
2.316332896840196 0.4040333015698147 0.479612147388162 0.3372592072014586 0.222122882888361 1:1 17:1 18:1 19:1 29:1 49:1 50:1 73:1 
0 0 0.06200143476944305 0 0 1:1 2:1 33:1 57:1 73:1 76:1 
0 0.3459746285096078 0 0 0 1:1 2:1 17:1 18:1 19:1 29:1 33:1 57:1 73:1 76:1 
0 0 0.006586602925149511 0 0 1:1 63:1 65:1 66:1 
0.600655699530283 0.4026306856759738 0 0.2564283730584404 0 1:1 17:1 47:1 57:1 73:1 76:1 
0 0 0.1452366923892588 0 0 1:1 17:1 47:1 49:1 50:1 73:1 
0 0 0.3105577073044939 0 0 1:1 2:1 31:1 33:1 57:1 73:1 76:1 
0 0.4779496729890411 0 0 0 1:1 2:1 17:1 18:1 19:1 29:1 57:1 73:1 
0 0 0.003467604877365307 0 0 1:1 79:1 
0 0 0.2411518457103843 0 0 1:1 56:1 72:1 
0 0.3531798498220715 0 0 8.106882504837335 1:1 72:1 
1.298138787123079 0.04238763639582931 0 0.03881295916765534 0 1:1 63:1 72:1 
1.11110185596924 0.4336223799009435 0.1749103107052406 0.1444131474078711 0 1:1 79:1 
0 0 0.2818636631146964 0 1.144705549748201 1:1 47:1 49:1 50:1 73:1 
0 0 2.412812430031373 0 0 1:1 56:1 
0.0411801390088058 0 0 0 0 1:1 56:1 72:1 
10.87550547840789 0.04319950310991333 7.953148739608625 6.467297636121976 0 1:1 56:1 72:1 
0 1.195157625990149 0 0 0 1:1 57:1 
0.9092908414349992 0.4381910789526735 1.01142671044999 0.3420373332857938 0 1:1 63:1 65:1 66:1 
0 0 0 0.0816629349055724 0 1:1 2:1 17:1 47:1 57:1 
1.347472557149239 0 0 0 1.216339160406788 1:1 63:1 65:1 
0 0 0.5632698766110691 0.1138865181686923 0 1:1 17:1 47:1 49:1 50:1 73:1 
0 0 0 0.06278756403466147 0 1:1 2:1 3:1 13:1 56:1 72:1 
0 2.532459381768795 0 0 0 1:1 
0.2413891286044678 0 0.9063785919062817 0 1.387906780447489 1:1 2:1 3:1 13:1 49:1 65:1 66:1 
12.59402828183058 0 0 0 0 1:1 33:1 34:1 35:1 45:1 49:1 50:1 73:1 
0.7840275662540104 0 0 0 0 1:1 2:1 17:1 18:1 19:1 29:1 33:1 57:1 
0 0.003592781433402421 0.008630463502011541 0 0 1:1 32:1 48:1 56:1 
0.3654980581124267 0.4365732640329156 0.3343234618312141 0.9062540453198786 1.139853370225921 1:1 32:1 48:1 56:1 
-0 9.984294792031974 0 0 0 33:1 
-1.353366759636123 0.5802641318484277 2.028551734065392 0.2224419621187123 0.2458893612379713 49:1 50:1 51:1 61:1 73:1 76:1 
-0.7844358765125783 0 0.7413817967750829 0.4215525458925091 0.3368305594137405 33:1 34:1 35:1 45:1 49:1 65:1 66:1 
-0 0 0 0 0.2347809195827928 49:1 50:1 51:1 61:1 65:1 
-12.82131322622001 0 0.7332110285814448 0.06833651595454691 0 33:1 34:1 35:1 45:1 49:1 50:1 73:1 
-3.478433042393701 16.40634564293405 0 0.3722887153881404 0.1562135089457886 33:1 34:1 35:1 45:1 57:1 73:1 
-0 0 1.689615684596664 0 0 33:1 56:1 
-0 0.1989588008754147 0.38511151415226 5.155865151763501 0 17:1 40:1 
-0.03282745737232842 0 0 0 0 49:1 79:1 
-0.1151442321187574 0 0 0 0 33:1 79:1 
-0.01093247065146962 0 0 0 0 31:1 40:1 
-0.2959199123230924 0.7562829772902094 0 4.061515418256193 0.1833163631177109 31:1 40:1 
-0.08574516806736791 0 0 0 0 65:1 
-0.101850141051563 0 0 0 0 17:1 18:1 19:1 29:1 56:1 
-0.3394150180086905 0 8.493297535930809 0 0 56:1 
-2.830449732673675 2.122351955033731 0.234976381693907 4.85343839484171 0 17:1 18:1 19:1 29:1 56:1 
-0.07987021212275441 0 0 0 0 56:1 72:1 
-0 0 13.76312705079462 4.954255255237178 0 33:1 56:1 72:1 
-0.7519401948850536 0.1293102781777534 0.4170528042192659 0 0.1491185718435135 49:1 79:1 
-0 0.4051989767410364 1.991616306669824 0 0 49:1 
-0.2373887716319604 0.3330436132708662 0 0 0 33:1 79:1 
-1.240546847835077 0 0.4099226902635849 0.04972895747014221 0.1587286949331205 17:1 63:1 72:1 
-1.858187869586936 0 0 0 0.1298596188244911 33:1 63:1 72:1 
-1.911443488725364 1.030469701410039 1.056304444668902 0 2.159925415160033 65:1 
-0 0 0.1504389450157588 0 28.59552570127121 49:1 72:1 
-0 1.656657510786837 0 9.425755170267239 0 33:1 34:1 35:1 45:1 
-1.383162187704329 2.122350921938248 0 0 0 17:1 18:1 19:1 29:1 72:1 
-8.20263246626476 0 1.912012826173925 0 0 56:1 72:1 
-0 0 0 1.845575267204334 0 33:1 34:1 35:1 45:1 72:1 
-0 0 0.4933665653827022 1.653798582210749 0.4194906345323716 17:1 18:1 19:1 29:1 56:1 72:1 
-0.3079338830388874 0.2820014523134472 0 4.220748358545155 0.1901030732576016 24:1 40:1 
-0.02706850410801068 -0 0 0 0 9:1 12:1 33:1 34:1 35:1 45:1 57:1 73:1 
-0.1292274345745548 -0 0.2586203549816175 0.09126173669502856 0 9:1 12:1 17:1 18:1 19:1 29:1 33:1 57:1 73:1 
-0.02604500165801854 -0 0 0 0 9:1 17:1 41:1 44:1 57:1 73:1 76:1 
-0.2628969154388938 -0.3382330295453692 0 0 0.02459846973996093 9:1 12:1 33:1 34:1 35:1 45:1 57:1 73:1 
-0.4229149007674693 -0.4193692228584702 0 0.1624985675539789 0.2284832324507188 9:1 17:1 18:1 19:1 29:1 41:1 44:1 57:1 73:1 76:1 
-0.1968671871519916 -0.2728503580626576 0.4215238193104851 0 0.09776499265815924 9:1 12:1 31:1 33:1 57:1 73:1 
-0.2642795050066205 -0 0.7671355959385343 0 0 9:1 17:1 41:1 44:1 57:1 73:1 76:1 
-0.02729014600176354 -0 0 0 0 9:1 17:1 18:1 41:1 44:1 57:1 73:1 76:1 
-1.437324515668627 -0 0 0.2191134599905286 0.06015773116899972 9:1 17:1 18:1 19:1 29:1 33:1 57:1 60:1 73:1 
-4.820845451932612 -0.2495218994221994 0 0 0.05890048440950577 9:1 33:1 34:1 35:1 45:1 57:1 60:1 73:1 
-0 -0 0 0 0.07044171701737784 9:1 12:1 17:1 18:1 19:1 29:1 41:1 57:1 73:1 
-0 -0.3070031463811904 0 0 0.04316631213525051 9:1 31:1 33:1 57:1 60:1 73:1 
-0.3058779720160646 -0.06266352877341554 0.2891747295507122 0.00692334554368451 0.224381924321804 9:1 25:1 28:1 41:1 57:1 60:1 73:1 76:1 
-0 -0 0 0 0.01461143722492892 9:1 12:1 25:1 41:1 57:1 60:1 
-0 -0 0 0.1708693197318024 0.1744579988873904 9:1 12:1 25:1 41:1 44:1 
-1.056079495678906 -0 0.6159107966527643 0 0.04405743393099171 9:1 57:1 60:1 73:1 76:1 
-0 -0 0 0 0.07453591533650113 9:1 12:1 25:1 28:1 41:1 44:1 57:1 
-0.08820184280833407 -0.3085382142696325 0.02897036780813395 0.2378351953304996 0.1467344680286799 9:1 25:1 28:1 41:1 44:1 
-0 -0.09003748206125084 0 0 0 9:1 33:1 34:1 35:1 45:1 57:1 73:1 
-1.656162322984286 -1.80587948819671 0.4055638632840829 0.4310919743318538 0 9:1 17:1 18:1 19:1 29:1 57:1 73:1 
-0.02668399087444222 -13.6445972950472 0.2122242242487604 0 0 9:1 33:1 34:1 35:1 45:1 57:1 73:1 
-0 -0.3714558480012677 0 0.3959057856574908 0 9:1 17:1 18:1 19:1 29:1 41:1 57:1 
-4.304406987266551 -4.716361561569898 4.587292921990738 6.886515997662777 10.23617053385819 9:1 
-0 -8.404917373889509 5.243539799597614 0 0 9:1 33:1 
-0 -0 0 0 0.1028218597393238 9:1 31:1 33:1 34:1 
-3.481011702993374 -3.152772963912004 0.08115908773963318 8.156195077226295 0.3364318716769674 9:1 33:1 34:1 35:1 45:1 
-0.4815804431832967 -1.863329342661268 0 1.192395042271921 0.225172664855826 9:1 17:1 18:1 19:1 29:1 33:1 34:1 
-0.08176002208454064 -0 0.8344768449559379 0 0 9:1 17:1 33:1 34:1 
-0.004987716383110819 -0 -0 0 0 15:1 33:1 49:1 50:1 73:1 76:1 
-2.781902050002733 -1.112037449484533 -0 0.3469715987019849 0 15:1 33:1 49:1 50:1 73:1 76:1 
-0 -1.163751629327877 -1.80440529668302 0.1659816762729641 0.3871812287250552 15:1 33:1 49:1 73:1 76:1 
-0 -0 -2.140461134500157 0 1.296366415980899 15:1 33:1 49:1 73:1 
-0 -0.2866242259266645 -0 0 0 15:1 33:1 56:1 
-0.358894106137714 -0.6087499083863268 -0 0 0 15:1 17:1 56:1 
-0.8406111952162714 -9.77497838865896 -2.24730415231759 0 0 15:1 56:1 
-0 -0.3971430008068544 -2.786830271364261 5.049012671694395 0 15:1 33:1 56:1 
-1.931313814632159 -0 -2.170083735685538 2.473275507210073 0 15:1 17:1 56:1 
-0 -1.274230264118624 -0 0 0 15:1 33:1 56:1 72:1 
-0.5631513292084277 -1.222190320834074 -0 0 0 15:1 56:1 72:1 
-7.337599108245636 -0.3612466485325334 -0 0.02885849635199145 5.617546649436104 15:1 56:1 72:1 
-0 -12.53150554474077 -0.3603936657443298 2.660824883193417 0 15:1 33:1 56:1 72:1 
-0.4815031781158311 -1.377604756348323 -0.1366525893574726 5.941096389356901 0.3819497667949717 15:1 17:1 56:1 72:1 
-1.556299322405644 -2.038793656137909 -0.6929081345928911 0.1970395011765999 1.671635255138878 15:1 49:1 50:1 73:1 
-2.070468891565759 -2.044834460270287 -1.352675067613242 0.3155214003829322 4.392702488619004 15:1 49:1 65:1 66:1 
-0 -0.3062970554104058 -0.05387835820051314 0.293495734401158 0 15:1 33:1 49:1 65:1 66:1 
-0 -2.848104611210286 -0.4321464456362685 -0.117971634073311 0 8:1 17:1 
-0.790846126678539 -0.2180788525271717 -0 -0.0526629214298894 0 8:1 17:1 47:1 
-0 -0 -0.3131755803601152 -0.1042332003599311 0.3083323523281173 8:1 47:1 
-0.02008197166362398 -0 -0 -1.747481910142829 0 8:1 17:1 56:1 
-0 -0.1479976539010291 -0 -0 0 8:1 31:1 40:1 
-0.06464422974139857 -0 -0 -0.196712751355798 0 8:1 17:1 47:1 56:1 
-0.136463053135341 -0 -0 -0 0 8:1 47:1 56:1 
-0 -3.894770604387779 -0 -0.01774938612474179 0.2427130837658776 8:1 31:1 40:1 
-0 -0.06234183196282168 -0 -0 0 8:1 33:1 56:1 72:1 
-0.1279968629133651 -2.122213918014792 -0.005207164006508046 -5.782747117709259 0 8:1 17:1 56:1 72:1 
-0 -0 -0 -0.01410193273485964 0 8:1 33:1 56:1 72:1 
-0 -0.01300516003528371 -0 -0 0 8:1 47:1 56:1 72:1 
-0.2613745090550122 -0.3219528232156916 -0.1663520371903316 -0.1428611523343596 0.1783521994566952 8:1 17:1 47:1 56:1 72:1 
-0.1236253067627631 -0 -0.06851963159701577 -0.006839567763456029 0.10307019339915 8:1 47:1 56:1 72:1 
-0 -0 -0 -0.1932905293710495 0 8:1 31:1 40:1 56:1 
-0 -0 -0 -1.828108672034767 0 8:1 33:1 56:1 72:1 
-0 -0 -5.295225705123265 -0 7.073559459350335 8:1 
-0.1211537127299764 -0 -0 -0 0 8:1 56:1 
-5.92342853670771 -0 -0 -0 2.932960296221382 8:1 56:1 72:1 
-0 -0 -0.4316397415529103 -0.2949289154191341 0 8:1 33:1 
-0 -0 -0 -4.762885308127846 0 8:1 33:1 56:1 
-0 -4.331089573576191 -0 -0.573325882519747 0 8:1 33:1 56:1 72:1 
-7.319297871191851 -10.87645296513311 -8.253715514235536 -0.2292015697780553 0.1666036846369552 8:1 33:1 34:1 35:1 45:1 
-0.1359818439703379 -0 -0 -0 0 8:1 33:1 34:1 35:1 45:1 56:1 
-1.541250067588158 -2.590566561415653 -2.057940022992804 -0.1976814899326746 0.4738266221950162 8:1 17:1 18:1 19:1 29:1 40:1 
-0.3597086978986539 -1.377726354173143 -0.2904752940746922 -0.2924746567210769 0.2714726783474495 8:1 33:1 34:1 35:1 45:1 56:1 72:1 
-0.3446786947812847 -3.824121339504733 -0.1175706236266512 -0.2243551601789086 0 8:1 17:1 18:1 19:1 29:1 40:1 56:1 
-0 -4.204695559788872 -0 -0.2079055157714921 0.2491269175966904 8:1 24:1 40:1 
-0 -0 -0 -0.009654995955786002 0 8:1 32:1 33:1 
-1.257806637929362 -0.4721824863035497 -0.5186377415997598 -0.4749035889034475 0.7131816621769068 8:1 32:1 33:1 
-7.765262122253962 -29.49063814851346 -4.777852489972257 -8.249200225421845 -5.570461480552741 16:1 49:1 72:1 
-3.572629097241937 -2.58134744020875 -3.410400920495419 -4.219598730388324 -3.187991409715188 16:1 64:1 65:1 
-1.714019462299814 -0.2319577050292184 -3.485402823800977 -0.5738194573491084 -3.18799140971519 16:1 64:1 80:1 
-0.3050959198093257 -0.1372679022153796 -0.07444713474189495 -0.115035768101795 -0 16:1 48:1 64:1 65:1 
-1.520913817360195 -0.5185712261535436 -0.4147856784300292 -0.5897276234338396 -0.7667548494914558 16:1 32:1 48:1 49:1 72:1 
