svm_type c_svc
kernel_type rbf
gamma 0.03125
nr_class 6
total_sv 288
rho -0.407153 -0.147432 -0.21133 -0.211572 -0.13594 0.218168 0.0900078 0.34505 0.0726544 -0.169518 -0.1507 -0.0277654 0.0826183 0.04519 0.142138
label 10 -3 2 1 0 -4
probA -4.44868 -5.00323 -4.82454 -4.83833 -4.30209 -4.17134 -4.09511 -5.02106 -3.58983 -4.56675 -4.39423 -4.00867 -5.05995 -4.01369 -4.66219
probB -0.471717 -0.102279 -0.170531 -0.0829394 -0.648221 0.415164 0.519301 0.0745032 -0.175223 -0.0110325 0.112607 -0.525619 0.238909 -0.492456 0.448887
nr_sv 75 28 43 59 59 24
SV
0 0 0 0 0.1071075982670933 1:1 21:0 58:1 64:1 84:0 94:1 105:1 108:1 126:1 
0 0.1017139543601148 0 0 0 1:1 21:0 37:1 43:1 63:0 73:1 84:1 108:1 118:1 
0 0.06607307504750788 1 0 0 1:1 72:1 84:0 107:1 117:1 
0 0.6810550964603159 0 0 0 1:1 79:1 84:0 85:1 105:0 108:1 117:1 
1 0.08524706670619947 0 0.3352394717488409 0 1:1 21:0 22:1 58:1 63:0 64:1 84:1 94:1 105:1 108:1 126:1 
0.9575945882166939 1 1 0.1907623966367437 0 1:1 21:1 37:1 42:0 43:1 63:0 73:1 84:1 108:1 118:1 
0 0 0.7413300581620205 0 0 1:1 14:1 18:1 72:1 84:0 93:1 105:1 107:1 117:1 
0 0.8007314653273073 0.4072892298756901 0 0 1:1 21:0 43:1 56:1 60:1 73:1 84:1 108:1 118:1 
0 0.6565009575760956 0.108204468724849 1 0 1:1 21:0 22:1 35:1 39:1 43:1 63:0 73:1 84:1 108:1 118:1 
0 0 0 0.584200458179589 0 1:1 21:0 43:1 56:1 60:1 64:1 84:0 94:1 97:1 105:1 118:1 
0 1 0 0 0 1:1 21:0 22:1 35:1 39:1 43:1 63:0 73:1 76:1 84:0 94:1 105:1 118:1 
0.4253433033505748 0 0 1 0 1:1 21:0 43:1 56:1 60:1 63:0 64:1 84:0 94:1 97:1 105:1 118:1 
0 1 0 0.5866723583290842 0 1:1 21:0 22:1 35:1 39:1 42:0 43:1 63:0 73:1 76:1 84:0 94:1 105:1 118:1 
0 0 0 1 0 1:1 21:0 43:1 56:1 60:1 64:1 84:0 94:1 105:1 118:1 
0.4196162001173502 0 1 1 0.9004946745626897 1:1 21:0 22:1 58:1 63:0 64:1 84:0 94:1 105:1 126:1 
0.1209378606464044 1 0 0 0 1:1 21:0 37:1 42:0 43:1 63:0 73:1 84:0 94:1 97:1 105:1 118:1 
0 1 0 0 0 1:1 21:0 22:1 35:1 39:1 63:0 73:1 84:0 94:1 105:1 117:1 
0 0.6417614003605518 0 0 0 1:1 14:1 18:1 84:0 94:1 105:1 117:1 
0 1 0 0 0 1:1 21:0 43:1 56:1 60:1 73:1 84:0 94:1 105:1 118:1 
0.8857818072606674 0 0 0 0 1:1 72:1 84:0 93:1 105:1 117:1 
1 0 0 0 0 1:1 21:0 72:1 84:0 93:1 105:1 117:1 
1 0 0.8756426669664659 0.5258756252474502 0 1:1 72:1 84:0 93:1 105:1 117:1 
0 0 0 0.5835437240833745 0 1:1 21:0 84:0 100:1 105:1 117:1 
0 0 0 1 0 1:1 84:0 100:1 105:1 117:1 
0 0 0 1 1 1:1 84:0 93:1 105:1 117:1 
1 0 1 1 0 1:1 72:1 84:0 93:1 105:1 117:1 
0 0 0 0.1336928781201933 0 1:1 79:1 84:0 93:1 105:1 117:1 
0 0 0 0 0.04165833341322311 1:1 21:0 38:1 59:1 63:0 72:1 84:1 111:1 127:1 
0 1 0 0 0 1:1 21:0 43:1 56:1 60:1 73:1 76:1 84:0 94:1 105:1 118:1 
0 0 0 0 0.5707017922186542 1:1 14:1 18:1 21:0 64:1 84:0 85:1 105:1 117:1 
1 0 0.3140275394566232 0.9943237237425487 0.4386057609842157 1:1 21:0 43:1 56:1 60:1 63:0 64:1 84:0 94:1 97:1 105:1 118:1 
0.3020284449056053 1 0.2468224279491225 1 0 1:1 21:0 22:1 35:1 39:1 42:0 43:1 63:0 73:1 76:1 84:0 94:1 105:1 118:1 
0 0.6015228122662986 0.1318586917140992 0 0 1:1 21:0 22:1 58:1 63:0 73:1 76:1 84:0 94:1 105:1 126:1 
0 0.7450812340373694 0 0 0 1:1 21:0 43:1 56:1 60:1 73:1 84:0 94:1 97:1 105:1 118:1 
0 0 0 1 1 1:1 14:1 18:1 64:1 84:0 85:1 105:1 117:1 
0 0 0 1 0 1:1 21:0 43:1 56:1 60:1 64:1 84:0 94:1 105:1 118:1 
0.8785749234600522 0 0 0.9891988481432459 0.4036625897435336 1:1 14:1 18:1 21:0 64:1 84:0 85:1 105:1 117:1 
0.05764789535035705 0.2135672246966835 0.9050173767871856 1 0.4231619001878951 1:1 21:0 43:1 56:1 60:1 63:0 64:1 84:0 94:1 105:1 118:1 
0.6688104563210177 0 0.04169889408474428 0 0 1:1 21:0 22:1 35:1 39:1 42:0 43:1 63:0 73:1 84:0 94:1 97:1 105:1 118:1 
0.303206536496496 0 0.3953888233988893 0.2432983808500803 0 1:1 79:1 84:0 85:1 105:1 117:1 
0 0 0.0749188684313036 0 0 1:1 21:0 22:1 58:1 63:0 73:1 84:0 94:1 97:1 105:1 126:1 
0 0.8632500242921948 0 0.05308699147086143 0 1:1 21:0 22:1 35:1 39:1 63:0 73:1 84:0 94:1 105:1 117:1 
0 0.08941031017441539 0 0 0 1:1 14:1 18:1 21:0 73:1 84:0 94:1 105:1 117:1 
0 1 0 0 0 1:1 21:0 43:1 56:1 60:1 73:1 84:0 94:1 105:1 118:1 
1 0 0 0 0 1:1 72:1 84:0 105:1 117:1 
0 0 0 1 1 1:1 84:0 93:1 105:1 117:1 
0 0 0 1 0 1:1 79:1 84:0 93:1 105:1 117:1 
0 0 0 1 0 1:1 84:0 100:1 105:1 117:1 
0 0 0 1 0 1:1 79:1 84:0 93:1 105:1 117:1 
1 0 1 1 0 1:1 21:0 63:0 72:1 84:1 105:1 117:1 
1 0 1 1 0 1:1 21:0 72:1 84:0 93:1 105:1 117:1 
0.8270546304068196 0 0.5933480239296636 0.5447573535400475 0 1:1 72:1 84:0 93:1 105:1 117:1 
0 0 0 1 0 1:1 79:1 84:0 93:1 105:1 117:1 
0 0 0 1 0 1:1 84:0 100:1 105:1 117:1 
1 0.1424589342741768 1 1 0 1:1 21:0 63:0 72:1 84:1 93:1 105:1 117:1 
0 0.29447675401337 0.06748147225755988 1 1 1:1 84:0 93:1 105:1 117:1 
0 0 0 1 0.9331079331438046 1:1 79:1 84:0 93:1 105:1 117:1 
0 0 0.02900888340629234 1 1 1:1 21:0 79:1 84:0 93:1 105:1 117:1 
0 0.4403404215744011 0.403548877369163 1 0.1837116323981201 1:1 84:0 100:1 105:1 117:1 
0.232750077518857 0 1 0.3662592962477351 1 1:1 72:1 84:0 93:1 105:1 107:1 117:1 
0 0.332163819820924 0 0 0.2963517277314583 1:1 73:1 84:0 108:1 117:1 
0.1236787140329335 0 0 0 0.7129695673420187 1:1 14:1 18:1 64:1 84:0 85:1 105:0 108:1 117:1 
0.7645638292487392 0.9318003084444247 0 0.7494011066261268 0 1:1 21:0 43:1 56:1 60:1 64:1 84:0 94:1 105:1 108:1 118:1 
0.4283133833575444 1 0.966495735884773 0.9443283581948436 0 1:1 21:0 22:1 35:1 39:1 43:1 63:0 73:1 84:1 108:1 118:1 
0 0 0 0 0.536511753825911 1:1 21:0 38:1 59:1 63:0 72:1 84:1 107:1 127:1 
0.0889599956766835 0.2473203058883213 1 0.04403293949036943 0.04656251575237668 1:1 21:1 38:1 42:0 59:1 63:0 72:1 84:1 107:1 127:1 
0 0 0.2498222715897592 0 0 1:1 105:1 117:1 
0 0.9570680450762792 1 0.7161796433693408 0 1:1 105:1 117:1 
0 0 0 0 0.5302719193247684 1:1 21:0 59:1 72:1 84:1 112:1 127:1 
0 0 0 0 0.7202132555924664 1:1 21:0 38:1 59:1 63:0 72:1 84:1 112:1 127:1 
0.2682258069385086 0.2995898220466525 0.5859053900460529 0.3285028460279624 0.2404862861026905 1:1 21:1 38:1 42:0 59:1 63:0 72:1 84:1 112:1 127:1 
0 0 0 0 0.05047487528938023 1:1 21:0 59:1 72:1 84:1 110:1 127:1 
0.2682978523219869 0.2950136397334893 0.5689404306727478 0.328502846027963 0.1697092868349358 1:1 21:1 38:1 42:0 59:1 63:0 72:1 84:1 110:1 127:1 
0.06449970193522911 0 0 0 0 1:1 21:0 59:1 72:1 84:1 111:1 127:1 
0 0 0 0 1 1:1 21:0 38:1 59:1 63:0 72:1 84:1 110:1 127:1 
-1 1 0 1 1 16:1 64:1 84:0 94:1 105:1 108:1 117:1 
-1 1 0.8361483801374227 1 1 16:1 64:1 84:0 85:1 105:0 108:1 117:1 
-1 1 0 1 0.7803490532059185 16:1 21:0 43:1 64:1 84:0 85:1 105:1 108:1 118:1 
-1 1 0 1 0 16:1 21:0 43:1 64:1 84:0 94:1 97:1 105:1 118:1 
-0 0 0.1575978236391901 1 1 16:1 21:0 43:1 64:1 84:0 85:1 105:1 118:1 
-0 1 1 0 0 16:1 21:0 43:1 63:0 72:1 84:1 105:1 118:1 
-0.9008146130251364 1 1 0.692896295604944 0 16:1 21:1 22:1 42:0 63:0 72:1 84:1 105:1 117:1 
-0 0 0.2567054457275293 1 0 16:1 21:0 22:1 63:0 72:1 84:1 105:1 117:1 
-0 1 1 1 0 16:1 21:0 43:1 72:1 84:0 105:1 118:1 
-0 0 1 1 0 16:1 21:0 22:1 63:0 72:1 84:1 105:1 117:1 
-0 0 0.3231072612606454 0.8498702023660548 0 16:1 21:0 22:1 42:0 63:0 72:1 84:1 93:1 105:1 117:1 
-1 0 1 1 1 16:1 21:0 42:0 63:0 72:1 84:1 93:1 105:1 117:1 
-1 0 0 1 0.6767707369439533 16:1 21:0 22:1 63:0 72:1 84:0 93:1 105:1 117:1 
-0 0 0 0.6591367587848841 0 16:1 21:0 43:1 72:1 84:0 93:1 105:1 118:1 
-1 0 1 1 1 16:1 21:0 42:0 63:0 72:1 84:1 93:1 105:1 117:1 
-0 0 0.5322581077097848 1 0 16:1 21:0 43:1 72:1 84:0 93:1 105:1 118:1 
-1 1 0.5639363910267647 1 0.5445766278183833 16:1 21:0 43:1 64:1 84:0 94:1 97:1 105:1 118:1 
-1 1 0.3153391384074669 1 0.933314868036426 16:1 21:0 43:1 64:1 84:0 94:1 105:1 118:1 
-0 0.1326344859971681 1 0 0 16:1 21:0 43:1 72:1 84:1 105:1 118:1 
-0.914169724508375 0.4714371772447933 1 1 0 16:1 21:0 22:1 63:0 72:1 84:1 105:1 117:1 
-1 1 1 1 0.1858220255086596 16:1 21:1 42:0 63:0 72:1 84:1 105:1 117:1 
-0.9411810195948518 0.864896183206774 1 1 0 16:1 21:0 43:1 72:1 84:0 105:1 118:1 
-0 0 1 1 0 16:1 21:0 43:1 72:1 84:0 93:1 105:1 118:1 
-1 0 1 1 1 16:1 21:0 42:0 63:0 72:1 84:1 93:1 105:1 117:1 
-1 0.5037398382589506 0.2218364587713775 1 1 16:1 21:0 22:1 63:0 72:1 84:0 93:1 105:1 117:1 
-0.547736334075638 0 1 1 0 16:1 21:0 43:1 72:1 84:0 93:1 105:1 118:1 
-0.7819843163585194 0 0.8794511342239658 0.9381687938316973 0 16:1 21:0 43:1 63:0 72:1 84:0 93:1 105:1 118:1 
-1 0.359353683458315 0.8403077019730588 1 0.9934039687659373 16:1 21:0 22:1 63:0 72:1 84:0 93:1 105:1 117:1 
-1 -0.1949016806818079 1 0.84993877054514 0 10:1 21:1 37:1 43:1 63:0 108:1 118:1 
-0 -1 0.270672310258 1 0.7795082019938495 10:1 21:0 43:1 108:1 118:1 
-0.2932422585280724 -0.08168728384682938 1 0.4763217316736555 0 10:1 21:1 22:1 42:0 43:1 63:1 108:1 118:1 
-1 -0 0.4132081827531064 0.8434046156845656 0 10:1 21:1 22:1 35:1 39:1 43:1 63:0 108:1 118:1 
-0 -0 0.4650599924247636 0 0 10:1 21:1 22:1 42:0 43:1 63:0 108:1 118:1 
-0 -0 0.1220541557300826 0.9125438938933759 0.6356223075168798 10:1 13:1 73:1 84:0 94:1 105:1 117:1 
-0.226333666948536 -0 0.007761343745374758 0.5432615710145555 0.2958504141275063 10:1 73:1 76:1 84:0 94:1 105:1 117:1 
-0.0234351222091161 -0 0 0 0 10:1 21:0 31:1 34:1 42:0 52:1 63:0 73:1 76:1 84:1 94:1 97:1 105:1 120:1 
-1 -0 0 0 0 10:1 21:0 43:1 56:1 60:1 73:1 76:1 84:0 94:1 105:1 118:1 
-0.8945826969342108 -0 0 0.2028482094019333 0 10:1 21:0 43:1 56:1 60:1 63:0 73:1 76:1 84:0 94:1 105:1 118:1 
-1 -0.2327482991727497 0.09880662966395648 1 1 10:1 73:1 84:0 94:1 105:1 117:1 
-1 -0 0 1 0 10:1 21:0 43:1 56:1 60:1 73:1 84:0 94:1 105:1 118:1 
-0 -1 0.5172377820607104 0 0 10:1 21:0 42:0 43:1 63:0 73:1 84:1 94:1 105:1 118:1 
-1 -0.7522046499723403 1 1 0.6931859651330161 10:1 21:0 22:1 35:1 39:1 63:0 73:1 84:1 94:1 105:1 117:1 
-0 -0 0 1 0 10:1 21:0 43:1 56:1 60:1 63:0 73:1 84:1 94:1 105:1 118:1 
-1 -0 0 0.1772492441586802 0 10:1 21:0 22:1 35:1 39:1 43:1 63:0 73:1 84:1 94:1 105:1 118:1 
-0.7664761200323061 -0 0 0 0 10:1 13:1 21:0 22:1 35:1 39:1 43:1 63:0 73:1 84:0 94:1 105:1 118:1 
-0 -0.5339521261788193 0 0 0 10:1 13:1 21:0 22:1 42:0 43:1 63:0 73:1 84:1 94:1 105:1 118:1 
-0 -0.05378964310740786 0 0.09243117410223728 0 10:1 13:1 21:0 37:1 42:0 43:1 63:0 73:1 84:0 94:1 105:1 118:1 
-0.08049018054238009 -0 0 0 0 10:1 21:0 22:1 42:0 52:1 55:1 63:0 73:1 84:1 94:1 97:1 105:1 120:1 
-1 -0 0 0 0 10:1 21:0 22:1 35:1 39:1 43:1 63:0 73:1 76:1 84:0 94:1 105:1 118:1 
-0.6014050413801467 -0 0 0.04731869182863865 0 10:1 21:0 37:1 42:0 43:1 63:0 73:1 76:1 84:0 94:1 105:1 118:1 
-0.06600168227054029 -0 0 0 0 10:1 21:1 31:1 34:1 42:0 52:1 63:1 73:1 76:1 84:1 94:1 97:1 105:1 120:1 
-0.006690387810517354 -0 0 0 0 10:1 13:1 21:1 31:1 42:1 52:1 63:1 73:1 76:1 84:1 105:1 120:1 
-0.1641343642574445 -0.1488519266633211 0.4075165954115871 0.2727657965165655 0.2058911445303619 10:1 13:1 21:1 31:1 42:1 52:1 55:1 63:1 105:1 120:1 
-1 -1 0.8438977397552377 1 1 10:1 73:1 84:0 94:1 105:1 117:1 
-0 -0 0 0 0.06884360006956067 10:1 21:0 52:1 73:1 84:1 105:1 120:1 
-0 -1 0.3942369612336529 1 0.3379969630469487 10:1 21:1 31:1 52:1 63:0 105:1 120:1 
-1 -1 0.4248882035577657 0.4335659490763079 0.5014760291909869 10:1 73:1 76:1 84:0 94:1 97:1 105:1 117:1 
-0.1740172866397752 -0.2917797785581383 0.2358162930221003 0.310442880673171 0.3812861539778977 10:1 21:1 31:1 34:1 42:0 52:1 55:1 63:1 105:1 120:1 
-0.6176102204793521 -0 0 1 0 10:1 21:0 43:1 56:1 60:1 73:1 84:0 94:1 105:1 118:1 
-0.9495564238497666 -0 0 0 0 10:1 21:0 22:1 35:1 39:1 52:1 63:0 73:1 84:1 105:1 120:1 
-0 -0.4173604237512512 0.9556623132923824 0.8651530811474827 1 10:1 21:1 31:1 42:0 52:1 63:0 105:1 120:1 
-0 -1 1 0 0 10:1 21:0 42:0 43:1 63:0 73:1 84:1 94:1 105:1 118:1 
-0.9000302077113131 -0 0.6070248660992295 1 0 10:1 21:0 43:1 56:1 60:1 63:0 73:1 84:1 94:1 105:1 118:1 
-0 -0 0.04733964763593915 0.5492494012032245 0 10:1 21:1 31:1 42:0 52:1 63:1 105:1 120:1 
-0.7420761998712386 -0 0 1 0 10:1 21:0 22:1 35:1 39:1 43:1 63:0 73:1 84:1 94:1 105:1 118:1 
-0 -0 0.07745538730484124 0 0 10:1 21:1 22:1 42:0 52:1 63:0 73:1 84:1 105:1 120:1 
-0 -0 1 0.9805624239096992 0 10:1 21:1 31:1 42:0 52:1 63:1 105:1 120:1 
-1 -1 1 1 1 10:1 108:1 117:1 
-0.941359132274369 -1 0.8115885178358834 1 0.9966271363059692 10:1 21:0 43:1 108:1 118:1 
-1 -0.6946783506244426 0.7333599917960197 1 0.499503596812712 10:1 21:0 43:1 56:1 60:1 108:1 118:1 
-0.03870568043800832 -0.9301072056088935 0.903064942308248 0 0 10:1 21:1 22:1 42:0 43:1 63:0 108:1 118:1 
-1 -0 -1 0.2540268733981113 1 9:1 21:0 43:1 107:1 118:1 
-0.8728426615536076 -0 -1 0 0 9:1 21:0 43:1 56:1 60:1 72:1 84:1 107:1 118:1 
-0.3032776393960953 -0 -0.947988563315082 1 0.1912389822201936 9:1 21:1 22:1 35:1 39:1 51:1 63:0 107:1 119:1 
-0 -0 -1 1 0 9:1 21:0 43:1 84:1 105:1 118:1 
-0 -0 -0.03270050674077547 0 0 9:1 21:0 22:1 58:1 63:0 84:1 105:1 126:1 
-1 -0 -1 1 1 9:1 21:1 42:0 63:0 105:1 117:1 
-0 -1 -0 0 0 9:1 21:0 43:1 72:1 84:1 105:1 118:1 
-0 -1 -0 0 0 9:1 21:0 43:1 63:0 72:1 84:1 105:1 118:1 
-0 -1 -0 1 0 9:1 21:0 43:1 72:1 84:0 105:1 118:1 
-0 -0 -0 0.6922625490543463 0 9:1 21:0 22:1 51:1 63:0 84:1 105:1 119:1 
-0 -0 -0 1 0 9:1 21:1 37:1 42:0 51:1 63:1 105:1 119:1 
-0 -0 -0 1 0 9:1 21:1 37:1 42:0 51:1 63:1 105:1 119:1 
-0 -0.1676303482456687 -0 0 0 9:1 21:1 42:0 63:0 72:1 84:1 105:1 117:1 
-0 -0 -0 0.4346077222937341 0 9:1 21:1 42:0 51:1 63:1 105:1 119:1 
-1 -1 -0 0 0 9:1 21:0 42:0 63:0 72:1 84:1 105:1 117:1 
-1 -1 -0 1 0 9:1 21:0 22:1 63:0 72:1 84:1 93:1 105:1 117:1 
-0 -0 -0 1 0 9:1 21:1 30:1 42:0 51:1 63:1 105:1 119:1 
-0 -1 -0.08648626997671824 1 0 9:1 21:0 43:1 72:1 84:0 93:1 105:1 118:1 
-0 -0.2164961962520648 -0 0 0 9:1 21:0 22:1 51:1 63:0 72:1 84:1 105:1 119:1 
-0 -0 -0 1 0 9:1 21:1 30:1 42:0 51:1 63:1 105:1 119:1 
-0 -0 -0 1 0 9:1 21:1 30:1 42:1 51:1 63:1 105:1 119:1 
-1 -0.7224421288280048 -0 0.3474042695515034 0 9:1 21:0 22:1 58:1 63:0 72:1 84:0 93:1 105:1 126:1 
-0.2411380948647606 -0 -0 0 0 9:1 21:0 37:1 42:0 51:1 63:0 72:1 84:1 105:1 119:1 
-0 -0 -0 0.6143569702019005 0 9:1 21:1 30:1 42:0 51:1 63:0 84:1 105:1 119:1 
-0.2334388959315139 -1 -0 0 0 9:1 21:1 42:0 63:0 72:1 84:1 93:1 105:1 117:1 
-0.1068634547502846 -0.02110700460050764 -0.3090285595316378 1 0 9:1 21:1 30:1 42:1 51:1 63:1 105:1 119:1 
-1 -1 -0 1 1 9:1 21:0 42:0 63:0 72:1 84:1 93:1 105:1 117:1 
-1 -0.0727887166994635 -1 1 1 9:1 105:1 117:1 
-0.3358579701655135 -0.8629109699569131 -1 1 0 9:1 21:0 43:1 105:1 118:1 
-0.3505637558501176 -1 -1 1 0.2187030978225938 9:1 21:1 22:1 63:0 105:1 117:1 
-0.1140940799058535 -0 -0 0 0 9:1 21:1 42:0 58:1 63:0 105:1 126:1 
-0.2096013189489006 -0 -0.121168642497321 0 0 9:1 21:1 42:0 58:1 63:1 105:1 126:1 
-0 -0 -1 0.5625085198069155 0.8029212766722508 9:1 21:0 22:1 58:1 63:0 84:1 105:1 126:1 
-0 -0 -1 1 0 9:1 21:1 42:0 43:1 63:0 105:1 118:1 
-0.4143205333332227 -0 -0.2335985400662768 0 0.6092109888260175 9:1 21:1 42:0 63:0 84:1 105:1 117:1 
-0 -1 -0 0.589805860097822 0 9:1 21:0 43:1 63:0 72:1 84:1 105:1 118:1 
-0 -1 -0.09404422300917081 1 0 9:1 21:0 43:1 72:1 84:0 105:1 118:1 
-0 -0 -0 0.654454472335833 0 9:1 21:0 22:1 51:1 63:0 84:1 105:1 119:1 
-0 -0 -0 1 0 9:1 21:1 37:1 42:0 51:1 63:0 105:1 119:1 
-0.08239137338503166 -0 -0.4450258005177827 0.4315732163719269 0 9:1 21:1 37:1 42:0 51:1 63:1 105:1 119:1 
-0.3968214909279202 -0 -0 0 0 9:1 21:0 42:0 58:1 63:0 72:1 84:1 105:1 126:1 
-1 -1 -0 0.7048076534174178 0 9:1 21:0 42:0 63:0 72:1 84:1 105:1 117:1 
-1 -1 -0 1 1 9:1 72:1 84:0 93:1 105:1 117:1 
-0 -0 -0 1 0 9:1 21:1 30:1 51:1 63:0 105:1 119:1 
-0.4668916982548424 -1 -0.5797828866819095 1 0.879627531809644 9:1 21:0 22:1 63:0 72:1 84:1 93:1 105:1 117:1 
-0 -0 -0 1 0 9:1 21:1 30:1 42:0 51:1 63:1 105:1 119:1 
-0 -0 -0 1 0 9:1 21:1 30:1 42:0 51:1 63:1 105:1 119:1 
-0 -0 -0 1 0 9:1 21:1 30:1 42:0 51:1 63:1 105:1 119:1 
-0.08126415623511542 -0 -0 0 0 9:1 21:0 42:0 58:1 63:0 72:1 84:1 93:1 105:1 126:1 
-0 -0 -0 0.3197038743934259 0 9:1 21:1 30:1 42:0 51:1 63:1 84:1 105:1 119:1 
-1 -0.2865736111371656 -0 0.2117258853555462 1 9:1 72:1 84:0 93:1 105:1 107:1 117:1 
-0.7867536284250631 -0.5881865537430818 -0 1 0.1614456569513487 9:1 21:0 43:1 56:1 60:1 72:1 84:0 93:1 105:1 107:1 118:1 
-0.7170701090030277 -0.3496916430651484 -0 0.3485012026310537 0 9:1 21:0 22:1 35:1 39:1 51:1 63:0 72:1 84:1 107:1 119:1 
-0 -0 -0 0 0.9437873907728489 9:1 21:1 30:1 42:0 51:1 63:0 107:1 119:1 
-0.7205589229706553 -0 -0 0.1259857348382218 0.319315347430482 9:1 21:1 38:1 42:0 43:1 63:0 112:1 118:1 
-0.1045903007876543 -0.2199935444076444 -0.9051603899406562 0.09496209459443229 0.3878742960161169 9:1 21:1 38:1 42:0 43:1 63:1 112:1 118:1 
-0.2076151787649605 -0.2213417744397058 -0.9016948387799709 0.0913732623354848 0.1662806034390668 9:1 21:1 38:1 42:0 43:1 63:1 110:1 118:1 
-0.3618743832280442 -0.1975253515018374 -0.6799726348315794 0.216526344289932 0.008334503473205883 9:1 21:1 38:1 43:1 63:0 111:1 118:1 
-0.5989204840248208 -0 -0 0.1304695995386171 0.37410357010342 9:1 21:1 38:1 42:0 43:1 63:0 110:1 118:1 
-0.3737781712890422 -0 -0.06708999023701323 -0 0 64:1 77:1 81:1 84:0 94:1 105:1 117:1 
-1 -1 -1 -0 0 21:0 43:1 56:1 60:1 64:1 84:0 94:1 105:1 118:1 
-1 -0.1248815968000434 -1 -0.5020067440258582 0 21:0 43:1 56:1 60:1 73:1 84:0 94:1 105:1 118:1 
-1 -0 -1 -0 0 64:1 77:1 81:1 84:0 94:1 105:1 117:1 
-0 -1 -0.5849702832686031 -1 0 21:1 22:1 51:1 63:0 105:1 119:1 
-1 -0 -0 -0 0.8460617855165564 64:1 84:0 100:1 105:1 117:1 
-1 -1 -0 -0.2399656947892231 1 64:1 84:0 105:1 117:1 
-0.4306168806514427 -1 -0.8263864588199615 -1 0.5757820207217195 21:0 43:1 63:0 79:1 84:1 93:1 105:1 118:1 
-0 -0 -0 -1 0 21:1 37:1 42:0 51:1 63:0 105:1 119:1 
-0 -0 -1 -1 0.06769846417962667 21:1 37:1 42:0 51:1 63:1 105:1 119:1 
-1 -1 -1 -1 0 21:0 22:1 35:1 39:1 63:0 72:1 84:1 105:1 117:1 
-1 -0 -0 -0 1 64:1 84:0 93:1 105:1 117:1 
-0 -0 -0 -1 0 21:1 30:1 42:0 51:1 63:0 105:1 119:1 
-1 -0.1643137509080332 -0 -1 1 64:1 84:0 105:1 117:1 
-1 -0 -0 -0 0 21:0 22:1 63:0 79:1 84:0 93:1 105:1 117:1 
-0 -0 -0 -1 0 21:1 30:1 42:0 51:1 63:1 105:1 119:1 
-0 -1 -0 -1 0 21:0 22:1 35:1 39:1 63:0 72:1 84:1 93:1 105:1 117:1 
-0 -1 -0 -0 0 21:0 22:1 35:1 39:1 63:0 72:1 84:0 93:1 105:1 117:1 
-0 -0 -0 -1 0 21:1 30:1 42:0 51:1 63:1 105:1 119:1 
-0 -1 -0 -1 0 21:0 43:1 72:1 84:0 93:1 105:1 118:1 
-0 -0 -0 -1 0 21:1 30:1 42:0 51:1 63:1 105:1 119:1 
-0.6132048238721653 -0.4265470587527226 -0.4165036115147815 -0 0 21:0 43:1 84:0 100:1 105:1 118:1 
-1 -0 -0 -0 0 21:0 22:1 63:0 79:1 84:0 93:1 105:1 117:1 
-0 -0 -0 -1 0 21:1 30:1 42:0 51:1 63:1 105:1 119:1 
-1 -0 -1 -1 0 21:0 43:1 56:1 60:1 84:0 105:1 118:1 
-0 -0 -0.9417474032368646 -0 1 21:0 22:1 35:1 39:1 63:0 84:0 93:1 105:1 117:1 
-1 -1 -0 -1 1 21:0 42:0 63:0 72:1 84:1 93:1 105:1 117:1 
-0.02507531854416966 -0 -0 -0 0 21:0 43:1 56:1 60:1 84:0 93:1 105:1 118:1 
-0.7617622850142701 -1 -0 -0 0 21:0 22:1 35:1 39:1 63:0 72:1 84:0 93:1 105:1 117:1 
-0 -0 -0 -1 0 21:1 30:1 42:1 51:1 63:1 105:1 119:1 
-0 -1 -1 -1 0 21:0 43:1 105:1 118:1 
-0 -0 -0 -0 0.557931659600803 64:1 77:1 81:1 84:0 85:1 105:1 117:1 
-0 -0 -0 -0 0.9885016020423713 64:1 77:1 81:1 84:0 85:1 105:1 117:1 
-1 -1 -1 -0 0.1498129400558987 21:0 43:1 56:1 60:1 64:1 84:0 94:1 105:1 118:1 
-1 -0.9120020575063746 -1 -0.3462629583373784 0 64:1 77:1 81:1 84:0 94:1 105:1 117:1 
-1 -1 -1 -1 0 21:0 43:1 72:1 84:1 105:1 118:1 
-1 -1 -1 -0.9516263892571585 0 21:0 43:1 84:0 100:1 105:1 118:1 
-1 -1 -0 -1 0.1952083436422724 21:0 22:1 63:0 79:1 84:1 93:1 105:1 117:1 
-0.8050721987218641 -0 -0.1378342422528269 -1 0.4811860904451231 21:1 37:1 42:0 51:1 63:0 105:1 119:1 
-1 -1 -1 -1 1 84:0 85:1 105:1 117:1 
-1 -0.5721460340981703 -0 -0 1 21:0 64:1 84:0 93:1 105:1 117:1 
-1 -0 -0.339027920299363 -0 0 21:0 43:1 56:1 60:1 84:0 93:1 105:1 118:1 
-1 -1 -1 -1 0 21:0 22:1 35:1 39:1 63:0 72:1 84:1 105:1 117:1 
-0.1262749077935512 -0 -0.7875187197354229 -1 0 21:1 42:0 51:1 63:1 105:1 119:1 
-1 -1 -0 -0 1 64:1 84:0 93:1 105:1 117:1 
-0.1297034028018033 -0 -0 -1 0.01340279598037051 21:1 30:1 42:0 51:1 63:0 105:1 119:1 
-1 -1 -0.9203196050385493 -0.928457606523215 0 21:0 43:1 84:0 100:1 105:1 118:1 
-1 -0 -0 -0.2319336774373525 0.7485281721411993 21:0 22:1 63:0 79:1 84:0 93:1 105:1 117:1 
-0 -0.8165923074384689 -0 -0 0 21:0 43:1 79:1 84:0 93:1 105:1 118:1 
-0 -0 -0 -1 0 21:1 30:1 42:0 51:1 63:1 105:1 119:1 
-1 -1 -0.9376842794802491 -0.5536776907305505 1 84:0 85:1 105:1 117:1 
-0.5758601053048157 -1 -0 -0 1 21:0 64:1 84:0 93:1 105:1 117:1 
-1 -0 -0.9004777498381769 -0.4265446285686783 0.8484360802142097 21:0 43:1 56:1 60:1 84:0 93:1 105:1 118:1 
-1 -0.01473707016141833 -0 -0.6445807148368106 0 21:0 22:1 35:1 39:1 63:0 72:1 84:0 93:1 105:1 117:1 
-0 -0 -0 -1 0 21:1 30:1 42:0 51:1 63:1 105:1 119:1 
-0.1974175222652571 -1 -0 -1 0.4857819830413304 21:0 43:1 72:1 84:0 93:1 105:1 118:1 
-1 -0 -0 -0 0.9852934871750177 64:1 84:0 100:1 105:1 117:1 
-0.639164290793849 -0 -0 -0 0 21:0 43:1 79:1 84:0 93:1 105:1 118:1 
-0.5639293390241704 -0.1088521749223487 -0.6974971711074204 -1 0.5623565251575742 21:1 30:1 42:1 51:1 63:1 105:1 119:1 
-1 -1 -1 -0.8311573856433569 -1 17:1 80:1 84:0 85:1 105:0 111:1 117:1 
-0.3191049998355509 -0.08161224437570536 -0.08186014443976312 -0 -1 17:1 21:0 59:1 64:1 84:0 93:1 105:1 111:1 127:1 
-0 -0 -0 -0 -1 17:1 64:1 84:0 93:1 105:1 112:1 117:1 
-0.4748450404307746 -0.7853067931262935 -0 -0 -1 17:1 64:1 84:0 93:1 105:1 112:1 117:1 
-1 -1 -0 -0.4163710434871415 -1 17:1 64:1 84:0 93:1 105:1 112:1 117:1 
-1 -0.9731725688050206 -0.476520364737904 -1 -1 17:1 80:1 84:0 85:1 105:0 107:1 117:1 
-0 -0 -0 -0 -1 17:1 21:0 59:1 64:1 84:0 93:1 105:1 107:1 127:1 
-1 -0.4666315288308163 -1 -1 -1 17:1 80:1 84:0 101:1 105:0 107:1 117:1 
-0.9406209017693929 -0.1929090349356727 -0.3260387073758037 -0.8818241837075794 -0.01319437756150449 17:1 21:0 59:1 80:1 84:0 85:1 105:1 107:1 127:1 
-1 -1 -0.6144800875550384 -1 -1 17:1 21:0 38:1 59:1 63:0 64:1 84:1 93:1 105:1 107:1 127:1 
-1 -1 -0.3902332388535352 -1 -1 17:1 64:1 84:0 93:1 105:1 112:1 117:1 
-1 -0.9575683446323686 -1 -1 -1 17:1 64:1 84:0 93:1 105:1 112:1 117:1 
-0 -0 -0 -0 -0.1310175254747923 17:1 80:1 84:0 85:1 105:0 112:1 117:1 
-0 -0 -0 -0 -0.9919526971132467 17:1 80:1 84:0 85:1 105:0 112:1 117:1 
-0 -0 -0.6616848668187554 -0.3696598737668334 -0 17:1 80:1 84:0 101:1 105:0 112:1 117:1 
-0.01131360710445133 -0 -0.4086863608331966 -0 -0 17:1 21:0 59:1 80:1 84:0 85:1 105:1 112:1 127:1 
-0.7681283758129048 -0 -0 -0 -0 17:1 21:0 38:1 59:1 63:0 64:1 84:1 93:1 105:1 112:1 127:1 
-1 -1 -1 -1 -1 17:1 64:1 84:0 93:1 105:1 110:1 117:1 
-0.6925415303877822 -0.2652716914409255 -0.8716630742753742 -1 -1 17:1 80:1 84:0 101:1 105:0 110:1 117:1 
-0.3288775156448954 -0.4325305689912306 -0.5084558667491841 -0 -0 17:1 21:0 59:1 80:1 84:0 85:1 105:1 110:1 127:1 
-1 -0.5060538624693268 -0.05616880106713393 -0.5638307589322776 -0.3698173497645292 17:1 21:0 38:1 59:1 63:0 64:1 84:1 93:1 105:1 110:1 127:1 
-1 -1 -1 -1 -1 17:1 64:1 84:0 93:1 105:1 111:1 117:1 
-0.7703314317294826 -0.4531806426719182 -0 -0 -1 17:1 80:1 84:0 85:1 105:0 110:1 117:1 
-0 -0 -0 -0 -1 17:1 21:0 59:1 64:1 84:0 93:1 105:1 110:1 127:1 
