svm_type c_svc
kernel_type rbf
gamma 0.03125
nr_class 3
total_sv 8
rho 0.544953 -0.043611 -0.381641
label 10 0 -3
probA -2.3216 40.0446 3.78555
probB 0.346595 -41.0228 -3.15412
nr_sv 4 3 1
SV
21.73666523808862 10.44151716293233 8:1 105:1 117:1 
0.4030162998089404 0.2466581694314791 8:1 107:1 117:1 
0.4090530983743985 0.25398095697926 8:1 110:1 117:1 
0.4057492002556845 0.2533274657884528 8:1 111:1 117:1 
-10.1231586175225 6.038483212612025 84:0 100:1 105:1 117:1 
-10.1231586175225 6.044005826627223 21:0 79:1 84:0 105:1 117:1 
-2.708166601482648 1.756045913279304 21:1 42:0 58:1 63:0 105:1 126:1 
-11.19548375513152 -13.83853495251855 16:1 21:0 63:0 84:1 105:1 117:1 
