svm_type c_svc
kernel_type rbf
gamma 0.5
nr_class 9
total_sv 125
rho -0.20797 -0.24182 -0.326148 0.405191 -0.408156 -0.695452 -0.635208 -0.438599 -0.0218048 -0.158909 0.321317 -0.23956 -0.583022 -0.500705 -0.257879 -0.182826 0.477697 -0.254786 -0.620417 -0.519282 -0.256174 0.648676 -0.0626191 -0.474594 -0.371011 -0.106746 -0.729953 -0.894433 -0.853124 -0.719104 -0.416415 -0.31119 -0.0412387 0.122022 0.383811 0.276157
label 10 1 0 -2 -1 -3 3 4 -4
probA -5.0113 -4.52661 -4.25768 -4.46211 -4.42999 -3.59532 -3.88369 -4.4777 -4.25721 -4.01497 -3.82188 -4.20066 -3.3377 -3.58281 -3.72557 -3.32119 -2.69625 -3.44137 -2.58486 -2.74305 -2.89734 -3.94713 -3.29153 -2.50248 -2.63574 -2.7126 -4.00966 -2.58911 -2.52006 -4.49174 -2.59031 -2.74228 -2.83728 -1.85241 -1.93644 -2.1168
probB -0.19881 -0.472247 -0.800596 0.35417 -0.791489 -1.80406 -1.38387 -0.878051 -0.544284 -0.672526 -0.362544 -0.604753 -1.546 -1.18249 -1.07686 -0.0110245 0.723261 0.129177 -0.807289 -0.563929 -0.470943 0.42196 0.000437673 -0.745837 -0.574428 -0.568814 -0.417904 -2.12259 -1.93901 -0.178981 -0.804297 -0.585307 -0.551907 0.0884289 0.158453 0.099609
nr_sv 26 15 13 8 47 5 3 4 4
SV
0.03070660560060239 1.183808325306183 0.01336892158777628 0.7134050979738513 0.2259254663916918 0.08321716307399404 0.05523562181684367 0.06403563250652058 3:1 24:1 
0.6496899158456234 1.086181906084317 0.3072805019661161 1.451055694930531 0.2689806079806147 0.1386699977418211 0.1657342602029242 0.255378972803728 3:1 17:1 18:1 19:1 40:1 
0.2303788066028292 0.1922530606994707 0.1933182878894077 0.3978746353413545 0.1707396733732355 0.07178926101005835 0.1121558131879377 0.1409829443291961 1:1 2:1 3:1 35:1 
0.6520282994738491 1.089457694535998 0.3057790841239478 0.7794539314649461 0.2695552295792492 0.1388024411263024 0.1667265374626639 0.2551940434948079 3:1 17:1 18:1 19:1 35:1 
0.2375110679832581 0.213508495772431 0.1433469207362151 0.2126554707122769 0.1863292713883032 0.04914983171752481 0.0669511665024332 0.1039365436417297 3:1 19:1 40:1 
0.4081961618687958 0.3695446394288591 0.3390787511049471 0.5453909064514847 0.2939789905725639 0.134077312697945 0.1611984539278609 0.2605606261375331 1:1 2:1 3:1 40:1 
0.4782848319279062 0.1689709224036654 0.2029963241568904 0.4730067507962271 0.1846464595454251 0.06022116058693832 0.1429448109062836 0.2262840419974458 3:1 24:1 35:1 
0.6323752531265496 0.2984518735318388 0.2855057481702165 0.5434294383657986 0.2358302432414287 0.1156104936077209 0.1388842427982283 0.2214193984857321 3:1 24:1 47:1 
0 0 0 0.1393971013789783 0 0 0 0 3:1 47:1 
0.3024338562703118 0.2714193520930773 0.2438608764198075 0.5452076031399758 0.1813867169217334 0.1099774051916464 0.1254204934084501 0.1926155331843147 3:1 18:1 19:1 47:1 
0 0 0 0 0 0 0.08260409058403502 0 3:1 35:1 
0.1688467189289311 0.5534168962833933 0.04970431720906336 0.1346647005149671 0.6068855913444671 0.02209626088846275 0.05244683148349828 0.08083026385114059 3:1 18:1 19:1 35:1 
0.3017333146951269 0.1344674198046417 0.06040308786912495 0.2127525397739438 0.1247556623225325 0.04735523422181296 0.06233984553154784 0.09355511351595042 3:1 19:1 47:1 
0.1637567120830628 0.1720847772207186 0.1578727909501232 0.5433222748942398 0.1266153381967806 0.08807167727766722 0.1029110146530209 0.1374986087227476 2:1 3:1 47:1 
0.3111692816761667 0.360306947011004 0.9985901824401685 1.329249282789792 0.2611400634798698 0.1903001550496278 0.2262861856488785 0.3353330001130736 3:1 31:1 
0.3545124710690387 0.3252913839496586 0.3167785200387864 0.8295623028858607 0.2751714285916154 0.1528478702607241 0.2268996031256521 0.346117013223979 3:1 27:1 35:1 
0 0.256020538828857 0 0.07618167903024986 0.08632526888059988 0.01173876128572157 0 0 3:1 19:1 
0.3803668018555905 0.3594180339150901 0.3277671383296439 0.7822486990601693 0.2904637077354615 0.1503902099578667 0.1967119678537421 0.4372939738346384 2:1 3:1 32:1 35:1 
0 0 0 0.1930229736609877 0 0 0 0 3:1 18:1 19:1 
0 0 0 0.8837927630521054 0 0 0 0 2:1 3:1 
0 0.05190859262783647 0.01587023541018623 0.4724854921144609 0.01902626845937874 0.04792564722855273 0.03911374200883162 0.05285473316040289 1:1 2:1 3:1 
0.04841392899425238 0.02862725089143927 0.03331273369243148 0.2124257467040513 0.01309950664175194 0.008247267771316923 0.008257431486729985 0 2:1 3:1 40:1 
0.1784158329096805 0.5562817709817668 0.05678950831600942 0.4725123131066342 0.01948239791005325 0.02590424279054924 0.02325068274843514 0.03632957586908369 3:1 18:1 19:1 40:1 
0 0 0 32 0 0 0 0 3:1 
0 0 0 31.59837701906654 0 0.1433251965246772 0.01595523113844083 0 3:1 
0.1396944233835082 0 0.1010718487147727 0.3739315200045846 0 0.06619661155389903 0.0768826802403427 0.1066682483543235 3:1 40:1 
-0.2853445401992149 0.6488644060888199 0.1496645827411678 0 0.6584567324940768 0.07410954532375279 0.08880711865721355 0.1315303794948 8:1 18:1 19:1 35:1 
-0.7882388351499591 1.148260702672294 0.3833877753571669 1.370930732181336 0.3468725448088064 0.1894863891513269 0.2266488169884604 0.3369362199637559 8:1 17:1 18:1 19:1 40:1 
-0.5865683479784956 0.3793450615127197 0.2843586761457709 0 0.2946462307868322 0.1414786577859632 0.1697389028826544 0.2515848471844345 8:1 24:1 35:1 
-0.7900722324038992 1.152810166168954 0.3831575722357698 0.4619573941574472 0.3457814316077106 0.1902240048135065 0.2280313311727716 0.3384841313977996 8:1 17:1 18:1 19:1 35:1 
-0.4435936320673654 0.2160818297142222 0.308265932414008 3.322925096485993 0.2723275410711175 0.1044516099059486 0.359807651941362 0.4631713410151739 8:1 35:1 
-0 0.1607873027808197 0.4248103167442288 32 0.03319467289826369 0.3518696797870675 0.186916488718864 0.2056920733830935 8:1 
-0.3661845148099808 0.1504518985351322 0.2742721161692941 3.119687767804992 0.1144001469256473 0.08994248851410457 0.1065150435669778 0.1581870020033908 8:1 40:1 
-0.1098178771494185 0.1079615929673828 0.05422491130484683 1.101230713466182 0.02251582951933621 0.02692302774412314 0.03122262147217415 0.0476249184786811 8:1 18:1 19:1 
-0.25408511801816 0.5878148303994906 0.1165665853785264 0 0.08260218509611679 0.0589563318571655 0.07127040422835362 0.105134395067634 8:1 18:1 19:1 40:1 
-0 0.2492406400744733 0 1.845982656528654 0.1544415631124234 0 0 0 8:1 19:1 
-0 0.9607720343890641 0 3.038035943171256 0.1106991654600948 0 0 0 8:1 24:1 
-0.6999482144051067 0.4441753962214029 0.3632196147901633 0.6367135040022016 0.3458629603710694 0.180757025719699 0.2164488869763471 0.3208177858349981 8:1 19:1 47:1 
-0.1660739102452521 0.1472214641049722 0.07342397578483315 0 0.118076546264333 0.03450300552023923 0.04225059524511112 0.06280954718339961 8:1 19:1 40:1 
-0.4092998421629597 0.3787405310498822 0.2855244288181792 0 0.2958721514787672 0.1409767617359836 0.1686426885291107 0.2509442416767937 8:1 24:1 40:1 
-0.7692872197052715 0.4457914436202106 0.3643775389425165 0.6383310249877967 0.3466914100181909 0.1804195390582749 0.2160335818367017 0.3215995963045707 8:1 24:1 47:1 
-0 -0 0 2.708060620906799 0 0 0 0 18:1 19:1 40:1 
-0 -0 0 32 0 0 0 0 18:1 19:1 40:1 
-0.3241942479129748 -0.2777864721887891 0 1.48127041210104 1.294901019507019 0 0 0.02796090830171937 24:1 45:1 
-1.629484032158183 -1.616001034145772 0.9772925778353189 32 0.3125659655644362 0.4926048520853619 0.5334167438826206 0.7160659974210632 24:1 
-0.5395370802358035 -0.3915058259545225 0.9533543598735714 2.004199838500445 0.581200468668518 0.4834594624986557 0.5172705842324865 0.6768106879400884 45:1 
-0.3301486078776688 -0.329016804841488 0.03955457487036819 0.3872582537993803 0.8585013208071082 0.01498959164085 0.02629167891695869 0.06629272091843592 19:1 45:1 
-0.8086693460471908 -0.7833597266541189 0.3180680920189491 2.223364671702268 1.525924007757292 0.1388186368780639 0.2648288174709232 0.3658789523439802 18:1 19:1 35:1 
-0.812004803792565 -0.786308091589465 0.3129276159681648 31.51541957933831 0.1683575045403502 0.1385752133732596 0.1300549733712105 0.1957737848230686 18:1 19:1 40:1 
-0 -0 0 1.766130103898149 0 0 0 0 17:1 18:1 19:1 40:1 
-0 -0 0 32 0 0 0 0 17:1 18:1 19:1 40:1 
-1.226410405299247 -1.164660740508357 0.3726687140872467 1.766053006269555 0.3385236672960567 0.1729052126732644 0.2194116366516035 0.3396594280755528 17:1 18:1 19:1 35:1 
-1.22344427963476 -1.161011570661407 0.3708937991727426 32 0.3397050861817974 0.1727961697840528 0.2183836553345881 0.3379654629384619 17:1 18:1 19:1 40:1 
-0.7775270784118543 -0.668669033755919 0.6179081191873697 2.442673692009658 0.4258223290316153 0.3075309544413307 0.3406525237419836 0.4870413566875794 19:1 42:1 
-0.7333646907572198 -0.8343097698384169 -1.314443352866432 1.391281416525967 0.633611920691256 0.5172152107360567 0.5222587932981713 0.6375268385062894 13:1 
-0.8456359310130309 -0.7200050884546214 -0.7086213069740375 1.073640379837977 0.5944503920746232 0.3021860875704391 0.4136350852804001 0.7692377696804592 13:1 31:1 34:1 35:1 
-0.4129421761913106 -0.2956881724518713 -0.3111048916817399 0.6285203172288895 0.2509346882360794 0.1432702314911888 0.1671320383012879 0.2252155593167741 13:1 31:1 38:1 
-0.4138077576017543 -0.2950337352978063 -0.310875947928979 0.5944209549449578 0.2509144399432405 0.142697014002252 0.1675861951988819 0.2244026578473582 13:1 31:1 39:1 
-0.4129704873927696 -0.2956215947265217 -0.311346387309594 0.740015582173349 0.2511467158941081 0.142697014002252 0.167409438466079 0.2257973944756417 13:1 31:1 44:1 
-0.4128297048229626 -0.2955835181728413 -0.3113463873095941 0.5941302235527864 0.2509144399432405 0.142697014002252 0.1674094384660789 0.2252767626599654 13:1 31:1 36:1 
-0.5082028551552763 -0.4340164081696308 -0.3838626632555474 0.7150101712566453 0.2514158284161276 0.1424454388815681 0.1674094384660789 0.2247508236062281 13:1 31:1 40:1 
-0.4129421761913106 -0.2949957397147621 -0.311066915687807 0.7156831327987779 0.2509346882360793 0.1426970140022518 0.1674094384660789 0.2247207890982259 13:1 31:1 33:1 
-0 -0 -0 -0.2650691291766618 0 0.06203851610556348 0.03143224322521354 0.03389596509771016 33:1 
-0.1577217547513851 -0 -0 -0 0 0.04431345875266961 0.02693585917985969 0.03840409785300222 1:1 
-2.210700488744804 -0.09717213916179225 -0.1812250596165214 -0.1747368146992484 0.1203070596019788 0.05036431600097314 0.07466940435515849 0.1404294850994805 2:1 3:1 29:1 
-32 -0 -0 -0 0 0 0 0 3:1 
-0 -0 -0 -0 0 0.01215577774402566 0.005671885842083372 0.01111560903956368 6:1 29:1 
-0 -0 -0.02647876153681827 -0.06524750741853934 0 0.06524458457847226 0.05386528073998125 0.1007238563809726 22:1 
-0.1917198005218148 -0.193673503034494 -0.1389935578538286 -0.1369519088873922 0.09823103588189541 0.04954871774586471 0.0621962670313931 0.118427964485432 7:1 29:1 47:1 
-0.1579114446287264 -0 -0.1631586718620874 -0.1174782470032985 0.7550943052536242 0 0.06177439780291062 0.1118705706187861 15:1 23:1 
-0.409052408919699 -0 -0 -1.562761375208169 0 0.01659801054285544 0 0 31:1 
-0 -0 -0 -0 0 32 0 0 10:1 43:1 
-0 -0 -0 -0 0 0 32 0 11:1 26:1 
-0 -0 -0 -0 0 0.01020742640911376 0.007289157678863486 0 12:1 29:1 
-0.4211727512740813 -0 -0.1470707157998309 -0.1060868933820906 0.02172046394797271 0.05040144602651859 0.05450735288917984 0.1030054635188232 28:1 47:1 
-0.1664965252039184 -0.06576163192955393 -0.1745121054374644 -0.1747296929508281 0.4072536728985028 0 0.06110856656363055 0.1019552410796877 15:1 41:1 44:1 
-0.3285191111533263 -0.2441658164603608 -0.266270657187211 -0.3011384183233224 0.1191682951154528 0.05790584724899286 0.01786466841778909 0.1505435700351416 9:1 12:1 31:1 44:1 
-0.1201334412115369 -0 -0.1561049810741128 -0.1200200791156995 0.05949780211890104 0.04221338990753404 0.05001519256325006 0.1024280812232901 12:1 25:1 28:1 
-0.8221744488346884 -1.128411118518 -1.238892794762875 -0.3044305062042004 0.6511883606353569 0.0654863892549581 0.5524317718458752 0.7713444333517648 35:1 
-32 -0 -0 -0.001069280911426439 0 0.04679115722740576 0.02582522116779667 0.0481556862991588 3:1 
-0.1429357334267345 -0.1133846990708259 -0.1954981075513865 -0.2485084947274002 0.1259670463607351 0.06546368202598596 0.08418012737257961 0.1604498842862846 4:1 29:1 38:1 
-0.2457574884545301 -0 -0.2490107607381781 -0.1889605464439721 0.08054494712268546 0.07398022324973343 0.08981687818762728 0.169716086641508 6:1 20:1 
-0 -0.2155379801900352 -0 -0.03246955925470716 0.007324387794452004 0 0.008280762684967854 0.02085151155577592 8:1 29:1 
-0.2472874007890308 -0.171372097875322 -0.1198831239565455 -0.1210311044601559 0.0904568034893321 0.02942307367907234 0.04853210812788786 0.09387919662379741 1:1 29:1 47:1 
-0.411156085016552 -0.371845082254683 -0.3676564638555755 -0.2845685587164095 0.3554209578757277 0.0165623840189509 0.1027211146969459 0.2979719835600894 15:1 17:1 33:1 34:1 
-0.5806959163211131 -0.4524802119579431 -0.3778316382845343 -0.3111087053810659 0.1549453187495978 0.07833970416271503 0.07220653419513987 0.2012682017186621 1:1 2:1 31:1 41:1 44:1 
-0.3656864475221211 -0.3552242103608176 -0.2878315357148813 -0.2146011353626077 0.1422588027558681 0.07052869720069235 0.09723458541214458 0.1789871599101308 9:1 12:1 17:1 18:1 41:1 
-0.2090451612638776 -0.2091801095632237 -0.2055381225584108 -0.1311974978189933 0.09950386988882837 0.04394361538959358 0.0574079985234546 0.1138181526196337 9:1 25:1 28:1 41:1 
-0.1033357554521634 -0.03466552288260281 -0.09943209163289705 -0.1019023460306421 0 0.03518144109857452 0.0348237002474158 0.06359089753088455 9:1 25:1 41:1 44:1 
-0.1955087716335956 -0.2738308275151486 -0.1746904622745516 -0.08877503465643798 0.08161054281743982 0.03141501863025008 0.05687454045935401 0.08830914452446657 9:1 12:1 25:1 41:1 44:1 
-0.1608845871142401 -0.2082606044695894 -0.1375542078464478 -0.07828046151485683 0.08551115040161023 0.02446222099126411 0.04363269470481389 0.06960631904246897 9:1 12:1 25:1 28:1 
-0 -0 -0.8024279478664572 -0.05995924302925608 0.00781747089269169 0.03933534935604081 0.03922049818709512 0.07419192854471504 29:1 42:1 
-0.2258186462169706 -0 -0.2279482907402627 -0.1743891175727541 0 32 0.08198789422824815 0.157875090934717 10:1 43:1 
-0.1618526504651753 -0 -0.2109162978381736 -0.1449638192118833 0.06961515261333028 0.06614654284688741 32 0.1442353634766131 11:1 26:1 
-0.0742268499044595 -0 -0.07922975739335945 -0.0537904596236144 0.7547074198400153 0.7298132534943665 0.03190231009067193 0.05370555349896433 15:1 43:1 
-0.311293947995973 -0 -0.1436332636957229 -0.1646693506355056 0.04076879112971206 0.04146014474389652 0.7353440194354208 0.1065925346471327 11:1 31:1 
-0.2606302968865532 -0.4837753937251013 -1.238575654869702 -0.227581698106873 0 0.04810173745946333 0.01934993900296309 0.02776683142487381 40:1 
-0 -0 -32 -0 0 0 0 0 18:1 19:1 40:1 
-0.2815875665782407 -0.4797862229127252 -3.53578103546193 -0 0.7309146673408176 0.02671382640839254 0.01457164648402545 0.0269210567843165 18:1 19:1 
-0.6574525738425204 -0.7339893581242113 -32 -0.1358023753914982 0.1029134685676311 0.02241840673342616 0.04685728897259783 0.09501903261617659 18:1 19:1 40:1 
-0 -0 -32 -0 0 0 0 0 17:1 18:1 19:1 40:1 
-0.434669464337234 -0.355840888456069 -2.397668702845789 -0.07657220174457012 0.05397144708474425 0.02885670332763767 0.03400325984796464 0.0617942320934912 17:1 18:1 19:1 
-1.109710443926698 -1.093570375274959 -32 -0.140703965416472 0.1068564005706181 0.04179073808743564 0.05791893326570825 0.1074580756411835 17:1 18:1 19:1 40:1 
-0 -0 -1.154628030068784 -0 0 0 0 0 24:1 
-0 -6.91143118860657 -0 -0 0 0 0 0 8:1 
-0 -0.2145829823668673 -0 -0.03272323745213589 0 0 0.008327061322432034 0.02188828346246622 29:1 40:1 
-0 -32 -0.02647876153681816 -0.04488023210092608 0 0.06523679683055825 0.04946960475606465 0.08752476481885244 8:1 
-0.7502679748222504 -1.127852868074963 -31.76950861666445 -0.06554318038573501 0.3469648662234214 0.06507422981735307 0.05394907631949018 0.1004816391052521 24:1 
-0 -0 -0 -0 0 0.2146660955591969 0 0 
-0.5090644868273736 -0.4773227556029968 -1.059611067321655 -0.3155377070093254 -0.5223867389338979 0.1717952807009338 0.1783434825296151 0.2656406823249267 15:1 19:1 45:1 
-0.6860046426604466 -0.6428031260189484 -0.5307681766700625 -0.5413773799535352 -1.182116939082924 0.2996419218970888 0.4223733525657935 0.5378764062968944 15:1 19:1 35:1 
-1.208190179680043 -1.135661525895527 -1.913818054841963 -0.661976831026141 -1.399876446372927 0.3635062063284604 0.4281293341133351 0.5969492241036056 15:1 18:1 19:1 35:1 
-0.4537933318041266 -0.3630501184068879 -0.6598039997678691 -0.5540365945444629 -1.361710777243161 0.3525923099611755 0.3667374390829919 0.4559521774720793 15:1 45:1 
-0.9832852515847664 -0.9236035859884252 -1.681500070752644 -0.6613946009012905 -1.204443605340034 0.3634580719833529 0.4285991803291301 0.5970247769589865 15:1 24:1 45:1 
-0 -0 -0 -0 -2.433418705854118 -0 0 0 10:1 43:1 
-0 -0 -0 -0 -32 -0 0 0 10:1 43:1 
-1.855914201564829 -1.764098066917156 -1.921680093374839 -1.675905024688261 -31.99876421680232 -1.550993790871012 1.264202709282264 1.525367730820593 10:1 43:1 
-0 -0 -0 -0 -1.794046465503537 -0 -0 0 11:1 26:1 
-0 -0 -0 -0 -32 -0 -0 0 11:1 26:1 
-1.125120902595198 -1.056520879855235 -1.251299631621949 -1.052635447086187 -31.80331145297778 -0.9156054942813124 -0.7182609664840816 0.8957306267163971 11:1 26:1 
-1.123789804121583 -1.055813252360867 -0.9990109819804255 -0.88761441885687 -1.356841927346684 -0.9085772943395534 -0.5459417427981825 0.8966199768744137 11:1 26:1 35:1 
-0.8911184693858983 -0.8570552063543583 -0.880503326541218 -0.8358372055589004 -1.293954458403748 -0.6946962886486989 -0.3965953676662391 -0.5279556669462667 16:1 34:1 35:1 
-0.9132165697974061 -0.856928471986267 -1.055196279550057 -0.7942904411479579 -1.313038492622616 -0.7000936747038838 -0.5014854592939361 -0.5270372245053313 16:1 48:1 
-0.7560386189719189 -0.6402139725526786 -0.6389718744164185 -0.5627042919354635 -0.8740121303826351 -0.5291045525239535 -0.3132514761793582 -0.369127551460967 16:1 32:1 48:1 
-0.7865146090711244 -0.6403188280952218 -0.6387778189422567 -0.5640966565486203 -0.8751978677362706 -0.5295487512799563 -0.3140354276810593 -0.3682301606782458 16:1 32:1 34:1 35:1 
