svm_type c_svc
kernel_type rbf
gamma 0.03125
nr_class 5
total_sv 26
rho -0.0369504 0.0266243 -0.000310884 0.0291428 0.0546117 0.173617 0.0871976 -0.039001 0.0550014 0.0240066
label 10 -3 2 5 0
probA -3.97362 -4.2123 -3.94805 -3.92323 -3.96782 -3.41493 -3.65509 -3.89286 -3.88074 -3.61102
probB -0.236502 -0.0123984 -0.254306 -0.311861 0.244037 -0.243662 -0.0817986 -0.295721 -0.344332 0.0216292
nr_sv 4 2 6 6 8
SV
0 0.01242333269098232 0.02447296788104193 0.2382038084736778 6:1 45:1 
6.902779081437186 10.17053417242896 10.17154776364294 0.495797326948872 6:1 
0.4887955341444949 0.528314200113998 0.5171004973986697 16.53985709424143 6:1 36:1 
1.181993583880939 0.5266367090045412 0.5082653081731888 16.76079406556079 6:1 21:1 45:1 
-7.036463867337184 10.68896646106067 8.794216446914591 3.013507148175441 15:1 39:1 42:1 
-1.537104332125437 0.534605017253497 0.5939873646124512 8.301649087093271 15:1 21:1 39:1 42:1 
-10.10276503576319 -0 0 4.009332992608935 9:1 12:1 
-0.1067357983075779 -10.2606546920664 0.8084480958638589 0.04435792984699821 9:1 12:1 39:1 42:1 
-0.1267379952304817 -0.06387428944110315 0 0.4033412637349205 9:1 12:1 30:1 
-0.3841597088375729 -0.4139050843981356 0.4945089261565079 0.1469862050631541 9:1 12:1 30:1 39:1 42:1 
-0.4871055059126661 -0.4542013614670223 21.82145259391119 11.53270357186851 9:1 12:1 24:1 27:1 
-0.03040437018699303 -0.03093605094150687 10.12516091517074 0.7404835446520142 9:1 12:1 27:1 42:1 
-0 -0 -0.6084075438495321 0 12:1 24:1 27:1 
-0 -0 -0.0219913807976602 0 12:1 24:1 27:1 39:1 42:1 
-0.01538183475618071 -0 -9.552737243248481 0 12:1 24:1 27:1 42:1 
-10.68210259850298 -3.271568420064161 -11.18765974915346 16.25321732266862 12:1 27:1 
-0.5083191901484693 -6.116635391462881 -1.666382159397659 0.5249015272677852 12:1 24:1 27:1 39:1 42:1 
-0.01558291368821241 -0 -10.2123924546555 16.2845517327648 12:1 24:1 27:1 
-0.1158787178389304 -0 -0 -0.1643083709390242 21:1 36:1 
-0.4926386081886419 -0.4639502320125169 -11.30143163727797 -16.75939645763567 24:1 27:1 
-0 -0 -0 -0.05263566717274162 27:1 
-16.41872618480919 -0.9303224208254771 -1.341486831859572 -0.182642638422445 36:1 
-0 -8.503315647348417 -1.334340148845375 -0 21:1 
-0.3419290471944325 -0.9302881851896251 -1.335671922092135 -0 45:1 
-16.6444670458169 -0 -0 -0.3433443213634594 21:1 45:1 
-0.02101269137669012 -0.4872797498926766 -1.564274967699476 -15.56034312716785 27:1 
