svm_type c_svc
kernel_type rbf
gamma 0.25
nr_class 8
total_sv 181
rho -0.120628 -0.445843 -0.232579 -0.520297 -0.714753 -0.133661 -0.27092 -0.366652 -0.129897 -0.428133 -0.658104 0.00721962 -0.173532 0.233737 -0.0953725 -0.39521 0.366869 0.172484 -0.311146 -0.588227 0.124669 -0.0493136 -0.311672 0.42689 0.34776 0.65937 0.570122 -0.173897
label 1 3 5 6 7 8 2 4
probA -4.3773 -4.30127 -4.37041 -4.09546 -4.00467 -4.15449 -4.3317 -4.4384 -4.23984 -3.99962 -4.36659 -4.49127 -4.31132 -3.95612 -3.83605 -3.41702 -3.97949 -3.64062 -3.92253 -3.83632 -4.42858 -4.00779 -3.32786 -4.05899 -3.64099 -4.44642 -3.87832 -4.54309
probB 0.18949 -0.0279547 -0.17783 -0.103821 -0.0663066 0.132703 -0.235467 0.455385 -0.0681301 -0.128852 0.3198 0.444392 -0.102224 -0.0515753 0.0529024 0.12059 -0.136787 -0.0839736 0.024538 0.276105 0.264543 -0.0311953 0.0994317 0.312702 0.208133 -0.452011 -0.142676 -0.307047
nr_sv 32 33 14 23 13 6 32 28
SV
0.4206167474188739 1.285489061631762 1.352415403417011 3.350174549758199 1.329059194874613 0.4127233718831013 2.169996648685222 1:1 24:1 25:1 34:1 
1.282851208170184 0.4264879339843315 0.4633673957195212 0.2377186628152061 1.227872726245119 1.294222241091682 0.3379694359913672 9:1 26:1 36:1 
0.6044050734605626 0.1292626970101255 0.1387144236505667 0.08636578479977504 0.1229019741910681 0.4624071669599858 0.1449724054440493 9:1 10:1 11:1 26:1 36:1 
0.8807850839606517 0.7339913665699663 0.8997955156903162 0.3947494522807297 0.8695663069543699 0.8191873664023422 0.9246477944092206 13:1 26:1 37:1 
0.7236195524838634 0.1960647939100104 0.3245625034283674 0.1995964809150761 0 0.777168943942728 0.2957434997201701 1:1 9:2 10:2 11:1 26:1 36:1 
0.2350808641927393 0.1211770482844913 0.2857127895578139 0.1952117778890159 0.04267176193286774 0.2326252754308902 0.1808189529423566 1:2 13:1 20:1 26:1 37:1 
0.6177465878817886 0 0.05902829183915243 0.02392253109644459 0 0.4460563061913054 0 1:1 9:1 18:1 22:1 26:1 36:1 
0.2148227399449801 0.1115428622796489 0.1604925584222593 0.09943882708911368 0.06824030595188635 0.2605433874574349 0.1599499187535821 1:1 9:1 10:1 11:1 18:1 22:1 26:1 36:1 
0.2673479063597762 0.1397169453021888 0.1870250256708159 0.1159841748390874 0.05355140111327834 0.2571677076111369 0.1801801055771819 1:2 13:1 18:1 22:1 26:1 37:1 
0.5464550835689236 0.7956921088279854 0.4623283802025259 0.5956024879076126 0.1219526426814377 0.6568863538811831 0.5522240160714643 1:1 9:1 21:3 26:1 36:1 
0.1082789746213509 0 0 0 0 0.3238652659800897 0 1:2 18:1 22:1 24:1 25:1 34:1 
0.5358287963272493 0.2288553837640578 0.3828692982749544 0.2849843793333572 0.02860728584423425 0.444211262786161 0.2442585665119709 1:3 18:1 22:1 24:1 25:1 34:1 
0.03651484292237121 0.07578488877397417 0.1005542349119261 0.06564738387201074 0.04002434893823901 0.1218400631343885 0.1008770181199318 1:3 13:5 17:3 18:1 22:1 24:1 25:1 34:1 
0.5433140768745478 0.1596623824423307 0.2248126288967619 0.1379469708046888 0.08214526928991647 0.6740983207720415 0.2101683744086202 1:1 13:5 17:3 18:1 22:1 24:1 25:1 34:1 
0.4551341374508591 0.2711532445360468 0.3949372049894068 0.2345369116000977 0.139009384558484 0.4288961335766296 0.3562497821847149 1:3 13:5 17:3 20:1 24:1 25:1 34:1 
0.4628840723880784 0.2798071015924019 0.3880914311759959 0.2417666944730515 0.1431599097412519 0.4015977466813463 0.3668927501372128 1:3 13:6 17:3 18:1 22:1 24:1 25:1 34:1 
0.1506406683003419 0.1292922693610331 0.1535869732525121 0.1119974923801734 0.06743487158546645 0.2998884485254706 0.1704783068778354 1:2 13:6 17:3 20:1 24:1 25:1 34:1 
0.6342375644758391 0.4129555999042417 0.7113316018041209 0.3404373732651092 0.2079877628303603 0.6201113954698276 0.5688317734550238 13:3 24:1 25:1 34:1 
0.7401160690925167 0.3895231885541651 0.6271387533282026 0.3377327645576533 0.2006471854272759 0.5969842475202995 0.5112874889594358 13:5 17:3 24:1 25:1 34:1 
0.07885586272568965 0 0 0 0 0.1431094678814106 0 1:1 13:3 18:1 22:1 24:1 25:1 34:1 
0.5339508724251727 0.3466993886594517 0.4870007980536554 0.3106624538395582 0.1666834830640596 0.4978860087978952 0.4473686882664784 1:2 13:3 18:1 22:1 24:1 25:1 34:1 
3.209787289322652 1.25971131433819 1.402702940213148 0.4297520823015901 0.9774906187812527 3.346792132274348 2.183301784256126 9:1 24:1 25:1 34:1 
0 0 0 0.1984212246423737 0 0 0 1:1 9:1 20:1 24:1 25:1 34:1 
2.314409254411637 0 0 0 0 1.126676617821705 0 1:1 9:2 10:1 18:1 22:1 24:1 25:1 34:1 
0.4309498309615233 0.1878726670557392 0.3131109883712562 0.2043904322237519 0.09483040299625491 0.419518340437507 0.2356683974437527 1:1 9:2 10:2 11:1 20:1 24:1 25:1 34:1 
1.257501866573257 0.2469601284179661 0.3441738890220143 0.2250776039431416 0.1005171683650137 3.109547914544205 0.3033671989355784 1:1 9:2 10:2 11:1 18:1 22:1 24:1 25:1 34:1 
1.64931232613942 0 0 0 0.07615803118825848 0 0.2530768506992976 1:1 9:1 21:1 28:1 41:1 
0 0.458004332203699 0.2387862307705702 0.2199133435587834 0 0.1059305814325764 0 1:1 9:1 21:2 28:1 41:1 
0 0.1231839715754148 0.2439788476395962 0.1622655578436682 0.07546052823447683 1.661589572407305 0.2445722615005519 1:1 9:1 21:1 27:1 41:1 
0.1005435187093853 0.1312178748311859 0.3148929130393411 0.3389077296620168 0.1392261758883961 0 0.5843033142373594 1:1 9:1 21:2 29:1 41:1 
0.08974355166857409 0.619177160898253 0.2205120308719336 0.213127197728415 0.3248867627184489 0.1941449899306543 0.1012101790933307 1:1 9:1 21:1 30:1 39:1 
0.7923302441667756 0.2376773934724479 0.5225419766776097 0.3078719590154714 0.08496090336293416 0.5916139787972352 0.4694569314642476 1:1 9:1 21:3 30:1 39:1 
-0.931967055570718 0 0 0 0.2524251839346499 0.254689311269758 0 3:1 18:1 21:1 22:1 26:1 36:1 
-0.04760066901266594 0.4306435151959263 0.2642018802484285 0.3701544561359049 0 0.8193632562687145 0.2577740233434554 3:1 18:1 21:2 22:1 26:1 36:1 
-0.04915809319675943 0.02101070318206895 1.008690681841847 0.149516637298635 0.2827933748246351 0 0 3:1 18:1 21:1 22:1 31:1 40:1 
-0.3241578707521018 0.163802712650625 0 0.1816512330542308 0 0.7788996778793198 0.2907199832259491 3:1 18:1 21:2 22:1 31:1 40:1 
-0.6813498487123237 1.732441623650707 1.820905409818751 1.749364403189671 1.502044331493233 1.168560211173417 2.602236886348015 3:1 24:1 25:1 34:1 
-0.832599616092735 1.020002008494395 0.4490363853243771 0.4624939101929739 1.098080154973464 0.06040905990607408 1.846251194089328 28:1 41:1 
-0 0 0 0 0 0.05982812501539051 0 18:1 22:1 28:1 41:1 
-0.2801435435928146 0.07149413374589733 0 0.05423642021688971 0 0.301388829778392 0 18:1 22:1 28:1 34:1 
-0.07015866752801128 0 0.03918936232946686 0 0 0.9475639233176497 0.06653757972191884 18:1 20:1 28:1 41:1 
-0.5364805820561855 0.4580536810116042 0.7339014161981192 0.431156601816256 0.4380839869684757 0.4389977954723605 0.6219928608176097 18:1 20:1 28:1 34:1 
-1.956460073215642 0.4397799027128531 0.5110699739707115 0.2868875671874024 0.5946224838817176 0.6614865381146507 0.2668863209689227 9:1 28:1 36:1 
-0.4236861853543614 0.1603399987829431 0.2172886826783745 0.1508698612081724 0.07525837003493989 0.2427549144241041 0.2215446520240272 3:1 9:2 10:2 11:1 28:1 36:1 
-0 0.0044009716978327 0.06094327493047998 0.01826095797256682 0 0.4762695275011651 0.0354882893542036 9:1 22:1 28:1 36:1 
-0.4807389657057377 0.05319836926737229 0.07718709504301108 0.07027364710040375 0 0.2314961071751652 0.1492380104970611 9:2 10:1 22:1 28:1 36:1 
-0.9839150251591379 0.3252135762789121 0.4414163701509005 0.2855478455632187 0.1820908691561026 1.868598179725061 0.3932996314998716 9:2 10:2 11:1 22:1 28:1 36:1 
-0.2089256232128817 0.08507129594302085 0.1559327884441369 0.07375317703405677 0 0.1796285139487521 0.1074723006294968 3:1 9:1 10:1 11:1 18:1 20:1 28:1 36:1 
-0.745137762839909 0.3291573973450131 0.9100534230815772 0.2831783439744867 0.2105652262564497 0.9536566490315939 0.4593397145976308 13:1 17:1 28:1 41:1 
-0.3402741807482166 0.09986122692072266 0.1502925043973982 0.1148307544478302 0 1.034608133479261 0.08222398563195291 13:1 17:1 18:1 22:1 28:1 41:1 
-1.396836846285352 0.6312425137105102 0.8972681886594467 0.5697336081393454 0.3413231392958558 1.070946373765242 0.8241304818296291 13:5 17:3 18:1 22:1 28:1 41:1 
-0.4636470121774462 0.5196931739060897 0.2838782655438472 0.2389357990280279 0.04791121529299031 1.25253628658967 0.2891040694005745 3:1 18:1 21:3 22:1 28:1 41:1 
-0.0269495026350262 0 0 0 0.1535791482536069 0.2240618589577416 0.7873712246797476 3:1 18:1 21:1 22:1 29:1 41:1 
-0.4759134800554358 0.2869387761734311 0.4167450388496188 0.4282646548108635 0.1282770425799273 0.4848685527260861 0.267408513831865 3:1 18:1 21:3 22:1 29:1 41:1 
-2.661922132888471 0 0 0 0 0.3458194061190052 0.02225726847622367 3:1 9:1 24:1 25:1 34:1 
-1.21792537673696 0.1143148314087436 0.1433398354959564 0.09363450753611523 0.07259677373523701 1.578634862012955 0.1577053114147022 3:1 9:2 10:2 11:1 18:1 22:1 24:1 25:1 34:1 
-0.1050080862129217 0.2566818593347989 0.3716975259398327 0.2262259717493087 0.1159938647352369 0.261834144841477 0.3174564373364169 3:2 9:2 10:2 11:1 24:1 25:1 34:1 
-0 0 0.09855115667007174 0.03738079385294035 0.251434841553385 0.2777384571106685 0.1444366526759788 3:1 18:1 20:1 24:1 25:1 34:1 
-0 0.01320620420069391 0.009933943478620106 0 0 0.3620815029784442 0.02901739957814416 3:1 9:1 18:2 20:1 22:1 24:1 25:1 34:1 
-2.689705195191787 0.08872268717259048 0.1168209588069323 0.1065234161690671 0.03218381930446184 0.6629520940321862 0.1119860133026081 1:1 3:1 9:2 10:1 18:1 22:1 24:1 25:1 34:1 
-0 0.256183870158225 0.3563616627030463 0.2257023200384211 0.1423908792086347 0 0.3314978512729779 1:1 3:2 9:2 10:2 11:1 18:1 22:1 24:1 25:1 34:1 
-0.6896791010278056 0.2969655200350687 0.4080464599638296 0.3374354733788937 0.1191196827338096 1.185973511289436 0.3884377341662625 1:1 3:1 9:1 18:2 20:1 22:1 24:1 25:1 34:1 
-0.3819142888170791 0.2546914414124942 0.4027017582328188 0.2078444624351555 0.01820560862328645 0.3162409263719897 0.2733524139383677 3:3 18:1 20:1 22:1 24:1 25:1 34:1 
-0.1165969724662319 0.5811542835337783 0.0906426199603247 0.1831664902406195 0.233567809873314 0.9612800430524534 0.092781243237459 3:1 18:1 21:1 22:1 30:1 39:1 
-0.7992129097548675 0.2159504376041269 0.5032473832091348 0.2919279277272988 0.1275478452387545 0.5706249485715731 0.4761963875325381 3:1 18:1 21:3 22:1 30:1 39:1 
-0.5736486026052153 -0.3256415985169251 0.365287343387365 0.4175786130142369 0.3699934074937548 0.3241289673816461 0.2276037345087965 5:1 16:1 21:1 26:1 36:1 
-1.111388856548663 -0.9399084727207557 0.757623113708867 1.125610571487573 0.3023147203991015 0.923320563245287 0.8837614279140507 5:1 16:1 21:3 26:1 36:1 
-0.2030068360493873 -0.8651267640281108 0.1451961886495864 0.224922345643521 0.08781597789909946 0.006000881760998089 0.4207961959266833 5:1 16:1 21:1 28:1 41:1 
-0.9363522794177767 -0.8374307122554728 0.7403467063621141 0.721187689462663 0.3518457307241112 0.9914145037038848 0.7280972046517218 5:1 16:1 21:3 28:1 41:1 
-0.1936769774874435 -0.1799631322631326 0.1821378848965199 0.2628284627292576 0.2193802459447336 1.160651240010861 0.6692091966897055 5:1 16:1 21:1 27:1 41:1 
-0.3439788673322237 -0.1728657749182364 0.3735783358525895 0.4943379021631815 0 0 0 5:1 16:1 21:2 27:1 41:1 
-2.520827119446203 -2.132664828773123 2.059793582740005 2.196311165150838 1.712377696170204 2.113488057490384 2.778128766323628 5:1 24:1 25:1 34:1 
-0.2701294156978192 -0.1873369164230585 0.2181086154649687 0.1161136379693077 0 0.1828798321241558 2.132395606542108 5:1 16:2 24:1 25:1 34:1 
-0.5420957272666572 -0.5624102313746464 0.5077590967993024 0.3637577581156806 0.2476243796169069 0.5596950587593299 0 5:2 16:2 20:1 24:1 25:1 34:1 
-0.8802283386904014 -0.941893208224532 0.672377681092735 0 1.68167195239843 0.9483858816527941 1.536885234175711 16:1 30:1 39:1 
-0.6388387835519503 -0.6261305567636397 0.5211181874369116 1.751034409317853 0.6915648978137736 0.633638177155234 0.2183134558856607 5:1 23:1 30:1 39:1 
-0.4321149556138645 -0.4415955515189955 0.4261202975581809 0.2006617837890753 0.207822786293581 0.4313073189006307 0.3129080343687538 5:2 20:1 30:1 39:1 
-0.3915214198657657 -0.2981597772827682 0.3847541335072013 0.452154584139577 0 0.2916364771817731 0.2377850358657085 16:2 30:1 39:1 
-0.459154928607739 -0.3990891904670482 0.3926611249298839 0.2705276466402204 0.02115022876636779 0.39598643638749 0.2819186826721418 5:2 16:2 20:1 30:1 39:1 
-0.6588376591034182 -0.5005580436326506 -0.3954511620737012 0.2875630886934719 0.2481352786408656 0.5130665846916591 0.2433889022937834 6:2 21:1 26:1 36:1 
-0.5624900227296676 -0.2709332178055515 -0.139684061041725 0.1416403642886194 0.1427596627381008 0.3377661664996148 0.2311148190369125 6:1 13:2 17:2 20:1 24:1 25:1 34:1 
-0.1562779384895513 -0.264372556009571 -0.1830206217526967 0.1431800293808266 0.01150294466983141 0.2286621596330395 0.1527502492341523 6:2 13:2 17:2 20:1 24:1 25:1 34:1 
-0.5014495993430436 -0.4439846158198184 -0.3094498674871866 0.2851184609866487 0.1928046425740299 0.4489097857516188 0.4065018307594627 6:2 13:2 17:4 20:1 24:1 25:1 34:1 
-0.2695771574639041 -0.2722590113339833 -0.1857359496341061 0.1617434688660659 0.07969325537819941 0.2575436085127763 0.2136723464108952 6:1 13:2 17:4 20:1 24:1 25:1 34:1 
-0.3607469242514431 -0.573484435302722 -0.289231197193009 0.5079166809354604 1.09845973875792 0.5444510834931208 1.153366190358547 6:1 20:1 24:1 25:1 34:1 
-0.09976663408455634 -0.03355001641152483 -0 0 0 0.0185861028211922 0 6:2 17:2 20:1 24:1 25:1 34:1 
-0.2889180711773979 -0.4133070151845081 -0.2764321733279361 0.2491324378672469 0.1496164896395716 0.4414645033556236 0.3443484536578819 6:1 17:2 20:1 24:1 25:1 34:1 
-2.290629039947579 -1.646529772518591 -1.67501864864252 1.470586799401639 0.6047687256789118 1.678425629844704 1.855631482311571 6:1 24:1 25:1 34:1 
-0.5838578064338495 -0.5837676602026786 -0.287560507855411 0.2576899395055428 0.1512624640700784 0.5521546541054346 0.3548347968198273 13:2 17:2 31:1 40:1 
-0.6471319466951999 -0.5837119651521245 -0.4155328974228186 0.3731496600460092 0.2233743553064206 0.5757061669929537 0.5150855496045225 13:2 17:4 31:1 40:1 
-0.5263756003935688 -0.4888186273045174 -0.3237368168574614 0.2919296453417355 0.1782866230184656 0.4857184976427459 0.4072026289217017 6:2 13:2 17:4 20:1 31:1 40:1 
-0.0446625917230022 -0.06231456973103167 -0 0 0 0.1003175587950192 0 13:1 17:1 31:1 40:1 
-0 -0 -0.006231456747293846 0.006781965248844306 0.003911186031036491 0 0.008248571870207597 13:1 17:3 20:1 31:1 40:1 
-0.2718712053703873 -0.2430285045405179 -0.1774725769051159 0.1574475126844559 0.08879130668335736 0.2440455808360127 0.2112151792028131 6:2 13:1 17:3 20:1 31:1 40:1 
-1.009018876518111 -1.205443318163212 -0.8254166006811363 0.8371470062216275 3.446407770699072 0.8924771684222442 0.9758816104189874 31:1 40:1 
-0.3797916535323857 -0.4768484697998328 -0.2677964323143535 0.240111957613505 0.1440627201651392 0.4715380473697546 0.3324522622795017 17:2 31:1 40:1 
-0.593404065795931 -0.7293506415957492 -0.4269731031517172 0.3622607944236695 0.3403010099832323 0.6766938181525386 0.693700926979959 20:1 31:1 40:1 
-0.2582758991651437 -0.3232273252632853 -0.1465096016194848 0.2426327962626501 0 0.2982782362408153 0.2148641116168531 6:2 21:2 31:1 40:1 
-0.8781589841880335 -0.8196427903983367 -0.6737194749712021 0.5151478220654828 0.2650104561087966 0.9016593572470686 0.7271910139763366 6:2 21:3 27:1 41:1 
-0.2241201193686596 -0.4181063732309842 -0.1395655032288398 0 0.2100372822961737 0.4227412515290028 0.6246007480135215 6:2 21:1 29:1 41:1 
-0.1722038101673024 -0.03257828227874288 -0.1209791723836687 0.2662891565655019 0 0 0 6:2 21:2 29:1 41:1 
-0.6268994229492204 -0.553526834291125 -0.4813444670948471 0.3554960425807989 0.2064013536290714 0.5271234957553432 0.4205688837892266 6:2 21:2 30:1 39:1 
-0.4273333250011776 -0.3663730708835042 -0.4139967983400818 -0.2604754583645341 0.3380053245985249 0.3311538278745453 0.3060596893685219 5:1 7:1 21:1 23:1 26:1 36:1 
-0.9772345449600189 -0.8108413401338298 -1.09601234831646 -0.7211205600701541 0.2949092460963243 0.8558582218346439 0.7727343389664898 5:1 7:1 21:3 23:1 26:1 36:1 
-3.028111778263611 -0.1699063967806628 -0 -0.04660717433294774 0 0.17739160380269 0 1:1 7:1 24:1 25:1 34:1 
-0.3504203709037094 -0.1595248238209972 -0.9564477957625414 -0.1439043147748413 0.06958857056592996 0.1421027983248673 0.07852281483081679 1:1 5:1 7:1 23:1 24:1 25:1 34:1 
-0.7190260693579003 -1.851485657675236 -1.72140954637264 -1.854363914507078 1.766245727899744 1.851327380595787 5.455574427242007 7:1 24:1 25:1 34:1 
-0.1403344032432797 -0.1250881741914606 -0 -0.09860308979975754 0.03380626636686089 0.1118624704953813 0.1556057024360281 7:1 23:1 24:1 25:1 34:1 
-0.9197609198766296 -0.7147026518287015 -0.491609939783008 -0.7734539363867455 0.582503903392216 0.7039022772905067 1.277687510880189 1:1 7:1 19:1 20:1 24:1 25:1 34:1 
-0.2255933320295789 -0.5397809050429619 -0.1969473430641519 -0.4626046095178721 0.1077371103721403 0.5404899157465033 0.4196700800985168 1:1 5:1 7:2 19:1 20:1 23:1 24:1 25:1 34:1 
-0.5726776048592769 -0.6231091797822004 -0.4252444622834788 -0.9685840209550247 0.452492549704694 0.5547762949479521 0.587639010580017 5:1 7:1 21:1 23:1 31:1 40:1 
-0.2813542202492083 -0.3581925608214286 -0.364960105437933 -0.161458116366039 0.02730512222290244 0.1778305461328227 0.189186415409109 5:1 7:1 21:2 23:1 28:1 41:1 
-0.4591418509041145 -0.4509917989564051 -0.6163279898995273 -0.3676640395711599 0.2650474374785847 0.7886818972468467 0.7025986809231185 5:1 7:1 21:1 23:1 27:1 41:1 
-0.897023707069516 -0.8357138102006634 -0.680761034362001 -0.7694847215289169 0.3717969115991819 0.8058020253119923 0.8275337777246154 5:1 7:1 21:3 23:1 29:1 41:1 
-0.6661921577171513 -0.6232408713807044 -1.633309206001161 -0.5246416728047307 0.4520090992309819 0.6007753926390429 0.5950804247938001 5:1 7:1 21:1 23:1 30:1 39:1 
-1.761034605659757 -1.041729138709713 -0.7255288943581515 -0.694274172039372 -0.6435176709642217 0.9982079494756971 0.6377842661376542 8:1 26:1 36:1 
-1.633103719080492 -1.145030934277908 -1.175236122042919 -0.4684534941637833 -1.245295624938407 1.164656948764384 1.038946552323883 8:1 24:1 25:1 34:1 
-0.9741923250872904 -1.188703910998126 -0.8285195129240565 -1.682792175702662 -0.9634609577612735 1.157679256747236 1.642780749195692 8:1 20:1 24:1 25:1 34:1 
-0.7491640066642482 -0.9078778789772286 -0.5731509886459756 -3.590291714238378 -0.6648839406289005 0.8238575706875152 0.6463877635686816 8:1 31:1 40:1 
-0.794688298560885 -1.237567679625431 -0.6229985186219378 -0.6891751245065504 -0.5795277667551557 1.221181577223291 3.444649656779823 8:1 29:1 41:1 
-0.872863451706292 -0.899186109363761 -1.968127986927023 -0.6606005854175284 -0.6647613084801273 0.9449578615582533 0.7085664764579677 8:1 30:1 39:1 
-0.8212090592662192 -1.127324590976885 -0.4321202695658142 -0.387403717249349 -0.4223256290641583 -0.1896381276476313 0.3795833844401183 2:1 18:1 21:2 22:1 26:1 36:1 
-0.618930495284798 -0.9508477610593571 -0.3440732950404458 -0.5867098487811594 -0.3809958827817784 -0.1874328966557853 0.5728801226349522 2:1 18:1 21:3 22:1 31:1 40:1 
-0.491522752142284 -1.476635393837501 -0.5397221020789014 -0.3469869708142269 -0.3271290311798724 -0.1309505701169611 0.4191192083337862 2:1 18:1 21:3 22:1 28:1 41:1 
-0.7556457791724146 -1.210981319105007 -1.778871617296985 -1.85295882838633 -1.740081274830939 -1.512214257830174 2.651524195283547 2:1 24:1 25:1 34:1 
-0.8040411428139677 -0 -1.068392986472618 -0.3527238404220783 -0.5980606345220368 -1.143184869146338 1.71170983314822 27:1 41:1 
-0 -0.3529769933672248 -0 -0 -0 -0 0 18:1 22:1 27:1 41:1 
-0.4648386546365775 -1.165978189935427 -0.2417844404361424 -0.4632803257293173 -0.2196029618648764 -0.1679376103700556 0.4616533345078625 18:1 20:1 27:1 41:1 
-2.107567906707103 -0.7266673595686461 -0.5052040345173594 -0.5654564818206503 -0.3416479467951546 -0.6217090357508591 0.3241700235583956 9:1 27:1 36:1 
-0 -0.03754787738958986 -0 -0 -0 -0 0.009968112075161338 2:1 9:2 10:1 27:1 36:1 
-0.261385600653714 -0.6747098802521994 -0.05801102069805275 -0.1642643504626642 -0.0768945409198544 -0.04479224892335744 0.147375220564333 9:1 22:1 27:1 36:1 
-1.366293450916256 -1.958359372039779 -0.3438362611289106 -0.4731073820217072 -0.3151618317427722 -0.1634543333889822 0.4596995982892471 9:2 10:2 11:1 22:1 27:1 36:1 
-0 -0 -0 -0.004599192969159484 -0 -0 0 2:1 9:1 18:1 20:1 27:1 36:1 
-0.6380724092029592 -0.4946512651236792 -0.3176078721308391 -0.4497205259787299 -0.2892159206326805 -0.1597466161816047 0.4192454776448574 2:1 9:2 10:2 11:1 18:1 20:1 27:1 36:1 
-0.7022791659216503 -0.9668330770204885 -0.3196898059090994 -0.9042038754360912 -0.2749206005306196 -0.1843113093435754 0.4053742824385337 13:1 17:1 27:1 41:1 
-0.3835455236365811 -0.949184462644731 -0.0999405323433717 -0.1593868960520786 -0.1166742338464648 -0.03531797341547645 0.1517464933211464 13:1 17:1 18:1 22:1 27:1 41:1 
-0.4730407211630793 -0.3009613587693844 -0.2809449696102669 -0.4062240182818342 -0.2936114487099669 -0.0414253552001047 0.3304565868681181 2:1 18:1 21:3 22:1 27:1 41:1 
-0 -0.002290579668927195 -0 -0 -0 -0 0 2:1 9:2 10:1 18:1 22:1 24:1 25:1 34:1 
-0.08326256743509744 -1.272624953515589 -0.004674473026029123 -0 -0 -0.01141437306275651 0.02372181283702067 2:1 9:2 10:2 11:1 18:1 22:1 24:1 25:1 34:1 
-0 -0.2676996340465291 -0.2813118542490541 -0.40681697107299 -0.2521403984103301 -0.1264010529841949 0.3556885511313206 2:2 9:2 10:2 11:1 24:1 25:1 34:1 
-0 -0 -0.01698355982637159 -0.02212697280937428 -0.008158170940474586 -0 0.008015660145152186 2:2 9:2 10:2 11:1 18:1 22:1 24:1 25:1 34:1 
-0.01037435988534075 -0.5005787096079385 -0.05770147517022201 -0.3226662705637384 -0.1661919447492512 -0.3652359690154186 0.3148119159888945 2:1 18:1 20:1 24:1 25:1 34:1 
-2.81051050753663 -0.3540245973353837 -0 -0 -0 -0 0 2:1 9:1 24:1 25:1 34:1 
-0 -0.07857869922062639 -0 -0 -0 -0 0 2:1 9:1 18:2 20:1 22:1 24:1 25:1 34:1 
-0.579735386677241 -0.6230730001027225 -0.3316611844418921 -0.5470200413153016 -0.2701429709236469 -0.1550070939628741 0.4260931099902387 2:1 9:1 13:1 17:1 18:2 20:1 22:1 24:1 25:1 34:1 
-0.5476581831749125 -0 -0 -0 -0.0006692199665034595 -0 0 1:1 2:1 9:1 18:1 22:1 24:1 25:1 34:1 
-0.9339367947553104 -0.5454046920632561 -0.01082269982953119 -0 -0.08188580310171618 -0.01416453362861723 0.0807371046063802 1:1 2:1 9:2 10:1 18:1 22:1 24:1 25:1 34:1 
-0 -0 -0.0627772255411831 -0.135799886380901 -0.002965074670700521 -0 0.02258343188809815 1:1 2:2 9:2 10:1 18:1 22:1 24:1 25:1 34:1 
-3.303303698921642 -0.4113333796321987 -0.165062299286891 -0.2295147575307552 -0.1310470276312106 -0.09758968211155053 0.1787163528853624 1:1 2:1 9:2 10:2 11:1 18:1 22:1 24:1 25:1 34:1 
-0 -0 -0.1602971180951357 -0.2045116189533316 -0.1674570279261496 -0.09829734737539629 0.243840358169661 1:1 2:2 9:2 10:2 11:1 18:1 22:1 24:1 25:1 34:1 
-0.4479498156000706 -1.168889585404213 -0.2170328999966985 -0.2426996857863912 -0.2480299707222503 -0.07173316049531414 0.2691282247611745 1:1 2:1 9:1 18:2 20:1 22:1 24:1 25:1 34:1 
-1.536393219645146 -1.059422011036192 -0.6318175027183823 -0.888211759152976 -0.572253512360921 -0.3403763580241609 0.8249734421027856 1:1 2:2 13:5 17:3 18:1 20:1 22:1 24:1 25:1 34:1 
-0.5857934144738917 -1.356212979176281 -0.6921918963442715 -0.5009352397211482 -0.3446915934192534 -0.4482063898251875 0.4792868482443889 2:1 18:1 21:1 22:1 30:1 39:1 
-0.7641155572274761 -0.5949549108807235 -0.5947125403449662 -0.5119546719721982 -0.4624420410451628 -0.2155134183904624 -0.605906955484768 4:2 21:3 26:1 36:1 
-0.07089245879449212 -0.06080906263864663 -0 -0.4514611396501652 -0.05774267305053716 -0.09506032759471254 -0.06262397023588305 4:2 21:2 31:1 40:1 
-0.558566261670441 -0.5472401259458542 -0.3780376612759348 -0.2375272510287605 -0.3019726697963079 -0.1419928598843533 -0.5994845578176724 4:2 21:3 31:1 40:1 
-0.2462147622814512 -0.50409296955868 -0.2664772708540786 -0.1056700385169902 -0.08383440999625678 -0.01020502287457901 -0.2584591302590308 4:2 21:2 28:1 41:1 
-0.41919830552605 -0.3324989917384022 -0.3266163720431787 -0.4388343281295188 -0.2588590831150948 -0.1396976372626427 -0.5166446607817936 4:2 21:3 27:1 41:1 
-1.53176387376357 -1.025024301820737 -0.2882374628743733 -0.9894090131010885 -0 -0.8648164144645658 -1.03733675543905 4:1 24:1 25:1 34:1 
-1.039241874187639 -2.075695097861081 -0.1117566322122331 -1.024707961147711 -0 -3.359093857382744 -1.806913060292839 29:1 41:1 
-0.1720916329065597 -0.1605264505383983 -0.10592276125447 -0.1365753896220271 -0 -0.001047414904813626 -0.1743988111341742 4:1 19:2 29:1 41:1 
-0.4993305303956521 -0.5017602009367793 -0.3522371344794522 -0.4469230618760708 -0.2921490686788021 -0.1369575438091783 -0.5064729361476361 16:1 19:2 20:1 29:1 41:1 
-0.01469777637945804 -0 -0 -0 -0 -0.01921181158336332 -0 4:1 16:1 19:2 20:1 29:1 41:1 
-0 -0 -1.043152019087587 -0 -0 -0 -0 16:1 29:1 41:1 
-0 -0 -0.04099971931616846 -0.01034118230005026 -0 -0 -0.01014228457171272 16:1 20:1 29:1 41:1 
-0.8298421880856524 -0.7848187185149332 -0.5304841504848283 -0.7141231182519227 -0.3252262714854494 -0.263599031978619 -0.7969412375758459 4:2 16:1 20:2 29:1 41:1 
-0.1608467785654079 -0.1509704262211942 -0.1323533300811368 -0.1358063029067272 -0.008428884044736011 -0.08638377317087992 -0.1373889144219635 19:2 29:1 41:1 
-0.5916234892619612 -0.5485892328168921 -0.3978840853816389 -0.4899107169891155 -1.510775752685045 -0.196269328287621 -0.5495362488304455 7:1 29:1 41:1 
-0.4049225677780141 -0.2968070652916568 -0.1989285716379725 -0.285425481712887 -0.299872489750991 -0.0977886313673382 -0.2382777815637349 4:2 21:3 29:1 41:1 
-1.95487691867169 -1.259269068031943 -3.343381045540248 -0.6971754554185267 -1.418398730582977 -0.2744146832246194 -1.279896911761822 16:1 24:1 25:1 34:1 
-0.5049375592543369 -0.7319545354171368 -0.3132221413454878 -1.314144883124657 -0.775878448144839 -1.1680764522823 -0.7031730064530355 16:1 20:1 24:1 25:1 34:1 
-0.4953914794254285 -0.4356511361341588 -0.1892070725240234 -0.402993004854329 -4.059821038455311 -0.1987594614845155 -0.434651143677172 4:1 7:1 24:1 25:1 34:1 
-0 -0 -0.1089304180420202 -0 -0 -0 -0 4:2 7:1 24:1 25:1 34:1 
-0 -0 -0 -0 -0.06687727429818656 -0 -0 4:1 7:1 16:1 19:1 20:1 24:1 25:1 34:1 
-0.2379981221293463 -0.2764259744589121 -0.2061265213191345 -0.2096306566245631 -0 -0 -0.2766834328523617 4:2 7:1 16:1 19:1 20:1 24:1 25:1 34:1 
-0 -0 -0.02949280070320816 -0 -0 -0 -0 4:2 7:1 16:1 20:1 24:1 25:1 34:1 
-1.056632234648378 -0.8512572641556923 -0.5145951644274805 -0.7455771019514361 -1.104851805873212 -0.4154925786993723 -0.8555546508132352 19:2 24:1 25:1 34:1 
-0 -0 -0.02087445816456153 -0 -0 -0 -0 4:2 7:1 19:1 24:1 25:1 34:1 
-0 -0 -0 -0 -0.1439201877231127 -0 -0 4:1 7:1 19:1 24:1 25:1 34:1 
-0.08462243289205515 -0.1482455444073912 -0.1281657877104002 -0.19606028760099 -0 -0.09050665662760188 -0.1423575361019004 4:1 19:2 20:1 24:1 25:1 34:1 
-0.6600656403010222 -0.6275533580537251 -0.8060074544200864 -0.542369510776929 -0.1968420445272085 -0.344228559189421 -0.6792586996426806 4:2 21:1 30:1 39:1 
