svm_type c_svc
kernel_type rbf
gamma 0.25
nr_class 7
total_sv 292
rho 0.186032 0.175668 0.0719564 -0.455119 -0.239717 -0.440637 0.150839 -0.0708511 -0.53559 -0.345492 -0.510097 -0.0690076 -0.532338 -0.349459 -0.517839 -0.538223 -0.304716 -0.424247 0.200911 -0.0498628 -0.218305
label 1 2 3 4 5 6 7
probA -4.79715 -4.99572 -4.84806 -3.70073 -4.43939 -4.11062 -4.67656 -5.31282 -4.1106 -4.57085 -4.25217 -5.11463 -4.54513 -4.54104 -4.36426 -3.31867 -4.34826 -3.91893 -3.56976 -3.58054 -3.91444
probB 0.331174 0.453129 0.277168 -0.234904 0.00274661 -0.317048 0.418255 0.443332 0.018377 0.0594847 -0.353621 -0.321829 0.386366 -0.235191 -0.209927 -0.10959 -0.0830875 -0.457191 -0.0181503 -0.334827 0.0116686
nr_sv 43 70 71 51 15 25 17
SV
3.14256368206777 0 0.1666940650091416 0 0.07256159929809311 0.0658349558740082 1:2 2:2 3:1 14:1 19:1 
0 1.243077184986503 0 0 0 0 1:2 2:1 3:1 14:1 19:1 
0 0 0.5210153322507165 0.1566131402513935 0.3701955501387967 0.2796190442714602 1:3 2:2 3:1 14:1 19:1 
2.121620007451346 1.538693836881491 2.229995284381732 4.131430225255648 1.359591687824055 3.253603272701712 1:1 19:1 
0.3279398121916653 0.1941947268474303 0.1845618384303726 0.09841637377416497 0.2073062726168552 0.09259213947343171 9:5 12:1 13:2 19:1 
0.6090440968906186 0.1861030575994231 0.1285101036768426 0.07603369166317356 0.08320641952718688 0.06622709920060382 1:1 2:1 3:1 9:5 12:1 13:2 14:1 19:1 
0.486143591466944 0.4540538177007438 0.3097498936337203 0.1552579427808643 0.2240511185625234 0.1633310659239 1:3 2:2 3:1 9:5 12:1 13:2 14:1 19:1 
2.063778593337094 0 0 0 0 0 1:2 2:1 9:5 12:1 13:2 16:1 19:1 
0 0.2445570783287451 0.1913243655721883 0.1005927967711949 0.1816001385548369 0.1052070940939231 1:2 9:5 12:1 13:2 16:1 19:1 
0 0.3083040236465791 0.2726451333099746 0.1357134142250475 0.1704547032609397 0.1365307297104939 1:3 2:1 9:5 12:1 13:2 16:1 19:1 
0.5816199928558078 0.5675150168542378 0.5196520706322565 0.2622035136794378 0.3107214948449762 0.2745560025377118 9:6 12:1 13:2 19:1 
0.2665558953382678 0.3121590928572529 0.2832858013515915 0.137369823308924 0.2064249225189969 0.1479439196425002 1:1 2:1 3:1 9:6 12:1 13:2 14:1 19:1 
0.5634710431576888 0.4955206381712118 0.4624707969283817 0.2355859890523029 0.3249523595264903 0.240029057659378 1:3 2:2 3:1 9:6 12:1 13:2 14:1 19:1 
0.3437471945321231 0 0 0 0 0 1:2 2:1 9:6 12:1 13:2 16:1 19:1 
0 0.2115369540709238 0.1985455092391016 0.0977155851146409 0.108180208227683 0.09866578936531571 1:2 9:6 12:1 13:2 16:1 19:1 
0 0.2989182191808524 0.2665601218418348 0.1388580099295273 0.2054441023382695 0.1442857120103863 1:3 2:1 9:6 12:1 13:2 16:1 19:1 
0.6494649760140264 0.6865013727312309 0.6502461438241101 0.2674276705826398 0.7145478039814093 0.3487799456587991 9:3 19:1 
1.029120798456657 1.015414046126005 0.9240866241601884 0.4713696791498552 0.6690623758144633 0.4822423184802451 9:5 12:3 19:1 
0.009196278035185428 0.189929666283634 0.15995991422068 0.01585339866903322 0.1216713160204658 0.09054011095506245 1:1 2:1 3:1 9:3 14:1 19:1 
0.7604187300823029 0.6133119238905792 0.6446597532204478 0.354292515240564 0.4577780220092389 0.3345861022058241 1:2 2:2 3:1 9:3 14:1 19:1 
0 1.183714859808036 2.153084940827893 4.162851596304121 1.316071417669603 0.3514410896416567 8:1 19:1 
0 0 0 0 0 0.4263416125040149 1:1 8:1 16:1 19:1 
4.360147046914827 3.308821337111751 0 0 0 0 1:1 2:1 3:1 8:1 14:1 19:1 
1.641728191033487 2.445766516710689 0 0 0 0.03638684252070441 8:3 19:1 
0 0 0.4497944532449257 0 0.2413456695776389 0.1322747207682656 1:1 8:3 16:1 19:1 
2.820663836255848 3.050393111725373 0.2820715324701068 0 0.221807861448416 0.1836030366225455 1:1 2:1 3:1 8:3 14:1 19:1 
3.743093131110395 0.3634635290666718 0 0 0 0 8:1 18:1 
4.033597847660654 1.016319054635977 0.3123535002259061 0 0.1806929455359428 0.1899305396572962 8:3 18:1 
0.8189130067370819 0.7930819350097129 1.104455255157991 2.028057458266977 0.8212869563181018 0.3727711828138637 9:1 18:1 
1.2011647727235 0 0.100707317022628 0 0.0680523651993124 0.1299951698165854 1:1 2:1 9:1 16:1 18:1 
0.4944933707131361 0.5598294019229608 0.5696353406713077 0.004358328789691093 0.3581479759405189 0.2934323822060355 1:3 2:1 9:1 16:1 18:1 
0.9831435242426566 0.05551602067568498 0 0 0 0 1:1 2:1 3:1 8:1 14:1 18:1 
0.3664191966972201 0.569494082596173 0.4941645149519281 0.2006722268752985 0.3354853484190237 0.2281859188888326 1:1 2:1 3:1 8:3 14:1 18:1 
1.058499848272282 0.9039275587650069 0.08827569537295472 0 0.01121735693897838 0.01328436820754512 1:1 2:1 3:1 9:1 14:1 18:1 
0 0.2309995712113664 0.3223619927860684 0.2554524016353905 0.2504911955880629 0.165651344976018 1:3 2:2 3:1 9:1 14:1 18:1 
0.7287118682757985 0.8366781133046809 1.014924105411188 1.058168887903192 0.7642882251594301 0.5480571536739726 1:1 8:1 17:3 18:1 
0.2703215704081987 0 0 0 0 0 1:1 8:1 17:1 18:2 
3.380475802609178 2.585640220044842 0.2833482766342941 0.1112783372905882 0.2168218695080037 0.1856184522907725 1:1 8:1 17:1 18:3 
0 0 0 0.6020599998777629 0.3388344716928645 0.2224778247471582 1:1 8:1 17:3 18:3 
0 0.705579406796543 4.085311988613051 0.8112916143420152 0.3234520170769492 0.2033779803347186 1:1 8:1 17:1 18:4 
0 0.05535629650177922 0 0.1800986175980481 0.2179865679777719 0.1656049410687313 1:1 8:1 17:3 18:4 
0.7000862057344793 0.7144582860657042 0.8514260444150127 0.9621085873279268 0.9372538453008475 0.4666389762075745 1:1 8:1 17:1 18:6 
0.9406671862410247 0.8659827499835993 0.6393982805881021 1.000656404879482 0.612039663005585 0.4764272468853487 1:1 8:1 17:3 18:6 
-0.2869569428537355 1.022887869901095 2.883538838986256 3.982007033043285 1.792938002006879 1.654826973598529 2:1 19:1 
-1.790562377383628 0 0 0 0 0 2:1 8:1 19:1 
-3.726357935160464 1.162643823330001 0.5698522252888304 0.25089908746498 0.3358048693578165 0.2453338873042528 2:1 8:3 19:1 
-0 0.06192429269681515 0 0 0 0 2:2 3:1 8:3 14:1 19:1 
-0 0 0.1294109704894532 0.04148215101920361 0.09826786839310248 0.06079544128078648 2:3 3:1 8:3 14:1 19:1 
-4.393265186350393 0.7247495524103181 0.3501702970804481 0.1727432256597425 0.1849437062245673 0.4532880163615236 1:1 2:1 14:1 19:1 
-0 1.940203004567634 0 0 0 0 2:2 3:2 8:1 14:2 16:1 19:1 
-0 0.1385919954658165 0.007671292089161822 0 0.04384558931734252 0 2:2 3:1 4:1 6:1 8:1 14:2 16:1 19:1 
-0.361086153414682 0.5064387988729472 0.3921199086041985 0.2139348953731569 0.3764813372974853 0.2211977333192345 2:2 3:1 6:1 8:1 9:1 12:2 14:2 16:2 19:1 
-0 0.09345080223191476 0.2407323568062605 0 0.2464092974675227 0.02092213408444637 2:3 6:1 14:1 16:1 19:1 
-0 0 0 0 0 0.1740705144828406 2:2 7:1 8:1 14:1 16:1 19:1 
-0 0 0.3585097544303857 0.2026029256437785 0.2484536415307562 0.1865910340824961 2:3 3:1 8:2 14:2 16:2 19:1 
-0.1025442385789254 0.2262375189581825 0.1168625306867555 0.05979852934929815 0.08047842634183588 0.06216714125142338 1:2 2:4 3:1 8:1 9:5 12:1 13:2 14:2 16:2 19:1 
-0 0 0.08267908703243751 0 0.02660876382500725 0 2:2 3:1 8:1 10:1 11:1 14:2 16:1 19:1 
-0 0.3258657645887462 0.04107135157035881 0.01265232023404895 0 0 2:2 3:1 8:1 11:1 14:2 16:2 19:1 
-0.5764266678354645 0.8515622043942711 0.6773380764785493 0.329195898061709 0.467943241076287 0.352176148048611 2:3 3:1 8:1 9:1 12:3 14:1 16:2 19:1 
-3.719363854167599 0 0 0 0 0 1:1 2:2 3:1 8:1 14:1 19:1 
-1.987546304082436 1.153706163300569 0 0 0 0 1:1 2:2 3:1 8:3 14:1 19:1 
-0 0 0.4451139240314849 0.2250398600632801 0.3139555343335489 0.233445886404177 1:1 2:3 3:1 8:3 14:1 19:1 
-0.8843767032210119 1.025361251114702 0.02875463283049226 0.04339661302352042 0.06069872237523533 0.04430169668461543 1:1 2:2 3:2 8:1 14:2 16:1 19:1 
-0.1962588364920231 0.560771823478431 0.3088778326809269 0.08474405186089225 0.1711859997311227 0.1004936599084384 1:1 2:2 3:1 4:1 6:1 8:1 14:2 16:1 19:1 
-0.7138920155129032 0.9165049586461382 0.7058593984686555 0.3516787853581457 0.498373573190522 0.3716864710413718 1:3 2:4 3:1 8:1 9:5 12:1 13:2 14:2 16:2 19:1 
-0.1646568916954624 0.2930206092437357 0.1586600922172293 0.05698969403146449 0.1081454107351505 0.05337805606271912 1:1 2:2 3:1 8:1 10:1 11:1 14:2 16:1 19:1 
-0.1636797803847587 0.6276312297673333 0.2703823554108145 0.1424337157025513 0.16525420228034 0.172436386200854 1:1 2:2 3:1 8:1 11:1 14:2 16:2 19:1 
-2.601848527316718 0 0.519297519087088 0.2576368226991095 0.4063671276333698 0.2730381807635539 1:1 2:2 9:5 12:1 13:2 16:1 19:1 
-0 0.03591587465571416 0.08032691632604821 0.0419586433302675 0.05330107720035349 0.04415881292885634 1:1 2:3 3:1 9:5 12:1 13:2 16:1 19:1 
-0 0.4025947525166749 0.07020160846871096 0.03554758933022269 0.02235051333796865 0.03596587568900675 1:1 2:3 9:5 12:1 13:2 16:1 19:1 
-0.3164373869772714 0.5353836132224871 0.5162450294239477 0.2563459267423567 0.3705191718361286 0.2719362225843608 1:1 2:4 3:1 9:5 12:1 13:2 14:1 16:1 19:1 
-0 0.4996624529440682 0 0 0 0 2:2 3:1 14:1 17:2 18:1 
-0.7370785091263928 1.463601961338081 0.7355488631158845 0.4752096857715651 0.5495672501702704 0.3942444611153133 2:2 3:1 14:1 17:3 18:1 
-2.475656184778231 0 0 0 0 0 8:1 18:2 
-0 0.1982454767702075 0.03528521889486278 0.03664216331424942 0.102990318784821 0 14:1 16:1 18:2 
-0.2477746052346376 0.6747773539747198 0.1427661818700116 0.01331878717846539 0.004787297609008782 0 8:1 14:1 16:1 18:2 
-1.391499032396158 0 0 0 0 0 8:2 18:2 
-3.042506210215506 2.809179380510888 0.4883179788809205 0.2355079711665734 0.3171452126539104 0.2091028134857626 8:3 18:2 
-0.07354125750353528 0 0 0 0 0 2:1 3:1 8:2 18:2 
-0.2143011601401208 1.876017036995929 0 0 0 0 2:1 3:1 8:3 18:2 
-0 0.414142796436122 0 0 0 0 2:2 3:1 8:1 18:2 
-0 1.062129062000344 0 0 0 0 2:2 3:1 8:2 18:2 
-0 0 0.3832425474445493 0.1703031902640981 0.2806351735732641 0.2054750895698115 2:2 3:1 8:3 18:2 
-0.2433443910276405 0.3467472877915836 0.3132959935249179 0.1380748563771632 0.2184867417873281 0.1659332702925412 2:1 8:3 14:1 16:1 18:2 
-2.711762783630489 0.8494304102023114 0.401012308697187 0.1050451691081878 0.2069926107775759 0 1:1 18:2 
-0 0.7113376140417046 0.05217221309438108 0.0272932589696142 0.09678915853098741 0 3:1 18:2 
-0.3911667910950654 1.180186049858759 0.6807454910363581 0.1599334930948201 0.9454073584018239 0.1252231611445111 6:1 9:1 12:2 16:1 18:2 
-0 0.8585398971244678 0.5148486780186038 4.098512963205779 0.245410326963157 0.005657754081913565 5:1 18:2 
-0 0.865403936090227 0.4513199140985883 0.1727549506520098 0.2449784401573672 1.436344330152876 7:1 18:2 
-0.3647397809026781 0 0 0 0 0 8:1 16:1 18:2 
-0.9972626538213964 3.115603831736683 0.5852438067683657 0.2925688734851597 0.4145573943944305 0.3093282158212303 1:2 2:1 9:5 12:1 13:2 16:1 18:2 
-0.2299328265742421 1.257104756277439 0.5130795492822633 0.2487438377759291 0.3050407926910236 0 10:1 11:1 18:2 
-0.1117736025976305 0.5804827126293495 0.8061946733642474 0.3270940526105536 0.1039770580592251 0.05339129200192616 11:1 16:1 18:2 
-0.352607188287909 2.189413920598578 0.3155484706095991 0.2190937420468005 0.1169918610477274 0.24381650562099 9:1 12:3 16:1 18:2 
-1.371320935030884 0 0 0 0 0 1:1 2:1 3:1 14:1 18:2 
-0.2488672858075809 3.129077702330729 0.8157468017929659 0.1791027674699235 0.3875317588067355 0.2808172323038164 2:2 3:2 14:2 18:2 
-0.2475302508926308 7.295912073097647 0 0 0.005164792361843373 0 2:1 3:2 14:1 18:2 
-0.2085853987476884 1.023064402871888 0.1667631444956884 0.00720016238763093 0.06166612159251187 0.05822706447272871 2:1 3:1 6:1 9:1 12:2 14:1 16:1 18:2 
-0 0.0239133785257582 0 0 0 0 2:1 3:1 5:1 14:1 18:2 
-0 0.01647678531740421 0 0 0 0 2:1 3:1 7:1 14:1 18:2 
-0.5587061889878605 2.96664658402196 0.4876661602795599 0.2437424049101669 0.3411748959461651 0.2564841171702291 1:2 2:2 3:1 9:5 12:1 13:2 14:1 16:1 18:2 
-0 1.009159750875461 0 0 0.001431358285694771 0 2:1 3:1 10:1 11:1 14:1 18:2 
-0 0.5555066236993468 0.2081291360070483 0 0 0 2:1 3:1 11:1 14:1 16:1 18:2 
-0.3281577515716909 2.211744539661768 0.3995668408415712 0.2205213553628023 0.2957670802622221 0.2177751574185126 2:1 3:1 9:1 12:3 14:1 16:1 18:2 
-0 0 0 0.06748143885717113 0 0 2:2 3:1 14:1 17:2 18:2 
-0 3.155484612129833 0 0 0 0 2:2 3:1 14:1 17:1 18:3 
-0 0 0 0.09046411225714919 0 0 2:2 3:1 14:1 17:2 18:3 
-0.2977241838212992 0.2427491981916344 0.1989811703664397 0.2381320050043261 0.2458346664519965 0.1765889825499773 2:2 3:1 14:1 17:3 18:3 
-0.1324375577655623 2.71782196114578 1.842021101671694 0.3081084566480848 0.210639284534323 0.1316863523094707 2:2 3:1 14:1 17:1 18:4 
-0.2707981698803437 0 0 0.08518310839366676 0.183020167288217 0.1454096020248873 2:2 3:1 14:1 17:3 18:4 
-0.03999410507548052 0 0 0 0 0 2:2 3:1 14:1 17:1 18:5 
-0.6239308406703868 1.088516920316061 0.6769536777610115 0.4504701161894391 0.5543125789813228 0.3582649844546557 2:2 3:1 14:1 17:1 18:6 
-0.5985516504967514 1.776508918603851 0.5781276234480676 0.482909097023883 0.4520816466603345 0.3430223473593976 2:2 3:1 14:1 17:3 18:6 
-0.2802447545333227 -1.867887465702372 2.4043799416722 3.953303413491386 1.853687205229371 1.642709354947362 3:1 19:1 
-1.913656077052106 -0 0 0 0 0 3:1 8:1 19:1 
-3.720156482896302 -2.04443343931084 0.6975401083804564 0.3197571423765464 0.4244523914465803 0.3080499540162248 3:1 8:3 19:1 
-0 -0.101593802455195 0 0 0 0 2:1 3:2 8:3 14:1 19:1 
-0 -0 0.2049530490389622 0.07863325515820005 0.1515449265816493 0.1065246297014126 2:1 3:3 8:3 14:1 19:1 
-0 -0.8076567077027199 0 0 0 0 2:1 3:2 8:1 14:2 19:1 
-3.54677454220732 -0.660949883129279 0.3435471525455408 0.1925048546206864 0.2151824523570331 0.466851117428193 1:1 3:1 14:1 19:1 
-0 -1.415952798061723 0 0 0 0 2:1 3:2 8:1 14:2 16:1 19:1 
-0 -0.107865768837249 0.1920616650552578 0.004381565214243569 0.1305327499748384 0.02743019314749231 2:1 3:2 4:1 6:1 8:1 14:2 16:1 19:1 
-0 -0.4430608562474973 0 0 0.09514240803346038 0 2:1 3:2 6:1 14:1 16:1 19:1 
-0 -0 0.3682405790858789 0.02987530024892206 0.1909676935798694 0.3832266923871294 3:2 7:1 8:1 14:1 16:2 19:1 
-0 -0 0 0.01235313395773042 0 0 2:1 3:3 8:2 14:2 16:1 19:1 
-0.4992156616978091 -0.6803672295036903 0.5118867334712746 0.256838214269521 0.3578257380194613 0.2647649398352092 1:2 2:2 3:3 8:1 9:5 12:1 13:2 14:2 16:2 19:1 
-0.07239496145452121 -0.4888688287469607 0.08530887386847893 0.09918635005730382 0.05310662530107104 0 2:1 3:2 8:1 11:1 14:2 16:2 19:1 
-0.7424877920399239 -1.111649317902049 0.8405551713607797 0.4221199494133906 0.6117665577511856 0.4324319831921417 2:1 3:3 8:1 9:1 12:3 14:1 16:2 19:1 
-1.617375569165361 -0 0 0 0 0 1:1 2:1 3:2 8:1 14:1 19:1 
-0.04062908684202004 -0 0 0 0 0 1:1 2:1 3:2 8:2 14:1 19:1 
-2.531004871109505 -1.1791473889183 0 0 0 0 1:1 2:1 3:2 8:3 14:1 19:1 
-0 -0 0.4413209734784792 0.2153564936186289 0.3032421289569509 0.2292337212608367 1:1 2:1 3:3 8:3 14:1 19:1 
-0.4689598788961723 -0.8896389251525701 0.3051800192773564 0.1307940481841617 0.185262723024237 0.1339120936009746 1:1 2:1 3:2 4:1 6:1 8:1 14:2 16:1 19:1 
-0 -0 0.02959644214623771 0.0369704341228496 0.03792852338326946 0.01009198060161102 1:1 2:1 3:3 8:2 14:2 16:1 19:1 
-0.5251586452680819 -0.5756959701444015 0.5246932879129875 0.2637842947974726 0.3669528521212726 0.2723440035925139 1:3 2:2 3:3 8:1 9:5 12:1 13:2 14:2 16:2 19:1 
-0.2440476150186171 -0.530204389862474 0.07040248554555902 0.005365546162450019 0.05763490943300564 0.02276947721825468 1:1 2:1 3:2 8:1 10:1 11:1 14:2 16:1 19:1 
-0.3279481827452734 -0.8638143155374247 0.3122108870354009 0.1630406348245686 0.205554602647213 0.1828739859662622 1:1 2:1 3:2 8:1 11:1 14:2 16:2 19:1 
-0 -0 0.4591043567404293 0 0 0 3:2 10:1 11:1 16:1 19:1 
-0 -0.1849579685646798 0 0 0 0 2:1 3:3 10:1 11:1 16:1 19:1 
-0 -0 0 0 0.05385615424604005 0 3:3 10:1 11:1 16:1 19:1 
-0.4517216381738876 -0.3860345877692511 0.6119646455622541 0.2905767091124133 0.4336068681144281 0.3334618559310928 2:1 3:4 10:1 11:1 14:1 16:1 19:1 
-0.1601032535583407 -1.898160745274645 0 0 0 0 2:1 3:2 14:1 17:1 18:1 
-0.7087779085048709 -0.5685123720862064 0.7216804319931085 0.5008761383142895 0.5649334685299366 0.4046841829085659 2:1 3:2 14:1 17:3 18:1 
-0 -5.365199094032653 0 0 0 0 2:1 3:2 14:1 17:1 18:2 
-0.05885493663941169 -0 0 0 0 0 8:1 18:3 
-0 -1.468084293136347 0 0 0 0 2:1 3:1 14:1 18:3 
-0 -0.2264979846387383 0.3151070250786264 0 0.1291647709282631 0 14:1 16:1 18:3 
-0.2770168094531791 -0.3041376352675333 0 0 0 0 8:1 14:1 16:1 18:3 
-1.283887994212239 -0 0.2365423909782439 0 0 0 8:2 18:3 
-0.4902492339234342 -2.792083202134058 0.4852785856282428 0.2286883863248311 0.3177975687306043 0.2128859598130828 8:3 18:3 
-0 -1.207663432906002 0 0 0 0 2:1 3:1 8:3 18:3 
-0.3440304217146622 -0.5311549860866708 0.4237819346003399 0.2292700565766073 0.3212742507486611 0.2470822106434303 2:1 3:2 8:3 18:3 
-0 -0 0.1655612319361017 0 0 0 3:1 8:1 14:1 16:1 18:3 
-0.3261302415067032 -0.4724641806909718 0.3090169872163898 0.1865703041565292 0.2671109738610998 0.2029759339086993 3:1 8:3 14:1 16:1 18:3 
-2.239781245268244 -0.7539345817242562 1.320081639173732 0.03039662429403069 0.2413222031287804 0 1:1 18:3 
-0.4141860189732122 -2.932023688795934 0.3188541442758208 0.07691796425176103 0.2019892620891509 0.09302993841313474 2:2 3:1 8:1 18:3 
-0 -0 0.4068813064820546 0 0 0 3:1 18:3 
-0.2404700675427131 -1.129402713232943 1.80895049110395 0.1102817031855086 0.6354727125162539 0.1061650557542325 6:1 9:1 12:2 16:1 18:3 
-0.03366779839835208 -0.7637239441099297 1.220517707141182 4.17529018279576 0.2534792289622461 0.1435348895689548 5:1 18:3 
-0.03321769381229269 -0.7704966997629327 1.357506735075769 0.1725119974774535 0.2529409136337978 0.9675618527892927 7:1 18:3 
-0.07250120500603086 -0 0.06233526425106571 0 0 0 8:1 16:1 18:3 
-0.6542723255631272 -3.004135883274483 0.6363629818847497 0.3203785727649389 0.4504352252763476 0.330465081387927 1:2 2:1 9:5 12:1 13:2 16:1 18:3 
-0.26261417394688 -1.168419363144478 0.4738307075692995 0.3709777625230803 0.2782994159180717 0.01700398068396794 10:1 11:1 18:3 
-0.01762515753100983 -0.6216335631350725 1.42233720393249 0.4923419670980091 0.1145074078623867 0.02797511927628707 11:1 16:1 18:3 
-0.3886496379631895 -2.110190688655988 0 0.2278829514817328 0.2152893691404057 0.2362268436516016 9:1 12:3 16:1 18:3 
-0.1963524725210597 -0.4479745817047521 0 0 0 0 1:1 2:1 3:1 14:1 18:3 
-0.5054938497643555 -4.677798526041592 1.673034255231001 0.2101543110353259 0.4137922523513865 0.3078174565535807 2:2 3:2 14:2 18:3 
-0 -0.706128837314476 0 0 0 0 2:1 3:2 14:1 18:3 
-0.2003301804690712 -1.050043705876152 0.3368736311191775 0.08189313003604923 0.1288957642634363 0.1045558983085349 2:1 3:1 6:1 9:1 12:2 14:1 16:1 18:3 
-0 -0.4512963892026965 0 0 0 0 2:1 3:1 5:1 14:1 18:3 
-0 -0.4443718175277511 0 0 0 0 2:1 3:1 7:1 14:1 18:3 
-0 -0 0.2687731349944559 0 0 0 2:1 3:1 8:1 14:1 16:1 18:3 
-0.5949482750557514 -2.908945230035034 0.6159881518122853 0.3092038153857971 0.4292979573109751 0.3187815080066309 1:2 2:2 3:1 9:5 12:1 13:2 14:1 16:1 18:3 
-0.07100968397459891 -1.090923277116592 0 0 0.05900533563049675 0.06752611706914682 2:1 3:1 10:1 11:1 14:1 18:3 
-0 -0.6706065796902156 0.8525370269012891 0 0 0 2:1 3:1 11:1 14:1 16:1 18:3 
-0.3772539173043337 -2.114693990085941 0.3683921483855009 0.223872785095234 0.3076403265615318 0.2256629182065766 2:1 3:1 9:1 12:3 14:1 16:1 18:3 
-0 -0 0 0.3533307127055573 0 0 2:1 3:2 14:1 17:2 18:3 
-0.3240879271961269 -0 0.3425767509627339 0.1176761469215602 0.2313144667296439 0.1707583078144676 2:1 3:2 14:1 17:3 18:3 
-0 -0 0.2087719863920002 0 0 0 2:1 3:2 14:1 17:1 18:4 
-0.2847989030031431 -0.8194015561674182 0 0.09417609309746658 0.2348907113119271 0.1671196417966091 2:1 3:2 14:1 17:3 18:4 
-0 -0 1.923288187619698 0.1860936076367899 0 0 2:1 3:2 14:1 17:1 18:5 
-0 -0.08303056736713074 0 0 0 0 2:1 3:2 14:1 17:2 18:5 
-0.6512616049621213 -1.354685315977277 0 0.4026779362302671 0.5887778901531326 0.3641245579007617 2:1 3:2 14:1 17:1 18:6 
-0.6114640112247155 -1.52243622172856 0.5092349097187663 0.4797690868982967 0.4413346554853651 0.3392614863777374 2:1 3:2 14:1 17:3 18:6 
-1.865032614201854 -1.118558440997354 -0.8182921075701407 3.964340066745165 1.158176272738442 0 4:1 19:1 
-2.256679605185168 -1.715100014736596 -1.510385791754851 7.626655650622411 1.312235016004044 0.4091269886081627 11:1 19:1 
-0.3738548290062829 -0.7612129334464525 -0.778863589131613 0.2053639430214221 0.3805764332926499 1.090413561480792 11:1 16:1 19:1 
-0.3196277819765579 -0 -0 0.924998747165986 0.1936323518199019 0 15:2 19:1 
-0 -0 -0 0.1254707570138365 0 7.055691678145955 4:1 7:1 19:1 
-0 -0 -0 0 0 0.05802432782650092 4:1 7:1 11:1 16:1 19:1 
-0.5881794768963147 -1.357223723067883 -0.5972852553645497 0.2550539601867369 0.3805957551236443 0.3083786081176781 2:1 15:2 19:1 
-0 -0 -0.4549911563945058 0 0 0 3:1 4:1 15:2 19:1 
-0 -0 -0 0 0.3660649509845166 0 4:1 6:1 11:1 15:2 16:1 19:1 
-0.322184627344749 -0.4228925465862537 -0.4135479230329326 0.1047815674340477 0.2739004186111302 5.287951944944395 4:1 7:2 15:1 19:1 
-0.6906107963868405 -0.7619244548847194 -0.6383780555773881 0.1227008800280244 0.3839485678227106 0.5237940643989766 1:2 2:1 4:2 7:1 11:1 16:1 19:1 
-0.4906833184626425 -0.6322272968038615 -0.9229470153019617 0.07333919264041935 0.3744788305414928 0.04077462195716133 3:2 4:2 7:1 11:1 15:1 16:1 19:1 
-0.06866764889825913 -0.3003689911174475 -0.2818428735538394 0 0.1645018211503783 0 4:3 7:1 19:1 
-0.577758524392788 -0.3479060170919294 -0.3695379597429045 0 0.2222751092207441 0 1:2 4:2 7:1 15:1 19:1 
-0.9891373709863501 -0.7885640474931829 -0.8032682689145361 0.1803348041331113 0.4127544517785156 0.2642816600004994 4:1 8:2 15:2 16:1 19:1 
-0.1190318125329082 -0.2566608143073712 -0.2608292700514905 0 0 0 4:1 11:2 15:2 16:1 19:1 
-0.8688400055770277 -0.7525247048698257 -0.6876354439578558 0.6373695635383125 0.6473827912673681 0.5940514410456326 4:2 17:3 18:1 
-0.3614983463059757 -0.8248994240742274 -1.02071662451426 0 0.1014209521867891 0 4:2 17:1 18:2 
-0.0576500949828615 -0 -0.115353664843742 0 0.05020908150067045 0 4:2 17:1 18:3 
-0.03715485428638378 -0 -0 0.4866806697690736 0.1654723173692839 0.06791252478444436 4:2 17:2 18:3 
-0.2172490861258288 -0.2304951261627721 -0.2398590324375916 0.05202434816609112 0.1266808134276722 0.3640014748687134 4:2 17:3 18:3 
-0 -0 -0 0.6081279320577689 0 0 18:4 
-0.3230668676259354 -0.2888198090598931 -0.3313570550436857 0.2600463069219667 0.2532922164053785 0.1215448705079348 15:2 18:4 
-0 -0 -1.068644360528593 0 0 0 11:1 16:1 18:4 
-0.2579980994443883 -0.4096433953396468 -0.4002763676316012 0.01979675630053426 0.2098897477729855 0.1661938288742071 11:1 15:2 16:1 18:4 
-0 -0 -0.306774375460403 3.655377570301062 0 0 11:1 18:4 
-0.4186898059714447 -0.5643829241277269 -0.565097411520548 0.1102953520983696 0.3394982849588056 0.2096945519835835 4:2 11:1 16:2 18:4 
-0 -0 -0.295443635432672 0 0.01059532268382467 0 1:1 16:1 18:4 
-0 -0.9285964929842928 -0.7501886709508835 0.1684558855588436 0.008671181160415903 0 2:1 18:4 
-0 -0.2589725148386768 -1.609746640095708 0.1699156597166229 0.009856943590895761 0 3:1 18:4 
-0.2148719113919561 -0.1969454242382084 -0.6077297810269823 1.274254723958457 0.1890424722083734 0.1075974941830744 5:2 16:1 18:4 
-0.3769549310528693 -0.3575333577651542 -0.3515157640836421 0.2567705984840461 3.958355709220739 0.1860353109854102 6:2 18:4 
-0.08600943941993933 -0.2009464423576302 -1.232082525364655 0.6226827290227476 0.15456381770294 0.3074286845435089 7:1 18:4 
-4.073755534332527 -0.5795092332001758 -1.287985437864601 0.2871197013995759 0.3149456608944557 0.06229997161693984 1:1 8:1 18:4 
-0.3206964957186813 -1.420807630303418 -1.1322327857296 0.134246781970777 0.2360927312999079 0.188926883611879 2:2 3:1 14:2 16:1 18:4 
-0.3134017292803378 -0.49625028164729 -1.916376423637677 0.1366122686440524 0.2397973477618879 0.1861653008853784 2:1 3:2 14:2 16:1 18:4 
-0.3572395638512555 -0.5787677219868196 -0.5399396392898412 3.165361980576464 0.2708942407690362 0.2071388921409173 5:2 11:1 16:1 18:4 
-0.4334690277773053 -0.7726605107453979 -1.726980360637466 0.193170311983645 0.8710564191257868 0.2645133831346804 6:2 9:1 12:2 16:1 18:4 
-0.06072770209624809 -0.1128099747977218 -0.09511471809950431 0 0.05425525411267332 0.2265919558410495 4:1 5:2 16:1 18:4 
-0.05711732911073383 -0.1158419273798339 -0.09131116309616806 0.004699999237623249 0.04943700588295137 0 4:1 6:2 18:4 
-0 -0 -0 0 0 0.7161871824465527 4:1 7:1 18:4 
-0.2515698721056488 -0.2964318126485517 -0.2934011780074909 0.1255034559386548 0.1907514646021469 0.1502046710278029 2:2 3:1 4:1 14:2 16:1 18:4 
-0.2529527058585715 -0.2940709910006994 -0.2900421902644386 0.1222268154311284 0.1870153821234471 0.1534651022182074 2:1 3:2 4:1 14:2 16:1 18:4 
-0.4051127255521819 -0.4703279532071734 -0.4554936032563547 0.2174953087914292 0.3008427694722521 0.2499752042807685 4:2 11:1 15:2 16:1 18:4 
-0.06940032922649912 -0.04929052689700093 -0.05041564120706283 0.3711246309937228 0.04190269702893461 0.06562259352392433 4:1 5:2 11:1 16:1 18:4 
-0.3931828633636263 -0.4488964409745478 -0.4489106250447339 0.1969611362675479 0.2934813813627992 0.243151816633894 4:1 6:2 9:1 12:2 16:1 18:4 
-0.2016171101558457 -0 -0 0 0 0 4:2 17:2 18:4 
-0.3648571559126758 -0.3540084443680486 -0.2999243566338733 0.2137303892128032 0.309247186142715 0.1787226202478099 4:2 17:3 18:4 
-0 -0 -0 0.1205306262515653 0 0 4:2 17:1 18:5 
-0.6994484426081699 -0.515275419111063 -0.2936658514561326 0.9563494783647004 0.6713361421204878 0.4589963983123235 4:2 17:1 18:6 
-0.7292955546710067 -0.7649057792344323 -0.8326587301271254 0.4938257445446103 0.5017918491377431 0.6330859477732566 4:2 17:3 18:6 
-0 -0.1667010310403893 -0.02127572066144565 -4.67284074146571 0 0 5:1 11:1 19:1 
-1.035720684841497 -1.271309332731131 -1.233573455875718 -0 0.9475175402489918 0.8143590997532596 5:2 11:1 16:1 19:1 
-0.438301310125397 -0 -0 -0 0 0 5:1 17:1 18:1 
-1.416091907319635 -0.6239026743360232 -1.034202441049837 -1.232438001916768 1.114242349498297 1.003926351019921 5:1 17:3 18:1 
-0.6487150329670269 -4.044164582778317 -0.3968438476372478 -0 0.2649417270401399 0.1554312819051507 5:1 17:1 18:2 
-0.5814835145736631 -0.5157871211715651 -4.265696672448554 -2.681242304004914 0.4165084624260257 0.5170160216444807 5:1 17:1 18:3 
-0.4936490264537042 -0 -0 -0 0.4054084649941653 0.3040880478221231 5:1 17:3 18:3 
-0 -0 -0 -1.134392016167534 0 0 5:1 17:1 18:4 
-0.6520501191343788 -0.4815843328121455 -0.01165192901029279 -0.2510607936045198 0.4136739127953357 0.3856944264738513 5:1 17:3 18:4 
-8.359686155282018 -4.732839598854599 -4.463251538286904 -8.284686960182453 4.234004815984525 4.083674163060486 19:1 
-1.047872329564369 -0.8925916094407023 -1.347236033534656 -4.175102592991802 1.101903429842941 0.1021484723380259 11:1 18:5 
-0.5659123563894125 -0.6865680850040466 -0.7648733893659829 -0.9944026799980459 0.4480572967093637 1.357822341527939 4:1 5:1 7:1 11:1 18:5 
-0.695988877559034 -0.9027983265451459 -1.066545286157198 -3.906930486449693 0.5851996959575244 0.3346841503396185 5:2 11:1 16:1 18:5 
-0.7717771909065201 -0.304441401995841 -0.07306609958135109 -0 0.8684679341773126 0.4973035737716061 5:1 17:1 18:6 
-1.504539725422247 -1.231811690806321 -1.377857162308164 -1.310699717711919 0.9965309710338274 0.9288458447536314 5:1 17:3 18:6 
-2.940956573284744 -2.381782456248271 -2.344337328746567 -3.017914040935683 -4.143779961611666 2.08856375044293 6:1 19:1 
-0 -0 -0 -0 -0 0.03455422579629407 6:1 9:1 12:1 16:1 19:1 
-0.7247541270359933 -0.2055572884026063 -0.1976708103808716 -0.2621602053905734 -0.1580930971441135 0.159443119879516 6:1 9:2 12:1 13:1 16:1 19:1 
-0 -0.03768779587130506 -0.051345208835051 -0 -0 0 6:2 9:2 12:1 13:1 16:1 19:1 
-0.5466129289644777 -0.9066667692285653 -0.6083461572257397 -0.6038115353201799 -0.4438152547737278 0.4247132762252298 6:1 9:1 12:2 16:1 19:1 
-0.2865754278287622 -0.5010416743347831 -0.4916602440323654 -0.4201441418988129 -0.2944896298669581 0.240668495554823 6:1 9:2 12:2 13:2 16:1 19:1 
-0.06372121137808646 -0.2269935890813115 -0.2694561443424325 -0.1764618496919332 -0 0.01290631144436251 6:2 9:1 12:2 16:1 19:1 
-0.5278588386994673 -0.5963449327356432 -0.5966884609364044 -0.6198164197587106 -0.3347127700019029 0.3802732471810216 6:2 9:2 12:2 13:2 16:1 19:1 
-1.097778123912202 -1.022919543525831 -1.068584920368372 -1.105361554165771 -0.8767366263228716 0.6570583211164283 6:2 17:3 18:1 
-0.05198162687371256 -0.3361770549210792 -0 -0 -0 0 6:2 17:1 18:2 
-0.7686403412309082 -0.8866670349828036 -1.176189098399673 -0.8068342278949859 -0.3723597448742164 0.4500755184127999 6:2 17:1 18:3 
-0.2814218299170275 -0.1491264638781015 -0.1508089085671815 -0 -0.3674208548235243 0.1810431289568445 6:2 17:3 18:3 
-0.1004691372966601 -0.01026759165915465 -0.06880434013892606 -3.758256278256344 -0.4257622379828854 0.0735895857317785 6:2 17:1 18:4 
-0.4212199023716438 -0.4624972347373728 -0.4176432824911889 -0 -0.2177004282204427 0.2432379605221205 6:2 17:3 18:4 
-0.4905851031129056 -0.1871182701114024 -0.2297865204960055 -0.5345738294479115 -1.011418595216693 0.1942163821193079 9:1 12:1 18:6 
-0.03480419870933375 -0.1605199432485513 -0.1388927652980537 -0.02744842430224348 -0 0.06502116176794305 9:2 12:1 13:1 18:6 
-0.7219175231213214 -0.8648331731736006 -0.8980465860067995 -0.7935095735034016 -0.2949261427393925 0.4800553255749789 9:1 12:3 18:6 
-0.4193423067330087 -0.4197785753922847 -0.4211271335385812 -0.4380142606818418 -0.2166214914045203 0.2498752592945021 9:2 12:2 13:2 18:6 
-0.429800689926692 -0.4493219480286224 -0.4988541194070557 -0.4285212820165867 -0.402890630293791 0.2606825010738683 9:1 12:1 16:1 18:6 
-0.2782974984756736 -0.307762152109619 -0.3167505563320211 -0.2955184579524815 -0.1612151605980369 0.1785523776569978 9:2 12:2 13:2 16:1 18:6 
-0.3039060595764141 -0.4265525338785041 -0.4493592591266348 -1.070721397149074 -0.09838261761802436 0.2206679953003952 6:2 9:1 12:1 16:1 18:6 
-0.1572066843285284 -0.1426124995902559 -0.1384867263775065 -0 -0.05539377425495468 0.08948316226375427 6:2 9:2 12:1 13:1 16:1 18:6 
-0.7148473563838211 -0.7796067381728761 -0.7883247394549514 -0.8296348677894279 -0.5004794515175625 0.4519496988637489 6:2 9:2 12:2 13:2 16:1 18:6 
-0.670017220782917 -0.5742864272298787 -0.5415615655321918 -0.3401227437807546 -0.6023347034667693 0.36187905728195 6:2 17:1 18:6 
-0.9703111374780299 -0.9285857317232072 -0.9444887652902632 -0.8520940724448191 -0.8179234279763942 0.5913239081893819 6:2 17:3 18:6 
-1.054011960758389 -2.196823981337282 -1.850920256862197 -4.636014541907612 -3.934462131953344 -1.997346654480765 7:1 19:1 
-3.312471597199008 -0.6325653476783426 -0.6318852832714282 -0 -0.2864564815917822 -0.3121056366900902 1:1 7:1 19:1 
-0 -0.03285355003702738 -0.1268523464555719 -0.1710658606964892 -0 -0 4:1 5:1 7:2 19:1 
-0 -0.003693621548470283 -0.004650211344340969 -0 -0 -0.03308740173454991 1:1 4:1 5:1 7:2 19:1 
-0 -0 -0 -7.493183937351357 -0 -0 4:1 7:2 19:1 
-0 -0 -0 -1.616116164527208 -0 -0 1:1 7:1 15:1 16:1 19:1 
-1.144995863152978 -1.062340257050269 -1.096056672599168 -0.5341876470403421 -0.7922544402207271 -0.8691965578059613 1:1 7:1 15:1 16:2 19:1 
-0.7893674068689674 -0.9893216307003907 -0.9934395859677536 -1.215838395066781 -0.5647636210867214 -0.7998075836206915 1:1 4:1 5:1 7:3 15:1 16:1 19:1 
-0.05083769696504287 -0.09497311973790998 -0.09741509092753539 -0.1024731701311534 -0 -0.08712052496751585 4:1 5:1 7:2 17:1 18:1 
-1.152526097431719 -1.08558042597578 -1.153718258882926 -1.192697489730356 -1.065470029336033 -0.9602170902391561 4:1 5:1 7:2 17:3 18:1 
-0.05390248034006303 -0.5221198746016734 -0 -0 -0.1346913994328203 -0 4:1 5:1 7:2 17:1 18:2 
-0.7761581196765081 -0.8936456606392024 -1.259686825726243 -0.7506213303168542 -0.2979226325198669 -0.6708357589343573 4:1 5:1 7:2 17:1 18:3 
-0.2818489823628515 -0.1386113098647657 -0.1674380217123005 -0.3501156961033542 -0.3636745397835492 -0.2387514565460527 4:1 5:1 7:2 17:3 18:3 
-0.1150268712081487 -0.0536498331565645 -0.09460802973515312 -0.76475400356005 -0.8095134064513688 -0.08923926337345016 4:1 5:1 7:2 17:1 18:4 
-0.4486766507380737 -0.5163327478360396 -0.4552306055534809 -0.2902523848117231 -0.2393570651767133 -0.3730717967274582 4:1 5:1 7:2 17:3 18:4 
-1.004043728649622 -1.011086038725564 -1.008621046600362 -1.029364018274906 -1.185565699799032 -0.8919624650120145 4:1 5:1 7:2 17:1 18:6 
-0.9322076882450229 -0.9154056065433661 -0.9313526880214731 -1.00126092143383 -0.810862327058133 -0.7670915805189124 4:1 5:1 7:2 17:3 18:6 
