svm_type c_svc
kernel_type rbf
gamma 0.03125
nr_class 5
total_sv 34
rho 0.301146 0.0848698 -0.0282621 0.148352 -0.798217 -0.215153 -0.0393447 -0.0686038 -0.0539898 0.128081
label 4 10 0 -3 -4
probA -3.42657 -3.359 -2.83817 -2.61247 -3.49378 -3.06026 -2.78943 -2.97346 -2.82327 -2.22951
probB 0.175855 0.0876285 -0.42703 -0.634555 -0.0661309 -0.546562 -0.829239 -0.395477 -0.599168 -0.222028
nr_sv 5 10 11 4 4
SV
8.280985707568419 0.8174986799010295 0 0.5527023781082242 11:1 47:1 
0.06212736703121506 14.94623227098172 0.5003440030985311 0.04135664573600695 11:1 21:1 47:1 
0.6617900152826239 2.837654000828632 0.5045046618295016 0.5916622600494366 11:1 20:1 21:1 23:1 
0 0 4.613870857587278 0 11:1 21:1 
13.30858300274225 15.14046560185761 5.763530422297079 12.31139387000933 11:1 
-0.3334593798770829 0 0 0 5:1 47:1 
-0.01041332061299716 0 0 0 5:1 31:1 43:1 
-0.004539948793523819 0 0 0 4:1 
-0.3562551259851505 0.1042085415647092 0.3908973408009836 6.758176177743287 4:1 32:1 
-10.66019134020727 32 6.349646752319742 1.892586015697945 4:1 
-0 15.95393375610323 0.3669961586767402 0.4442100374402039 5:1 43:1 
-0.3435145184876809 0.1059925025452008 0.04211997203245206 0.0574465466948218 5:1 31:1 43:1 
-2.762621317115897 14.95558415035055 5.566704899605758 7.034845556555544 5:1 
-7.842491141544901 1.637537900528214 0.4111245017468571 0.4977030775514758 5:1 47:1 
-0 0 0.3655904472786901 0.4385178919987365 5:1 31:1 
-0 -3.961919034135211 0 0 43:1 
-15.71110026036158 -1.639967275557934 0.4507921794235687 0.4664244889372638 21:1 47:1 
-0.4582921999439897 -0.9075692649028827 0.5727048031330733 0.4856974531852945 27:1 
-0.4524557064059093 -0.9034259297768301 31.10569080130927 0.4878411421327256 37:1 
-0.009047731224179777 -0.09621005130314499 0 0 20:1 36:1 
-0.8222911137475311 -0.7495647168185684 0 8.481619320001894 20:1 36:1 
-0 -12.34943514675603 0 0.4334293378049974 43:1 
-2.047956409041821 -0.1649190365561692 0.4835837310592467 0 20:1 21:1 23:1 43:1 
-0 -27.37609149419685 0 0 
-14.24070713284399 -16.60815490108829 0 14.65488603873748 
-0 -0 0.0009936260009423738 0.05054264064524765 21:1 43:1 
-0 -0 -0.07342776651192161 0 15:1 27:1 37:1 
-5.27168532551919 -12.27205640652167 -30.15972775536826 8.64554486901066 15:1 37:1 
-0.5145529766751922 -0.6102375610596467 -1.003089806610237 0.5724300526600945 15:1 27:1 37:1 
-5.596011642618005 -0.6107861048799117 -1.377519812435686 0.5764466446600328 15:1 21:1 37:1 
-6.395094655316543 -4.988005250661968 -16.08789717949406 -4.581127616141385 16:1 36:1 
-6.65482989476576 -5.24276272819831 -8.420652095019854 -4.762254253726623 16:1 48:1 
-0.08960521445891785 -3.317709743013304 -0.126775569464456 -0.1336751820507905 16:1 32:1 48:1 
-0.3575853893617731 -3.575007581808437 -0.4251155774665331 -0.3173645144119894 16:1 32:1 36:1 
