svm_type c_svc
kernel_type rbf
gamma 0.125
nr_class 9
total_sv 387
rho -0.359881 -0.205965 -0.585018 -0.0731719 -0.332152 -0.78695 -0.783422 -0.161677 0.211351 -0.206677 0.0658401 0.0360523 -0.600745 -0.535438 0.146188 -0.316923 0.541531 -0.2356 -0.66194 -0.632781 -0.159767 0.168379 0.261227 -0.571423 -0.4794 0.227563 -0.66179 -0.893549 -0.849573 -0.436819 -0.566727 -0.512016 0.112408 0.0787858 0.557381 0.506476
label 10 1 -2 0 -1 -3 3 4 -4
probA -4.90676 -4.87342 -4.28006 -5.0752 -4.44702 -3.89503 -3.96034 -4.59343 -4.70016 -4.21924 -4.65007 -4.29878 -3.70615 -9.3411 -4.37786 -4.12915 -4.60792 -4.13705 -3.59116 -3.48599 -4.16282 -3.76916 -3.63197 -2.81055 -2.76036 -3.61138 -4.55361 -3.75577 -2.11354 -4.69843 -2.80574 -2.84741 -3.61378 -1.97809 -2.90127 -2.95342
probB -0.0719452 -0.472004 -0.555202 -0.112512 -0.604647 -1.26269 -1.04037 -0.461448 -0.105224 -0.597537 0.240405 -0.428492 -0.870917 6.30612 -0.288299 -0.347608 0.669449 -0.395436 -0.632559 -0.712014 -0.382658 0.56182 -0.0815811 -0.408925 -0.329746 0.188927 -0.388395 -1.14758 -1.81842 -0.317118 -0.476265 -0.393324 0.0405118 0.109146 0.645121 0.53458
nr_sv 75 78 46 26 115 22 4 5 16
SV
0 0 0.7465821340371308 1.469462513720522 0 0 0 0 3:1 20:0 53:1 57:1 68:1 80:1 
0 0 0 0.2640838393819127 0 0 0.009355982195682686 0 3:1 20:1 33:1 37:1 48:1 60:0 
0 0 0 0 0.1006647499527215 0 0 0 3:1 20:0 33:1 37:1 48:1 60:0 63:1 80:1 
0 0 0 0.7789755089379311 0 0.0202453615224484 0 0 3:1 20:0 33:1 37:1 60:0 68:1 80:1 
0 0 1.203393618119483 0 0.3306587828007329 0 0 0 3:1 20:0 53:1 57:1 63:1 80:0 88:1 100:1 
0 0.01978383440951514 0 0 0.1300919927432899 0 0 0 3:1 20:0 33:1 37:1 43:1 60:0 68:1 80:1 88:1 100:1 
0 0.0100829131340451 0 0.07840748751664545 0 0.03595595801422485 0.02072550134218488 0 3:1 20:0 33:1 37:1 60:0 68:1 80:1 88:1 100:1 
0 0 0.6334322794604803 0.501690687712448 0 0 0 0 3:1 20:0 53:1 57:1 68:1 80:0 88:1 100:1 
0 0 0.09338145117354221 0 0.5746432384420693 0 0 0 3:1 20:0 43:1 
0 0 0 1.954156676000345 0 0 0 0 3:1 68:1 80:0 100:0 
0 0 0.8096782243760724 0 0.0240233989463468 0 0 0 3:1 20:0 53:1 57:1 68:1 80:0 100:0 
0 0 0 0.1124689652838696 0 0 0 0.16448230471787 3:1 80:0 93:1 100:0 
0.1134547759672541 0.001523388819476845 0.01506340055721441 0.1139079089883945 0.0958256309728429 0 0 0 3:1 20:0 33:1 37:1 48:1 60:0 75:1 80:0 93:1 100:1 
0 0 0.07293137125465921 0 0 0 0 0 3:1 20:0 43:1 75:1 80:0 93:1 100:0 
0 0 0.5096404333392925 0 0.3112226826314935 0 0 0 3:1 20:0 53:1 57:1 63:1 80:0 88:1 100:0 
0.3997063279115144 4.94397035841453 2.311222091223825 2.335490541342985 0.09891494168172149 0.4018677376311846 0.4026698516475832 0 17:1 68:1 80:0 83:1 100:0 
0 2.83392045929065 0.3064235242468513 0.05188637144484849 0.1256276190816245 0 0.02383480571340987 0 1:1 13:1 17:1 63:1 80:0 88:1 100:1 
0.2988208684325094 0.115322978333049 0.4100939206231096 0.4163793374908343 0.2168188779465929 0.1000201537606054 0 0 3:1 20:0 41:1 53:1 57:1 68:1 80:1 
0.322349711398024 2.64462085854318 0.02096563590352039 0.6685884304548922 0.1539186822463316 0.05671459209317086 0.1410136373589351 0.1560632657056913 1:1 13:1 17:1 68:1 80:0 83:1 100:1 
0.05143544944813908 0 0 0.2762625479265433 0 0.05028994684990029 0.07322671351150771 0 3:1 20:1 21:1 33:1 37:1 48:1 60:0 
0.3944504881120421 0 0 0 0.163488859209381 0 0 0 3:1 20:0 21:1 33:1 37:1 48:1 60:0 63:1 80:1 
0 0 0.7196846761578747 0 0.1357155466508877 0 0 0 3:1 20:1 28:1 40:0 43:1 60:0 
0 0 0 0.1398526497170937 0 0.0233032322640798 0 0 3:1 20:0 21:1 33:1 37:1 60:0 68:1 80:1 
0 0 0 2.680177371645457 0 0.01871421286715892 0.3390060335059925 0 3:1 20:1 40:0 48:1 60:0 
0.3912155185211424 0.200477049305852 0.6196319406908148 0 0.1778325992547982 0 0.03000727776843942 0.08734975721284245 3:1 20:0 41:1 53:1 57:1 63:1 80:0 88:1 100:1 
1.291182913333805 0.2117784918798434 0.1428384366871584 0 0.200996369873489 0 0 0.1350687214475432 3:1 20:0 21:1 33:1 37:1 43:1 60:0 68:1 80:1 88:1 100:1 
0 0.1031824639538432 0 0.2943048247100772 0 0.06319585329221777 0.06807051852159526 0 3:1 20:0 21:1 33:1 37:1 60:0 68:1 80:1 88:1 100:1 
0 0 0.01460971006169927 0 0 0 0 0 1:1 13:1 17:1 80:0 88:1 100:0 
0.5565041906075953 0.04309526490640048 2.125062923854581 0.3469289014578006 0 0 0 0 3:1 20:0 41:1 53:1 57:1 68:1 80:0 88:1 100:1 
0.3861922374995929 0 0 1.105663228022121 0 0 0.0835146561604453 0 3:1 20:1 28:1 40:0 48:1 60:1 
0 2.181554126519803 0 0 0 0 0 0 1:1 13:1 17:1 68:1 80:0 88:1 100:0 
0.4347436762955804 0.2281597179405771 0.1875674358515819 0 0.5196283498848873 0.01232529925758565 0 0 3:1 20:1 28:1 40:0 48:1 60:0 63:1 80:1 
0 0 0 0 0 0.06166349555245014 0 0 3:1 20:1 28:1 40:0 43:1 60:1 
0 0 0 0 0 0 0.01190367225902108 0 3:1 20:0 21:1 33:1 37:1 60:0 63:1 80:0 88:1 100:1 
0 0 0 0 0 0.0847626333147998 0 0 3:1 20:0 40:0 43:1 60:0 68:1 80:1 88:1 100:1 
0.5365912987479456 0.4346649812770015 0.08752780916241668 0.04671323492731802 0.07560162357907019 0.2996436619852025 0.2393002662436707 0.06257723036406629 3:1 20:1 28:1 40:0 48:1 60:1 63:1 80:1 
0.3346388298464719 0.2348557551463316 0.0239339061236216 3.375579751044156 0.1303585083869967 0 0.359257474678787 0.0513105899278966 3:1 20:1 28:1 40:1 43:1 60:1 
0.5166508245210624 0 0 0 0 0 0 0 3:1 20:0 41:1 53:1 57:1 68:1 80:0 95:1 100:0 
0.658241440731098 0.2845888005500768 0.1624027855032011 0.2434929476155404 0.1833200603450608 0.01691692169558426 0.008573422900859464 0.302023720741067 3:1 20:0 21:1 33:1 37:1 48:1 60:0 75:1 80:0 93:1 100:1 
0.2342007715822488 1.965459206016351 0 0 0.4485733873404567 0 0.2120923738330743 0 1:1 13:1 17:1 63:1 80:0 83:1 100:0 
0.1848079374714601 0 2.117222312655472 0 0.06755974082191754 0 0 0 3:1 20:0 41:1 53:1 57:1 63:1 80:0 88:1 100:0 
0.3135767411841445 0 0 0 0 0 0 0 3:1 20:0 21:1 33:1 37:1 43:1 60:0 68:1 80:0 95:1 100:0 
0.3663584166411127 0 0 0 0 0 0 0.1145998851167623 3:1 20:0 21:1 33:1 37:1 48:1 60:0 63:1 80:0 95:1 100:0 
0.4134771359009881 0.2164872001389949 0.09784565154232136 0 0.2291485425493512 0 0 0.2199024892108552 3:1 20:0 28:1 40:0 43:1 60:0 75:1 80:0 93:1 100:0 
0 1.050900439760036 0.1193298795799465 0 0 0.3031110617055553 0.01602057510479874 0.5133665151725478 1:1 13:1 17:1 80:0 83:1 100:0 
0 0.6091165450492291 0.4979571892418099 1.351916337875579 0 0 0 0 1:1 13:1 17:1 80:0 88:1 100:0 
0.1122731096339207 0 0.6433802887690115 0.2997771092985883 0.261625673951589 0 0 0.1824937360813344 3:1 20:0 40:0 48:1 60:0 75:1 80:0 93:1 100:1 
0 0 0 0 0 0.1259181990125792 0.09043193272545881 0 3:1 75:1 80:0 83:1 100:0 
0 0 0 0 0.04803325864447378 0 0 0 3:1 20:0 23:1 55:1 60:0 80:0 90:1 100:1 
1.008912899311406 1.361972778835362 0.8803833219576366 1.573582692458237 0.7891919972034773 0.07676393178868682 0.2710209381103248 0 17:1 63:1 80:0 95:1 100:0 
0 0 0 0 0 0.009722266173963738 0 0.09633283106799312 3:1 20:0 57:1 75:1 80:0 83:1 100:0 
0 0.001566895542061822 0 0 0 0 0 0 3:1 20:0 23:1 40:0 55:1 60:0 80:1 90:1 100:1 
0.1133121114850795 0 0 0 0.6181218841758187 0 0 0 3:1 20:0 53:1 57:1 63:1 80:0 95:1 100:0 
0.3879317048480606 0.05569949622004765 0.04046311460928485 0 0.1197145140758262 0.005522242925434167 0 0.1867157127261201 3:1 20:0 33:1 37:1 43:1 60:0 75:1 80:0 83:1 100:0 
0.3015466822525358 1.435204080966478 0.784141884173141 1.432847670673828 0.5512324463023559 0.9819463827439686 0.2495911932691885 0.4405452521079998 3:1 20:0 23:1 40:0 55:1 60:0 80:1 90:1 100:1 
0 0.02075572645982244 0 0 0 0 0 0.03821180846846264 3:1 20:0 33:1 37:1 55:1 60:0 80:0 90:1 100:0 
0.05224462587629138 0.4663805309505196 0 1.687546358226378 0.1360485176277655 0.3531528791236965 0.5486310365156699 0.2287659534802135 3:1 20:1 30:1 40:0 51:1 60:1 63:1 80:1 
0.1810797678448276 0.1791356462020874 0.2118551672448354 3.002039266888006 0.215798868576423 0.187688014179113 0.5442486704851158 0.2025342952577035 3:1 20:1 31:1 40:1 43:1 60:1 
0 0 0.164441760114181 0 0.136040477882843 0 0 0.22124022215125 3:1 20:1 36:1 40:0 53:1 57:1 60:0 101:1 
0.2350654555242581 0.1341185345466735 0.07506756660940135 1.242494542217264 0.07500193274703421 0.1288513271447024 0.3081427055824124 0.1660629649012468 3:1 20:1 36:1 40:0 53:1 57:1 60:1 101:1 
0 0 0.004913615856245259 0 0 0 0 0 3:1 20:1 36:1 53:1 57:1 60:0 101:6 
0 0.01692488164034797 0 0 0 0 0 0 3:1 20:1 36:1 40:0 53:1 57:1 60:1 101:6 
0 0 0 0 0 0 0 0.06580393255131166 3:1 68:1 80:0 88:1 100:1 101:1 
0.3258912806797665 0 0 2.441182769124513 0.3367435007445657 0 0 0.78970624100262 17:1 68:1 80:0 101:1 
1.429491771879909 0.3378760433461052 0.398342179470798 0.1550356213983446 0 0 0 0 17:1 68:1 80:0 88:1 100:1 101:1 
0.2110999219103453 1.701932746447235 0.9308070403662904 0 0.7557735214425767 0.1352541484389101 0.3050933365803191 0.826301410918265 17:1 63:1 80:0 88:1 100:1 101:1 
0 0 0 0 0 0 0 0.1211375121588302 3:1 20:0 57:1 68:1 80:1 101:1 
0 0.3958702496070303 0 0 0 0 0 0 17:1 63:1 80:0 88:1 100:0 101:1 
0 0 0 0 0 0 0 0.2798591483740404 3:1 68:1 80:0 95:1 100:0 101:1 
0 0 0 2.089370429380693 0 0 0 0 3:1 
0.2253042310230272 1.336715285893862 0.1942537684303015 4.002221817246394 1.090695497208606 0.1010214745207256 0.1083999399063557 1.039181661193991 3:1 20:1 36:1 40:0 53:1 57:1 60:0 101:6 
0.2549217428613572 0.2635840381952304 0.2018744464449689 0.7052004823284365 0.2660323506045834 0.08665595375474237 0.1059315073439502 0.3422034808299009 3:1 20:1 36:1 40:0 53:1 57:1 60:1 101:6 
0 0.01276819152391619 0 0 0 0 0 0 3:1 20:1 36:1 53:1 57:1 60:0 101:4 
0.1968474417455373 0.2541044969110489 0 0 0.09304178391731172 0.01720636629602873 0 0.3840503687287596 3:1 20:1 36:1 40:0 53:1 57:1 60:0 101:4 
0.1273875136603375 0.2305796923168648 0.02256174208401376 0 0.1360073338415998 0.03314356101030747 0 0.1512280595681484 3:1 20:1 36:1 40:0 53:1 57:1 60:1 101:4 
-0 0 0.01469942840741702 0 0 0 0 0 8:1 20:0 43:1 
-0 0.08419120438857186 0.3966038102841237 0.9195735960917922 0.6355011596568828 0.1489988683374339 0 0 8:1 20:0 53:1 57:1 63:1 80:1 
-0 0.08481780723940506 0.09837326686128293 0.5213246699286198 0.2596223804068542 0.02196242671424107 0.2025626984166496 0.06462103938687683 8:1 20:0 53:1 57:1 63:1 80:0 83:1 100:1 
-0 0.1015262048645501 0.03902384366468653 3.508660266482256 0 0.01447855221854173 0.07371345635298261 0 8:1 20:0 33:1 37:1 60:0 63:1 80:1 
-0 0 0 0 0.003105143718716456 0 0 0 8:1 20:0 33:1 37:1 48:1 60:0 63:1 80:1 
-0 0.01357621725198972 0.3733323266389721 0.6352544972302147 0 0 0 0 8:1 20:0 53:1 57:1 68:1 80:0 83:1 100:1 
-0 0 0.04164853950840652 0 0 0 0 0 8:1 20:0 33:1 37:1 48:1 60:0 63:1 80:1 83:1 100:1 
-0.06634554895403827 0.1706225501603915 0.04005524003481752 2.976481091892925 0 0.2582884085868891 0.1518861229871747 0.0140102553653679 8:1 20:0 33:1 37:1 60:0 68:1 80:1 83:1 100:1 
-0 0 0.6059537165657291 0 0 0 0 0 8:1 20:0 23:1 48:1 60:0 68:1 80:1 
-0 0 0 0.1610298693616421 0 0 0 0 8:1 20:1 28:1 40:0 48:1 60:0 
-0 0 0.5541995947254048 1.960361881968382 0 0 0 0 8:1 20:0 53:1 57:1 68:1 80:0 88:1 100:1 
-0 0 0.6371959105947572 0 0.004261364940082921 0 0 0 8:1 20:0 53:1 57:1 68:1 80:0 88:1 100:0 
-0 0 0.001128109577165597 0 0 0 0 0 8:1 20:1 28:1 40:1 48:1 60:1 
-0 0 0 1.769566147028419 0 0 0 0 8:1 20:0 33:1 37:1 60:0 68:1 80:0 88:1 100:1 
-0 0 0.0009135315170496745 0 0 0 0 0 8:1 20:0 40:0 48:1 60:0 68:1 80:1 83:1 100:1 
-0 0 0.9062439623132572 0 0.04886527134983561 0 0 0 8:1 20:0 43:1 80:0 93:1 100:1 
-0 0 0.2554282731389581 7.630178296328091 0.3197341921271653 0 0 0 8:1 20:0 43:1 80:0 100:1 
-0 0 0 1.172901514770175 0.3681622640504262 0 0 0 8:1 20:0 33:1 37:1 43:1 60:0 80:0 100:1 
-0.005676454145274249 0 0 0 0 0 0 0 8:1 20:0 43:1 75:1 80:0 93:1 100:0 
-0.1710812537141069 0 0 0 0 0 0 0 8:1 20:0 33:1 37:1 43:1 60:0 75:1 80:0 93:1 100:0 
-0.3066059473868943 0.03960029759210427 0.08443536969500054 0 0.678247830032643 0 0 0 8:1 20:0 53:1 57:1 63:1 80:0 95:1 100:0 
-0.23798346354783 0.02302955856620571 0.01226410870953562 0 0.05594503369446641 0 0 0.01460371794295759 8:1 20:0 23:1 43:1 60:0 75:1 80:0 93:1 100:0 
-0 0 0 0 0.002411175262502483 0 0 0 8:1 20:0 23:1 40:0 43:1 60:0 75:1 80:0 93:1 100:1 
-0.01054732057164473 0 0.9514856329265154 0 0.3848774355720344 0 0 0 8:1 20:0 53:1 57:1 63:1 80:0 83:1 100:0 
-0.316887224010544 0.1241723025843809 0 0 0 0 0 0 8:1 20:0 33:1 37:1 60:0 63:1 80:0 95:1 100:0 
-0.328484198463169 0.2235521281664029 0 0 0 0.01693661171685384 0.1892787199318512 0 8:1 20:0 57:1 63:1 80:0 83:1 100:0 
-0 0 0.1688764654740465 0 0 0 0 0 8:1 20:1 21:1 33:1 37:1 43:1 60:0 
-0.2350902392314755 0.1934766807338379 0.1674225693576243 0.2384556061593011 0.1485875997241902 0.1231058217550588 0.1048694695133382 0 8:1 20:0 41:1 53:1 57:1 63:1 80:1 
-0 0.3683157311660958 0.1653995485549091 0 0.1746879534272534 0.3665616472561523 0 0 8:1 20:1 23:1 40:0 43:1 60:0 
-0.1791502583096759 0.1154501919803659 0.3704153010987764 0.1104556857842874 0.1941211440549453 0.1211351286756951 0.1753020363203155 0.2042926343066284 8:1 20:0 41:1 53:1 57:1 63:1 80:0 83:1 100:1 
-0 0 0.1042894446411383 0 0 0 0.4942074485682247 0 8:1 20:1 40:0 43:1 60:0 
-0 0.1069015283873748 0 0.3000589155725438 0 0.1353114966234432 0.05166763112823734 0 8:1 20:0 21:1 33:1 37:1 60:0 63:1 80:1 
-0 0 0.0588120440003068 0.3998494799483841 0 0 0 0 8:1 20:1 23:1 40:0 48:1 60:0 
-0.2914955975086143 0 0 0 0.09946435815319182 0 0 0 8:1 20:0 21:1 33:1 37:1 48:1 60:0 63:1 80:1 
-0 0 0 0 0 0.2625412779570911 0 0 8:1 20:1 23:1 40:0 43:1 60:0 68:1 80:1 
-0.3172923640501042 0.1636413949906525 0.7868623909788157 0.1361382330095114 0 0.009176129877308817 0 0.1982889951301813 8:1 20:0 41:1 53:1 57:1 68:1 80:0 83:1 100:1 
-0.3120400683709731 0 0.1759602278592098 0 0.2129782771740403 0 0 0.2285771802295249 8:1 20:0 21:1 33:1 37:1 48:1 60:0 63:1 80:1 83:1 100:1 
-0 0.1619792855746935 0 0 0 0 0.07957457652736226 0 8:1 20:1 40:0 43:1 60:0 68:1 80:1 
-0 0.1227024999015071 0.1715237117217478 1.448477050148987 0.02781941834278361 0.4717412548651581 0.4071153844880826 0 8:1 20:1 23:1 40:0 48:1 60:1 
-0 0.2790852769733959 0.07616462566287981 0.2008694527409959 0 0.1281593115212413 0.1560319282023331 0.2570362690019745 8:1 20:0 21:1 33:1 37:1 60:0 68:1 80:1 83:1 100:1 
-0 0 0 0.4549498258883029 0 0 0.1233633272378354 0 8:1 20:1 40:0 48:1 60:0 63:1 80:1 
-1.184927303223156 0 0.09567361642471213 0 0.08902250724010015 0 0 0.005419421725802471 8:1 20:0 21:1 33:1 37:1 43:1 60:0 68:1 80:1 88:1 100:1 
-0.5523883094791312 0.1398689418503669 1.418851525202979 0.2295520786446254 0.1213040020894454 0 0 0 8:1 20:0 41:1 53:1 57:1 68:1 80:0 88:1 100:1 
-0 0 0.02390890217924933 0 0 0 0 0 8:1 20:0 21:1 33:1 37:1 48:1 60:0 68:1 80:1 83:1 100:1 
-0.5410893885400631 0.1013705897830805 0 0 0.1558683769740003 0 0 0 8:1 20:1 28:1 40:0 48:1 60:0 63:1 80:1 
-0 0.1502584721733906 0.1222219593071737 0 0.2046552941956394 0.2073603179004375 0 0 8:1 20:0 23:1 40:0 43:1 60:0 68:1 80:1 88:1 100:1 
-0 0 0 0.484378483803229 0 0 0 0 8:1 20:1 28:1 40:0 48:1 60:1 
-0.5589629568422705 0.1170473482968405 1.128719405349805 0 0.1692176269240817 0 0 0.04238746993833095 8:1 20:0 41:1 53:1 57:1 68:1 80:0 88:1 100:0 
-0.3703042488747814 0 0 0 0 0 0 0 8:1 20:0 21:1 33:1 37:1 48:1 60:0 68:1 80:0 83:1 100:1 
-0.004172221401879835 0.01943019405280813 0 0 0.02193595603746635 0.1253123386740662 0 0 8:1 20:0 28:1 40:0 48:1 60:0 63:1 80:1 83:1 100:1 
-0.2818650937236027 0.4220117347983252 0.4634927707437444 0 0.2067294251241675 0.09875928860899701 0.2048531848172482 0.1722722613113323 8:1 20:1 23:1 40:0 43:1 60:0 68:1 80:1 88:1 100:1 
-0.3735521622121477 0.4397569220397793 0.05015259754909171 0.4361272716429979 0.05838115321558332 0.4810527597886711 0.05413188937229903 0.06257370387159614 8:1 20:1 23:1 40:0 48:1 60:1 68:1 80:1 
-0.9531219883712198 0.5934548050510563 0.3088131642608993 1.931761423306106 0.3360794589631576 0 0.5811854112610871 0.2572356167855489 8:1 20:1 28:1 40:1 48:1 60:1 
-0.06806635732023426 0.1718313822633872 0 0.2735001590900898 0.00902680055296102 0 0 0 8:1 20:0 21:1 33:1 37:1 60:0 68:1 80:0 88:1 100:1 
-0 0 0.03205999589628822 0.7528864505976587 0 0 0 0 8:1 20:0 40:0 48:1 60:0 68:1 80:1 83:1 100:1 
-0.3190602832629176 0.5404955622635406 0.5560875000379184 0 0.4047188440649027 0.2039855589193697 0.6025589232328294 0.2238468163282757 8:1 20:1 28:1 40:0 48:1 60:0 63:1 80:1 83:1 100:1 
-0.6802543932045789 0.143562749717074 0.04007181984681329 0 0.1462828631706295 0 0.004630327805802144 0.260952455619346 8:1 20:0 21:1 33:1 37:1 43:1 60:0 75:1 80:0 93:1 100:0 
-0.6207065750589473 0.1793043699501194 0.1690685206978068 0.07179892111289271 0.1327709398680908 0 0 0.1359753865656007 8:1 20:0 41:1 53:1 57:1 63:1 80:0 95:1 100:0 
-0.1494067311692508 0.5284796667997995 0.1756928121381734 0 0.3555675471915022 0.1946888696923531 0 0 8:1 20:0 23:1 40:0 43:1 60:0 75:1 80:0 93:1 100:1 
-0 0 1.902801519545429 0 0 0 0 0.1524652035573727 8:1 20:0 41:1 53:1 57:1 63:1 80:0 83:1 100:0 
-0.1018152716461653 0 0 0 0 0 0 0 8:1 20:0 40:0 43:1 60:0 75:1 80:0 93:1 100:1 
-0.6013576610965049 0.2594311838443817 0.08632031141960875 0 0.2441707362407264 0 0.1247358808877012 0.1705942787427135 8:1 20:0 21:1 33:1 37:1 60:0 63:1 80:0 95:1 100:0 
-0 0.629268532006471 0 4.184613901112693 0 0.1294585779154325 0.03450304073278813 1.097210392200781 8:1 101:1 
-1.108425003021779 0.3297162807337465 0 0 0 0 0.09338518929072447 0.01625195096464004 8:1 68:1 80:0 88:1 100:1 101:1 
-0 0 0 0 0 0 0 0.0485534261340043 8:1 20:0 57:1 101:1 
-0.01731012634732541 0.1196122349653801 0 0 0 0.007627922491686288 0 0.02245566386232406 8:1 20:0 57:1 68:1 80:1 101:1 
-0.1325490039000759 0 0 0 0.02769284651490521 0 0 0.2048575532959671 8:1 20:0 57:1 68:1 80:0 88:1 100:1 101:1 
-0.1339919420784085 0.01012332676518781 0.04106038967023695 0 0.2454040685717308 0 0.06047631184980576 0.1171173180475095 8:1 20:1 37:1 43:1 60:0 101:1 
-0 0 0 0 0.127598816597667 0 0 0 8:1 20:1 23:1 40:0 48:1 60:0 101:1 
-0.05728217523146863 0.009108590454126611 0 0 0.2424517793426746 0 0 0.1833092418826845 8:1 20:0 37:1 43:1 60:0 68:1 80:1 88:1 100:1 101:1 
-0 0 0 0 0.02240189299738416 0 0 0.03419157642485559 8:1 20:1 23:1 40:0 48:1 60:0 68:1 80:1 101:1 
-0.3564633184142594 0.122946999709562 0 0 0.2296443466527777 0 0 0.1737903695480623 8:1 20:1 28:1 40:0 48:1 60:1 101:1 
-0 0 0 0 0 0 0.1358052020347142 0.3911033560565261 8:1 20:0 43:1 75:1 80:0 93:1 100:1 101:1 
-0.6067127302919495 0 0 0 0 0 0 0.1053703064105942 8:1 20:0 43:1 68:1 80:0 95:1 100:0 101:1 
-0.2526252863244129 0 0.4680700729471212 0.1545105158827134 0.208446167583925 0.06705555745131464 0 0.2792136950006702 8:1 20:0 23:1 48:1 60:0 75:1 80:0 93:1 100:1 101:1 
-0.01460116058008433 0 0 0 0 0 0 0 8:1 20:0 43:1 68:1 80:0 88:1 100:0 101:1 
-0.1121460632307265 0.2498893096871424 0.03505855216535018 0 0.2630554549875255 0 0 0.1857005997176155 8:1 20:0 23:1 48:1 60:0 68:1 80:0 95:1 100:1 101:1 
-0.4300721215787056 0.4197781865448642 0.6142285933977425 1.154418699930347 0.4779981996431575 0.1012789279583154 0 0.289182514119442 8:1 20:0 28:1 40:0 48:1 60:0 75:1 80:1 93:1 100:1 101:1 
-4.194374281769363 -0.2627052129284527 0.5878270600432609 0.1539108375072708 0.4253094193000039 0 0.1790822725499053 0 13:1 17:1 63:1 80:0 88:1 100:1 
-2.616378585061284 -0.4367556256390002 0.5814740865407952 0.07445000773029671 0 0.2708364095317392 0.1971810652569795 0.4996059735125947 13:1 17:1 68:1 80:0 83:1 100:1 
-0.1123664793104343 -0 0 0 0 0 0 0 13:1 17:1 63:1 80:0 83:1 100:0 
-0.09663561931405264 -0 0 0 0 0 0 0 13:1 17:1 68:1 80:0 88:1 100:0 
-2.555128979157555 -0.5238306806570934 0.2978526450521325 1.05670162288329 0.08391550693691267 0 0 0.01643086655738651 13:1 17:1 68:1 80:0 88:1 100:0 
-0 -0.1196843567398313 0.3076198448108265 0.01649408641176435 0.002257751660110512 1.172188839898803 0 0 13:1 20:0 23:1 60:0 80:1 
-0 -0.4886075600950781 1.42542673556522 4.388748879545945 0.4342839628855837 0 0 0 13:1 20:1 28:1 40:0 60:0 80:1 
-0.6177114165218722 -0.7998306638254867 0.6158561271848655 3.05649527976636 0.2956193010197544 0.8301626678698112 1.564888306605513 0.1137893617895884 13:1 20:1 40:0 60:1 80:1 
-0.2160750580858779 -1.134204874548731 1.797479204589983 0.7432238800950656 1.487063508383052 0.2374456434468211 0.2404189609236386 0.4970174483419607 13:1 20:0 23:1 60:0 80:0 100:1 
-0.2592355707846837 -0.1592092777952765 1.320681155960652 0.4061972672375579 0.9557015944067603 0.00100117462453518 0.02399296547412554 0.7780633452390067 13:1 20:0 28:1 40:0 55:1 60:0 73:1 77:1 80:1 100:1 
-0.8505480578190628 -0 0 0.1383931822127367 0.2398068509018146 0 0 0 13:1 17:1 63:1 80:0 88:1 100:0 
-0.4288232878052885 -0.1256338837766353 0.1290603372060114 0.4582350254468714 0.1180451414076595 0.1205353906303633 0 0.07756365337914536 13:1 20:0 23:1 40:0 55:1 60:0 66:1 80:1 82:1 100:1 
-0.3439178868664864 -0.1925306339282383 0.08719553962257928 0.2449041724472841 0.06702559514605892 0 0 0 13:1 20:0 28:1 40:0 55:1 60:0 67:1 80:1 95:1 100:1 
-4.382630335814219 -0 0 0.7564762736227456 0 0 0 0 13:1 17:1 68:1 80:0 83:1 100:0 
-0.002489763485867492 -0 0 0 0 0 0 0 13:1 20:0 23:1 40:0 55:1 60:0 61:1 80:0 95:1 100:0 
-0.003272099714453271 -0 0 0 0 0 0 0 13:1 20:1 28:1 40:0 55:1 60:0 80:1 90:1 100:1 
-0.137450677419769 -0 0 0.3766227957254372 0 0.03761906658585616 0 0 13:1 20:0 23:1 40:0 55:1 60:0 72:1 80:1 100:1 
-0.3754796228861436 -0.1986523439976644 0.2513782984424631 0.6390512483042408 0.1922673714665366 0.2746131745757599 0.1614942567432942 0.1354064115745189 13:1 20:1 23:1 40:0 55:1 60:0 64:1 80:1 86:1 100:1 
-0 -0.4358369424466095 0.2249577606747358 0.2813026337996338 0 0 0.1034673872504594 0 13:1 20:1 28:1 40:0 55:1 60:0 68:1 80:1 100:1 
-0.7439968943693142 -0.3652264200536854 0 0.6231609277916051 0.2610131626179228 0 0.07680801779721173 0.253201512118255 13:1 20:0 23:1 40:0 55:1 60:0 61:1 80:0 95:1 100:0 
-0.4842986366480029 -0 0.165019178091948 0.2067820671799581 0 0 0.195334463129045 0 13:1 20:1 28:1 40:0 55:1 60:0 80:1 90:1 100:1 
-0 -0 0.04162074051805723 0 0 0.3498155534985965 0.05797534441483042 0 13:1 20:1 23:1 40:0 55:1 60:0 80:1 95:1 100:1 
-2.293127725778974 -0.3278740205859393 0.2656018035618559 0.02642685886502293 0.4513652943371088 0.001775669593587549 0.5351973163206752 0 13:1 17:1 63:1 80:0 83:1 100:0 
-0.7043323506996265 -0.2315703675469113 0.1033889143716415 0.5610332674595639 0.04580752036468903 0.05370851733052107 0 0.4256872891867644 13:1 17:1 75:1 80:0 83:1 100:0 
-0.3309705710371131 -0.02973876228693838 0 0 0 0 0 0.009907184668731337 13:1 17:1 20:0 56:1 63:1 80:1 101:1 
-0.3136489038129444 -0.1852917773047401 0.06722472515549008 0 0.1910956775468705 0 0 0.5942681957921605 13:1 17:1 20:0 36:1 56:1 60:0 63:1 80:1 101:1 
-0.2338660671570983 -0.1873718549543593 0.1128317657133113 1.022492005063615 0.1476058098764492 0.0885700070873353 0.1504180548722453 0.1560255594435038 13:1 17:1 20:1 36:1 40:0 56:1 60:0 63:1 80:1 101:1 
-0 -0 0 1.765935743542371 0 0 0 0 13:1 17:1 80:0 88:1 100:1 101:6 
-0.2727101336640868 -0.07168359216951062 0.07110328934224841 3.547479395830795 0.3972842826872235 0.03777070745189884 0.04101824463490175 0.5040652993684529 13:1 20:0 55:1 80:1 101:6 
-0.6513672189839177 -0.3154450084730213 0.2573121726970489 1.087123268196391 0.4028740568440021 0.1250905846936949 0.1378847241053582 0.4449076635126273 13:1 20:0 55:1 80:0 88:1 100:1 101:6 
-0 -0 0 0.1281455814950593 0.6948759468117062 0 0 0.5350749727834153 13:1 20:0 55:1 80:0 100:1 101:6 
-0 -0.06477229019845319 0.09355241276879531 0 0 0 0.009883450445224668 0.1932015129000873 13:1 20:0 55:1 80:0 88:1 100:0 
-0.4812489864863627 -0.262385143453335 0 0 0.09415566445500188 0.008364339865057009 0 0.3363397323094806 13:1 20:1 28:1 40:0 55:1 60:1 80:1 101:1 
-0.392760823405475 -0.2532592287376054 0.2223372839876744 0.7576254600378645 1.368255118920198 0.109919492592125 0.1192201136549945 1.423115118484293 13:1 17:1 73:1 77:1 80:0 100:1 101:6 
-0.1282893648174318 -0.002164571430702466 0.004778680229475518 0.5325268757862633 0.1458659754476236 0.001308540638022925 0.003227309041744881 0.08458031851572212 13:1 17:1 66:1 80:0 100:0 101:6 
-0.06997211271097457 -0.03600341674178032 0.03063802986924239 0.6049772995091353 0 0.0166862953242021 0.0183458336423095 0 13:1 17:1 65:1 80:0 100:1 101:6 
-0.2635088355948912 -0 0 0.7474995519831438 0.02826141832609005 0 0 0.08323959224260391 13:1 17:1 80:0 87:1 100:1 
-0.4242062627764423 -0.2377795010901955 0.2062308253395882 1.199536247725354 0.2985006687014716 0.1019510880709103 0.110944589992332 0.2913192151341686 13:1 17:1 61:1 80:0 95:1 100:0 101:6 
-0.1349558251258935 -0.003611540089318828 0.001143267380802716 0.534667940690013 0.146999995004663 0.00267746556472158 0.002586255681840481 0.08670546170274089 13:1 17:1 80:0 90:1 100:0 101:6 
-0.1295792851452109 -0.004273373967253765 0.004265367298353175 1.306805795938168 0.146999995004663 0.003021777785434504 0.004337672360157218 0.08670546170274079 13:1 17:1 72:1 80:0 100:0 101:6 
-0 -0 0 0.4634893821980736 0 0 0 0 13:1 17:1 20:0 56:1 63:1 80:1 101:6 
-0 -0 0 0 0 0 0 0.009218066834434151 13:1 17:1 20:0 36:1 56:1 60:0 63:1 80:1 101:6 
-0.5744353968782616 -0.2189095428471322 0.2162444012836823 1.197030646526213 0.2056777456136877 0.1057196081100544 0.11944440450828 0.3587068010328692 13:1 17:1 20:1 36:1 40:0 56:1 60:0 63:1 80:1 101:6 
-0 -0.1889195960384841 0.0549888335619371 0.35773205355879 0.09556554106734706 0.01442305717987374 0.006988159592933712 0.2224902119625574 13:1 17:1 20:0 56:1 63:1 80:1 101:4 
-0.0422076127721452 -0.02105142866868507 0.04571878753853324 0 0 0 0 0.256795215222685 13:1 17:1 20:0 36:1 56:1 60:0 63:1 80:1 101:4 
-0.6767334193128999 -0.1885747512562069 0.1665525347766152 0.1221685766213224 0.2340319550198746 0.1114948898085016 0.1140419746871326 0.1205682131004427 13:1 17:1 20:1 36:1 40:0 56:1 60:0 63:1 80:1 101:4 
-0.003595494050227631 -0 -0.08169279603054085 0 0 0 0 0 20:0 53:1 57:1 63:1 80:0 88:1 100:1 
-0 -0.5416223469577462 -0.256098637765005 8.939766613738053 0 0.002669136350905113 0.06714746577741958 0.2547248055696107 20:0 53:1 57:1 68:1 80:0 83:1 100:1 
-1.398205186425092 -0.1164145550771491 -0.02852163776427913 0.1752398251274225 0.04660388515850984 0 0.0669749896973508 0 20:0 53:1 57:1 63:1 80:0 88:1 100:1 
-0.4362703908360862 -0.4787329529175873 -0 7.159100032762995 0 0 0 0 20:0 53:1 57:1 68:1 80:0 88:1 100:1 
-0.1890335655934766 -1.369477106100912 -0.4022653638072095 1.027341844451781 1.446722755026301 0.3373983064820577 0.8620451472313955 0.4225018114386944 20:0 53:1 57:1 63:1 80:0 83:1 100:0 
-0.9853563465097053 -0.945028345651684 -0.4262607727356325 1.036121054114773 0 0 0 0.05816128116294139 20:0 53:1 57:1 68:1 80:0 88:1 100:0 
-0 -0.02990860122610808 -0 0 0.4880853965313061 0 0 0.08030267204532102 20:0 43:1 73:1 80:0 100:1 
-0 -0.01114843293160888 -0 0 0 0 0 0 20:0 43:1 73:1 80:0 100:0 
-0 -0 -0.2490602109690362 6.231655958738962 4.066049368424586 0.567369666855857 0 0.1908365470340373 20:0 23:1 48:1 60:0 73:1 80:1 100:1 
-1.999522669453209 -2.226920492766031 -1.798970917630608 8.598853334431967 0.7546890433907483 1.051398825477083 0.5338029349734552 0.8126355674319825 20:0 23:1 40:0 48:1 60:0 80:1 93:1 100:1 
-1.342670136908515 -0.9597939108591593 -2.664845674219588 3.394890381059873 1.642107119452069 0.6246080194534669 1.045915925966216 0.7699685958653096 20:1 28:1 40:0 60:0 73:1 80:1 100:1 
-1.93207302428725 -1.012396016787928 -1.043636875839811 0.5739223837228559 2.038347158693797 0.1954144253680427 0.3969486147766741 0.9488961709351279 20:0 43:1 73:1 80:0 100:0 
-1.056735157403754 -0.07189438314327502 -0.3951516594870437 0.007577716541224206 1.736005060839939 0 0 0 20:0 53:1 57:1 63:1 80:0 88:1 100:0 
-2.094246227668193 -0 -0.2539480377096012 0.2699083446836592 0 0.3426654122357493 0 0.1410345232245543 20:0 53:1 57:1 68:1 80:0 83:1 100:0 
-0.02123581949921386 -0.1313601701474055 -0 0 0 0 0 0 20:0 41:1 53:1 57:1 63:1 80:0 88:1 100:1 
-0 -1.007032290021725 -0.1500486194252858 0.2966074398343943 0 0.1127883401156941 0.09987309156354306 0.269627629670491 20:0 41:1 53:1 57:1 68:1 80:0 83:1 100:1 
-0.7540649623381811 -0.2985756884272187 -0.2546680460750116 0.2877419160620964 0.2254731297748695 0 0.09977743641710467 0.1266729685523559 20:0 41:1 53:1 57:1 63:1 80:0 88:1 100:1 
-2.142557653795455 -1.19963796118152 -0.05254063986562538 0.03663611601390483 0.1162268381733268 0 0 0 20:0 41:1 53:1 57:1 68:1 80:0 88:1 100:1 
-0.2610780560007973 -2.243687849879383 -0.186166478784764 0.2262271465678822 0.2820534748069742 0.1108004881675031 0.08799199827418377 0.1732999537764887 20:0 41:1 53:1 57:1 63:1 80:0 83:1 100:0 
-0.1752082613365742 -1.18827421218009 -0.1396677859006399 0.1959675757616012 0.1537902704738753 0.03245421786871831 0.08339976124505347 0.1733887782760215 20:0 41:1 53:1 57:1 68:1 80:0 88:1 100:0 
-1.944714633918106 -0 -0.02540674297730569 0.005418007559284061 0 0.02926959236321811 0 0.1271792839242355 20:0 41:1 53:1 57:1 63:1 80:0 88:1 100:0 
-0.4318872357782598 -0 -0.1288373618220433 0 0.09893463347646922 0 0 0 20:0 41:1 53:1 57:1 68:1 80:0 83:1 100:0 
-0 -0 -0 0.1681486060667484 0.06369404176305614 0 0 0 20:0 35:1 40:0 43:1 60:0 70:1 80:1 91:1 100:1 
-0.001623588702264868 -0.01690633619896741 -0.009287719247985092 0 0 0 0 0 20:1 35:1 40:0 43:1 60:0 70:1 80:1 91:1 100:1 
-0.5173167458276369 -0.6973604413469792 -0.4958792464139702 3.16635406417186 0.2116092537499716 0.5459261815781673 0.6889990458501647 0.20071005816116 20:1 35:1 40:0 43:1 60:0 70:1 80:1 91:1 100:1 
-0.9135134812257942 -0.444892929490199 -0.7144065847088384 1.016530402083307 0.5301723120535856 0 0 0.5395909338508658 20:0 35:1 40:0 43:1 60:0 70:1 80:0 91:1 100:1 
-0 -0 -0 -0 0.2514156603239212 0 0 0 20:1 40:0 53:1 60:0 
-0.9908365232423707 -0 -1.424795217363313 -13.57026940183533 2.481731849737133 1.816972077987548 0.1456519690487884 0.3095329828525927 20:0 23:1 48:1 60:0 80:1 100:1 
-0 -0 -3.817592851262385 -1.350009839584648 0 0.4234257048675439 0.06098559034923763 0 20:1 28:1 40:0 60:0 80:1 
-0 -0 -0.04792032709797918 -0 0 0.4988593877627792 1.376766035064519 0 20:1 40:0 60:1 
-0 -0 -0.07718037489496993 -0 0 0.03461959049846781 0.07796299588279168 0 1:1 20:1 40:0 60:1 
-1.662638817623362 -0 -3.658737975922508 -0 0 0 0 0 13:1 17:1 20:1 35:1 40:0 53:1 60:0 80:1 
-0 -0 -0.1542781685980108 -0 0 0 0 0 2:1 20:1 33:1 40:0 46:1 60:1 80:1 
-0 -0 -0.01366846155522328 -0.009672241307773657 0 0 0.1576782678843928 0.03353511625361673 20:1 26:1 40:1 42:1 60:1 
-0 -0 -0.08095975093171603 -0 0.6953907978632567 0 0 0 15:1 20:1 33:1 40:0 47:1 60:1 80:1 
-0 -0 -0.3013851890965438 -0 0 0 0 0 20:1 27:1 40:1 55:1 60:1 
-0 -0 -0.0005306042238874551 -0 0 0 0 0 9:1 12:1 20:1 29:1 40:1 49:1 52:1 60:1 
-0 -0 -0 -0 0 0 32 0 11:1 20:1 40:1 50:1 60:1 
-0 -0 -0.1938787379467578 -0.001995756803735724 0 0 0 0.001897349603267109 20:1 33:1 40:0 52:1 60:1 75:1 80:1 89:1 92:1 100:1 
-0 -0 -0.1229068596782254 -0.0908503317886686 0.4771978029845986 0 0.1094582233251493 0.05723884383130253 15:1 20:1 32:1 40:1 60:1 69:1 72:1 80:1 92:1 100:1 
-0 -0 -0.3633184518626725 -0 0 0 0 0.01582388411682805 9:1 12:1 20:1 40:1 55:1 60:1 72:1 80:1 
-0 -0 -0 -3.146703794505622 0 0.4494879932815318 0.6403336139961643 0.1112974338991908 20:1 35:1 40:0 53:1 60:0 80:1 83:1 100:1 
-0.4034277984170336 -0.7521781287945268 -0.6213926409781204 -0 0 0 0.5150804530659261 0 20:1 33:1 40:0 60:1 63:1 80:1 
-9.742980728791238 -0 -0 -0 0 0 0.226335260498623 0 3:1 20:1 40:1 60:1 
-0 -0 -0 -0 0 0.02033927682631077 0 0 4:1 20:1 35:1 40:0 53:1 60:1 66:1 80:1 
-0 -0 -0 -0.09212376226644298 0 0 0.01687380069614331 0.07094925677970119 6:1 20:1 33:1 40:1 44:1 60:1 
-0 -2.005329991909318 -0 -0 0 0 0 0 8:1 20:1 35:1 40:0 53:1 60:1 80:1 
-0 -1.600775941566393 -0 -0 0 0 0 0 20:1 33:1 40:1 48:1 60:1 
-0.553839826459422 -0 -0 -0.03035204118144748 0.3442566884306242 0 0 0.2355121238481032 1:1 20:0 35:1 40:0 53:1 60:0 75:1 80:0 81:1 100:1 
-0.5543522858942431 -0 -0.2343249689629765 -0.5163164409332931 0.8146452873753351 0 0.05166088490057118 0.3241421593902282 15:1 20:0 33:1 40:0 41:1 60:0 61:1 80:1 89:1 92:1 100:1 
-0.6186016718276707 -0 -0.4454822306049174 -0.3780632321253403 0 0.05842437504787014 0 0.2068935950547721 1:1 20:1 21:1 40:0 55:1 60:0 69:1 72:1 80:1 89:1 100:1 
-0.001126057288357336 -0 -0 -0.09294300115334905 0 0.02926621371407402 0.01097702028493413 0.01650563188098859 9:1 12:1 20:1 35:1 40:0 41:1 60:1 69:1 80:1 89:1 100:1 
-0 -0.01710050764217246 -0.07197611736919844 -0.1417293230264362 0 0 0.07579428311660404 0.1069763851117235 9:1 20:1 21:1 40:1 49:1 52:1 60:1 69:1 80:1 89:1 92:1 100:1 
-0.1192829973098506 -0.1290303078362558 -0.1108714385900268 -0.2350546378458273 0 0 0.03812100340241074 0.152724666656125 9:1 20:1 29:1 32:1 40:1 49:1 60:1 69:1 72:1 80:1 89:1 92:1 100:1 
-0 -0.09891643343984223 -0 -0.01463762644219445 0 0 0.00210910514712362 0.04342358579478822 9:1 12:1 20:1 29:1 40:1 49:1 60:1 69:1 72:1 80:1 
-0 -0.2260860670439505 -0.04652442636855162 -0.2459951138209574 0.04550357451575988 0 0.09217352610621693 0.1603884311089507 9:1 12:1 20:1 29:1 40:1 49:1 52:1 60:1 
-0 -0 -0 -1.544122845214908 0 0 0 0 20:1 35:1 40:0 53:1 60:1 70:1 80:1 91:1 100:1 
-0 -0 -0 -0 0 2.385811275388542 0 0.01681260775200488 10:1 20:1 33:1 40:1 60:1 71:1 80:1 
-0 -0 -0 -0.01086305556940632 0 0 32 0.03165885229006128 11:1 20:1 40:1 50:1 60:1 
-0 -0 -0 -0 0.3230645607226514 0 0 0 15:1 20:1 33:1 40:1 60:1 71:1 80:1 
-0 -0 -0.2956427781216104 -0 0 0 2.862717950758533 0 11:1 20:1 40:1 55:1 60:1 
-0 -0 -0.1182921259001839 -0 0 0 0 0 68:1 80:0 101:6 
-0 -0 -0 -0 0.1263324423262273 0 0 0.1095962408925059 8:1 20:0 101:6 
-0 -0 -0 -0 1.268351544806835 0 0 0 80:0 100:1 101:6 
-7.397391487920265 -2.089243678739272 -1.820764857769674 -0.6607827508002314 0.2387668627763985 0 0 0.735406531113024 68:1 80:0 100:0 
-0 -12.06651252714025 -0.855985464770209 -0.6273211850489772 0.6644413069600011 0 0.2104368541363479 0.7371870770559171 8:1 20:0 80:0 100:1 
-1.970196141956555 -0.9770599944649189 -0 -0 0.07526999609114776 0 0 0.1876956539144656 20:0 48:1 60:0 80:1 
-1.913757228772458 -0.3185034618005517 -0 -0.9700879805288133 0.9069993475213122 0 0.137136072736818 0.07916990003677825 20:1 28:1 40:0 60:0 
-0.1690960357607734 -0 -0 -0 0 0 0 0 20:0 53:1 57:1 68:1 80:1 101:6 
-1.923371766309101 -2.051487579905425 -0 -15.7783856731325 0.9704444619243294 0 0.00436538138811874 0 20:0 53:1 57:1 68:1 80:0 100:1 
-0.7012912958229063 -7.092371587478922 -0 -0.1578830497862591 0 0 0 0.02051103343979828 8:1 20:0 33:1 37:1 60:0 80:1 100:1 
-0.09905075467688994 -0 -0 -0 0.0008986847319323946 0 0 0 20:1 35:1 53:1 60:0 101:6 
-0 -0 -0 -0 0 0 0 0.09327610554693902 20:0 35:1 53:1 60:0 68:1 80:1 101:6 
-0 -0.2987870274648913 -0 -0 0 0 0.08262628915482603 0 20:1 40:0 48:1 60:0 80:1 
-0 -0.4835327548853495 -0.7548466818620011 -0 0 0 0 0 20:1 28:1 40:0 60:1 
-0 -0 -0 -0 0.08488235830882798 0 0 0.5613163052816742 20:1 35:1 40:0 53:1 60:1 101:1 
-0 -0.2636382305719578 -0 -0 0 0 0 0.07237011803552387 20:1 35:1 40:1 53:1 60:1 101:1 
-0 -0 -0.1939517832645821 -0 0.08383658981735531 0 0 0 80:0 81:1 100:1 101:6 
-0 -0 -0.5764292695303498 -0 0 0 0 0 20:0 61:1 80:1 101:6 
-0 -0.1110021896638752 -2.143827000919999 -0.09136783045113987 0.1871557331036157 0.009941454567089662 0.0119436414987192 0.2339067323813681 17:1 62:1 80:0 88:1 100:1 101:6 
-0 -0.05904541392333192 -0 -0.03188509635686106 0 0.003525571467606587 0.003642193153721116 0.1531012019394023 2:1 20:0 57:1 68:1 80:1 101:6 
-0 -0.1416411328218138 -0 -0.05063596628284718 0.05888603193099551 0.005537397978290465 0.002380635661107442 0.12687292607269 8:1 20:1 37:1 42:1 60:0 101:6 
-0 -0 -0.2048602883462792 -0 0.1688528020176742 0 0 1.959363276849403 80:0 83:1 100:1 101:6 
-0 -0 -1.105127105513107 -0 0 0 0 0.08663189418478116 20:0 63:1 80:1 101:6 
-0 -0 -0.09904714085836172 -0 0 0 0 0.09537737530259671 6:1 80:0 92:1 100:0 101:6 
-0 -0 -0.4236626229425347 -0 0.006352381293365462 0 0 0.06511878880113595 20:0 46:1 72:1 80:0 95:1 100:1 101:6 
-0 -0 -0 -0.00183992923984139 0 0 0 0 15:1 20:1 40:0 52:1 60:0 69:1 72:1 80:1 101:6 
-0 -0 -0.132823924631477 -0 0.1723752352912466 0 0 0.2052529263514502 5:1 80:0 101:6 
-0 -0 -0.1337533087261513 -0 0.173839574082965 0 0 0.2050844309593046 20:0 45:1 101:6 
-0 -0 -0.2010978014138791 -0 0.1663568638728501 0 0 0.08155802232462762 80:0 87:1 100:1 101:6 
-0 -0 -0.1351333078440268 -0 0.1683434421625125 0 0 0.2036901755017943 67:1 80:0 101:6 
-0 -0 -0.13343092142419 -0 0.1747601693292012 0 0 0.2030202846678214 7:1 20:0 101:6 
-0 -0 -0.5093323130352877 -0 0.02418377508783285 0 0 0 75:1 80:0 88:1 100:1 101:6 
-0 -0 -0 -0 0.9655434395547522 0 0 0 15:1 20:0 68:1 80:1 101:6 
-0 -0 -0 -0 0.07894105001278512 0 0 0.1729699013520139 1:1 75:1 80:0 81:1 100:0 101:6 
-0 -0 -0.1168891773119259 -0 0.7690830247515639 0 0 0.0750850979122505 15:1 20:0 41:1 61:1 80:0 89:1 92:1 100:0 101:6 
-0.0129978146296844 -0.1438645289156062 -0.3852785715096526 -0.1041179956760476 0 0.01237601997226517 0.01040588230103593 0.1858722589113294 1:1 20:0 21:1 55:1 60:0 69:1 72:1 80:0 89:1 100:0 101:6 
-0 -0.02400502341858211 -0 -0.009225984723663809 0 0.002957699547838381 0.0006996247972563756 0.05370872404125238 9:1 12:1 20:0 35:1 40:0 41:1 60:0 69:1 80:0 89:1 100:1 101:6 
-0 -0.01664426053974027 -0.02388358923862049 -0 0 0 0.002558870844957747 0.1028723685581987 9:1 20:0 21:1 40:0 49:1 52:1 60:0 69:1 80:1 89:1 92:1 100:1 101:6 
-0 -0 -0 -0 0 0.001454079309940671 0 0 9:1 20:1 29:1 32:1 40:0 49:1 60:0 69:1 72:1 80:1 89:1 92:1 100:1 101:6 
-0 -0 -0 -0.002756466114738828 0 0 0 0 9:1 12:1 20:1 29:1 40:1 49:1 52:1 60:1 101:6 
-0 -0 -0.2335711040147309 -0 0.1177470507310812 0 0 0.1400833494447079 70:1 80:0 91:1 100:1 101:6 
-0 -0 -0.04029885850733619 -0 0 0 0 0.1184052016493737 10:1 20:0 71:1 80:1 101:6 
-0 -0 -0 -0 0.04375322072576229 0 0 0 75:1 80:0 91:1 100:1 101:6 
-0 -0 -0 -0 0.9784807651042984 0 0 0.03661860566949934 15:1 20:0 71:1 80:1 101:6 
-0 -0 -0.2607442922019617 -0 0.0380612218937165 0 0 0.02956932510262083 12:1 80:0 95:1 100:0 101:6 
-0.4216461539359826 -0.1460778866307526 -3.802932564533628 -0.1204570842659629 0 0.01626472503864622 0.02196377859489428 0.1323973695109705 13:1 17:1 20:0 53:1 57:1 80:1 101:6 
-1.099942965239148 -0 -0 -0 0 0 0 0 20:1 33:1 37:1 53:1 57:1 60:0 101:6 
-0.1025691876035346 -0 -0 -0 0.01571590702511283 0 0 0 20:0 53:1 57:1 80:0 83:1 100:1 101:6 
-0 -0 -0.04261991040656883 -0 0 0 0 0.02279119477112906 20:0 33:1 37:1 60:0 63:1 80:1 101:6 
-2.005173725811504 -0 -0 -0 0 0 0 0.01600551561762713 3:1 20:1 40:0 60:0 101:6 
-0.3702534068915179 -0 -0 -0 0 0 0 0.03723719206669387 6:1 20:0 53:1 57:1 80:0 92:1 100:0 101:6 
-0 -0.191579311387708 -0.1326856353243072 -0.1706255088613223 0.1047515428848783 0.01768828790042573 0.03132401948865846 0.1481069329623729 20:0 33:1 37:1 46:1 60:0 72:1 80:0 95:1 100:1 101:6 
-0 -0.1258094488036791 -0 -0.1012501077411525 0 0.01424253106580543 0.01961385550557921 0.09582209703438482 12:1 20:0 26:1 40:0 60:0 75:1 80:1 89:1 92:1 100:1 101:6 
-0 -0.01429415678570644 -0 -0.01061800291801747 0.2403068942494429 0.002591663378897081 0 0.02532299634694214 15:1 20:1 40:0 52:1 60:0 69:1 72:1 80:1 101:6 
-0.1153637540612882 -0.1129381156294586 -0.1486766291578991 -0.09677514438329041 0.08011402004664547 0.0141978076844619 0.009450520365154905 0.1073243432997718 9:1 12:1 20:1 32:1 40:0 55:1 60:1 101:6 
-0.1144962920268021 -0 -0 -0 0 0 0 0 5:1 20:0 53:1 57:1 80:1 101:6 
-0.08517341957632706 -0 -0 -0 0.0195463411691887 0 0 0 20:0 53:1 57:1 80:0 87:1 100:1 101:6 
-0.6867201864936295 -0.2863822596760502 -0 -0.329823745850697 0.6396634822435791 0.04953941398148115 0 0.204679992067225 20:0 53:1 57:1 67:1 80:1 
-0.5335397167447461 -0.2662157381197834 -0 -0.1468921289532329 0 0 0 0.1952039621895096 7:1 20:1 33:1 37:1 60:0 
-0.212406960378162 -0.0159348498688022 -0 -0.02829631985013614 0.0369734401745318 0 0 0.02370711211233764 20:0 53:1 57:1 75:1 80:0 88:1 100:1 101:6 
-0 -0.02647343608293599 -0.01673536823453417 -0.01299392304043395 0.0518592045570096 0 0.002273027724394897 0.04640898008721799 15:1 20:0 33:1 37:1 60:0 68:1 80:1 101:6 
-0 -0 -0.7882033112721191 -0 0 0 0 0 8:1 20:1 40:0 55:1 60:0 101:6 
-0.4685262274324349 -0.239330205170746 -0 -0.1914047053865665 0.08064490327078194 0.02452950547546798 0.03493337370467299 0.09019910735419218 1:1 20:0 53:1 57:1 75:1 80:0 81:1 100:0 101:6 
-0.1416895335246093 -0.3036374620117652 -0.1412688599922187 -0.2674268793590932 0.09655784158460406 0.0330423983105603 0.04752621764926803 0.1560847804631851 15:1 20:0 33:1 37:1 41:1 60:0 61:1 80:0 89:1 92:1 100:0 101:6 
-0.1476652196871718 -0.08627305173719609 -0.2478430063305223 -0.08896248859241682 0.0369084908705223 0.01263317345518482 0.02088467764166489 0 1:1 20:0 21:1 40:0 55:1 60:0 69:1 72:1 80:0 89:1 100:1 101:6 
-0.08175509934929374 -0.1300307227538341 -0 -0.1246072830785031 0 0.01239162569876922 0.023675101906423 0.06772924449079532 9:1 12:1 20:0 35:1 40:0 41:1 60:0 69:1 80:1 89:1 100:1 101:6 
-0.2032494582218747 -0.1593237611206949 -0 -0.1573595180324531 0 0.02121001847166723 0.0255986135914654 0.01119010905287444 9:1 20:1 21:1 40:0 49:1 52:1 60:0 69:1 80:1 89:1 92:1 100:1 101:6 
-0.3864139155137237 -0.2707243252433617 -0.09112182955787085 -0.2417336181579283 0 0.0303109602881601 0.04423840929754333 0.1423329860230156 9:1 20:1 29:1 32:1 40:0 49:1 60:1 69:1 72:1 80:1 89:1 92:1 100:1 101:6 
-0.2215637083026628 -0.1883458937691772 -0 -0.1717980860977337 0 0.02143469999371282 0.0320926755851658 0.09644326508744998 9:1 12:1 20:1 29:1 40:1 49:1 60:1 69:1 72:1 80:1 101:6 
-0.2190276992299077 -0.2055274030395089 -0.04754710090550713 -0.1737539624835618 0.1404253233722944 0.0190177117663173 0.03231187927357346 0.1526589399445268 9:1 12:1 20:1 29:1 40:1 49:1 52:1 60:1 101:6 
-0.3622951813909968 -0.1438329983223234 -0 -0.1259845347246112 0.06782657038890176 0.01548016124794294 0.02119466095687149 0.08814221555695728 20:0 53:1 57:1 70:1 80:0 91:1 100:1 101:6 
-0 -0.127532506704673 -0.1029807875095616 -0.1110412894404045 0 0.02652763681586408 0.01859475175545793 0.1093629156686955 10:1 20:0 33:1 37:1 60:0 71:1 80:1 101:6 
-0 -0 -0 -0 0.08673927886884791 0 0.03152871166869385 0.1633860972040407 11:1 20:1 40:0 50:1 60:0 101:6 
-0 -0 -0 -0 0.04348659066945844 0 0 0 15:1 20:0 33:1 37:1 60:0 71:1 80:1 101:6 
-0 -0 -0.791401324054542 -0 0.03138830193999842 0 0 0.02873518109742448 11:1 20:1 40:0 55:1 60:0 101:6 
-0.3520234699024516 -0 -0 -0 0.07279845235738348 0 0 0.04109650015804817 12:1 20:0 53:1 57:1 80:0 95:1 100:0 101:6 
-0 -0.06231618264083435 -0.0141597219132912 -0.05478835911963041 0 0.005263130608728436 0.01032150999390937 0.03596706895518988 20:0 33:1 37:1 52:1 60:0 75:1 80:0 89:1 92:1 100:1 101:6 
-0 -0.06043828238121677 -0.06258784599351645 -0.04914377964072402 0.2602148875216193 0.005765804554607092 0.009241514426809776 0.06639126094122133 15:1 20:0 32:1 40:0 60:0 69:1 72:1 80:1 92:1 100:1 101:6 
-0 -0 -0.466683160583022 -0 0 0 0 0 9:1 12:1 20:1 40:0 55:1 60:0 72:1 80:1 101:6 
-0.07195430843804544 -0.08835921761103036 -0 -0.08027993996947128 0.04518003504662817 0.01234153382563359 0.01246430998327158 0.0793312868686919 12:1 20:1 35:1 40:0 49:1 52:1 60:1 101:6 
-0.5668385499514348 -0.5584823666984157 -0.4355500229957916 -0.4884758313464307 -0.5702356194335324 0.003547825702634778 0.1133079326116667 0.6006718848610578 15:1 20:0 23:1 48:1 60:0 73:1 80:0 93:1 97:1 100:1 
-0 -0.001710354000010149 -0 -0 -0 0 0 0 15:1 20:0 28:1 40:0 43:1 60:0 73:1 80:1 84:1 100:1 
-0 -0.06347132238559335 -0.09930922145575534 -0.3016500583271788 -0 0 0 0.09105468457141026 15:1 20:0 23:1 43:1 60:0 73:1 80:0 86:1 100:1 
-0.0187264767927988 -0.00440972607469146 -0.1462600448583814 -0.02004108663974961 -0.1496393768360678 0 0 0 15:1 20:0 23:1 40:0 48:1 60:0 73:1 80:0 87:1 100:1 
-0 -0.06347132238559353 -0.02838769630771169 -0.3038604213929749 -0.2274699231099633 0 0 0.09276704139306377 15:1 20:0 23:1 40:0 43:1 60:0 73:1 80:0 92:1 100:1 
-0.3956935411167198 -0.3718957249593931 -0.5800529977442765 -0.393394328505637 -0.6777615159709288 0.1495983339415823 0.07414947058653348 0.2486051114886601 15:1 20:0 28:1 40:0 43:1 60:0 73:1 80:1 84:1 100:1 
-0.7429426468345722 -0.5555488096622491 -0.6093649971254871 -1.126331230561013 -0.8814931878148822 0.2322276368115742 0.1498606845091714 0 15:1 20:0 23:1 40:0 48:1 60:0 73:1 80:1 88:1 100:1 
-0.2814757192761973 -0.359537078026331 -0.2221244230386549 -0.4399005250517727 -0.2222994309824939 0.2300406648800716 0 0.2167065214091099 15:1 20:0 23:1 40:0 43:1 60:0 73:1 80:0 81:1 100:0 
-0 -0 -0 -2.686774774090422 -1.164188331407756 0.6382523401626986 0 0 15:1 20:0 23:1 40:0 48:1 60:0 73:1 80:1 100:1 
-0 -0 -0 -1.013468439459503 -0 0 0 0 15:1 20:0 28:1 40:0 43:1 60:0 73:1 80:1 100:1 
-1.199959919436944 -0.2359225436042683 -0.07110472134768382 -0.4398670101933888 -0.00265446793838196 0 0.3252052544528277 0.05591284764015993 15:1 20:0 43:1 63:1 80:0 100:0 
-0.9896598905628318 -1.08976309391275 -0.4652573327899412 -0.4654218484325366 -0.8740522399914128 0 0.3179988115203854 0.5034190454989376 15:1 20:0 37:1 43:1 60:0 63:1 80:0 100:1 
-0 -0.002251464769554895 -0.0007961326122561529 -0 -0 0 0 0 15:1 20:0 23:1 43:1 60:0 63:1 80:0 100:1 
-0.06849058772696287 -0.2536518195852149 -0.7734312600878712 -0 -0.5225032407277341 0.5505049022319444 0.1936867817852206 0 15:1 20:0 23:1 40:0 43:1 60:0 63:1 80:0 100:1 
-2.358474873082778 -2.355981774131166 -1.118808015408207 -3.28766556629392 -2.478043780757502 0.4114252494757868 0.522599776677751 0.7268410456125844 15:1 20:0 53:1 57:1 63:1 80:0 100:0 
-0.6888839496274263 -0.4922563976063597 -2.096458813927317 -0.3679191029849912 -2.578980837286382 0.2194737399925093 0.2425868217196829 1.877682912980262 15:1 73:1 80:0 100:1 101:6 
-0 -0 -0 -0.02810223856152863 -0 0 0 0 15:1 73:1 80:0 100:0 101:6 
-1.318684188218433 -0.5201965151810581 -1.380425884982493 -0.3597625508233598 -3.703397122533736 0.2294258765453177 0.2566203961872321 1.395254176576222 15:1 73:1 80:0 100:0 101:6 
-0.4455380819029305 -0 -0.6916621009893247 -1.200125138609089 -0.8089045411046482 0.1872787207916026 0.4778737515414511 0.6016215717525765 15:1 73:1 80:0 100:0 
-0 -0 -0 -0 -0 0 0 0.3325968006457482 15:1 20:0 23:1 48:1 60:0 73:1 80:1 100:1 101:1 
-0 -0 -0 -0 -0 0 0 0.2246354740560067 15:1 20:0 28:1 40:0 48:1 60:0 73:1 80:1 100:1 101:1 
-1.048369319758885 -1.190266793449567 -0.9385381664896869 -0.9778035905158886 -1.435623490509874 0.3006135971179268 0.6438294402378315 0.5908965348856792 15:1 20:1 28:1 40:0 48:1 60:0 73:1 80:1 100:1 101:1 
-0.6464715147189484 -0.8227633343189209 -1.063235648370441 -1.065020935979627 -1.003008057528722 -0.7418330698619379 0.3110108343960148 0.3984947533236213 10:1 20:1 23:1 40:0 60:0 71:1 80:1 
-0 -0 -0 -0.003121604034705611 -0 -0.004695183753107886 0 0 10:1 20:1 23:1 40:0 60:1 71:1 80:1 
-1.359447435206562 -1.360447831895864 -1.387771054125143 -0.8318790487031861 -2.984858751844634 -0.8258410961098529 1.176612564062677 0.8277258107722287 10:1 20:1 23:1 40:0 60:1 71:1 80:1 
-1.785657918993517 -1.511765889290966 -1.625693259262643 -2.052741023598944 -2.119604098406676 -1.58001953792875 0.9958480441806138 1.372415275375856 10:1 20:0 23:1 40:0 60:0 71:1 80:1 83:1 100:1 
-1.348063176517101 -1.083959484434271 -1.535025483302575 -1.167456526603445 -1.971560883208301 -0.9676664210787702 -0.8449819256671053 0.7153127843069377 11:1 20:1 40:0 50:1 60:1 
-0 -0 -0 -0 -3.573691669252056 -0 -0 0 11:1 20:1 40:1 50:1 60:1 
-0 -0 -0 -0 -32 -0 -0 0 11:1 20:1 40:1 50:1 60:1 
-1.430667865261487 -1.127010170022213 -0.8678565645754039 -0.7841981401239024 -32 -0.8023649033326459 -0.4893279070874166 0.8006083281204904 11:1 20:1 40:1 50:1 60:1 
-1.791332981486194 -1.894868506502903 -1.771299095807154 -2.081221745045213 -1.830854485854152 -1.547687797418338 -1.149161609884784 1.304238889672957 11:1 20:1 40:0 50:1 60:0 63:1 80:1 83:1 100:1 
-1.18304247167126 -1.116854771328764 -0.8529863272121864 -1.319312555844219 -1.019508431234101 -1.09285037926376 -0.421167714065303 -0.5156206954489482 16:1 73:1 77:1 80:0 83:1 100:1 101:1 
-0.9191168805072368 -0.7996966258456344 -0.5158206808967265 -0.6179029766235122 -0.7354905443917409 -0.5994946642321535 -0.2836488716967013 -0.3325788674843591 16:1 76:1 80:0 93:1 97:1 100:0 101:1 
-1.54432855121493 -1.319864171639941 -1.145498223396433 -1.123768284573337 -1.543349462911743 -0.916797518805241 -0.544552546079843 -0.6359496189492643 16:1 76:1 80:0 96:1 100:0 101:1 
-0.4453207080449159 -0.4390707450244361 -0.4667495382385662 -0.4218917504119286 -0.5657943091229313 -0.4238936452227003 -0.1438752432596207 -0.1584669496386708 16:1 20:0 56:1 76:1 80:0 93:1 97:1 100:1 101:1 
-0.6977217384049531 -0.5582351280109175 -1.04950686554879 -0.6382782049911421 -0.898056031448774 -0.6353786011230492 -0.5217750902375851 -0.4128119861045236 16:1 20:0 36:1 56:1 60:0 73:1 77:1 80:1 83:1 100:1 101:1 
-0 -0 -0 -0.006452623107921178 -0 -0 -0 -0 16:1 73:1 77:1 80:0 83:1 100:1 101:6 
-0 -0 -0 -0.001713564156354846 -0 -0 -0 -0 16:1 76:1 80:0 93:1 97:1 100:0 101:6 
-0.3169777697351734 -0.1601447496087505 -1.323942622978128 -0.1122775841583321 -2.079756720239484 -1.546059822819776 -0.07828174946962953 -0.08692914548295944 16:1 73:1 77:1 80:0 83:1 100:1 101:6 
-0.4966480383703167 -0.1971508262587046 -0.4677936870650606 -0.1678875531140686 -0.9031645102224056 -0.468921241222167 -0.1002343477188033 -0.1103884070386923 16:1 76:1 80:0 93:1 97:1 100:0 101:6 
-0.7489617800337213 -0.3069065349014324 -1.180617820797053 -0.2600596654980193 -2.105729467378946 -1.048039325550709 -0.1521140882386816 -0.1681790472633247 16:1 76:1 80:0 96:1 100:0 101:6 
-0.2399018727399691 -0.2421590397599986 -0.5235488065037295 -0.2248250081706239 -0.7102996627559903 -0.3832201975932715 -0.1312116754407409 -0.1471916944773082 16:1 20:0 56:1 76:1 80:0 93:1 97:1 100:1 101:6 
-0.7125340264722902 -0.428645330177204 -0.7789777870530774 -0.3951618102697383 -0.8451686668641886 -0.4440102575386494 -0.2217745132647982 -0.2520435902123349 16:1 20:0 36:1 56:1 60:0 73:1 77:1 80:1 83:1 100:1 101:6 
-0.03825417667777156 -0 -0.02060109159162783 -0 -0 -0 -0 -0 16:1 76:1 80:0 93:1 97:1 100:0 101:4 
-0.06770855386365709 -0 -0.03709784340454924 -0 -0 -0 -0 -0 16:1 76:1 80:0 96:1 100:0 101:4 
-0.0238418309032674 -0.02042697938744875 -0.08704522141557081 -0 -0 -0 -0 -0 16:1 20:0 56:1 76:1 80:0 93:1 97:1 100:1 101:4 
-0.1347606725458697 -0.02430576753187687 -0.1438131423114401 -0 -0.003745579880679096 -0 -0 -0 16:1 20:0 36:1 56:1 60:0 73:1 77:1 80:1 83:1 100:1 101:4 
