svm_type c_svc
kernel_type rbf
gamma 0.25
nr_class 8
total_sv 273
rho 0.164087 -0.135121 -0.520068 -0.6896 0.0465652 0.0241459 -0.374588 -0.284299 -0.60957 -0.823878 -0.148272 -0.130168 -0.517195 -0.38846 -0.624585 0.182978 0.160878 -0.253879 -0.27788 0.541663 0.553183 0.147386 0.707679 0.734898 0.379481 -0.0252149 -0.417148 -0.387333
label 1 2 6 7 8 3 4 5
probA -4.9568 -4.46359 -3.92406 -3.89553 -5.09426 -4.67395 -4.30341 -4.79005 -4.25794 -4.63056 -4.65391 -4.75127 -4.55109 -4.10716 -4.56459 -4.59089 -4.02857 -4.1639 -3.71293 -4.21845 -4.22559 -3.65494 -4.47917 -4.55739 -3.87751 -4.90126 -4.46433 -4.16319
probB 0.217549 0.0358142 -0.253182 0.0430954 -0.278474 0.129857 0.111651 -0.100289 -0.256427 0.605652 0.253671 0.186302 -0.225836 -0.229272 0.48786 0.0214206 0.137666 -0.0679568 0.305927 0.315688 -0.0973279 0.046733 -0.489979 -0.835292 -0.291417 0.779883 0.0809143 -0.165823
nr_sv 35 60 39 15 6 58 41 19
SV
1.417340419764978 1.458778602587861 3.457426018845996 1.86260179704801 1.122743858768383 2.479362436574849 0.7388950373115269 1:1 21:1 22:1 31:1 
0.02236751607080082 0.04823623741226243 0.003066844964610658 0.03609310500123204 0 0.2072030964440081 0 1:1 10:1 16:1 23:1 34:1 
0.3995234357970533 0 0.008494671106934349 0.3876063166404548 0.3528327121519593 0.1212419163517859 0.06429350517383582 1:1 9:1 23:1 33:1 
0.6649124109422591 0.4326996319022973 0.2613374612358663 0.06367843273766084 0.5924210734620103 0.562124714126243 0.3124632122214388 1:3 10:1 16:1 23:1 34:1 
0.275087983903257 0 0 0 0.2640360683015232 0 0 1:1 9:2 14:1 18:1 23:1 33:1 
0.4900108024728772 0.4279505812731104 0.2303299964873086 0.1111185786931808 0.4272521059238442 0.4785847931525835 0.3102692033126188 1:3 10:1 14:1 18:1 23:1 34:1 
1.062044536915107 0.5204506783429773 0.206443327673869 0.1317033936082544 0.4626064978827149 0.4403949884102958 0.2704081382922994 10:5 13:3 21:1 22:1 31:1 
0.547526724982867 0.3761570696258999 0.213071378737393 0.1400679052315983 0.5643936742824444 0.4556446596048652 0.27876540380177 1:3 10:5 13:3 14:1 18:1 21:1 22:1 31:1 
1.579905689111897 0.1293421593514761 0.05946481445811198 0.0382018666640152 0.4820050194024047 0.1267205239217467 0.07605843267194559 1:2 10:5 13:3 16:1 21:1 22:1 31:1 
0.2502829097436395 0.2382337680579051 0.1920362198583643 0.1246574713138521 0.3803024763356967 0.4093002314965384 0.2491088377682828 10:6 13:3 21:1 22:1 31:1 
0.8587402365487879 0.2692992063516622 0.1511954426028909 0.09840614526173798 0.4017926440535884 0.3229129033596054 0.1976326050276427 1:1 10:6 13:3 14:1 18:1 21:1 22:1 31:1 
0.196198036186396 0.1695013786245071 0.08979497632431457 0.05679204822896943 0.1776719097781611 0.1920445257311606 0.1164103805293095 1:3 10:6 13:3 14:1 18:1 21:1 22:1 31:1 
0.336605347685046 0.4666290609135923 0.2663392670159387 0.1721611857683572 0.5654670489486516 0.5676090848333779 0.347434500626227 1:3 10:6 13:3 16:1 21:1 22:1 31:1 
0.8003828868120199 0.791388314856064 0.3366195448080431 0.2608086159341951 0.711565419903271 0.7528909524921277 0.4282620896931774 10:3 21:1 22:1 31:1 
0.7882816861649896 0.5691745393063277 0.3219173399985901 0.1558081023838308 0.6992962705353364 0.6632243028491216 0.4197922506582995 1:2 10:3 14:1 18:1 21:1 22:1 31:1 
0 0 0.1816904682876273 0.4504876698786212 0 0 0 1:1 9:1 16:1 21:1 22:1 31:1 
1.719792821929599 0 0 0 1.76420724650822 0 0 1:1 9:1 14:1 18:1 21:1 22:1 31:1 
0.3982024776648632 0.2559303373999353 0.1358680129033451 0 0.3128345648341133 0.4215726347882157 0.2060884875055837 1:1 9:3 16:1 21:1 22:1 31:1 
2.15568000685092 0.2850782170305765 0.1696309195849696 0 2.176833215517589 0.3074037257320062 0.2286766520799308 1:1 9:3 14:1 18:1 21:1 22:1 31:1 
0 0 0.1627417271091255 0 0 0.1556977320102702 0.3708176224143955 1:1 9:1 17:2 28:1 37:1 
1.41263481318197 1.336421174024767 0.4074218944973125 1.883276690161674 2.080829564185482 2.127090301342479 0.6268598613838851 9:1 21:1 22:1 31:1 
2.329353340519519 0 0.01963884599466774 0 2.25428893030144 0 0.007368173078451241 9:3 21:1 22:1 31:1 
0 0.01827961224275069 0.08947233731414092 0 2.768742740418103 0 0.02801603907434794 1:1 9:1 17:1 25:1 38:1 
0.3061345697301448 0.3661727785425887 0.3609988839325166 0.07763715061937573 0 0.295320965388819 0.2919124628863116 1:1 9:1 17:3 25:1 38:1 
2.773215047928441 0.1544119801759026 0.2221838075403224 0.2343441787484821 0 0.1366902232793098 0.2207219051170871 1:1 9:1 17:1 24:1 38:1 
0 0.01716631816267534 0.01966806046718012 0 0 2.135631494352496 0.05588011303619971 1:1 9:1 17:1 26:1 38:1 
0.30755330751502 0.3679746816969266 0.141565755455145 0.07763715061937637 0.3032202009299662 0 0.445523881113811 1:1 9:1 17:3 26:1 38:1 
1.64951761027568 0.3705231913457629 0.2169148789911217 0.03609444409228555 1.525981384258061 0.4371747977577772 0.2737220855378598 9:3 23:1 33:1 
1.073050564394577 1.049844970806267 0.4906262886935554 1.133047627361013 1.059938083229792 1.011087178558478 0.7733499444379099 10:1 23:1 34:1 
0.5405241873919631 0.40875191562184 0.2157965916975094 0.1090712298065116 0.4923926473542118 0.5035165623858247 0.2711179913974751 1:1 9:3 14:1 18:1 23:1 33:1 
0.4669688690343589 0.05840167730851321 0.0440742114593623 0 0.4700483302510662 0.1850498472091787 0.04558468864927084 1:1 10:1 14:1 18:1 23:1 34:1 
0.5168254461065799 0.4897019236387533 0.4561321618278625 0.1168510646249024 0.612266573228756 0.4967380881152075 0.5724210839269204 1:1 9:1 17:3 23:1 33:1 
0.09682410837407644 0.0833193811918041 0.05170795713973544 0.225026941210984 0.1352155506799696 0 0.5426702531605748 1:1 9:1 17:1 27:1 36:1 
0.6715615890101392 0.5055060321351518 0.4617127994327471 0.0831142260303753 0.6550923118361794 0.6420498835848311 0.423418582491897 1:1 9:1 17:3 27:1 36:1 
0.3438505721924344 0.8617412996116288 0.2071837631938511 0.258332384730492 0.3748076850899857 0.1055214456397525 0.06504646471167841 1:1 9:1 17:1 28:1 37:1 
-0.4683263998577221 0 0 0.1488288353845021 0.1631148898034979 0.1172922992081419 0 2:1 14:1 17:1 18:1 23:1 33:1 
-0.199133675228237 0.2705913964777893 0.3250439920068081 0 0.593354760542483 0.05603933754401379 0.3339782556831561 2:1 14:1 17:2 18:1 23:1 33:1 
-1.64482085629423 1.767164542011766 1.654711976252604 1.979805557096292 1.576056866499748 3.203888657013609 0.820093729915807 2:1 21:1 22:1 31:1 
-2.283557789172939 0.1810563489044777 0.147241875966034 0.05872988850748259 1.476462337212774 0.4136427772989233 0.1103677798547817 2:1 9:3 21:1 22:1 31:1 
-0 0 0 0 0.20826159619653 0 0 2:1 9:3 14:1 18:1 21:1 22:1 31:1 
-0 0.1914357356917377 0.03395209888749137 0 0 0.1340451876764609 0.1480141029732603 2:2 9:3 21:1 22:1 31:1 
-0 0 0 1.123799081222486 0 0 0 2:1 14:1 16:1 21:1 22:1 31:1 
-0.4936966276267656 0.1092698458687141 0.4383550330659839 0 0.2675701217135716 0.3908003531930504 0 1:1 2:1 14:1 16:1 21:1 22:1 31:1 
-0.4281177301589352 0.4991799347078735 0.1897264288254762 0.07975569916489891 0.5550628590312388 0.4306268268789978 0.2230900123267121 2:1 6:1 9:1 10:1 13:2 14:2 16:2 18:1 21:1 22:1 31:1 
-0 0 0 0 0 0 0.1911180901725722 2:2 5:1 14:1 16:1 21:1 22:1 31:1 
-0.1063296674710904 0.1574868714948098 0.085072481673376 0.03913438060154891 0.2147975943931989 0.1885616791463706 0.1059384660248698 1:2 2:2 9:1 10:5 13:3 14:2 16:2 18:1 21:1 22:1 31:1 
-0 0.06027912449687117 0.0108218624159158 0 0.6794034146897925 0.2465114190184264 0.0955999972314711 2:1 9:1 11:1 12:1 14:2 16:1 18:1 21:1 22:1 31:1 
-0.1359860980775112 0.04151001690465864 0.01893634089325736 0 0.2329037161530177 0.3384570790642557 0.06692401311037813 2:1 9:1 12:1 14:2 16:2 18:1 21:1 22:1 31:1 
-0.5608371173881949 0.5737835166270188 0.2681790007657056 0.1145528922974614 0.6122342949996855 0.611180032926691 0.3392147894347816 2:2 9:1 10:1 13:3 14:1 16:2 18:1 21:1 22:1 31:1 
-1.647192491980762 0 0 0 0 0 0 1:1 2:1 9:1 14:1 18:1 21:1 22:1 31:1 
-2.222931133376475 0.0819849931489891 0.06933730032945992 0.0469936812657062 1.11074439658332 0.06769578669280808 0.05548416909133676 1:1 2:1 9:3 14:1 18:1 21:1 22:1 31:1 
-0 0.2478764818898136 0.1195602309747462 0.02831004396893375 0 0.3040413967115667 0.1702983891001573 1:1 2:2 9:3 14:1 18:1 21:1 22:1 31:1 
-0.2673168507648905 0.3347072425670235 0.1032367539272325 0 1.101060441947153 0.4863734936247695 0.1248657055117496 1:1 2:1 4:1 6:1 9:1 14:2 16:1 18:1 21:1 22:1 31:1 
-0.7566511202776565 0.5157396693373215 0.2822313201954741 0.1264326280485299 0.6261307310607251 0.629424340124773 0.3489134502391371 1:3 2:2 9:1 10:5 13:3 14:2 16:2 18:1 21:1 22:1 31:1 
-2.135609868378889 0.3181761108060085 0.1428784654567647 0.06447406611001487 0.5409432673520314 0.3188553375117029 0.1774313285181519 1:1 2:1 10:5 13:3 16:1 18:1 21:1 22:1 31:1 
-0.309681301098735 0.358155054963111 0.1914358299375589 0.08655348304124377 0.3847081709315757 0.4254414063288703 0.2360946252100926 1:1 2:2 10:5 13:3 16:1 21:1 22:1 31:1 
-0.1471478990195659 0.7201604264115063 0.119595065856665 0.1844323815280619 0.6466350256584018 0.1299125874647015 0 2:1 14:1 17:1 18:1 28:1 37:1 
-0 0 0 0 1.38951586252664 0 0 2:1 14:1 17:2 18:1 25:1 38:1 
-0.3342240077508166 0.276503316500996 0.2778377424322966 0.05049334932922602 0 0.2132159047457454 0.1507216511705002 2:1 14:1 17:3 18:1 25:1 38:1 
-0 0 0 0.02317100844901288 0 0 0 14:1 18:1 24:1 38:1 
-0 0.06104278908133692 0 0.3779448722202711 0 0.6638219038425431 0 14:1 16:1 24:1 38:1 
-0.01917204944135765 0.4337860019845112 0.08352326787318683 0.7495027492120132 0.06169232484082282 0.2172917330993236 0.1915439417672442 9:1 24:1 33:1 
-0 0 0 0 0 0.07705318599664863 0 2:1 9:1 14:1 16:1 24:1 33:1 
-0.3010868110236504 0.3243447848574721 0.1763704592990293 0 0.3212322178568983 0.3917453994136918 0.2252101807639568 2:1 9:3 14:1 16:1 24:1 33:1 
-0 0.2525639845552261 0 0.7112376471301255 0.7388511918563404 0.7559979344179754 0 3:1 24:1 38:1 
-0 0.2536411886148152 1.413995150754722 0.7117758172918788 0.2941623954689946 0.334370136962119 0 7:1 24:1 38:1 
-0.2799952748687588 0.02850961361508876 0 0.3634089643008611 0.3356608944503708 0.2420644863389255 0 9:1 16:1 24:1 38:1 
-1.26916554546218 0.6383154231722535 0.3433646007304877 0.1544182148945584 2.361622874097059 0.7640311105309675 0.4245169511300164 1:2 10:5 13:3 16:1 24:1 38:1 
-0.06164117881908041 0.3654626748412814 0 0.4072329042108654 0.9881243364820967 0.7962331899726363 1.254057439990152 11:1 12:1 24:1 38:1 
-0.5539920878464391 0.6211753414300836 0.2747247647123638 0.08782285767965789 1.010711391775634 0.2482677825073239 0.331299639552377 10:1 13:3 16:1 24:1 38:1 
-0 0 0 0 4.734229221664114 0 0 3:1 14:1 18:1 24:1 38:1 
-0.02475955327733022 0 0 0 0.2240914591665012 0 0 9:1 14:1 16:1 18:1 24:1 38:1 
-0.118445959046704 0 0 0 0.03354210214988187 0 0 11:1 12:1 14:1 18:1 24:1 38:1 
-0 0 0 0 0.8218185419934076 2.39285002693215 0 2:1 14:1 17:1 18:1 26:1 38:1 
-0.3366054427783806 0.2764889326617319 0.1120223610551593 0.05049334932922585 0 0 0.3163399906329002 2:1 14:1 17:3 18:1 26:1 38:1 
-0.8234511656311357 0 0 0 0 0 0 9:1 24:1 38:1 
-1.488940339411937 0 0 0 0.3520372341201198 0 0 9:2 24:1 33:1 
-0 0 0 0 0 0.02441756494013021 0 2:1 9:3 24:1 33:1 
-0 0 0 0 0.1890906432076167 0 0 9:1 18:1 24:1 33:1 
-1.271211703750751 0.3634155948291654 0.2243088842061396 0 1.81004050305202 0.4732176085545206 0.2624916387297478 9:3 18:1 24:1 33:1 
-2.361567703364932 0.2224039389499169 0 0.7107554203841283 0.2736323544684685 0.4860178044499621 0 1:1 24:1 38:1 
-0.3047445967036359 1.256137783618912 0.09006910115547681 0.1579455661861784 0.5389663793975028 1.327488164246978 0.1381848442550036 6:1 10:1 13:2 16:1 24:1 38:1 
-0 0.2523506764482939 0.5836838054480704 0.711237647130126 0.01791274219512743 0.4330497601346158 1.633879452665982 5:1 24:1 38:1 
-0.5471933451507814 0.4188153546106148 0.1957230039726734 0.02915354803582459 1.581660883845452 0.773202980687876 0.2208932204056478 14:2 18:2 24:1 38:1 
-0.3431867880526348 0.1884764936393351 0.1388281277365631 0.0008563430864306701 0.7540846274886241 0.07356971862037885 0.2567809070808703 2:1 14:1 17:3 18:1 24:1 38:1 
-0.5778542997788878 0.4547914235726674 0.3885024552941722 0.05304360661672029 1.029487725405342 0.6145342620177836 0.3232327992056534 2:1 14:1 17:3 18:1 27:1 36:1 
-0.2600136793788329 0 0.1600362259513107 0 0.4292373335103083 0.1002339782384851 0.3428534749921869 2:1 14:1 17:2 18:1 28:1 37:1 
-0.637599452497705 0 0 0 0.005606261806135152 0 0 2:1 9:2 21:1 22:1 31:1 
-0.1904783201678728 0.3844140415585142 0.004574844975949221 0 0.3315859169562 0.3588119407009994 0.170739027039016 2:3 6:1 14:1 16:1 21:1 22:1 31:1 
-0 0 0.1005595898868506 0 0 0 0 2:2 7:1 9:1 14:1 16:1 21:1 22:1 31:1 
-0.02286564080584769 0.2159048980804373 0.1133889130272225 0 0 0.2240227313732393 0.1193736066349767 2:2 9:2 14:2 16:2 18:1 21:1 22:1 31:1 
-0.1974119513513248 0.1112217822852233 0.07697889998115305 0 0.2014728656718374 0.1089829014009258 0.1109853473326472 1:1 2:1 9:1 11:1 12:1 14:2 16:1 18:1 21:1 22:1 31:1 
-0.1809538584485908 0.1546945612043928 0.0763054602867583 0.0474041960393963 0.9094782747750497 0.1494100615828809 0.1442342025535867 1:1 2:1 9:1 12:1 14:2 16:2 18:1 21:1 22:1 31:1 
-0 0.137347466142789 0.08683733362193058 0.03919591962219265 0.1548034521833863 0.1941274639237653 0.1068329235210991 1:1 2:2 10:5 13:3 14:1 16:1 18:1 21:1 22:1 31:1 
-0.1370025742200947 0.07360007922068884 0.02055906626809705 0.1631981045755565 0.6011971316694569 0 0.4883539846488295 2:1 14:1 17:1 18:1 27:1 36:1 
-0.3556256289823281 -0.3100705246080496 0.1596537677531903 0.1446417692035389 0.256374945758772 0.1543968901748506 0.2032991451600699 6:2 17:1 23:1 33:1 
-0 -0.1952818008516184 0 0 0 0 0 6:1 10:1 13:2 16:1 21:1 22:1 31:1 
-0.246557880382588 -0.4588237190922773 0.1560805792767209 0.09510304249395504 0.3647723020041431 0.3234015475287262 0.2020916132137812 6:1 10:2 13:4 16:1 21:1 22:1 31:1 
-0.04843935257031895 -0.198641032077845 0.062448633418444 0 0.2225917006479423 0.4258729490197597 0.1757720541363041 6:2 10:2 13:2 16:1 21:1 22:1 31:1 
-0.09719433724090304 -0.1121367380937646 0.1071094276573996 0.5136238745448822 0.1409038075570434 0.3049300315279515 0.01516895660138021 6:1 10:1 13:1 16:1 21:1 22:1 31:1 
-0 -0.1159673262215979 0 0 0.05988843302875895 0.05190170772989748 0 6:1 10:1 13:3 16:1 20:1 21:1 22:1 31:1 
-0 -0 0 0.9168723204511345 0 0 0 6:1 16:1 20:1 21:1 22:1 31:1 
-0.1765828464498232 -0.2568318506234253 0.1351530342499801 0.02857736834232902 0.2288998450311186 0.1758951445577657 0.1497646968884637 6:1 13:2 16:1 20:2 21:1 22:1 31:1 
-0.365171376744675 -0.3706510743075458 0.1554468187464206 0 0.3521879548754375 0.415567191657339 0.2250627875618 6:2 13:2 16:1 20:2 21:1 22:1 31:1 
-0.06766852388548163 -0.2271720994640193 0 0 0.1707616228835403 0.05243689301670539 0.1420946144795448 6:2 16:1 20:2 21:1 22:1 31:1 
-0.4102212154022383 -0.3626122015033235 0.2884472276764039 0 0.3803731901596061 0.4713782792640204 0.2027710647468238 6:1 16:1 20:2 21:1 22:1 31:1 
-0.5661391089392734 -0.5068155153611313 0.3054142092469303 0.2010334245530836 0.5104069075160459 0.5412370388844031 0.3407124224136789 6:2 10:2 13:4 16:1 21:1 22:1 31:1 
-0.5127471235364591 -0.3847329622983311 0.1110855128669338 0 0.2472453505120986 0.05378556826248835 0.1132009205973344 6:1 10:2 13:2 16:1 21:1 22:1 31:1 
-2.446588494164685 -1.962247553957948 1.78862415439638 2.119535634202866 2.012970161940713 2.951674623215909 1.030947435278689 6:1 21:1 22:1 31:1 
-0.5753693650196694 -0.7194719726890562 0.2740849578737466 0.8031260116829804 0.5841709985307163 0.4310231551568178 0.3458750209705167 10:1 13:1 16:1 28:1 37:1 
-0.5345002666043898 -0.6801461973429274 0.2923789333517504 0.1994236293335499 0.6121766821553989 0.5449171229358231 0.3574880079674155 6:1 10:2 13:4 16:1 28:1 37:1 
-0 -0.02196643303829035 0 0 0 0.3432625182480342 0 6:2 10:1 13:1 16:1 28:1 37:1 
-0.2629903862107117 -0.4315518882182823 0.1723113162618133 0.06613935806962298 0.4058461704246661 0.3282733161769044 0.2094231074623303 10:1 13:3 20:1 28:1 37:1 
-1.150197007681264 -1.006951650173388 0.6816511729167647 1.654743190090433 1.012663802779671 0.7477168192809996 0.843274333797538 20:1 28:1 37:1 
-0 -0.1024288086386842 0 0 0.04729467978066888 0.1679044371897841 0 20:2 28:1 37:1 
-0.2569204824372658 -0.3007056997915497 0.1365117745569818 0 0.2842608345690952 0.2901489286353327 0.1701902332905494 13:2 16:1 20:2 28:1 37:1 
-0.03285683645743272 -0.08022674405069793 0 0 0.06261450244377673 0.3156817878897381 0.01672539204029933 6:2 16:1 20:1 28:1 37:1 
-0.4705226342335702 -0.5196840841093213 0.2530425658378491 0.08083853074540311 0.4750815755875641 0.4089038896886314 0.3012846829148653 6:2 13:2 16:1 20:2 28:1 37:1 
-0.1351760022206577 -0.1208662184387668 0.0895567251323891 0 0.6479003029151773 0.1524679053050091 0.09827623227896572 6:2 17:1 25:1 38:1 
-0.2177921764169807 -0.1375993579024009 0.1209331054329848 0.04964019522509834 0.3135861136651613 0 0.2295571116241825 6:2 17:3 24:1 38:1 
-0.3008234748993285 -0.3013384266825391 0.1216488000128842 0.08189034557343194 0.2367608058283305 0 0.2293277845718878 6:2 17:3 26:1 38:1 
-0.4607901161196071 -0.4559148512975276 0.3258174395436501 0.1107293356111395 0.4780360517301642 0.393950639280964 0.3748626326258355 6:2 17:3 23:1 33:1 
-0.1651478075146447 -0.7372742302256414 0.1319335624758441 0.1449288095784522 0.09989480593278804 0.1716596346047375 0.1205105237319536 6:2 17:1 24:1 38:1 
-0.299007170964823 -0.3023935123037099 0.2334745256972007 0.08213452207498327 0.1030773815522856 0 0.1552611309774509 6:2 17:3 25:1 38:1 
-0.1334483347855382 -0.1203387549829236 0.05419398710569375 0 0.102375082769745 4.12385089037873 0.1209628878325248 6:2 17:1 26:1 38:1 
-0.4948322855646085 -0.5187710067970913 0.3484974362257009 0.111101273432301 0.477114774121995 0.4393863806751834 0.301357079532538 6:2 17:3 27:1 36:1 
-0.4791533275894764 -0.4616313154212018 0.1896215078984778 0 0.4008248677733824 0.3773177467645926 0.2332625908803959 10:2 13:2 28:1 37:1 
-0.3065156783865922 -0.5064211107486439 0.1735944240375115 0 0.3922777350575357 0.4330655383526554 0.2084351109318897 6:2 10:2 13:2 16:1 28:1 37:1 
-0 -0.09787837786364961 0 0 0 0 0 10:1 13:3 16:1 20:1 28:1 37:1 
-0.03345345675899533 -0.09964486424109935 0.01948391321298852 0.05702110508057691 0.06330080729125062 0.2010838040807961 0.02465159392110971 6:2 10:1 13:3 16:1 20:1 28:1 37:1 
-0 -0 0.1404715624559684 0.2308775479984026 0.1281610323998163 0.2785193773827668 0.09529067502858775 16:1 20:1 28:1 37:1 
-0.2012400831122683 -0.2545757403959537 0.0130911033244121 0 0.1771309546491225 0.04747362449936793 0.06364001584474685 16:1 20:2 28:1 37:1 
-0.4749897682232453 -0.5024000978897769 0.2679657175398554 0.1351779122377797 0.5139015532695634 0.4039920655311094 0.4170415921059198 6:2 17:3 28:1 37:1 
-0.2484041700419435 -0.2517997160812371 0.09577056895329682 0.1453474672748835 0.249371319446321 0.1381443704229018 0.4159344970181188 6:2 17:1 27:1 36:1 
-0.4806328582618661 -0.4492827970734057 -0.3716719013139142 0.4073494829259434 0.4051972634284101 0.4429666815565809 0.5156508420335987 5:1 7:1 17:1 19:1 23:1 33:1 
-0.7484636591694939 -0.7054767196012152 -0.6475716999634598 0.2302725661588666 0.7601561162988706 0.6784055100962727 0.8418737698707135 5:1 7:1 17:3 19:1 23:1 33:1 
-3.226370777638017 -0.3969108457222229 -0.2087061497282487 0 0.276128376603121 0 0.1931307890151604 1:1 7:1 21:1 22:1 31:1 
-0.5841555623777348 -1.971843073090677 -1.717814589112567 2.436651463761777 2.226247488485002 5.00595010063611 0.8098312851224058 7:1 21:1 22:1 31:1 
-0.1903163750227306 -0.1215147397630429 -0.1747110464572897 0.09067429986877805 0.1566900188591068 0.1678806774073828 0 7:1 19:1 21:1 22:1 31:1 
-0.8703799474738265 -0.8118550805618167 -0.6707100690261217 1.047879090516723 0.7119455548233307 1.469533347844038 0.508400925080878 1:1 7:1 15:1 16:1 21:1 22:1 31:1 
-0 -0 -0 0 0 0.0345318937726645 0.0402711122422935 1:1 7:2 15:1 16:1 21:1 22:1 31:1 
-0.3019082209526383 -0.6816611322079246 -0.5749720932269606 0 0.6718248957500624 0.7063786043403211 0.4341866644655399 1:1 5:1 7:2 15:1 16:1 19:1 21:1 22:1 31:1 
-0.2332359614235255 -0.05161000940031665 -0.08171037767619017 0.05728633373225828 0 0.1213672553725366 0.628156499629267 5:1 7:1 19:1 21:1 22:1 31:1 
-0.6388712026395853 -0.6946681223141993 -0.8792515097206366 0.4971899569259945 0.6854129901881146 0.5973877894262083 0.6236775214589615 5:1 7:1 17:1 19:1 28:1 37:1 
-0.7571634053089689 -0.6533388662719268 -0.6473831208735048 0.2609628926452399 0.4814639836197194 0.6182270003785689 0.7034703434725657 5:1 7:1 17:3 19:1 25:1 38:1 
-0.529784511541859 -1.459181547865572 -0.4430890117606339 0.4117749990788114 0.4442932198701851 0.6107760210957698 0.6166546334731071 5:1 7:1 17:1 19:1 24:1 38:1 
-0.2508226621357765 -0.2438392301412213 -0.2044037090692964 0.1265951232413582 1.146203620610171 0.3565298667866587 0.2955690297802084 5:1 7:1 17:1 19:1 25:1 38:1 
-0.9229054186686872 -0.9013279520866252 -0.7835031872077435 0.3755540035908702 0.9074664281748396 0.8774675257450438 1.042832687609712 5:1 7:1 17:3 19:1 27:1 36:1 
-0.1175561070256201 -0 -0 0 0.0009980134174116494 0.09970585884582359 0.2582454350392058 5:1 7:1 17:2 19:1 28:1 37:1 
-1.21446421318461 -0.9657865020614038 -0.6886466812176144 -0.643420387940157 0.9936400448336897 0.8729722182617681 0.6904255133878241 8:1 23:1 33:1 
-1.617496131323424 -0.6732536980589301 -0.8246166816344618 -1.121591974780366 0.9818487103134753 1.239174324719084 0.4004434649034622 8:1 21:1 22:1 31:1 
-2.969667989463639 -3.20652213885039 -3.007585300766957 -2.329654774931727 3.015140068225655 5.732281833779546 1.552440464704884 16:1 21:1 22:1 31:1 
-0.8457932018425389 -0.8041725182359682 -2.073550202392441 -0.6612043019294673 0.9442332168448775 0.8660366491009864 0.6903105844873929 8:1 28:1 37:1 
-0.8392156848880938 -3.232236613688674 -0.6884517921142099 -0.6539685189030429 1.329373063876474 1.384641232783076 0.6901943884186851 8:1 24:1 38:1 
-0.8379885016971369 -0.8001232330660443 -0.6896560096751434 -0.5323502539618601 0.9453120230194385 0.8669467231321722 1.703906542169786 8:1 27:1 36:1 
-0.2998593762129139 -0 -0 -0.1078024173632663 -0 0 0.03181393370560882 3:1 14:1 17:2 18:1 23:1 33:1 
-0.4304069652351411 -0.8780691094104375 -0.4687649813733998 -0.3314551210234093 -0.1468283697240399 0.4268282896977209 0.4585655556559166 3:1 14:1 17:3 18:1 23:1 33:1 
-1.304522503618551 -1.633994973280475 -1.669271995871062 -1.874521963260525 -2.083621298648596 2.88849174544813 0.8567400202219855 3:1 21:1 22:1 31:1 
-0.9664972685035167 -0 -0 -0 -0 0 0 3:1 9:1 21:1 22:1 31:1 
-0 -0.2249670167104471 -0 -0 -0 0 0 3:1 9:3 14:1 18:1 21:1 22:1 31:1 
-0 -0 -0.2287839221081292 -0.05186635094050909 -0 0.1630549736435744 0.1829896502674475 3:2 9:3 21:1 22:1 31:1 
-0 -0 -0.02969061046205016 -0.01073096282470884 -0 0.01037880621968529 0.0111033943752634 3:2 9:3 14:1 18:1 21:1 22:1 31:1 
-0 -0 -0 -0 -1.132930761451802 0.04770343412461679 0 3:1 14:1 16:1 21:1 22:1 31:1 
-0.05712892114641226 -0.8086038005092627 -0.09151730059669254 -0 -0 0.3276123887311145 0.1261785579016192 3:1 9:1 11:1 12:1 14:2 16:1 18:1 21:1 22:1 31:1 
-1.660968695563096 -0 -0 -0 -0 0 0 1:1 3:1 9:1 14:1 18:1 21:1 22:1 31:1 
-0 -0 -0.2938523947983542 -0.1645434863442508 -0.101445465616834 0.3670950512173144 0.2168678968212049 1:1 3:2 9:3 14:1 18:1 21:1 22:1 31:1 
-0.4396802754226903 -1.217111917868726 -0.4265962841435572 -0.2098918294788037 -0.03921786087909802 0.6722124299060004 0.2079879194838874 1:1 3:1 4:1 6:1 9:1 14:2 16:1 18:1 21:1 22:1 31:1 
-0.4433567937917912 -1.227247288469736 -0.3354322530496895 -0.1993803191246545 -0.144004671048925 0.5117052863026884 0.2728320007696118 1:1 3:1 9:1 12:1 14:2 16:2 18:1 21:1 22:1 31:1 
-0 -0 -0 -0 -0 0.1139283670585079 0.111430218442193 3:2 11:1 12:1 16:1 21:1 22:1 31:1 
-0 -0 -0 -0 -0 0.09473209131677479 0.0559911945161554 3:2 11:1 12:1 16:1 18:1 21:1 22:1 31:1 
-0.3296185054366534 -0.5035542665832952 -0.253313567300206 -0.06094579824505368 -0 0.3720699478245603 0.1871193746014703 3:3 11:1 12:1 16:1 21:1 22:1 31:1 
-0.2300743752165056 -0.1577696503105764 -0.2483115273175431 -0.1474324742823015 -0 0.2334092462208079 0.1512673400564409 3:3 11:1 12:1 14:1 16:1 18:1 21:1 22:1 31:1 
-0.3819330216295585 -0.6696628846619725 -0.2952828345273993 -0.2039402977902789 -0.06082841309765936 0.477110821616983 0.4279806088006656 3:1 14:1 17:3 18:1 28:1 37:1 
-0 -0.3336128443337667 -0 -0 -0.01707469168693587 0.3553412699703505 0 14:1 16:1 25:1 38:1 
-0 -0.211660750610135 -0.2745104197866584 -0.05989602744608432 -0.5071993665949701 0.08262570461662264 0.2434027751065568 9:1 25:1 33:1 
-1.286847897544627 -0.163446977445621 -0 -0 -0 0 0 9:2 25:1 33:1 
-1.400087418572478 -1.902296309229949 -0.3984761848472874 -0.244986753396973 -0.06296127374826396 0.5024263706653308 0.2925825008750084 9:3 18:1 25:1 33:1 
-0 -0 -0.01207980933538804 -0 -0.02725246482925111 0 0 3:1 9:3 18:1 25:1 33:1 
-0 -0.1659476371618006 -0.00323986361357087 -0 -0 0.1353779103054195 0 3:1 9:1 14:1 16:1 25:1 33:1 
-0 -0 -0 -0 -0 0.2749525809575787 0 3:1 25:1 38:1 
-0 -0.3554852699544305 -0.3243513287247337 -1.432000919361244 -0.1144671611250134 0.4425111761739017 0.02336567726589402 7:1 25:1 38:1 
-0.8946097951633127 -2.217187684543843 -0.5261589970744518 -0.284874852299623 -0.1820394356810901 0.6086054569999966 0.3627213349074501 1:2 10:5 13:3 16:1 25:1 38:1 
-0.1827339775258412 -1.068122343640161 -0.3170894120511145 -0.03430431836801397 -0 0.5190088040461155 0.7625722049266596 11:1 12:1 25:1 38:1 
-0 -0.2001067657260428 -0 -0.1393799550562567 -0 0 0.3401735993776969 5:1 14:1 18:1 25:1 38:1 
-0.2425248247186193 -0.5799314976223197 -0.2220936423802338 -0.5524201266703165 -0.1360010196846236 0.2101825175958555 0.1089234551220509 7:1 14:1 18:1 25:1 31:1 
-0 -0.03442537399822364 -0 -0 -0 0 0 12:1 14:1 16:1 18:1 25:1 38:1 
-0.1367464810773034 -0 -0 -0.07716829940952954 -0 0 0 3:1 14:1 17:2 18:1 25:1 38:1 
-0 -5.336255728942398 -0 -0 -0.1428831680994228 0 0 3:1 14:1 17:1 18:1 24:1 38:1 
-0 -0 -0 -0.03023023998706579 -0 0 0 3:1 14:1 17:2 18:1 24:1 38:1 
-0.4751802929395602 -0 -0.4425283479252364 -0.2522959208987718 -0.08758544093593336 0.1819599793603903 0.4523349041604815 3:1 14:1 17:3 18:1 24:1 38:1 
-0 -0 -0 -0 -0.869801857728757 0 0 25:1 38:1 
-0.1674865274654122 -0 -0 -0 -0 0 0 9:1 25:1 38:1 
-1.202587240721598 -0.08106699711831288 -0.4014160849242702 -0.1478422286541769 -0.4454454560658033 0.3897711480674045 0.1973936370488034 9:1 25:1 31:1 
-0.01253086099488114 -0 -0 -0 -0 0 0 9:1 14:1 18:1 25:1 31:1 
-0.3430132685275359 -0.1265448164106394 -0 -0 -0 0 0 9:1 14:1 16:1 25:1 38:1 
-0 -0.2362061387587649 -0.2150570712982464 -0.1298028045482678 -0 0.2993661164502271 0.1606269641726217 3:1 9:3 25:1 33:1 
-2.338910566619955 -0.591708944862897 -0.3928975640573295 -0 -0.1597075651199859 0.7588908187050893 0.05546189123255541 1:1 25:1 38:1 
-0.3196586737904486 -1.346251703827658 -0.08773431841333258 -0 -0 0.2176489716277342 0 2:1 9:1 18:1 25:1 38:1 
-0 -0.298234879876382 -0.4031505734034491 -0.07529403900715119 -0.481900747917101 1.209232999623313 0.8511800544609008 12:1 16:1 25:1 38:1 
-0.5161710862393171 -1.983967880846619 -0.3813044877364143 -0.05760541247721982 -0.06542840350759357 0.7107424494311404 0.124839885965177 14:2 18:2 25:1 38:1 
-0.3279238506982125 -0.657396281785274 -0.7407385450854853 -0.1154704713962183 -0.09774784208474221 0.754959789190138 0.1240695503862149 6:1 10:1 13:2 14:1 16:1 18:1 25:1 38:1 
-0.7704774631040742 -0.8050869676565607 -0.5014557310693639 -0.2826814513142816 -0.1796637086861038 0.5995717092516467 0.3595160983620334 1:2 10:5 13:3 14:1 16:1 18:1 25:1 38:1 
-0.6703935806069508 -1.218049302464811 -0.6478788395039735 -0.3357168151328843 -0.2063029028673772 0.5481688932100616 0.4339724296475845 10:1 13:3 14:1 16:1 18:1 25:1 38:1 
-0.08815149983128902 -0.2893340413844826 -0.007334797553103282 -0 -0 2.065376910055386 0.1106994699193271 3:1 14:1 17:1 18:1 26:1 38:1 
-0.2820958820487332 -0.6503526844038469 -0.6448956376623378 -0.1805813080534767 -0.2519604622631699 0.05688278422983941 0.1602885117605334 3:1 14:1 17:1 18:1 28:1 37:1 
-2.546113074597782 -1.513078303876179 -0.1449377120156601 -0.1423033579065985 -0.1022394556599261 0.3791493761957508 0.09589972430770725 3:1 9:3 21:1 22:1 31:1 
-0.01633840193497571 -0.6418885354626234 -0.3829870678558198 -0 -0 0.1831383753390172 0.09159571152467394 2:1 3:2 6:1 14:1 16:1 21:1 22:1 31:1 
-0.1998966204240416 -0.2157653673613674 -0.2550280517067925 -0.3171493180871313 -0 0.4366010397964906 0.1891183894171303 3:2 7:1 9:1 14:1 16:2 21:1 22:1 31:1 
-0 -0 -0.02703568080244286 -0 -0 0 0.02087169268684592 3:2 9:2 14:2 16:1 18:1 21:1 22:1 31:1 
-2.27591643005223 -1.193560125940341 -0.1190759811265162 -0.08079171961391814 -0.04986725399530361 0.1080242278038194 0.08549240802547983 1:1 3:1 9:3 14:1 18:1 21:1 22:1 31:1 
-0.1678033374987432 -0.1260070214059772 -0.04302019872975463 -0.1046088937588087 -0 0 0.04971323072983528 1:1 3:1 9:1 11:1 12:1 14:2 16:1 18:1 21:1 22:1 31:1 
-0.2135575653394279 -0.4736406997873254 -0.134423157423687 -0.02689415263289408 -0.2531361874853977 0.05633179554268524 0.5359466958575355 3:1 14:1 17:1 18:1 27:1 36:1 
-0.5692824885387479 -1.147392844606469 -0.4234818789346787 -0.407217563973677 -0.06000442087989223 0.4777151800728823 0.3028408060982505 3:1 14:1 17:3 18:1 27:1 36:1 
-0.4267610042144478 -0.3322762861764441 -0.2898749373364838 -0.2753338985457515 -0 -0.3574901269830278 0.3219416169480026 4:2 17:2 23:1 33:1 
-0.09383385081540212 -0.6250123534234998 -0.514071636501197 -0.6890563720903164 -4.104159392185836 -0.8120899852197008 0.05259793372942396 12:1 16:1 21:1 22:1 31:1 
-0.2830343030682703 -0 -0.1440823445859239 -0.7047002486468475 -0.5839099725321085 -0 0 15:2 21:1 22:1 31:1 
-2.378358751175285 -1.707445001466802 -1.360510958176061 -1.452203062465395 -0 -1.662285202260773 4.523209856315901 12:1 21:1 22:1 31:1 
-0 -0 -0 -0 -0 -0.4169117811752846 0 3:1 4:1 15:2 21:1 22:1 31:1 
-0.1480697818117433 -0.1973795798637215 -0 -0 -0 -0.1624946317309461 0.5303667188741898 4:1 12:2 15:2 16:1 21:1 22:1 31:1 
-0 -0 -0.3613917598889702 -0 -0 -0 0 4:1 6:1 12:1 15:2 16:1 21:1 22:1 31:1 
-0.5639713002061952 -0.42427066281855 -0.2951573660866383 -0.08355134346120947 -0 -0.3601377023926842 0.2282358692192809 1:2 4:2 7:1 15:1 21:1 22:1 31:1 
-0.9894137540486481 -0.8338561899870047 -0.5091037080658645 -0.2604584763730342 -0.2031986314838148 -0.7973058809294921 0.3646082549953398 4:1 9:2 15:2 16:1 21:1 22:1 31:1 
-0 -0.001957281670323936 -0.0292283747645753 -0 -0 -0.7449588798241981 0 4:2 17:1 25:1 38:1 
-0.3028429784078081 -0.08317065467209594 -0.2174190554204713 -0.1940608446222031 -0.04693723546633256 -0.158503858500938 0.2316209362671545 4:2 17:2 24:1 38:1 
-1.433513121468445 -1.001320160489024 -1.077011004326678 -0 -2.445322130685378 -0.8185404462281669 0 4:1 21:1 22:1 31:1 
-0.1454437256840569 -0.3472869631576379 -0.1945295391993073 -0.1159391191082036 -0 -0.4284155932867016 0.1365081417255706 12:1 15:2 16:1 26:1 38:1 
-0 -0 -0 -0.1077817918588164 -1.231503234000023 -0 0 26:1 38:1 
-0 -0 -0 -0 -0 -0.06392518687410961 0 12:1 16:1 26:1 38:1 
-0.2036735505892972 -0.3923768254643373 -0.3251764247415762 -0.0550491922746548 -0 -0.3733991686473495 0.03449015837534133 4:2 12:1 16:2 26:1 38:1 
-0.3004421400397853 -0.1796317260089638 -0.2174672980817356 -0.06346230052714757 -0 -0.1613168843154375 0.1929155404206467 15:2 26:1 38:1 
-0.2518279251990027 -2.113961985961501 -0.1317647084195804 -0.1689574376913498 -0.0874041890529911 -0.1242168792506136 0 2:1 26:1 38:1 
-0.3486931336371067 -0.7673313716078145 -0.2040740756982865 -0.2235367742175203 -0.1330785448444449 -2.324898401983066 0 3:1 26:1 38:1 
-0.5148277178966744 -0.5472182931419231 -4.47728661486142 -0.2494929640603833 -0.1423845363743921 -0.5098634418862208 0.2723433375366902 6:2 26:1 38:1 
-0.5696828116601637 -2.209105899108709 -0.4842717378000053 -0.2618904498059038 -0.2049571294075954 -1.223594819261567 0.3387963612880181 2:1 14:2 16:1 18:1 26:1 38:1 
-0.7779248612400286 -1.578069652276589 -1.399929672023143 -0.3467923799535967 -0.2295032388267819 -1.087472298017741 0.478464883888151 6:2 10:1 13:2 16:1 26:1 38:1 
-0.4025357421949394 -0.6640040443868238 -0.4268768637214458 -0.3094819624003118 -0.02781310323139383 -0.5663844713688425 1.579510546485025 4:1 5:2 12:1 16:1 26:1 38:1 
-0 -0 -0 -0.06165851754603238 -0 -0 0 4:1 7:1 26:1 38:1 
-1.723506186215752 -0.304184848998601 -0.02742078770478168 -0 -0 -0.2829322965467984 0 1:1 4:1 9:1 26:1 38:1 
-0.3433796380351175 -0.6137088725569698 -0.3544870531006691 -0.1448259664096427 -0.08849234139956372 -1.292020019884077 0.2423481585030393 3:1 4:1 14:2 16:1 18:1 26:1 38:1 
-0.1231530407607926 -0.1364764632479826 -0.05865538576242856 -0 -0.1558649480176046 -0.05797785811926498 0.003168795714128046 4:2 17:1 23:1 33:1 
-0 -0.81868948950387 -0 -0 -0.03512573191581272 -0 0 4:2 17:1 24:1 38:1 
-0 -0 -0 -0 -0 -0.1685439887560126 1.872412446752562 12:1 26:1 38:1 
-1.000507489830869 -0.3906470984535499 -0.2163370954389148 -0.3601071780306296 -0.4688477948791497 -0.4998359590571083 0 1:1 16:1 26:1 38:1 
-0.07375926123718439 -0 -0.2305692744502571 -0 -0 -0 0.1593289665827922 4:2 17:2 26:1 38:1 
-0.6971947501783582 -0.7335401428672218 -0.5068072768205381 -0.4240523023571234 -0.128358074341937 -0.6455445453973966 0.353762002423786 4:2 17:3 27:1 36:1 
-0.1028444003224536 -0.1404575555483291 -0.4884088551490284 -0 -0.1067945599241431 -0.09161378054596077 0.06849021175253377 4:2 17:1 28:1 37:1 
-0.5746683514320997 -0.6372134985061038 -0.4026570154738741 -0.3239694202816897 -0.1286903554944289 -0.645816110719525 0.5039908099900952 4:2 17:3 28:1 37:1 
-0 -0 -0 -3.3000100761162 -0.1066374983898477 -0.01680267792457606 0 4:1 7:1 21:1 22:1 31:1 
-0.5090358624635615 -1.303439002902717 -0.4465457620312533 -0.2263832784446849 -0.1356795994294574 -0.4985168971496462 0.1374039895989877 2:1 15:2 21:1 22:1 31:1 
-0.3699089381593524 -0.4594253162512774 -0.3664008427917372 -1.107148423499934 -0.04219923248504086 -0.4612214395788686 0.1706472239963098 4:1 7:2 15:1 21:1 22:1 31:1 
-0.5185269714380891 -0.5367261412484582 -0.3516172619367194 -0.2035361029301065 -0 -0.476288613034042 0.3055794001305687 1:2 4:2 7:1 12:1 16:1 21:1 22:1 31:1 
-0 -0.1128917527934906 -0 -0 -0 -0 0 2:1 4:2 7:1 12:1 15:1 16:1 21:1 22:1 31:1 
-0.5083583407540891 -0.6289930603919397 -0.4535951889579147 -0.07366824958529088 -0.01675891332694649 -0.8873101804933777 0.359325472580929 3:2 4:2 7:1 12:1 15:1 16:1 21:1 22:1 31:1 
-0.06011032530793613 -0.1087515581084476 -0.09849193800321358 -0 -0.1084325940816096 -0.09226722726915222 0.518241643815 4:2 17:1 27:1 36:1 
-1.030769712899678 -0.8867536127254926 -0.8305351688413628 -1.075274405262943 -1.150282479623085 -0.9082748826975018 -4.160714233470939 5:1 12:1 21:1 22:1 31:1 
-0.3391013484702137 -0.5209827663725494 -0.3671640854145671 -0.2987821448998842 -0.1931118641841983 -0.4605541125481925 -0 5:2 12:1 16:1 21:1 22:1 31:1 
-0.6623882032131168 -0.7782966254462458 -0.616948823505351 -0.3348233395199766 -0.188709796046097 -0.7760332125509327 -1.667309566856759 12:3 21:1 22:1 31:1 
-0.5094117469741127 -0.5414205855231767 -0.461580389364772 -0.2355968044613654 -0.1411237290452892 -0.5205573828579794 -0.2485285886901628 5:2 12:3 16:1 21:1 22:1 31:1 
-0.574011887426085 -0.6345977510932845 -0.4322048487882204 -0.3967747408388219 -0.1765994390597299 -0.613543114815831 -0.6565730816248481 5:1 12:1 17:3 28:1 37:1 
-0.1943883958786463 -0 -0.09967265011187935 -0.4127421467645533 -0 -0.4385847568989611 -0 5:1 12:1 17:2 25:1 38:1 
-0.2504570236181437 -1.976970387968583 -0.1643556181326998 -0.358262202082225 -0.3222371688228287 -0.4249957331447972 -0.1356171453569361 5:1 12:1 17:1 24:1 38:1 
-0.359093492884699 -0.0604001279758908 -0.3827445455026297 -0.2635276080972587 -0.1104478346954017 -0.3498751086879751 -0.3885636448691879 5:1 12:1 17:3 24:1 38:1 
-0.4406034865898888 -0.3071228520743614 -0.2482501019727138 -0.3695458964033908 -0.3403188646954693 -0.3396700896486674 -0.1690257608777338 5:1 12:1 17:1 23:1 33:1 
-0.6646721579775422 -0.6236771601181266 -0.5478549303751655 -0.7252353459538367 -0.177523822851203 -0.6177804818690701 -0.5846556320215309 5:1 12:1 17:3 23:1 33:1 
-0.1877751930111956 -0.1425805371973205 -0.1638080073760847 -0.06473629399767233 -0.04446041432559698 -0.4576473084652466 -2.151844526740981 5:1 12:1 17:1 26:1 38:1 
-0.5239906913716315 -0.5250856690662086 -0.3833168516705041 -0.2641950136231171 -0.177850075719563 -0.2183377698037594 -0 5:1 12:1 17:3 26:1 38:1 
-1.025395462826938 -1.156818346898917 -0.8680701186402221 -0.1884714220085487 -1.837505343737076 -1.25452292156982 -1.781879912856407 12:1 27:1 36:1 
-0.3807670755921286 -0.4409378817259168 -0.3636974026056443 -0.2486792814862729 -0 -0.4294907853651879 -0.2537917432131212 12:3 27:1 36:1 
-0.6343245731746747 -0.6514069499635392 -0.5743202115442171 -0.3606379638283078 -0.2430669624258003 -0.6487234277470181 -0.718803672936378 5:2 12:3 16:1 27:1 36:1 
-0.6843327564909824 -0.6359665283280411 -0.5178536436555981 -0.7835307344440881 -0.1894472570433547 -0.5793637629612743 -0.5149830584073892 5:1 12:1 17:3 27:1 36:1 
-0.3717091167087151 -0.2726273742150813 -0.7143662055113743 -0.4901245847745493 -0.3396166982943891 -0.3375850681045932 -0.1425038432574685 5:1 12:1 17:1 28:1 37:1 
-0.1300535180426498 -0.2175859995939506 -0.1135743725916596 -0.5575187739193418 -0 -0.108543920745026 -0 5:1 12:1 19:1 27:1 36:1 
-0.2957440459409225 -0.3867209721841229 -0.2831999728228267 -0.08349283592746387 -0.09541920750295299 -0.3503874284826449 -0.4055148667296267 5:2 12:1 16:1 27:1 36:1 
