svm_type c_svc
kernel_type rbf
gamma 0.03125
nr_class 5
total_sv 224
rho 0.0962636 -0.148717 -0.0707886 -0.112296 -0.0744989 -0.159233 -0.116347 -0.151905 -0.0761912 0.0170497
label 2 10 0 -3 1
probA -4.84444 -4.63305 -4.12568 -4.67871 -4.67999 -4.28827 -4.85605 -4.7488 -4.69228 -4.20859
probB -0.0511653 -0.328638 -0.485013 0.0321391 -0.16992 -0.57565 -0.0446142 -0.101053 0.112342 0.587312
nr_sv 30 50 63 35 46
SV
1 0.1225382973522679 0 0.2755548471495096 9:1 12:1 39:1 
0 1 0 0 9:1 12:1 16:1 17:1 18:1 39:1 
0 0.990901440947576 0 0 9:1 12:1 16:1 17:1 18:1 39:1 
0 0 0.7240531366469866 0.4489261499162178 9:1 12:1 16:1 39:1 
1 0 0 0 9:1 39:1 42:1 
0.4597280522889441 1 0 0 9:1 16:1 17:1 18:1 39:1 42:1 
1 0.9466667063066821 0 0 9:1 16:1 17:1 18:1 39:1 42:1 
0.4292746183051622 0 0.7240531366469847 0.2276947449552342 9:1 16:1 39:1 42:1 
1 1 1 1 9:1 39:1 
0 1 0 0 9:1 24:1 
1 0.1677817754173663 0 0.4957707522235312 9:1 39:1 42:1 
0.5547786274287785 0.8489145044778248 0.4713874933084895 0.4513426512776691 9:1 24:1 27:1 
1 1 0 0 9:1 16:1 17:1 18:1 39:1 
0 1 0 0 9:1 24:1 
0 1 0 0 9:1 24:1 
0 1 0.04072284607538231 0.2787771469723856 9:1 24:1 
1 1 1 1 9:1 39:1 
0.126935329550375 1 1 1 9:1 24:1 
1 1 0 0 9:1 16:1 17:1 18:1 39:1 
1 1 1 1 9:1 24:1 
0.9946435280359464 1 1 0.9338385901699708 9:1 24:1 
1 1 1 1 9:1 
0 1 0 0.3957131736549724 9:1 16:1 17:1 
0 1 0 1 9:1 16:1 17:1 
1 1 1 1 9:1 16:1 
0 1 0.1407040013632904 1 9:1 16:1 17:1 
0 1 1 1 9:1 16:1 17:1 
1 1 0.4772962596873326 1 9:1 16:1 17:1 18:1 
1 1 1 1 9:1 16:1 17:1 
0.9349475575042793 1 1 0.9007358740056006 9:1 16:1 17:1 
-1 1 0 0.5467633370986169 1:1 16:1 17:1 18:1 39:1 42:1 
-0 1 0 0 1:1 16:1 17:1 18:1 31:1 32:1 
-0 0 1 0 1:1 31:1 32:1 
-0 1 0 0 1:1 16:1 17:1 18:1 31:1 32:1 
-0.4883368688471611 0 0 0 1:1 2:1 16:1 39:1 42:1 
-1 0 0 0 1:1 30:1 39:1 42:1 
-1 0 0.428514156727819 0 1:1 2:1 16:1 39:1 42:1 
-1 1 0 1 1:1 16:1 17:1 18:1 39:1 
-0 1 0 0 1:1 16:1 17:1 18:1 31:1 32:1 
-0 0 1 0 1:1 31:1 32:1 
-0.4378816292692475 1 0.4264124960997624 0.3708721326294271 1:1 16:1 17:1 18:1 31:1 32:1 
-0.551810428333426 0 0 0 1:1 30:1 39:1 
-1 0 0 0 1:1 2:1 16:1 17:1 18:1 39:1 
-0 0 0.3681633947790067 0 1:1 38:1 
-0 0.3461036230557791 1 0 1:1 38:1 
-0 1 1 0 1:1 38:1 
-0 1 1 1 1:1 38:1 
-0 1 1 1 1:1 38:1 
-0 1 1 1 1:1 38:1 
-0 1 1 1 1:1 38:1 
-0 1 1 1 1:1 38:1 
-0 1 0 0 1:1 45:1 
-0 1 0 0 1:1 45:1 
-0 1 0 0 1:1 45:1 
-0 1 1 1 1:1 38:1 
-0 0 0 0.2640713805895368 1:1 2:1 3:1 
-0 1 1 1 1:1 38:1 
-0 0.3570709462846193 0 0 1:1 
-0 0.8461724068707367 1 1 1:1 38:1 
-0 1 0 0 1:1 
-0.4534360865955141 0.006641188286081775 1 0.3965727366696776 1:1 38:1 
-0 1 0 0 1:1 
-1 0 0 0 1:1 39:1 
-0 1 0 0 1:1 
-0 1 0 0 1:1 45:1 
-1 1 0 0 1:1 
-0.4515981022182133 0.9464611891790121 0.2310064000154082 0.452689965247568 1:1 45:1 
-0 0.4433767243878718 0.9527913282475928 0 1:1 30:1 31:1 32:1 
-1 1 0 0 1:1 
-1 1 0 0.9798607719270614 1:1 
-1 1 0 1 1:1 
-0 0 0 0.09660510415554741 1:1 2:1 3:1 38:1 
-1 1 0 1 1:1 
-1 1 0 1 1:1 
-0 0 0.1439026682722401 0 1:1 2:1 3:1 31:1 32:1 
-0.8586844350285168 0.7275805577965769 0 0.2350552780568251 1:1 2:1 16:1 17:1 18:1 39:1 
-0.2585601628214067 1 0 1 1:1 
-0 0.7863412225334538 0.1962989577315691 0 1:1 2:1 3:1 31:1 
-1 1 0.9698916964389602 0.7904985346023021 1:1 16:1 17:1 18:1 31:1 32:1 
-0 0 0.3974889330675175 0 1:1 2:1 16:1 39:1 
-0 -0.7053589753219175 0.5528988416226566 0 16:1 17:1 18:1 31:1 
-0 -0 0.05407324312708166 0 16:1 17:1 18:1 31:1 
-0 -1 1 0 31:1 32:1 33:1 
-0 -1 1 0 31:1 32:1 33:1 
-0.02115991403223624 -1 1 0.1077991036010935 16:1 17:1 18:1 31:1 32:1 
-1 -1 0 0.4712229399887942 16:1 17:1 18:1 39:1 
-0.5754211249296349 -0.5145108484831882 0.8182358904209825 0.4184975684819586 31:1 32:1 33:1 
-0 -0 1 1 16:1 38:1 
-0 -0 0 1 23:1 
-1 -0 1 1 16:1 
-0 -1 0 0 45:1 
-0 -0 0 1 23:1 
-0 -0 0 1 23:1 
-1 -1 0 0 
-1 -0 0 0 16:1 17:1 18:1 
-0 -1 1 1 38:1 
-1 -0 0 0 16:1 17:1 18:1 
-1 -1 0 0 
-0 -1 1 1 38:1 
-1 -0 0 0 16:1 17:1 18:1 
-0 -1 1 1 38:1 
-0 -0 0 1 23:1 
-0 -0 0.1142977600938867 0 31:1 
-0 -0 1 1 16:1 38:1 
-0 -0 0 1 23:1 
-0 -0 1 0 31:1 
-0 -0 1 0 31:1 
-1 -0 1 1 16:1 
-0.01540564315281517 -1 0 0 45:1 
-0 -0 0 1 23:1 
-0 -0 0 1 23:1 
-1 -1 0 0 
-0 -0 1 0 31:1 
-1 -0 0 0 16:1 17:1 18:1 
-0 -1 1 1 38:1 
-1 -0.7074924915951049 0 0 16:1 17:1 18:1 
-1 -1 0 0.08000126926070433 
-0 -1 1 1 38:1 
-1 -1 0 0 16:1 17:1 18:1 
-0 -1 1 1 38:1 
-0 -0 0 1 23:1 
-0 -0 1 0 31:1 
-0.3690917464562581 -0 1 1 16:1 38:1 
-0 -0 0 1 23:1 
-0 -0.687032900589696 1 0 31:1 
-0 -1 1 0 31:1 
-0 -0 0.9148424323124723 0 16:1 45:1 
-0 -0.6831518816381352 0.9763381267320498 0 16:1 45:1 
-1 -0 1 1 16:1 
-1 -1 0 0 45:1 
-0 -0 0 1 23:1 
-0.4970427956887247 -0.9763397694345151 0 0.7954140767846176 16:1 45:1 
-0.507673359349899 -0.3625269332160374 0 1 23:1 
-1 -1 0 1 
-0.9464138681194509 -1 1 0 31:1 
-1 -1 0 0.9247437082205894 16:1 17:1 18:1 
-0 -1 1 1 38:1 
-1 -1 0 1 16:1 17:1 18:1 
-1 -1 0 1 
-0.1677817754173663 -1 1 1 38:1 
-1 -1 0 1 16:1 17:1 18:1 
-0.9788400859677637 -1 1 1 38:1 
-0.9979724113875681 -0.8233340581155375 0.04736115424059722 1 23:1 
-0 -0 -1 0 15:1 16:1 31:1 32:1 
-0 -0.352689070875122 -1 0 15:1 16:1 31:1 32:1 
-0.5560374279978637 -0 -1 0 15:1 16:1 31:1 
-1 -0 -1 0 15:1 16:1 31:1 
-0 -1 -1 0 15:1 16:1 31:1 32:1 
-0 -1 -1 0 15:1 16:1 31:1 32:1 
-1 -0 -1 0 15:1 16:1 31:1 
-1 -0 -1 0 15:1 16:1 31:1 
-0 -0 -1 0 15:1 38:1 
-0 -0 -0 0.5929662371930728 15:1 16:1 38:1 
-0 -0 -1 0 15:1 38:1 
-0 -0 -1 0 15:1 38:1 
-0 -1 -1 0 15:1 38:1 
-0 -0 -0 1 15:1 16:1 38:1 
-0 -1 -1 0 15:1 38:1 
-0 -0 -1 1 15:1 16:1 38:1 
-0 -1 -1 0 15:1 38:1 
-0 -0 -0.4371077143776091 1 15:1 16:1 38:1 
-0 -1 -1 0 15:1 38:1 
-0 -1 -1 0.9077747458961943 15:1 38:1 
-0 -1 -1 1 15:1 38:1 
-0 -0 -0 1 15:1 16:1 38:1 
-0 -1 -1 1 15:1 38:1 
-0 -0 -0 1 15:1 16:1 38:1 
-1 -1 -1 1 15:1 38:1 
-0.5829033784724429 -0 -0 1 15:1 16:1 38:1 
-1 -1 -1 1 15:1 38:1 
-1 -1 -1 1 15:1 38:1 
-1 -1 -1 1 15:1 38:1 
-1 -0 -0.04093973417211787 1 15:1 16:1 38:1 
-0.7383230728258887 -0.8630314329610023 -1 1 15:1 38:1 
-0.7009529944322709 -1 -1 0.4668336128608658 15:1 31:1 32:1 
-1 -1 -1 0.0635238756439265 15:1 31:1 
-0 -0.8987495275437518 -1 0.05805468233112276 15:1 16:1 31:1 32:1 
-1 -0 -1 0.7817149024726953 15:1 16:1 31:1 
-1 -1 -0 -0 8:1 
-1 -0 -1 -0 8:1 16:1 
-1 -0 -1 -0 8:1 16:1 
-1 -1 -0 -0 8:1 
-1 -0 -1 -0 8:1 16:1 
-0.6978565868274862 -0.5721128319814404 -0.4856549840000059 -0.2653905991956934 8:1 30:1 
-1 -0 -1 -0 8:1 16:1 
-1 -1 -0 -0 8:1 
-1 -1 -0.7840617787954434 -0 8:1 
-1 -1 -1 -0 8:1 
-0 -0 -0 -1 8:1 16:1 38:1 
-0 -0 -1 -0 8:1 38:1 
-0 -1 -1 -0.09126928024653688 8:1 38:1 
-0 -1 -1 -1 8:1 38:1 
-0 -0 -0 -1 8:1 16:1 38:1 
-0 -0 -0 -1 8:1 16:1 38:1 
-0 -1 -1 -1 8:1 38:1 
-0 -0 -0 -1 8:1 16:1 38:1 
-0 -0 -0.1965338209737043 -0 8:1 23:1 
-0 -0 -1 -0 8:1 23:1 
-0 -0.006162101092264033 -0.0657000731156904 -0.2405283522923845 8:1 30:1 38:1 
-0 -0 -1 -0 8:1 23:1 
-0 -0 -1 -1 8:1 16:1 38:1 
-0 -0 -1 -0 8:1 23:1 
-0 -1 -1 -1 8:1 38:1 
-0 -0 -1 -0 8:1 23:1 
-0 -1 -1 -1 8:1 38:1 
-0 -0 -1 -0 8:1 23:1 
-0 -1 -1 -1 8:1 38:1 
-0 -0 -1 -0 8:1 23:1 
-1 -1 -1 -0.3330240360083877 8:1 
-0 -0.6977870930771304 -0.6233391074271055 -1 8:1 38:1 
-0 -0 -1 -0 8:1 23:1 
-0 -0 -0.2191492229201705 -1 8:1 38:1 
-0 -0 -1 -0 8:1 23:1 
-1 -0.2779387819562156 -1 -0.9160718820022661 8:1 16:1 
-0 -0 -1 -1 8:1 16:1 38:1 
-0 -0 -1 -0 8:1 23:1 
-0 -0 -0.4343884823308343 -1 8:1 16:1 38:1 
-0 -0 -1 -0 8:1 23:1 
-1 -1 -1 -0.156141467477118 8:1 16:1 17:1 18:1 
-1 -1 -1 -0 8:1 16:1 17:1 18:1 38:1 
-0 -0 -1 -0 8:1 23:1 
-1 -1 -1 -0.3599597927787051 8:1 16:1 17:1 18:1 38:1 
-0 -0.02792270274550131 -0.007691725684924882 -0.4069017107606417 8:1 23:1 38:1 
-0.710497343497605 -0.5510657301240108 -0.9811594710898783 -0.1015809356361442 8:1 23:1 
