svm_type c_svc
kernel_type rbf
gamma 0.03125
nr_class 6
total_sv 195
rho -0.0797452 -0.064462 -0.380691 -0.151285 -0.286619 -0.110101 -0.275843 -0.263591 -0.248843 -0.528846 -0.314515 -0.281732 0.0500723 -0.129765 0.0145075
label 10 2 0 -3 1 -4
probA -4.47079 -4.84139 -4.18196 -4.48639 -3.948 -3.92274 -3.86785 -4.12369 -3.76451 -5.53648 -4.87102 -4.19718 -4.45349 -3.43047 -3.85192
probB -0.15994 -0.00211827 -0.346455 -0.0504106 -0.481327 -0.173207 -0.251244 -0.0203141 -0.417996 1.46199 -0.450495 -0.089249 -0.24172 -0.0208901 -0.415769
nr_sv 48 24 37 20 43 23
SV
0.6032375765719586 1 0.360274515187118 1 0.9475912833743728 1:1 33:1 34:1 35:1 45:1 49:1 50:1 
0.4707924528786623 1 1 1 0 1:1 2:1 17:1 18:1 19:1 29:1 33:1 
0.3624736515845201 0 0 0 0 1:1 2:1 3:1 13:1 57:1 60:1 73:1 
1 1 0 0.4583614704814397 0 1:1 33:1 34:1 35:1 45:1 57:1 60:1 73:1 
0 0.2117672637216653 0 0 1 1:1 2:1 3:1 13:1 49:1 65:1 66:1 
0 1 0.7006978073021992 0 0 1:1 33:1 34:1 35:1 45:1 49:1 50:1 73:1 76:1 
1 1 0 0.0914293835091559 0 1:1 2:1 17:1 18:1 19:1 29:1 33:1 57:1 60:1 73:1 
1 0 0.1402998086246451 0.2231778939784007 0 1:1 17:1 47:1 57:1 60:1 73:1 
0 1 1 0.2188394549146692 0.9488107623106318 1:1 17:1 47:1 49:1 50:1 73:1 76:1 
1 0 0.554987291684202 0 0 1:1 2:1 31:1 33:1 57:1 60:1 73:1 
1 0.07077083459309967 0 0.4425585149164893 0 1:1 33:1 34:1 35:1 45:1 57:1 73:1 76:1 
0 0.823258100560215 0.4238835085207473 0 0.7674760241339436 1:1 2:1 3:1 13:1 49:1 65:1 66:1 
1 1 1 0.07244562310341049 0 1:1 33:1 34:1 35:1 45:1 49:1 50:1 73:1 
1 0.8609558470939943 0.348811019560287 0.1303732081408493 0 1:1 2:1 17:1 18:1 19:1 29:1 33:1 57:1 73:1 76:1 
0.01174812487854723 0.9312359851256494 0 0.0034381005045265 0.2947796040368277 1:1 63:1 65:1 
1 0 0.4626641793929197 0 0 1:1 17:1 47:1 57:1 73:1 76:1 
1 0 0 0 0 1:1 2:1 33:1 34:1 35:1 45:1 57:1 73:1 
0 0 1 1 0 1:1 56:1 
0.4114618888087141 1 0 0.6545622109534106 1 1:1 72:1 
0 0 1 1 0 1:1 56:1 
0 1 0 0 0 1:1 63:1 72:1 
0 1 0 0 0 1:1 63:1 72:1 
0 1 0 0 0 1:1 79:1 
0 1 0 0 0 1:1 79:1 
0 0 1 1 0 1:1 56:1 
0 1 1 1 0 1:1 56:1 72:1 
0 1 1 1 0 1:1 56:1 72:1 
0 1 1 1 0 1:1 56:1 72:1 
0 1 0 0 0 1:1 63:1 72:1 
0 1 0 0 0 1:1 79:1 
0 1 0 0 0.3780786601671566 1:1 63:1 72:1 
0 1 1 1 0.4649471962076784 1:1 56:1 72:1 
0 1 0 0 1 1:1 63:1 72:1 
0.02959498766731626 1 0 0.03763545142897543 1 1:1 63:1 72:1 
0 1 0 0 0 1:1 79:1 
0.4705758402796654 0.2391376409101617 0 0.4360548511873363 0.3737130462101066 1:1 79:1 
0 0 1 0.6677247387023516 0 1:1 56:1 
0.0309248882461202 1 1 1 0.8143054850433648 1:1 56:1 72:1 
0.4652300228932009 0 0.449433054910762 0.4316657564438971 0 1:1 63:1 65:1 66:1 
0 0 0 0.6155462414714395 0 1:1 2:1 17:1 47:1 57:1 
0 0.5164143968275871 0 0 0 1:1 
0.2487973086738696 1 0 0 0.2327928502764955 1:1 
1 1 0 0 1 1:1 
1 1 0 0.6267587777604555 1 1:1 
1 1 0 1 1 1:1 
0 0 0 0.1067044317243861 0.5350528037923216 1:1 32:1 48:1 56:1 
0.01038390450622096 0 0.1660446339221602 0 0 1:1 48:1 56:1 
0.4676954284126458 0.3428839246118972 0.3181813804971509 1 0.985147299706235 1:1 32:1 48:1 56:1 
-1 1 0 0 0 9:1 12:1 33:1 34:1 35:1 45:1 57:1 73:1 
-0.741117734756468 0.1801386879114462 0.1378243185391164 0.4278183135022053 0 9:1 12:1 17:1 18:1 19:1 29:1 33:1 57:1 73:1 
-0.1728502705956357 0.5560258080145267 1 0.7041963431071243 0.5611773520681302 9:1 12:1 31:1 33:1 57:1 73:1 
-0.8838249564619209 0 0.2452002635872213 0 0 9:1 17:1 41:1 44:1 57:1 73:1 76:1 
-0 0.05569923288943791 0.7056781593811292 0.2040160007740358 0 9:1 12:1 17:1 33:1 34:1 57:1 73:1 
-1 0.2332300750005873 0.0825393917561608 0.3774474540646089 0 9:1 17:1 18:1 19:1 29:1 33:1 57:1 60:1 73:1 
-0.9673681648635218 0.02384650306763565 0.3588859867528785 0.06667316951766301 0 9:1 17:1 33:1 34:1 57:1 60:1 73:1 
-1 1 0 0 0 9:1 33:1 34:1 35:1 45:1 57:1 60:1 73:1 
-0 0.1390852638625977 0 0 0 9:1 12:1 25:1 41:1 44:1 
-1 0.5127750921799901 0.4559797945240771 0.527585696160829 0 9:1 31:1 33:1 57:1 60:1 73:1 
-0 0.9606583955215892 0 0.01765383381276811 0.1750582728433708 9:1 12:1 25:1 41:1 44:1 
-1 1 1 0.3995175212037956 1 9:1 57:1 60:1 73:1 76:1 
-0.1780391378645786 1 0.637814677670128 1 0.6283887171736838 9:1 25:1 28:1 41:1 44:1 
-1 1 1 1 1 9:1 17:1 18:1 19:1 29:1 57:1 73:1 
-0.8371579119205186 1 0.1040570289716874 0.9483737059026267 1 9:1 41:1 57:1 
-0.6010167474601096 1 1 1 1 9:1 25:1 41:1 
-1 1 0 1 0 9:1 33:1 34:1 35:1 45:1 57:1 73:1 
-0 0.5469692723758032 0 0 0 9:1 17:1 18:1 19:1 29:1 41:1 57:1 
-1 1 1 1 1 9:1 25:1 41:1 
-0.2192205888057878 1 0 0 0 9:1 17:1 18:1 19:1 29:1 33:1 34:1 57:1 73:1 
-0 0.9213895904999856 0.02821963324570214 0.4828424565689373 0.07033714085753157 9:1 17:1 18:1 41:1 57:1 
-0.9823205626729004 1 1 1 1 9:1 25:1 41:1 
-1 1 1 1 1 9:1 31:1 33:1 34:1 
-1 1 1 1 1 9:1 33:1 34:1 35:1 45:1 
-0.1114130102494048 -0 0 0 1 49:1 50:1 51:1 61:1 65:1 
-1 -1 1 0 0 49:1 50:1 51:1 61:1 73:1 
-1 -1 1 1 0 33:1 34:1 35:1 45:1 57:1 73:1 
-1 -0.8895159343309145 0.9584378784659563 0.7541482436847449 0.9050536095060692 49:1 50:1 51:1 61:1 73:1 
-1 -1 1 1 0.3737761122322992 33:1 56:1 
-0.1934360622849866 -1 1 1 0 17:1 40:1 
-1 -0 0 0 1 49:1 79:1 
-1 -0 1 1 1 49:1 
-0.1142634011855498 -0 0 0 0 33:1 63:1 72:1 
-1 -0 0.5568587278465458 0 0 33:1 63:1 72:1 
-1 -1 1 1 0 33:1 79:1 
-1 -0 0 0.7892963604289737 1 17:1 63:1 72:1 
-1 -1 0.2617071110370618 1 1 65:1 
-1 -0 0 0 1 49:1 72:1 
-0 -0.4402974217784457 0 0 0 33:1 34:1 35:1 45:1 72:1 
-1 -1 1 1 0 17:1 18:1 19:1 29:1 56:1 
-1 -0.8999540108339922 0 1 1 40:1 
-1 -0 1 0 1 49:1 72:1 
-0.03134535405471871 -0 0 1 0 24:1 40:1 
-1 -0.7424299678347632 1 1 1 49:1 
-1 -0 1 0.6184299305776682 0 33:1 63:1 72:1 
-1 -0 0 1 0.4807542532722472 24:1 40:1 
-1 -1 1 1 1 65:1 
-0.1684515606052075 -0 0.745226293875382 0.2534954132472314 1 49:1 72:1 
-1 -1 0 1 0.5508663587441699 33:1 34:1 35:1 45:1 72:1 
-1 -0 1 1 0 17:1 18:1 19:1 29:1 56:1 72:1 
-1 -1 0.4849679881830939 1 0 33:1 34:1 35:1 45:1 
-0.5512439143188763 -1 0 0.4703819033405738 1 17:1 18:1 19:1 29:1 72:1 
-1 -0 1 1 1 56:1 72:1 
-1 -0 0 0.8616646239566149 1 49:1 79:1 
-1 -0 1 1 0.2284009612664402 33:1 63:1 72:1 
-1 -1 1 1 0 33:1 79:1 
-1 -0 0 1 0.7668658452509434 17:1 63:1 72:1 
-1 -0 0.9928020005919601 0.6668959076490526 1 33:1 63:1 72:1 
-1 -0.5582412791480491 0 1 0.994907359011996 24:1 40:1 
-0.8262706907455258 -1 0 0.5355094611874927 0.6699067058329207 33:1 34:1 35:1 45:1 72:1 
-1 -0.5993793073974352 1 1 0 17:1 18:1 19:1 29:1 56:1 72:1 
-1 -0.6634354946954106 -1 0.02042800098417459 0 15:1 33:1 49:1 50:1 73:1 76:1 
-1 -1 -1 0.521245630576803 1 15:1 33:1 49:1 73:1 76:1 
-1 -1 -1 1 1 15:1 33:1 49:1 65:1 66:1 
-1 -0.5090323431302746 -1 0 1 15:1 33:1 49:1 50:1 73:1 
-0.06351275661810669 -1 -1 0.5491852518701389 1 15:1 33:1 49:1 73:1 
-0.3923664179519052 -0.7293486217075223 -1 1 0 15:1 33:1 56:1 
-1 -1 -1 1 0 15:1 17:1 56:1 
-1 -0 -1 1 0 15:1 33:1 56:1 
-1 -1 -1 1 0 15:1 17:1 56:1 
-1 -1 -1 1 0.3451862655510725 15:1 17:1 56:1 
-1 -1 -1 1 1 15:1 56:1 
-0 -0 -1 1 0 15:1 33:1 56:1 72:1 
-1 -0 -1 0.7387364728693869 1 15:1 17:1 56:1 72:1 
-0 -0 -1 1 0 15:1 33:1 56:1 72:1 
-1 -0 -1 1 0 15:1 33:1 56:1 72:1 
-0.4693980250321796 -0 -1 1 0.4998839164793988 15:1 33:1 56:1 72:1 
-1 -0 -1 1 1 15:1 17:1 56:1 72:1 
-1 -1 -1 1 1 15:1 56:1 72:1 
-1 -0 -1 0.7985383272764189 1 15:1 17:1 56:1 72:1 
-1 -0.8543827948948932 -1 0.5291288615817071 0.8202612545414116 15:1 33:1 49:1 50:1 73:1 
-0 -0.3789298870239661 -1 -0 0 8:1 33:1 
-1 -1 -1 -1 1 8:1 17:1 
-0 -1 -1 -0 0 8:1 33:1 
-0.223162588449432 -0.4191918855214524 -0.2675830870537105 -0 0 8:1 17:1 47:1 
-0 -0 -0 -0 0.296407444825612 8:1 47:1 
-0 -0 -0.8618949090775316 -0 1 8:1 47:1 
-0.6425609040867982 -0.9466414797285404 -0 -0 0.9927641736797245 8:1 47:1 
-0.9460450640987123 -1 -1 -1 0 8:1 33:1 
-1 -1 -1 -0 1 8:1 
-1 -0 -0 -0 0 8:1 56:1 
-0 -0 -0 -1 0 8:1 33:1 56:1 
-0 -0 -0 -1 0 8:1 33:1 56:1 
-0 -0 -0 -1 0 8:1 33:1 56:1 
-0 -0.3179609265648179 -0 -0 0 8:1 31:1 40:1 
-0.323740228412273 -1 -0.667917772243907 -0 0.5164862162936004 8:1 31:1 40:1 
-0 -0 -0 -1 0 8:1 33:1 56:1 
-0 -0 -0.2566993878546937 -0 0 8:1 17:1 40:1 
-1 -0 -0 -0.960675754436621 0 8:1 56:1 
-0 -0 -0 -0 0.0214403472924039 8:1 40:1 
-1 -0 -0.01138518618783198 -0 0 8:1 56:1 
-0 -0 -0.9184017669508473 -0 1 8:1 40:1 
-1 -0 -1 -1 1 8:1 56:1 72:1 
-0 -0 -1 -1 0 8:1 17:1 47:1 56:1 72:1 
-0.01256442294108302 -0 -1 -1 0 8:1 17:1 47:1 56:1 72:1 
-0.8048995002783215 -0 -0 -0 0 8:1 47:1 56:1 72:1 
-0.9525062603029657 -0 -0.3344837489876634 -0.04788435663406454 0 8:1 47:1 56:1 72:1 
-0 -0 -0.576700004999825 -0 0 8:1 24:1 40:1 
-1 -0 -1 -1 1 8:1 56:1 72:1 
-0 -0 -1 -0 0 8:1 24:1 40:1 
-1 -0 -1 -1 1 8:1 56:1 72:1 
-0 -0 -1 -0 0 8:1 24:1 40:1 
-0 -1 -1 -0.3248796895179037 0.003308380460565467 8:1 33:1 
-0 -0 -0 -1 0 8:1 33:1 56:1 
-0 -0 -1 -0.6203904252045265 0 8:1 17:1 40:1 
-1 -1 -1 -0 0 8:1 33:1 34:1 35:1 45:1 56:1 
-1 -1 -1 -0 0.2981683831293962 8:1 17:1 18:1 19:1 29:1 40:1 
-1 -1 -1 -1 0.3881849767010879 8:1 33:1 34:1 35:1 45:1 56:1 72:1 
-0.4600599937567706 -0.4513465453538832 -1 -0.7246388029041828 0 8:1 17:1 18:1 19:1 29:1 40:1 56:1 
-0.3237402284122724 -0 -0.9911619348051514 -0 0.5200021081381713 8:1 24:1 40:1 
-0 -0 -0.07181491626658594 -0 0 8:1 32:1 33:1 
-0 -0 -1 -0 0.01321594024897125 8:1 32:1 33:1 
-0.5279969184825641 -0 -1 -0 1 8:1 32:1 33:1 
-1 -0.6420537704219345 -0.991779129644604 -0.4787935164613311 1 8:1 32:1 33:1 
-1 -0.4410977730038813 -1 -1 -1 16:1 49:1 72:1 
-0 -0 -0.9650969229267702 -0 -0 16:1 64:1 65:1 
-0 -0 -1 -0 -0 16:1 48:1 49:1 72:1 
-0 -0 -0.1286201992250728 -0 -0.1229413045279012 16:1 64:1 80:1 
-1 -1 -1 -1 -1 16:1 49:1 72:1 
-0.5037506604357868 -0 -1 -0 -0 16:1 64:1 65:1 
-0 -0 -1 -0 -0 16:1 48:1 49:1 72:1 
-0.3710905990729987 -0.7936257473623892 -1 -0 -1 16:1 64:1 80:1 
-1 -0 -1 -0 -0.1975781869462729 16:1 64:1 65:1 
-0 -0 -1 -0 -0 16:1 48:1 49:1 72:1 
-1 -1 -1 -1 -1 16:1 64:1 80:1 
-0.9989424988285167 -0 -0.0230096036715637 -0 -1 16:1 32:1 48:1 49:1 72:1 
-1 -1 -1 -0.5999624374244072 -1 16:1 64:1 65:1 
-0 -0 -1 -0 -0 16:1 48:1 49:1 72:1 
-1 -1 -1 -1 -1 16:1 49:1 72:1 
-1 -1 -1 -1 -1 16:1 64:1 65:1 
-0.3999081336312238 -0 -1 -1 -0 16:1 48:1 49:1 72:1 
-1 -0.9021563137853207 -0.994907359011996 -0.7741047102783677 -1 16:1 64:1 80:1 
-0 -0.1096657451041252 -0 -0 -0 16:1 48:1 64:1 65:1 
-0.9542972677906297 -0.5954207907200546 -1 -0.5744151789288001 -0.804095361713731 16:1 32:1 48:1 49:1 72:1 
-1 -1 -1 -1 -1 16:1 49:1 72:1 
-0.5147058554999789 -0.5929951129669452 -0.858897120281683 -1 -0.9253631175816281 16:1 64:1 65:1 
-1 -0 -1 -0.7168491099403078 -0 16:1 48:1 49:1 72:1 
