svm_type c_svc
kernel_type rbf
gamma 0.125
nr_class 4
total_sv 113
rho 0.271696 -0.156292 -0.345629 -0.982673 -0.667019 -0.368926
label 10 1 0 8
probA -4.11395 -3.63241 -3.29989 -4.36258 -3.89971 -3.34148
probB 0.433367 -0.0497213 -0.296671 -0.247084 -0.532712 -0.263218
nr_sv 20 60 23 10
SV
0.5699355054618233 1.56906968139994 0.5560055463364465 25:1 89:1 104:0 111:1 130:1 135:1 138:1 
0.2014505535437162 0.1931994574634613 0.1117168244327177 25:1 103:1 104:0 115:1 130:0 135:1 138:1 
0.3619615872352733 0.1401548220839204 0.2006012072256612 25:1 103:1 104:0 129:1 130:0 135:1 138:1 
0.2824897267818009 0.1986303820393724 0.1574989494220173 25:1 26:0 77:1 103:1 104:0 115:1 130:1 135:1 148:1 
0.3812399825194245 0.161131111422135 0.09424458515104091 25:1 26:0 51:1 77:1 78:0 89:1 104:1 111:1 130:1 135:1 148:1 
0.5750195080381043 1.56993823519076 0.5613513021372399 25:1 89:1 104:0 111:1 130:1 136:1 138:1 
0.1903184620859587 0.1929122077674268 0.1096777454060927 25:1 103:1 104:0 115:1 130:0 136:1 138:1 
0.3685207666906061 0.1402997419683714 0.1985334340035249 25:1 103:1 104:0 129:1 130:0 136:1 138:1 
0.2901830236629921 0.1975738741791136 0.1609359012736894 25:1 26:0 77:1 103:1 104:0 115:1 130:1 136:1 148:1 
0.3714512606514017 0.1607044702619202 0.09082578601161871 25:1 26:0 51:1 77:1 78:0 89:1 104:1 111:1 130:1 136:1 148:1 
0.5716265958930254 1.572038630766286 0.5561668494734864 25:1 89:1 104:0 111:1 130:1 134:1 138:1 
0.1884354265527668 0.1966634710841945 0.1045391623477356 25:1 103:1 104:0 115:1 130:0 134:1 138:1 
0.3711090380111822 0.1322211925949723 0.2073745487424589 25:1 103:1 104:0 129:1 130:0 134:1 138:1 
0.2879341479548125 0.1996906309419719 0.1582782655972463 25:1 26:0 77:1 103:1 104:0 115:1 130:1 134:1 148:1 
0.374637033144785 0.1604379153684041 0.09437053039995145 25:1 26:0 51:1 77:1 78:0 89:1 104:1 111:1 130:1 134:1 148:1 
0.5646872915954296 1.565282331162164 0.5612530690130406 25:1 89:1 104:0 111:1 130:1 131:1 138:1 
0.1960569891178368 0.2062851342553923 0.09829916627451615 25:1 103:1 104:0 115:1 130:0 131:1 138:1 
0.3690760350680145 0.130286154393077 0.2070679508092482 25:1 103:1 104:0 129:1 130:0 131:1 138:1 
0.2830809811985994 0.192768240999223 0.1650190673984681 25:1 26:0 77:1 103:1 104:0 115:1 130:1 131:1 148:1 
0.3823436236303221 0.1667635158761653 0.08873850209683208 25:1 26:0 51:1 77:1 78:0 89:1 104:1 111:1 130:1 131:1 148:1 
-0.1437470609931284 0.03299306660590885 0.007422366968236338 11:1 26:0 77:1 85:1 104:1 135:1 148:1 
-0.2357635562279067 0 0.04411790370782811 11:1 26:0 51:1 77:1 78:0 85:1 104:1 135:1 148:1 
-0.1181830954800138 0 0 7:1 26:1 51:1 52:0 63:1 78:0 135:1 139:1 
-0.00798454384933946 0.06849846206059852 0 11:1 26:1 51:1 52:0 77:1 78:0 85:1 104:1 135:1 148:1 
-0.06954627193480929 0 0.03835070523691098 7:1 26:1 51:1 52:0 63:1 78:1 135:1 139:1 
-0 2.447284309290739 0.3238614252285933 7:1 85:1 104:0 130:1 138:1 
-0 0.7674199441769539 0 7:1 26:0 59:1 130:1 139:1 
-0.3519777151707633 0 0 7:1 79:1 104:0 130:1 138:1 
-0.4246463998063892 1.726924515592084 0.6508650209359048 1:1 26:0 59:1 130:1 139:1 
-0 0 1.039405505839673 7:1 26:0 63:1 130:1 139:1 
-0 2.863062015541214 0.6353455737807341 11:1 85:1 104:0 105:1 130:1 138:1 
-0 0.9108832161102208 0.05411979616378364 7:1 26:0 63:1 79:1 104:1 130:1 139:1 
-0.05903067725665608 4.255881846343183 0.2293315459382915 1:1 26:1 37:1 59:1 78:0 130:1 139:1 
-1.299455228760392 3.190611560231531 1.468391425301251 11:1 104:0 111:1 130:1 138:1 
-0 0.7184945564966134 0 7:1 26:1 37:1 78:0 130:1 138:1 
-0 0 0.397944960177435 11:1 85:1 104:0 130:1 138:1 
-0 0.2973686135126786 0 7:1 26:0 63:1 104:1 130:1 139:1 
-0.0385007601416822 0.5510219978283351 0 7:1 26:0 79:1 104:1 130:1 138:1 
-0 1.942842463089833 0 1:1 26:1 59:1 78:0 130:1 139:1 
-0.5265009781450044 0 0 7:1 26:0 130:1 138:1 
-0 2.688645597127512 0 11:1 26:0 78:0 85:1 104:1 130:1 138:1 
-0 1.366328923783389 0 7:1 26:1 52:0 63:1 78:0 130:1 139:1 
-0 0.03488083900134127 0.03782469699398269 7:1 26:1 37:1 52:0 78:1 130:1 138:1 
-0.05924240657911499 0 1.704066967061795 7:1 102:1 104:0 105:1 130:1 138:1 
-0.1553604340397975 0 0.228106402573943 1:1 26:1 33:1 52:0 76:1 78:0 130:1 138:1 
-0.1486491366624821 0 0 7:1 26:0 48:1 78:0 102:1 104:1 105:1 130:1 138:1 
-0.1046601537896735 3.601751551007745 0.3692997427702406 7:1 26:0 74:1 85:1 104:0 128:1 130:1 146:1 
-0.04594172702241554 0 0 7:1 26:0 48:1 59:1 78:0 102:1 104:1 105:1 130:1 139:1 
-0.3748900106186097 0.3422254113699462 0 11:1 100:1 104:0 111:1 130:1 138:1 
-0.3448330472454711 0.2100164637808124 0.1526243399215481 7:1 26:0 37:1 74:1 78:0 102:1 104:0 105:1 130:1 146:1 
-0 0.6404910537083688 0 1:1 26:1 33:1 52:0 76:1 78:0 85:1 104:1 130:1 138:1 
-0.09072480505358402 0 0 7:1 26:1 50:1 52:0 53:1 78:1 130:1 139:1 
-0.01620279127825016 0.8064362220619995 0.4878125797857517 11:1 100:1 104:0 128:1 130:1 138:1 
-0.4781714750086727 1.527090287966155 0.6173655855175574 1:1 26:0 48:1 52:0 76:1 78:0 85:1 104:1 111:1 130:1 138:1 
-0 0.4066745333750245 0.02075048524338163 7:1 26:1 50:1 52:0 53:1 78:0 85:1 104:1 130:1 139:1 
-0 0.6182706672107513 0 7:1 26:1 27:1 52:0 59:1 78:1 130:1 139:1 
-0.01562223537884461 0.3953465515301089 0 7:1 26:0 52:0 74:1 78:0 85:1 104:1 128:1 130:1 146:1 
-0 0.6276384673344632 0 7:1 26:1 48:1 52:0 59:1 78:0 102:1 104:1 105:1 130:1 139:1 
-0.3499903548124281 0.002661746451946722 0.1567598305423046 1:1 26:1 33:1 52:1 76:1 78:1 130:1 138:1 
-0 0.001953745409278614 0.001195153697682988 11:1 26:0 77:1 85:1 104:1 136:1 148:1 
-0.02188356514430544 0 0 11:1 26:0 51:1 77:1 78:0 85:1 104:1 136:1 148:1 
-0.00817229070847552 0 0 11:1 26:1 51:1 52:0 77:1 78:0 85:1 104:1 136:1 148:1 
-0.02358312480934379 0 0.00231895039347742 7:1 26:1 51:1 52:0 63:1 78:1 136:1 139:1 
-0.1576983288404621 0.02314349996716266 0 11:1 26:0 77:1 85:1 104:1 136:1 148:1 
-0.1916509786836186 0 0.05069726065524691 11:1 26:0 51:1 77:1 78:0 85:1 104:1 136:1 148:1 
-0.1203137293199465 0 0 7:1 26:1 51:1 52:0 63:1 78:0 136:1 139:1 
-0.006421231569512164 0.07570254303077341 0 11:1 26:1 51:1 52:0 77:1 78:0 85:1 104:1 136:1 148:1 
-0.0446448623389701 0 0.03572122345450028 7:1 26:1 51:1 52:0 63:1 78:1 136:1 139:1 
-0.1537006253505812 0.02721245127974737 0.02011028900593017 11:1 26:0 77:1 85:1 104:1 134:1 148:1 
-0.005415035712755589 0 0 7:1 26:1 51:1 63:1 78:0 134:1 139:1 
-0.2132780657877906 0 0.03076117505537227 11:1 26:0 51:1 77:1 78:0 85:1 104:1 134:1 148:1 
-0.09620267283367073 0 0.00981161689019007 7:1 26:1 51:1 52:0 63:1 78:0 134:1 139:1 
-0.0204580424318598 0.07443064920028658 0 11:1 26:1 51:1 52:0 77:1 78:0 85:1 104:1 134:1 148:1 
-0.08480136591693471 0 0.02839793742670756 7:1 26:1 51:1 52:0 63:1 78:1 134:1 139:1 
-0.1411273450934294 0.02643699844725285 0.007088570072414758 11:1 26:0 77:1 85:1 104:1 131:1 148:1 
-0.05634310665778425 0 0 7:1 26:1 51:1 63:1 78:0 131:1 139:1 
-0.2392311953140045 0 0.04275955768831965 11:1 26:0 51:1 77:1 78:0 85:1 104:1 131:1 148:1 
-0.0443008897456452 0 0 7:1 26:1 51:1 52:0 63:1 78:0 131:1 139:1 
-0.007683763991052569 0.07431829786223952 0 11:1 26:1 51:1 52:0 77:1 78:0 85:1 104:1 131:1 148:1 
-0.08502245333230363 0 0.0390271894674627 7:1 26:1 51:1 52:0 63:1 78:1 131:1 139:1 
-0 -0.08952144834644399 0 89:1 104:0 111:1 130:1 138:1 
-0 -0.2948478101025466 1.124077092386616 26:0 63:1 85:1 104:1 130:1 139:1 
-0.1548420417784469 -5.052119878627882 0.497068811216838 26:1 37:1 59:1 78:0 130:1 139:1 
-0.1443655473289766 -3.5927302479951 1.174517568444713 85:1 104:0 105:1 130:1 138:1 
-0 -0.01177857346691734 0 104:0 111:1 130:1 138:1 
-0 -3.226369364784913 0 26:1 59:1 78:0 130:1 139:1 
-0 -0 0.4841381316093619 85:1 104:0 130:1 138:1 
-0 -3.046086312679774 4.108928019886899 104:0 111:1 130:1 138:1 
-0 -4.339298278095603 0 26:0 85:1 104:1 130:1 138:1 
-0.01156307151317705 -0.007123860815487591 0 104:0 115:1 130:1 138:1 
-5.314987702287575 -0.2995823587640845 0 26:0 89:1 104:0 111:1 130:1 138:1 
-0.9854552714373139 -1.087630151180999 0.4025319318451787 104:0 115:1 130:1 138:1 
-0.009267726656858632 -0.7520869821627665 0.4012645087736283 26:0 89:1 104:0 130:1 138:1 
-0.2832066495394158 -1.415123913763555 0 26:1 52:0 63:1 78:0 85:1 104:1 130:1 139:1 
-0 -0.659315388649053 0 24:1 26:0 48:1 59:1 78:0 79:1 104:1 130:1 139:1 
-0.346104589690398 -4.041975124733545 0.6062797507306177 26:0 74:1 85:1 104:0 128:1 130:1 146:1 
-0 -0.1038181638860846 0 26:0 74:1 104:0 111:1 130:1 146:1 
-0.2451152262558442 -1.402208268779865 1.135205265495954 26:0 48:1 78:0 85:1 104:0 128:1 130:1 138:1 
-0 -0.005034883786426391 0 24:1 26:0 48:1 59:1 78:0 79:1 104:1 111:1 130:1 139:1 
-0.2909842004808303 -0.4503939877620714 0 24:1 26:0 48:1 52:0 59:1 78:0 79:1 104:1 111:1 130:1 139:1 
-0.4328286648112581 -0.7850460271414982 0.251848812325948 24:1 26:0 37:1 74:1 78:0 79:1 104:0 111:1 130:1 146:1 
-0.3164733343799927 -1.583753708052629 0.7798476755259119 26:0 63:1 100:1 104:0 111:1 130:1 139:1 
-0.510857175058186 -1.099098334208948 0.2096484001461619 24:1 26:1 33:1 52:0 59:1 78:1 79:1 104:1 130:1 139:1 
-0 -0.002921927474147148 -0.1049507797823576 22:1 85:1 104:0 128:1 130:1 138:1 
-1.764610508487969 -1.277294913508984 -3.408887365261192 22:1 104:0 111:1 130:1 138:1 
-0.522678939725133 -1.522294182464495 -1.629051320186462 22:1 104:0 130:1 138:1 
-0.05095057218370277 -0 -0.04781436518343262 22:1 102:1 104:0 105:1 130:1 138:1 
-0.1638468299246453 -0.5414029766903923 -0.9968577040950868 22:1 85:1 104:0 128:1 130:1 138:1 
-0 -0.2672003333480742 -0.743891460167033 22:1 85:1 104:0 111:1 130:1 138:1 
-0.320488618783522 -1.680894810925463 -0.4092930344902381 22:1 102:1 104:0 105:1 130:1 138:1 
-0.5560846156280523 -1.334113743469981 -1.682630785129936 22:1 26:0 63:1 85:1 104:0 128:1 130:1 139:1 
-0.558920872999715 -1.269583531592886 -1.113257355866832 22:1 26:0 63:1 102:1 104:0 105:1 130:1 139:1 
-0.5449174358202942 -1.035949364022029 -1.038721798225258 22:1 26:0 37:1 78:0 85:1 104:0 111:1 130:1 138:1 
