svm_type c_svc
kernel_type rbf
gamma 0.125
nr_class 7
total_sv 162
rho 0.270201 0.132059 -0.109637 -0.400187 -0.28195 -0.819406 0.331536 -0.0993474 -0.259211 -0.249781 -0.733752 0.0261834 -0.159501 -0.178785 -0.647254 0.308395 -0.0104272 -0.434173 0.0747281 -0.541855 -0.524589
label 1 2 3 4 5 6 7
probA -3.79406 -3.91211 -3.60297 -2.774 -3.445 -2.97775 -3.96258 -3.88756 -3.50614 -3.69496 -3.24165 -3.57563 -3.47349 -3.48668 -3.10792 -1.93169 -3.22216 -2.23955 -2.99815 -2.23789 -2.80372
probB 0.294467 -0.0716181 -0.18746 -0.276973 -0.220454 -0.829763 -0.0940676 -0.124456 -0.275434 -0.287132 -0.623117 -0.48717 -0.0376218 -0.15696 -0.695875 -0.442687 -0.16911 -0.4289 0.16583 -0.35181 -0.374902
nr_sv 40 40 34 21 8 12 7
SV
5.916086068218944 0 0.02897101095873668 0 0 0 1:2 2:2 3:1 18:1 
0 0.6355491739562974 0 0 0 0 1:2 2:1 3:1 18:1 
0 0 0.2569213908320466 0 0.07893435285853206 0.005409877312454541 1:3 2:2 3:1 18:1 
0 0 4.320648501566955 8.293885878077099 2.97691277571099 7.429091269636513 1:1 18:1 
0.5163174931313613 0.1133784356869635 0.06728575114799706 0 0.7278205989069214 0 9:5 12:3 18:1 
1.196541895722372 0 0 0 0 0 1:1 2:1 3:1 9:5 12:3 18:1 
0.2750109963288517 0.6485092504999216 0.1417921676257823 0.1820046437928681 0.069895273334971 0.03407581442422235 1:3 2:2 3:1 9:5 12:3 18:1 
4.14959509070786 0 0 0 0 0 1:2 2:1 9:5 12:3 15:1 18:1 
0 0.08465939937474808 0 0 0.1893633077304043 0.002313777710524963 1:2 9:5 12:3 15:1 18:1 
0 0.1191330517700887 0.1573956399013827 0.01640677469410847 0.1698435953416289 0.02954665545053711 1:3 2:1 9:5 12:3 15:1 18:1 
0.5824867575143013 0.6688572110762103 0.5637853416813364 0.4080134400984319 0 0.1206469138723277 9:6 12:3 18:1 
0.6578708283402815 0.4430969626553204 0.3908648336903612 0.2037777367142698 0.3641343311581938 0.07457535900986574 1:3 2:2 3:1 9:6 12:3 18:1 
0.2297292285743612 0 0 0 0 0 1:2 2:1 9:6 12:3 15:1 18:1 
0 0.08824933078386332 0.06635538290093684 0.03852212181673898 0 0.01142075583919603 1:2 9:6 12:3 15:1 18:1 
0 0.1974815283078226 0.1516875243534278 0.1798236046697875 0 0.03357345600532941 1:3 2:1 9:6 12:3 15:1 18:1 
0.02194454496588377 0.5247422645461524 0.4805132490660362 0.3942082856428025 0.8886154082811156 0.1752545772420893 9:3 18:1 
0 0.09373441270224149 0 0 0 0 1:1 2:1 3:1 9:3 18:1 
0.2803188469659756 0 0.2608202639144494 0 0.1906499446350155 0.0459854907334479 1:2 2:2 3:1 9:3 18:1 
0.911085415140471 2.40437059288652 4.776883318247608 8.297522906648037 3.15513300277733 0.2871982722986486 8:1 18:1 
0 0 0 0 0 0.8615177254716169 1:1 8:1 15:1 18:1 
6.029218308446324 5.08558171539606 0 0 0 0 1:1 2:1 3:1 8:1 18:1 
1.036575641674859 2.71231500233545 0 0 0 0 8:3 18:1 
4.78121050287877 5.419044611070103 0 0 0 0 1:1 2:1 3:1 8:3 18:1 
3.941064113529863 0 0 0 0 0 8:1 17:1 
9.013027693683355 1.955032917353141 0 0 0 0 8:3 17:1 
1.445750049560326 0.003531676961454362 1.067977225050934 2.574510118134767 0.2643277712768011 0 9:1 17:1 
2.865424962329879 0 0 0 0 0.01102350882604668 1:1 2:1 9:1 15:1 17:1 
0 0 0 0 0 0.01915170081235774 1:3 2:1 9:1 15:1 17:1 
2.453361678027425 0.01157800773912622 0 0 0 0 1:1 2:1 3:1 8:1 17:1 
0 0.5726726243178111 0 0 0 0 1:1 2:1 3:1 8:3 17:1 
0 1.456039083584663 0 0 0 0 1:1 2:1 3:1 9:1 17:1 
0 0 0.1262998600977998 0 0.1074941003242964 0 1:3 2:2 3:1 9:1 17:1 
1.780425351560863 0.06125077449583926 0 0 0 0 1:1 8:1 16:1 17:2 
6.15498764591015 1.989594201677718 0.5684149064320581 1.393874656257483 0 0 5:1 16:1 17:2 
1.341986044491544 0.9287972799992619 0.5797536924019616 0.2858805674476328 2.084686980699967 0 6:2 16:1 17:2 
1.042057344351875 0.4848247098839137 1.313908141243822 0.8238560079193046 0.02238011836858901 1.400893772867426 4:1 5:1 7:2 16:1 17:2 
0 0.6089125385400981 0.01471805704821416 0 0 0 1:1 8:1 16:3 17:2 
0 0 0.03485025507356524 0.4763363560648982 0 0 5:1 16:3 17:2 
0 0.3410110011166291 0.2922512648458942 0.4895899821740454 0 0 6:2 16:3 17:2 
0 0.4172670088561211 0.06880050273768624 0.6555900001669012 0.3938220408820908 0 4:1 5:1 7:2 16:3 17:2 
-1.293936839180278 1.204621026000353 6.307158957690281 7.904927650722235 3.58624208212207 3.338390505569815 2:1 18:1 
-0.8786966294152003 0 0 0 0 0 2:1 8:1 18:1 
-7.409539480471635 0.7968893205428257 0.4202365362175696 0.3695167993184461 0.2379454189520842 0.1361835400487056 2:1 8:3 18:1 
-0 0 0 0.07279385297006313 0 0 2:1 13:1 18:1 
-3.949485783351236 0.8918579136562507 0.4830426360488507 0.276423027027822 0.2109818566675793 0.522453967650785 1:1 2:1 13:1 18:1 
-0 4.934022233589082 0 0 0 0 2:2 3:2 8:1 13:1 15:1 18:1 
-0 0.5279421594370119 0 0 0.7318719860264964 0 2:2 3:1 6:1 8:1 9:1 12:2 13:1 15:2 18:1 
-0 0 0 0 0.1683271821296885 0 2:2 6:1 13:1 15:1 18:1 
-0 0 0 0 0 0.2866154752394329 2:2 7:1 8:1 13:1 15:1 18:1 
-0 0.431594245844682 0.4683256443482121 0.3461754080312424 0.1756505827305904 0.08860857916654 2:3 3:1 8:1 9:1 12:3 13:1 15:2 18:1 
-9.110452403029777 0 0 0 0 0 1:1 2:2 3:1 8:1 18:1 
-0.9225998328041418 0.7614889761007274 0 0 0 0 1:1 2:2 3:1 8:3 18:1 
-0 0 0.1012146911441179 0 0.1592116331963741 0 1:1 2:3 3:1 8:3 18:1 
-0.9899851248666098 2.491656397333987 0 0 0 0 1:1 2:2 3:2 8:1 13:1 15:1 18:1 
-0 0 0.1914554081838421 0 0.0998195853354923 0 1:1 2:2 3:1 4:1 6:1 8:1 13:1 15:1 18:1 
-0.5924646891243901 1.360199960220208 0.5992248419243066 0.4964096355878443 0.4927449683936684 0.1787731384820492 1:3 2:4 3:1 8:1 9:5 12:3 13:1 15:2 18:1 
-0 0.1105260089837876 0.5071210049756463 0 0 0 1:1 2:2 3:1 8:1 11:1 13:1 15:2 18:1 
-4.957670234193227 0.4196031295593907 0.2173329934771413 0.171850999048679 0.469228811091443 0.06593426012085299 1:1 2:2 9:5 12:3 15:1 18:1 
-0 0.03770567387440699 0 0 0 0 1:1 2:3 3:1 9:5 12:3 15:1 18:1 
-0 0.5068326084927123 0.3813118573658602 0.3147789222398991 0.2183392738984609 0.1119091997903211 1:1 2:4 3:1 9:5 12:3 15:1 18:1 
-0 4.261129608386127 0 0.1153751995571988 0 0 13:1 15:1 17:2 
-0 0.6133936839652647 0 0 0 0 8:1 13:1 15:1 17:2 
-3.43698057207065 0 0 0 0 0 8:2 17:2 
-6.252995980565927 4.624621815450388 0.4651146171998945 0.380740610734704 0.3839026388939866 0 8:3 17:2 
-0 5.671366504578139 0 0 0 0 2:1 3:1 8:3 17:2 
-3.662987244155374 0.831702748398139 0.1086552852603395 0.2575906252381105 0.02717226158055909 0 1:1 17:2 
-0.5081121392123779 3.53968379291905 0.01888367653185497 0.3743712317843283 0.06963736691872822 0 3:1 17:2 
-1.110376770291529 0 0 0.02680221585318121 1.701699473023099 0 6:1 9:1 12:2 15:1 17:2 
-5.442258199985951 0.1697439923611485 0.1197225566434616 1.70101890553621 0.1509094368016819 0 5:1 17:2 
-0.6421542086135422 0.1686780849813237 0.4625061836996546 0.4277823156288628 0.1509094368016826 1.647148359660254 7:1 17:2 
-1.075880705026879 0 0 0 0 0 8:1 15:1 17:2 
-1.966792617778169 0.6433874439156018 0.5789113924948119 0.4749947794300932 0.5202135306656702 0.1757560075101557 1:2 2:1 9:5 12:3 15:1 17:2 
-0 0.4123432805222566 0.8865386884350389 0.5401770325448481 0.2986387852676648 0 10:1 11:1 17:2 
-0.03350258053529512 0.09321430532721438 3.438234566901284 0.9172770912214318 0 0 11:1 15:1 17:2 
-0 0.5617743944936565 0.5411920247676122 0.4601469918676238 0.3663346870841722 0.1144437898733071 9:1 12:3 15:1 17:2 
-2.385204467383706 0.3994137302404044 0 0 0 0 1:1 2:1 3:1 17:2 
-0 11.19438513092069 0 0 0 0 2:1 3:2 17:2 
-0 0.480676132932598 0.08323406244139581 0.06614758524488414 0 0.02109047557900596 1:2 2:2 3:1 9:5 12:3 15:1 17:2 
-0 0.1604493480713268 0 0 0 0 2:1 3:1 10:1 11:1 17:2 
-0 0.421119395763728 0 0 0 0 2:1 3:1 9:1 12:3 15:1 17:2 
-0.8927840707304225 -3.297365578161013 4.537303536393563 7.707238456226558 3.510911821626828 3.287741529786131 3:1 18:1 
-3.060043462608907 -0 0 0 0 0 3:1 8:1 18:1 
-6.596631354323042 -2.333138952314742 0.5892188869163918 0.4822629889044417 0.3617321102851848 0.1312178923149567 3:1 8:3 18:1 
-0 -0.6835896343541579 0 0 0 0 2:1 3:2 8:3 18:1 
-0 -0.3323370897480158 0 0 0 0 2:1 3:2 8:1 13:1 18:1 
-2.63944682616299 -0.8452745740444123 0.1895081842338096 0.3837035957753218 0.1793390396166524 0.5072565807552449 1:1 3:1 13:1 18:1 
-0 -5.805589836108921 0 0 0 0 2:1 3:2 8:1 13:1 15:1 18:1 
-0 -0 0.07845985646040705 0 0 0 2:1 3:2 4:1 6:1 8:1 13:1 15:1 18:1 
-0 -0 0 0 0.2257636735439032 0 3:2 6:1 13:1 15:1 18:1 
-0 -0 0 0 0 0.5021641147551272 3:2 7:1 8:1 13:1 15:2 18:1 
-0.5233467690578996 -0.8808538822769969 0.4146200137420953 0.3442222641891626 0.3625352917575377 0.153626662639379 1:2 2:2 3:3 8:1 9:5 12:3 13:1 15:2 18:1 
-0 -0 0.1002065336083467 0 0 0 2:1 3:2 8:1 11:1 13:1 15:2 18:1 
-0.4039560386383677 -0.8731764276164533 0.6352920225358043 0.4985152243681857 0.6963470015976763 0.1377405433328344 2:1 3:3 8:1 9:1 12:3 13:1 15:2 18:1 
-2.719174264689787 -0.956222872526546 0 0 0 0 1:1 2:1 3:2 8:1 18:1 
-3.25901330884437 -0.8550664753331388 0 0 0 0 1:1 2:1 3:2 8:3 18:1 
-0 -0 0.07955783504295474 0 0.113673068881868 0 1:1 2:1 3:3 8:3 18:1 
-0.02531846795619627 -0.6133283156005276 0.3073160283203875 0 0.2322856505080322 0 1:1 2:1 3:2 4:1 6:1 8:1 13:1 15:1 18:1 
-0.7953430431497144 -0.6858715703098472 0.6292108306228349 0.5133704487893892 0.4842640140337388 0.2103334673444104 1:3 2:2 3:3 8:1 9:5 12:3 13:1 15:2 18:1 
-0 -0.2396988927008232 0 0 0 0 1:1 2:1 3:2 8:1 10:1 11:1 13:1 15:1 18:1 
-0.2113454266487313 -0.9188202059324019 0.3132313664007342 0 0 0 1:1 2:1 3:2 8:1 11:1 13:1 15:2 18:1 
-0 -0 0.4279807468678062 0 0 0 3:2 10:1 11:1 15:1 18:1 
-0 -0.1225386026239366 0.2223509140807994 0 0.1038392262983851 0 2:1 3:4 10:1 11:1 15:1 18:1 
-0 -8.332833416501098 0 0 0 0 2:1 3:2 16:1 17:2 
-1.512796869185644 -0 0.369621542564949 0.6696947191339993 0.4410664549545364 0.1188595953557677 2:1 3:2 16:3 17:2 
-2.210541952987695 -1.64724283842288 9.096993896723559 2.970614556211796 0.7348344636418883 0.3058375046225709 17:3 
-0 -3.433109176529392 0 0 0 0 2:1 3:1 17:3 
-0.5120046009030914 -1.266410139532517 0 0 0 0 1:1 2:1 3:1 17:3 
-0.6298536405537694 -0 0 0 0 0 1:1 2:1 3:1 8:1 17:3 
-0.1572076882949324 -4.471760419684343 0.8677542070205059 0.5889592262162019 0.4674367802315102 0.2418924903852316 13:1 15:1 17:3 
-1.920406982837979 -4.502669241107865 0.4578078715042605 0.4466538249812202 0.3564998627145899 0.2076774198918892 8:3 17:3 
-0 -4.103387974129851 0 0 0 0 2:1 3:1 8:3 17:3 
-0 -1.521736931302605 0 0 0 0 2:1 3:2 8:1 17:3 
-0 -0 0.2564914868721652 0.0825937290150672 0.1928843717150272 0.01878410275558363 2:1 3:2 8:3 17:3 
-0 -0 0.08226598753286901 0.02814414524348583 0.07315676838820644 0 3:1 8:3 13:1 15:1 17:3 
-3.397001575765673 -2.329900102008451 -2.535214494275184 11.60471531767365 2.334445582706698 0 4:1 18:1 
-5.024021375758669 -3.1003342062509 -3.050622708561292 14.87087594778514 2.490795141343509 0 11:1 18:1 
-0.01336484439593625 -2.211781286804889 -0.7815384942553725 0.5464263999228486 0.3663452452926499 2.254812511270246 11:1 15:1 18:1 
-0.4187753599366915 -0 -0 2.051633129188891 0.2525853885948247 0 14:2 18:1 
-0.9287312417922974 -0.4443690583051605 -0.07700321450999013 0.7195653159690386 0.1810503648319323 14.2732957616592 4:1 7:1 18:1 
-0.6706203103400219 -2.415124946206774 -0.5490961234394895 0.6956308575957811 0.4906695885540045 0 2:1 14:2 18:1 
-0 -0 -0.6550432182546312 0 0 0 3:1 4:1 14:2 18:1 
-0 -0 -0 0 0.5274492463202983 0 4:1 6:1 11:1 14:2 15:1 18:1 
-0 -0 -0 0 0.1618712199437792 11.16687879428439 4:1 7:2 14:1 18:1 
-0.4728715139860349 -0.9626575411332797 -0.1764840517094065 0 0.2276960654855392 0.4420343398144116 1:2 2:1 4:2 7:1 11:1 15:1 18:1 
-0 -0.01563094392139164 -1.021873985615154 0 0.02736918910230128 0 3:2 4:2 7:1 11:1 14:1 15:1 18:1 
-0.7648036040008495 -0 -0 0 0.05909390248275435 0 1:2 4:2 7:1 14:1 18:1 
-1.254718689713775 -0.3416331018019407 -0.5358470944574421 0.01727907886783542 0.2551840679612828 0 4:1 8:2 14:2 15:1 18:1 
-1.606910095777768 -1.342168331447769 -9.117923052091738 0.4131329631002399 1.30143542953989 0.3879641966404613 17:4 
-0 -0 -0 3.061433022994966 0 0 4:1 17:4 
-0.4021614426510506 -0.1216462000430223 -0.2149034995645126 0 0.3028083042695684 0 14:2 17:4 
-0.003723216652455295 -0 -0 0.4076663822198741 0 0 4:1 14:2 17:4 
-0 -1.579659255546192 -0 0 0 0 11:1 15:1 17:4 
-0.0997694997488066 -0.371584784648141 -0.2899965789961919 0.1815085042960925 0.2207815409405406 0.22852356634906 11:1 14:2 15:1 17:4 
-0 -0.4205660816506502 -0 8.289814782448461 0 0 11:1 17:4 
-0.6734255102989639 -0.7223617859826152 -0.6496452317138378 1.202653508074302 0.646870739602141 0.1473927501401429 4:2 11:1 15:2 17:4 
-0 -0.06889031838714178 -0 -8.308696810982203 0 0 5:1 11:1 18:1 
-1.253881564106982 -1.301479620178057 -0.7743077950959701 -0 0.724377397085634 0.4781886005099595 5:2 11:1 15:1 18:1 
-1.86081512214607 -2.020568253784613 -1.718375333055215 -5.482304924480185 0.03474340829292399 0.04852816259238216 4:2 16:1 17:2 
-1.693832598074956 -0.4036075987486153 -0.633260375086738 -0 0.863521767766439 0.3577521210302921 4:2 16:3 17:2 
-17.60453155375054 -9.339486931565039 -8.455810209968199 -19.59871324417959 8.036896353421215 7.936605760979395 18:1 
-0.887647413146246 -1.383531763521779 -2.302600920462168 -9.620170031798382 1.854084629415858 0.1376493911027066 11:1 17:5 
-0.4763110150286025 -0.1949990986047765 -0.08005952498032097 -0.7932872223887261 0.2809855019925206 0.2444394723593208 4:1 5:1 7:1 11:1 17:5 
-0.9367838140657819 -0.9827372947976862 -0.7515590204062155 -0.2591629763080396 0.6568196284639052 0.2051348480176176 5:2 11:1 15:1 17:5 
-7.030523765825335 -4.412469576241564 -4.384576219159096 -5.738996335227024 -8.237033404731656 3.78823440932278 6:1 18:1 
-0 -0.3291982134310891 -0.2039439629694373 -0.4449027100269492 -0.2056613097145332 0.4466983812224944 6:1 9:1 12:1 15:1 18:1 
-0.9904075144772874 -0.6260346076590244 -0.2267831819984273 -0 -0.09644581196367928 0 6:1 9:2 12:2 15:1 18:1 
-0 -0.6950882686930225 -0 -0 -0 0 6:1 9:1 12:2 15:1 18:1 
-0.7520992198303065 -1.032900555613865 -0.7367859857344329 -0.6480694037115574 -0.7517540241042304 0.3491787368163685 6:1 9:2 12:4 15:1 18:1 
-0.158105039227061 -0.2126667764376385 -0.3177797235573728 -0.2162885449121249 -0.002240812200320286 0.001303403854906512 6:2 9:2 12:4 15:1 18:1 
-0.6728643318726395 -0.5899672234849915 -0.7265914121530643 -1.020709712966246 -1.719553117081106 0.1933568601101963 9:1 12:1 17:6 
-0.5058088460644347 -0.4997572794150431 -0.4411924990767442 -0.307374427462372 -0.1325406971857573 0.1976184359110827 9:2 12:4 17:6 
-0.0549299056306911 -0.2762573470837228 -0.2671751419894541 -0.4688592783388956 -0.3886515082884288 0.07390205186220612 9:1 12:1 15:1 17:6 
-0.1657542710611222 -0.2253483441381682 -0.1133015522307431 -0.04857498952129471 -0.05372481354204218 0.05009753658125792 9:2 12:4 15:1 17:6 
-0.7710101022912562 -0.6828901409075289 -0.5518142324769433 -0.4646934620612674 -0.4139766133536007 0.2122715730687993 6:2 9:1 12:1 15:1 17:6 
-0.5825106060067116 -0.637202664475534 -0.5666256884498485 -0.4879821527439812 -0.4498465742731428 0.2316807154965539 6:2 9:2 12:4 15:1 17:6 
-1.679363427346453 -4.570278810975354 -3.768202676114895 -7.351201327852703 -8.081735953010263 -4.022792431400295 7:1 18:1 
-7.345328147007016 -0.5314282500276825 -0.4492812179173664 -0 -0.2354955751644252 -0.1346452092663139 1:1 7:1 18:1 
-0 -0 -0 -0.3650493965315554 -0 -0 4:1 5:1 7:2 18:1 
-0 -0 -0 -16.39300167268836 -0 -0 4:1 7:2 18:1 
-0 -0 -0 -4.135924487732251 -0 -0 1:1 7:1 14:1 15:1 18:1 
-1.461225953699722 -1.014218877511198 -1.109603459525232 -0 -1.091066828416987 -0.9793877499610408 1:1 7:1 14:1 15:2 18:1 
-0.05576139945941402 -0.5713813601769917 -0.4960445503816331 -0.6557250353530474 -0 -0.4075167136189959 1:1 4:1 5:1 7:3 14:1 15:1 18:1 
