svm_type c_svc
kernel_type rbf
gamma 0.125
nr_class 5
total_sv 69
rho -1.20529 -0.693068 -0.610833 -0.228925 -0.1919 -0.147319 0.395118 0.133226 0.456567 0.262836
label 10 0 -2 -3 -4
probA -3.01978 -3.44728 -3.29168 -3.45137 -2.7792 -2.55177 -3.14882 -2.16768 -2.71554 -2.71956
probB -0.529129 -0.451034 0.0290765 -0.37845 -0.111931 -0.0919324 0.137161 0.172424 0.131239 -0.0684293
nr_sv 35 11 5 5 13
SV
0 0.1617482866050424 0.01561821559352964 0.4099937889984955 7:1 64:1 84:0 105:1 117:1 
1.724213297740615 0.5446357030860725 0.3467961206851604 0.497975554158415 1:1 21:0 49:1 105:1 118:1 
0 0 0.9464742367496171 0 7:1 21:0 64:1 84:1 105:1 117:1 
6.060368403851577 0 0.9695739075692998 0 1:1 21:1 49:1 63:0 105:1 118:1 
1.015613001728153 0 0 0 7:1 21:1 63:0 105:1 117:1 
3.234254138471537 1.655357246042165 0 0.5371976910436224 7:1 21:0 105:1 117:1 
4.394938964542969 1.476590966672334 0.5799019890701712 0.9271394458817119 19:1 21:0 63:0 84:1 91:1 105:1 117:1 
0 0.2467802513073324 0 0.1536514766869454 7:1 21:1 40:1 42:0 63:1 105:1 117:1 
0 0.4686910908528452 0 0.1414704974389454 7:1 21:0 36:1 63:0 79:1 84:1 85:1 105:1 117:1 
0.475272131079997 0.3714694007227554 0.3363571248431992 0.3963369060197042 1:1 21:0 36:1 58:1 63:0 70:1 84:1 91:1 105:1 126:1 
0.6603275724361913 0 0.1100289664617873 0 7:1 21:1 37:1 42:0 43:1 63:0 70:1 84:1 105:1 118:1 
0.7064953860973232 0 0.4062702150911248 0 7:1 21:1 22:1 42:0 49:1 63:1 105:1 118:1 
0 0.3194801983712223 0.2939293915437585 0.3017418409750929 7:1 21:0 57:1 79:1 84:0 85:1 105:1 125:1 
0.3262961550311183 0 0 0 1:1 21:1 28:1 42:0 58:1 63:0 70:1 84:1 105:1 126:1 
0 0 0.004146386415435251 0.06730774978142634 7:1 21:1 37:1 42:0 43:1 63:1 105:1 118:1 
5.009473286866082 0.4170660235068172 0.2966246183025201 0.1595106493663176 7:1 21:0 57:1 70:1 84:0 100:1 105:1 125:1 
0 0 0 0.01042459691443436 7:1 21:0 36:1 49:1 63:0 79:1 84:1 85:1 105:1 118:1 
0 0.05033502739026663 0.0134638593165313 0 1:1 21:1 28:1 42:0 58:1 63:1 105:1 126:1 
1.20736161359571 0.5868186125002057 0 0.3156789372564195 5:1 19:1 84:0 99:1 105:1 117:1 
0 0 0.116382743843665 0 7:1 21:0 42:0 57:1 63:0 70:1 84:1 100:1 105:1 125:1 
0.09738543178925883 0 0.5360364268780289 0 7:1 21:1 36:1 42:0 49:1 63:0 79:1 84:1 85:1 105:1 118:1 
0 0.1622845545831611 0.2063455821776825 0.4056696683720463 1:1 21:1 28:1 42:1 58:1 63:1 105:1 126:1 
0 0 0 0.4855787864090242 5:1 19:1 21:0 38:1 59:1 63:0 70:1 84:1 107:1 127:1 
0.2170102313292774 0 0 0.1990216172889415 7:1 21:1 38:1 42:0 47:1 61:1 63:0 107:1 118:1 
0.01861360949712616 0.0397974970217738 0.115040049712378 0 5:1 19:1 21:1 38:1 42:0 59:1 63:0 70:1 84:1 107:1 127:1 
0 0.009658541151501228 0.09641645612154827 0.05445476665048262 7:1 21:1 38:1 42:0 47:1 61:1 63:1 107:1 118:1 
0 0 0.0009758523826130992 0 5:1 19:1 21:0 59:1 70:1 84:1 112:1 127:1 
0.003738334582827857 0.002880860020605966 0 0 7:1 21:1 38:1 47:1 61:1 63:0 112:1 118:1 
0.2705204991151793 0 0.06154255916021338 0.3162583912122282 5:1 19:1 21:0 59:1 70:1 84:1 112:1 127:1 
0 0.0334080094297572 0 0 5:1 19:1 21:0 38:1 59:1 63:0 70:1 84:1 112:1 127:1 
0.1571057470838924 0 0 0.1755820234380505 7:1 21:1 38:1 42:0 47:1 61:1 63:0 112:1 118:1 
0.08101615933463846 0.04074314799080345 0.1154886954471822 0.2991855857255014 5:1 19:1 21:1 38:1 42:0 59:1 63:0 70:1 84:1 110:1 127:1 
0 0.008618791738379428 0.09299662509504142 0.2335408620745884 7:1 21:1 38:1 42:0 47:1 61:1 63:1 110:1 118:1 
0 0.03167549523353386 0.03970458943939566 0.1594051801546153 5:1 19:1 21:0 38:1 59:1 63:0 70:1 84:1 111:1 127:1 
0.2221563805693929 0.004955791031357159 0 0.08490927394832665 7:1 21:1 38:1 42:0 47:1 61:1 63:0 111:1 118:1 
-0 1.46489114901362 0 0.1275881702086511 70:1 84:0 85:1 105:1 117:1 
-0.01175350556120487 0 0 0 84:0 91:1 105:1 117:1 
-4.316722651533169 5.661041911546301 0.8940477846791562 1.16653925395273 84:0 91:1 105:1 117:1 
-2.994705202659303 0.3281629511560804 0.1744334763712721 0 21:0 70:1 84:1 105:1 117:1 
-8.259634621181675 0.1567602358339339 1.930021018035743 0.3229734087168237 21:1 49:1 63:0 105:1 118:1 
-0 0.5230705072787566 0 0 70:1 84:0 105:1 117:1 
-1.36523839815694 0.2526845626326552 0 0.8030510213349915 84:0 103:1 105:1 117:1 
-1.363491808831606 0.2527453395588734 0 1.554835231240643 21:0 82:1 84:0 105:1 117:1 
-1.030682645419832 0.1696890478489378 0.6255818268732289 0.4466142651733397 21:1 42:0 61:1 63:0 70:1 84:1 105:1 118:1 
-5.310335340421997 0.8006345754057527 1.042322455948767 0.6626056956086557 21:0 57:1 70:1 84:0 100:1 105:1 125:1 
-1.229596170977141 0.3457865743158255 0.508965275699059 0.7249452450251426 21:0 47:1 61:1 78:1 84:0 91:1 105:1 118:1 
-2.480360785694767 -5.181399223008318 1.070457553044564 1.432495581138834 15:1 84:0 91:1 105:1 117:1 
-1.888295356415729 -1.504401562081764 0.6420001550521134 0.9535369012146583 15:1 79:1 84:0 85:1 105:1 117:1 
-1.474306289462028 -1.812605609721115 0.4517252819070258 0.7232617519833366 15:1 70:1 84:0 100:1 105:1 117:1 
-0 -0.7872401935722446 0 0 15:1 70:1 84:0 91:1 105:1 117:1 
-0.7900330636854084 -0.6698202662072917 0.5569113988866499 0.6794539242523066 15:1 21:0 26:1 40:1 63:0 70:1 84:0 91:1 105:1 117:1 
-1.629607857499611 -1.929975465363511 -0.3029466705991513 0.2883693032379526 16:1 21:1 42:0 49:1 63:0 64:1 84:1 105:1 118:1 
-1.996938647801655 -2.054951470341737 -1.352133352955281 1.374476321754787 16:1 21:0 57:1 64:1 84:0 91:1 105:1 125:1 
-0.9606695100659792 -0.5103815265527133 -0.5524439690732762 0.6520097437439519 16:1 21:0 36:1 49:1 63:0 64:1 84:1 91:1 105:1 118:1 
-0 -0.07121528652260134 -0.05305242453159047 0.07578763850747115 16:1 21:1 28:1 42:0 49:1 63:0 64:1 84:1 105:1 118:1 
-1.112898596532638 -0.6088480888266636 -0.4605179717310535 0.6723298644721893 16:1 21:1 28:1 42:0 49:1 63:1 64:1 84:1 105:1 118:1 
-0 -0.07804125851794444 -0.01843844148554916 -0 17:1 80:1 84:0 89:1 103:1 105:0 107:1 117:1 
-0 -0.03600444418372332 -0 -0 17:1 21:0 59:1 68:1 82:1 84:0 91:1 105:1 107:1 127:1 
-0.8303527882723016 -0.6940258996607581 -0.5176831888672274 -0.3257887315550249 17:1 80:1 84:0 101:1 105:0 107:1 117:1 
-0.4893169345909208 -0.3520245738654076 -0.2085295904346775 -0.2518911761307634 17:1 21:0 59:1 80:1 84:0 89:1 103:1 105:1 107:1 127:1 
-0.6847465091205613 -0.2140101249830624 -0.1621363141727196 -0.308084758662968 17:1 21:0 38:1 59:1 63:0 68:1 82:1 84:1 91:1 105:1 107:1 127:1 
-0.002259397980650947 -0 -0 -0 17:1 68:1 82:1 84:0 91:1 105:1 112:1 117:1 
-1.245905052675851 -1.921211270771952 -1.261876857060789 -0.6414470029089615 17:1 68:1 82:1 84:0 91:1 105:1 112:1 117:1 
-0.2582133476391144 -0.02829475376377747 -0.01126415934229657 -0.08978594349363039 17:1 80:1 84:0 89:1 103:1 105:0 112:1 117:1 
-0.7904663749482761 -0.7376837850320141 -0.527884409908395 -0.3266658175101145 17:1 80:1 84:0 101:1 105:0 110:1 117:1 
-0.4588827298494274 -0.3899075657899238 -0.2121409123159184 -0.2505403348959866 17:1 21:0 59:1 80:1 84:0 89:1 103:1 105:1 110:1 127:1 
-0.6181960635744181 -0.2344322867425206 -0.1644537155630353 -0.3085910306717082 17:1 21:0 38:1 59:1 63:0 68:1 82:1 84:1 91:1 105:1 110:1 127:1 
-0.6151702665893714 -0.7097653757498906 -0.4726213806643453 -0.2769910169273261 17:1 80:1 84:0 89:1 103:1 105:0 111:1 117:1 
-0.3385258245544429 -0.4137509522000037 -0.2317191887741826 -0.2831870589598686 17:1 21:0 59:1 68:1 82:1 84:0 91:1 105:1 111:1 127:1 
