svm_type c_svc
kernel_type rbf
gamma 0.125
nr_class 8
total_sv 284
rho 0.390392 0.303373 0.251041 -0.286896 0.00301521 -0.344699 -0.482852 0.142924 -0.0339367 -0.551529 -0.238482 -0.55363 -0.689514 0.00423289 -0.546727 -0.223315 -0.554772 -0.658253 -0.409649 -0.171332 -0.545861 -0.637865 0.311216 -0.00906597 -0.170755 -0.3227 -0.479194 -0.220678
label 1 2 3 4 5 6 7 8
probA -4.16111 -4.31346 -4.16232 -3.96326 -4.29823 -3.7825 -3.59091 -4.12463 -4.64889 -4.06594 -4.43051 -4.0786 -4.15576 -4.347 -4.15439 -4.46575 -3.99034 -3.11247 -3.64013 -4.4029 -3.71022 -3.70281 -3.86975 -3.59996 -3.4128 -3.87383 -4.06523 -3.17339
probB -0.626259 -0.0765923 0.00710174 -0.199571 0.0165475 -0.289534 0.104312 0.0105765 0.459717 -0.361882 -0.250416 -0.291127 0.0751171 0.0790496 0.17924 -0.200264 -0.563573 -0.149787 -0.483783 0.260695 -0.414282 0.30613 0.164554 -0.0425829 -0.157451 -0.406899 0.627482 0.0378092
nr_sv 39 59 67 42 20 32 17 8
SV
0.7758008101773228 0.8730403651412653 0 0 0 0 0 1:2 14:1 18:1 22:1 
0.464292395814502 0.3470161244558894 0.03088534514525702 0.116459685264045 0.05346312470783934 0.2591723431578286 0 1:3 14:1 18:1 22:1 
1.379659655437782 1.364647139660459 4.225431265594294 1.302443911960767 2.45615278011587 6.932124012942837 3.650769950850965 1:1 22:1 
2.326562616302581 0.1247418184648715 0.0464107287753398 0.05543802459629665 0.9069926643974641 0.0604476462234016 0 10:5 13:3 22:1 
0.3347954147641831 0.04507608924789497 0 0 0 0 0 1:1 10:5 13:3 14:1 18:1 22:1 
0 0.4042336387470969 0.238672338460428 0.1134215142220639 0.07212925796821623 0.08439439980377335 0.1022326084612699 1:3 10:5 13:3 14:1 18:1 22:1 
4.024177866237241 0 0 0 0 0 0 1:2 10:5 13:3 16:1 22:1 
0 0.4152753549733493 0.2366682582632226 0.1476763091128489 0.3677173993618685 0.1479409061838509 0.08214124472069717 1:3 10:5 13:3 16:1 22:1 
0.6128456617487498 0.7190665833501831 0.7938098921553358 0.4362604339889171 0 0.3953862401716851 0.341253501197314 10:6 13:3 22:1 
0.2702213596522803 0.07213929908149705 0 0 0 0 0 1:1 10:6 13:3 14:1 18:1 22:1 
0.1840863553518197 0.4389580285585485 0.4137320359296314 0.2526187532623216 0.4177140990506329 0.2460879055745593 0.1715450506928311 1:3 10:6 13:3 14:1 18:1 22:1 
0.3818271637015084 0 0 0 0 0 0 1:2 10:6 13:3 16:1 22:1 
0 0.3245888935324607 0.3310021998412625 0.177652201469919 0.1305596386391452 0.1528335153837252 0.1499141846224959 1:3 10:6 13:3 16:1 22:1 
0.5611131441627292 0.5217042401130425 0.8587315494738508 0.3635455780694534 0.9379923195754355 0.3053972666365622 0.3518442721706011 10:3 22:1 
0.3437048171801571 0.2281664405822751 0 0 0 0 0 1:1 10:3 14:1 18:1 22:1 
0.113878168892212 0.1780445155120989 0.1475629007701766 0.1309716230139044 0.1501362888878812 0.1560973882864017 0 1:2 10:3 14:1 18:1 22:1 
0.729699246014522 1.880062890564999 4.651022758296087 1.515495192785773 2.689724356296142 0 2.795535526592909 9:1 22:1 
0 0 0 0 0 0.6671371903797971 0.9447213389096728 1:1 9:1 16:1 22:1 
0.8524962822371014 0.8863778469520139 0 0 0 0 0 1:1 9:1 14:1 18:1 22:1 
1.702260444130313 2.647536930138203 0 0 0 0.1581887062045201 0 9:3 22:1 
0.1848351934297115 0.2013681508261138 0 0 0 0.006899713012609842 0 1:1 9:3 16:1 22:1 
3.604040380841326 3.568836887512256 0 0.02292751156158718 0 0.0607502850899018 0 1:1 9:3 14:1 18:1 22:1 
5.641271069732219 0.4436537525045057 0 0 0 0 1.346535345518296 9:1 21:1 23:1 
6.447765372610497 1.658938302978521 0 0 0 0.06714581765359218 0 9:3 21:1 23:1 
0.6985204038723314 0.8484747696419672 0.9590117269282609 0.914936879532688 0.7656197439742293 0.5586531175242078 2.003725171629556 10:1 21:1 23:2 
0 0 0 0 0 0 0.1773982044149383 1:1 10:1 16:1 21:1 23:2 
0.3296787605331619 0.3054803554760969 0.1847868172504964 0.05497183649908757 0.163203589865564 0.2327020289435052 0 1:3 10:1 16:1 21:1 23:2 
0.5370366725468425 0.4209847657620229 0.2298470035948043 0.1046323904386106 0.1779982134720999 0.08268162474236417 0 1:1 9:3 14:1 18:1 21:1 23:1 
0.280838458014684 0.3055871760557917 0 0 0 0 0 1:1 10:1 14:1 18:1 21:1 23:2 
0.1873366545648908 0.1653056457263404 0.3242070049589417 0.135553097119689 0.2297819052985711 0.04497225614591033 0 1:3 10:1 14:1 18:1 21:1 23:2 
1.52547896479715 1.520934528867919 1.118610931752903 1.592001370846508 1.053718409610954 1.316313474974023 0.1317924602470179 1:1 9:1 17:3 21:1 23:1 
6.276652366874733 2.515523583333671 1.548772446425333 1.122033510472348 0.9331615406816354 0.971628269659419 1.814914197611994 1:1 9:1 17:1 21:2 23:6 
0 0 0 1.2643955262279 1.006973423083865 1.009151895160013 0 1:1 9:1 17:3 21:2 23:6 
0 2.799553126535129 0 0 0 0 0 1:1 9:1 17:1 21:3 23:6 
0 1.106320083483347 8.472221317214679 0 0 0 0.04129375037693149 1:1 9:1 17:1 21:4 23:6 
1.479906604765388 1.186370611208674 0.45251775251418 1.411321627815879 0.2309984821553449 0.3107618598377085 0.5710146729847949 1:1 9:1 17:1 21:5 23:4 
0 0 0 0 0.3558595572410174 0.304926547607496 0 1:1 9:1 17:3 21:5 23:4 
0.3025417357560216 0.3656557304950516 1.375527046519168 0.4731982691784443 2.356932352271167 0.8325570833281948 1.54497345728271 1:1 9:1 17:1 21:6 23:5 
1.271775302050442 0.9859258713619569 0 1.238597834199767 0.323144420082442 0.8372842869871556 0 1:1 9:1 17:3 21:6 23:5 
-1.427795643520164 0.4989425745210603 6.307745387485838 2.013194695546442 3.590935628290023 3.34072953059009 5.148489864882007 2:1 22:1 
-0.7421908213276177 0 0 0 0 0 0 2:1 9:1 22:1 
-3.778852346757628 1.354768442990395 0.4231938829242025 0.1165364643246293 0.2226164578458867 0.05491191403106083 0 2:1 9:3 22:1 
-1.757664769281045 0 0 0 0 0.2975838303739473 0 1:1 2:1 14:1 22:1 
-0 5.78461771553542 0 0 0 0 0 2:1 3:1 9:1 14:2 16:1 18:1 22:1 
-0 0 0.1021774305082362 0 0.2074481692447706 0 0 2:1 4:1 6:1 9:1 14:2 16:1 18:1 22:1 
-0.2915072082719969 0.6396185064227768 0.1124004539051354 0.01590041715573677 0.6823280073615411 0.1670849907122895 0.2369855482762042 2:1 6:1 9:1 10:1 13:2 14:2 16:2 18:1 22:1 
-0 0 0 0.03283046516822002 0 0 0 2:2 5:1 14:1 16:1 22:1 
-0 0 0 0 0 0.1612306464293808 0 2:2 7:1 9:1 14:1 16:1 22:1 
-0 0.07887854639086347 0 0 0 0 0 1:2 2:2 9:1 10:5 13:3 14:2 16:2 18:1 22:1 
-0 0 0.0328323537474958 0.1985729219667068 0 0 0 2:1 9:1 11:1 12:1 14:2 16:1 18:1 22:1 
-0 0 0.3599352025626468 0.1298053903692391 0 0 0.4738202343706507 2:1 9:1 12:1 14:2 16:2 18:1 22:1 
-0 0.3452782958487479 0.4535843335910942 0.2040949956200523 0.5163064304725612 0.1305179612689022 0.03090014243360901 2:2 9:1 10:1 13:3 14:1 16:2 18:1 22:1 
-1.284112207927129 0 0 0 0 0 0 1:1 2:1 9:1 14:1 18:1 22:1 
-3.554541764448788 0.2908798589758054 0 0 0.006807366533616279 0.06714121268446936 0 1:1 2:1 9:3 14:1 18:1 22:1 
-0 2.180935558673275 0 0 0 0 0 1:1 2:1 3:1 9:1 14:2 16:1 18:1 22:1 
-0.0005697529046391776 0 0.3478718176043143 0 0.3908399352331208 0 0.000779311069011814 1:1 2:1 4:1 6:1 9:1 14:2 16:1 18:1 22:1 
-0.4302882196735376 1.32856763477466 0.7383498707748194 0.3429265934679457 0.5366434603315832 0.3411837633903566 0.2354132533712552 1:3 2:2 9:1 10:5 13:3 14:2 16:2 18:1 22:1 
-0 0 0.204780996398975 0.1279537803668397 0 0 0 1:1 2:1 9:1 11:1 12:1 14:2 16:1 18:1 22:1 
-0.2297674519851531 0.2738936269986472 0.2006929233646847 0.130763639625037 0 0.3481987102752163 0.1588227316146741 1:1 2:1 9:1 12:1 14:2 16:2 18:1 22:1 
-5.768966149757025 0.6001785477551667 0.2898117213259925 0.1342031530436304 0.7457227602058846 0.1562636254576305 0.135002630667812 1:1 2:1 10:5 13:3 16:1 22:1 
-0.7267605783511182 0.499413240715845 0.2760677119818613 0.1280546586432261 0.1937069586839769 0.1262379756570636 0.08750895631433304 1:1 2:1 10:5 13:3 16:1 18:1 22:1 
-0 0 0.2499111367460652 0.117530746792608 0 0.09748678747936337 0.04409837734121726 1:1 2:2 10:5 13:3 16:1 22:1 
-0.186443804497588 0 0 0 0 0 0.03917032694992402 2:1 14:1 17:1 18:1 21:1 23:1 
-1.234906561504011 3.001023899925603 1.091206786037499 1.251537295393401 0.9847993678242115 1.037058897234036 0.2285133120792478 2:1 14:1 17:3 18:1 21:1 23:1 
-0 0 0 0 0 0 6.994793823445519 21:2 23:6 
-2.71845057883567 1.381165724847873 0 0 0.1956970486851106 0 0 9:1 21:2 23:6 
-0 0 0.3395114465860514 0 0 0 0 14:1 16:1 21:2 23:6 
-0 0 0.6970110158133274 0 0 0 0 9:1 14:1 16:1 21:2 23:6 
-5.740065941807888 3.855276726894329 1.217995798983046 0.9463531249625752 0.8019414445753782 0.9979651253390462 2.372805692699423 9:1 21:2 23:1 
-5.210595910787954 4.178037207086804 0 0 0.04450589019810108 0 0 9:3 21:2 23:1 
-0.09910390821598784 5.062892977610137 0 0 0 0 0 9:1 18:1 21:2 23:1 
-0.7293529315027327 2.815901317461277 0.2733482761091087 0.01303020275285289 0.2096069435061951 0.01482637797533824 0 9:3 18:1 21:2 23:1 
-0 0 0.00930911627168092 0 0 0 0 2:1 9:3 14:1 16:1 21:2 23:1 
-3.082635654846005 0.3518415454212537 0.5979469790758483 0 0.2546103285402775 0 0.1581890071823986 1:1 21:2 23:6 
-0 3.100284530340864 0 0 0 0 0 2:1 9:1 18:1 21:2 23:6 
-0 0.781101238706073 0.4501948954991528 0 0.2691580531851068 0 0.1647954161088935 3:1 21:2 23:6 
-0 0.01782843095882479 1.071468725110482 0 1.016859541500845 0 0.02384072151091618 6:1 10:1 13:2 16:1 21:2 23:6 
-0 0.51024995075973 0.6777641783462438 3.211876983845042 0.2694139788737142 1.598199040736396 0.1647670256859736 5:1 21:2 23:6 
-0 0.5242385876552835 0.4534772425063499 0 0.269284738068037 1.621572333433043 0.1635566851106625 7:1 21:2 23:6 
-0.2635637729005997 1.438759163142737 0.09142439335398439 0 0.02187496495382588 0 0.07556433805035893 9:1 16:1 21:2 23:6 
-0.3460014109617494 4.505701015578261 0.5008092363964408 0.2398280032609214 0.3880928984966043 0.2353387765983221 0.1609978304557546 1:2 10:5 13:3 16:1 21:2 23:6 
-0 2.727297887283817 0.3408398203162206 1.320209352986047 0.3611864419150842 0 0.1527865705973316 11:1 12:1 21:2 23:6 
-0 0.2130289698152155 0.5494383315669572 1.362421773133386 0 0 0.04909027384208361 12:1 16:1 21:2 23:6 
-0.1347228127004161 3.472567575570281 0.04780276200814535 0.06470945137310762 0 0.124859702933584 0.1396850901442402 10:1 13:3 16:1 21:2 23:6 
-0 7.499830267436543 0.491558749280583 0 0.2432280878684681 0 0.09524856571197375 14:2 18:2 21:2 23:6 
-0 14.29633837390392 0 0 0 0 0 3:1 14:1 18:1 21:2 23:6 
-0 0 0 0 0.05818096395326065 0 0 6:1 10:1 13:2 14:1 16:1 18:1 21:2 23:6 
-0 1.245693372425674 0 0 0 0 0 9:1 14:1 16:1 18:1 21:2 23:6 
-0.3270639637958412 4.536245759122369 0.509268361139952 0.2418434324018423 0.4150711359158017 0.2371967754869011 0.164033121190034 1:2 10:5 13:3 14:1 16:1 18:1 21:2 23:6 
-0.1573002431297499 2.887652027703892 0.3012220317171271 0.05990121564660585 0.005237548790355331 0.1274553982358686 0.07656203054114967 10:1 13:3 14:1 16:1 18:1 21:2 23:6 
-0.3336709530063697 0 0 0.267564332484025 0 0 0 2:1 14:1 17:2 18:1 21:2 23:6 
-1.080767644549585 2.112558212461189 0 0.968553497234951 0.9441375626713467 0.9339445843934634 0.116096780140987 2:1 14:1 17:3 18:1 21:2 23:6 
-0 3.97443756139783 0 0 0 0 0 2:1 14:1 17:1 18:1 21:3 23:6 
-0 8.696485557673912 5.118525539565836 0 0 0 0 2:1 14:1 17:1 18:1 21:4 23:6 
-0.1849227337440427 1.967644753100137 0.183466828433707 1.137386438695711 0.003796470489483654 0.1199485286798562 0.4000210922338104 2:1 14:1 17:1 18:1 21:5 23:4 
-0.3406941248574274 0 0.09318108485685089 0 0.3880289996788924 0.3035336171436482 0 2:1 14:1 17:3 18:1 21:5 23:4 
-0.8552049065386046 0 1.40009676127958 0.39351399500643 1.940398771671668 0.7087555056712481 1.187771306866097 2:1 14:1 17:1 18:1 21:6 23:5 
-0.8066145698063358 1.034681675724718 0 0.8706746812770512 0.2253748250759756 0.6364840248464445 0 2:1 14:1 17:3 18:1 21:6 23:5 
-1.61974026256298 -0.02098864202281512 5.108911860375421 1.893476097357681 3.512499438345404 3.525414506208106 5.31733772128121 3:1 22:1 
-0.6393817505274838 -1.11360748062431 0 0 0 0 0 3:1 9:1 22:1 
-3.832589196482849 -2.739338876391276 0.6145605476848642 0.1939403816054827 0.3176890526492169 0.1253687961603482 0.08085226787490261 3:1 9:3 22:1 
-0 -0.3615810561851664 0 0 0 0 0 3:1 9:3 14:1 18:1 22:1 
-1.711462137364851 -0 0 0 0 0.2213342442653509 0 1:1 3:1 14:1 22:1 
-0 -4.941575570008591 0 0 0 0 0 3:1 9:1 14:2 16:1 18:1 22:1 
-0 -0 0.2664601598281593 0 0.3294595104150002 0 0 3:1 4:1 6:1 9:1 14:2 16:1 18:1 22:1 
-0 -1.306134561340964 0 0 0.219185564882604 0 0 2:1 3:2 6:1 14:1 16:1 22:1 
-0 -0 0 0 0 0.3858065415524742 0 3:2 7:1 9:1 14:1 16:2 22:1 
-0.5903524261346204 -0.8120644031637564 0.4031826078993829 0.188900029025769 0.3756283645687749 0.1858427454907737 0.1392147540821221 1:2 3:2 9:1 10:5 13:3 14:2 16:2 18:1 22:1 
-0 -0 0 0.09461697547553592 0 0 0 3:1 9:1 11:1 12:1 14:2 16:1 18:1 22:1 
-0 -0 0.3294278332432008 0.158225772488331 0 0 0.5114529008660517 3:1 9:1 12:1 14:2 16:2 18:1 22:1 
-0.2700566681041905 -0.7956027048513803 0.5757818180138337 0.2156354925775236 0.8490684924246397 0.2025248845191859 0.1869785621941464 3:2 9:1 10:1 13:3 14:1 16:2 18:1 22:1 
-1.262469666850898 -0.004403478240170079 0 0 0 0 0 1:1 3:1 9:1 14:1 18:1 22:1 
-0 -0.33943789302406 0 0 0 0 0 1:1 3:1 9:2 14:1 18:1 22:1 
-3.552596634276644 -0.71187222703345 0 0.005184226330086038 0.01331062709225468 0.06670613276031349 0 1:1 3:1 9:3 14:1 18:1 22:1 
-0.0993820258764166 -0.4993818691822494 0.3229478678534033 0 0.3850045250192645 0.008349244170622164 0.06675968587507622 1:1 3:1 4:1 6:1 9:1 14:2 16:1 18:1 22:1 
-0.6487717305848985 -0.8000295061646187 0.6171938598439045 0.2738085879113897 0.4352514266820066 0.2701039451061055 0.2077079176940619 1:3 3:2 9:1 10:5 13:3 14:2 16:2 18:1 22:1 
-0 -0.242462920485684 0.05049003964036537 0.1279286899920205 0 0 0 1:1 3:1 9:1 11:1 12:1 14:2 16:1 18:1 22:1 
-0.3121443320608608 -1.270577258851403 0.288305477920237 0.1335027031816209 0.02039998316482509 0.2864502168219164 0.1348713104377131 1:1 3:1 9:1 12:1 14:2 16:2 18:1 22:1 
-0 -0 0.5673051324558487 0.3905181908706032 0 0 0 3:2 11:1 12:1 16:1 22:1 
-0.1348626315631041 -2.536933082958466 0 0 0 0 0.1644326262561178 3:1 14:1 17:1 18:1 21:1 23:1 
-1.308767913969131 -2.157247491566634 1.090868431942028 1.274412291200907 0.9963563655324145 1.038847007308585 0.2145452256097287 3:1 14:1 17:3 18:1 21:1 23:1 
-0 -17.3079477512717 0 0 0 0 0.08330410041108563 3:1 14:1 17:1 18:1 21:2 23:6 
-0.5795684091037693 -0 0 0.4505516667321081 0 0.1558900921091864 0 3:1 14:1 17:2 18:1 21:2 23:6 
-0.8044589464441658 -0 0 0.7816747421530635 1.002596337439782 0.8633110932514096 0.1894466822679563 3:1 14:1 17:3 18:1 21:2 23:6 
-0 -0 0 0 0 0 6.967905830657426 21:3 23:6 
-2.59632163249115 -0 0.3887369228778474 0 0.2266235350107953 0 0.03509366585836636 9:1 21:3 23:6 
-0 -0 0.4005014341616732 0 0.1848705575145104 0 0 9:1 21:3 
-0 -2.435955024453889 0 0 0 0 0 14:1 18:1 21:3 23:6 
-0 -3.164152607859498 0.8686703654964327 0 0 0 0 14:1 16:1 21:3 23:6 
-0 -0 1.26267716786925 0 0 0 0 9:1 14:1 16:1 21:3 23:6 
-0 -0 0.4870586844519141 0 0.02466003554187396 0 0.2451194880913204 9:1 14:1 16:1 21:3 
-1.284378858069892 -3.458744875715523 0 0.7586227832921505 0.197387019707909 0.2122433790218666 0.9983039915479551 9:1 21:3 23:1 
-1.154705516299112 -3.684048735212315 0.2059964336786654 0.01665695449008399 0.1641024294660661 0.2439990941685077 0 9:3 21:3 23:1 
-0 -3.817578922324864 0 0 0 0 0 9:1 18:1 21:3 23:1 
-0.5216776622189648 -2.839438831593523 0.2374175406805433 0.05670092822898052 0.1844029044225919 0 0 9:3 18:1 21:3 23:1 
-0 -0 0.1076539752001464 0.01893553991193591 0.1300271254179124 0 0 3:1 9:3 14:1 16:1 21:3 23:1 
-3.027390550937708 -0.4889560425904048 1.647168160259213 0 0.3497373670816748 0 0.1735017902396661 1:1 21:3 23:6 
-0.0639384886318327 -9.22707515319768 0 0 0.09102368818536999 0 0.02454278211114746 2:1 9:1 18:1 21:3 23:6 
-0 -0 3.935078562153889 0 0 0 0 3:1 21:3 23:6 
-0 -0 2.724146625663145 0 1.291659492309025 0 0.02374396851819615 6:1 10:1 13:2 16:1 21:3 23:6 
-0 -0.6374583105512063 1.191436883700765 3.17030966193137 0.3651951546214975 1.542910290395255 0.1815246841620198 5:1 21:3 23:6 
-0 -0.655019633611344 2.270845376238649 0 0.3619668976636617 1.550152652201901 0.1790736576873317 7:1 21:3 23:6 
-0.2916519154042546 -0 0 0 0.03175825836782835 0 0.08976934804164369 9:1 16:1 21:3 23:6 
-0.3858658149246482 -4.429654028834407 0.5029228037735209 0.2425637290819485 0.424553800099453 0.2360401851388746 0.1768721970955515 1:2 10:5 13:3 16:1 21:3 23:6 
-0 -2.726775139796803 0.5633443425870095 1.433120959509176 0.4086483542403305 0 0.1726273266318336 11:1 12:1 21:3 23:6 
-0 -0 1.834012733780987 1.550976551804246 0.0115987932582692 0 0.04200667654732335 12:1 16:1 21:3 23:6 
-0.1934561573535303 -3.397922362273206 0 0.1027711915452095 0 0.1486381174903681 0.1690354631073027 10:1 13:3 16:1 21:3 23:6 
-0 -0.3009164786448369 0 0 0 0 0 1:1 14:1 18:1 21:3 23:6 
-0 -8.917931595492901 0.8831824902327511 0 0.09708482350063741 0 0 14:2 18:2 21:3 23:6 
-0 -0 0.3026089687057396 0 0 0 0 6:1 10:1 13:2 14:1 16:1 18:1 21:3 23:6 
-0 -0.3095937911141037 0 0 0 0 0 5:1 14:1 18:1 21:3 23:6 
-0 -0.3027220329028243 0 0 0 0 0 7:1 14:1 18:1 21:3 23:6 
-0.310862005399612 -0.1663224531209147 0.5625618352089932 0.1450090708879433 0.4260460833736505 0.7176378144111282 0.2075373672291257 7:1 14:1 18:1 21:3 
-0.374951675547433 -4.454300445925141 0.5389642550400628 0.2470966743176909 0.4208884510156909 0.2374858739995692 0.1821292415539857 1:2 10:5 13:3 14:1 16:1 18:1 21:3 23:6 
-0 -0.2952378561432774 0 0 0 0 0 11:1 12:1 14:1 18:1 21:3 23:6 
-0 -0 0.05361436308294798 0 0 0 0 12:1 14:1 16:1 18:1 21:3 23:6 
-0.1537246336202886 -2.857209904266456 0 0.005458421320758473 0.09893220452209545 0.09504321497921775 0.06698092644236658 10:1 13:3 14:1 16:1 18:1 21:3 23:6 
-0 -0 4.486707653027323 0 0 0 0 3:1 14:1 17:1 18:1 21:4 23:6 
-0.1303458171358524 -0 0 0 0 0 0 3:1 14:1 17:3 18:1 21:4 23:6 
-0 -0 0 1.115436071592115 0 0 0.2133471186757132 3:1 14:1 17:1 18:1 21:5 23:4 
-0.1971497553402862 -0 0 0 0 0 0 3:1 14:1 17:2 18:1 21:5 23:4 
-0.272237144567982 -0.500040632307452 0 0 0.3217415281577725 0.3158854117117349 0 3:1 14:1 17:3 18:1 21:5 23:4 
-0.7215582058560939 -0 2.966901520438298 0.3948910781535946 1.946765609634 0.6129813263880254 1.095957481346427 3:1 14:1 17:1 18:1 21:6 23:5 
-0 -2.181634877091483 0 0 0 0 0 3:1 14:1 17:2 18:1 21:6 23:5 
-0.822768975140008 -0.8548603512204653 0 0.8515343502602039 0.262164129950695 0.6795570046140754 0 3:1 14:1 17:3 18:1 21:6 23:5 
-3.401408351894962 -2.243166686184476 -1.634656947660449 0 2.015989710470512 0 5.092256769006718 4:1 22:1 
-4.770848846294215 -2.695891081574164 -2.757903731111459 15.72465757301047 2.277059576364804 2.33987495980152 0 12:1 22:1 
-0 -0.8976920729706118 -0.9807396655488699 0 0.622396042339409 2.208861598754087 8.151090973245388 12:1 16:1 22:1 
-0.5188875674360697 -0 -0 0 0.3348981064980012 1.313836319468868 1.259874569130289 15:2 22:1 
-0 -0.4500437036509184 -0.2621794220416477 0 0.3474075815055858 6.504199146956404 0.1933574881263241 4:1 7:1 22:1 
-0.3981233847217743 -2.374828551634995 -0.3425452884645386 0 0.4390258057222875 0.2403886054991832 0.1921384136681708 2:1 15:2 22:1 
-0 -0 -0.8483170720218258 0 0 0 0 3:1 4:1 15:2 22:1 
-0 -0 -0 1.5378945488664 0 0 0 4:1 12:2 15:2 16:1 22:1 
-0 -0 -0 0 0.5277432641376023 0 0 4:1 6:1 12:1 15:2 16:1 22:1 
-0 -0 -0 0 0.04054621721997566 1.946911095693195 0 4:1 7:2 15:1 22:1 
-0.1427907702925497 -0.2408690931717907 -0.01737329881971033 0.1473419892843837 0 0 0 1:2 4:2 7:1 12:1 16:1 22:1 
-0 -0 -1.00529080449386 0 0 0 0 3:2 4:2 7:1 12:1 15:1 16:1 22:1 
-0.7459772324077411 -0 -0.006126904397194237 0 0.07958341489166916 0 0 1:2 4:2 7:1 15:1 22:1 
-1.123707846370118 -0.4470408520815439 -0.6425935905140018 0 0.1700463863258669 0 0.090906833684451 4:1 9:2 15:2 16:1 22:1 
-0 -0.02950281679899587 -0 0 0 0 0 4:2 17:1 21:1 23:1 
-1.012973696400199 -1.23742766789378 -1.153656957468583 0.9061147204723043 0.9163582112525732 0.5440057158569523 0.1360277475137297 4:2 17:3 21:1 23:1 
-0 -2.204599394681605 -3.519762672568962 0 0 0.1284451731595559 0.5623642066579327 4:2 17:1 21:2 23:6 
-1.336654393839037 -0 -0 0.9863244358521599 0.7340479275703302 0.3037656548679898 0 4:2 17:2 21:2 23:6 
-0 -0.3732648668285274 -0 0.1680577598110596 0.4216563796053165 0.6549699891221593 0.07542382015837086 4:2 17:3 21:2 23:6 
-0 -0 -0.4113805027184028 0 0 0 6.678232907634985 21:4 23:6 
-0 -0.4661252482337957 -0.3469295118925577 0.1619829768068947 0.2226817191194098 0.0969851540460509 0.1789043662259418 15:2 21:4 23:6 
-0 -0 -0.4935019930318746 0 0 0 0 12:1 16:1 21:4 23:6 
-0.2209216388692998 -0.09686437592297238 -0.3482992168392481 0 0.2521427860247287 0 0.05661207655348241 12:1 15:2 16:1 21:4 23:6 
-0 -0.2105400777415756 -1.222029952291288 5.138299824133143 0 0 0.04526649541559014 12:1 21:4 23:6 
-0.6078779035391435 -1.034443434579278 -1.212161533549193 0.5740863395871083 0.6834374136583876 0.2750494972927206 0.2994585418500323 4:2 12:1 16:2 21:4 
-0 -0 -0.3256274266226228 0 0 0 0 1:1 16:1 21:4 23:6 
-0 -2.624120756468002 -0 0 0 0 0.1348076523554977 2:1 21:4 23:6 
-0 -0.09241639615820531 -6.268684283457599 0 0 0 0.1332118934272618 3:1 21:4 23:6 
-0.2232640430154441 -0.639088431033509 -1.069174925245999 4.121530267200113 0.4267125760927452 1.076926160444992 0.1974943725156573 5:2 12:1 16:1 21:4 23:6 
-0 -0.113612263682862 -0 0.05244960553598491 8.959959983279749 0 0.1199635529364039 6:2 21:4 23:6 
-0 -0.4098364370210098 -2.534243058579585 0 0.0433674688192975 2.097651252406083 0.1917261223018956 7:1 21:4 23:6 
-8.985900590617332 -0.7705483294253203 -1.764889600772268 0 0.2695179812349908 0 0.203447963883721 1:1 9:1 21:4 23:6 
-0.1861978747559561 -3.465533307439252 -1.200907458012226 0.04220531623015724 0.2885424337372833 0.08102519915705628 0.1209112320766109 2:1 14:2 16:1 18:1 21:4 23:6 
-0.185085557102919 -0.6715774495988882 -4.064874564416682 0.04323100189938013 0.2894187856011605 0.08111563404036268 0.1247909542802188 3:1 14:2 16:1 18:1 21:4 23:6 
-0.4544072827199785 -1.267844617834471 -2.906393973991064 0.2324066597541803 1.573528965454613 0.2422888526918665 0.2226909540047597 6:2 10:1 13:2 16:1 21:4 23:6 
-0.8274898481702155 -0 -0 0.4436582684089892 0.5620131599745304 0 0 4:2 17:3 21:4 23:6 
-0 -0 -0 1.409732120800241 0 0.05987667052179713 0.2142077944671195 4:2 17:1 21:5 23:4 
-0.4020091823066488 -0 -0 0 0 0.03810429791267199 0 4:2 17:2 21:5 23:4 
-0 -0.3655290567954902 -0.3273105698939624 0 0.2055626427174354 0.2657777220060059 0.02207854845280161 4:2 17:3 21:5 23:4 
-0 -0.2576784526638867 -0 0 1.77226316964253 0.3142186668294683 0.5573771874169654 4:2 17:1 21:6 23:5 
-1.094905309110053 -0 -0 0 0 0.01064833674184427 0 4:2 17:2 21:6 23:5 
-0 -0.9261381611056082 -0.9900898085847392 0.5370989051473923 0.1027882042787401 0.624014490946501 0.0243550506543879 4:2 17:3 21:6 23:5 
-2.573573759456357 -1.857087425782335 -1.682826343014717 -8.366887364220725 2.145492578257158 3.009894731599855 2.841933139818797 5:1 12:1 22:1 
-0 -0.2826578978977816 -0.3998885966666634 -0 0.1504198329685014 0.1997721559484338 0.0009185255075719648 5:2 12:1 16:1 22:1 
-0.7187010872725105 -0.8032597980313514 -0.9342384061131357 -9.349898302765007 0.6967365808144877 0 0.4579746988732683 12:2 22:1 
-0 -0.151360795025474 -0.1393925607098721 -0 0.04224231371817466 0.03085261775411078 0 12:3 22:1 
-0 -0.2011171036301172 -0.2232020863946994 -0 0.1288747700369169 0 0 5:2 12:3 16:1 22:1 
-0.5896507223229737 -0.5294722637058987 -0.2909721785581117 -0 0 0 0.6150620332641193 5:1 12:1 17:1 21:1 23:1 
-1.791294354862373 -1.719679474403301 -1.817642287706329 -1.523839933398689 1.555977167022236 2.449644208151842 0.4593611968910516 5:1 12:1 17:3 21:1 23:1 
-1.327082968590269 -6.008529783740259 -2.975065657530574 -1.806686154986511 0.8906393867131553 1.583112511287883 1.92388232968539 5:1 12:1 17:1 21:2 23:6 
-1.464964309666062 -0 -0.005390336874774976 -0 1.203948427956046 1.692834246085651 0 5:1 12:1 17:3 21:2 23:6 
-0 -0 -2.483187009099581 -0 0 0 0 5:1 12:1 17:1 21:3 23:6 
-0 -0 -0.7403066509452035 -6.393514187516286 0 0 0 5:1 12:1 17:1 21:4 23:6 
-1.778503373654217 -1.816710265399564 -2.340791014628471 -2.281638366343563 2.355001264350739 0 3.661803575419512 12:1 21:5 23:4 
-0 -0 -0 -0 0 2.15651103150778 0 5:1 12:1 19:1 21:5 23:4 
-0.1310607403224468 -0.3102878124291034 -0.40187641242218 -1.29486979050952 0.08745704789100502 0.1341971007531878 0.2302893932448223 5:2 12:1 16:1 21:5 23:4 
-0 -0.07887381415509451 -0 -0.1860968802291048 0 0 0 12:3 21:5 23:4 
-0 -0.01146078791963432 -0 -0 0 0 0 5:1 12:3 19:1 21:5 23:4 
-0.4816372049259557 -0.5331763993443973 -0.4317624632443456 -0.566283698374981 0.2928930760647791 0 0 5:2 12:3 16:1 21:5 23:4 
-0.2556998379906538 -0.08433457631662361 -0 -0 0 0.4480441319658995 0 5:1 12:1 17:3 21:5 23:4 
-0.07935263827783333 -0 -0 -0 1.405319555186168 0.5079079911623574 0.3189837569399626 5:1 12:1 17:1 21:6 23:5 
-1.755032084297167 -1.653763504763326 -1.42591780932087 -0.4573576344559843 1.039063034299735 1.819651226931562 0.5022960649220307 5:1 12:1 17:3 21:6 23:5 
-4.921421954032288 -3.873963554086997 -3.833864522977036 -5.150839669163929 -2.333988319232658 3.415953391504102 4.032403331239243 6:1 22:1 
-0 -0 -0 -0.04780536395717382 -0 0.2635295575219456 1.004542716598002 6:1 10:1 13:1 16:1 22:1 
-0.9807906898148784 -0.5936958973297602 -0.3242588702116094 -0.2045180484500884 -0.09177532411288414 0 0 6:1 10:2 13:2 16:1 22:1 
-0.672760533816177 -1.044375834328652 -0.903251856982524 -0.6298782522854607 -0.3574569124891041 0.4568515596237422 0.2926497203481924 6:1 10:2 13:4 16:1 22:1 
-0 -0.1384403624284681 -0.2162356974485635 -0.3005933582967447 -0.2069956368303854 0.09792338888589175 0 6:2 10:2 13:4 16:1 22:1 
-0 -0 -0 -0 -0 0.2984121078411539 2.046816877778044 6:1 16:1 20:1 22:1 
-0.5267520850865627 -0.5754777030252158 -0.5674845527959712 -0.6631816253729373 -0.3121390277053164 0.2826537132179532 0 6:1 16:1 20:2 22:1 
-0.07893361641696572 -0.451013730088213 -0.4727214156233231 -0.3671943588814098 -0.2298606969922118 0.1781231143729232 0 6:1 13:2 16:1 20:2 22:1 
-1.147572966498949 -1.31408554501202 -1.284937591405046 -1.064149506651586 -1.166721240260682 0.9504426403991139 0.2145341322933887 6:2 17:3 21:1 23:1 
-1.018351052607453 -2.141027626746894 -1.646353283768805 -1.463404131723278 -0.8128732305281364 0.7884477098673447 1.330351408507147 6:2 17:1 21:2 23:6 
-0.9744401963507691 -0.5716491489845881 -0.6106703993279706 -0 -0.9073126543945063 0.766804730399152 0 6:2 17:3 21:2 23:6 
-0 -0 -0.1503905863664172 -0.1486299057757391 -0 0 0 6:2 17:1 21:3 23:6 
-0 -0 -0.5262408010165545 -8.695969536861746 -0 0 0 6:2 17:1 21:4 23:6 
-0.3240274385620359 -0.1496489325894617 -0.1037830423064991 -0 -0.9154087564342887 0.1984591264389596 0.4819942536936427 6:2 17:1 21:5 23:4 
-0.3281912701101252 -0.4315865669831647 -0.4450446878832912 -0 -0.06007337559235586 0.2822896639211714 0 6:2 17:3 21:5 23:4 
-0.6599810273332656 -0.4827675891975686 -0.553468286297325 -0.6860020732102424 -0.904989301682453 0.4661818180776867 1.649859066897092 10:1 13:1 21:6 23:5 
-0.3639690958702493 -0.5071388169519444 -0.4925544819099336 -0.4474943493927366 -0.1660500098821295 0.2470412317540938 0 10:2 13:4 21:6 23:5 
-0.07989939730369501 -0.2586104824569975 -0.3952294208260007 -0.07263104346057837 -0.09678272766287516 0.06218986625253843 0.08283221264881482 10:1 13:1 16:1 21:6 23:5 
-0.1395380408377775 -0.1659150935444388 -0.2337508176524976 -0.1474887387616727 -0.107464591182915 0.09200647861119574 0.02869334069223604 10:2 13:4 16:1 21:6 23:5 
-0 -0 -0 -1.02992808304683 -0 0 0 6:2 10:1 13:1 16:1 21:6 23:5 
-0 -0.002869153144974678 -0.06276960632066386 -0 -0 0 0 6:2 10:2 13:2 16:1 21:6 23:5 
-0.5072845984947784 -0.6736387665409272 -0.6826563363788292 -0.7948860400921209 -0.3532019449271979 0.344938353325288 0.2704774188618366 6:2 10:2 13:4 16:1 21:6 23:5 
-1.402485214009676 -1.173001417251879 -1.292174398907878 -1.531532459305146 -1.786909150162875 1.013305278856734 3.176279010058813 20:1 21:6 23:5 
-0.3621616826956174 -0.1950328640189887 -0.263745375459225 -0.1909051546063072 -0.3479182149003666 0.2442321105871288 0.2048257833193088 16:1 20:1 21:6 23:5 
-0 -0 -0 -0.538033636605101 -0 0 0 6:2 16:1 20:1 21:6 23:5 
-0 -0.07246710053335056 -0.03415113809605903 -0 -0 0 0 13:2 20:2 21:6 23:5 
-0 -0.08848120975654539 -0.02765629471178227 -0 -0 0 0 16:1 20:2 21:6 23:5 
-0.002476834915448716 -0.06520547711508948 -0.1049152063011619 -0.01555127528697575 -0 0 0 13:2 16:1 20:2 21:6 23:5 
-0 -0.15386009874337 -0.06091685419291389 -0 -0 0 0 6:2 16:1 20:2 21:6 23:5 
-0.2509428178938304 -0.3112669178185113 -0.3518021002965789 -0.3880793023517309 -0 0.1540336759857856 0 6:2 13:2 16:1 20:2 21:6 23:5 
-0 -0 -0 -0 -0 0 0.2361236225057189 6:2 17:1 21:6 23:5 
-1.037993054086843 -0.9686212919626889 -0.8372603058150396 -0 -0.8361439203057623 0.8042880021737698 0.1858355127702087 6:2 17:3 21:6 23:5 
-0.317153109036299 -3.523187197402375 -3.617525839004159 -10.60955902563849 -1.629078961477121 -3.49071172800863 4.67702275625395 7:1 22:1 
-7.214995379355994 -0.2816283378184961 -0.1129262624004799 -0 -0 -0 0 1:1 7:1 22:1 
-0 -0 -0 -0.4913093030797033 -1.273639681996441 -0.1499792108678048 0 5:1 7:1 19:1 22:1 
-0.2328827756934411 -0.2705182746541381 -0.3584030005973705 -0 -0.2488587257728646 -0.2573666491705368 0 1:1 5:1 7:1 19:1 22:1 
-0.01390461472376659 -0.01032299637389487 -0.04630572834119093 -0.09578325209262703 -0 -0.081631063152869 0.02743323430480433 7:1 19:1 22:1 
-0 -0 -0 -0 -0 -0 1.025121591675082 1:1 7:1 16:1 22:1 
-0 -0 -0 -1.383441593872523 -0 -0 0 1:1 7:1 15:1 16:1 22:1 
-1.122997058646758 -1.161539511099628 -1.228510344970413 -1.218673804640303 -0.6893069422963075 -1.070320955392706 1.49384759142441 1:1 7:1 15:1 16:2 22:1 
-0.3426054128324999 -0.524006928108549 -0.3087545213550235 -0 -0 -0 0.5398224932727071 5:1 7:1 17:1 19:1 21:1 23:1 
-1.641711784360415 -1.533483282349197 -1.607406668822497 -1.425698721745688 -2.455628243421726 -1.412110998427451 0.4379899409346169 5:1 7:1 17:3 19:1 21:1 23:1 
-1.26581128521767 -3.583333368308455 -2.444153038899431 -1.257018778777082 -1.630305022987663 -1.030076511560641 1.684785128268749 5:1 7:1 17:1 19:1 21:2 23:6 
-1.220155304865138 -0.3906518600639454 -0.5602319316798837 -0.7198751469853178 -1.668097467644824 -0.9977912316449237 0.007295947755525813 5:1 7:1 17:3 19:1 21:2 23:6 
-0 -0 -1.218127341188034 -1.94857063826222 -0 -0 0 5:1 7:1 17:1 19:1 21:4 23:6 
-0.4713416841704459 -0.4709681823118442 -0.6401971125960157 -0.4566105059422507 -2.018753031523285 -0.3470165108921908 0.5795042160362651 5:1 7:1 17:1 19:1 21:5 23:4 
-0.3381565407532972 -0.3264671517067101 -0.204435695894218 -0.2037913708861807 -0 -0.3032831881282345 0 5:1 7:1 17:3 19:1 21:5 23:4 
-0.9587062246120256 -0.8891562188018012 -0.5938821869483153 -0.9492205767760142 -0.819140671788544 -1.697757966062977 1.335763874258345 5:1 7:1 17:1 19:1 21:6 23:5 
-1.061214607347295 -1.020446328057932 -0.98766414154787 -0.6893874755189364 -1.599613204239787 -0.5700615063087078 0.01906207393883609 5:1 7:1 17:3 19:1 21:6 23:5 
-2.068642860197714 -1.614268028006798 -2.126043961733288 -3.031294517762956 -1.323351692002591 -2.05591614943741 -1.796904130490521 8:1 22:1 
-5.35070135299559 -4.075310516146864 -3.841665277344792 -10.91600818440836 -2.091205216198418 -4.921043295124123 -4.90714798470994 16:1 22:1 
-3.580610722017696 -2.862465577991626 -1.750029395395123 -0.8857766279202157 -1.071800073446174 -0.7897873883786639 -0.9955667953916739 8:1 21:1 23:1 
-2.483616002044893 -8.379407970001425 -2.920154025204842 -1.720311306725405 -2.150502108493762 -1.871092877378956 -1.928796542768076 8:1 21:2 23:6 
-0 -0 -4.160802070891187 -0 -0 -0 -0 8:1 21:3 23:6 
-0 -0 -1.535331656537289 -6.711648869752267 -0 -0 -0 8:1 21:4 23:6 
-0.8656639140257821 -0.9363825558700342 -1.03237423618911 -0.6046464879300779 -3.276369107984304 -0.6421985732044007 -0.6541561666628745 8:1 21:5 23:4 
-1.872370087003318 -1.612275412870804 -1.175576137099243 -1.409292493145426 -1.099276516441275 -4.958180124688133 -1.545077228100206 8:1 21:6 23:5 
