svm_type c_svc
kernel_type rbf
gamma 0.03125
nr_class 8
<<<<<<< HEAD
total_sv 259
rho -0.337951 -0.618042 -0.760369 0.0185091 -0.0758918 -0.372083 -0.335651 -0.317759 -0.140847 0.480043 -0.0424914 -0.113141 -0.257821 -0.0713196 0.806257 0.40639 0.0303917 0.28795 -0.22463 0.429918 0.0797615 -0.0720904 -0.811877 -1.05759 -0.338653 -0.208136 -0.129784 -0.0310654
label 10 -2 1 0 -1 -3 2 -4
probA -4.23978 -4.46826 -3.5509 -4.27649 -3.7838 -3.70839 -3.84354 -4.04504 -3.4314 -3.9403 -3.46211 -3.38496 -3.37289 -3.52653 -3.89702 -3.59996 -3.44216 -3.57277 -2.9953 -2.90188 -2.77769 -2.46336 -3.43772 -1.93522 -3.8104 -2.81638 -2.88753 -2.73602
probB -0.39292 -0.196909 -0.343845 0.688703 -0.658329 -0.950147 -0.71475 0.0948413 -0.357919 0.711361 -0.483318 -0.609086 -0.446352 -0.714073 0.317118 -0.544058 -0.700855 -0.473836 0.687764 0.049847 -0.0330316 -0.126442 -0.845826 -0.952504 -0.792535 -0.104199 -0.0695139 0.0242761
nr_sv 48 38 53 13 70 16 10 11
SV
0 0.750225273792492 0 0 0.7981020907342191 0 0.09959957290493759 2:1 20:0 33:1 37:1 48:1 60:0 62:1 80:1 
0 0 6.461480160150492 0 0 0 0 2:1 20:0 53:1 57:1 68:1 80:0 88:1 100:1 
0 0 0 0 3.021857815316247 0 0 2:1 20:0 42:1 
0 0 5.101412953065263 0 0 0 0 2:1 20:0 53:1 57:1 68:1 80:0 100:0 
0 0 0 0 0 0 2.977533293955109 2:1 80:0 93:1 100:0 
0 0.2861974878226164 0 0 0 0 0 2:1 20:0 33:1 37:1 48:1 60:0 75:1 80:0 93:1 100:0 
0.502691346188383 0 0 0 0 0 0 2:1 62:1 80:0 88:1 100:0 
0 0 4.236861778694409 0 0 0 0 2:1 20:0 53:1 57:1 62:1 80:0 88:1 100:0 
0 0.03658142986137779 0 0 0 0 0 2:1 20:0 33:1 37:1 42:1 60:0 68:1 80:0 95:1 100:0 
0 0 0 0.770794821549407 0 0.1881375274999709 0.4563775071885166 2:1 20:0 40:0 48:1 60:0 75:1 80:0 93:1 100:1 
22.68092122014481 1.70012416344474 11.18937984775424 0 0 0.553430853979511 0 17:1 68:1 80:0 82:1 100:0 
0 1.740870292828124 0 0 0 0 0 2:1 20:0 21:1 33:1 37:1 42:1 60:0 68:1 80:1 
2.259127085994403 0 0 0 0 0 0 1:1 13:1 17:1 68:1 80:0 82:1 100:0 
0 1.40611017811518 0 0 0 0 0.3142913724985759 2:1 20:0 21:1 33:1 37:1 48:1 60:0 62:1 80:1 
0 0 0 0 0.551518864900845 0 0 2:1 20:1 28:1 40:0 42:1 60:0 
0.5468314321532473 0 0 0 0 0 0 1:1 13:1 17:1 80:0 82:1 100:0 
0 0 0 3.977626114171849 0 0.6830007094260899 0 2:1 20:0 21:1 33:1 37:1 60:0 68:1 80:1 
0 0 0.004827529967390219 0 0 0 0 1:1 13:1 17:1 80:0 88:1 100:0 
0 0 0 2.696383900970886 0 0.1259629489585603 0 2:1 20:1 40:0 48:1 60:0 
5.507740372840425 0 0 0 0 0 0 1:1 13:1 17:1 62:1 80:0 88:1 100:0 
0 2.160658597336558 4.895326455179042 0 0 0.1023713215675035 0 2:1 20:0 41:1 53:1 57:1 68:1 80:0 88:1 100:1 
0 0.8745705365067931 5.854177174572396 0 0 0.43995767746185 0 2:1 20:0 41:1 53:1 57:1 62:1 80:0 88:1 100:1 
0.3285884365834115 1.030325003120006 0 0 0.6568398802902279 0.3877829285421535 0 2:1 20:0 21:1 33:1 37:1 42:1 60:0 68:1 80:1 88:1 100:1 
1.525891340278785 1.221631948776863 0 6.050862984789584 0 0.9363775818478397 0 2:1 20:1 28:1 40:0 48:1 60:0 62:1 80:1 
0.1198851054366873 0.1490970058174256 0 4.069638843356354 0.3653151881779497 1.059932188742843 0 2:1 20:1 28:1 40:0 42:1 60:1 
1.913513348541445 0 0.9897672542944232 0.6709011285824984 0 0 0 1:1 13:1 17:1 80:0 88:1 100:0 
9.759794653537947 0 0 0 0 0 0 1:1 13:1 17:1 68:1 80:0 88:1 100:0 
0 1.65515211574294 0 2.92802358358982 0 0.2249717797745719 0 2:1 20:1 28:1 40:0 48:1 60:1 
10.12197215621521 0 0 0 0 0 0 1:1 13:1 17:1 62:1 80:0 82:1 100:0 
0 0 6.361749761060608 0 0 0 0 2:1 20:0 41:1 53:1 57:1 62:1 80:0 88:1 100:0 
0 0.7383140359619156 0 0 0 0 0.02512024632413747 2:1 20:0 21:1 33:1 37:1 48:1 60:0 75:1 80:0 93:1 100:1 
3.55874344061019 0 0 0 0 0 0 1:1 13:1 17:1 68:1 80:0 82:1 100:0 
0 0.8169027643771885 0.563432043008792 0 1.513422840116198 0 0.1969640288669233 2:1 20:0 28:1 40:0 42:1 60:0 75:1 80:0 93:1 100:0 
0.7170152565543607 0 0 3.975153355963847 0.3382885123327097 0 0.9938426164120038 1:1 13:1 17:1 80:0 82:1 100:0 
3.370959076061114 3.200789114603857 2.520652856157766 1.552494246157642 1.052994228072836 0.5977411210214327 0.1287830285808756 17:1 62:1 80:0 95:1 100:0 
0 0 0 0.5957452312313923 0 0 0 2:1 20:0 57:1 75:1 80:0 81:1 100:0 
0 0.4128402624925805 0 0 0 0 0 2:1 20:0 53:1 57:1 62:1 80:0 95:1 100:0 
0 0.1613849628378458 0 0 0.7098541476120105 0 0 2:1 20:0 33:1 37:1 42:1 60:0 75:1 80:0 81:1 100:0 
0 2.126906947514978 4.014026947934572 12.04840599492355 2.798284519324112 3.020547358209032 1.098732103935122 1:1 20:0 22:1 40:0 55:1 60:0 69:1 72:1 80:0 89:1 100:1 
0 0 0.9588431484804041 0 0 0 0 2:1 20:1 36:1 40:0 53:1 57:1 60:0 101:1 
0 0.4970849301942315 0.1282613999025236 1.839892622229646 0 0.3924177451669226 0 2:1 20:1 36:1 40:0 53:1 57:1 60:1 101:1 
0 0 0 1.668294958494168 1.286107802393891 0 3.07197925696794 17:1 68:1 80:0 101:1 
4.20182714472901 5.806446499103448 1.581802392657196 4.18022181787846 0.8001849490152395 0.3047309161874693 1.263669586871414 17:1 68:1 80:0 88:1 100:1 101:1 
0 0 0 0 0 0 0.002589139538255785 2:1 68:1 80:0 95:1 100:0 101:1 
0.002055871946678606 0.1038244517553806 0 0 0 0 0 2:1 20:1 36:1 53:1 57:1 60:0 101:6 
0.4160379366377796 0.2304387100929903 0 3.757012511793729 0.3691182715135417 0.4033686079223159 0.3371750769729418 2:1 20:1 36:1 40:0 53:1 57:1 60:1 101:6 
3.782235355203269 0.1106022082434941 0 8.345229657106508 3.303116551940798 0 2.510603147161244 2:1 20:1 36:1 53:1 57:1 60:0 101:6 
0 0 0 0 0 0 1.151479620592071 2:1 20:1 36:1 40:0 53:1 57:1 60:0 101:4 
-2.685064217375698 0 0 0 0 0 0 13:1 17:1 68:1 80:0 82:1 100:0 
-2.572429425815468 0 0 0 0 0 0 13:1 17:1 62:1 80:0 88:1 100:0 
-13.93847424702995 1.681754452423639 0 0.3900227881840769 0 0.1363986095869981 0 13:1 17:1 68:1 80:0 88:1 100:0 
-0.01129602918990802 0 0 0 0 0 0 13:1 20:0 22:1 60:0 80:0 100:1 
-0 1.621207758925176 6.40140750471966 20.14005487363162 0.7780103437019618 0 0 13:1 20:1 28:1 40:0 60:0 80:1 
-5.211913608808823 0.03572384441456708 1.536766294369744 1.092712963336474 0 0.1861673452247762 0 13:1 17:1 62:1 80:0 88:1 100:0 
-0.4065133361915307 3.095783049785574 1.981014533404142 9.71514431339584 0.8029952220663129 3.640574278677551 0.6741576156056398 13:1 20:1 40:0 60:1 80:1 
-1.558176978163074 5.883283796938576 7.012452652658321 0.3230500912811279 4.699057630933352 1.639082886672766 1.74035641674335 13:1 20:0 22:1 60:0 80:0 100:1 
-0.07514236720548463 0 5.122873095645515 0 3.134881203384356 0.3285485496142799 2.198868812907878 13:1 20:0 28:1 40:0 55:1 60:0 73:1 77:1 80:1 100:1 
-0 0 0 0 0 0.2465790664447877 0 13:1 20:1 28:1 40:0 55:1 60:0 80:1 87:1 100:1 
-1.852876011812752 0 0 0 0 0.2634875422591313 0 13:1 20:1 28:1 40:0 55:1 60:0 80:1 95:1 100:1 
-25.14774297374413 0.9793645104400939 1.600221964530891 0.5214562141928711 0.1311792734377359 0.2564776829955715 0.3743174412279526 13:1 17:1 68:1 80:0 82:1 100:0 
-0 0 0 2.548105171121406 0 0 1.479416582034438 13:1 17:1 80:0 82:1 100:0 
-0 0 0 1.70391099775194 0 0 0 13:1 17:1 80:0 88:1 100:0 
-0 0 0 1.43059453096856 0 0 0 13:1 20:1 22:1 40:0 55:1 60:0 80:1 95:1 100:1 
-0 0 0 0 0 0.2670581043742231 0 13:1 20:0 22:1 40:0 55:1 60:0 72:1 80:1 100:1 
-0 0 0 1.24670241392085 0 0.03735137137485647 0 13:1 20:1 22:1 40:0 55:1 60:0 64:1 80:1 86:1 100:1 
-0.02439453367427763 0.2758738363882469 0 0 0.2582611710556584 0 0 13:1 20:0 22:1 40:0 55:1 60:0 61:1 80:0 95:1 100:0 
-0 0 0 0 0 0.2897540920278556 0 13:1 20:1 28:1 40:0 55:1 60:0 80:1 90:1 100:1 
-11.84995959244055 0.9728614769012873 0 0 0 0.1293841099370432 0 13:1 17:1 62:1 80:0 82:1 100:0 
-0 0 0 0 0 0 0.5028828544442798 13:1 17:1 20:0 36:1 56:1 60:0 62:1 80:1 101:1 
-0.5326080907621328 0 0 1.280274402894217 0 0 0 13:1 17:1 20:1 36:1 40:0 56:1 60:0 62:1 80:1 101:1 
-0 0 0 0 0 0 0.0538808314525198 13:1 17:1 80:0 101:6 
-0 0 0 0 0.03768714984778267 0 0 13:1 17:1 80:0 100:0 101:6 
-0.9746938589892699 0.2673691793454428 0.1986958072908011 7.65358730605859 0 0.2243805438259574 2.136285496795048 13:1 20:0 55:1 80:0 88:1 100:1 101:6 
-0.6308787854801953 0.4812678031094875 0 0.2801252405491379 2.328125563258308 0 0.6133892151444598 13:1 20:0 55:1 80:0 88:1 100:0 101:6 
-0 0.9633000700464206 0 0 0 0 0 13:1 20:1 28:1 40:0 55:1 60:0 80:1 101:1 
-0 0 0 1.360449973558987 3.093326536867191 0 2.087332337874875 13:1 17:1 80:0 100:0 101:6 
-0.4587834963340351 0 0 0.7540187088868227 0.4929713560650871 0 0.3767424559452988 13:1 17:1 66:1 80:0 100:0 101:6 
-0.5482589771572308 0 0.1485606374876572 7.284993149791207 0.2710832318362631 0.1702204526976978 0.6286371828566015 13:1 17:1 80:0 87:1 100:1 101:6 
-0 0 0 0 0 0 0.006803216531281073 13:1 17:1 80:0 95:1 100:0 101:6 
-0.6694943538744175 0.06138590370029981 0 1.27679183735645 0.7295053048095702 0.1190824863678716 0.381673333346993 13:1 17:1 61:1 80:0 95:1 100:0 101:6 
-0.3361663138083127 0 0 0 0 0 0 13:1 17:1 80:0 95:1 100:0 101:6 
-0 0 0 0 0.4378203564466774 0 0 13:1 17:1 20:0 36:1 56:1 60:0 62:1 80:1 101:6 
-1.830963381799944 0 0.398019614779232 2.097107893367356 0.04648690249333495 0.2783832582072623 0 13:1 17:1 20:1 36:1 40:0 56:1 60:0 62:1 80:1 101:6 
-0 0 0 1.75390326640562 0.09517859043526511 0 0 13:1 17:1 20:0 56:1 62:1 80:1 101:6 
-0 0.38953217274355 0 0 0 0 0 13:1 17:1 20:0 56:1 62:1 80:1 101:4 
-0 0.3467729238552995 0 0 0 0 1.720341251190383 13:1 17:1 20:0 36:1 56:1 60:0 62:1 80:1 101:4 
-0 -0.7140527089762505 0 0 0 0 0.06701751392136845 8:1 20:0 53:1 57:1 62:1 80:0 82:1 100:1 
-0 -0 0 0 1.192466397301055 0 0 8:1 20:0 22:1 42:1 60:0 68:1 80:1 
-0 -0 1.604873491424227 0 0 0 0 8:1 20:0 53:1 57:1 68:1 80:0 82:1 100:1 
-0 -0.8970773269219631 0 2.945230153289158 0 0 0.1069910229721519 8:1 20:0 33:1 37:1 60:0 68:1 80:1 82:1 100:1 
-0 -0 1.511890627674072 0 0.7265187391070889 0 0 8:1 20:0 22:1 48:1 60:0 68:1 80:1 
-0 -0.02202643561419344 0 0 0 0 0 8:1 20:1 28:1 40:0 48:1 60:1 
-0 -0 0 0.565255902764123 0 0 0 8:1 20:0 53:1 57:1 68:1 80:0 88:1 100:1 
-0 -0 0.04915516285230672 0 0 0 0 8:1 20:0 33:1 37:1 48:1 60:0 68:1 80:1 82:1 100:1 
-0.1965600364935193 -0.02980086236912519 0 0 0 0 0 8:1 20:1 28:1 40:0 48:1 60:0 62:1 80:1 
-0.1512575546313487 -0.05151505304025653 0 0 0 0 0 8:1 20:0 22:1 42:1 60:0 68:1 80:1 88:1 100:1 
-0 -0 0.05784726837182896 0 0 0 0 8:1 20:0 22:1 40:0 42:1 60:0 68:1 80:1 88:1 100:1 
-0 -0 5.292823243695676 0 0 0 0 8:1 20:0 53:1 57:1 68:1 80:0 88:1 100:0 
-0.6014145751360886 -0.4264232798988327 1.244286467711861 0 1.439601491164599 0 0.472381289253044 8:1 20:0 28:1 40:0 48:1 60:0 62:1 80:1 82:1 100:1 
-0 -0 2.502071185086384 0 0.1697689548450112 0.01861046760045583 0 8:1 20:0 42:1 80:0 93:1 100:1 
-0 -0 0 3.30175915594405 1.675730829684837 0.7604507154287911 0 8:1 20:0 42:1 80:0 100:1 
-0 -0 0 0 1.470704350915271 0 0 8:1 20:0 33:1 37:1 42:1 60:0 80:0 100:1 
-1.090544805248223 -0 0 0 0 0 0 8:1 20:0 42:1 75:1 80:0 93:1 100:0 
-1.074580023452345 -0 0.18352943801203 0 0 0 0 8:1 20:0 53:1 57:1 62:1 80:0 95:1 100:0 
-1.315421937690067 -0.9630237766314046 1.197938751342037 1.222601795883127 1.829594809967203 0 0 8:1 20:0 22:1 40:0 42:1 60:0 75:1 80:0 93:1 100:1 
-0 -0 3.1063025710667 0 0 0 0 8:1 20:0 53:1 57:1 62:1 80:0 82:1 100:0 
-0 -0 0 0.02162934473323418 0 0 0 8:1 20:0 40:0 42:1 60:0 75:1 80:0 93:1 100:1 
-1.924823432350009 -0 0 0 0 0 0 8:1 20:0 33:1 37:1 60:0 62:1 80:0 95:1 100:0 
-0.462207391718594 -0.003858806539418792 0 0 0 0 0 8:1 20:0 57:1 62:1 80:0 82:1 100:0 
-0 -0.7464580404529875 1.902290507296195 2.919978092183706 0.2011345885062755 1.344225447110589 0 8:1 20:0 41:1 53:1 57:1 62:1 80:1 
-0 -0.8500648072292307 0 0 0.398947367834094 0 0 8:1 20:1 22:1 40:0 42:1 60:0 
-0.06387654646769748 -0 0 0 0 0 0.5205949929134118 8:1 20:0 41:1 53:1 57:1 62:1 80:0 82:1 100:1 
-0 -0 0 0.6419047207517581 0 0.5270222586095946 0 8:1 20:1 40:0 42:1 60:0 
-0.1732956389230223 -0.2520651111929642 0 0.1079485816978388 0 0 0 8:1 20:0 21:1 33:1 37:1 60:0 62:1 80:1 
-1.989457749576777 -0 0 0 0 0 0 8:1 20:0 21:1 33:1 37:1 42:1 60:0 68:1 80:1 
-0 -0 1.235877650684978 0 0 0 0 8:1 20:1 22:1 40:0 48:1 60:0 
-0 -0 0.7745363640706806 0 0 0 0 8:1 20:0 41:1 53:1 57:1 68:1 80:0 82:1 100:1 
-1.551260390076449 -0 0 0 0.2992637170411971 0 0 8:1 20:0 21:1 33:1 37:1 48:1 60:0 62:1 80:1 
-0 -0.7300260532201496 0 0 0 0.03258117709024718 0 8:1 20:1 22:1 40:0 42:1 60:0 68:1 80:1 
-0.7473200782395395 -1.944675544523879 0.4753709466284756 11.95329014150935 0.5368285729693935 1.016748290841268 0 8:1 20:1 22:1 40:0 48:1 60:1 
-0 -0 5.669808917008922 0 0 0 0.1452520642779875 8:1 20:0 41:1 53:1 57:1 68:1 80:0 82:1 100:1 
-0.1973546320590313 -0 0 0 0 0 0.0862220878028232 8:1 20:0 21:1 33:1 37:1 48:1 60:0 62:1 80:1 82:1 100:1 
-0.8345415707381446 -0.4530356753345644 0 0.8176323535787777 0 1.208186004434905 0.5714373079726792 8:1 20:0 21:1 33:1 37:1 60:0 68:1 80:1 82:1 100:1 
-0 -0 0 2.786058224896835 0 0.3584111859895124 0 8:1 20:1 40:0 48:1 60:0 62:1 80:1 
-2.502059977839537 -0 7.863259831679652 0 0 0.1751998609064915 0 8:1 20:0 41:1 53:1 57:1 68:1 80:0 88:1 100:1 
-0.1530461540039089 -0 0.4765349870533142 0 0 0 0 8:1 20:0 21:1 33:1 37:1 48:1 60:0 68:1 80:1 82:1 100:1 
-0.8849658435138549 -0.8252915058073226 0 0 0 0 0 8:1 20:1 28:1 40:0 48:1 60:0 62:1 80:1 
-0.3028782030496265 -1.138078222793626 0.0635941145721334 1.640016927486553 0.7953716899591668 0.06718479432511949 0 8:1 20:0 22:1 40:0 42:1 60:0 68:1 80:1 88:1 100:1 
-2.189353995775979 -0.9561505434568049 0 5.216471459999629 0 1.092667209006318 0 8:1 20:1 28:1 40:0 48:1 60:1 
-1.018577484954495 -0 0.04957700288680555 0 0.11027909172466 0 0 8:1 20:0 41:1 53:1 57:1 62:1 80:0 95:1 100:0 
-0.09000476003074032 -0 0.7259253219404487 0 0 0 0 8:1 20:0 41:1 53:1 57:1 62:1 80:0 82:1 100:0 
-0 -0 0 0.1368835849020603 0 0.5054388213985466 0 8:1 20:0 40:0 42:1 60:0 75:1 80:0 93:1 100:1 
-0.6264959006680146 -4.829601429400989 0 5.28498378490409 0.6974583427541076 0.1655384108508548 7.14386249994071 8:1 101:1 
-6.749658396565147 -1.222255595613696 0 0 0 0.4242722328844768 0.416432242569333 8:1 68:1 80:0 88:1 100:1 101:1 
-0.3261218411408676 -0 0 0 0.9962689018895242 0 0.3103862343106105 8:1 20:1 28:1 48:1 60:0 101:1 
-0 -0 0.4071512013909793 0 0.4440221268125971 0 0.04819839451316039 8:1 20:0 57:1 101:1 
-0 -0 0 0.562521735285915 0 0 0 8:1 20:0 57:1 68:1 80:1 101:1 
-0 -0 0 0 0.273648317442663 0 0.1136911873006994 8:1 20:1 37:1 48:1 60:0 101:1 
-0 -0 0 0 0 0.01777404098699978 1.635383423886804 8:1 20:0 42:1 75:1 80:0 93:1 100:1 101:1 
-0 -0 -0 0 0 0 0.6574250922772453 20:0 53:1 57:1 68:1 80:0 82:1 100:1 
-8.025877893691961 -0 -1.642882195319069 0 0 0 0 20:0 53:1 57:1 68:1 80:0 88:1 100:1 
-0 -0 -0.009640337738544599 0 0 0 0 20:0 42:1 73:1 80:0 100:0 
-0 -0 -0 8.683834766234114 25.22492809489722 0 0 20:0 22:1 48:1 60:0 73:1 80:1 100:1 
-4.476909822484926 -5.288710936618261 -4.814921776434983 25.53505281239306 1.425175797621341 2.007404761813874 2.317970231781965 20:0 22:1 40:0 48:1 60:0 80:1 93:1 100:1 
-1.630493023648176 -9.668141595702252 -0.9615209992809697 18.6465932906215 1.617530558179625 2.842422387706944 1.556339866039059 20:1 28:1 40:0 60:0 73:1 80:1 100:1 
-6.685251156652905 -3.879306396000856 -2.550481250753762 0.4578395347744785 4.935855966260371 1.201325398162685 4.043526780249095 20:0 42:1 73:1 80:0 100:0 
-4.833778178246205 -2.224837473510321 -3.314130090678645 8.077320702700344 0 0 0.3760564423568745 20:0 53:1 57:1 62:1 80:0 88:1 100:0 
-11.69093932042582 -2.76211792546692 -6.138981855726672 8.492552960845039 0 0 1.43743974011811 20:0 53:1 57:1 68:1 80:0 82:1 100:0 
-3.369843431281234 -0 -0 0 0.3183831392585622 0 0 20:0 41:1 53:1 57:1 62:1 80:0 88:1 100:1 
-0 -0 -7.654575738862218 0 0.3215894281348458 1.207319215142767 0.276544775374118 20:0 41:1 53:1 57:1 68:1 80:0 82:1 100:1 
-5.915810864242748 -0 -6.636865413199638 0 0.02249601974284014 0.03788510347721159 0 20:0 41:1 53:1 57:1 68:1 80:0 88:1 100:1 
-8.233098012205538 -0.5768977775873526 -2.670645394455205 0.7382780118260138 0 1.277909054332039 0.2300426354446291 20:0 41:1 53:1 57:1 62:1 80:0 88:1 100:0 
-0 -0 -0 -11.82653767856328 0 5.117566245695595 1.202191067532211 20:0 40:0 53:1 60:0 80:1 100:1 
-0 -0 -0 -0 0 0.8127617295097067 0.1463644196095543 20:1 33:1 40:0 60:0 80:1 
-0 -0 -0.00516398769860501 -0 0 0 0 20:1 40:0 60:1 
-9.62484699586334 -2.323613622892573 -13.63943075165987 -32 11.58861222066918 2.54699452037042 1.2601434095438 20:0 22:1 48:1 60:0 80:1 100:1 
-5.315712418632168 -17.60605920296346 -3.014474140951177 -15.00363090629039 0 1.784734239170435 0.6938803661732275 20:1 28:1 40:0 60:0 80:1 
-6.710519315901511 -5.212293459286451 -5.614268889543689 -0 1.050172361883689 0 1.288333593974481 20:1 40:0 60:1 
-5.072616739227139 -0.03077143119422936 -0 -0 0 0 0 1:1 20:1 40:0 60:1 
-1.331622847786678 -13.07161362793614 -0 -0 0 0 0 13:1 17:1 20:1 35:1 40:0 53:1 60:0 80:1 
-1.690816305479442 -0 -2.71811815547203 -6.069237020641806 0 0 0 20:1 33:1 40:0 53:1 57:1 60:1 
-0 -0.06990180439326761 -0 -0 0 0 0 12:1 20:1 26:1 40:0 60:1 75:1 80:1 89:1 92:1 100:1 
-0 -0 -0 -0 1.544275282353955 0 0 15:1 20:1 40:1 52:1 60:1 69:1 72:1 80:1 
-0.5953431898040443 -0 -0 -0.1046464398031269 0 0 0.1201685960400158 9:1 12:1 20:1 32:1 40:1 55:1 60:1 
-0.9010482501902248 -0.01393457435163879 -0.2137398932906909 -0 0 0 0 20:1 33:1 40:0 45:1 60:1 
-0 -0.03832880843149959 -0 -0 0.2398952787180521 0 0 15:1 20:1 33:1 40:1 60:1 68:1 80:1 
-0.7047930961205102 -0.5356158489140785 -11.77160317821572 -0 0 0 0.07691919831092781 8:1 20:1 40:1 55:1 60:1 
-0 -0 -0 -0 0 12.46593822265199 0 9:1 20:1 29:1 32:1 40:1 49:1 60:1 69:1 72:1 80:1 89:1 92:1 100:1 
-0 -0 -0 -0 0 32 0 9:1 12:1 20:1 29:1 40:1 49:1 60:1 69:1 72:1 80:1 
-0 -0 -0 -0 0 32 0 9:1 12:1 20:1 29:1 40:1 49:1 52:1 60:1 
-0 -0 -0 -0 0.2360690281511842 0 0 15:1 20:1 33:1 40:1 60:1 71:1 80:1 
-0.9069418691043759 -0.5384971041898166 -0 -0 0 0 0 11:1 20:1 40:1 55:1 60:1 
-0 -0.124796710740934 -0 -0 0 0 0 20:1 33:1 40:0 52:1 60:1 75:1 80:1 89:1 92:1 100:1 
-0 -0 -0 -0 0.06085920802002955 0 0 15:1 20:1 32:1 40:1 60:1 69:1 72:1 80:1 92:1 100:1 
-0 -0.4830870653892211 -0 -0 0 0 0 9:1 12:1 20:1 40:1 55:1 60:1 72:1 80:1 
-0 -0 -0 -0 0 3.245058248012174 0 12:1 20:1 35:1 40:1 49:1 52:1 60:1 
-0 -0 -0 -0 0 0 0.04091530680055685 6:1 20:1 33:1 40:1 44:1 60:1 
-3.841926169139706 -0 -0.9889149938841623 -2.450373543043574 0.4014210039843655 0 0.5426528245441922 1:1 20:0 35:1 40:0 53:1 60:0 75:1 80:0 81:1 100:1 
-0.9625077368122551 -0.3711208435696025 -0.2308386218557728 -0.4754254915508991 5.023656483076389 1.209638778130721 0.5268012201153938 15:1 20:0 33:1 40:0 41:1 60:0 61:1 80:1 89:1 92:1 100:1 
-7.220180241735703 -0 -0 -0.5384688479435615 0 2.130296463595425 0 1:1 20:1 21:1 40:0 55:1 60:0 69:1 72:1 80:1 89:1 100:1 
-0 -0 -0 -0 0 26.05117328695706 0 9:1 12:1 20:1 35:1 40:0 41:1 60:1 69:1 80:1 89:1 100:1 
-0 -0 -0 -0 0 32 0 9:1 20:1 29:1 32:1 40:1 49:1 60:1 69:1 72:1 80:1 89:1 92:1 100:1 
-0 -0 -0 -0 0 32 0 9:1 12:1 20:1 29:1 40:1 49:1 60:1 69:1 72:1 80:1 
-0 -0 -0 -0.4184413347557319 0 32 0.2156905111044433 9:1 12:1 20:1 29:1 40:1 49:1 52:1 60:1 
-0 -0 -0 -0.1199374990113465 0 0 0.1963768544561563 11:1 20:1 40:1 50:1 60:1 
-0 -0 -0 -0 0.2960350178557766 0 5.747725040527031 80:0 100:1 101:6 
-0 -1.318812088832025 -0 -0 0 0 0.5882369250284026 20:0 80:1 101:6 
-5.225062743920897 -0 -0 -0 0.8013486669875399 0 0.1571515827528771 20:0 53:1 57:1 101:6 
-0 -0 -0.1229216834297447 -0 0 0 0 8:1 20:1 33:1 40:0 60:0 101:6 
-0 -0 -0.02760257414475031 -0 0 0 0 8:1 20:0 33:1 40:0 60:0 80:1 100:1 101:6 
-1.425034244223589 -0 -0 -0 0 0 0 20:1 28:1 40:0 60:1 101:6 
-0 -0 -0.1832433254214058 -0 0 0 0.4949227838375549 20:1 35:1 40:0 53:1 60:1 101:1 
-0 -1.288821200624005 -0 -0 0 0 0 20:0 61:1 80:1 101:6 
-0.7954340369648143 -8.229820372549263 -0 -0.8985017052926469 0.09992279248865629 0 0.3481038140281567 17:1 62:1 80:0 88:1 100:1 101:6 
-4.766779203472506 -0.3464782217292747 -0 -0.215781692148901 0 0 0.252544161508828 2:1 20:0 57:1 68:1 80:1 101:6 
-0.7148684916407746 -0 -1.593845764242587 -0 0.1805087540561354 0 0.1722363823147487 8:1 20:1 37:1 42:1 60:0 101:6 
-0 -0 -0 -0 1.61817040835987 0 1.22178599449232 5:1 80:0 101:6 
-0 -0 -0 -0 1.616129033808749 0 1.217064776464246 20:0 45:1 101:6 
-0 -6.430468372481563 -0 -0 0.1008697090450736 0 0.3379845709850883 80:0 87:1 100:1 101:6 
-0 -0.2604857793419827 -0 -0 0 0 0 20:0 67:1 80:1 101:6 
-0 -0 -0 -0 1.612792406475758 0 1.216146063788967 67:1 80:0 101:6 
-0 -0 -0 -0 1.611728210110126 0 1.220684283145056 7:1 20:0 101:6 
-0 -0 -0 -0 0.4859624340713166 0 0.3932276906165668 1:1 75:1 80:0 81:1 100:0 101:6 
-0 -0 -0 -0 3.629173349922621 0 0.2786304310999363 15:1 20:0 41:1 61:1 80:0 89:1 92:1 100:0 101:6 
-0.245227138978924 -0.5082037524846855 -0 -0 0 0 0.3080611119970941 1:1 20:0 21:1 55:1 60:0 69:1 72:1 80:0 89:1 100:0 101:6 
-0 -0 -0 -0 0 0 0.02603528149841907 9:1 12:1 20:0 35:1 40:0 41:1 60:0 69:1 80:0 89:1 100:1 101:6 
-0 -0 -0 -0 0 0.08878563739543693 0 9:1 20:0 21:1 40:0 49:1 52:1 60:0 69:1 80:1 89:1 92:1 100:1 101:6 
-0 -0 -0 -0 0 1.1723941322471 0 9:1 12:1 20:1 29:1 40:0 49:1 60:1 69:1 72:1 80:1 101:6 
-0 -0.04511516765206263 -0 -0 0 0 0.09766208001679666 20:0 33:1 37:1 60:0 63:1 80:1 101:6 
-0 -0 -0 -0 0 0 0.1117145093648991 3:1 20:1 40:0 60:0 101:6 
-0.3874974174735666 -0 -0 -0 0 0 0.1571520842413207 6:1 20:0 53:1 57:1 80:0 92:1 100:0 101:6 
-0 -0.1847321041546933 -0 -0 0 0 0.1875284201937435 20:0 33:1 37:1 46:1 60:0 72:1 80:0 95:1 100:1 101:6 
-0 -0 -0 -0 1.399207972705543 0 0 15:1 20:1 40:0 52:1 60:0 69:1 72:1 80:1 101:6 
-0.09377641743364779 -0.6744691623444906 -0 -0 0 0 0 9:1 12:1 20:1 32:1 40:0 55:1 60:1 101:6 
-0.2942705328907718 -0 -0 -0 0 0 0 7:1 20:1 33:1 37:1 60:0 101:6 
-0.1763379718300536 -0 -0 -0.5104899203492811 0 0 0 20:0 53:1 57:1 75:1 80:0 88:1 100:1 101:6 
-0 -0.02402496345257624 -0 -0 1.532899064215337 0 0 15:1 20:0 33:1 37:1 60:0 68:1 80:1 101:6 
-0 -1.316366065234201 -0 -0 0 0 0 8:1 20:1 40:0 55:1 60:0 101:6 
-0 -0.4001579818311371 -0 -0 0 0 0 1:1 20:0 21:1 40:0 55:1 60:0 69:1 72:1 80:0 89:1 100:1 101:6 
-0.1235183981627005 -0 -0 -0 0 0 0.1210825194396317 9:1 12:1 20:1 29:1 40:1 49:1 52:1 60:1 101:6 
-0 -0.09230302635481111 -0 -0 1.534791429298755 0 0.04078761878573581 15:1 20:0 33:1 37:1 60:0 71:1 80:1 101:6 
-0 -1.313113773333478 -0 -0 0 0 0.04621045409728224 11:1 20:1 40:0 55:1 60:0 101:6 
-1.652699078954778 -1.037090754905812 -1.457337666659889 -1.05058311940294 -0 0.118401733503179 2.038234223049126 15:1 20:0 22:1 48:1 60:0 73:1 80:0 93:1 97:1 100:1 
-2.298714697584444 -0.5313430212157196 -1.038534183237239 -1.601102652697639 -0 0 0.6181827610327382 15:1 20:0 28:1 40:0 42:1 60:0 73:1 80:0 86:1 100:0 
-0.3958799110359051 -0.2879090863022961 -0.7652044061505435 -0.2758176111702696 -0 0 0 15:1 20:0 22:1 42:1 60:0 73:1 80:0 85:1 100:1 
-0 -0.002762262541248319 -0 -0 -0 0 0 15:1 20:0 22:1 40:0 48:1 60:0 73:1 80:1 100:1 
-0 -0 -0.0322993662107417 -0 -0 0 0 15:1 20:0 22:1 40:0 42:1 60:0 73:1 80:0 81:1 100:0 
-0 -0 -0 -0.01142110137941831 -0 0 0 15:1 20:0 22:1 40:0 48:1 60:0 73:1 80:1 100:1 
-0.9850002040748522 -2.179955500658433 -1.910092365679549 -1.785354350965964 -0 0.9909560169370605 0.4086631683883622 15:1 20:0 28:1 40:0 42:1 60:0 73:1 80:1 100:1 
-0.5464296619169329 -0.5226627407591148 -0.301786924390501 -0.2841263867150357 -0.4838932549291131 0.4064185724721822 0.4447619629192914 15:1 20:0 28:1 40:0 42:1 60:0 73:1 80:1 84:1 100:1 
-1.574414288036316 -0 -0.8633716561040358 -1.269991733551328 -0 0 0 15:1 20:0 22:1 40:0 42:1 60:0 73:1 80:0 81:1 100:0 
-1.343064789105915 -3.0390449229685 -2.13737679118569 -25.79579720052921 -12.98282164387785 2.127150361573922 0 15:1 20:0 22:1 40:0 48:1 60:0 73:1 80:1 100:1 
-4.024791034776046 -0.9034980712956928 -2.674114365848718 -1.268472407900165 -4.687437677024884 2.1083518727552 1.507767700262153 15:1 20:0 37:1 42:1 60:0 61:1 80:0 89:1 92:1 100:0 
-0 -0.005084508445052718 -0.06968578786886574 -0 -0 0 0 15:1 20:0 22:1 42:1 60:0 61:1 80:0 89:1 92:1 100:0 
-0.5705610277047809 -1.489605716648912 -0.6231168578551013 -0 -2.750992916757523 0.3561494359707993 0 15:1 20:0 22:1 40:0 42:1 60:0 61:1 80:0 89:1 92:1 100:0 
-0 -0.004270787103161137 -0.006597932790007309 -0.007792294610998275 -0 0 0 15:1 73:1 80:0 100:0 101:6 
-4.173450968550857 -7.333342463794914 -0.7424520496496414 -0.5155001451718447 -15.75935462366872 0.6564238886467658 8.362383652651934 15:1 73:1 80:0 100:0 101:6 
-0 -0 -0.6356379362882211 -0 -0 0 1.065047073289728 15:1 20:0 22:1 48:1 60:0 73:1 80:1 100:1 101:1 
-0 -0.006678209793542382 -0 -0 -10.39174770907649 -0 0 9:1 12:1 20:1 29:1 40:1 49:1 60:1 69:1 72:1 80:1 
-0 -0 -0 -0 -11.77921062055431 -0 0 9:1 12:1 20:1 29:1 40:1 49:1 52:1 60:1 
-0 -0 -0 -0 -10.74209684557814 -0 0 9:1 20:1 29:1 32:1 40:0 49:1 60:1 69:1 72:1 80:1 89:1 92:1 100:1 
-0 -0 -0 -0 -32 -0 0 9:1 12:1 20:1 29:1 40:1 49:1 60:1 69:1 72:1 80:1 
-0 -0 -0 -0 -32 -0 0 9:1 12:1 20:1 29:1 40:1 49:1 52:1 60:1 
-3.777588813822288 -2.85344422584615 -3.043747934945506 -3.905953421946823 -24.74760802798716 -2.864113848528887 2.299740847390728 9:1 12:1 20:0 35:1 40:0 41:1 60:0 69:1 80:1 89:1 100:1 
-1.494442909068912 -1.226387598508456 -1.265645501432442 -1.539232461793595 -2.99795997151777 -1.435935917950745 0.8193903184175396 9:1 20:1 21:1 40:0 49:1 52:1 60:0 69:1 80:1 89:1 92:1 100:1 
-1.268981122354953 -0.9467486994387528 -0.4838712981547203 -0.4942002875980741 -32 -0.6911383582607796 0.2848500571285182 9:1 20:1 29:1 32:1 40:0 49:1 60:1 69:1 72:1 80:1 89:1 92:1 100:1 
-0 -0.248180856854353 -0 -0 -32 -0 0 9:1 12:1 20:1 29:1 40:1 49:1 60:1 69:1 72:1 80:1 
-2.879718421061914 -2.931490789847374 -2.921046182931502 -2.634879749297029 -27.9667183290222 -1.772663757118697 1.947329222442113 9:1 12:1 20:1 29:1 40:1 49:1 52:1 60:1 
-3.978358125218125 -1.596367875680998 -3.151362869644759 -2.907075369916423 -1.78045321766655 -2.4695997343684 -1.094555185105555 16:1 76:1 80:0 93:1 97:1 100:0 101:1 
-1.980833497767221 -1.011992151577136 -2.716563204404135 -2.530147929993872 -0.1505958071853631 -1.310100276788746 -0.1740990025851233 16:1 20:0 56:1 73:1 77:1 80:0 82:1 100:1 101:1 
-4.090122434388115 -2.747212480413082 -4.573974310885 -3.401329007057445 -3.079674080095158 -1.155971095126476 -2.016649178552381 16:1 76:1 80:0 96:1 100:0 101:1 
-0 -0 -0 -0 -0 -0 -0.1833985907611552 16:1 20:0 56:1 76:1 80:0 93:1 97:1 100:1 101:1 
-1.242747093580645 -2.810618986871776 -0.8228408201783425 -2.056793256673356 -2.336028151148166 -1.338207614112851 -1.671792840918693 16:1 20:0 36:1 56:1 60:0 73:1 77:1 80:1 82:1 100:1 101:1 
-0 -0.04985154746329433 -0 -0 -0 -0.006975415214018637 -0 16:1 73:1 77:1 80:0 82:1 100:1 101:6 
-0.6191398412101997 -1.404335052411265 -0 -0 -2.040741995279624 -1.362651832882549 -0 16:1 76:1 80:0 93:1 97:1 100:0 101:6 
-1.242733101595489 -2.66045035781407 -0 -0 -5.441201086601708 -2.794197192094996 -0 16:1 76:1 80:0 96:1 100:0 101:6 
-0 -0.164984958898483 -0 -0 -0.9749197498357743 -0 -0.01833293650417444 16:1 20:0 56:1 76:1 80:0 93:1 97:1 100:1 101:6 
-0.8262716906475515 -0.7953582398785985 -0 -0 -0 -0 -0 16:1 20:0 36:1 56:1 60:0 73:1 77:1 80:1 82:1 100:1 101:6 
-0.6485338143627195 -1.733913393092296 -0.3731090565225446 -0 -5.249501860617319 -4.007337381005297 -0.1924827109518183 16:1 73:1 77:1 80:0 82:1 100:1 101:6 
=======
total_sv 374
rho -0.406942 -0.334775 -0.473728 -0.543628 -0.0895384 -0.458784 -0.399856 -0.0299143 -0.124487 0.0107791 0.251602 -0.226845 -0.130843 0.164046 -0.056989 0.257669 0.0435941 -0.113962 -0.407979 0.460859 -0.177468 -0.340231 0.0297736 -0.131639 -0.049372 -0.290445 -0.344902 -0.137073
label 10 1 -2 0 -1 -3 2 -4
probA -5.03626 -4.87327 -3.98827 -4.67991 -4.09769 -4.12575 -4.43184 -4.60618 -4.19428 -4.38296 -4.25519 -4.08006 -4.12342 -3.90756 -4.41209 -3.81345 -3.73234 -4.01095 -3.25942 -3.32273 -3.23806 -3.27958 -3.58386 -3.87394 -4.34788 -3.41469 -3.47436 -3.36995
probB -0.163857 -0.449976 -0.550275 0.225327 -0.402561 -1.06031 -0.702475 -0.143026 -0.60055 0.266974 -0.246234 -0.720148 -0.433922 -0.288645 0.973778 -0.144316 -0.480969 -0.439321 0.515665 -0.258908 0.0193644 0.0412507 -0.381268 -0.89513 -0.784595 -0.120633 -0.270123 0.181184
nr_sv 78 80 49 21 94 22 15 15
SV
0.9212256514005749 0.4348936142344469 5.316405864090996 4.932083343977295 1.632774453761809 0 0 2:1 20:0 53:1 57:1 68:1 80:1 102:-2 
0 0 0 0 0.05493314884221731 0 0 2:1 20:0 33:1 37:1 48:1 60:0 62:1 80:1 102:1 
0.03851855822406931 0.6630004529637775 5.566257909814843 0 0 0 0 2:1 20:0 53:1 57:1 62:1 80:0 88:1 100:1 102:-2 
0 0 0 0.01272248426068227 0.04347612078896862 0 0 2:1 20:0 33:1 37:1 42:1 60:0 68:1 80:1 88:1 100:1 102:10 
0 0.02550675781466688 0 0.06155066595208819 0 0 0 2:1 20:0 33:1 37:1 60:0 68:1 80:1 88:1 100:1 
3.589163529659357 0 11.13373092052786 0 0 0 0 2:1 20:0 53:1 57:1 68:1 80:0 88:1 100:1 102:-2 
0 0 3.114969663678946 0 5.153285192766772 1.972656292028794 0 2:1 20:0 42:1 102:10 
0 0.001692032311903072 0 0 0 0 0 2:1 20:1 28:1 40:0 48:1 60:1 62:1 80:1 102:1 
0 0 0 0 0 0 2.566733997447082 2:1 80:0 93:1 100:0 
3.582194412415344 0 0.1347985588621395 0 0 0.01016779078775741 0 2:1 20:0 42:1 75:1 80:0 93:1 100:0 102:10 
0 0 10.17438606591534 0 0 0 0 2:1 20:0 53:1 57:1 62:1 80:0 88:1 100:0 102:-2 
1.825110780981249 21.93515091694692 7.084075395137829 0 0 0.3245822393097098 0 17:1 68:1 80:0 82:1 100:0 
0 0 0.1152869781835381 0 0 0 0 2:1 20:0 28:1 40:0 42:1 60:0 75:1 80:0 93:1 100:0 102:10 
0 8.212603201875835 0.4198448727554095 0 0 0 0 1:1 13:1 17:1 62:1 80:0 88:1 100:1 
0.07929374862087429 0 0.8133019184977994 0.08975247880039219 0 0.9389033926584379 0 2:1 20:0 41:1 53:1 57:1 68:1 80:1 102:10 
0 9.19765319505694 0 0 0 0.9012542175558104 0 1:1 13:1 17:1 68:1 80:0 82:1 100:1 
0.5497867178679332 0 0 0.8174448296461139 0 0.08697167858881875 0 2:1 20:1 21:1 33:1 37:1 48:1 60:0 102:1 
0 0 0.3249600077345887 0 0 0 0 2:1 20:0 41:1 53:1 57:1 62:1 80:0 88:1 100:1 102:10 
0 0 0.07084488787160272 0 0 0 0 2:1 20:0 21:1 33:1 37:1 42:1 60:0 68:1 80:1 102:10 
2.435302422329312 0 0 0 0.3088949099292437 0 0 2:1 20:0 21:1 33:1 37:1 48:1 60:0 62:1 80:1 102:1 
0.1116566029154206 0 0.1252328859406044 0 1.768254532112549 0 0 2:1 20:1 28:1 40:0 42:1 60:0 102:10 
0 0 0 0.3226228329886279 0 0 0 2:1 20:0 21:1 33:1 37:1 60:0 68:1 80:1 
0 0 0.01864357386264399 0 0 0 0 1:1 13:1 17:1 80:0 88:1 100:0 
0 0 0 3.485672971495537 0 0 0 2:1 20:1 40:0 48:1 60:0 102:1 
0 0 0 0 2.249382838111516 0 0 2:1 20:1 28:1 40:0 48:1 60:0 102:1 
0 0.09884582445110005 0 0 0 0 0 1:1 13:1 17:1 62:1 80:0 82:1 100:0 
2.063341997752389 0.153124444988147 2.907615452864214 0.01657198580723525 0.4060277275982631 0.8460332541777366 0.130002537343553 2:1 20:0 41:1 53:1 57:1 62:1 80:0 88:1 100:1 102:10 
5.483258849166423 0.1836472252099626 0 0.1324592137396573 0.4288466129104016 0.1493980158305236 0.1062901392080642 2:1 20:0 21:1 33:1 37:1 42:1 60:0 68:1 80:1 88:1 100:1 102:10 
0 0.3288197886906999 0 2.594631813146863 0 0 0 2:1 20:0 21:1 33:1 37:1 60:0 68:1 80:1 88:1 100:1 
0 0 0.01998933261688362 0 0 0 0 1:1 13:1 17:1 80:0 88:1 100:0 
0 0 13.59640748351271 0 0 0 0 2:1 20:0 41:1 53:1 57:1 68:1 80:0 88:1 100:1 102:10 
0 1.407702457812947 0 0 0 0 0 1:1 13:1 17:1 68:1 80:0 88:1 100:0 
1.216283704204467 0 0 0 0.1117405215759789 0.5755176231454302 0 2:1 20:1 28:1 40:0 48:1 60:1 102:1 
0 0 0.08163642918711971 0 0 0 0 2:1 20:0 21:1 33:1 37:1 42:1 60:0 68:1 80:0 88:1 100:1 102:10 
0 5.190095883153202 0 0 0 0 0 1:1 13:1 17:1 68:1 80:0 88:1 100:0 
0 0 1.16518164199094 0 0.2308505310931073 0 0 2:1 20:1 28:1 40:0 48:1 60:0 62:1 80:1 102:1 
0 0 0 0 0 0.2293705543069027 0 2:1 20:1 28:1 40:0 42:1 60:1 102:10 
0 1.025703725791161 0 0 0 0 0 1:1 13:1 17:1 80:0 82:1 100:0 
0 0 0 0.04063868304755625 0.9837040771391264 0 0 2:1 20:0 40:0 42:1 60:0 68:1 80:1 88:1 100:1 102:10 
1.209216204357586 0.6594220519223938 0.1363064584786494 4.707140264205762 0 0 0 2:1 20:1 28:1 40:0 48:1 60:1 62:1 80:1 102:1 
0.07453244872384512 0 0.03117927208929348 0 0.4318258547815346 0 0.01578021099310541 2:1 20:1 28:1 40:1 42:1 60:1 102:10 
0 0.7038257932018325 0 0 0 0 0 1:1 13:1 17:1 62:1 80:0 88:1 100:0 
2.786981834268458 0.0784978782591917 0.4577275246883395 0 0 0.2156147260784711 0.03903846991493889 2:1 20:0 41:1 53:1 57:1 68:1 80:0 95:1 100:0 102:10 
1.218857405496901 0 0.1213898692326052 0 0.1456926661340137 0.3874780027209288 0.2114786030418184 2:1 20:0 21:1 33:1 37:1 48:1 60:0 75:1 80:0 93:1 100:1 102:1 
0 6.757820484618529 0 0 0 0 0 1:1 13:1 17:1 62:1 80:0 82:1 100:0 
1.266154915322339 0 11.79806332475508 0 0 0 0 2:1 20:0 41:1 53:1 57:1 62:1 80:0 88:1 100:0 102:10 
0.571744429853693 0 0 0 0 0 0.02332621837811711 2:1 20:0 21:1 33:1 37:1 42:1 60:0 68:1 80:0 95:1 100:0 102:10 
0.1781329409969118 0.08155395235009195 0.09762213556005943 0 0.7315938453850073 0.02628461587557344 0.05217195895914106 2:1 20:0 28:1 40:0 42:1 60:0 75:1 80:0 93:1 100:0 102:10 
0 0.3940943678241041 0 3.991331467885986 0.4663388104488571 0.09798260163437168 0.9837454785127321 1:1 13:1 17:1 80:0 82:1 100:0 
0 1.933625695354619 0.5070146942501432 0 0 0 0 1:1 13:1 17:1 80:0 88:1 100:0 
0 0 0.4107497775429337 1.046766128577569 2.052992361450766 0.6032989388011287 0.518666786958945 2:1 20:0 40:0 48:1 60:0 75:1 80:0 93:1 100:1 102:1 
0 0.2402965424503542 0 2.203217177557789 0 0 0 2:1 75:1 80:0 81:1 100:0 
0 0 0.8421669232461365 0 0.8036487600948353 0 0 1:1 20:0 22:1 55:1 60:0 69:1 72:1 80:0 89:1 100:0 102:-3 
2.515557724068382 2.296447626812557 1.013267798076586 0.4682549284903401 0 0 0 17:1 62:1 80:0 95:1 100:0 
0 0 0.08978025097794365 0 0 0.3922129218510127 0 2:1 20:0 57:1 75:1 80:0 81:1 100:0 102:10 
0 0 0.001155578787650356 0 0 0 0 1:1 20:0 22:1 40:0 55:1 60:0 69:1 72:1 80:0 89:1 100:1 102:-3 
0 0 0 0 0.5153947665762786 0 0 2:1 20:0 42:1 75:1 80:0 81:1 100:0 102:10 
3.677232662395735 0 0 0 0.4947520399566075 0 0 2:1 20:0 53:1 57:1 62:1 80:0 95:1 100:0 102:-2 
0.4062645784449852 0.0755163997492127 0.07223762425063379 0 0.6097496121359052 0 0.0762291622975356 2:1 20:0 33:1 37:1 42:1 60:0 75:1 80:0 81:1 100:0 102:10 
0.7111528808142323 0 2.664208543813496 7.282086793030208 1.319745129705236 0.1156656971227552 1.403252941930157 1:1 20:0 22:1 40:0 55:1 60:0 69:1 72:1 80:0 89:1 100:1 102:-3 
1.108434682478947 0 0.4740991567693026 1.506096191376921 0.02477265709705898 0 0.3046872557307798 1:1 20:0 33:1 37:1 55:1 60:0 69:1 72:1 80:0 89:1 100:0 102:-3 
0.3172820446699663 0.2197801255206761 0 0.4844273794553254 0.3363767347410931 6.131841141078507 0.08243621568826685 2:1 20:1 29:1 32:1 40:1 49:1 52:1 60:1 62:1 80:1 102:2 
0.2655061526139145 0.1894656316844685 0.2573667473895212 0.01848877937327967 0 0.1350772498587853 0.1776814286538581 2:1 20:1 29:1 32:1 40:1 42:1 60:1 102:10 
0 0 0.04793887619321197 0 0 0 0 2:1 20:1 36:1 53:1 57:1 60:0 101:1 102:-2 
0 0 0.2675760134554014 0 0 0 0 2:1 20:1 36:1 40:0 53:1 57:1 60:0 101:1 102:-2 
0 0 0.1815532293547948 3.840454962258919 0 0 0 2:1 20:1 36:1 40:0 53:1 57:1 60:1 101:1 102:-2 
0 0 0 0 0 0 0.69377178245246 2:1 68:1 80:0 101:1 
0 0 0 2.018360640663565 0.8920602522203014 0 2.563782264112312 17:1 68:1 80:0 101:1 
5.738319393755401 0 0 0.7909721654392567 0.7764377963534779 0.5543134077881345 0 17:1 68:1 80:0 88:1 100:1 101:1 
0.5906712790223509 6.71376276679353 3.553423100675276 2.886342577741898 1.820484602732589 0 2.395377619226304 17:1 62:1 80:0 88:1 100:1 101:1 
1.659180412019613 0.02221134100319945 0 0 0.31194761652996 0 0.09895249045283701 2:1 20:0 57:1 68:1 80:1 101:1 102:10 
0.5057394974939077 0 0 0 0 0 0.006196448374947244 2:1 20:0 57:1 68:1 80:0 88:1 100:1 101:1 102:10 
0 0 0 0 0 0 0.3022271863377986 2:1 68:1 80:0 95:1 100:0 101:1 
0 0 0.009685137924980082 0 0 0 0 2:1 20:1 36:1 40:0 53:1 57:1 60:1 101:6 102:-2 
0.3063285021421661 3.842312710409289 0 11.18819821391201 2.367620969763075 0 2.516048259412798 2:1 20:1 36:1 40:0 53:1 57:1 60:0 101:6 102:-2 
0.3044669270154012 0.4534671827724971 0 1.107284951445297 0.3891166671110486 0.2353675661682659 0.1726933562077804 2:1 20:1 36:1 40:0 53:1 57:1 60:1 101:6 102:-2 
0 0 0 0 0 0 0.9489524717471557 2:1 20:1 36:1 40:0 53:1 57:1 60:0 101:4 102:-2 
0 0 0 0 0 0 0.1353604730431776 2:1 20:1 36:1 40:0 53:1 57:1 60:1 101:4 102:-2 
-0 0 0.3273191555244432 0 1.579006764761621 0.2116995617612673 0 8:1 20:0 42:1 102:10 
-0.7762612701636397 2.358497208276704 1.675768690689715 7.930842264545545 1.611498512206965 0 0 8:1 20:0 53:1 57:1 62:1 80:1 102:-2 
-0 0.2574980050977064 1.627335132974103 0 0.2184279250126833 0 1.343628790751612 8:1 20:0 53:1 57:1 62:1 80:0 82:1 100:1 102:-2 
-0.2858647324529163 0 0 0 0 0 0 8:1 20:0 53:1 57:1 68:1 80:0 82:1 100:1 102:-2 
-0 0 0 0 1.146752207598086 0 0 8:1 20:0 22:1 42:1 60:0 68:1 80:1 102:10 
-0.8038592604083172 0.2648867370693337 1.438862245001074 0 0.3057620324315551 0 0.6685870473655637 8:1 20:0 53:1 57:1 68:1 80:0 82:1 100:1 102:-2 
-0 0 0.09038735164595656 0 0 0 0 8:1 20:0 33:1 37:1 48:1 60:0 62:1 80:1 82:1 100:1 102:1 
-0 1.203558744355953 0.1065429587230409 2.94235058616437 0 0 0 8:1 20:0 33:1 37:1 60:0 68:1 80:1 82:1 100:1 
-0.07554646989760098 0 0 0 0 0 0 8:1 20:1 40:0 48:1 60:0 62:1 80:1 102:1 
-0 0 1.937424695213624 0 0 0 0 8:1 20:0 22:1 48:1 60:0 68:1 80:1 102:1 
-0.1986695045209793 0 0 0 0 0 0 8:1 20:1 28:1 40:0 48:1 60:1 102:1 
-2.988254185060644 0.8491214266985664 10.9004679193409 2.855950656857677 1.798668744272238 0 0 8:1 20:0 53:1 57:1 68:1 80:0 88:1 100:1 102:-2 
-0.006826024397273813 0 0 0 0 0 0 8:1 20:1 28:1 40:0 48:1 60:0 62:1 80:1 102:1 
-1.179114336828474 0 3.140873641214683 0 0 0 0 8:1 20:0 53:1 57:1 68:1 80:0 88:1 100:0 102:-2 
-0.1293077124762793 0 0 0 0 0.006636298865208294 0 8:1 20:1 22:1 40:0 42:1 60:0 68:1 80:1 88:1 100:1 102:10 
-0.0069208358221645 0 0 0 0 0 0 8:1 20:1 22:1 40:0 48:1 60:1 68:1 80:1 102:1 
-0 0 0.3033078863089951 0 0 0.01205856040166747 0 8:1 20:0 42:1 80:0 93:1 100:1 102:10 
-0 0 1.770176066652684 0 3.070864704830769 1.39964676683265 0 8:1 20:0 42:1 80:0 100:1 102:10 
-0 0 0 0 1.143882431347645 0 0 8:1 20:0 33:1 37:1 42:1 60:0 80:0 100:1 102:10 
-2.723045627781764 0 0 0 0 0.04782662856397617 0 8:1 20:0 42:1 75:1 80:0 93:1 100:0 102:10 
-0.3600498582660611 0 0 0 0 0 0 8:1 20:0 33:1 37:1 42:1 60:0 75:1 80:0 93:1 100:0 102:10 
-4.223568784698248 0 0.08658809124212183 0 0.4110098286639671 0 0 8:1 20:0 53:1 57:1 62:1 80:0 95:1 100:0 102:-2 
-0.2936035328621256 0 0.0666028125844764 0 0.02150997298914284 0 0 8:1 20:0 22:1 42:1 60:0 75:1 80:0 93:1 100:0 102:10 
-0 0 0.0003953906474266715 0 0 0 0 8:1 20:0 22:1 40:0 42:1 60:0 75:1 80:0 93:1 100:1 102:10 
-0.2219051773550635 0 11.0794940863705 0 0 0 0 8:1 20:0 53:1 57:1 62:1 80:0 82:1 100:0 102:-2 
-0.970706507989725 0 0 0 0 0 0 8:1 20:0 33:1 37:1 60:0 62:1 80:0 95:1 100:0 
-0 0 0.05170753481218771 0 0.0823336711359411 0 0 8:1 20:0 57:1 62:1 80:0 82:1 100:0 102:10 
-0.3454001622657277 0 0.1426491878912372 0 0 0.1736150641936068 0 8:1 20:1 21:1 33:1 37:1 42:1 60:0 102:10 
-0.1849896122263295 0 0.104822516215249 0.1430577135113434 0.4934434632252119 1.209637771767442 0 8:1 20:0 41:1 53:1 57:1 62:1 80:1 102:10 
-0 0 0.09019734888141066 0 1.551821392512141 0.119315680073026 0 8:1 20:1 22:1 40:0 42:1 60:0 102:10 
-0.6604516040361763 0.1559967861774692 0.9666616272133929 0.237517002793398 0.108063656965467 0 0.1729342873444584 8:1 20:0 41:1 53:1 57:1 62:1 80:0 82:1 100:1 102:10 
-0 0 0 0 0 0.2303286327855058 0 8:1 20:1 40:0 42:1 60:0 102:10 
-0 0.2105705287172155 0 0 0 0 0 8:1 20:0 21:1 33:1 37:1 60:0 62:1 80:1 
-0 0 0 0 0.02752746889741527 0 0 8:1 20:0 21:1 33:1 37:1 42:1 60:0 68:1 80:1 102:10 
-0 0 0.8304273329981073 0 0.8692663253046566 0 0 8:1 20:1 22:1 40:0 48:1 60:0 102:1 
-0 0 0 0 0 0.002949460567561589 0 8:1 20:0 41:1 53:1 57:1 68:1 80:0 82:1 100:1 102:10 
-2.016749494244039 0 0 0 0 0 0 8:1 20:0 21:1 33:1 37:1 48:1 60:0 62:1 80:1 102:1 
-0 0.03944505243985023 1.848311671685134 0 0 0.5154045454789419 0.03326668597088121 8:1 20:0 41:1 53:1 57:1 68:1 80:0 82:1 100:1 102:10 
-0.337993793821552 0 0.1761218668067251 0 0.2632659864457256 0.7412322266250226 0 8:1 20:0 21:1 33:1 37:1 48:1 60:0 62:1 80:1 82:1 100:1 102:1 
-0.007271024756168054 0 0 0 0 0 0 8:1 20:1 40:0 42:1 60:0 68:1 80:1 102:10 
-0 2.121516161216994 0.4419595577897984 7.867911053716512 0.2302777732095033 0.7910223648135999 0 8:1 20:1 22:1 40:0 48:1 60:1 102:1 
-0.3286739366421786 0.2968233657607003 0.2720629702598876 0.5027910929764871 0 0 0.3998671981650443 8:1 20:0 21:1 33:1 37:1 60:0 68:1 80:1 82:1 100:1 
-0.5097582796942624 0 0 0 0 0.6197585459559317 0 8:1 20:1 40:0 48:1 60:0 62:1 80:1 102:1 
-5.394504858541239 0.09255043015649378 0.1702633567449967 0.3106307910468473 0 0.08089765041856369 0.06165548227375384 8:1 20:0 21:1 33:1 37:1 42:1 60:0 68:1 80:1 88:1 100:1 102:10 
-1.215153871553103 0 11.12759651480698 0 0 0.3603930258052991 0 8:1 20:0 41:1 53:1 57:1 68:1 80:0 88:1 100:1 102:10 
-0 0 0 0 0.2327538600669127 0 0 8:1 20:0 21:1 33:1 37:1 48:1 60:0 68:1 80:1 82:1 100:1 102:1 
-0.1324670040733832 0 0 0 0 0 0 8:1 20:1 28:1 40:0 48:1 60:0 62:1 80:1 102:1 
-0 0 0.07732330274452356 0.1988436558664056 0.8499966825867229 0 0 8:1 20:0 22:1 40:0 42:1 60:0 68:1 80:1 88:1 100:1 102:10 
-1.174087787207757 0 0 0 0 0 0 8:1 20:1 28:1 40:0 48:1 60:1 102:1 
-1.655398656363279 0 3.388365515004136 0 0 0 0 8:1 20:0 41:1 53:1 57:1 68:1 80:0 88:1 100:0 102:10 
-0.1079821303809705 0 0 0 0 0 0 8:1 20:0 21:1 33:1 37:1 48:1 60:0 68:1 80:0 82:1 100:1 102:1 
-0 0 0.4748973528204765 0 0 0 0 8:1 20:0 28:1 40:0 48:1 60:0 62:1 80:1 82:1 100:1 102:1 
-0.2928244291415041 0.2409190812989838 0.1861529834694969 0 0 0.04213185118221945 0.2047691665363545 8:1 20:1 22:1 40:0 42:1 60:0 68:1 80:1 88:1 100:1 102:10 
-0.4805817136366606 1.093058183479072 0 2.688329845743201 0 0 0 8:1 20:1 22:1 40:0 48:1 60:1 68:1 80:1 102:1 
-0.962013570928573 0.1960134070354562 0 2.982754215201178 0.4301826413089676 1.337183758074369 0 8:1 20:1 28:1 40:1 48:1 60:1 102:1 
-0.3830783685212667 0 0 0 0 0.1485565863169666 0 8:1 20:0 21:1 33:1 37:1 60:0 68:1 80:0 88:1 100:1 
-0 0 0 0 0 0.8397887359981256 0 8:1 20:0 40:0 48:1 60:0 68:1 80:1 82:1 100:1 102:1 
-0.3388068413335203 0.8916076650231621 0.5122778831563819 0.3949352844878969 0.7511738118186251 0.1570359039568673 0 8:1 20:1 28:1 40:0 48:1 60:0 62:1 80:1 82:1 100:1 102:1 
-0.7051362157843566 0.2669639846780288 0.1382091003516812 0 0 0.1745697226832401 0.2529130725675812 8:1 20:0 21:1 33:1 37:1 42:1 60:0 75:1 80:0 93:1 100:0 102:10 
-2.893064802228364 0.2157420733623848 0.332087970632175 0 0.1222963462499548 0.1382037334451952 0.13012403713298 8:1 20:0 41:1 53:1 57:1 62:1 80:0 95:1 100:0 102:10 
-0 0 0.1196131591199165 0.1647098356706856 1.035219167376999 0.176234968695517 0 8:1 20:0 22:1 40:0 42:1 60:0 75:1 80:0 93:1 100:1 102:10 
-0 0 13.26131231897001 0 0 0 0.0547106467228906 8:1 20:0 41:1 53:1 57:1 62:1 80:0 82:1 100:0 102:10 
-1.322036048981353 0 0 0 0 0.07049306556622087 0 8:1 20:0 21:1 33:1 37:1 60:0 62:1 80:0 95:1 100:0 
-0.872553047466077 5.591722333702694 0 5.477787462474888 0.5467777940868673 0.05674158438598473 7.7699471032458 8:1 101:1 
-0.4300057781413147 0 0 0 0 0 0 8:1 68:1 80:0 101:1 
-5.423234125805607 1.061620896953474 0 0 0 0.2508917951403747 0.5176970486908947 8:1 68:1 80:0 88:1 100:1 101:1 
-0 0 0.2252900322075958 0 0.5503959617087295 0 0 8:1 20:0 42:1 101:1 102:10 
-0 0 0 0 0 0.4768675132563522 0 8:1 20:0 57:1 101:1 102:10 
-1.419552040841178 0 0 0 0 0 0 8:1 20:0 57:1 68:1 80:1 101:1 102:10 
-0.4835517545752311 0 0 0 0 0 0.00348342188074358 8:1 20:0 57:1 68:1 80:0 88:1 100:1 101:1 102:10 
-0 0 0 0 0.7243496171204451 0 0 8:1 20:1 28:1 40:0 48:1 60:0 101:1 102:1 
-0 0 0.008008171443100943 0 0 0 0.00644080372909929 8:1 20:1 37:1 42:1 60:0 101:1 102:10 
-0 0 0 0 1.424417378540109 0 0 8:1 20:1 22:1 40:0 48:1 60:0 101:1 102:1 
-0 0.04173086577440184 0.03565464800343814 0 0 0 0.06864150150113986 8:1 20:0 37:1 42:1 60:0 68:1 80:1 88:1 100:1 101:1 102:10 
-0 0 0 0 0.02149129707798867 0 0 8:1 20:1 28:1 40:0 48:1 60:1 101:1 102:1 
-0.1853036098302638 0.03354205081716419 0 0 0 0 0.007410829386571779 8:1 20:0 42:1 75:1 80:0 93:1 100:1 101:1 102:10 
-0.6121561995099332 0 0.01147656025093247 0 0 0 0.03285009318160124 8:1 20:0 42:1 68:1 80:0 95:1 100:0 101:1 102:10 
-0.7983757663805813 0 1.591273414169741 1.277634910193378 0.4040916959706127 0.3084890396110302 0.7234783456809528 8:1 20:0 22:1 48:1 60:0 75:1 80:0 93:1 100:1 101:1 102:1 
-0 0 0 0 0.889456901409438 0 0 8:1 20:0 22:1 48:1 60:0 68:1 80:0 95:1 100:1 101:1 102:1 
-0.3902335415989183 0 1.068983681965135 1.441246787396193 2.16486916641951 0.01443823146568001 0.566633230772817 8:1 20:0 28:1 40:0 48:1 60:0 75:1 80:1 93:1 100:1 101:1 102:1 
-14.6858712359615 -0 1.881358233679086 1.342142236925924 0.01172329541345934 0.465399554837749 0 13:1 17:1 62:1 80:0 88:1 100:1 
-8.939041222149083 -0 1.82564000305298 0.541206541547301 0 0.5223139945952885 0.3942679227013422 13:1 17:1 68:1 80:0 82:1 100:1 
-1.82124869669918 -0.08597059108014751 0 0 0 0 0 13:1 17:1 62:1 80:0 82:1 100:0 
-0.8429303475572941 -0 0 0 0 0 0 13:1 17:1 68:1 80:0 82:1 100:0 
-2.09630167610623 -0.0825686704654251 0 0 0 0 0 13:1 17:1 68:1 80:0 88:1 100:0 
-5.047894375370825 -1.288826241633053 0 0 0.1956881129930414 0 0 13:1 17:1 68:1 80:0 88:1 100:0 
-0 -0.3455510693780532 0 3.58250649544964 0.6757824148545061 0 0 13:1 20:0 22:1 60:0 80:1 
-0.0002202209197051637 -0.008835084648933261 0 0 0 0 0 13:1 20:0 22:1 60:0 80:0 100:1 
-0.7637645106913662 -1.389351252076958 8.790951076367783 8.61830362369936 0.9198491020324363 0.2250926620390812 0 13:1 20:1 28:1 40:0 60:0 80:1 
-1.156735862692483 -3.695464192247804 0.8895232070000747 7.965993247471786 0.868272409585917 2.031610181646517 0.7020311438834758 13:1 20:1 40:0 60:1 80:1 
-0.4839393742385592 -4.408591393293145 5.027379122726539 2.28640238514142 4.204697792767118 0.718700845327326 2.006996301078364 13:1 20:0 22:1 60:0 80:0 100:1 
-0.02102561417901438 -0.3008841314165336 2.991855464939061 0 0.6261376182757056 0 2.063399110243701 13:1 20:0 28:1 40:0 55:1 60:0 73:1 77:1 80:1 100:1 102:-3 
-2.267070935700028 -0.2336771372486418 0 0 0.09201958307765334 0 0 13:1 17:1 62:1 80:0 88:1 100:0 
-0 -0 0.320673305278406 0 0 0 0.2189092647299125 13:1 20:0 22:1 40:0 55:1 60:0 66:1 80:1 82:1 100:1 102:-3 
-0 -0 0 1.198387939354665 0 0 0 13:1 20:1 28:1 40:0 55:1 60:0 80:1 87:1 100:1 102:-3 
-0.1659669650427603 -0 0 0 0 0 0 13:1 20:1 28:1 40:0 55:1 60:0 80:1 95:1 100:1 102:-3 
-20.85791454411735 -1.337254207276573 0 0 0 0 0.06446006938855364 13:1 17:1 68:1 80:0 82:1 100:0 
-0.01124144997706254 -0 0 0 0 0 0 13:1 20:0 22:1 40:0 55:1 60:0 61:1 80:0 95:1 100:0 102:-3 
-0 -0 0 0.1611853129035175 0 0 1.851901111686091 13:1 17:1 80:0 82:1 100:0 
-0 -0 0 0.9147193096849888 0 0 0 13:1 20:1 22:1 40:0 55:1 60:0 64:1 80:1 86:1 100:1 102:-3 
-0 -0.2429609750612664 0.2370611786876056 1.038064937514658 0 0 0 13:1 20:1 28:1 40:0 55:1 60:0 68:1 80:1 100:1 102:-3 
-0.56229558055005 -0.1944794312816089 0 0.5267954188130791 0.7422409646151633 0 0 13:1 20:0 22:1 40:0 55:1 60:0 61:1 80:0 95:1 100:0 102:-3 
-0 -0 0 1.151546879822551 0 0 0 13:1 20:1 28:1 40:0 55:1 60:0 80:1 90:1 100:1 102:-3 
-0 -0 0 0.8683985188632841 0 0 0 13:1 20:1 22:1 40:0 55:1 60:0 80:1 95:1 100:1 102:-3 
-6.21467137031055 -0.9954329503715171 0 0.01440532607730819 0 0.06038576996676323 0 13:1 17:1 62:1 80:0 82:1 100:0 
-0.7373878026659486 -0 0 0.8459718798896584 0.07229386802579825 0.02649992524672797 0 13:1 17:1 75:1 80:0 81:1 100:0 
-0 -0.5082327186762926 0 0.3008090355963861 0 0 0 13:1 17:1 20:0 56:1 62:1 80:1 101:1 102:-4 
-0 -0.4676292071607894 0 0 0.1807901991336026 0 1.019386389007389 13:1 17:1 20:0 36:1 56:1 60:0 62:1 80:1 101:1 102:-4 
-0.4230090315950094 -0 0.387135956884796 2.322036241707893 0 0 0 13:1 17:1 20:1 36:1 40:0 56:1 60:0 62:1 80:1 101:1 102:-4 
-0.2475378801133977 -0 0 8.668479389612992 0 0 0 13:1 17:1 80:0 88:1 100:1 101:6 
-0.1280551351790755 -0.007830029151319338 0 0 0.1184821236446788 0 0 13:1 17:1 80:0 88:1 100:0 101:6 
-0 -0 0 7.465015280839101 0.3798541487722619 0 0 13:1 20:0 55:1 80:1 101:6 102:-3 
-0.1446689748552424 -0.1907071536727117 0.03342723985946144 0 0 0 0.4004299441040611 13:1 20:0 55:1 80:0 88:1 100:1 101:6 102:-3 
-0.3221840427457374 -0 0 0 0.1417317176919271 0 2.40300379145055 13:1 20:0 55:1 80:0 100:1 101:6 102:-3 
-1.01215282689419 -0.237270869467066 0 0 0.6745771371136642 0 0.05088999733143514 13:1 20:0 55:1 80:0 88:1 100:0 101:6 102:-3 
-0 -0 0 0.9497129257555452 0 0 0 13:1 20:1 28:1 40:0 55:1 60:0 80:1 101:1 102:-3 
-0.4804184373851469 -0.246052810449956 0.6508667731813916 0.5213399750052655 4.807813762560858 0.2929106741023254 5.120777360246868 13:1 17:1 73:1 77:1 80:0 100:1 101:6 
-0.3247467616779849 -0.1980825883477401 0 0.4717601995416848 0.5156510641404173 0 0.02924415312526475 13:1 17:1 66:1 80:0 100:0 101:6 
-0.2701955553534139 -0.08597437896180561 0 0.5520060936442144 0.332848985883023 0.03945321620197961 0 13:1 17:1 65:1 80:0 100:1 101:6 
-0 -0 0 5.277317164079901 0 0 0 13:1 17:1 80:0 100:0 101:6 
-0.2665051547721179 -0.08279075371461435 0 4.852000583797171 0.3321256404043202 0.03785577175349338 0 13:1 17:1 80:0 87:1 100:1 101:6 
-0.5477900250542717 -0.3268955089678656 0 0.4670829035945754 0.8475814326409605 0.1846821494965409 0.267678363033217 13:1 17:1 61:1 80:0 95:1 100:0 101:6 
-0.3241613684817384 -0.1978453380245744 0 0.2407461415951733 0.5155192511376228 0 0.07652344078548676 13:1 17:1 80:0 90:1 100:0 101:6 
-0.3368357409908203 -0 0 0.8475117512453944 0 0 0 13:1 17:1 80:0 95:1 100:0 101:6 
-0.3241613684817354 -0.1996037454432809 0 2.057856213068753 0.5159760084062553 0.1139420514331201 0.07429465646089421 13:1 17:1 72:1 80:0 100:0 101:6 
-0 -0 0.09681477525164595 1.191330258923452 0 0 0 13:1 17:1 20:0 56:1 62:1 80:1 101:6 102:-4 
-0 -0.04859890645223676 0.02688011400714343 0 0 0.02352036242782562 0.2969216992942571 13:1 17:1 20:0 36:1 56:1 60:0 62:1 80:1 101:6 102:-4 
-1.692595983519372 -0.07602365212189383 0.4093624123919177 0.7569754376393929 0 0.3439027991973045 0.3307029398929126 13:1 17:1 20:1 36:1 40:0 56:1 60:0 62:1 80:1 101:6 102:-4 
-0 -0 0 0 0 0 1.150290571288493 13:1 17:1 20:0 36:1 56:1 60:0 62:1 80:1 101:4 102:-4 
-0 -2.292381115943442 -0 0.4640169475253869 0 0 1.472787772020534 20:0 53:1 57:1 68:1 80:0 82:1 100:1 102:-2 
-6.565350841692848 -0.8403295650882417 -0 1.046875335361389 0 0 0 20:0 53:1 57:1 62:1 80:0 88:1 100:1 102:-2 
-8.696518609339673 -8.834457971122044 -0 0.02720176750145992 0 0 0 20:0 53:1 57:1 68:1 80:0 88:1 100:1 102:-2 
-0.3761241205581404 -13.29087184958733 -1.167923305779756 4.306203447627342 0.67370423391632 0.2138778111179375 2.222672477948212 20:0 53:1 57:1 62:1 80:0 82:1 100:0 102:-2 
-4.320787156855765 -4.782681593269874 -0.9510039953139365 3.980831842600744 1.16073124096707 0 0.1889301114905117 20:0 53:1 57:1 68:1 80:0 88:1 100:0 102:-2 
-0.08500983099077829 -2.257588074157993 -0 0 8.358520643408553 1.414031160377316 0.06567204995336262 20:0 42:1 73:1 80:0 100:1 102:10 
-0.378798420949956 -0.8570319371645181 -0.001906729573688705 0 0 0 0 20:0 42:1 73:1 80:0 100:0 102:10 
-0.38058507505143 -1.081319843838442 -0 9.348899528966768 27.57455824895327 0.788690680294065 1.220928100451228 20:0 22:1 48:1 60:0 73:1 80:1 100:1 102:1 
-5.396714846961538 -4.852378922157692 -4.560310251487066 21.26477900795406 0.9496355790083588 2.294572474309586 1.41550044809208 20:0 22:1 40:0 48:1 60:0 80:1 93:1 100:1 102:1 
-4.988114268378405 -1.374123983031377 -10.98067290448434 13.94232241519447 0.9205595273899039 1.531746645025975 2.939905544771848 20:1 28:1 40:0 60:0 73:1 80:1 100:1 
-3.475337772483088 -0.2133981261312478 -0.2872158915795279 0.03632241515854998 9.919236062474168 1.421751696833775 0.2326002600108272 20:0 42:1 73:1 80:0 100:0 102:10 
-12.22150125300292 -0 -2.52724546297575 3.706398248662027 1.200673328281828 0 0.125226563240697 20:0 53:1 57:1 62:1 80:0 88:1 100:0 102:-2 
-7.69703005659967 -0 -2.500606238908823 3.681603484407661 0.711859588460899 0 0.7337447275162342 20:0 53:1 57:1 68:1 80:0 82:1 100:0 102:-2 
-2.860693841226658 -0 -0 0 0 0 0 20:0 41:1 53:1 57:1 62:1 80:0 88:1 100:1 102:10 
-0.0141816114530013 -2.487886855380639 -0.02650419104072219 0 0.09424673253125231 0.7230979192577146 0.1138276659404714 20:0 41:1 53:1 57:1 68:1 80:0 82:1 100:1 102:10 
-0.4310465511547028 -0.8285381007020429 -0.04173995735093016 0.05290904470759818 0.2645972746272249 0.6191949505916912 0.0293315134262448 20:0 41:1 53:1 57:1 62:1 80:0 88:1 100:1 102:10 
-13.44397069880902 -10.88405564791347 -0.05321633119461397 0.03365341270575595 0.1196431817009103 0.1349135764594118 0.02009877981057262 20:0 41:1 53:1 57:1 68:1 80:0 88:1 100:1 102:10 
-0.2862860973507341 -13.90403404189909 -0.08646240603863198 0.08499358651109094 0.3182967092865338 0.7853317723673603 0.09642923329069146 20:0 41:1 53:1 57:1 62:1 80:0 82:1 100:0 102:10 
-0.6699441032770793 -3.424176077160165 -0.03560368398929079 0.05527888693511827 0.2444574805358223 0.5312386066981667 0.02282918555123881 20:0 41:1 53:1 57:1 68:1 80:0 88:1 100:0 102:10 
-11.77970272422038 -0 -0.1670248381963067 0.1356413314871463 0.1415771612925266 0.1622018967546605 0.08817347998515943 20:0 41:1 53:1 57:1 62:1 80:0 88:1 100:0 102:10 
-1.150384000202279 -0 -0.1814926753945065 0.1807695453853785 0.267378650116284 0.1047765077212921 0.06056980002451836 20:0 41:1 53:1 57:1 68:1 80:0 82:1 100:0 102:10 
-6.678729850254688 -0 -0 -1.414103453341072 2.610313531004102 0 0.5376625289524534 20:1 40:0 53:1 60:0 102:-2 
-0 -0 -0 -6.439043260907307 0 0 1.150651063845866 20:0 40:0 53:1 60:0 80:1 100:1 102:-2 
-10.29962367953473 -14.93757915327743 -7.67441100191574 -32 10.42649887590528 3.740635946363388 2.042352046913204 20:0 22:1 48:1 60:0 80:1 100:1 102:1 
-0.1251005703936846 -1.560001980219193 -10.04661046957157 -10.05874305977278 0 0 0.1200731943281793 20:1 28:1 40:0 60:0 80:1 102:-1 
-0.0882423946609507 -0 -3.003125300290187 -0 0 0 0.9551519124936648 20:1 40:0 60:1 102:-1 
-3.239214004678241 -0 -0 -0 0 0 0 1:1 20:1 40:0 60:1 102:-1 
-0.6521479822267359 -0 -8.724984999313737 -0 0 0 0 13:1 17:1 20:1 35:1 40:0 53:1 60:0 80:1 102:-2 
-1.844856749265774 -4.738465084529979 -0 -6.212209463070442 1.027016238420088 0 0 20:1 33:1 40:0 53:1 57:1 60:1 102:-1 
-0 -0 -0.137501833781976 -0 0 0 0 12:1 20:1 26:1 40:0 60:1 75:1 80:1 89:1 92:1 100:1 102:-1 
-0 -0 -0 -0 1.037774615362029 0 0 15:1 20:1 40:1 52:1 60:1 69:1 72:1 80:1 102:-1 
-0.4964553940823569 -0 -0.3367658706080512 -0 0 0 0.1694054668289252 9:1 12:1 20:1 32:1 40:1 55:1 60:1 102:-1 
-0 -0 -0 -1.05923606628872 0 0 0 6:1 20:1 35:1 40:0 53:1 60:0 62:1 80:1 100:1 102:-2 
-5.713476435700263 -0 -0.2129546796689926 -0 0 0 0 2:1 20:1 33:1 40:0 46:1 60:1 80:1 102:-1 
-0.1662352432395151 -0 -0 -0 0 0 0.2431979381658554 20:1 26:1 40:1 42:1 60:1 102:-1 
-0 -0 -0.1461219847655737 -0 0 0 0.1272602247870914 20:1 33:1 40:0 45:1 60:1 102:-1 
-0.6998102377187353 -8.474120004645112 -1.072005021486784 -0 0 0 0.06851754728197204 8:1 20:1 40:1 55:1 60:1 102:-1 
-0 -0 -0.01702917025788237 -0 0 0 0 1:1 20:1 21:1 40:0 55:1 60:0 69:1 72:1 80:1 89:1 100:1 102:-1 
-0 -0 -0.02011779540690118 -0 0 0 0 11:1 20:1 40:1 55:1 60:1 102:-1 
-0 -0 -0.1779830944629726 -0 0 0 0 20:1 33:1 40:0 52:1 60:1 75:1 80:1 89:1 92:1 100:1 102:-1 
-0 -0 -0 -0 0.4130543386416705 0 0 15:1 20:1 32:1 40:1 60:1 69:1 72:1 80:1 92:1 100:1 102:-1 
-0 -0 -0.3657091161032075 -0 0 0 0 9:1 12:1 20:1 40:1 55:1 60:1 72:1 80:1 102:-1 
-0 -0 -0.02707908065200675 -0 0 0 0 20:1 33:1 40:0 60:1 63:1 80:1 102:-1 
-0 -0 -0 -0 0 0 0.08617757767397716 6:1 20:1 33:1 40:1 44:1 60:1 102:-1 
-0 -4.534493838981796 -0 -0 0 0 0 8:1 20:1 35:1 40:0 53:1 60:1 80:1 102:-2 
-3.939591901921072 -0.5294313291533033 -0 -2.090219940522245 0.5384943274621345 0 0.839088735795503 1:1 20:0 35:1 40:0 53:1 60:0 75:1 80:0 81:1 100:1 102:-2 
-0.7538072711641035 -0.08052894631470288 -0.4201420655273007 -0.4795620656732112 5.189597361350875 0 0.5945176362450636 15:1 20:0 33:1 40:0 41:1 60:0 61:1 80:1 89:1 92:1 100:1 102:-1 
-4.829333505379323 -0 -0.5624777689000553 -0.3934128548633478 0 0 0.01497782894941061 1:1 20:1 21:1 40:0 55:1 60:0 69:1 72:1 80:1 89:1 100:1 102:-1 
-0 -0 -0 -0 0 0.7410679156894757 0 9:1 20:1 21:1 40:1 49:1 52:1 60:1 69:1 80:1 89:1 92:1 100:1 102:-1 
-0 -0 -0 -0 0 0.8996661565671158 0 9:1 20:1 29:1 32:1 40:1 49:1 60:1 69:1 72:1 80:1 89:1 92:1 100:1 102:-1 
-0 -0 -0 -0 0 0.397270321587999 0 9:1 12:1 20:1 29:1 40:1 49:1 60:1 69:1 72:1 80:1 102:-1 
-0.514554066223416 -0 -0 -0.3104000096683157 0 1.210547923201594 0.2792212642774756 9:1 12:1 20:1 29:1 40:1 49:1 52:1 60:1 102:-1 
-0 -0 -0 -0 0 0 0.2241185859794658 11:1 20:1 40:1 50:1 60:1 102:-1 
-0.6981284443433349 -0 -1.04370466731606 -0 0 0 0 11:1 20:1 40:1 55:1 60:1 102:-1 
-0 -0 -0 -0 3.507255999615205 0 5.989784608590218 101:6 
-0 -0 -0.01235498498780452 -0 0 0 0 68:1 80:0 101:6 
-0 -1.837643585529898 -0 -0 0 0 0 8:1 20:0 101:6 102:-1 
-0 -0 -0 -0 2.11083586118489 0 1.785943233105096 80:0 100:1 101:6 
-0 -0.329431485784998 -0.877175803671507 -0 0 0 0.2400586217039705 68:1 80:0 100:0 101:6 
-0 -0 -0 -0 0 0 0.4310156840495735 8:1 20:0 80:0 100:1 101:6 102:-1 
-3.89767165344747 -0 -0 -0 0 0 0 20:0 53:1 57:1 101:6 102:-2 
-0 -0 -0 -0.7507251239973758 0 0 0 20:0 53:1 57:1 68:1 80:0 100:1 101:6 102:-2 
-0 -0.06219182764267919 -0 -0 0 0 0 8:1 20:0 33:1 37:1 60:0 80:1 100:1 101:6 102:-1 
-1.801383461406769 -0 -0 -0 0 0 0 20:1 35:1 53:1 60:0 101:6 102:-2 
-0 -0 -0 -0 0 0 0.29966421489051 20:0 35:1 53:1 60:0 68:1 80:0 100:1 101:6 102:-2 
-0 -0 -0 -0 0 0 0.2174374677416155 20:1 35:1 40:0 53:1 60:1 101:1 102:-2 
-0 -0 -0.2355195337690527 -0 0.1043425124744558 0 0.1673914036306259 80:0 81:1 100:1 101:6 
-0.4544732017590716 -0.1826065223992854 -8.463170564102235 -0.9764586399305941 0.5509486007923756 0.07724822619136934 0.4369004490893345 17:1 62:1 80:0 88:1 100:1 101:6 
-4.781075879857364 -0 -0 -0 0 0 0 2:1 20:0 57:1 68:1 80:1 101:6 102:-1 
-0 -0.1507994001676204 -0 -0 0 0 0 8:1 20:1 37:1 42:1 60:0 101:6 102:-1 
-0 -0 -0.04434572013586895 -0 0.5283708744234125 0 0.3647720594818791 80:0 83:1 100:1 101:6 
-0 -0 -0.4387288533960883 -0 0 0 0.2794731339611607 6:1 80:0 92:1 100:0 101:6 
-0 -0 -0.1791585484914103 -0 0 0 0.1754500368608835 20:0 46:1 72:1 80:0 95:1 100:1 101:6 102:-1 
-0 -0 -0.5210943716282742 -0 0.5226532089638908 0 0.4808160632888905 5:1 80:0 101:6 
-0 -0 -0 -0 0 0 0.2883410153720567 20:0 45:1 101:6 102:-1 
-0 -0 -4.84382952270751 -0 0.5234570066180178 0 0.3330122445289168 80:0 87:1 100:1 101:6 
-0 -0 -0.5246329939678874 -0 0.5207372944846966 0 0.4788010680360681 67:1 80:0 101:6 
-0 -0 -0 -0 0 0 0.3259590767229945 7:1 20:0 101:6 102:-1 
-0 -0 -0.6499516366412649 -0 0.1548119671942033 0 0 75:1 80:0 88:1 100:1 101:6 
-0 -0 -0 -0 2.091092118421588 0 0 15:1 20:0 68:1 80:1 101:6 102:-1 
-0 -0 -0.01890008215993128 -0 0 0 0 8:1 20:1 55:1 60:0 101:6 102:-1 
-0 -0 -0.05086208209911215 -0 0.314732808124644 0.1286075578772962 0.1087138644213046 1:1 75:1 80:0 81:1 100:0 101:6 
-0 -0 -0 -0 2.488636046257319 0 0 15:1 20:0 41:1 61:1 80:0 89:1 92:1 100:0 101:6 102:-1 
-0 -0 -1.146814596305378 -0 0 0 0 1:1 20:0 21:1 55:1 60:0 69:1 72:1 80:0 89:1 100:0 101:6 102:-1 
-0 -0 -0 -0 0 0 0.08682698699971751 9:1 12:1 20:0 35:1 40:0 41:1 60:0 69:1 80:0 89:1 100:1 101:6 102:-1 
-0 -0 -0 -0 0 0.1703626555844331 0.1370913915066688 9:1 20:0 21:1 40:0 49:1 52:1 60:0 69:1 80:1 89:1 92:1 100:1 101:6 102:-1 
-0 -0 -0 -0 0 0.1293346932593626 0.01684614231119666 9:1 20:1 29:1 32:1 40:0 49:1 60:0 69:1 72:1 80:1 89:1 92:1 100:1 101:6 102:-1 
-0 -0 -0.2953141191210179 -0 0.5319216091468836 0 0.2710639042025626 70:1 80:0 91:1 100:1 101:6 
-0 -0 -0 -0 0 0 0.07382375343419134 10:1 20:0 71:1 80:1 101:6 102:-1 
-0 -0 -0 -0 0 0 0.06442346081827165 75:1 80:0 91:1 100:1 101:6 
-0 -0 -0 -0 2.089631669085379 0 0 15:1 20:0 71:1 80:1 101:6 102:-1 
-0 -0 -0.7071804737279073 -0 0.5318601807435356 0.1395664932563052 0.2110610339757024 12:1 80:0 95:1 100:0 101:6 
-0 -0 -11.99161199854909 -0 0 0 0.1150791701880167 13:1 17:1 20:0 53:1 57:1 80:1 101:6 102:-2 
-1.668717579222013 -0 -0 -0 0 0 0 20:1 33:1 37:1 53:1 57:1 60:0 101:6 102:-1 
-0 -0 -0 -0 0 0 0.1439168466827714 20:0 53:1 57:1 80:0 83:1 100:1 101:6 102:-2 
-0.7026791401396107 -0 -0 -0 0 0 0 6:1 20:0 53:1 57:1 80:0 92:1 100:0 101:6 102:-2 
-0 -0 -0.4161445086389663 -0 0 0 0.1731401961033353 20:0 33:1 37:1 46:1 60:0 72:1 80:0 95:1 100:1 101:6 102:-1 
-0 -0 -0 -0 0.3078029505759111 0 0 15:1 20:1 40:0 52:1 60:0 69:1 72:1 80:1 101:6 102:-1 
-0 -0 -0.5384188575051215 -0 0 0 0 9:1 12:1 20:1 32:1 40:0 55:1 60:1 101:6 102:-1 
-0 -0 -0 -0 0 0 0.1800583492601257 20:0 53:1 57:1 80:0 87:1 100:1 101:6 102:-2 
-0.7130171698876629 -0 -0 -0.1645863106565315 0 0 0.1164346991034979 20:0 53:1 57:1 75:1 80:0 88:1 100:1 101:6 102:-2 
-0 -0 -1.008551955368065 -0 0 0 0 8:1 20:1 40:0 55:1 60:0 101:6 102:-1 
-0.2468417032582065 -0 -0 -0 0 0 0 1:1 20:0 53:1 57:1 75:1 80:0 81:1 100:0 101:6 102:-2 
-0 -0 -0.01063206485912649 -0 0 0 0.1290097471331347 15:1 20:0 33:1 37:1 41:1 60:0 61:1 80:0 89:1 92:1 100:0 101:6 102:-1 
-0 -0 -0 -0 0 0 0.2455802953568377 1:1 20:0 21:1 40:0 55:1 60:0 69:1 72:1 80:0 89:1 100:1 101:6 102:-1 
-0 -0 -0 -0 0 0.004835765039954142 0 9:1 20:1 21:1 40:0 49:1 52:1 60:0 69:1 80:1 89:1 92:1 100:1 101:6 102:-1 
-0 -0 -0 -0 0 0.09964445189289979 0 9:1 20:1 29:1 32:1 40:0 49:1 60:1 69:1 72:1 80:1 89:1 92:1 100:1 101:6 102:-1 
-0 -0 -0 -0 0 0.03559258201860639 0 9:1 12:1 20:1 29:1 40:1 49:1 60:1 69:1 72:1 80:1 101:6 102:-1 
-0.1127190320155908 -0 -0 -0 0 0.08926749523962681 0.09021369313482909 9:1 12:1 20:1 29:1 40:1 49:1 52:1 60:1 101:6 102:-1 
-0.237375421445282 -0 -0 -0 0 0 0.2262338026186798 20:0 53:1 57:1 70:1 80:0 91:1 100:1 101:6 102:-2 
-0 -0 -0 -0 0 0 0.1485431867012994 10:1 20:0 33:1 37:1 60:0 71:1 80:1 101:6 102:-1 
-0 -0 -0 -0 0 0 0.06249335160517313 11:1 20:1 40:0 50:1 60:0 101:6 102:-1 
-0 -0 -1.034892456944421 -0 0 0 0 11:1 20:1 40:0 55:1 60:0 101:6 102:-1 
-0.6903119510502029 -0 -0 -0 0 0 0 12:1 20:0 53:1 57:1 80:0 95:1 100:0 101:6 102:-2 
-0 -0 -0 -0 0.2340787970319511 0 0.0388505825375159 15:1 20:0 32:1 40:0 60:0 69:1 72:1 80:1 92:1 100:1 101:6 102:-1 
-1.522809907385958 -1.437908591946436 -0.3808656684353195 -0.7048005289371123 -0 0.3676914845096468 2.037609128679341 15:1 20:0 22:1 48:1 60:0 73:1 80:0 93:1 97:1 100:1 102:1 
-0 -0.03728271221599089 -0 -0 -0 0 0 15:1 20:0 22:1 40:0 48:1 60:0 73:1 80:0 100:1 102:1 
-2.341161685883099 -0 -0.08509447049196667 -4.118701881616209 -0 0 0.07632840588744887 15:1 20:0 28:1 40:0 42:1 60:0 73:1 80:0 86:1 100:0 102:10 
-0 -1.719535374073505 -0 -0.009325200744536657 -0.02532672608796768 0.3169700071557766 0 15:1 20:0 22:1 42:1 60:0 73:1 80:0 86:1 100:1 102:10 
-0.4474808699934635 -1.722743544487262 -0.03620176205192008 -3.762010162176811 -0.02532672608796721 0.3192852740571288 0.05962070037436046 15:1 20:0 22:1 42:1 60:0 73:1 80:0 85:1 100:1 102:10 
-0 -0.04867245439032884 -0 -0 -0 0 0 15:1 20:0 28:1 40:0 42:1 60:0 73:1 80:1 100:1 102:10 
-0 -0 -0 -0.9795668646639787 -0 0 0 15:1 20:0 22:1 40:0 42:1 60:0 73:1 80:0 92:1 100:1 102:10 
-1.962940938896779 -1.905921149928002 -1.816643764080393 -0 -0 1.003545308339918 0 15:1 20:0 22:1 40:0 48:1 60:0 73:1 80:0 100:1 102:1 
-0.553590709239103 -0.3804207473243745 -0.1834600568191777 -0.2740933651063048 -0.2596711096948177 0.3611871495225007 0.1554872981751695 15:1 20:0 28:1 40:0 42:1 60:0 73:1 80:1 84:1 100:1 102:10 
-1.144274567208116 -0.9791555833450492 -0.7294749104412026 -1.665235089533744 -0.6711699413663059 0.3600827716842795 0 15:1 20:0 22:1 40:0 48:1 60:0 73:1 80:1 88:1 100:1 102:1 
-2.348087748813706 -1.964559751935952 -0.04866861529046226 -3.796071128538535 -0 0.2841693201863032 0.06640871631250944 15:1 20:0 22:1 40:0 42:1 60:0 73:1 80:0 81:1 100:0 102:10 
-0 -0 -1.50005150788657 -26.08204375043419 -10.77233133363526 0.5792774784654793 0 15:1 20:0 22:1 40:0 48:1 60:0 73:1 80:1 100:1 102:1 
-1.917729175214447 -2.10619319722133 -0 -3.83372718349123 -0 0.8699780776332912 0 15:1 20:0 28:1 40:0 42:1 60:0 73:1 80:1 100:1 102:10 
-2.659070737268532 -2.405134680458761 -0 -2.954047943934572 -0 2.184619045028262 0 15:1 20:0 42:1 61:1 80:0 89:1 92:1 100:0 102:10 
-1.388181926629225 -1.343213110818791 -0.2707453193093936 -0.2715639145642793 -0.3838370931256609 0.3536940754602122 0.2704646749913164 15:1 20:0 37:1 42:1 60:0 61:1 80:0 89:1 92:1 100:0 102:10 
-0 -0 -0.1014625685563591 -0 -0.279788979187051 0 0.04325846446520198 15:1 20:0 22:1 40:0 42:1 60:0 61:1 80:0 89:1 92:1 100:0 102:10 
-5.667515313999465 -4.185085574926497 -3.685459479361527 -3.345875530734368 -8.558190244674275 0.6019937854035731 2.513281926817412 15:1 20:0 53:1 57:1 61:1 80:0 89:1 92:1 100:0 102:-2 
-0 -0 -5.125094418486703 -0.03151462347258249 -5.265465228613794 0 5.028264621469344 15:1 73:1 80:0 100:1 101:6 
-0 -0 -0 -0.04080993373549855 -0 0 0 15:1 73:1 80:0 100:0 101:6 
-3.058757674302507 -0.9029773210403798 -3.251916877323207 -0.3317626162427417 -10.61328017334226 0.4056863027261947 4.191900657433593 15:1 73:1 80:0 100:0 101:6 
-0 -0 -0 -0 -0 0 0.9226916139657783 15:1 20:0 28:1 40:0 48:1 60:0 73:1 80:1 100:1 101:1 102:1 
-2.851120555013197 -3.942051389439961 -0.5565172146361917 -0.7185259250242433 -1.501531237469178 1.230851304354754 0.3335939207449579 15:1 20:1 28:1 40:0 48:1 60:0 73:1 80:1 100:1 101:1 102:1 
-0 -0.9077766079496971 -0 -2.234286286273183 -0.08259806817524104 -0.4289577531310396 0 9:1 12:1 20:0 35:1 40:0 41:1 60:0 69:1 80:0 89:1 100:1 102:10 
-0.8330665890388002 -0.2302920008066493 -0.2071054240357995 -1.659975848652016 -1.971593112607131 -0.3593317558062018 0 9:1 20:0 21:1 40:0 49:1 52:1 60:0 69:1 80:1 89:1 92:1 100:1 102:2 
-0.07640964120176669 -0 -0 -0 -0 -0 0 9:1 20:1 29:1 32:1 40:0 49:1 60:0 69:1 72:1 80:1 89:1 92:1 100:1 102:2 
-0 -0.1826483004913241 -0.8590498600632669 -0 -0 -0 0 9:1 12:1 20:1 29:1 40:0 49:1 60:1 69:1 72:1 80:1 102:2 
-0 -0 -0 -0.008728410068726688 -0 -0 0 9:1 12:1 20:1 29:1 40:1 49:1 52:1 60:1 102:2 
-0 -0 -0 -0 -0 -0.02676298149510049 0 9:1 12:1 20:0 35:1 40:0 41:1 60:0 69:1 80:1 89:1 100:1 102:10 
-1.268232454581494 -1.446437075276811 -0.2959863598468527 -0.3849422642632761 -0.2934320528174216 -1.380372502505864 0.2751944427882879 9:1 12:1 20:0 35:1 40:0 41:1 60:0 69:1 80:1 89:1 100:1 102:10 
-0.4928337637971597 -0 -0 -0 -0 -0 0 9:1 20:1 29:1 32:1 40:0 49:1 60:1 69:1 72:1 80:1 89:1 92:1 100:1 102:2 
-0 -0.1918076067193427 -0 -0 -0.7344897629707944 -0 0 9:1 12:1 20:1 29:1 40:1 49:1 60:1 69:1 72:1 80:1 102:2 
-4.501180034199815 -1.557943836184884 -0.9615964749084247 -1.006835340521179 -1.877947940235679 -1.064267231525998 0.9463636220724425 9:1 12:1 20:1 29:1 40:1 49:1 52:1 60:1 102:2 
-3.585636862664301 -2.632385177043226 -0.3755992415929106 -2.802462412797399 -0.3456436533323026 -2.664916222752273 0.3639420479041096 9:1 12:1 20:0 35:1 40:0 41:1 60:0 69:1 80:0 89:1 100:0 102:10 
-0 -1.367099764201741 -1.032755886459477 -0 -0 -1.176000225841798 1.200691427920244 9:1 20:0 21:1 40:0 49:1 52:1 60:0 69:1 80:0 89:1 92:1 100:1 102:2 
-1.686999128240738 -0.5298795554371192 -0.4632655860477312 -0.8071545293785877 -1.338950224118431 -0.8898690257140858 0.3677379986229313 9:1 20:0 29:1 32:1 40:0 49:1 60:0 69:1 72:1 80:1 89:1 92:1 100:1 102:2 
-0 -0.5173863198138671 -0.08418274127715698 -0.8939366274150585 -0.4406909506950583 -0.5980587219467347 0.6532891051638166 9:1 12:1 20:1 29:1 40:0 49:1 60:0 69:1 72:1 80:1 82:1 100:1 102:2 
-2.485633453643781 -1.150393030762752 -0.8067283840404214 -0.9271039784395255 -0.7783024188173676 -0.6504949638082248 0.2591914960419495 9:1 12:1 20:1 29:1 40:0 49:1 52:1 60:1 62:1 80:1 82:1 100:1 102:2 
-3.68293785678829 -3.898898125273718 -2.53693346615915 -4.23972771237367 -2.215341707360297 -2.208705441099275 -1.49552219861569 16:1 73:1 77:1 80:0 82:1 100:1 101:1 
-3.2766584953849 -2.697283627273919 -0.877221888212901 -1.584360510056921 -1.034379484033194 -1.994909130928774 -0.7348275180278133 16:1 76:1 80:0 93:1 97:1 100:0 101:1 
-0.1142347819417855 -0.2148951182693629 -0 -0 -0 -0 -0 16:1 20:0 56:1 73:1 77:1 80:0 82:1 100:1 101:1 102:-4 
-4.050414143052035 -4.417803258521487 -2.508953985223771 -2.509431441266287 -2.851139686919245 -0.8815583389625949 -1.064169229974391 16:1 76:1 80:0 96:1 100:0 101:1 
-0.8927135310146532 -0.3803171918671396 -1.011970570784381 -0.960799832440247 -1.021607345877212 -0.578373656580914 -0 16:1 20:0 56:1 76:1 80:0 93:1 97:1 100:1 101:1 102:-4 
-0.7794115337202476 -0.6386031012296804 -2.43850976493747 -1.638799280165543 -1.11512965680598 -0.5818924576792641 -0 16:1 20:0 36:1 56:1 60:0 73:1 77:1 80:1 82:1 100:1 101:1 102:-4 
-0 -0 -0 -0 -0 -0.01402838582671746 -0 16:1 73:1 77:1 80:0 82:1 100:1 101:6 
-0 -0 -0 -0 -0 -0.007470595741494743 -0 16:1 76:1 80:0 96:1 100:0 101:6 
-0 -0 -0.001649244830748198 -0.003522078336186155 -0 -0.009481294188863681 -0 16:1 20:0 56:1 76:1 80:0 93:1 97:1 100:1 101:6 102:-4 
-0.144043585999247 -0.03004118609625908 -3.88848310555971 -0 -4.477970828594799 -4.904488941189761 -0 16:1 73:1 77:1 80:0 82:1 100:1 101:6 
-0.2824002773851543 -0.1768806818040576 -0.004981256292856235 -0 -2.638246811522293 -1.241288132395045 -0.1327260035822732 16:1 76:1 80:0 93:1 97:1 100:0 101:6 
-0 -0 -0.1139222483262947 -0 -0.07212512924250479 -0 -0 16:1 20:0 56:1 73:1 77:1 80:0 82:1 100:1 101:6 102:-4 
-1.282611092370528 -0.1337992968514252 -1.790457703540685 -0 -5.734371413173396 -2.712300009836442 -0.06770633596973993 16:1 76:1 80:0 96:1 100:0 101:6 
-0.6867011621586004 -0.1556111673899742 -1.910601189512471 -0.07800184152344151 -0.7221001115622969 -0.2080642046687212 -0.1878314148448474 16:1 20:0 56:1 76:1 80:0 93:1 97:1 100:1 101:6 102:-4 
-1.332757296610224 -0.2749060383237169 -1.43842380635183 -0.03458501736213646 -0.5041862165755123 -0.3563495402185638 -0.383627439499027 16:1 20:0 36:1 56:1 60:0 73:1 77:1 80:1 82:1 100:1 101:6 102:-4 
>>>>>>> prevLabelParam
