svm_type c_svc
kernel_type rbf
gamma 0.03125
nr_class 3
total_sv 11
rho 0.713621 -0.0464424 -0.472695
label 1 0 9
probA -2.7263 -1.75122 -1.67908
probB 0.46187 -0.652243 -0.619421
nr_sv 5 5 1
SV
24.26842140797708 10.39170807893982 1:1 104:0 130:1 138:1 
0.3695711882810738 0.209097772750533 1:1 135:1 138:1 
0.3615007102608974 0.2052363408071609 1:1 136:1 138:1 
0.3615007102608965 0.1986733909872295 1:1 134:1 138:1 
0.3537820916536608 0.1942158942927524 1:1 131:1 138:1 
-7.375274812914682 4.190403857120751 79:1 104:0 130:1 138:1 
-2.112933437155283 1.289073576005781 26:0 53:1 130:1 139:1 
-7.383273783573725 4.181459882474297 104:0 128:1 130:1 138:1 
-7.384351224796322 4.177880167582225 26:0 102:1 104:0 130:1 138:1 
-1.4589428499936 0.9559679431986675 26:1 52:0 76:1 78:0 130:1 147:1 
-11.1989314777775 -14.79478542638172 24:1 26:0 78:0 104:1 130:1 138:1 
